~o
<STREAMINFO> 1 39
<VECSIZE> 39<NULLD><MFCC_D_A_0><DIAGC>
~h "bagi"
<BEGINHMM>
<NUMSTATES> 6
<STATE> 2
<MEAN> 39
 0.000000e+00 0.000000e+00 0.000000e+00 0.000000e+00 0.000000e+00 0.000000e+00 0.000000e+00 0.000000e+00 0.000000e+00 0.000000e+00 0.000000e+00 0.000000e+00 0.000000e+00 0.000000e+00 0.000000e+00 0.000000e+00 0.000000e+00 0.000000e+00 0.000000e+00 0.000000e+00 0.000000e+00 0.000000e+00 0.000000e+00 0.000000e+00 0.000000e+00 0.000000e+00 0.000000e+00 0.000000e+00 0.000000e+00 0.000000e+00 0.000000e+00 0.000000e+00 0.000000e+00 0.000000e+00 0.000000e+00 0.000000e+00 0.000000e+00 0.000000e+00 0.000000e+00
<VARIANCE> 39
 4.951918e+01 7.564935e+01 8.030527e+01 1.285166e+02 8.061757e+01 1.326164e+02 9.453093e+01 8.996565e+01 3.728580e+01 5.829803e+01 5.259800e+01 5.183392e+01 1.137427e+02 2.043050e+00 2.765946e+00 2.396250e+00 2.923911e+00 2.717301e+00 4.911784e+00 3.249402e+00 2.451355e+00 3.095493e+00 2.881656e+00 2.738330e+00 2.568858e+00 2.061983e+00 2.703852e-01 4.242435e-01 3.886705e-01 4.371352e-01 4.483411e-01 7.921993e-01 5.487236e-01 4.669606e-01 5.653855e-01 5.332516e-01 5.004796e-01 4.551011e-01 2.901733e-01
<GCONST> 1.307594e+02
<STATE> 3
<MEAN> 39
 0.000000e+00 0.000000e+00 0.000000e+00 0.000000e+00 0.000000e+00 0.000000e+00 0.000000e+00 0.000000e+00 0.000000e+00 0.000000e+00 0.000000e+00 0.000000e+00 0.000000e+00 0.000000e+00 0.000000e+00 0.000000e+00 0.000000e+00 0.000000e+00 0.000000e+00 0.000000e+00 0.000000e+00 0.000000e+00 0.000000e+00 0.000000e+00 0.000000e+00 0.000000e+00 0.000000e+00 0.000000e+00 0.000000e+00 0.000000e+00 0.000000e+00 0.000000e+00 0.000000e+00 0.000000e+00 0.000000e+00 0.000000e+00 0.000000e+00 0.000000e+00 0.000000e+00
<VARIANCE> 39
 4.951918e+01 7.564935e+01 8.030527e+01 1.285166e+02 8.061757e+01 1.326164e+02 9.453093e+01 8.996565e+01 3.728580e+01 5.829803e+01 5.259800e+01 5.183392e+01 1.137427e+02 2.043050e+00 2.765946e+00 2.396250e+00 2.923911e+00 2.717301e+00 4.911784e+00 3.249402e+00 2.451355e+00 3.095493e+00 2.881656e+00 2.738330e+00 2.568858e+00 2.061983e+00 2.703852e-01 4.242435e-01 3.886705e-01 4.371352e-01 4.483411e-01 7.921993e-01 5.487236e-01 4.669606e-01 5.653855e-01 5.332516e-01 5.004796e-01 4.551011e-01 2.901733e-01
<GCONST> 1.307594e+02
<STATE> 4
<MEAN> 39
 0.000000e+00 0.000000e+00 0.000000e+00 0.000000e+00 0.000000e+00 0.000000e+00 0.000000e+00 0.000000e+00 0.000000e+00 0.000000e+00 0.000000e+00 0.000000e+00 0.000000e+00 0.000000e+00 0.000000e+00 0.000000e+00 0.000000e+00 0.000000e+00 0.000000e+00 0.000000e+00 0.000000e+00 0.000000e+00 0.000000e+00 0.000000e+00 0.000000e+00 0.000000e+00 0.000000e+00 0.000000e+00 0.000000e+00 0.000000e+00 0.000000e+00 0.000000e+00 0.000000e+00 0.000000e+00 0.000000e+00 0.000000e+00 0.000000e+00 0.000000e+00 0.000000e+00
<VARIANCE> 39
 4.951918e+01 7.564935e+01 8.030527e+01 1.285166e+02 8.061757e+01 1.326164e+02 9.453093e+01 8.996565e+01 3.728580e+01 5.829803e+01 5.259800e+01 5.183392e+01 1.137427e+02 2.043050e+00 2.765946e+00 2.396250e+00 2.923911e+00 2.717301e+00 4.911784e+00 3.249402e+00 2.451355e+00 3.095493e+00 2.881656e+00 2.738330e+00 2.568858e+00 2.061983e+00 2.703852e-01 4.242435e-01 3.886705e-01 4.371352e-01 4.483411e-01 7.921993e-01 5.487236e-01 4.669606e-01 5.653855e-01 5.332516e-01 5.004796e-01 4.551011e-01 2.901733e-01
<GCONST> 1.307594e+02
<STATE> 5
<MEAN> 39
 0.000000e+00 0.000000e+00 0.000000e+00 0.000000e+00 0.000000e+00 0.000000e+00 0.000000e+00 0.000000e+00 0.000000e+00 0.000000e+00 0.000000e+00 0.000000e+00 0.000000e+00 0.000000e+00 0.000000e+00 0.000000e+00 0.000000e+00 0.000000e+00 0.000000e+00 0.000000e+00 0.000000e+00 0.000000e+00 0.000000e+00 0.000000e+00 0.000000e+00 0.000000e+00 0.000000e+00 0.000000e+00 0.000000e+00 0.000000e+00 0.000000e+00 0.000000e+00 0.000000e+00 0.000000e+00 0.000000e+00 0.000000e+00 0.000000e+00 0.000000e+00 0.000000e+00
<VARIANCE> 39
 4.951918e+01 7.564935e+01 8.030527e+01 1.285166e+02 8.061757e+01 1.326164e+02 9.453093e+01 8.996565e+01 3.728580e+01 5.829803e+01 5.259800e+01 5.183392e+01 1.137427e+02 2.043050e+00 2.765946e+00 2.396250e+00 2.923911e+00 2.717301e+00 4.911784e+00 3.249402e+00 2.451355e+00 3.095493e+00 2.881656e+00 2.738330e+00 2.568858e+00 2.061983e+00 2.703852e-01 4.242435e-01 3.886705e-01 4.371352e-01 4.483411e-01 7.921993e-01 5.487236e-01 4.669606e-01 5.653855e-01 5.332516e-01 5.004796e-01 4.551011e-01 2.901733e-01
<GCONST> 1.307594e+02
<TRANSP> 6
 0.000000e+00 5.000000e-01 5.000000e-01 0.000000e+00 0.000000e+00 0.000000e+00
 0.000000e+00 4.000000e-01 3.000000e-01 3.000000e-01 0.000000e+00 0.000000e+00
 0.000000e+00 0.000000e+00 4.000000e-01 3.000000e-01 3.000000e-01 0.000000e+00
 0.000000e+00 0.000000e+00 0.000000e+00 4.000000e-01 3.000000e-01 3.000000e-01
 0.000000e+00 0.000000e+00 0.000000e+00 0.000000e+00 5.000000e-01 5.000000e-01
 0.000000e+00 0.000000e+00 0.000000e+00 0.000000e+00 0.000000e+00 0.000000e+00
<ENDHMM>
