~o
<STREAMINFO> 1 39
<VECSIZE> 39<NULLD><MFCC_D_A_0><DIAGC>
~h "bagi"
<BEGINHMM>
<NUMSTATES> 6
<STATE> 2
<MEAN> 39
 9.445936e-01 5.331975e+00 -2.270049e+00 6.679679e+00 3.542122e+00 -2.595510e+00 -1.435077e+00 8.204449e+00 1.147689e+00 -4.925613e+00 -2.963180e+00 -1.865891e-01 5.606627e+01 1.439334e+00 -3.133150e-01 -5.488232e-01 1.467404e-01 -4.334451e-01 -1.155698e+00 -8.820519e-01 1.496602e-01 -6.622545e-01 -9.102002e-01 3.766629e-01 4.193121e-01 1.021042e+00 -1.109161e-02 -4.246895e-01 5.665856e-02 -1.669229e-01 -2.564167e-01 -2.196357e-02 -1.211411e-01 -1.192906e-01 2.715597e-02 2.241174e-02 2.681887e-01 3.256929e-01 2.264892e-01
<VARIANCE> 39
 6.340309e+01 3.889238e+01 3.689814e+01 4.706539e+01 4.446091e+01 8.116342e+01 3.244012e+01 4.446586e+01 5.164567e+01 5.514282e+01 4.294370e+01 4.120314e+01 1.272091e+02 2.359984e+00 6.772484e+00 4.892685e+00 3.593934e+00 5.147195e+00 8.974389e+00 4.135414e+00 3.173146e+00 4.985431e+00 3.512035e+00 6.077003e+00 5.777440e+00 2.696770e+00 4.997792e-01 6.222439e-01 9.784975e-01 4.820676e-01 8.139198e-01 1.756392e+00 6.737375e-01 6.167108e-01 1.070109e+00 6.278846e-01 9.373899e-01 7.631487e-01 4.324180e-01
<GCONST> 1.381386e+02
<STATE> 3
<MEAN> 39
 2.318556e+00 -2.041399e+00 -8.622338e+00 2.967744e+00 4.731214e+00 -8.239689e+00 -1.027746e+01 1.074806e+00 -6.865112e+00 1.753596e+00 1.151881e+01 9.326808e+00 7.270000e+01 -3.832124e-01 1.878516e-01 3.112873e-01 3.845077e-01 1.175865e-01 4.768088e-01 2.841358e-01 -3.328536e-01 4.942213e-02 4.283818e-02 -2.582704e-02 1.028720e-01 -3.788698e-01 -1.581251e-01 1.032888e-04 2.329953e-01 1.549218e-01 1.386029e-01 1.034087e-01 1.041433e-01 3.673996e-02 1.619549e-02 -3.554133e-02 -1.780332e-01 -2.397688e-01 -6.158265e-02
<VARIANCE> 39
 8.630892e+00 2.136352e+01 9.146579e+00 1.410574e+01 1.649310e+01 2.708601e+01 3.477521e+01 2.210464e+01 2.146953e+01 3.332647e+01 2.694791e+01 1.147596e+01 2.910147e+01 4.212137e-01 1.701143e+00 1.257286e+00 7.777883e-01 9.278268e-01 2.369215e+00 2.111044e+00 1.328200e+00 2.019198e+00 1.465764e+00 1.912063e+00 1.946800e+00 6.458439e-01 6.980310e-02 3.127211e-01 1.986738e-01 2.046879e-01 2.514118e-01 4.928562e-01 4.539593e-01 2.704561e-01 4.094611e-01 2.719694e-01 2.872279e-01 3.727585e-01 1.423204e-01
<GCONST> 9.601260e+01
<STATE> 4
<MEAN> 39
 2.606065e+00 -9.883300e-01 2.197520e+00 1.630136e+01 7.337504e+00 -4.468593e-01 -6.261634e+00 6.816653e+00 -4.986612e-01 -9.958791e+00 4.467834e+00 4.800366e-01 5.342364e+01 -4.985710e-01 -1.846154e-01 3.125693e-01 4.512087e-01 8.055292e-01 8.057318e-02 -3.762247e-01 -2.244641e-01 3.609622e-02 5.102504e-01 2.950420e-01 -3.366555e-01 -1.935501e-01 2.404586e-02 8.741526e-02 -1.203943e-01 -5.479343e-02 -3.446253e-02 -1.255724e-01 7.821969e-02 2.830044e-02 -2.830252e-02 7.423060e-02 -9.766049e-02 -5.551889e-02 -3.646781e-02
<VARIANCE> 39
 2.436139e+01 3.940918e+01 4.452657e+01 7.559541e+01 5.741068e+01 4.959578e+01 6.813355e+01 3.211428e+01 3.016180e+01 7.467443e+01 3.492109e+01 4.090836e+01 3.830668e+01 2.420891e+00 4.887038e+00 4.863379e+00 5.588341e+00 4.332649e+00 6.675924e+00 7.267185e+00 3.640641e+00 4.142953e+00 6.914388e+00 4.247447e+00 4.092660e+00 2.855730e+00 3.785393e-01 9.096001e-01 8.986647e-01 1.006736e+00 8.059602e-01 1.289103e+00 1.452519e+00 7.606499e-01 8.836791e-01 1.467504e+00 8.660327e-01 7.844930e-01 4.977239e-01
<GCONST> 1.387609e+02
<STATE> 5
<MEAN> 39
 -5.861227e+00 -3.382473e+00 1.770285e+00 1.469720e+01 1.350652e+01 -3.194023e+00 -1.003690e+01 -1.449639e-01 -4.903823e+00 5.702470e-01 5.058016e+00 6.204535e-01 6.848835e+01 -4.064029e-01 1.352657e-01 2.252240e-01 -1.448721e-01 2.201524e-01 4.461368e-01 5.714670e-02 -2.059666e-01 2.629215e-01 2.743250e-02 -3.635486e-01 -4.748947e-01 -1.580735e-01 4.555316e-02 1.220676e-01 -1.239296e-01 -2.188247e-01 -1.372445e-01 1.019180e-01 6.060634e-02 -6.080300e-02 2.340935e-02 -1.751612e-02 1.420284e-03 7.361030e-02 -1.392170e-02
<VARIANCE> 39
 1.861260e+01 1.530580e+01 2.680507e+01 3.428804e+01 2.503354e+01 2.736629e+01 2.787978e+01 2.267913e+01 2.836121e+01 1.843301e+01 1.882262e+01 9.689759e+00 3.612664e+01 1.348435e+00 1.838329e+00 2.497071e+00 4.172579e+00 3.891814e+00 2.213095e+00 4.082709e+00 1.995838e+00 2.566357e+00 1.527857e+00 1.920730e+00 1.642154e+00 8.740133e-01 1.982289e-01 2.972950e-01 3.080244e-01 4.244844e-01 4.728196e-01 4.001536e-01 6.187836e-01 4.178503e-01 4.957696e-01 2.821016e-01 3.875827e-01 3.357770e-01 1.335899e-01
<GCONST> 1.081642e+02
<TRANSP> 6
 0.000000e+00 9.250000e-01 7.500000e-02 0.000000e+00 0.000000e+00 0.000000e+00
 0.000000e+00 8.778878e-01 1.221122e-01 0.000000e+00 0.000000e+00 0.000000e+00
 0.000000e+00 0.000000e+00 8.907104e-01 1.092896e-01 0.000000e+00 0.000000e+00
 0.000000e+00 0.000000e+00 0.000000e+00 9.009901e-01 9.900989e-02 0.000000e+00
 0.000000e+00 0.000000e+00 0.000000e+00 0.000000e+00 8.644068e-01 1.355932e-01
 0.000000e+00 0.000000e+00 0.000000e+00 0.000000e+00 0.000000e+00 0.000000e+00
<ENDHMM>
