~o
<STREAMINFO> 1 39
<VECSIZE> 39<NULLD><PLP_D_A_0><DIAGC>
~h "delapan"
<BEGINHMM>
<NUMSTATES> 8
<STATE> 2
<MEAN> 39
 -2.032390e-01 -7.488596e-01 -7.548270e-01 -6.413957e-02 -4.233297e-01 -8.423629e-01 -8.420560e-01 -8.735911e-01 -5.312030e-01 -5.875426e-01 -8.834513e-02 3.421893e-01 5.055755e+00 1.362032e-01 -6.693167e-02 -3.914564e-02 -1.086402e-01 -1.742827e-01 -5.319352e-02 2.282955e-02 4.030789e-02 8.202799e-02 2.485482e-02 2.803518e-02 7.993857e-02 1.588670e-01 -3.115802e-02 -4.656809e-04 -1.015646e-02 -3.346200e-02 -3.334432e-02 1.176242e-02 4.975213e-02 4.680819e-02 4.596196e-02 2.459553e-02 -8.847509e-04 -6.342583e-03 -2.382704e-02
<VARIANCE> 39
 2.834883e-01 4.944768e-01 3.818520e-01 5.601599e-01 5.230241e-01 5.213299e-01 3.837724e-01 4.000002e-01 4.467588e-01 3.365873e-01 5.378172e-01 2.291395e-01 1.111290e+00 2.766624e-02 4.460553e-02 4.927445e-02 4.977338e-02 5.848184e-02 4.165838e-02 5.847754e-02 5.381345e-02 5.556760e-02 4.081976e-02 4.037459e-02 2.705722e-02 2.223419e-02 1.000000e-02 1.000000e-02 1.000000e-02 1.000000e-02 1.000000e-02 1.000000e-02 1.000000e-02 1.000000e-02 1.000000e-02 1.000000e-02 1.000000e-02 1.000000e-02 1.000000e-02
<GCONST> -3.995429e+01
<STATE> 3
<MEAN> 39
 5.339273e-03 -1.188791e+00 -1.000987e+00 -1.136375e+00 -1.269414e+00 -1.164117e+00 1.121184e-01 -3.276524e-01 1.014113e-01 -3.339040e-01 5.893617e-02 5.131314e-01 5.779444e+00 -7.325415e-02 1.099792e-01 -3.153914e-02 -2.647374e-03 5.916193e-03 9.692076e-03 5.537911e-02 9.707835e-02 2.908427e-02 -1.963185e-02 -4.546814e-02 -4.736589e-02 -1.602334e-01 -4.180093e-02 3.641551e-02 8.809937e-03 3.321072e-02 7.151683e-02 -1.941192e-03 -3.757575e-02 -2.174730e-02 -5.259371e-02 -1.659386e-02 -1.505652e-03 -1.911965e-02 -5.757812e-02
<VARIANCE> 39
 6.407598e-02 5.563737e-01 5.420541e-01 5.788310e-01 3.641579e-01 6.457387e-01 9.381351e-01 5.171717e-01 3.346427e-01 3.211392e-01 2.557924e-01 1.657359e-01 8.557803e-01 1.194598e-02 2.895929e-02 1.635610e-02 1.877916e-02 4.490631e-02 2.788458e-02 3.112138e-02 1.982335e-02 3.609514e-02 1.940547e-02 1.374046e-02 1.493045e-02 3.671141e-02 1.000000e-02 1.000000e-02 1.000000e-02 1.000000e-02 1.000000e-02 1.000000e-02 1.000000e-02 1.000000e-02 1.000000e-02 1.000000e-02 1.000000e-02 1.000000e-02 1.000000e-02
<GCONST> -4.959221e+01
<STATE> 4
<MEAN> 39
 -7.808611e-01 -3.858820e-01 -8.896087e-01 -8.313338e-01 -7.624456e-01 -1.003305e+00 -1.904933e-01 -2.454471e-01 -2.075778e-01 -4.504268e-01 -1.819955e-02 2.235112e-01 4.474203e+00 8.227804e-03 -6.937769e-02 -3.498310e-02 -1.544829e-02 5.745212e-03 -3.942537e-02 1.104713e-02 6.029166e-03 -2.154437e-02 8.437533e-03 3.601584e-02 -1.300039e-02 6.564336e-02 9.300211e-02 -7.089408e-02 -3.522031e-03 -1.186482e-02 -6.159325e-02 -5.525300e-03 1.824069e-02 -1.622005e-02 3.296588e-02 3.603883e-03 2.244483e-03 2.996138e-02 1.264390e-01
<VARIANCE> 39
 2.524213e-01 3.280959e-01 3.884555e-01 5.195175e-01 3.177004e-01 2.189882e-01 4.340413e-01 2.789685e-01 1.358276e-01 1.503750e-01 1.218438e-01 1.013155e-01 8.586628e-01 7.723837e-02 3.656489e-02 1.991007e-02 2.428061e-02 5.087377e-02 3.168374e-02 1.800312e-02 2.417458e-02 2.819956e-02 1.272878e-02 1.234235e-02 1.605950e-02 9.876097e-02 1.000000e-02 1.000000e-02 1.000000e-02 1.000000e-02 1.000000e-02 1.000000e-02 1.000000e-02 1.000000e-02 1.000000e-02 1.000000e-02 1.000000e-02 1.000000e-02 1.000000e-02
<GCONST> -5.194383e+01
<STATE> 5
<MEAN> 39
 8.843699e-02 -1.274732e+00 -1.067892e+00 -1.253190e+00 -1.229330e+00 -1.115194e+00 1.990875e-01 -4.060823e-01 4.738282e-02 -3.531921e-01 1.678063e-01 5.073330e-01 6.035316e+00 5.763142e-02 1.665646e-02 5.552225e-02 5.914145e-02 8.840568e-02 2.870002e-02 -2.793878e-02 -6.109724e-02 -1.649741e-02 -1.049723e-02 -2.664676e-02 -1.956255e-03 5.349350e-02 -5.392108e-02 8.787046e-02 3.195872e-02 5.370261e-02 8.771762e-02 -8.396587e-03 -4.499792e-02 -9.972168e-04 -2.951075e-02 -2.250902e-02 -4.591652e-02 -4.244101e-02 -1.019227e-01
<VARIANCE> 39
 5.845568e-02 4.991522e-01 3.867023e-01 6.899840e-01 5.204187e-01 6.357455e-01 8.408377e-01 7.088357e-01 2.792847e-01 2.284305e-01 2.667088e-01 1.259911e-01 8.232769e-01 1.988245e-02 4.930426e-02 2.761663e-02 3.112478e-02 6.597380e-02 3.318280e-02 2.616768e-02 2.473990e-02 3.570536e-02 1.762427e-02 3.234472e-02 2.316082e-02 5.577980e-02 1.000000e-02 1.000000e-02 1.000000e-02 1.000000e-02 1.000000e-02 1.000000e-02 1.000000e-02 1.000000e-02 1.000000e-02 1.000000e-02 1.000000e-02 1.000000e-02 1.000000e-02
<GCONST> -4.591617e+01
<STATE> 6
<MEAN> 39
 -1.395316e-01 -1.896237e-01 -4.870071e-01 -1.797585e-01 4.603073e-02 -1.178750e+00 -5.362496e-01 -5.909201e-01 -3.214775e-01 -7.279562e-01 -5.723562e-01 -7.594212e-02 5.112343e+00 -8.263124e-02 1.991747e-01 1.011669e-01 1.413139e-01 1.835402e-01 -1.351668e-02 -8.160684e-02 1.939245e-02 -2.832524e-02 -7.344475e-02 -1.564499e-01 -1.323155e-01 -1.684687e-01 -8.294875e-03 -6.316874e-02 -3.995066e-02 -7.234426e-02 -8.180047e-02 2.725181e-02 4.841106e-02 4.602411e-03 4.158122e-03 2.595527e-02 6.774564e-02 3.964941e-02 2.819097e-02
<VARIANCE> 39
 7.918902e-02 3.144140e-01 4.129239e-01 7.199644e-01 3.244368e-01 7.421553e-01 4.315553e-01 6.618176e-01 2.003744e-01 2.233469e-01 2.970478e-01 2.167760e-01 8.161226e-01 1.000000e-02 2.084272e-02 2.308390e-02 2.758568e-02 4.084649e-02 3.654328e-02 2.625985e-02 2.054469e-02 1.949789e-02 2.002286e-02 3.051548e-02 2.090560e-02 1.000000e-02 1.000000e-02 1.000000e-02 1.000000e-02 1.000000e-02 1.000000e-02 1.000000e-02 1.000000e-02 1.000000e-02 1.000000e-02 1.000000e-02 1.000000e-02 1.000000e-02 1.000000e-02
<GCONST> -5.150336e+01
<STATE> 7
<MEAN> 39
 -4.366129e-01 -5.151209e-01 -6.253426e-01 -8.033153e-01 -3.514936e-01 -1.105770e+00 -2.472467e-01 -6.939094e-01 -3.817042e-01 -6.591563e-01 -2.011390e-01 1.676802e-01 5.186867e+00 -3.171543e-02 -1.461899e-01 -6.229810e-02 -1.057012e-01 -1.253022e-01 3.268147e-02 3.690439e-02 -1.881423e-02 5.278753e-03 6.056703e-02 1.251494e-01 8.246162e-02 4.900460e-02 9.929908e-03 -1.244371e-02 1.164121e-03 -1.512442e-03 -7.891026e-03 -1.190210e-02 -6.298338e-03 3.009174e-04 9.694594e-03 4.984875e-03 3.663502e-04 5.363365e-03 2.005133e-02
<VARIANCE> 39
 4.979500e-01 6.141800e-01 4.815467e-01 8.426775e-01 6.456421e-01 5.567717e-01 7.378840e-01 5.913525e-01 3.892519e-01 3.217989e-01 3.220413e-01 2.659602e-01 1.104822e+00 3.084507e-02 3.322636e-02 3.900446e-02 2.830038e-02 4.382984e-02 4.540519e-02 2.424744e-02 3.557259e-02 3.996810e-02 2.596265e-02 2.867568e-02 2.261152e-02 2.550422e-02 1.000000e-02 1.000000e-02 1.000000e-02 1.000000e-02 1.000000e-02 1.000000e-02 1.000000e-02 1.000000e-02 1.000000e-02 1.000000e-02 1.000000e-02 1.000000e-02 1.000000e-02
<GCONST> -4.141226e+01
<TRANSP> 8
 0.000000e+00 7.250000e-01 2.750000e-01 0.000000e+00 0.000000e+00 0.000000e+00 0.000000e+00 0.000000e+00
 0.000000e+00 7.875458e-01 2.124542e-01 0.000000e+00 0.000000e+00 0.000000e+00 0.000000e+00 0.000000e+00
 0.000000e+00 0.000000e+00 7.640118e-01 2.271387e-01 8.849557e-03 0.000000e+00 0.000000e+00 0.000000e+00
 0.000000e+00 0.000000e+00 0.000000e+00 7.761628e-01 2.238372e-01 0.000000e+00 0.000000e+00 0.000000e+00
 0.000000e+00 0.000000e+00 0.000000e+00 0.000000e+00 7.979798e-01 2.020202e-01 0.000000e+00 0.000000e+00
 0.000000e+00 0.000000e+00 0.000000e+00 0.000000e+00 0.000000e+00 7.468355e-01 2.531646e-01 0.000000e+00
 0.000000e+00 0.000000e+00 0.000000e+00 0.000000e+00 0.000000e+00 0.000000e+00 8.202247e-01 1.797753e-01
 0.000000e+00 0.000000e+00 0.000000e+00 0.000000e+00 0.000000e+00 0.000000e+00 0.000000e+00 0.000000e+00
<ENDHMM>
