~o
<STREAMINFO> 1 39
<VECSIZE> 39<NULLD><MFCC_D_A_0><DIAGC>
~h "delapan"
<BEGINHMM>
<NUMSTATES> 6
<STATE> 2
<MEAN> 39
 2.462938e+00 2.787793e+00 -3.738950e+00 8.761470e+00 3.304785e+00 -3.112767e-02 -4.506041e+00 2.102280e+00 8.845725e-01 -7.576994e+00 -3.466144e+00 4.779850e+00 5.454754e+01 5.860966e-01 -3.094571e-01 -1.173375e-01 -2.477170e-01 -4.218200e-01 -1.467195e-01 -3.282002e-01 -1.106345e-01 7.505598e-02 -3.246051e-01 8.324395e-02 4.696880e-01 5.687568e-01 -4.739077e-02 -7.963865e-02 4.922330e-02 -1.202997e-01 -2.410368e-01 3.289747e-02 1.398312e-01 2.057215e-02 1.179966e-01 1.300004e-01 5.865368e-02 5.203612e-02 1.532944e-02
<VARIANCE> 39
 5.341088e+01 5.719433e+01 4.657515e+01 5.076169e+01 9.461548e+01 4.967369e+01 4.606347e+01 5.206928e+01 7.441682e+01 5.113441e+01 7.501733e+01 3.964300e+01 1.053247e+02 2.969537e+00 6.321661e+00 5.136084e+00 4.186064e+00 8.608425e+00 5.336502e+00 4.579764e+00 4.617449e+00 5.182251e+00 4.830635e+00 5.081237e+00 3.367469e+00 2.575276e+00 3.663110e-01 1.196195e+00 8.394311e-01 6.699402e-01 1.268150e+00 9.632552e-01 8.472015e-01 8.307407e-01 9.549558e-01 9.655845e-01 9.421534e-01 5.435923e-01 3.094245e-01
<GCONST> 1.410166e+02
<STATE> 3
<MEAN> 39
 1.829242e+00 2.956280e+00 -2.414390e-02 4.419958e+00 -6.976657e+00 1.146130e+00 -3.144452e-01 1.347593e+00 4.282761e+00 -6.826213e+00 -3.394746e+00 7.881605e+00 5.553354e+01 -5.533760e-02 1.557291e-01 -7.060131e-02 2.162625e-01 3.347978e-01 -1.237680e-01 1.840255e-01 2.623182e-01 -1.636280e-01 1.963080e-01 1.520430e-01 -2.302827e-01 -1.242641e-01 -1.382065e-02 1.750249e-01 -1.152101e-01 1.727811e-01 3.544739e-01 -1.445109e-01 -7.917266e-02 1.073319e-01 -4.670037e-02 -3.835418e-02 -1.255810e-01 -1.752804e-01 -1.124371e-01
<VARIANCE> 39
 5.148249e+01 5.889732e+01 3.374538e+01 2.828686e+01 6.643576e+01 3.454282e+01 2.014974e+01 6.406435e+01 4.140544e+01 2.828022e+01 3.047758e+01 3.869553e+01 1.139745e+02 3.694806e+00 4.870450e+00 3.299510e+00 4.213831e+00 9.900101e+00 3.292125e+00 2.479532e+00 3.532491e+00 4.253110e+00 2.248165e+00 3.355758e+00 4.407391e+00 3.683890e+00 5.078493e-01 7.777455e-01 6.630830e-01 7.725335e-01 1.816518e+00 7.061138e-01 5.207133e-01 7.234992e-01 8.007458e-01 4.283913e-01 7.193978e-01 7.928056e-01 4.097430e-01
<GCONST> 1.329146e+02
<STATE> 4
<MEAN> 39
 1.090941e+00 -3.103155e+00 -1.375846e+01 -2.314279e+00 2.863400e-01 -6.229143e+00 -2.315988e+00 7.449513e+00 2.004304e+00 3.546030e-01 3.996955e+00 9.747866e+00 7.270464e+01 -1.457623e-01 1.541615e-01 1.029151e-01 2.730043e-02 4.587159e-02 1.831293e-01 2.183021e-01 1.868407e-01 1.675274e-01 -1.047972e-02 -2.088020e-01 -1.174297e-01 -1.697164e-01 -2.131147e-02 2.753272e-02 3.323746e-02 5.091975e-02 4.304693e-02 3.391864e-02 -2.080522e-02 -4.465249e-02 -5.305531e-02 -3.425558e-02 -2.163476e-02 -4.337951e-02 -3.033212e-02
<VARIANCE> 39
 1.502497e+01 2.343101e+01 1.300100e+01 2.392559e+01 3.439754e+01 3.670441e+01 1.425644e+01 1.577563e+01 2.250461e+01 1.512352e+01 2.110871e+01 1.342005e+01 2.540695e+01 8.886011e-01 1.284516e+00 8.867086e-01 1.472814e+00 1.348020e+00 1.526447e+00 1.173666e+00 1.311281e+00 1.781898e+00 1.341844e+00 1.707433e+00 1.031269e+00 1.276711e+00 1.232388e-01 1.810779e-01 1.523365e-01 2.199063e-01 1.682260e-01 2.597401e-01 1.789338e-01 1.945549e-01 2.801397e-01 2.413900e-01 3.118090e-01 1.808001e-01 1.502476e-01
<GCONST> 9.263068e+01
<STATE> 5
<MEAN> 39
 1.522986e-01 9.935690e+00 -1.095703e+00 1.165464e+01 8.411684e+00 -4.132028e-01 -2.731080e+00 4.916863e+00 3.290046e+00 -5.039746e+00 -5.963346e+00 -1.044196e+00 5.457297e+01 -3.067932e-01 1.517921e-01 -2.005885e-01 -2.859411e-01 -9.378216e-04 -2.556479e-01 -2.736460e-01 -2.349475e-01 -1.617307e-01 8.336096e-02 -7.873483e-04 -2.663844e-01 -3.049188e-01 1.140913e-01 -2.676047e-01 -7.323917e-02 -2.503225e-01 -3.363746e-01 2.372166e-02 -6.928766e-02 -1.235835e-01 -2.612794e-02 -7.115497e-02 1.643206e-01 2.989399e-01 1.911165e-01
<VARIANCE> 39
 3.561443e+01 3.016850e+01 3.226723e+01 3.698175e+01 3.924024e+01 2.762451e+01 2.237114e+01 9.805366e+01 3.875458e+01 3.265486e+01 3.201118e+01 2.407921e+01 1.124501e+02 1.655424e+00 3.165652e+00 3.281171e+00 3.001298e+00 5.292490e+00 2.724615e+00 2.626982e+00 4.336201e+00 3.900753e+00 2.921405e+00 2.750446e+00 3.012539e+00 1.438615e+00 2.620474e-01 3.613201e-01 6.310157e-01 4.012723e-01 6.898474e-01 6.044660e-01 5.128406e-01 8.018934e-01 7.013193e-01 6.071161e-01 3.850015e-01 4.310503e-01 1.839873e-01
<GCONST> 1.230559e+02
<TRANSP> 6
 0.000000e+00 8.750000e-01 1.250000e-01 0.000000e+00 0.000000e+00 0.000000e+00
 0.000000e+00 9.383260e-01 3.524229e-02 2.643172e-02 0.000000e+00 0.000000e+00
 0.000000e+00 0.000000e+00 9.519231e-01 0.000000e+00 4.807693e-02 0.000000e+00
 0.000000e+00 0.000000e+00 0.000000e+00 9.786856e-01 1.420959e-02 7.104796e-03
 0.000000e+00 0.000000e+00 0.000000e+00 0.000000e+00 8.978102e-01 1.021898e-01
 0.000000e+00 0.000000e+00 0.000000e+00 0.000000e+00 0.000000e+00 0.000000e+00
<ENDHMM>
