~o
<STREAMINFO> 1 36
<VECSIZE> 36<NULLD><LPC_D_A><DIAGC>
~h "empat"
<BEGINHMM>
<NUMSTATES> 8
<STATE> 2
<MEAN> 36
 -2.572958e+00 4.265454e+00 -6.129554e+00 7.394399e+00 -7.577344e+00 6.807771e+00 -5.388186e+00 3.612522e+00 -2.083827e+00 9.891487e-01 -3.636692e-01 1.102635e-01 1.493985e-01 -4.690839e-01 8.765074e-01 -1.377202e+00 1.798850e+00 -1.998341e+00 1.944478e+00 -1.637570e+00 1.169660e+00 -7.073600e-01 3.309350e-01 -8.659647e-02 -6.282040e-01 2.944383e+00 -7.349118e+00 1.348369e+01 -1.966722e+01 2.353977e+01 -2.356129e+01 1.973334e+01 -1.357690e+01 7.425873e+00 -3.001754e+00 6.666412e-01
<VARIANCE> 36
 2.411099e-01 2.031157e+00 6.997876e+00 1.635858e+01 2.641524e+01 3.182938e+01 2.938066e+01 2.046705e+01 1.051114e+01 3.826496e+00 8.624203e-01 6.890128e-02 7.187032e-02 4.845461e-01 1.660163e+00 3.812279e+00 6.011663e+00 7.074277e+00 6.379163e+00 4.261011e+00 2.034341e+00 6.965178e-01 1.340951e-01 1.000000e-02 5.274667e+00 1.051920e+02 6.397562e+02 2.130279e+03 4.494710e+03 6.404926e+03 6.396456e+03 4.476036e+03 2.114958e+03 6.327692e+02 1.034144e+02 5.137691e+00
<GCONST> 1.586409e+02
<STATE> 3
<MEAN> 36
 -6.361102e-01 8.972807e-02 -3.055044e-01 2.014952e-01 -2.435249e-01 2.053774e-01 -1.963638e-01 1.879585e-01 -1.553988e-01 1.090331e-01 -1.541695e-01 9.768259e-02 -1.147262e-02 -2.164632e-03 1.782859e-03 2.087455e-03 -3.406871e-03 1.131880e-03 -1.787709e-03 3.396046e-03 -9.775684e-04 1.127055e-03 3.972441e-04 2.847693e-03 6.236938e-03 5.278935e-03 -4.121414e-04 -4.464022e-04 -1.488391e-03 2.647769e-04 -1.341543e-03 2.926109e-04 -3.828247e-04 1.056419e-03 4.660457e-04 -4.662642e-04
<VARIANCE> 36
 4.210791e-01 2.101918e-01 1.941328e-01 1.689301e-01 1.117982e-01 6.219343e-02 9.756549e-02 7.737400e-02 4.855268e-02 3.783312e-02 2.973951e-02 1.636822e-02 5.663899e-02 2.668937e-02 1.461681e-02 1.476049e-02 1.000000e-02 1.000000e-02 1.000000e-02 1.000000e-02 1.000000e-02 1.000000e-02 1.000000e-02 1.000000e-02 1.038320e-02 1.000000e-02 1.000000e-02 1.000000e-02 1.000000e-02 1.000000e-02 1.000000e-02 1.000000e-02 1.000000e-02 1.000000e-02 1.000000e-02 1.000000e-02
<GCONST> -7.046259e+01
<STATE> 4
<MEAN> 36
 -1.584932e+00 2.108872e+00 -2.879039e+00 3.166798e+00 -3.136843e+00 2.669413e+00 -2.015508e+00 1.291282e+00 -7.064668e-01 2.923132e-01 -1.333446e-01 6.426370e-02 4.962698e-02 -5.175454e-02 9.801365e-02 -1.615217e-01 1.618720e-01 -1.464693e-01 1.063971e-01 -6.762980e-02 3.526673e-02 -1.837421e-02 1.360237e-02 -8.933654e-03 -2.097889e-03 1.434947e-02 -3.117616e-02 6.092981e-02 -7.701808e-02 8.641296e-02 -8.099154e-02 6.981315e-02 -5.195864e-02 3.033961e-02 -1.321182e-02 3.447772e-03
<VARIANCE> 36
 9.154323e-01 3.326830e+00 6.664441e+00 1.048203e+01 1.111877e+01 9.489339e+00 6.524530e+00 3.712761e+00 1.819728e+00 6.621514e-01 1.987152e-01 3.630887e-02 5.293907e-02 1.444933e-01 2.948635e-01 5.052295e-01 6.093110e-01 5.799988e-01 4.703027e-01 3.181592e-01 1.713752e-01 7.001200e-02 1.987029e-02 1.000000e-02 1.157034e-02 3.188756e-02 6.690004e-02 1.203557e-01 1.546078e-01 1.610322e-01 1.410179e-01 9.976128e-02 5.515057e-02 2.313104e-02 1.000000e-02 1.000000e-02
<GCONST> 1.540296e+01
<STATE> 5
<MEAN> 36
 -2.659806e+00 4.268929e+00 -5.849852e+00 7.127552e+00 -7.519335e+00 6.914924e+00 -5.696372e+00 4.104191e+00 -2.573741e+00 1.343425e+00 -4.806222e-01 1.020802e-01 -2.047987e-02 2.590260e-02 -3.410195e-02 2.454272e-02 -2.001874e-03 -1.586421e-02 2.874249e-02 -3.890670e-02 4.052597e-02 -2.582008e-02 1.958655e-02 -7.666752e-04 4.248920e-02 -9.464295e-02 1.588715e-01 -2.441209e-01 3.044082e-01 -3.272704e-01 3.126697e-01 -2.586660e-01 1.823464e-01 -1.110755e-01 4.916628e-02 -1.228394e-02
<VARIANCE> 36
 5.309666e-01 5.193840e+00 2.075118e+01 4.995356e+01 8.702283e+01 1.170283e+02 1.188374e+02 8.971255e+01 5.130572e+01 2.133006e+01 4.955387e+00 3.230385e-01 8.591118e-02 5.692078e-01 1.889055e+00 4.357407e+00 7.354715e+00 9.586678e+00 9.575924e+00 7.170514e+00 3.995153e+00 1.618883e+00 3.728721e-01 2.582154e-02 1.153518e-02 8.812043e-02 3.051722e-01 7.058882e-01 1.219413e+00 1.619814e+00 1.637147e+00 1.234009e+00 6.773936e-01 2.647248e-01 6.013064e-02 1.000000e-02
<GCONST> 8.871410e+01
<STATE> 6
<MEAN> 36
 -1.001346e+00 1.047372e+00 -1.432005e+00 1.292541e+00 -1.216794e+00 8.630060e-01 -5.364258e-01 2.512682e-01 -7.189353e-02 -1.763115e-02 2.561874e-02 3.077849e-02 8.057922e-02 -4.772962e-02 7.054190e-02 -1.350762e-01 1.426891e-01 -1.400873e-01 1.447822e-01 -1.289413e-01 8.152091e-02 -4.620126e-02 2.685107e-02 -1.003015e-02 -5.729140e-02 9.431442e-02 -1.277610e-01 1.976617e-01 -2.074793e-01 2.131362e-01 -1.894775e-01 1.509647e-01 -1.022679e-01 5.911936e-02 -3.220311e-02 9.538088e-03
<VARIANCE> 36
 7.197753e-01 1.526759e+00 2.047397e+00 2.442405e+00 1.746966e+00 1.109436e+00 5.868644e-01 3.101801e-01 2.035802e-01 1.092093e-01 5.730585e-02 1.882884e-02 5.047374e-02 1.228609e-01 3.286931e-01 7.950335e-01 1.422609e+00 1.893920e+00 1.889381e+00 1.394931e+00 7.295477e-01 2.598689e-01 5.441296e-02 1.000000e-02 1.000000e-02 1.707622e-02 3.947208e-02 7.181261e-02 1.052279e-01 1.102904e-01 9.663478e-02 6.322829e-02 3.153102e-02 1.145538e-02 1.000000e-02 1.000000e-02
<GCONST> 1.312119e+00
<STATE> 7
<MEAN> 36
 -1.096985e+00 1.469876e+00 -2.165380e+00 2.343210e+00 -2.457481e+00 2.183162e+00 -1.733758e+00 1.199555e+00 -7.450961e-01 3.692675e-01 -1.763287e-01 8.008837e-02 -4.653526e-02 1.743462e-01 -2.371449e-01 3.274185e-01 -3.372639e-01 3.301920e-01 -2.655486e-01 1.989403e-01 -1.322447e-01 7.260747e-02 -3.205166e-02 8.736702e-03 -2.123698e-02 -1.620770e-02 3.134637e-02 -3.309150e-03 1.859670e-02 -6.303041e-03 -2.888473e-03 1.018225e-02 -8.352610e-03 7.127799e-03 -8.497704e-03 4.339976e-03
<VARIANCE> 36
 1.419934e+00 4.423439e+00 8.476362e+00 1.374554e+01 1.509846e+01 1.378650e+01 9.988239e+00 5.422896e+00 2.250053e+00 6.547852e-01 1.298318e-01 2.181189e-02 5.276768e-02 1.378808e-01 3.435819e-01 7.010588e-01 1.051331e+00 1.212186e+00 1.099643e+00 7.286231e-01 3.513409e-01 1.162472e-01 2.278486e-02 1.000000e-02 1.000000e-02 1.569987e-02 3.653774e-02 7.611087e-02 1.170413e-01 1.400915e-01 1.317496e-01 9.181653e-02 4.673149e-02 1.682040e-02 1.000000e-02 1.000000e-02
<GCONST> 1.917079e+01
<TRANSP> 8
 0.000000e+00 2.000000e-01 8.000000e-01 0.000000e+00 0.000000e+00 0.000000e+00 0.000000e+00 0.000000e+00
 0.000000e+00 3.600000e-01 0.000000e+00 6.400000e-01 0.000000e+00 0.000000e+00 0.000000e+00 0.000000e+00
 0.000000e+00 0.000000e+00 9.347605e-01 6.523956e-02 0.000000e+00 0.000000e+00 0.000000e+00 0.000000e+00
 0.000000e+00 0.000000e+00 0.000000e+00 5.833333e-01 5.729167e-02 3.593750e-01 0.000000e+00 0.000000e+00
 0.000000e+00 0.000000e+00 0.000000e+00 0.000000e+00 8.705882e-01 1.294118e-01 0.000000e+00 0.000000e+00
 0.000000e+00 0.000000e+00 0.000000e+00 0.000000e+00 0.000000e+00 3.600000e-01 6.400000e-01 0.000000e+00
 0.000000e+00 0.000000e+00 0.000000e+00 0.000000e+00 0.000000e+00 0.000000e+00 1.578947e-01 8.421053e-01
 0.000000e+00 0.000000e+00 0.000000e+00 0.000000e+00 0.000000e+00 0.000000e+00 0.000000e+00 0.000000e+00
<ENDHMM>
