~o
<STREAMINFO> 1 39
<VECSIZE> 39<NULLD><MFCC_D_A_0><DIAGC>
~h "empat"
<BEGINHMM>
<NUMSTATES> 6
<STATE> 2
<MEAN> 39
 -6.141042e+00 6.423675e+00 -6.576059e-01 1.075739e+01 9.549242e+00 4.200110e+00 2.963889e+00 7.941062e+00 2.844003e+00 -2.545466e+00 -5.829942e+00 -4.517943e+00 6.426974e+01 -2.523772e-01 8.400196e-02 7.218172e-02 -1.001971e-01 -4.149870e-02 1.551055e-01 1.755199e-01 1.817215e-02 1.033048e-01 9.090717e-02 -1.762707e-01 -2.327537e-01 -2.082075e-01 -4.001800e-02 -1.054720e-01 -8.216729e-02 -1.792361e-01 -1.703790e-01 -1.141188e-01 -1.016578e-01 -1.036126e-01 -3.968967e-02 7.584167e-02 1.263622e-01 9.508599e-02 1.316303e-02
<VARIANCE> 39
 1.342564e+01 2.536946e+01 1.878382e+01 1.918454e+01 1.770829e+01 1.085887e+01 1.544872e+01 2.455457e+01 8.799880e+00 1.106136e+01 9.990200e+00 1.203268e+01 9.307217e+00 1.290340e+00 5.465227e-01 5.890857e-01 1.358444e+00 1.525630e+00 1.022374e+00 1.274819e+00 9.947386e-01 7.427263e-01 1.220965e+00 8.621278e-01 9.193113e-01 6.789780e-01 1.865270e-01 1.057715e-01 1.045351e-01 1.689871e-01 1.915803e-01 2.016553e-01 2.247160e-01 1.265588e-01 1.563669e-01 2.074049e-01 1.265150e-01 1.647457e-01 1.377748e-01
<GCONST> 8.152624e+01
<STATE> 3
<MEAN> 39
 -1.373477e+00 4.080551e+00 -7.682443e-01 3.984572e+00 -2.189242e+00 -5.592341e-01 -2.482988e+00 5.075270e+00 4.721329e+00 -5.896280e+00 -4.394586e+00 1.854024e+00 5.096043e+01 3.863011e-01 -2.076890e-01 -3.178742e-01 -4.315190e-01 -3.021742e-01 -1.696756e-01 -1.720697e-01 -2.250783e-01 -8.645078e-02 -3.077305e-02 1.936565e-01 5.070725e-01 3.855260e-01 -5.186683e-03 -2.381123e-02 -5.102851e-02 -1.846358e-02 4.991283e-03 -9.919090e-03 5.587880e-03 5.200773e-02 1.857938e-02 -1.359238e-02 -1.479004e-02 5.200027e-03 -4.715592e-03
<VARIANCE> 39
 7.224737e+01 7.801903e+01 4.235842e+01 5.074250e+01 8.600693e+01 5.053843e+01 2.897830e+01 5.418678e+01 6.520824e+01 6.667354e+01 5.133855e+01 8.296355e+01 1.221588e+02 5.036366e+00 6.610541e+00 4.821642e+00 5.073849e+00 7.165215e+00 5.167832e+00 3.578306e+00 4.904256e+00 6.538076e+00 4.403040e+00 5.163833e+00 5.994386e+00 6.060805e+00 6.574719e-01 1.066033e+00 8.352972e-01 9.509771e-01 1.199401e+00 9.519939e-01 6.507114e-01 1.014491e+00 1.160082e+00 7.954504e-01 9.358917e-01 9.706558e-01 8.142546e-01
<GCONST> 1.457863e+02
<STATE> 4
<MEAN> 39
 3.248141e-01 -5.939446e+00 -1.689520e+01 -6.915424e+00 -2.938200e+00 -4.174631e+00 -4.442893e+00 4.237566e+00 6.450083e+00 2.607139e-02 1.627309e+00 1.337978e+01 7.292136e+01 -4.996726e-01 3.076957e-01 -5.274398e-02 -9.230226e-02 -3.671806e-03 2.793341e-01 1.180313e-01 -1.167310e-01 -3.763834e-01 -9.702820e-02 1.014515e-01 -5.260593e-02 -5.875949e-01 -8.728424e-02 1.094570e-01 1.677698e-01 1.013652e-01 7.090181e-02 5.497782e-02 2.518098e-02 -1.188105e-04 -5.820487e-02 2.966307e-02 4.200785e-03 -1.417494e-01 -8.975347e-02
<VARIANCE> 39
 1.931493e+01 1.800122e+01 1.065139e+01 7.693908e+00 9.887483e+00 2.062253e+01 1.441366e+01 2.244752e+01 3.152697e+01 1.566095e+01 1.113397e+01 1.881060e+01 3.307119e+01 2.626616e-01 6.481200e-01 1.183186e+00 6.252392e-01 7.009671e-01 1.067562e+00 1.184991e+00 1.564301e+00 1.385453e+00 9.976518e-01 7.715604e-01 1.799974e+00 4.994397e-01 7.869772e-02 1.306474e-01 2.643482e-01 1.709012e-01 1.785892e-01 2.437859e-01 2.507391e-01 3.533318e-01 2.668898e-01 1.866018e-01 1.479820e-01 2.923548e-01 1.017662e-01
<GCONST> 8.463227e+01
<STATE> 5
<MEAN> 39
 -5.710110e+00 7.756009e+00 -1.260922e+00 8.468910e-01 -2.856834e+00 1.682216e+00 -8.000080e-01 -1.454335e+00 -8.614255e-01 -4.868680e+00 1.502698e-01 5.145071e+00 5.773942e+01 -2.952388e-01 5.447959e-01 7.357572e-01 6.108697e-01 6.507199e-01 2.101789e-01 2.538609e-01 1.523350e-01 -3.390927e-01 9.969847e-02 -9.130070e-02 -6.157783e-01 -3.697876e-01 8.986339e-02 -1.274355e-02 1.069191e-01 1.677983e-01 1.009585e-01 2.125269e-02 1.203135e-02 1.444719e-02 8.804248e-02 -6.905650e-02 -1.243020e-01 -1.590054e-02 8.317990e-02
<VARIANCE> 39
 3.055899e+01 4.375267e+01 5.863247e+01 3.939863e+01 2.826073e+01 3.541344e+01 2.455962e+01 4.065683e+01 2.530532e+01 2.960719e+01 2.048853e+01 3.994090e+01 1.627522e+02 2.141269e+00 2.506464e+00 2.953021e+00 3.525297e+00 2.755920e+00 2.786668e+00 2.167217e+00 2.687118e+00 3.179904e+00 1.920189e+00 1.750445e+00 3.220415e+00 1.888407e+00 2.973245e-01 3.052125e-01 3.605501e-01 5.345022e-01 3.224987e-01 3.424653e-01 4.638292e-01 4.290693e-01 5.059562e-01 3.961331e-01 3.797964e-01 5.607506e-01 2.309156e-01
<GCONST> 1.183683e+02
<TRANSP> 6
 0.000000e+00 4.687500e-01 5.312500e-01 0.000000e+00 0.000000e+00 0.000000e+00
 0.000000e+00 9.367089e-01 6.329113e-02 0.000000e+00 0.000000e+00 0.000000e+00
 0.000000e+00 0.000000e+00 9.405205e-01 2.230483e-02 3.717472e-02 0.000000e+00
 0.000000e+00 0.000000e+00 0.000000e+00 9.541985e-01 4.580152e-02 0.000000e+00
 0.000000e+00 0.000000e+00 0.000000e+00 0.000000e+00 7.557252e-01 2.442748e-01
 0.000000e+00 0.000000e+00 0.000000e+00 0.000000e+00 0.000000e+00 0.000000e+00
<ENDHMM>
