~o
<STREAMINFO> 1 39
<VECSIZE> 39<NULLD><MFCC_D_A_0><DIAGC>
~h "enam"
<BEGINHMM>
<NUMSTATES> 6
<STATE> 2
<MEAN> 39
 -1.391784e+00 6.692699e+00 -2.212148e+00 1.318839e+01 1.243822e+01 8.283138e-01 -5.013443e+00 3.548522e+00 1.024162e+00 -4.316049e+00 -3.559839e+00 1.202242e+00 5.751855e+01 7.841896e-01 -9.092777e-02 -2.089404e-01 2.428391e-03 1.095034e-01 3.653731e-02 1.166699e-02 4.913108e-02 6.481192e-02 -1.190441e-01 4.533198e-02 2.513722e-01 6.203167e-01 3.443199e-02 -2.384127e-01 -1.315473e-01 -3.550832e-01 -3.916354e-01 -9.569370e-04 1.097234e-01 6.782991e-02 5.026297e-02 -2.254746e-02 2.280919e-01 2.035974e-01 1.306488e-01
<VARIANCE> 39
 3.137765e+01 2.318367e+01 1.719819e+01 2.518555e+01 3.324776e+01 2.728694e+01 2.773579e+01 4.911451e+01 2.607496e+01 1.998022e+01 2.835186e+01 2.807522e+01 1.052715e+02 1.242498e+00 2.186278e+00 1.921646e+00 3.506810e+00 3.733204e+00 2.094718e+00 3.465922e+00 1.682736e+00 1.954506e+00 1.882008e+00 2.671517e+00 2.794538e+00 9.970891e-01 1.846562e-01 2.329108e-01 2.928314e-01 3.771256e-01 3.430066e-01 4.270872e-01 5.209825e-01 3.476057e-01 3.901092e-01 3.159969e-01 3.835149e-01 4.231901e-01 1.187806e-01
<GCONST> 1.109728e+02
<STATE> 3
<MEAN> 39
 6.727066e+00 1.665920e-01 -3.204964e+00 1.893902e+00 -4.097517e+00 3.289063e+00 -1.511697e+00 6.972360e+00 7.820914e+00 -8.333101e+00 1.709812e+00 1.080813e+01 6.078932e+01 5.876668e-03 -1.395897e-01 -3.288735e-01 -4.378903e-01 -3.300010e-01 -2.542599e-01 3.804224e-01 7.174587e-01 7.641562e-01 2.501303e-01 -2.533043e-01 7.124218e-02 8.355438e-02 -1.663230e-01 2.878995e-01 5.208616e-02 4.945218e-01 6.377097e-01 -6.728891e-02 -3.839177e-02 5.306903e-02 -1.329744e-01 2.473586e-02 -4.367566e-01 -5.383477e-01 -2.718000e-01
<VARIANCE> 39
 1.095170e+01 3.487112e+01 3.724884e+01 2.758101e+01 6.417034e+01 4.306174e+01 2.117626e+01 5.623621e+01 3.181164e+01 4.720655e+01 4.235167e+01 2.931685e+01 8.014930e+01 6.091573e-01 2.843778e+00 2.656765e+00 6.040671e+00 9.845543e+00 4.220218e+00 2.343333e+00 3.132717e+00 2.364971e+00 2.156817e+00 5.055919e+00 7.237030e+00 1.499282e+00 8.186051e-02 2.526280e-01 3.592893e-01 4.487706e-01 6.594342e-01 7.177793e-01 4.947399e-01 5.200029e-01 4.390330e-01 4.120643e-01 5.832130e-01 5.977749e-01 9.802453e-02
<GCONST> 1.201707e+02
<STATE> 4
<MEAN> 39
 1.005715e+00 1.420818e+00 -8.475526e+00 3.828598e+00 5.904808e+00 1.595636e+00 2.022664e+00 1.027577e+01 4.596046e+00 -4.213080e+00 -2.476818e+00 3.888132e+00 6.794529e+01 -3.590463e-01 4.933822e-01 3.621507e-01 4.438386e-01 3.825574e-01 2.327479e-01 1.504396e-01 1.004635e-03 -2.555643e-01 -8.137053e-02 -4.006126e-01 -7.613100e-01 -4.860446e-01 -9.829376e-03 1.774601e-02 7.259866e-02 -5.736531e-02 -1.184869e-01 1.486328e-02 -5.645539e-02 -1.075903e-01 2.160172e-03 1.422708e-02 9.203124e-02 1.191283e-01 7.426375e-04
<VARIANCE> 39
 1.570537e+01 6.385254e+01 3.545315e+01 4.268065e+01 2.054224e+01 1.881135e+01 1.429477e+01 4.618367e+01 2.642662e+01 1.405324e+01 3.101996e+01 5.074538e+01 8.505343e+01 1.955419e-01 4.257648e-01 4.809054e-01 1.071795e+00 1.257859e+00 9.189842e-01 7.878118e-01 9.823441e-01 9.715166e-01 9.043740e-01 1.190151e+00 1.628311e+00 1.560558e-01 2.425452e-02 7.512259e-02 9.703127e-02 2.098196e-01 2.530303e-01 1.711944e-01 1.523184e-01 1.628171e-01 1.891280e-01 1.878684e-01 1.883762e-01 3.243887e-01 2.890291e-02
<GCONST> 8.478145e+01
<STATE> 5
<MEAN> 39
 -3.005322e+00 9.888796e+00 2.861655e-01 8.231659e+00 5.288139e+00 3.158878e+00 1.296979e+00 6.502565e+00 3.929848e+00 -4.751272e+00 -6.864963e+00 -2.951099e+00 5.342780e+01 -3.030382e-01 -5.453739e-01 3.934080e-02 -6.340280e-01 -8.950957e-01 -2.363085e-01 -4.035038e-01 -7.287437e-01 -4.724161e-01 -7.711659e-02 4.083596e-01 5.615177e-01 3.453438e-02 9.467817e-02 -1.685203e-01 -5.722752e-02 -6.820142e-02 -1.121604e-01 -1.231570e-01 -1.245060e-01 -9.836660e-02 -1.253064e-01 -2.227127e-02 7.979648e-02 1.079526e-01 1.457759e-01
<VARIANCE> 39
 4.820347e+01 4.531444e+01 2.285378e+01 3.400406e+01 4.657435e+01 2.881687e+01 4.298198e+01 6.333548e+01 5.668584e+01 5.157995e+01 4.832871e+01 4.856863e+01 9.288564e+01 1.306998e+00 2.943499e+00 2.130183e+00 2.403110e+00 3.385688e+00 3.086609e+00 3.210872e+00 3.189277e+00 4.625770e+00 4.129853e+00 3.287735e+00 3.514170e+00 1.321492e+00 1.684180e-01 3.518691e-01 3.650260e-01 4.495395e-01 5.572469e-01 5.116268e-01 5.159327e-01 4.509167e-01 8.480521e-01 7.296168e-01 6.529618e-01 5.511940e-01 1.877101e-01
<GCONST> 1.242140e+02
<TRANSP> 6
 0.000000e+00 8.750000e-01 1.250000e-01 0.000000e+00 0.000000e+00 0.000000e+00
 0.000000e+00 9.183673e-01 8.163264e-02 0.000000e+00 0.000000e+00 0.000000e+00
 0.000000e+00 0.000000e+00 8.709677e-01 1.290323e-01 0.000000e+00 0.000000e+00
 0.000000e+00 0.000000e+00 0.000000e+00 9.213759e-01 6.633908e-02 1.228501e-02
 0.000000e+00 0.000000e+00 0.000000e+00 0.000000e+00 8.884298e-01 1.115702e-01
 0.000000e+00 0.000000e+00 0.000000e+00 0.000000e+00 0.000000e+00 0.000000e+00
<ENDHMM>
