~o
<STREAMINFO> 1 39
<VECSIZE> 39<NULLD><MFCC_D_A_0><DIAGC>
~h "kali"
<BEGINHMM>
<NUMSTATES> 6
<STATE> 2
<MEAN> 39
 1.203615e+00 -4.673012e+00 2.329964e+00 5.940883e+00 -2.154388e+00 3.253186e+00 -7.175279e+00 -3.297215e+00 -8.719093e-01 -8.470520e+00 1.638185e+00 4.959280e+00 5.763786e+01 4.769421e-01 8.636224e-02 -1.653429e-01 6.072093e-01 3.995036e-01 -4.751695e-01 -4.689190e-01 3.720921e-02 1.339153e-01 3.896283e-01 2.303277e-01 2.801139e-02 1.886037e-01 -2.474818e-03 1.149024e-01 -1.036749e-01 -3.097812e-02 -1.849226e-02 -4.965333e-02 1.031611e-01 1.883011e-01 7.073408e-02 -1.703914e-02 -1.533535e-02 6.080434e-02 -7.780911e-02
<VARIANCE> 39
 5.840448e+01 4.537262e+01 5.444347e+01 1.282526e+02 5.801480e+01 4.916916e+01 5.940092e+01 3.723159e+01 5.523805e+01 8.192529e+01 2.500755e+01 2.802616e+01 5.372308e+01 3.818683e+00 5.871148e+00 4.618530e+00 6.544230e+00 5.581363e+00 6.884155e+00 5.948182e+00 4.849020e+00 7.583309e+00 3.545091e+00 2.746372e+00 3.466403e+00 2.712682e+00 4.614401e-01 1.068878e+00 7.976466e-01 1.146351e+00 1.038891e+00 1.313799e+00 1.213833e+00 9.200720e-01 1.523562e+00 6.878904e-01 5.641589e-01 7.111824e-01 4.251228e-01
<GCONST> 1.409973e+02
<STATE> 3
<MEAN> 39
 4.195928e+00 -4.757301e+00 -1.421449e+01 -5.605930e+00 -1.476341e+00 -4.564539e+00 -5.979521e+00 2.781366e+00 1.770610e+00 1.016286e+00 6.780121e+00 1.170768e+01 7.598456e+01 2.647928e-01 3.108152e-01 -2.519428e-01 5.857566e-01 1.458440e-01 -2.965711e-01 -1.491723e-01 -1.621777e-01 -1.004992e+00 -7.492217e-01 1.875663e-01 2.267908e-01 -1.829915e-01 -3.406410e-01 6.455856e-03 3.060922e-01 2.388127e-01 2.964970e-01 1.557576e-01 1.592859e-02 -2.402479e-01 -2.454804e-01 4.427238e-02 -4.150031e-02 -3.455195e-01 -1.656685e-01
<VARIANCE> 39
 1.428630e+00 9.648235e+00 6.497477e+00 1.936081e+01 6.160491e+00 2.095167e+01 1.407429e+01 1.918844e+01 3.224530e+01 1.566695e+01 1.173017e+01 8.854820e+00 2.262378e+00 4.529015e-01 8.474870e-01 1.323078e+00 1.975742e+00 1.425094e+00 1.713267e+00 2.065892e+00 2.601490e+00 2.992463e+00 1.269424e+00 1.092686e+00 2.080625e+00 3.965999e-01 1.572859e-01 1.773864e-01 1.651580e-01 2.378563e-01 1.109563e-01 3.766922e-01 4.304458e-01 4.326870e-01 4.093203e-01 2.499163e-01 2.204090e-01 1.647250e-01 6.217352e-02
<GCONST> 8.504251e+01
<STATE> 4
<MEAN> 39
 -1.012469e+00 -4.618120e+00 -6.704769e+00 1.026118e+01 1.027022e+01 -5.104229e+00 -1.014100e+01 1.068551e+00 -6.491799e+00 -1.861723e+00 6.402532e+00 3.766405e+00 7.044698e+01 -5.105640e-01 1.233425e-01 3.983929e-01 6.485508e-01 6.544881e-01 1.577285e-01 4.901538e-02 1.503597e-01 1.426713e-01 2.696234e-02 -3.409329e-01 -4.714507e-01 -3.793567e-01 -3.785779e-03 3.219590e-02 6.168116e-02 -1.787018e-01 -1.350365e-01 8.119162e-02 3.216355e-02 -3.741026e-02 1.455983e-01 -5.649876e-03 -8.964664e-02 3.353283e-02 3.621515e-02
<VARIANCE> 39
 1.202507e+01 1.671317e+01 2.050128e+01 2.961508e+01 2.479324e+01 1.463171e+01 2.433951e+01 1.184557e+01 1.753746e+01 1.077952e+01 1.456828e+01 9.523829e+00 3.705186e+01 4.059018e-01 2.130923e+00 1.763619e+00 2.092360e+00 2.556492e+00 1.662619e+00 3.314300e+00 1.740883e+00 1.807162e+00 1.047144e+00 1.213212e+00 1.148665e+00 5.450611e-01 7.413461e-02 2.701713e-01 2.200278e-01 2.768649e-01 3.619876e-01 2.932943e-01 5.996694e-01 2.844981e-01 2.590428e-01 2.099723e-01 2.641336e-01 2.043025e-01 7.880761e-02
<GCONST> 9.436536e+01
<STATE> 5
<MEAN> 39
 1.221135e+00 6.893344e+00 1.775819e-01 1.065953e+01 5.942620e+00 -1.581296e+00 -5.936215e+00 3.675391e+00 3.813443e+00 -5.075508e+00 -4.069491e+00 6.710258e-01 5.110842e+01 -7.811217e-02 -5.740847e-02 3.976460e-01 -9.550660e-01 -5.883009e-01 3.845633e-01 1.997874e-01 -2.373874e-02 5.980501e-01 -3.837000e-01 -5.219434e-01 3.558189e-02 3.522975e-01 4.720851e-02 -2.796664e-01 6.286485e-02 2.750447e-02 -9.243020e-02 2.435523e-02 -1.185622e-01 -6.824639e-02 -5.519183e-02 -5.776837e-02 1.265298e-01 9.497978e-02 1.681638e-01
<VARIANCE> 39
 6.109262e+01 6.795287e+01 4.023566e+01 5.694989e+01 6.643816e+01 3.570756e+01 2.593299e+01 4.306998e+01 4.338409e+01 5.589460e+01 4.668587e+01 5.363420e+01 8.796888e+01 3.291969e+00 5.311860e+00 4.526303e+00 3.332397e+00 4.343341e+00 2.797215e+00 3.527600e+00 2.804072e+00 4.236082e+00 3.641398e+00 4.416802e+00 4.342861e+00 2.448693e+00 4.026658e-01 7.348215e-01 7.530900e-01 5.382752e-01 5.962663e-01 7.081722e-01 7.111497e-01 5.084750e-01 7.746662e-01 7.377317e-01 7.442617e-01 6.005547e-01 3.647399e-01
<GCONST> 1.332076e+02
<TRANSP> 6
 0.000000e+00 1.000000e+00 0.000000e+00 0.000000e+00 0.000000e+00 0.000000e+00
 0.000000e+00 9.196787e-01 4.016064e-02 4.016064e-02 0.000000e+00 0.000000e+00
 0.000000e+00 0.000000e+00 8.974359e-01 1.025641e-01 0.000000e+00 0.000000e+00
 0.000000e+00 0.000000e+00 0.000000e+00 8.761610e-01 9.287927e-02 3.095976e-02
 0.000000e+00 0.000000e+00 0.000000e+00 0.000000e+00 8.785425e-01 1.214575e-01
 0.000000e+00 0.000000e+00 0.000000e+00 0.000000e+00 0.000000e+00 0.000000e+00
<ENDHMM>
