~o
<STREAMINFO> 1 39
<VECSIZE> 39<NULLD><PLP_D_A_0><DIAGC>
~h "kurang"
<BEGINHMM>
<NUMSTATES> 8
<STATE> 2
<MEAN> 39
 -4.148794e-01 -6.872369e-01 4.973639e-01 -1.378487e+00 -1.602395e+00 -2.033885e+00 -2.779482e-01 -1.690763e-01 -2.867030e-01 -3.431502e-01 -1.217743e-01 1.693349e-01 5.425847e+00 1.572822e-01 -1.674172e-02 -1.213183e-02 7.940541e-02 -1.896508e-02 -1.008423e-01 -7.321171e-02 1.722035e-02 -7.916047e-02 -8.354793e-02 -8.668295e-02 -7.887091e-03 1.063824e-01 -2.141235e-02 -3.365015e-02 -8.000527e-02 -1.238656e-02 7.555742e-02 5.879372e-02 6.491684e-03 -3.158395e-02 6.300952e-03 2.736215e-03 1.741661e-02 1.645397e-02 1.236130e-03
<VARIANCE> 39
 2.538948e-01 2.614470e-01 1.599233e+00 7.373242e-01 5.556679e-01 1.844436e+00 7.859559e-01 2.660131e-01 2.728454e-01 4.898535e-01 2.092542e-01 1.878909e-01 4.846005e-01 2.466497e-02 2.371131e-02 5.753879e-02 3.245861e-02 3.475041e-02 7.201976e-02 2.807395e-02 3.003814e-02 2.628146e-02 3.213144e-02 1.917200e-02 1.653098e-02 1.262904e-02 1.000000e-02 1.000000e-02 1.000000e-02 1.000000e-02 1.000000e-02 1.000000e-02 1.000000e-02 1.000000e-02 1.000000e-02 1.000000e-02 1.000000e-02 1.000000e-02 1.000000e-02
<GCONST> -4.455231e+01
<STATE> 3
<MEAN> 39
 -5.434408e-02 -9.774114e-01 -4.716017e-01 -1.404378e+00 -1.040054e+00 -1.509109e+00 -4.266506e-01 -6.561164e-01 -3.808727e-01 -7.631987e-01 -1.862053e-01 3.418160e-01 5.663345e+00 3.680181e-02 -1.017678e-01 -2.800150e-01 -7.534156e-02 2.865903e-01 2.050745e-01 -2.342576e-02 -1.496234e-01 4.479901e-02 8.794960e-02 1.075461e-01 1.315574e-01 4.262543e-02 -1.543694e-02 -5.433940e-03 2.216467e-02 -5.292973e-03 -2.779967e-02 -7.628706e-03 5.533411e-02 3.855162e-02 4.107962e-02 5.657236e-02 2.485273e-02 5.000169e-03 -1.390859e-02
<VARIANCE> 39
 6.131725e-02 2.441477e-01 6.157005e-01 9.479766e-01 5.846900e-01 9.628122e-01 1.913593e+00 3.230899e-01 3.244483e-01 3.476194e-01 2.809699e-01 1.780622e-01 6.350614e-01 1.000000e-02 1.228612e-02 1.441212e-02 1.981558e-02 2.221070e-02 2.330070e-02 2.472873e-02 2.281056e-02 3.136947e-02 2.187744e-02 3.086392e-02 1.744783e-02 1.000000e-02 1.000000e-02 1.000000e-02 1.000000e-02 1.000000e-02 1.051900e-02 1.000000e-02 1.000000e-02 1.000000e-02 1.000000e-02 1.000000e-02 1.000000e-02 1.000000e-02 1.000000e-02
<GCONST> -5.119466e+01
<STATE> 4
<MEAN> 39
 5.644185e-02 -1.530645e+00 -1.250658e+00 -1.444764e+00 -5.327404e-01 -1.224059e+00 -1.118972e-01 -4.795039e-01 2.304263e-02 -9.893804e-02 2.219402e-01 7.009875e-01 6.011074e+00 7.748126e-03 -8.763642e-02 1.247045e-02 1.870258e-02 -8.753032e-02 5.321860e-02 2.605303e-01 1.105146e-01 7.012512e-02 2.579711e-02 -1.952800e-02 8.754847e-03 5.320420e-02 -1.874339e-02 7.023709e-02 6.598741e-02 3.055589e-02 -2.887148e-02 -1.610126e-02 8.978130e-03 1.743417e-02 -4.822164e-02 -5.303626e-02 -4.532011e-02 -5.545086e-02 -3.403894e-02
<VARIANCE> 39
 6.419993e-02 3.629468e-01 4.106375e-01 8.845689e-01 2.387244e-01 6.505814e-01 1.848830e+00 4.637263e-01 3.380842e-01 4.432938e-01 3.109224e-01 2.033048e-01 6.564751e-01 1.000000e-02 2.314854e-02 1.365969e-02 1.000000e-02 1.374739e-02 2.326747e-02 1.928878e-02 2.099380e-02 2.765597e-02 3.098483e-02 2.368947e-02 2.267038e-02 1.000000e-02 1.000000e-02 1.000000e-02 1.000000e-02 1.000000e-02 1.000000e-02 1.000000e-02 1.086190e-02 1.000000e-02 1.000000e-02 1.000000e-02 1.000000e-02 1.000000e-02 1.000000e-02
<GCONST> -5.230125e+01
<STATE> 5
<MEAN> 39
 4.290197e-02 -9.974294e-01 -4.297979e-01 -1.217610e+00 -8.876650e-01 -1.109970e+00 5.828478e-01 -5.741121e-01 8.476920e-02 -4.867820e-01 -4.341691e-01 4.408687e-01 5.424294e+00 -3.801135e-02 2.505179e-01 6.404811e-02 1.338258e-01 1.449841e-01 -1.367523e-01 -2.687315e-03 9.055983e-02 -8.293038e-02 -1.107546e-02 -1.271097e-01 -2.224311e-01 -1.384317e-01 -1.445884e-02 2.505996e-03 -1.258267e-03 1.254784e-02 4.952823e-02 -1.208679e-02 -5.657174e-02 -8.796767e-05 -1.015581e-02 -1.706645e-02 -7.064247e-03 -1.874326e-02 -1.500748e-02
<VARIANCE> 39
 3.515611e-02 3.879465e-01 4.360906e-01 1.011026e+00 3.473429e-01 1.577855e+00 1.850433e+00 6.821608e-01 8.665407e-01 2.426383e-01 3.537839e-01 4.205712e-01 1.310762e+00 1.000000e-02 1.136479e-02 2.235255e-02 1.242860e-02 3.721666e-02 3.383650e-02 4.320704e-02 2.259814e-02 2.530136e-02 2.996535e-02 1.948387e-02 3.217660e-02 1.000000e-02 1.000000e-02 1.000000e-02 1.000000e-02 1.000000e-02 1.000000e-02 1.000000e-02 1.000000e-02 1.000000e-02 1.000000e-02 1.000000e-02 1.000000e-02 1.000000e-02 1.000000e-02
<GCONST> -4.691057e+01
<STATE> 6
<MEAN> 39
 -3.452628e-01 -2.555876e-01 -6.600361e-01 -2.176260e-01 -1.651509e-01 -1.004435e+00 -4.566711e-01 4.990305e-02 -2.701238e-01 -7.517365e-01 -5.742128e-01 -2.034124e-01 5.007405e+00 -7.411531e-02 7.477506e-02 1.066118e-01 6.705572e-02 6.917435e-02 2.355071e-02 -6.157563e-02 -5.486366e-02 -2.673154e-02 -2.947203e-02 -5.990931e-02 -4.520123e-02 -7.055653e-02 -8.006169e-03 -5.088188e-02 8.720112e-04 -3.803341e-02 -4.050891e-02 2.345871e-02 -6.372559e-03 -3.445669e-02 1.113369e-02 1.970784e-02 4.318307e-02 4.580630e-02 2.297203e-02
<VARIANCE> 39
 8.131884e-02 2.159070e-01 3.235916e-01 4.038094e-01 2.660459e-01 5.005687e-01 3.924615e-01 3.637025e-01 2.371738e-01 1.229267e-01 1.944746e-01 1.516319e-01 5.851355e-01 1.000000e-02 1.000360e-02 1.802028e-02 1.685266e-02 1.714026e-02 2.314204e-02 1.698898e-02 1.692852e-02 1.778795e-02 1.781344e-02 1.998265e-02 1.808919e-02 1.000000e-02 1.000000e-02 1.000000e-02 1.000000e-02 1.000000e-02 1.000000e-02 1.000000e-02 1.000000e-02 1.000000e-02 1.000000e-02 1.000000e-02 1.000000e-02 1.000000e-02 1.000000e-02
<GCONST> -5.970841e+01
<STATE> 7
<MEAN> 39
 -6.285095e-01 -7.590527e-01 -2.727574e-02 -8.285526e-01 -4.680695e-01 -1.014512e+00 -1.946273e-01 -7.040931e-01 -2.988980e-01 -6.264136e-01 -3.434865e-01 7.688817e-02 4.989804e+00 -3.304810e-02 -1.570419e-01 3.261878e-02 -4.188249e-02 -1.028128e-01 2.667229e-02 -5.709529e-02 -7.388437e-02 -8.957052e-03 5.041803e-03 1.311707e-01 8.850883e-02 7.398549e-02 3.135677e-02 1.803463e-02 -1.570513e-02 1.481644e-02 -5.783671e-03 -3.902939e-02 7.357082e-03 1.430691e-02 8.909710e-03 3.591943e-03 -1.354725e-02 -9.245731e-03 8.552928e-03
<VARIANCE> 39
 5.616177e-01 6.341216e-01 5.706225e-01 1.093578e+00 6.660372e-01 1.259868e+00 1.196092e+00 4.354356e-01 3.668646e-01 2.826565e-01 3.688023e-01 2.218196e-01 1.173903e+00 6.209432e-02 7.292408e-02 5.431119e-02 3.953299e-02 7.282390e-02 6.362093e-02 4.722070e-02 3.710955e-02 3.655266e-02 3.673014e-02 4.601445e-02 3.171446e-02 2.348061e-02 1.072106e-02 1.886383e-02 1.000000e-02 1.000000e-02 1.553963e-02 1.163660e-02 1.000000e-02 1.000000e-02 1.000000e-02 1.000000e-02 1.051509e-02 1.000000e-02 1.000000e-02
<GCONST> -3.394115e+01
<TRANSP> 8
 0.000000e+00 8.500000e-01 1.500000e-01 0.000000e+00 0.000000e+00 0.000000e+00 0.000000e+00 0.000000e+00
 0.000000e+00 7.509158e-01 2.490842e-01 0.000000e+00 0.000000e+00 0.000000e+00 0.000000e+00 0.000000e+00
 0.000000e+00 0.000000e+00 6.875000e-01 3.125000e-01 0.000000e+00 0.000000e+00 0.000000e+00 0.000000e+00
 0.000000e+00 0.000000e+00 0.000000e+00 6.899225e-01 3.100775e-01 0.000000e+00 0.000000e+00 0.000000e+00
 0.000000e+00 0.000000e+00 0.000000e+00 0.000000e+00 6.923077e-01 3.076923e-01 0.000000e+00 0.000000e+00
 0.000000e+00 0.000000e+00 0.000000e+00 0.000000e+00 0.000000e+00 7.640118e-01 2.359882e-01 0.000000e+00
 0.000000e+00 0.000000e+00 0.000000e+00 0.000000e+00 0.000000e+00 0.000000e+00 7.575758e-01 2.424242e-01
 0.000000e+00 0.000000e+00 0.000000e+00 0.000000e+00 0.000000e+00 0.000000e+00 0.000000e+00 0.000000e+00
<ENDHMM>
