~o
<STREAMINFO> 1 39
<VECSIZE> 39<NULLD><PLP_D_A_0><DIAGC>
~h "lima"
<BEGINHMM>
<NUMSTATES> 8
<STATE> 2
<MEAN> 39
 -5.621285e-01 -8.635982e-01 -1.405895e-02 1.547743e-01 -4.685932e-02 -1.499080e+00 -8.237018e-01 -8.751053e-01 -7.799597e-01 -6.293879e-01 3.482868e-02 5.752415e-02 5.298567e+00 3.996828e-02 -1.972358e-02 1.453481e-01 1.668355e-01 6.822937e-02 -1.433083e-01 -1.908301e-01 -2.262613e-02 4.158874e-02 -1.275267e-02 4.178115e-03 -6.613545e-02 9.055816e-02 -1.218860e-02 1.590641e-02 -2.693361e-02 -2.943539e-02 2.127417e-03 2.041750e-02 1.001120e-02 2.476509e-02 3.197238e-02 1.130374e-02 -9.672324e-03 -8.729939e-03 -3.031803e-02
<VARIANCE> 39
 2.803013e-01 5.968826e-01 1.064582e+00 7.997625e-01 4.506332e-01 1.523990e+00 8.923741e-01 5.504520e-01 3.546411e-01 2.683828e-01 4.189216e-01 1.462679e-01 1.105414e+00 2.547804e-02 3.072052e-02 4.599603e-02 3.107392e-02 3.534358e-02 6.216452e-02 4.630057e-02 4.642038e-02 3.190811e-02 1.995347e-02 3.369360e-02 1.229857e-02 2.492872e-02 1.000000e-02 1.000000e-02 1.251041e-02 1.000000e-02 1.000000e-02 1.041562e-02 1.000000e-02 1.000000e-02 1.000000e-02 1.000000e-02 1.000000e-02 1.000000e-02 1.000000e-02
<GCONST> -4.081119e+01
<STATE> 3
<MEAN> 39
 -4.126623e-01 -3.201618e-01 1.096555e-02 4.966375e-01 1.166871e-01 -1.516587e+00 -1.430106e+00 -7.609433e-01 -4.174618e-01 -4.986384e-01 -5.469949e-02 -3.006110e-01 5.220217e+00 5.016424e-02 1.741358e-01 -1.407140e-01 -1.249316e-01 2.440330e-02 6.974860e-02 1.250546e-01 7.528265e-02 5.072603e-02 1.678924e-02 -1.626135e-01 -9.312519e-02 -7.537363e-02 5.589714e-03 -6.268907e-03 -4.110805e-02 -5.501961e-02 -4.191518e-02 2.439057e-02 7.901661e-02 3.240936e-02 -8.616827e-03 -1.670321e-02 -2.296915e-02 1.537979e-02 -4.466679e-04
<VARIANCE> 39
 1.004106e-01 6.625649e-01 2.947079e-01 6.780809e-01 5.070609e-01 7.724748e-01 5.081122e-01 2.482075e-01 2.632910e-01 2.611980e-01 3.770050e-01 1.382323e-01 5.401388e-01 1.000000e-02 2.192085e-02 2.080331e-02 2.306064e-02 2.562091e-02 3.118757e-02 3.026666e-02 2.249525e-02 1.592232e-02 1.986272e-02 2.830053e-02 1.681031e-02 1.000000e-02 1.000000e-02 1.000000e-02 1.000000e-02 1.000000e-02 1.000000e-02 1.000000e-02 1.000000e-02 1.000000e-02 1.000000e-02 1.000000e-02 1.000000e-02 1.000000e-02 1.000000e-02
<GCONST> -5.257219e+01
<STATE> 4
<MEAN> 39
 -8.351658e-02 -1.024229e-01 -5.182458e-01 -1.485007e-01 1.919807e-01 -1.526389e+00 -5.936938e-01 -2.313051e-01 -3.013211e-01 -7.206774e-01 -8.787060e-01 -6.823393e-01 5.065796e+00 1.071076e-01 -7.257567e-02 -1.851107e-01 -2.341530e-01 -2.067013e-01 -1.375134e-02 2.498629e-01 1.920635e-01 1.029278e-02 -5.999707e-02 1.614694e-02 1.296126e-01 8.877721e-02 -2.610674e-03 -9.416105e-02 1.903796e-02 -2.750988e-02 -9.354322e-02 1.025733e-03 1.407977e-02 -2.389629e-02 3.763451e-03 4.076145e-03 1.258048e-01 1.151511e-01 6.078695e-02
<VARIANCE> 39
 9.860329e-02 3.761122e-01 3.197530e-01 8.573859e-01 3.311293e-01 7.563537e-01 8.108608e-01 3.791043e-01 2.981382e-01 1.341212e-01 2.565166e-01 1.467320e-01 9.118561e-01 1.000000e-02 2.503431e-02 1.417477e-02 2.760035e-02 3.740693e-02 2.446561e-02 2.394201e-02 2.545514e-02 2.271550e-02 1.611017e-02 5.634506e-02 4.215151e-02 1.086936e-02 1.000000e-02 1.000000e-02 1.000000e-02 1.000000e-02 1.000000e-02 1.000000e-02 1.000000e-02 1.000000e-02 1.000000e-02 1.000000e-02 1.000000e-02 1.000000e-02 1.000000e-02
<GCONST> -5.094969e+01
<STATE> 5
<MEAN> 39
 1.382514e-01 -6.824402e-01 -8.788754e-01 -1.119521e+00 -9.294757e-01 -1.452170e+00 2.047347e-01 -4.321115e-02 -2.262401e-01 -7.766615e-01 -1.391435e-01 3.178081e-01 5.697926e+00 3.621180e-02 -2.209924e-01 -7.622625e-02 -2.435550e-01 -3.030931e-01 1.259200e-01 2.305818e-01 7.285077e-03 5.843623e-02 9.591504e-04 2.406561e-01 3.146400e-01 1.594922e-01 -3.808032e-02 3.624122e-02 5.718303e-02 8.179717e-02 9.376577e-02 2.466208e-02 -7.640966e-02 -5.970892e-02 -2.581047e-03 1.334011e-02 -3.652157e-02 -5.532132e-02 -4.761076e-02
<VARIANCE> 39
 9.183060e-02 5.267933e-01 3.531614e-01 7.191623e-01 4.670707e-01 6.277579e-01 8.404345e-01 7.354812e-01 4.345589e-01 2.421561e-01 3.356151e-01 2.320793e-01 7.866495e-01 1.000000e-02 1.850815e-02 3.121098e-02 2.697430e-02 3.238241e-02 3.515250e-02 2.175939e-02 3.940516e-02 3.043164e-02 3.121323e-02 2.516864e-02 2.744302e-02 1.000000e-02 1.000000e-02 1.000000e-02 1.000000e-02 1.000000e-02 1.000000e-02 1.000000e-02 1.000000e-02 1.000000e-02 1.000000e-02 1.000000e-02 1.000000e-02 1.000000e-02 1.000000e-02
<GCONST> -4.769773e+01
<STATE> 6
<MEAN> 39
 -2.596135e-01 -1.014675e+00 -1.081252e+00 -1.307574e+00 -9.113894e-01 -9.696178e-01 3.160374e-01 -2.606836e-01 -2.555619e-01 -6.054576e-01 1.450054e-01 5.790224e-01 5.758133e+00 -7.860019e-02 4.075485e-02 3.507080e-02 3.765452e-02 3.755651e-02 6.474132e-02 -1.921496e-02 -2.930879e-02 -6.504369e-03 -6.561616e-04 -2.578345e-02 -1.261996e-02 -1.058698e-01 -2.043682e-02 4.057196e-02 2.455286e-02 3.880776e-02 4.714349e-02 -4.565720e-03 -3.039769e-02 -7.270901e-03 -9.068548e-03 -2.413205e-03 -2.949426e-02 -4.406907e-02 -3.924876e-02
<VARIANCE> 39
 3.158996e-01 6.875806e-01 4.976774e-01 7.010982e-01 3.656732e-01 4.255627e-01 8.478145e-01 8.587527e-01 2.827820e-01 1.853569e-01 1.900614e-01 1.794258e-01 6.894393e-01 1.000000e-02 1.772996e-02 1.352500e-02 1.335186e-02 1.360996e-02 1.083640e-02 1.045217e-02 1.085822e-02 1.412039e-02 1.023181e-02 1.453713e-02 1.382309e-02 1.652907e-02 1.000000e-02 1.000000e-02 1.000000e-02 1.000000e-02 1.000000e-02 1.000000e-02 1.000000e-02 1.000000e-02 1.000000e-02 1.000000e-02 1.000000e-02 1.000000e-02 1.000000e-02
<GCONST> -5.626641e+01
<STATE> 7
<MEAN> 39
 -3.113612e-01 -4.305221e-01 -5.063738e-01 -8.183623e-01 -4.599679e-01 -1.030018e+00 -8.987697e-02 -5.113744e-01 -4.070847e-01 -8.533673e-01 -2.450311e-01 2.520640e-01 4.983024e+00 -5.281847e-02 -3.731655e-02 -1.124151e-02 7.595135e-03 4.553442e-02 2.226824e-03 -6.549150e-02 -5.582863e-02 -2.052256e-02 2.950447e-02 3.184034e-02 -3.659276e-03 -1.656562e-02 1.078305e-02 -2.967833e-02 -1.768153e-02 -2.364763e-02 -2.716921e-02 -1.429981e-02 7.335844e-03 6.102105e-03 9.665068e-03 1.462247e-02 1.643493e-02 9.576083e-03 3.027182e-02
<VARIANCE> 39
 3.655549e-01 6.677340e-01 3.262385e-01 6.258606e-01 5.502610e-01 7.017065e-01 6.179737e-01 5.679166e-01 3.520575e-01 3.424362e-01 2.613155e-01 2.875827e-01 1.281285e+00 3.035296e-02 4.610147e-02 3.385665e-02 3.477094e-02 6.322198e-02 3.914732e-02 3.073882e-02 2.687850e-02 4.053450e-02 4.005020e-02 3.389639e-02 4.065756e-02 5.097358e-02 1.000000e-02 1.000000e-02 1.000000e-02 1.000000e-02 1.223823e-02 1.000000e-02 1.000000e-02 1.000000e-02 1.000000e-02 1.000000e-02 1.000000e-02 1.000000e-02 1.000000e-02
<GCONST> -3.984496e+01
<TRANSP> 8
 0.000000e+00 7.000000e-01 3.000000e-01 0.000000e+00 0.000000e+00 0.000000e+00 0.000000e+00 0.000000e+00
 0.000000e+00 7.862595e-01 2.022901e-01 1.145038e-02 0.000000e+00 0.000000e+00 0.000000e+00 0.000000e+00
 0.000000e+00 0.000000e+00 7.027028e-01 2.702703e-01 2.702703e-02 0.000000e+00 0.000000e+00 0.000000e+00
 0.000000e+00 0.000000e+00 0.000000e+00 6.178011e-01 3.717277e-01 1.047120e-02 0.000000e+00 0.000000e+00
 0.000000e+00 0.000000e+00 0.000000e+00 0.000000e+00 5.185185e-01 4.814815e-01 0.000000e+00 0.000000e+00
 0.000000e+00 0.000000e+00 0.000000e+00 0.000000e+00 0.000000e+00 7.889182e-01 2.110818e-01 0.000000e+00
 0.000000e+00 0.000000e+00 0.000000e+00 0.000000e+00 0.000000e+00 0.000000e+00 7.694525e-01 2.305475e-01
 0.000000e+00 0.000000e+00 0.000000e+00 0.000000e+00 0.000000e+00 0.000000e+00 0.000000e+00 0.000000e+00
<ENDHMM>
