~o
<STREAMINFO> 1 39
<VECSIZE> 39<NULLD><MFCC_D_A_0><DIAGC>
~h "sebelas"
<BEGINHMM>
<NUMSTATES> 6
<STATE> 2
<MEAN> 39
 0.000000e+00 0.000000e+00 0.000000e+00 0.000000e+00 0.000000e+00 0.000000e+00 0.000000e+00 0.000000e+00 0.000000e+00 0.000000e+00 0.000000e+00 0.000000e+00 0.000000e+00 0.000000e+00 0.000000e+00 0.000000e+00 0.000000e+00 0.000000e+00 0.000000e+00 0.000000e+00 0.000000e+00 0.000000e+00 0.000000e+00 0.000000e+00 0.000000e+00 0.000000e+00 0.000000e+00 0.000000e+00 0.000000e+00 0.000000e+00 0.000000e+00 0.000000e+00 0.000000e+00 0.000000e+00 0.000000e+00 0.000000e+00 0.000000e+00 0.000000e+00 0.000000e+00
<VARIANCE> 39
 1.236425e+02 1.016681e+02 9.565109e+01 1.174555e+02 9.327693e+01 9.062687e+01 1.038315e+02 7.698441e+01 6.400640e+01 5.915472e+01 4.451199e+01 3.901465e+01 1.357334e+02 3.926657e+00 3.969921e+00 3.596909e+00 2.857844e+00 3.296045e+00 3.357815e+00 2.541397e+00 2.764964e+00 3.437826e+00 2.942670e+00 2.537005e+00 2.081286e+00 1.925256e+00 4.624140e-01 4.883927e-01 5.122632e-01 4.332442e-01 5.164325e-01 5.931504e-01 4.785671e-01 4.992926e-01 5.937669e-01 5.163762e-01 4.429462e-01 3.738090e-01 2.735837e-01
<GCONST> 1.332603e+02
<STATE> 3
<MEAN> 39
 0.000000e+00 0.000000e+00 0.000000e+00 0.000000e+00 0.000000e+00 0.000000e+00 0.000000e+00 0.000000e+00 0.000000e+00 0.000000e+00 0.000000e+00 0.000000e+00 0.000000e+00 0.000000e+00 0.000000e+00 0.000000e+00 0.000000e+00 0.000000e+00 0.000000e+00 0.000000e+00 0.000000e+00 0.000000e+00 0.000000e+00 0.000000e+00 0.000000e+00 0.000000e+00 0.000000e+00 0.000000e+00 0.000000e+00 0.000000e+00 0.000000e+00 0.000000e+00 0.000000e+00 0.000000e+00 0.000000e+00 0.000000e+00 0.000000e+00 0.000000e+00 0.000000e+00
<VARIANCE> 39
 1.236425e+02 1.016681e+02 9.565109e+01 1.174555e+02 9.327693e+01 9.062687e+01 1.038315e+02 7.698441e+01 6.400640e+01 5.915472e+01 4.451199e+01 3.901465e+01 1.357334e+02 3.926657e+00 3.969921e+00 3.596909e+00 2.857844e+00 3.296045e+00 3.357815e+00 2.541397e+00 2.764964e+00 3.437826e+00 2.942670e+00 2.537005e+00 2.081286e+00 1.925256e+00 4.624140e-01 4.883927e-01 5.122632e-01 4.332442e-01 5.164325e-01 5.931504e-01 4.785671e-01 4.992926e-01 5.937669e-01 5.163762e-01 4.429462e-01 3.738090e-01 2.735837e-01
<GCONST> 1.332603e+02
<STATE> 4
<MEAN> 39
 0.000000e+00 0.000000e+00 0.000000e+00 0.000000e+00 0.000000e+00 0.000000e+00 0.000000e+00 0.000000e+00 0.000000e+00 0.000000e+00 0.000000e+00 0.000000e+00 0.000000e+00 0.000000e+00 0.000000e+00 0.000000e+00 0.000000e+00 0.000000e+00 0.000000e+00 0.000000e+00 0.000000e+00 0.000000e+00 0.000000e+00 0.000000e+00 0.000000e+00 0.000000e+00 0.000000e+00 0.000000e+00 0.000000e+00 0.000000e+00 0.000000e+00 0.000000e+00 0.000000e+00 0.000000e+00 0.000000e+00 0.000000e+00 0.000000e+00 0.000000e+00 0.000000e+00
<VARIANCE> 39
 1.236425e+02 1.016681e+02 9.565109e+01 1.174555e+02 9.327693e+01 9.062687e+01 1.038315e+02 7.698441e+01 6.400640e+01 5.915472e+01 4.451199e+01 3.901465e+01 1.357334e+02 3.926657e+00 3.969921e+00 3.596909e+00 2.857844e+00 3.296045e+00 3.357815e+00 2.541397e+00 2.764964e+00 3.437826e+00 2.942670e+00 2.537005e+00 2.081286e+00 1.925256e+00 4.624140e-01 4.883927e-01 5.122632e-01 4.332442e-01 5.164325e-01 5.931504e-01 4.785671e-01 4.992926e-01 5.937669e-01 5.163762e-01 4.429462e-01 3.738090e-01 2.735837e-01
<GCONST> 1.332603e+02
<STATE> 5
<MEAN> 39
 0.000000e+00 0.000000e+00 0.000000e+00 0.000000e+00 0.000000e+00 0.000000e+00 0.000000e+00 0.000000e+00 0.000000e+00 0.000000e+00 0.000000e+00 0.000000e+00 0.000000e+00 0.000000e+00 0.000000e+00 0.000000e+00 0.000000e+00 0.000000e+00 0.000000e+00 0.000000e+00 0.000000e+00 0.000000e+00 0.000000e+00 0.000000e+00 0.000000e+00 0.000000e+00 0.000000e+00 0.000000e+00 0.000000e+00 0.000000e+00 0.000000e+00 0.000000e+00 0.000000e+00 0.000000e+00 0.000000e+00 0.000000e+00 0.000000e+00 0.000000e+00 0.000000e+00
<VARIANCE> 39
 1.236425e+02 1.016681e+02 9.565109e+01 1.174555e+02 9.327693e+01 9.062687e+01 1.038315e+02 7.698441e+01 6.400640e+01 5.915472e+01 4.451199e+01 3.901465e+01 1.357334e+02 3.926657e+00 3.969921e+00 3.596909e+00 2.857844e+00 3.296045e+00 3.357815e+00 2.541397e+00 2.764964e+00 3.437826e+00 2.942670e+00 2.537005e+00 2.081286e+00 1.925256e+00 4.624140e-01 4.883927e-01 5.122632e-01 4.332442e-01 5.164325e-01 5.931504e-01 4.785671e-01 4.992926e-01 5.937669e-01 5.163762e-01 4.429462e-01 3.738090e-01 2.735837e-01
<GCONST> 1.332603e+02
<TRANSP> 6
 0.000000e+00 5.000000e-01 5.000000e-01 0.000000e+00 0.000000e+00 0.000000e+00
 0.000000e+00 4.000000e-01 3.000000e-01 3.000000e-01 0.000000e+00 0.000000e+00
 0.000000e+00 0.000000e+00 4.000000e-01 3.000000e-01 3.000000e-01 0.000000e+00
 0.000000e+00 0.000000e+00 0.000000e+00 4.000000e-01 3.000000e-01 3.000000e-01
 0.000000e+00 0.000000e+00 0.000000e+00 0.000000e+00 5.000000e-01 5.000000e-01
 0.000000e+00 0.000000e+00 0.000000e+00 0.000000e+00 0.000000e+00 0.000000e+00
<ENDHMM>
