~o
<STREAMINFO> 1 39
<VECSIZE> 39<NULLD><PLP_D_A_0><DIAGC>
~h "sebelas"
<BEGINHMM>
<NUMSTATES> 8
<STATE> 2
<MEAN> 39
 -1.781339e+00 -1.727943e+00 3.111315e-01 -1.121069e+00 -6.747478e-01 -6.035193e-01 -1.884605e-01 -9.182665e-01 -6.497250e-01 -9.791163e-02 3.707958e-01 4.108951e-01 5.228725e+00 2.187147e-01 1.196084e-01 -5.788859e-02 7.799741e-02 -6.135539e-03 -1.069057e-01 -4.238341e-02 -5.222801e-03 -5.498543e-02 -8.720955e-02 -3.920621e-02 1.805299e-02 2.281859e-02 7.982405e-02 1.106240e-01 -3.889792e-02 6.717985e-02 3.085395e-02 -7.525296e-03 -1.084753e-02 2.483641e-02 9.873393e-03 -4.975598e-02 -4.589393e-02 -3.039986e-02 -4.650950e-02
<VARIANCE> 39
 7.106885e-01 5.734505e-01 5.008267e-01 6.371431e-01 4.969662e-01 5.540189e-01 7.012973e-01 4.043821e-01 4.767796e-01 2.408801e-01 1.700754e-01 1.187904e-01 1.327828e+00 1.448389e-01 1.618525e-01 7.567517e-02 7.073471e-02 4.453586e-02 3.667477e-02 3.819673e-02 3.282640e-02 5.098184e-02 4.603774e-02 2.967970e-02 1.513857e-02 4.125872e-02 1.916839e-02 1.827765e-02 1.358496e-02 1.000000e-02 1.000000e-02 1.000000e-02 1.000000e-02 1.000000e-02 1.000000e-02 1.000000e-02 1.000000e-02 1.000000e-02 1.000000e-02
<GCONST> -3.603450e+01
<STATE> 3
<MEAN> 39
 -3.685312e-01 -4.356292e-02 -2.287353e-01 -2.109886e-01 -3.139825e-01 -9.411514e-01 -4.900827e-01 -5.977949e-01 -6.664124e-01 -1.028703e+00 -4.240958e-01 2.254584e-02 4.899962e+00 1.302320e-01 5.008328e-02 -8.075392e-02 7.243692e-02 2.021145e-02 -4.168122e-02 -3.541542e-02 2.962880e-02 -1.233543e-02 -9.647776e-02 -7.200272e-02 3.291081e-03 7.992074e-03 -3.883886e-02 -1.064729e-01 8.147368e-04 -4.773379e-02 -4.588684e-02 -6.902686e-03 1.409049e-03 -1.887474e-02 -9.169049e-03 3.369571e-02 5.231399e-02 4.634006e-02 4.653032e-02
<VARIANCE> 39
 2.238510e-01 3.750717e-01 3.829871e-01 4.073899e-01 3.117518e-01 4.341243e-01 3.846094e-01 3.889285e-01 1.966619e-01 2.404562e-01 1.926524e-01 1.355085e-01 8.036618e-01 3.420763e-02 1.112059e-01 3.349110e-02 3.118158e-02 3.903823e-02 5.743433e-02 2.717478e-02 2.153485e-02 2.912905e-02 2.361629e-02 4.338993e-02 4.023847e-02 4.451861e-02 1.000000e-02 1.000000e-02 1.000000e-02 1.000000e-02 1.000000e-02 1.267639e-02 1.000000e-02 1.000000e-02 1.000000e-02 1.000000e-02 1.000000e-02 1.000000e-02 1.000000e-02
<GCONST> -4.582763e+01
<STATE> 4
<MEAN> 39
 2.576034e-02 -1.036514e+00 -6.549291e-01 -8.531970e-01 -9.343593e-01 -1.396136e+00 -2.336926e-01 -8.171751e-01 -7.133333e-01 -6.295294e-01 9.990461e-02 6.717055e-01 5.901269e+00 7.032731e-03 -1.271688e-01 -5.677463e-02 -1.130640e-01 -1.103258e-01 3.262493e-02 7.604341e-02 2.491409e-02 1.182361e-01 1.358145e-01 8.768560e-02 3.605029e-02 9.763600e-02 -2.264231e-02 1.946775e-02 1.579006e-02 -1.471083e-03 2.427505e-02 2.569702e-02 1.212187e-02 9.672656e-03 1.982708e-02 5.254173e-03 -6.662608e-03 -2.835072e-02 -1.586466e-02
<VARIANCE> 39
 1.232771e-01 6.421793e-01 6.481029e-01 7.567278e-01 4.970594e-01 5.959657e-01 7.195947e-01 6.312350e-01 6.050002e-01 5.243592e-01 3.078294e-01 1.360858e-01 6.414916e-01 1.000000e-02 1.522889e-02 2.598108e-02 1.292469e-02 2.264554e-02 2.957731e-02 2.049593e-02 2.644909e-02 4.147026e-02 1.838656e-02 2.370459e-02 2.165179e-02 1.000000e-02 1.000000e-02 1.000000e-02 1.000000e-02 1.000000e-02 1.000000e-02 1.000000e-02 1.000000e-02 1.000000e-02 1.000000e-02 1.000000e-02 1.000000e-02 1.000000e-02 1.000000e-02
<GCONST> -4.918534e+01
<STATE> 5
<MEAN> 39
 -1.486768e-01 -1.432735e+00 -6.576775e-01 -1.224266e+00 -9.889731e-01 -7.522094e-01 -3.723604e-02 -6.579536e-01 7.970193e-02 -2.827023e-01 3.019869e-01 5.055455e-01 5.985915e+00 -2.220823e-01 6.342657e-03 2.404171e-01 -4.891947e-02 1.143734e-01 1.193003e-01 -5.371920e-02 -6.219081e-02 -7.900829e-02 -1.007821e-02 1.413716e-02 -5.953047e-02 -3.474379e-02 -9.002102e-02 5.562889e-04 6.853271e-02 -2.252635e-02 1.373286e-02 -4.862812e-03 -1.122890e-02 -8.853492e-03 -3.679448e-02 6.068405e-03 -1.143999e-02 -6.253534e-03 -1.225998e-02
<VARIANCE> 39
 9.447509e-02 5.455045e-01 6.953484e-01 8.568923e-01 3.866133e-01 8.302881e-01 7.719361e-01 4.654247e-01 3.492706e-01 2.812948e-01 2.288488e-01 1.655298e-01 1.038913e+00 4.163174e-02 4.531869e-02 4.191209e-02 2.579661e-02 2.455627e-02 1.670511e-02 2.631231e-02 1.985298e-02 3.222077e-02 2.482126e-02 1.959118e-02 1.185059e-02 1.000000e-02 1.000000e-02 1.000000e-02 1.000000e-02 1.000000e-02 1.000000e-02 1.000000e-02 1.000000e-02 1.000000e-02 1.000000e-02 1.000000e-02 1.000000e-02 1.000000e-02 1.000000e-02
<GCONST> -4.795161e+01
<STATE> 6
<MEAN> 39
 -2.050117e+00 -1.502098e+00 7.995667e-01 -1.903887e+00 -3.459056e-01 -4.698247e-01 1.649879e-01 -7.867751e-01 -2.170899e-01 -3.024707e-02 1.978703e-01 2.646251e-01 5.965731e+00 -2.184103e-01 -7.048394e-02 4.943647e-02 -4.162734e-02 -8.585717e-03 1.993501e-02 4.149298e-02 7.611157e-03 -4.100945e-03 4.439376e-02 3.373374e-03 -5.367864e-03 -1.086474e-01 1.075050e-01 2.320172e-02 -1.088767e-01 5.595573e-02 -2.574401e-02 -2.620864e-02 -6.442554e-03 3.611850e-03 1.457376e-02 -1.864022e-02 3.657714e-03 1.349717e-02 -3.232674e-02
<VARIANCE> 39
 3.333056e-01 5.312033e-01 7.206002e-01 5.646932e-01 1.322138e+00 3.675651e-01 7.923306e-01 2.142309e-01 4.073459e-01 2.470023e-01 2.282787e-01 8.277038e-02 4.818066e-01 8.441664e-02 4.917416e-02 7.004618e-02 3.920139e-02 3.941090e-02 3.396420e-02 2.422705e-02 2.542348e-02 2.143784e-02 1.727675e-02 1.033785e-02 1.000000e-02 1.484067e-02 1.000000e-02 1.161895e-02 1.000000e-02 1.000000e-02 1.000000e-02 1.000000e-02 1.000000e-02 1.000000e-02 1.000000e-02 1.000000e-02 1.000000e-02 1.000000e-02 1.000000e-02
<GCONST> -4.684006e+01
<STATE> 7
<MEAN> 39
 -1.617879e+00 -1.283988e+00 -4.022284e-01 -1.124594e+00 -8.530983e-01 -5.986648e-01 -2.758111e-01 -7.588136e-01 -3.413430e-01 -2.469402e-01 3.886082e-01 3.672796e-01 4.726446e+00 1.235219e-01 1.212902e-01 -1.456717e-01 8.469228e-02 2.447414e-02 -4.111269e-02 -1.396908e-02 2.831700e-03 -2.312645e-03 -2.647216e-02 -2.537335e-02 -5.977544e-03 -1.082691e-01 5.863949e-03 6.978516e-03 1.926314e-02 -8.569490e-03 1.301499e-02 -4.742572e-04 1.350020e-03 1.835292e-03 -4.847955e-04 -2.841194e-03 -6.585295e-03 -4.995008e-03 2.804056e-02
<VARIANCE> 39
 5.367413e-01 5.046686e-01 4.055961e-01 3.451455e-01 6.230875e-01 4.539903e-01 4.433159e-01 1.731193e-01 2.776949e-01 2.491210e-01 2.090612e-01 1.194323e-01 1.036367e+00 3.244419e-02 4.506006e-02 4.022754e-02 3.350495e-02 3.817694e-02 2.803755e-02 1.763239e-02 2.345012e-02 2.504938e-02 2.441202e-02 1.940433e-02 1.185578e-02 4.488200e-02 1.000000e-02 1.000000e-02 1.000000e-02 1.000000e-02 1.000000e-02 1.000000e-02 1.000000e-02 1.000000e-02 1.000000e-02 1.000000e-02 1.000000e-02 1.000000e-02 1.000000e-02
<GCONST> -4.826614e+01
<TRANSP> 8
 0.000000e+00 8.536586e-01 1.463415e-01 0.000000e+00 0.000000e+00 0.000000e+00 0.000000e+00 0.000000e+00
 0.000000e+00 7.839506e-01 2.160494e-01 0.000000e+00 0.000000e+00 0.000000e+00 0.000000e+00 0.000000e+00
 0.000000e+00 0.000000e+00 8.284519e-01 1.715481e-01 0.000000e+00 0.000000e+00 0.000000e+00 0.000000e+00
 0.000000e+00 0.000000e+00 0.000000e+00 8.619528e-01 1.380471e-01 0.000000e+00 0.000000e+00 0.000000e+00
 0.000000e+00 0.000000e+00 0.000000e+00 0.000000e+00 7.783784e-01 2.216216e-01 0.000000e+00 0.000000e+00
 0.000000e+00 0.000000e+00 0.000000e+00 0.000000e+00 0.000000e+00 8.000000e-01 2.000000e-01 0.000000e+00
 0.000000e+00 0.000000e+00 0.000000e+00 0.000000e+00 0.000000e+00 0.000000e+00 8.305785e-01 1.694215e-01
 0.000000e+00 0.000000e+00 0.000000e+00 0.000000e+00 0.000000e+00 0.000000e+00 0.000000e+00 0.000000e+00
<ENDHMM>
