~o
<STREAMINFO> 1 39
<VECSIZE> 39<NULLD><MFCC_D_A_0><DIAGC>
~h "sembilan"
<BEGINHMM>
<NUMSTATES> 6
<STATE> 2
<MEAN> 39
 0.000000e+00 0.000000e+00 0.000000e+00 0.000000e+00 0.000000e+00 0.000000e+00 0.000000e+00 0.000000e+00 0.000000e+00 0.000000e+00 0.000000e+00 0.000000e+00 0.000000e+00 0.000000e+00 0.000000e+00 0.000000e+00 0.000000e+00 0.000000e+00 0.000000e+00 0.000000e+00 0.000000e+00 0.000000e+00 0.000000e+00 0.000000e+00 0.000000e+00 0.000000e+00 0.000000e+00 0.000000e+00 0.000000e+00 0.000000e+00 0.000000e+00 0.000000e+00 0.000000e+00 0.000000e+00 0.000000e+00 0.000000e+00 0.000000e+00 0.000000e+00 0.000000e+00
<VARIANCE> 39
 6.528473e+01 1.001293e+02 6.810915e+01 1.204495e+02 8.700153e+01 1.194759e+02 1.052560e+02 9.658527e+01 4.878539e+01 4.554588e+01 5.251741e+01 5.251060e+01 1.271411e+02 1.876720e+00 4.004371e+00 2.710354e+00 3.106874e+00 3.571307e+00 3.318551e+00 2.784384e+00 2.802641e+00 3.067055e+00 2.421977e+00 2.764368e+00 2.566557e+00 1.483079e+00 2.237056e-01 4.923758e-01 4.515693e-01 4.548544e-01 5.019031e-01 6.080395e-01 4.971873e-01 4.939938e-01 5.327133e-01 4.441415e-01 4.653201e-01 4.099324e-01 1.982068e-01
<GCONST> 1.303615e+02
<STATE> 3
<MEAN> 39
 0.000000e+00 0.000000e+00 0.000000e+00 0.000000e+00 0.000000e+00 0.000000e+00 0.000000e+00 0.000000e+00 0.000000e+00 0.000000e+00 0.000000e+00 0.000000e+00 0.000000e+00 0.000000e+00 0.000000e+00 0.000000e+00 0.000000e+00 0.000000e+00 0.000000e+00 0.000000e+00 0.000000e+00 0.000000e+00 0.000000e+00 0.000000e+00 0.000000e+00 0.000000e+00 0.000000e+00 0.000000e+00 0.000000e+00 0.000000e+00 0.000000e+00 0.000000e+00 0.000000e+00 0.000000e+00 0.000000e+00 0.000000e+00 0.000000e+00 0.000000e+00 0.000000e+00
<VARIANCE> 39
 6.528473e+01 1.001293e+02 6.810915e+01 1.204495e+02 8.700153e+01 1.194759e+02 1.052560e+02 9.658527e+01 4.878539e+01 4.554588e+01 5.251741e+01 5.251060e+01 1.271411e+02 1.876720e+00 4.004371e+00 2.710354e+00 3.106874e+00 3.571307e+00 3.318551e+00 2.784384e+00 2.802641e+00 3.067055e+00 2.421977e+00 2.764368e+00 2.566557e+00 1.483079e+00 2.237056e-01 4.923758e-01 4.515693e-01 4.548544e-01 5.019031e-01 6.080395e-01 4.971873e-01 4.939938e-01 5.327133e-01 4.441415e-01 4.653201e-01 4.099324e-01 1.982068e-01
<GCONST> 1.303615e+02
<STATE> 4
<MEAN> 39
 0.000000e+00 0.000000e+00 0.000000e+00 0.000000e+00 0.000000e+00 0.000000e+00 0.000000e+00 0.000000e+00 0.000000e+00 0.000000e+00 0.000000e+00 0.000000e+00 0.000000e+00 0.000000e+00 0.000000e+00 0.000000e+00 0.000000e+00 0.000000e+00 0.000000e+00 0.000000e+00 0.000000e+00 0.000000e+00 0.000000e+00 0.000000e+00 0.000000e+00 0.000000e+00 0.000000e+00 0.000000e+00 0.000000e+00 0.000000e+00 0.000000e+00 0.000000e+00 0.000000e+00 0.000000e+00 0.000000e+00 0.000000e+00 0.000000e+00 0.000000e+00 0.000000e+00
<VARIANCE> 39
 6.528473e+01 1.001293e+02 6.810915e+01 1.204495e+02 8.700153e+01 1.194759e+02 1.052560e+02 9.658527e+01 4.878539e+01 4.554588e+01 5.251741e+01 5.251060e+01 1.271411e+02 1.876720e+00 4.004371e+00 2.710354e+00 3.106874e+00 3.571307e+00 3.318551e+00 2.784384e+00 2.802641e+00 3.067055e+00 2.421977e+00 2.764368e+00 2.566557e+00 1.483079e+00 2.237056e-01 4.923758e-01 4.515693e-01 4.548544e-01 5.019031e-01 6.080395e-01 4.971873e-01 4.939938e-01 5.327133e-01 4.441415e-01 4.653201e-01 4.099324e-01 1.982068e-01
<GCONST> 1.303615e+02
<STATE> 5
<MEAN> 39
 0.000000e+00 0.000000e+00 0.000000e+00 0.000000e+00 0.000000e+00 0.000000e+00 0.000000e+00 0.000000e+00 0.000000e+00 0.000000e+00 0.000000e+00 0.000000e+00 0.000000e+00 0.000000e+00 0.000000e+00 0.000000e+00 0.000000e+00 0.000000e+00 0.000000e+00 0.000000e+00 0.000000e+00 0.000000e+00 0.000000e+00 0.000000e+00 0.000000e+00 0.000000e+00 0.000000e+00 0.000000e+00 0.000000e+00 0.000000e+00 0.000000e+00 0.000000e+00 0.000000e+00 0.000000e+00 0.000000e+00 0.000000e+00 0.000000e+00 0.000000e+00 0.000000e+00
<VARIANCE> 39
 6.528473e+01 1.001293e+02 6.810915e+01 1.204495e+02 8.700153e+01 1.194759e+02 1.052560e+02 9.658527e+01 4.878539e+01 4.554588e+01 5.251741e+01 5.251060e+01 1.271411e+02 1.876720e+00 4.004371e+00 2.710354e+00 3.106874e+00 3.571307e+00 3.318551e+00 2.784384e+00 2.802641e+00 3.067055e+00 2.421977e+00 2.764368e+00 2.566557e+00 1.483079e+00 2.237056e-01 4.923758e-01 4.515693e-01 4.548544e-01 5.019031e-01 6.080395e-01 4.971873e-01 4.939938e-01 5.327133e-01 4.441415e-01 4.653201e-01 4.099324e-01 1.982068e-01
<GCONST> 1.303615e+02
<TRANSP> 6
 0.000000e+00 5.000000e-01 5.000000e-01 0.000000e+00 0.000000e+00 0.000000e+00
 0.000000e+00 4.000000e-01 3.000000e-01 3.000000e-01 0.000000e+00 0.000000e+00
 0.000000e+00 0.000000e+00 4.000000e-01 3.000000e-01 3.000000e-01 0.000000e+00
 0.000000e+00 0.000000e+00 0.000000e+00 4.000000e-01 3.000000e-01 3.000000e-01
 0.000000e+00 0.000000e+00 0.000000e+00 0.000000e+00 5.000000e-01 5.000000e-01
 0.000000e+00 0.000000e+00 0.000000e+00 0.000000e+00 0.000000e+00 0.000000e+00
<ENDHMM>
