~o
<STREAMINFO> 1 39
<VECSIZE> 39<NULLD><MFCC_D_A_0><DIAGC>
~h "sepuluh"
<BEGINHMM>
<NUMSTATES> 6
<STATE> 2
<MEAN> 39
 0.000000e+00 0.000000e+00 0.000000e+00 0.000000e+00 0.000000e+00 0.000000e+00 0.000000e+00 0.000000e+00 0.000000e+00 0.000000e+00 0.000000e+00 0.000000e+00 0.000000e+00 0.000000e+00 0.000000e+00 0.000000e+00 0.000000e+00 0.000000e+00 0.000000e+00 0.000000e+00 0.000000e+00 0.000000e+00 0.000000e+00 0.000000e+00 0.000000e+00 0.000000e+00 0.000000e+00 0.000000e+00 0.000000e+00 0.000000e+00 0.000000e+00 0.000000e+00 0.000000e+00 0.000000e+00 0.000000e+00 0.000000e+00 0.000000e+00 0.000000e+00 0.000000e+00
<VARIANCE> 39
 8.504814e+01 8.624080e+01 7.582117e+01 9.606447e+01 7.975150e+01 1.012164e+02 1.001786e+02 8.027995e+01 5.892027e+01 5.248636e+01 4.902771e+01 3.179187e+01 1.123818e+02 2.725423e+00 2.935609e+00 3.569331e+00 2.508360e+00 4.524579e+00 4.322104e+00 2.800630e+00 2.517102e+00 3.556073e+00 2.672510e+00 2.624795e+00 2.069422e+00 2.096714e+00 3.833424e-01 4.567166e-01 5.745975e-01 4.482940e-01 6.766940e-01 7.157447e-01 5.398536e-01 4.680934e-01 6.579965e-01 5.067215e-01 4.512824e-01 3.806655e-01 2.734913e-01
<GCONST> 1.320962e+02
<STATE> 3
<MEAN> 39
 0.000000e+00 0.000000e+00 0.000000e+00 0.000000e+00 0.000000e+00 0.000000e+00 0.000000e+00 0.000000e+00 0.000000e+00 0.000000e+00 0.000000e+00 0.000000e+00 0.000000e+00 0.000000e+00 0.000000e+00 0.000000e+00 0.000000e+00 0.000000e+00 0.000000e+00 0.000000e+00 0.000000e+00 0.000000e+00 0.000000e+00 0.000000e+00 0.000000e+00 0.000000e+00 0.000000e+00 0.000000e+00 0.000000e+00 0.000000e+00 0.000000e+00 0.000000e+00 0.000000e+00 0.000000e+00 0.000000e+00 0.000000e+00 0.000000e+00 0.000000e+00 0.000000e+00
<VARIANCE> 39
 8.504814e+01 8.624080e+01 7.582117e+01 9.606447e+01 7.975150e+01 1.012164e+02 1.001786e+02 8.027995e+01 5.892027e+01 5.248636e+01 4.902771e+01 3.179187e+01 1.123818e+02 2.725423e+00 2.935609e+00 3.569331e+00 2.508360e+00 4.524579e+00 4.322104e+00 2.800630e+00 2.517102e+00 3.556073e+00 2.672510e+00 2.624795e+00 2.069422e+00 2.096714e+00 3.833424e-01 4.567166e-01 5.745975e-01 4.482940e-01 6.766940e-01 7.157447e-01 5.398536e-01 4.680934e-01 6.579965e-01 5.067215e-01 4.512824e-01 3.806655e-01 2.734913e-01
<GCONST> 1.320962e+02
<STATE> 4
<MEAN> 39
 0.000000e+00 0.000000e+00 0.000000e+00 0.000000e+00 0.000000e+00 0.000000e+00 0.000000e+00 0.000000e+00 0.000000e+00 0.000000e+00 0.000000e+00 0.000000e+00 0.000000e+00 0.000000e+00 0.000000e+00 0.000000e+00 0.000000e+00 0.000000e+00 0.000000e+00 0.000000e+00 0.000000e+00 0.000000e+00 0.000000e+00 0.000000e+00 0.000000e+00 0.000000e+00 0.000000e+00 0.000000e+00 0.000000e+00 0.000000e+00 0.000000e+00 0.000000e+00 0.000000e+00 0.000000e+00 0.000000e+00 0.000000e+00 0.000000e+00 0.000000e+00 0.000000e+00
<VARIANCE> 39
 8.504814e+01 8.624080e+01 7.582117e+01 9.606447e+01 7.975150e+01 1.012164e+02 1.001786e+02 8.027995e+01 5.892027e+01 5.248636e+01 4.902771e+01 3.179187e+01 1.123818e+02 2.725423e+00 2.935609e+00 3.569331e+00 2.508360e+00 4.524579e+00 4.322104e+00 2.800630e+00 2.517102e+00 3.556073e+00 2.672510e+00 2.624795e+00 2.069422e+00 2.096714e+00 3.833424e-01 4.567166e-01 5.745975e-01 4.482940e-01 6.766940e-01 7.157447e-01 5.398536e-01 4.680934e-01 6.579965e-01 5.067215e-01 4.512824e-01 3.806655e-01 2.734913e-01
<GCONST> 1.320962e+02
<STATE> 5
<MEAN> 39
 0.000000e+00 0.000000e+00 0.000000e+00 0.000000e+00 0.000000e+00 0.000000e+00 0.000000e+00 0.000000e+00 0.000000e+00 0.000000e+00 0.000000e+00 0.000000e+00 0.000000e+00 0.000000e+00 0.000000e+00 0.000000e+00 0.000000e+00 0.000000e+00 0.000000e+00 0.000000e+00 0.000000e+00 0.000000e+00 0.000000e+00 0.000000e+00 0.000000e+00 0.000000e+00 0.000000e+00 0.000000e+00 0.000000e+00 0.000000e+00 0.000000e+00 0.000000e+00 0.000000e+00 0.000000e+00 0.000000e+00 0.000000e+00 0.000000e+00 0.000000e+00 0.000000e+00
<VARIANCE> 39
 8.504814e+01 8.624080e+01 7.582117e+01 9.606447e+01 7.975150e+01 1.012164e+02 1.001786e+02 8.027995e+01 5.892027e+01 5.248636e+01 4.902771e+01 3.179187e+01 1.123818e+02 2.725423e+00 2.935609e+00 3.569331e+00 2.508360e+00 4.524579e+00 4.322104e+00 2.800630e+00 2.517102e+00 3.556073e+00 2.672510e+00 2.624795e+00 2.069422e+00 2.096714e+00 3.833424e-01 4.567166e-01 5.745975e-01 4.482940e-01 6.766940e-01 7.157447e-01 5.398536e-01 4.680934e-01 6.579965e-01 5.067215e-01 4.512824e-01 3.806655e-01 2.734913e-01
<GCONST> 1.320962e+02
<TRANSP> 6
 0.000000e+00 5.000000e-01 5.000000e-01 0.000000e+00 0.000000e+00 0.000000e+00
 0.000000e+00 4.000000e-01 3.000000e-01 3.000000e-01 0.000000e+00 0.000000e+00
 0.000000e+00 0.000000e+00 4.000000e-01 3.000000e-01 3.000000e-01 0.000000e+00
 0.000000e+00 0.000000e+00 0.000000e+00 4.000000e-01 3.000000e-01 3.000000e-01
 0.000000e+00 0.000000e+00 0.000000e+00 0.000000e+00 5.000000e-01 5.000000e-01
 0.000000e+00 0.000000e+00 0.000000e+00 0.000000e+00 0.000000e+00 0.000000e+00
<ENDHMM>
