~o
<STREAMINFO> 1 39
<VECSIZE> 39<NULLD><MFCC_D_A_0><DIAGC>
~h "sepuluh"
<BEGINHMM>
<NUMSTATES> 6
<STATE> 2
<MEAN> 39
 -1.259439e+01 -4.025041e+00 1.065432e+00 2.677058e+00 -2.616171e+00 -7.696412e-01 9.854847e-01 9.554132e-01 -4.670699e-01 -3.299108e+00 1.161418e+00 4.250978e+00 5.131487e+01 5.087345e-01 1.493599e+00 -6.930135e-01 1.426778e-01 2.597594e-01 -2.273300e-01 -3.847463e-01 2.646922e-01 3.940448e-01 7.750229e-02 -1.765160e-01 -5.847976e-01 -6.032719e-01 2.230252e-01 8.688114e-04 -1.124198e-02 2.630062e-02 -9.960029e-02 -7.720343e-02 -1.543466e-01 1.225552e-02 -8.316559e-02 -1.630419e-01 -1.056798e-01 -1.257388e-01 1.398055e-01
<VARIANCE> 39
 4.963766e+01 1.437065e+02 4.804918e+01 6.460277e+01 4.287268e+01 6.517622e+01 5.166739e+01 4.474676e+01 4.020989e+01 3.900336e+01 2.484958e+01 2.881439e+01 1.057018e+02 3.594835e+00 9.834316e+00 4.995619e+00 5.856488e+00 4.874915e+00 6.391798e+00 5.124951e+00 3.943198e+00 3.029435e+00 4.026914e+00 3.914211e+00 3.985855e+00 3.839208e+00 5.395830e-01 1.539310e+00 9.323229e-01 9.494702e-01 8.973266e-01 1.402738e+00 9.873529e-01 7.075335e-01 5.726393e-01 9.939078e-01 6.987039e-01 7.280473e-01 5.361522e-01
<GCONST> 1.405452e+02
<STATE> 3
<MEAN> 39
 1.885401e+00 5.246429e+00 -8.158470e-01 4.955608e+00 -3.830117e+00 -2.792613e+00 -6.329090e+00 5.447948e+00 7.841516e+00 -9.652618e+00 -6.522101e+00 1.402615e+00 5.053875e+01 1.309595e+00 -5.162035e-02 6.874561e-01 -1.546544e-01 -1.090212e+00 1.943350e-01 -4.081394e-01 -1.693243e-02 9.107769e-01 -1.040959e+00 -8.501868e-01 3.927493e-01 1.129846e+00 -1.437373e-01 -5.461950e-02 -1.494949e-02 -3.765162e-02 1.373389e-01 1.034281e-01 5.149524e-02 4.798744e-03 9.647732e-03 9.764872e-02 8.001441e-02 5.782297e-02 -6.963454e-02
<VARIANCE> 39
 3.400018e+01 4.436321e+01 6.282211e+01 2.272822e+01 7.328275e+01 3.570766e+01 1.923889e+01 3.616646e+01 6.428019e+01 3.463335e+01 3.204555e+01 3.078019e+01 4.132803e+01 3.317573e+00 3.701579e+00 7.164963e+00 3.017201e+00 8.620408e+00 4.408850e+00 2.551335e+00 3.322475e+00 7.037373e+00 4.746820e+00 4.812385e+00 3.302131e+00 1.872381e+00 8.024834e-01 9.516457e-01 1.705594e+00 6.449660e-01 2.194545e+00 9.886773e-01 6.071507e-01 6.211889e-01 1.578114e+00 9.532316e-01 1.065657e+00 7.505843e-01 5.221602e-01
<GCONST> 1.364171e+02
<STATE> 4
<MEAN> 39
 5.311046e+00 8.780947e+00 3.099343e+00 7.396210e+00 -4.236185e+00 -1.164525e+00 -5.316137e+00 3.814415e+00 6.802210e+00 -1.188987e+01 -8.407417e+00 -5.804430e-01 5.828965e+01 -2.882761e-01 5.475736e-02 -5.844006e-02 2.499230e-01 4.053606e-01 4.549462e-02 3.794988e-01 4.073349e-01 7.281474e-02 1.791081e-01 2.510083e-01 2.317347e-01 -2.623971e-01 -1.174492e-01 -1.804804e-03 -1.141262e-01 -3.719121e-03 4.609646e-02 -4.331267e-02 1.640900e-01 7.744890e-02 -5.182301e-02 1.727127e-01 9.096909e-02 1.244110e-02 -1.079948e-01
<VARIANCE> 39
 1.686217e+01 2.634197e+01 7.665018e+01 1.993899e+01 1.001398e+02 3.411946e+01 4.202980e+01 3.619090e+01 9.321827e+01 3.938445e+01 2.874495e+01 3.874359e+01 5.706167e+01 4.158368e-01 1.289894e+00 6.603408e+00 1.357435e+00 1.022459e+01 2.363527e+00 3.476409e+00 2.896297e+00 4.904484e+00 4.524996e+00 2.290005e+00 3.040431e+00 6.416445e-01 5.587792e-02 2.203752e-01 9.826189e-01 2.669277e-01 1.468614e+00 3.824110e-01 6.026514e-01 4.271118e-01 7.894806e-01 7.835621e-01 5.268355e-01 4.104380e-01 1.015655e-01
<GCONST> 1.195300e+02
<STATE> 5
<MEAN> 39
 -4.752422e+00 9.379799e+00 -3.127121e+00 -1.814604e-01 -4.636976e+00 -2.352739e+00 2.504024e+00 8.053259e+00 3.544307e+00 -4.298611e+00 -3.338470e+00 1.756270e+00 4.705801e+01 -7.594543e-01 -2.944224e-01 -6.633917e-01 -9.139688e-01 -1.684869e-01 -1.023341e-01 2.313314e-01 -5.444404e-01 -1.196783e+00 4.231732e-01 5.442602e-01 -5.228103e-02 -4.484969e-01 1.130657e-01 -2.817269e-02 2.334889e-01 1.527185e-02 -1.299158e-01 1.051055e-01 -2.229718e-01 -9.126977e-02 1.506880e-01 -2.588054e-01 -9.461339e-02 3.835287e-02 1.294117e-01
<VARIANCE> 39
 3.835933e+01 3.268937e+01 5.543061e+01 6.656219e+01 4.843061e+01 4.044583e+01 2.593744e+01 9.138347e+01 9.608757e+01 3.337348e+01 3.270668e+01 2.722437e+01 7.551529e+01 1.443996e+00 3.209284e+00 6.149065e+00 3.301836e+00 4.391175e+00 3.239542e+00 3.523547e+00 3.628844e+00 4.611986e+00 3.664867e+00 3.841644e+00 2.868493e+00 2.503976e+00 2.186373e-01 6.080367e-01 1.012301e+00 9.163754e-01 5.280124e-01 5.428135e-01 7.253057e-01 8.797802e-01 1.219480e+00 7.180449e-01 9.061124e-01 4.871208e-01 3.247973e-01
<GCONST> 1.315901e+02
<TRANSP> 6
 0.000000e+00 1.000000e+00 0.000000e+00 0.000000e+00 0.000000e+00 0.000000e+00
 0.000000e+00 9.191919e-01 8.080807e-02 0.000000e+00 0.000000e+00 0.000000e+00
 0.000000e+00 0.000000e+00 8.987342e-01 1.012658e-01 0.000000e+00 0.000000e+00
 0.000000e+00 0.000000e+00 0.000000e+00 9.428571e-01 5.714285e-02 0.000000e+00
 0.000000e+00 0.000000e+00 0.000000e+00 0.000000e+00 9.148936e-01 8.510637e-02
 0.000000e+00 0.000000e+00 0.000000e+00 0.000000e+00 0.000000e+00 0.000000e+00
<ENDHMM>
