~o
<STREAMINFO> 1 39
<VECSIZE> 39<NULLD><PLP_D_A_0><DIAGC>
~h "tiga"
<BEGINHMM>
<NUMSTATES> 8
<STATE> 2
<MEAN> 39
 -8.484466e-01 -1.202299e+00 -6.384419e-03 3.045862e-01 -2.678982e-01 -1.185824e+00 -1.200867e+00 -8.285929e-01 -4.076117e-01 -5.246415e-01 1.444454e-01 -6.397786e-02 4.993536e+00 1.691684e-01 1.559316e-02 1.944265e-01 3.213902e-01 1.576388e-01 -2.169445e-01 -1.863490e-01 -8.340335e-03 -8.875304e-02 -5.511147e-02 -7.618497e-02 -9.657948e-02 1.532703e-01 -2.637254e-02 7.162957e-02 -3.816396e-02 -2.033567e-02 4.181658e-03 1.990782e-02 7.189848e-02 4.518803e-02 -2.695262e-04 1.790272e-02 -2.502465e-02 8.234175e-04 -8.565416e-02
<VARIANCE> 39
 2.601961e-01 4.165991e-01 6.170111e-01 8.881041e-01 6.105434e-01 8.070121e-01 6.169347e-01 2.630631e-01 3.109787e-01 3.347221e-01 3.079189e-01 1.506027e-01 1.171287e+00 1.759036e-02 7.133567e-02 4.273777e-02 4.874843e-02 4.509651e-02 5.666142e-02 5.594992e-02 3.731999e-02 3.327368e-02 2.593012e-02 3.396528e-02 1.406558e-02 5.055601e-02 1.000000e-02 1.283190e-02 1.037885e-02 1.566360e-02 1.000000e-02 1.199534e-02 1.376031e-02 1.000000e-02 1.000000e-02 1.000000e-02 1.000000e-02 1.000000e-02 1.020439e-02
<GCONST> -4.014054e+01
<STATE> 3
<MEAN> 39
 -7.858717e-01 -7.904972e-01 6.452207e-01 5.743670e-01 3.479670e-01 -1.957070e+00 -8.938380e-01 -6.458946e-01 -5.047655e-01 -5.002580e-01 -4.185695e-01 -2.797650e-01 5.254776e+00 -4.647079e-02 1.371973e-01 -8.771397e-02 -6.293253e-02 -4.820248e-03 1.465181e-01 1.387704e-01 2.402757e-02 4.207603e-02 1.960738e-02 -1.454615e-02 3.994204e-03 -1.510766e-01 -1.031651e-02 -6.157152e-02 -5.224732e-02 -8.717877e-02 -4.342652e-02 6.085481e-02 1.041859e-02 -3.783216e-02 1.450485e-02 2.470045e-03 4.308111e-02 3.555068e-02 3.441879e-02
<VARIANCE> 39
 9.186432e-02 7.122544e-01 1.009372e+00 8.696817e-01 2.747974e-01 1.305243e+00 4.834774e-01 3.562911e-01 2.166168e-01 2.085322e-01 4.250987e-01 1.327475e-01 9.615223e-01 1.000000e-02 2.761990e-02 3.536709e-02 2.964882e-02 1.800317e-02 5.029728e-02 2.677345e-02 1.878270e-02 1.899967e-02 2.014102e-02 2.829866e-02 1.337368e-02 2.326457e-02 1.000000e-02 1.256379e-02 1.000000e-02 1.000000e-02 1.000000e-02 1.238805e-02 1.088760e-02 1.000000e-02 1.000000e-02 1.000000e-02 1.000000e-02 1.000000e-02 1.228874e-02
<GCONST> -4.827433e+01
<STATE> 4
<MEAN> 39
 -8.828335e-01 -9.115981e-01 -1.067277e-01 6.049460e-02 9.374872e-02 -9.724185e-01 -8.063915e-01 -9.749782e-01 -3.704267e-01 -5.136452e-01 -4.436305e-02 -1.562991e-01 5.146347e+00 1.290691e-01 -2.232065e-01 -7.146820e-02 -2.227807e-01 -1.260877e-01 -3.475129e-02 -1.257771e-01 -1.452785e-01 -5.730992e-02 -4.713809e-03 1.534562e-01 1.655063e-01 3.049375e-01 6.944667e-02 1.268707e-03 1.244349e-02 -1.105450e-02 -4.218547e-02 -7.261348e-02 -2.621650e-02 2.299889e-02 -2.469168e-02 -1.756864e-03 2.577114e-02 3.869514e-02 4.247422e-02
<VARIANCE> 39
 2.867652e-01 6.762037e-01 5.766968e-01 8.579904e-01 4.798127e-01 3.999812e-01 5.762509e-01 5.145844e-01 3.374105e-01 2.929789e-01 1.860689e-01 1.245373e-01 1.110555e+00 2.889033e-02 4.688812e-02 4.338373e-02 3.349227e-02 3.268657e-02 7.335872e-02 6.348898e-02 2.273212e-02 4.325145e-02 4.375491e-02 3.113412e-02 2.027039e-02 2.670002e-02 1.000000e-02 1.325227e-02 1.015041e-02 1.000000e-02 1.000000e-02 1.245575e-02 1.491221e-02 1.000000e-02 1.000000e-02 1.000000e-02 1.000000e-02 1.000000e-02 1.283910e-02
<GCONST> -4.118209e+01
<STATE> 5
<MEAN> 39
 -1.722364e-01 -1.350190e+00 -3.208191e-01 -6.828295e-01 -3.229737e-01 -1.720338e+00 -1.065993e+00 -1.143216e+00 -7.128080e-01 -1.775546e-01 6.067456e-01 4.310103e-01 6.176441e+00 1.902967e-01 -3.808665e-02 -1.934049e-01 -2.612848e-01 -2.348233e-01 -2.858811e-02 1.911639e-01 1.301037e-01 -6.545708e-03 5.991556e-02 1.142970e-01 1.858645e-01 1.037521e-01 -5.037372e-02 6.430572e-02 -2.182965e-03 2.933643e-02 1.939051e-02 7.330859e-02 9.457996e-02 5.881094e-02 5.508244e-02 -3.181491e-02 -8.543364e-02 -5.277385e-02 -9.681420e-02
<VARIANCE> 39
 9.612748e-02 6.068666e-01 5.306517e-01 9.909812e-01 2.793646e-01 9.239626e-01 9.664854e-01 5.153719e-01 1.983220e-01 6.007016e-01 3.779052e-01 1.427933e-01 7.164145e-01 1.302559e-02 1.634207e-02 2.278214e-02 1.762960e-02 1.714142e-02 5.175094e-02 4.258944e-02 2.019999e-02 3.649398e-02 4.053844e-02 3.601177e-02 2.125754e-02 1.105379e-02 1.000000e-02 1.000000e-02 1.000000e-02 1.000000e-02 1.000000e-02 1.043233e-02 1.000000e-02 1.000000e-02 1.000000e-02 1.000000e-02 1.000000e-02 1.000000e-02 1.000000e-02
<GCONST> -4.762033e+01
<STATE> 6
<MEAN> 39
 -1.328100e-01 -1.155942e+00 -9.995996e-01 -1.186213e+00 -9.568620e-01 -1.309409e+00 -2.253092e-01 -6.028308e-01 -3.582413e-01 -2.534352e-01 5.437397e-01 6.975600e-01 5.939347e+00 -4.962956e-02 8.958930e-02 -1.756719e-02 -1.004246e-02 -4.547533e-02 1.103288e-01 1.077512e-01 5.760024e-02 3.522876e-02 -7.664603e-02 -6.983119e-02 4.020435e-03 -1.385564e-01 -4.301800e-02 3.827516e-02 3.814107e-02 5.916946e-02 5.560424e-02 7.344328e-03 -3.098991e-02 -1.566450e-02 -1.328644e-02 -9.138432e-03 -2.104475e-02 -4.279813e-02 -5.166814e-02
<VARIANCE> 39
 1.603065e-01 5.774532e-01 6.923254e-01 8.773307e-01 2.432417e-01 6.269628e-01 8.558034e-01 6.617598e-01 3.295340e-01 4.404894e-01 2.771450e-01 1.357374e-01 6.304752e-01 1.000000e-02 2.166999e-02 1.330286e-02 1.611944e-02 1.241228e-02 1.534839e-02 2.326319e-02 2.121294e-02 2.054668e-02 1.739488e-02 1.616221e-02 1.414541e-02 1.843018e-02 1.000000e-02 1.000000e-02 1.000000e-02 1.000000e-02 1.000000e-02 1.000000e-02 1.000000e-02 1.000000e-02 1.000000e-02 1.000000e-02 1.000000e-02 1.000000e-02 1.000000e-02
<GCONST> -5.256717e+01
<STATE> 7
<MEAN> 39
 -4.384402e-01 -5.030349e-01 -5.274626e-01 -8.058254e-01 -5.504916e-01 -9.120601e-01 -2.653599e-01 -6.823628e-01 -5.572948e-01 -8.083627e-01 -4.232813e-02 3.214949e-01 4.988901e+00 -6.100884e-02 2.474675e-02 -2.050364e-02 7.628977e-03 4.506592e-02 -1.508314e-02 -5.535134e-03 1.927759e-02 -1.546779e-02 2.161564e-02 -2.062042e-02 -3.669783e-02 -6.672458e-02 4.976826e-03 -4.207978e-02 -7.595694e-03 -1.474330e-02 -1.414823e-02 -2.048018e-02 -9.019246e-03 -8.403099e-03 5.682831e-03 2.321697e-02 2.167993e-02 1.412397e-02 3.922766e-02
<VARIANCE> 39
 4.157307e-01 5.612460e-01 3.645837e-01 5.963171e-01 4.123426e-01 4.955952e-01 6.544288e-01 4.632035e-01 4.151559e-01 3.670719e-01 3.154112e-01 3.228628e-01 1.149500e+00 2.164413e-02 5.551831e-02 2.827849e-02 3.319899e-02 4.102533e-02 3.990281e-02 3.533604e-02 3.791504e-02 3.506501e-02 3.818965e-02 3.124467e-02 4.521662e-02 5.788411e-02 1.000000e-02 1.000000e-02 1.000000e-02 1.000000e-02 1.000000e-02 1.000000e-02 1.000000e-02 1.000000e-02 1.000000e-02 1.000000e-02 1.000000e-02 1.000000e-02 1.000000e-02
<GCONST> -4.073151e+01
<TRANSP> 8
 0.000000e+00 7.341772e-01 2.658228e-01 0.000000e+00 0.000000e+00 0.000000e+00 0.000000e+00 0.000000e+00
 0.000000e+00 7.040817e-01 2.959184e-01 0.000000e+00 0.000000e+00 0.000000e+00 0.000000e+00 0.000000e+00
 0.000000e+00 0.000000e+00 7.074074e-01 2.925926e-01 0.000000e+00 0.000000e+00 0.000000e+00 0.000000e+00
 0.000000e+00 0.000000e+00 0.000000e+00 6.425340e-01 3.574661e-01 0.000000e+00 0.000000e+00 0.000000e+00
 0.000000e+00 0.000000e+00 0.000000e+00 0.000000e+00 5.511364e-01 4.488636e-01 0.000000e+00 0.000000e+00
 0.000000e+00 0.000000e+00 0.000000e+00 0.000000e+00 0.000000e+00 7.375416e-01 2.624585e-01 0.000000e+00
 0.000000e+00 0.000000e+00 0.000000e+00 0.000000e+00 0.000000e+00 0.000000e+00 8.034826e-01 1.965174e-01
 0.000000e+00 0.000000e+00 0.000000e+00 0.000000e+00 0.000000e+00 0.000000e+00 0.000000e+00 0.000000e+00
<ENDHMM>
