~o
<STREAMINFO> 1 39
<VECSIZE> 39<NULLD><MFCC_D_A_0><DIAGC>
~h "tiga"
<BEGINHMM>
<NUMSTATES> 6
<STATE> 2
<MEAN> 39
 -2.738480e+00 -1.316003e+00 1.520502e+00 1.345578e+01 4.003874e+00 -1.697493e+00 -9.209676e+00 1.469428e+00 1.070179e+00 -5.900383e+00 4.614512e-01 -1.167559e+00 4.868443e+01 7.813575e-01 -2.326677e-01 2.927083e-01 4.654533e-01 2.177454e-01 2.777186e-01 -4.428324e-01 -8.143079e-02 1.883991e-01 -6.607028e-01 4.891928e-02 3.751991e-01 7.080765e-01 7.205052e-02 9.227265e-02 1.168973e-02 -4.156677e-02 -8.197363e-02 -3.530139e-02 2.288898e-02 -4.516298e-03 -3.714532e-02 -1.038594e-01 -5.364082e-02 1.141696e-01 1.741061e-02
<VARIANCE> 39
 3.409472e+01 8.757903e+01 5.284391e+01 8.832110e+01 7.645057e+01 5.176767e+01 6.258870e+01 6.228520e+01 4.939635e+01 6.130895e+01 2.637318e+01 3.826262e+01 5.003024e+01 3.316000e+00 1.192603e+01 6.770987e+00 7.810926e+00 8.788178e+00 6.275631e+00 9.264755e+00 7.632099e+00 6.155159e+00 7.071319e+00 3.499465e+00 3.935196e+00 5.658823e+00 5.594273e-01 2.214787e+00 1.434152e+00 1.152868e+00 1.390377e+00 1.203227e+00 1.803107e+00 1.508595e+00 1.283578e+00 1.192737e+00 7.316192e-01 7.112132e-01 9.395041e-01
<GCONST> 1.495102e+02
<STATE> 3
<MEAN> 39
 -5.818810e+00 -1.489578e+00 4.297338e+00 1.722084e+01 1.101894e+01 -3.658245e+00 -9.544262e+00 4.374118e-01 -4.944665e-01 -7.509072e-01 7.063988e-01 -2.065372e+00 6.683929e+01 5.934073e-01 -1.846559e-01 -1.983975e-01 -1.458033e-01 -4.199373e-02 -3.389923e-01 -5.134183e-01 -1.831097e-01 -4.736857e-01 -1.455531e-01 5.024677e-01 5.199428e-01 4.956319e-01 -1.544805e-02 3.855480e-02 -2.085934e-01 -2.447756e-01 -2.381776e-01 -1.187524e-02 1.986510e-01 1.037828e-01 1.426985e-02 3.535100e-02 6.103894e-02 1.287540e-01 -7.321173e-02
<VARIANCE> 39
 3.298230e+01 3.440353e+01 3.434647e+01 5.117029e+01 3.514177e+01 3.399892e+01 6.576675e+01 5.697404e+01 3.660566e+01 4.011327e+01 2.093234e+01 1.905918e+01 4.038771e+01 1.646449e+00 2.576859e+00 2.384063e+00 5.433639e+00 3.833781e+00 3.448840e+00 5.922875e+00 2.457524e+00 3.668794e+00 1.811180e+00 2.528842e+00 2.498621e+00 2.136605e+00 2.621001e-01 4.129697e-01 3.799578e-01 5.992053e-01 5.416620e-01 5.094744e-01 1.054963e+00 4.651580e-01 6.583391e-01 3.830792e-01 3.267747e-01 3.252514e-01 3.111158e-01
<GCONST> 1.217503e+02
<STATE> 4
<MEAN> 39
 2.374969e+00 -5.371597e+00 -9.039805e+00 1.411727e-01 1.824498e-01 -6.280236e+00 -9.626542e+00 1.749540e+00 -4.151200e+00 -1.849169e+00 1.110209e+01 1.050407e+01 7.211393e+01 -9.843972e-02 5.053177e-01 -5.341671e-01 -6.643327e-01 -6.912264e-01 3.442581e-01 1.158900e+00 6.525949e-01 3.819628e-01 -1.550046e-01 -3.180061e-01 4.012306e-01 -4.468367e-01 -1.771119e-01 1.026656e-01 1.597781e-01 2.217545e-01 2.567715e-01 8.671350e-02 2.329806e-02 3.072748e-04 1.022124e-01 3.699464e-02 -2.279921e-01 -2.472144e-01 -1.520240e-01
<VARIANCE> 39
 1.775231e+01 2.028078e+01 8.559512e+01 3.288143e+01 2.682762e+01 6.846336e+01 4.131118e+01 3.679024e+01 2.649797e+01 7.938538e+01 2.771031e+01 1.026737e+01 4.871545e+01 4.587103e-01 5.246149e-01 1.076819e+00 1.569547e+00 1.343787e+00 1.373679e+00 1.407487e+00 1.839976e+00 1.241478e+00 1.332691e+00 1.585243e+00 1.553484e+00 4.471106e-01 6.358295e-02 1.082388e-01 1.237809e-01 1.936870e-01 1.535263e-01 2.881315e-01 3.113132e-01 3.917341e-01 3.068297e-01 3.017018e-01 3.224160e-01 2.860795e-01 6.938011e-02
<GCONST> 9.743763e+01
<STATE> 5
<MEAN> 39
 1.558448e+00 5.514024e+00 -1.691923e+00 4.792950e+00 -1.026276e+00 1.116935e+00 -1.789098e+00 5.582255e+00 3.136712e+00 -1.091159e+01 -2.974347e+00 6.983266e+00 5.265573e+01 -7.634688e-01 8.187525e-01 -1.456099e-01 -2.054676e-02 3.142775e-01 -2.827960e-01 7.468952e-01 2.371318e-01 1.595512e-02 8.409899e-01 -4.363001e-01 -8.499080e-01 -9.402819e-01 -2.744236e-02 -8.273812e-02 4.901749e-02 1.449368e-02 7.162750e-02 5.185130e-02 -1.678070e-01 -1.076895e-01 -6.539319e-02 6.898614e-02 9.203488e-02 -7.207530e-02 1.486127e-02
<VARIANCE> 39
 5.191446e+01 4.572744e+01 3.605865e+01 5.267867e+01 5.321109e+01 4.488448e+01 4.201749e+01 5.747755e+01 6.931322e+01 6.663987e+01 4.895288e+01 1.001891e+02 7.766584e+01 1.423577e+00 3.080933e+00 3.464925e+00 2.883646e+00 4.812238e+00 3.794951e+00 3.163196e+00 5.205260e+00 4.735307e+00 4.481535e+00 3.347581e+00 5.956339e+00 1.771568e+00 2.522169e-01 3.546143e-01 6.467406e-01 5.876969e-01 8.737453e-01 7.829520e-01 5.360689e-01 8.635879e-01 7.846903e-01 8.857296e-01 6.194971e-01 9.430338e-01 2.354129e-01
<GCONST> 1.330817e+02
<TRANSP> 6
 0.000000e+00 5.625000e-01 4.375000e-01 0.000000e+00 0.000000e+00 0.000000e+00
 0.000000e+00 9.372822e-01 6.271777e-02 0.000000e+00 0.000000e+00 0.000000e+00
 0.000000e+00 0.000000e+00 9.155673e-01 8.443271e-02 0.000000e+00 0.000000e+00
 0.000000e+00 0.000000e+00 0.000000e+00 8.735178e-01 9.090909e-02 3.557312e-02
 0.000000e+00 0.000000e+00 0.000000e+00 0.000000e+00 8.963964e-01 1.036036e-01
 0.000000e+00 0.000000e+00 0.000000e+00 0.000000e+00 0.000000e+00 0.000000e+00
<ENDHMM>
