~o
<STREAMINFO> 1 39
<VECSIZE> 39<NULLD><MFCC_D_A_0><DIAGC>
~h "tiga"
<BEGINHMM>
<NUMSTATES> 6
<STATE> 2
<MEAN> 39
 -3.779554e+00 -1.576916e+00 2.456780e+00 1.256668e+01 3.403210e+00 -1.767368e+00 -1.008374e+01 1.384451e+00 2.148897e+00 -5.132024e+00 -1.923256e-01 -2.135654e+00 4.876447e+01 7.079195e-01 -1.250182e-01 3.173856e-01 6.224625e-01 3.817429e-01 3.551079e-01 -2.402358e-01 3.426948e-02 1.829624e-01 -5.729297e-01 1.705543e-01 3.001842e-01 6.040897e-01 1.006856e-01 1.267941e-01 6.064502e-02 4.886608e-02 -3.170907e-02 -6.170189e-02 -4.095944e-02 3.522982e-03 -5.959095e-02 -1.832377e-01 -3.754970e-02 1.172263e-01 1.834585e-02
<VARIANCE> 39
 3.282303e+01 9.567632e+01 5.515023e+01 9.350557e+01 7.045818e+01 5.816404e+01 5.986084e+01 7.286600e+01 5.768118e+01 5.691702e+01 2.789801e+01 4.004367e+01 5.786228e+01 3.128875e+00 1.243692e+01 7.916830e+00 8.892893e+00 8.400800e+00 6.704200e+00 7.967775e+00 8.062412e+00 7.111226e+00 6.843114e+00 4.341473e+00 3.879792e+00 5.950641e+00 5.434150e-01 2.547360e+00 1.581089e+00 1.315102e+00 1.352354e+00 1.355410e+00 1.515054e+00 1.684739e+00 1.524020e+00 1.060378e+00 9.273698e-01 7.274564e-01 1.041630e+00
<GCONST> 1.514785e+02
<STATE> 3
<MEAN> 39
 -1.203867e+00 2.674883e+00 7.072983e+00 2.106115e+01 8.210938e+00 -1.991270e+00 -8.487593e+00 -3.739220e+00 -3.726362e+00 -6.741148e+00 2.056915e+00 -1.545993e+00 6.029186e+01 6.073208e-01 9.149034e-02 -1.547388e-01 -6.277320e-01 -3.965937e-01 2.070090e-01 -3.321832e-01 -1.964045e-01 -1.141604e-01 -5.398813e-01 8.501279e-02 8.130776e-01 3.703197e-01 -5.045826e-02 -1.503415e-01 -1.306778e-01 -3.886481e-01 -3.665047e-01 1.444721e-01 2.211474e-01 -1.202170e-02 7.730304e-02 2.411880e-02 -2.067782e-03 1.529637e-01 2.795403e-02
<VARIANCE> 39
 4.815048e+01 3.694745e+01 6.533607e+01 3.185097e+01 2.599188e+01 3.000210e+01 8.152390e+01 6.453911e+01 2.732824e+01 3.183108e+01 1.219710e+01 2.962124e+01 8.822237e+01 1.827522e+00 3.345654e+00 3.173931e+00 3.383657e+00 3.897592e+00 2.719234e+00 7.182967e+00 2.735307e+00 3.029519e+00 2.992614e+00 1.092098e+00 2.493823e+00 2.606719e+00 2.975293e-01 4.292690e-01 6.846189e-01 3.339227e-01 5.294670e-01 2.980282e-01 1.364906e+00 4.095075e-01 4.532579e-01 5.278769e-01 1.515812e-01 2.966568e-01 3.405568e-01
<GCONST> 1.212836e+02
<STATE> 4
<MEAN> 39
 5.523163e+00 -2.433869e+00 4.389734e+00 4.414947e+00 -5.075350e+00 5.650309e+00 -1.007330e+01 -1.034416e+00 1.795370e+00 -1.698236e+01 3.167943e+00 1.258134e+01 6.268296e+01 5.082023e-02 8.666360e-01 -5.138207e-01 -6.408218e-01 -7.588185e-01 -2.880543e-01 1.433277e+00 1.225539e+00 5.244465e-01 -1.794607e-01 -5.989504e-01 3.941132e-01 -4.117002e-01 -3.117225e-01 3.172256e-01 -1.350009e-01 3.692436e-01 5.735229e-01 -3.314455e-01 1.960234e-01 3.406072e-01 -6.592496e-02 4.573123e-01 -1.356759e-01 -6.154860e-01 -4.147412e-01
<VARIANCE> 39
 1.489621e+01 2.075806e+01 1.188292e+01 2.069532e+01 2.818529e+01 2.190959e+01 3.031264e+01 5.732642e+01 7.042586e+01 3.331078e+01 4.173629e+01 4.231894e+01 6.512923e+01 7.641224e-01 1.157395e+00 1.230560e+00 2.406911e+00 3.246929e+00 1.875434e+00 1.788749e+00 3.331797e+00 1.846797e+00 1.806600e+00 2.787563e+00 4.126254e+00 8.991852e-01 9.048456e-02 2.196057e-01 3.809448e-01 3.828674e-01 3.845235e-01 3.196120e-01 4.237228e-01 7.317561e-01 3.923431e-01 3.259620e-01 4.559852e-01 5.567544e-01 9.681934e-02
<GCONST> 1.094380e+02
<STATE> 5
<MEAN> 39
 1.030960e+00 8.452133e+00 -2.346156e+00 6.843734e+00 1.416800e+00 -1.315455e-01 9.783902e-03 6.422846e+00 2.267165e+00 -9.413475e+00 -5.251386e+00 2.702627e+00 5.071088e+01 -8.488890e-01 5.537511e-01 -1.160608e-01 -1.706867e-02 2.775845e-01 -1.247579e-01 5.952399e-01 -2.174505e-01 -4.993622e-01 8.909301e-01 -1.967111e-01 -9.420022e-01 -9.330968e-01 7.374218e-02 -2.199220e-01 1.365424e-01 -1.421704e-01 -1.831012e-01 2.655896e-01 -2.036823e-01 -3.192523e-01 2.092449e-02 -1.092242e-01 9.955505e-02 2.763918e-01 1.705152e-01
<VARIANCE> 39
 4.754821e+01 3.383086e+01 3.302545e+01 5.328534e+01 5.369829e+01 3.376528e+01 2.637973e+01 6.817807e+01 7.220126e+01 3.391669e+01 5.412269e+01 8.046751e+01 5.518680e+01 1.420065e+00 3.843572e+00 4.033894e+00 3.273966e+00 6.318693e+00 3.350394e+00 3.327196e+00 4.287673e+00 4.506378e+00 5.755301e+00 3.282560e+00 6.720792e+00 2.301726e+00 1.898484e-01 3.225316e-01 6.707836e-01 6.000040e-01 7.512755e-01 6.018415e-01 6.244453e-01 6.277779e-01 7.869123e-01 9.474657e-01 6.498184e-01 7.110084e-01 1.928167e-01
<GCONST> 1.307503e+02
<TRANSP> 6
 0.000000e+00 8.750000e-01 1.250000e-01 0.000000e+00 0.000000e+00 0.000000e+00
 0.000000e+00 9.190751e-01 8.092485e-02 0.000000e+00 0.000000e+00 0.000000e+00
 0.000000e+00 0.000000e+00 8.720000e-01 1.200000e-01 7.999999e-03 0.000000e+00
 0.000000e+00 0.000000e+00 0.000000e+00 8.636364e-01 1.272727e-01 9.090908e-03
 0.000000e+00 0.000000e+00 0.000000e+00 0.000000e+00 8.760331e-01 1.239669e-01
 0.000000e+00 0.000000e+00 0.000000e+00 0.000000e+00 0.000000e+00 0.000000e+00
<ENDHMM>
