~o
<STREAMINFO> 1 36
<VECSIZE> 36<NULLD><LPC_D_A><DIAGC>
~h "tujuh"
<BEGINHMM>
<NUMSTATES> 8
<STATE> 2
<MEAN> 36
 -2.707633e+00 4.696533e+00 -6.728191e+00 8.203876e+00 -8.688128e+00 8.135998e+00 -6.669836e+00 4.718519e+00 -2.876458e+00 1.379696e+00 -5.403503e-01 1.633314e-01 7.017925e-02 -2.273722e-01 4.138969e-01 -6.220902e-01 7.768970e-01 -8.364919e-01 8.023079e-01 -6.572158e-01 4.626542e-01 -2.736087e-01 1.209064e-01 -3.257886e-02 2.708532e-02 -6.193122e-02 9.541377e-02 -1.256245e-01 1.399310e-01 -1.314556e-01 1.089132e-01 -7.509107e-02 4.430071e-02 -2.080985e-02 9.724276e-03 -5.471704e-03
<VARIANCE> 36
 1.105181e-01 9.779169e-01 3.417970e+00 7.620812e+00 1.187295e+01 1.424573e+01 1.331728e+01 9.676412e+00 5.209858e+00 2.012448e+00 4.610267e-01 4.629786e-02 2.088469e-02 1.377975e-01 4.281275e-01 8.780405e-01 1.337069e+00 1.568457e+00 1.450849e+00 1.027262e+00 5.482798e-01 2.044437e-01 4.838368e-02 1.000000e-02 1.000000e-02 3.901120e-02 1.261181e-01 2.670052e-01 4.113794e-01 4.861864e-01 4.492497e-01 3.163815e-01 1.653065e-01 6.221148e-02 1.435577e-02 1.000000e-02
<GCONST> 3.195290e+01
<STATE> 3
<MEAN> 36
 -8.295952e-01 2.501787e-01 -2.807337e-01 2.587839e-01 -3.520356e-01 2.884513e-01 -1.997628e-01 2.578957e-01 -2.218111e-01 1.410649e-01 -1.510382e-01 9.715223e-02 -3.588331e-04 -8.429475e-03 4.534081e-03 -3.230849e-03 3.406611e-04 -5.905684e-03 -1.357506e-03 4.803806e-04 9.385992e-04 9.821156e-04 6.070917e-04 -1.192220e-04 8.426254e-03 -6.801797e-05 -1.289411e-03 7.057236e-04 5.669682e-04 -5.100042e-05 -4.623671e-04 -7.977883e-04 -1.402592e-04 1.590595e-04 2.399332e-04 -4.164753e-04
<VARIANCE> 36
 2.926541e-01 2.318628e-01 2.661058e-01 1.906671e-01 1.033399e-01 9.134378e-02 1.013590e-01 7.993141e-02 4.139977e-02 4.659250e-02 3.214548e-02 1.714191e-02 3.782886e-02 2.943183e-02 1.197806e-02 1.445652e-02 1.000000e-02 1.000000e-02 1.000000e-02 1.000000e-02 1.000000e-02 1.000000e-02 1.000000e-02 1.000000e-02 1.000000e-02 1.000000e-02 1.000000e-02 1.000000e-02 1.000000e-02 1.000000e-02 1.000000e-02 1.000000e-02 1.000000e-02 1.000000e-02 1.000000e-02 1.000000e-02
<GCONST> -7.030598e+01
<STATE> 4
<MEAN> 36
 -2.609183e+00 4.544685e+00 -6.484629e+00 7.895638e+00 -8.408737e+00 7.917691e+00 -6.532988e+00 4.713496e+00 -2.911315e+00 1.441520e+00 -5.483230e-01 1.442499e-01 1.808067e-02 -4.372402e-02 4.861312e-02 -5.258929e-02 4.734694e-02 -3.696812e-02 1.069446e-02 3.238160e-03 -1.118214e-02 1.656542e-02 -1.032996e-02 7.474117e-03 -8.335953e-03 1.694991e-02 -2.649052e-02 3.220397e-02 -3.208034e-02 2.891323e-02 -2.507455e-02 1.453544e-02 -6.588183e-03 1.409332e-03 8.626650e-04 -3.517970e-04
<VARIANCE> 36
 2.467504e-01 2.152920e+00 6.798033e+00 1.468119e+01 2.220426e+01 2.529166e+01 2.228974e+01 1.512612e+01 7.593448e+00 2.779268e+00 5.665078e-01 4.482787e-02 4.527449e-02 3.513173e-01 1.028385e+00 2.140223e+00 3.149015e+00 3.539500e+00 3.062207e+00 2.049144e+00 1.008751e+00 3.680492e-01 7.385928e-02 1.000000e-02 1.061854e-02 7.923847e-02 2.296524e-01 4.696479e-01 6.794304e-01 7.558074e-01 6.446353e-01 4.225259e-01 2.042210e-01 7.396638e-02 1.449012e-02 1.000000e-02
<GCONST> 5.004906e+01
<STATE> 5
<MEAN> 36
 -5.934507e-01 9.146099e-02 -2.370623e-01 2.423692e-01 -3.054339e-01 1.831081e-01 -2.074431e-01 2.274124e-01 -1.717847e-01 1.337578e-01 -1.520021e-01 6.601854e-02 2.941771e-02 2.150409e-02 -2.129188e-02 1.260203e-02 3.373094e-03 9.343431e-03 -1.095007e-02 -1.065877e-02 -3.987181e-03 1.488260e-02 -2.412825e-03 2.293994e-03 -2.291858e-02 2.330505e-02 -2.027142e-03 -9.240381e-04 -2.513980e-03 1.029124e-02 -3.551974e-03 -2.596997e-03 -5.386254e-03 2.689200e-03 2.546543e-03 2.546313e-03
<VARIANCE> 36
 4.045301e-01 1.658877e-01 1.940088e-01 2.025485e-01 9.071224e-02 9.737659e-02 9.360400e-02 6.565712e-02 4.442626e-02 2.864057e-02 2.938018e-02 1.971126e-02 3.753442e-02 3.098542e-02 1.291055e-02 1.230544e-02 1.014593e-02 1.000000e-02 1.000000e-02 1.000000e-02 1.000000e-02 1.000000e-02 1.000000e-02 1.000000e-02 1.000000e-02 1.000000e-02 1.000000e-02 1.000000e-02 1.000000e-02 1.000000e-02 1.000000e-02 1.000000e-02 1.000000e-02 1.000000e-02 1.000000e-02 1.000000e-02
<GCONST> -7.130969e+01
<STATE> 6
<MEAN> 36
 -9.867054e-01 8.261904e-01 -1.033540e+00 1.033173e+00 -1.027648e+00 8.041241e-01 -5.634621e-01 3.584471e-01 -2.448462e-01 1.308225e-01 -1.003380e-01 6.469650e-02 5.639976e-03 1.586136e-02 -6.741451e-03 5.555016e-03 3.344099e-04 2.368828e-02 -2.104452e-02 2.895448e-03 -1.078262e-02 -2.322311e-04 1.477087e-02 -6.170327e-03 -3.252728e-02 6.173148e-02 -9.821194e-02 1.434731e-01 -1.635682e-01 1.696894e-01 -1.541675e-01 1.220935e-01 -8.125385e-02 4.353635e-02 -1.589891e-02 4.498389e-03
<VARIANCE> 36
 8.088329e-01 1.675954e+00 2.865589e+00 3.807418e+00 3.723268e+00 3.251170e+00 2.359497e+00 1.283872e+00 5.653472e-01 2.131065e-01 6.736664e-02 1.860902e-02 3.896793e-02 5.196758e-02 5.032531e-02 8.098773e-02 8.656407e-02 8.788937e-02 7.285487e-02 5.087112e-02 2.638307e-02 1.361153e-02 1.000000e-02 1.000000e-02 1.000000e-02 3.004525e-02 6.541751e-02 1.244662e-01 1.726231e-01 1.849363e-01 1.525105e-01 9.643476e-02 4.467271e-02 1.541508e-02 1.000000e-02 1.000000e-02
<GCONST> -1.273774e+01
<STATE> 7
<MEAN> 36
 -1.833083e+00 2.795203e+00 -3.970499e+00 4.766677e+00 -5.004072e+00 4.655355e+00 -3.892324e+00 2.800882e+00 -1.741678e+00 8.757585e-01 -3.478586e-01 1.089327e-01 -4.222787e-02 1.230953e-01 -1.897550e-01 2.750635e-01 -3.168773e-01 3.313191e-01 -3.058738e-01 2.423938e-01 -1.751212e-01 1.065031e-01 -4.187879e-02 9.701790e-03 -5.766935e-03 -2.557016e-03 1.374624e-02 -1.673183e-02 1.837761e-02 -2.103102e-02 2.242376e-02 -1.694467e-02 1.112371e-02 -3.475975e-03 -1.527005e-03 1.536313e-03
<VARIANCE> 36
 1.340286e+00 5.511912e+00 1.168699e+01 1.939841e+01 2.431810e+01 2.411615e+01 1.918460e+01 1.177614e+01 5.407282e+00 1.831187e+00 3.848706e-01 3.734142e-02 3.806247e-02 1.531063e-01 4.044502e-01 8.339506e-01 1.245389e+00 1.414979e+00 1.274421e+00 8.770205e-01 4.467234e-01 1.650967e-01 3.544182e-02 1.000000e-02 1.000000e-02 2.267377e-02 6.163323e-02 1.318359e-01 2.076799e-01 2.456558e-01 2.246118e-01 1.560853e-01 8.163489e-02 3.002755e-02 1.000000e-02 1.000000e-02
<GCONST> 3.257307e+01
<TRANSP> 8
 0.000000e+00 2.000000e-01 8.000000e-01 0.000000e+00 0.000000e+00 0.000000e+00 0.000000e+00 0.000000e+00
 0.000000e+00 8.095238e-01 0.000000e+00 1.904762e-01 0.000000e+00 0.000000e+00 0.000000e+00 0.000000e+00
 0.000000e+00 0.000000e+00 9.419764e-01 0.000000e+00 5.802357e-02 0.000000e+00 0.000000e+00 0.000000e+00
 0.000000e+00 0.000000e+00 0.000000e+00 8.881119e-01 0.000000e+00 1.118881e-01 0.000000e+00 0.000000e+00
 0.000000e+00 0.000000e+00 0.000000e+00 0.000000e+00 0.000000e+00 1.000000e+00 0.000000e+00 0.000000e+00
 0.000000e+00 0.000000e+00 0.000000e+00 0.000000e+00 0.000000e+00 1.011236e-01 8.988764e-01 0.000000e+00
 0.000000e+00 0.000000e+00 0.000000e+00 0.000000e+00 0.000000e+00 0.000000e+00 5.061728e-01 4.938272e-01
 0.000000e+00 0.000000e+00 0.000000e+00 0.000000e+00 0.000000e+00 0.000000e+00 0.000000e+00 0.000000e+00
<ENDHMM>
