~o
<STREAMINFO> 1 39
<VECSIZE> 39<NULLD><MFCC_D_A_0><DIAGC>
~h "tujuh"
<BEGINHMM>
<NUMSTATES> 6
<STATE> 2
<MEAN> 39
 1.307669e+00 -1.269377e+00 1.135342e+00 1.305613e+01 2.411898e+00 6.511617e-01 -4.622547e+00 3.899697e+00 -1.687995e+00 -1.095605e+01 2.058153e+00 2.566358e+00 5.098966e+01 2.746312e-01 -6.076015e-01 5.147247e-01 4.881976e-01 -6.650421e-02 1.598667e-01 -2.865904e-01 8.384681e-02 3.417434e-01 -2.331060e-01 1.203319e-01 5.713434e-02 5.055860e-01 5.518550e-02 -9.297294e-03 2.147859e-02 8.536478e-03 7.394571e-02 8.876827e-02 -1.732907e-01 -1.590492e-01 9.809237e-03 -2.697162e-02 1.242021e-02 4.053848e-02 4.205446e-02
<VARIANCE> 39
 2.580727e+01 1.048387e+02 4.139990e+01 7.433059e+01 7.144929e+01 3.675220e+01 5.875823e+01 5.323026e+01 3.513766e+01 6.264092e+01 3.592887e+01 3.405669e+01 4.003082e+01 2.904024e+00 1.693040e+01 4.891752e+00 4.742554e+00 9.078223e+00 4.369497e+00 8.821142e+00 6.439761e+00 4.479499e+00 8.759363e+00 5.377643e+00 3.790294e+00 5.789256e+00 4.926216e-01 3.600435e+00 1.026770e+00 8.573805e-01 1.970500e+00 9.529645e-01 1.573207e+00 1.255180e+00 9.166623e-01 1.667256e+00 1.070111e+00 7.345771e-01 1.089235e+00
<GCONST> 1.472541e+02
<STATE> 3
<MEAN> 39
 -4.606122e+00 1.866105e-01 9.387089e+00 1.975616e+01 9.410292e+00 8.725233e+00 -8.231720e+00 -1.018294e+01 -9.555117e-01 -7.342992e+00 1.405225e+00 -1.572852e+00 6.474863e+01 4.805111e-01 6.275604e-01 9.485448e-02 -2.487003e-01 7.133099e-01 9.165396e-01 -7.753013e-01 -8.073364e-01 -5.070093e-01 -5.039775e-01 6.873979e-02 1.094411e-01 1.637683e-01 3.003670e-02 2.617448e-01 -3.401700e-01 -4.438348e-01 -1.183570e-01 -3.247651e-02 3.195849e-01 2.362314e-01 -1.122676e-01 -9.310597e-02 -9.106497e-02 1.335279e-02 -1.005191e-01
<VARIANCE> 39
 4.426845e+01 1.250431e+02 4.180844e+01 1.866852e+01 3.024910e+01 6.105591e+01 7.808644e+01 7.469057e+01 6.968938e+01 3.665743e+01 1.383655e+01 2.864135e+01 3.509577e+01 2.913529e+00 1.109464e+01 5.230842e+00 3.603140e+00 3.073235e+00 4.900094e+00 5.183242e+00 4.441808e+00 6.816683e+00 2.567446e+00 1.760264e+00 1.727018e+00 1.146240e+00 3.839439e-01 2.403491e+00 8.163846e-01 5.457339e-01 4.894355e-01 8.213648e-01 9.989245e-01 9.658110e-01 1.209075e+00 4.435789e-01 3.878308e-01 4.418425e-01 2.789698e-01
<GCONST> 1.314061e+02
<STATE> 4
<MEAN> 39
 1.475739e+00 2.941154e+00 7.459700e+00 1.028375e+01 1.860444e+00 1.053146e+01 -6.106032e+00 -4.020989e+00 -7.515761e-01 -1.669503e+01 -1.609635e+00 3.717253e+00 6.174875e+01 -4.000121e-02 1.034470e+00 -4.436638e-01 -8.568335e-01 -8.129321e-01 -5.225034e-01 1.213544e+00 1.151181e+00 5.226775e-01 -1.987201e-01 -8.636054e-01 3.136352e-01 -5.224574e-01 -2.444893e-01 -2.961674e-03 -9.426343e-02 2.355540e-01 3.127628e-02 -3.670778e-01 2.302239e-01 1.909827e-01 7.143553e-02 3.748827e-01 -1.029651e-02 -1.642226e-01 -2.185052e-01
<VARIANCE> 39
 3.954308e+01 6.811708e+01 1.378753e+01 2.160102e+01 4.242942e+01 1.999628e+01 9.884017e+01 8.163329e+01 8.304786e+01 2.718793e+01 3.442237e+01 3.738169e+01 3.369752e+01 1.271885e+00 1.747734e+00 2.291282e+00 2.522623e+00 3.154882e+00 3.585373e+00 5.033652e+00 4.638594e+00 1.932129e+00 2.728851e+00 2.568960e+00 2.543935e+00 1.348257e+00 1.838801e-01 2.077387e-01 4.790272e-01 4.567117e-01 7.638359e-01 5.333708e-01 9.129530e-01 6.960815e-01 4.984604e-01 5.421802e-01 5.392078e-01 4.510612e-01 1.700529e-01
<GCONST> 1.207493e+02
<STATE> 5
<MEAN> 39
 9.584950e-02 9.101916e+00 -3.204558e+00 4.356333e+00 1.221825e-01 -5.603474e-01 4.158338e-01 6.816052e+00 1.151224e+00 -9.390370e+00 -5.087222e+00 1.568275e+00 4.861683e+01 -4.437579e-01 8.078399e-02 -5.339600e-01 -4.697604e-01 -3.523260e-01 -4.685999e-01 3.304249e-01 -1.272620e-01 -2.213832e-01 8.134689e-01 -5.595618e-03 -2.861482e-01 -4.289869e-01 8.178314e-02 -3.116964e-01 2.423978e-01 -3.189795e-02 -1.047473e-01 3.093827e-01 -1.724097e-01 -2.294960e-01 7.108937e-03 -1.568177e-01 1.747053e-01 2.125164e-01 2.521561e-01
<VARIANCE> 39
 6.855634e+01 3.571300e+01 4.945661e+01 9.268260e+01 6.907668e+01 3.637055e+01 3.841591e+01 6.125085e+01 3.547638e+01 3.816681e+01 2.298348e+01 4.126732e+01 4.612585e+01 2.005400e+00 4.532146e+00 5.409491e+00 2.837821e+00 5.170348e+00 5.099660e+00 5.155473e+00 4.611844e+00 3.382019e+00 4.983569e+00 4.111994e+00 4.682461e+00 2.893486e+00 3.006711e-01 3.584954e-01 8.005841e-01 4.383384e-01 6.234866e-01 8.942326e-01 9.431673e-01 1.005522e+00 6.197206e-01 6.466436e-01 7.418862e-01 6.950107e-01 3.026355e-01
<GCONST> 1.329400e+02
<TRANSP> 6
 0.000000e+00 7.500000e-01 2.500000e-01 0.000000e+00 0.000000e+00 0.000000e+00
 0.000000e+00 9.411765e-01 5.392157e-02 4.901961e-03 0.000000e+00 0.000000e+00
 0.000000e+00 0.000000e+00 8.369564e-01 1.521739e-01 1.086956e-02 0.000000e+00
 0.000000e+00 0.000000e+00 0.000000e+00 8.828125e-01 1.171875e-01 0.000000e+00
 0.000000e+00 0.000000e+00 0.000000e+00 0.000000e+00 8.644068e-01 1.355932e-01
 0.000000e+00 0.000000e+00 0.000000e+00 0.000000e+00 0.000000e+00 0.000000e+00
<ENDHMM>
