~o
<STREAMINFO> 1 39
<VECSIZE> 39<NULLD><PLP_D_A_0><DIAGC>
~h "tujuh"
<BEGINHMM>
<NUMSTATES> 8
<STATE> 2
<MEAN> 39
 -4.161856e-01 -8.214456e-01 -8.199389e-02 -1.801225e-01 -3.610022e-01 -1.219537e+00 -7.429190e-01 -7.934729e-01 -7.417742e-01 -1.068508e+00 1.162997e-01 8.367401e-02 5.228553e+00 9.418167e-02 6.127109e-02 6.458609e-02 1.611786e-01 1.564414e-01 2.376204e-02 -1.321845e-01 -5.577498e-02 -1.192997e-02 -4.578984e-02 -1.964094e-02 -3.134941e-02 3.492006e-02 -5.086635e-02 6.907953e-03 -1.808261e-02 1.212920e-02 2.677812e-02 3.032625e-02 2.832950e-02 2.144362e-02 3.144077e-02 3.687747e-02 -1.440078e-02 -7.804495e-03 -5.430912e-02
<VARIANCE> 39
 2.893808e-01 6.233381e-01 5.806614e-01 8.612172e-01 7.734312e-01 1.129763e+00 9.966919e-01 2.899585e-01 2.581059e-01 3.649263e-01 2.179870e-01 1.859957e-01 8.338709e-01 3.287169e-02 5.010206e-02 3.085984e-02 2.333861e-02 6.367919e-02 3.605128e-02 4.810417e-02 2.899707e-02 2.970161e-02 3.092086e-02 1.873724e-02 1.603074e-02 3.592457e-02 1.000000e-02 1.216254e-02 1.000000e-02 1.000000e-02 1.406407e-02 1.000000e-02 1.179093e-02 1.000000e-02 1.000000e-02 1.000000e-02 1.000000e-02 1.000000e-02 1.000000e-02
<GCONST> -4.174597e+01
<STATE> 3
<MEAN> 39
 -6.671355e-01 -3.911493e-01 -1.794554e-02 5.270429e-01 4.101181e-01 -8.777671e-01 -8.215885e-01 -7.317579e-01 -5.226225e-01 -7.993233e-01 -1.714657e-01 -1.327238e-01 4.867862e+00 -2.021066e-01 -1.571383e-01 5.687853e-02 -2.735831e-02 -2.620607e-02 8.546901e-02 6.690816e-02 1.164588e-01 1.787986e-01 1.723207e-02 -3.755068e-02 1.187542e-02 -3.370298e-02 -2.122541e-03 -1.118044e-01 1.118640e-02 -7.033818e-02 -5.016632e-02 2.699720e-04 -4.236517e-02 -4.103282e-02 -1.376987e-02 -3.152959e-02 5.056936e-02 3.484153e-02 9.476179e-02
<VARIANCE> 39
 1.566475e-01 3.657193e-01 3.926789e-01 4.869895e-01 3.199815e-01 4.148747e-01 4.793071e-01 3.283810e-01 1.679310e-01 2.669532e-01 1.673671e-01 8.656601e-02 5.461951e-01 1.555737e-02 7.382375e-02 2.776880e-02 2.518591e-02 1.859136e-02 3.448676e-02 4.231845e-02 2.733850e-02 2.514877e-02 2.025918e-02 2.160931e-02 1.433032e-02 3.381812e-02 1.000000e-02 1.000000e-02 1.000000e-02 1.000000e-02 1.000000e-02 1.000000e-02 1.395289e-02 1.000000e-02 1.000000e-02 1.000000e-02 1.000000e-02 1.000000e-02 1.000000e-02
<GCONST> -5.138087e+01
<STATE> 4
<MEAN> 39
 -1.309327e+00 -1.786440e+00 4.431166e-01 1.328322e-01 2.768908e-01 -7.439954e-01 -1.140521e+00 -7.880875e-01 -1.969426e-02 -1.042850e+00 1.676943e-01 1.173372e-01 5.576956e+00 9.315656e-02 -1.564323e-01 3.424649e-02 -6.823900e-02 -1.250544e-02 4.338651e-02 -2.008994e-01 -2.238238e-01 -8.836786e-02 -4.391571e-02 7.752706e-02 4.898782e-02 2.286371e-01 1.390709e-01 1.683876e-01 -6.153584e-02 -1.752928e-02 -3.174178e-02 -2.974989e-02 2.942405e-02 -2.322859e-02 -1.019234e-01 -8.233797e-04 -2.855204e-02 -1.715429e-02 -3.936483e-02
<VARIANCE> 39
 5.056254e-01 2.119233e-01 5.355614e-01 6.879342e-01 4.486812e-01 6.671916e-01 5.643389e-01 6.383126e-01 2.601455e-01 3.176180e-01 8.562493e-02 1.439182e-01 6.116883e-01 5.269431e-02 7.935683e-02 3.652705e-02 2.017776e-02 1.900268e-02 3.299479e-02 3.400230e-02 2.570149e-02 5.409537e-02 1.752695e-02 1.564565e-02 1.007813e-02 1.503342e-02 1.000000e-02 1.086007e-02 1.000000e-02 1.000000e-02 1.000000e-02 1.000000e-02 1.213848e-02 1.403283e-02 1.000000e-02 1.000000e-02 1.000000e-02 1.000000e-02 1.000000e-02
<GCONST> -4.743577e+01
<STATE> 5
<MEAN> 39
 -2.762736e-01 -1.018148e+00 7.790251e-02 -2.568860e-02 -3.394775e-02 -6.664016e-01 -1.334714e+00 -1.256564e+00 -8.169039e-01 -1.190869e+00 1.091997e-01 1.592424e-01 5.672333e+00 2.011271e-01 3.078398e-01 -1.220697e-01 -1.706847e-01 -2.085474e-01 -6.366385e-02 1.893548e-01 1.232444e-01 -8.509310e-02 -4.833001e-02 -1.118945e-01 -1.446559e-02 -8.113017e-02 -7.244976e-02 4.374469e-02 2.777332e-03 7.326695e-03 -1.300425e-02 -2.309696e-02 9.739852e-02 1.044069e-01 7.651218e-02 3.260589e-02 -4.430005e-02 -2.679924e-02 -8.137776e-02
<VARIANCE> 39
 1.470532e-01 5.058514e-01 3.197894e-01 4.859458e-01 3.942645e-01 8.534925e-01 5.665469e-01 4.356461e-01 3.350165e-01 2.728582e-01 1.829384e-01 1.064753e-01 6.095394e-01 3.732486e-02 2.873291e-02 2.291924e-02 1.716900e-02 3.700690e-02 3.450312e-02 4.252264e-02 4.385548e-02 4.672350e-02 1.892530e-02 1.678615e-02 1.807880e-02 1.248520e-02 1.000000e-02 1.092330e-02 1.000000e-02 1.000000e-02 1.000000e-02 1.000000e-02 1.000000e-02 1.000000e-02 1.000000e-02 1.000000e-02 1.000000e-02 1.000000e-02 1.000000e-02
<GCONST> -4.901643e+01
<STATE> 6
<MEAN> 39
 -2.601271e-01 -4.863079e-01 -1.523700e-02 -8.980384e-01 -5.392917e-01 -1.111009e+00 -6.402496e-02 -7.283832e-01 -5.390428e-01 -1.094451e+00 -3.826997e-01 3.479348e-02 5.259225e+00 -3.390659e-02 3.016819e-02 -7.648398e-02 -4.749601e-02 -2.268541e-02 1.866654e-02 1.052722e-01 4.559188e-02 3.984663e-02 6.907684e-02 -2.478943e-02 9.499929e-03 -7.496866e-02 -2.312954e-02 -5.891254e-02 1.639241e-03 1.505325e-02 1.956539e-02 1.128241e-02 -2.992257e-02 -2.979813e-02 -2.389472e-03 9.856974e-03 2.937546e-02 1.334383e-02 2.111028e-02
<VARIANCE> 39
 1.955847e-01 7.530971e-01 6.189922e-01 1.025585e+00 6.383856e-01 9.322219e-01 7.919833e-01 5.782143e-01 4.527339e-01 3.013538e-01 2.310025e-01 2.621160e-01 1.128857e+00 2.081551e-02 5.909906e-02 4.436302e-02 3.258635e-02 5.861742e-02 5.374905e-02 3.315317e-02 4.370328e-02 4.080288e-02 3.076708e-02 2.349060e-02 2.951418e-02 4.335879e-02 1.000000e-02 1.000000e-02 1.000000e-02 1.000000e-02 1.081178e-02 1.000000e-02 1.000000e-02 1.000000e-02 1.000000e-02 1.000000e-02 1.000000e-02 1.000000e-02 1.000000e-02
<GCONST> -3.908622e+01
<STATE> 7
<MEAN> 39
 -6.956310e-01 -4.447804e-01 -7.188607e-01 -7.116674e-01 -6.651531e-01 -1.014791e+00 -6.127810e-01 -5.527931e-01 -4.326045e-01 -7.204643e-01 -2.028152e-01 1.485414e-01 5.242257e+00 -3.795509e-02 -5.633019e-02 -6.546900e-02 -3.655522e-02 -2.120556e-02 -3.201691e-02 2.293298e-02 3.995861e-03 2.135219e-02 7.051878e-02 4.573362e-02 3.495185e-02 -1.055481e-02 1.194126e-02 -1.018726e-02 5.246589e-03 1.830379e-03 4.173400e-03 -2.881445e-03 -1.160918e-02 -6.008962e-03 -8.094258e-04 -1.699185e-03 7.464104e-03 7.659746e-04 1.727038e-02
<VARIANCE> 39
 4.735441e-01 3.497125e-01 2.601502e-01 5.847570e-01 3.199517e-01 3.389429e-01 4.183748e-01 2.526029e-01 2.325745e-01 3.130737e-01 2.006582e-01 1.545391e-01 8.556448e-01 2.322388e-02 2.265069e-02 2.131379e-02 2.394885e-02 1.907115e-02 2.443418e-02 2.406074e-02 1.381649e-02 2.011234e-02 2.376885e-02 1.906781e-02 1.287540e-02 2.552612e-02 1.000000e-02 1.000000e-02 1.000000e-02 1.000000e-02 1.000000e-02 1.000000e-02 1.000000e-02 1.000000e-02 1.000000e-02 1.000000e-02 1.000000e-02 1.000000e-02 1.000000e-02
<GCONST> -5.302611e+01
<TRANSP> 8
 0.000000e+00 7.625000e-01 2.375000e-01 0.000000e+00 0.000000e+00 0.000000e+00 0.000000e+00 0.000000e+00
 0.000000e+00 7.903779e-01 2.027491e-01 6.872852e-03 0.000000e+00 0.000000e+00 0.000000e+00 0.000000e+00
 0.000000e+00 0.000000e+00 6.405530e-01 3.548387e-01 4.608296e-03 0.000000e+00 0.000000e+00 0.000000e+00
 0.000000e+00 0.000000e+00 0.000000e+00 5.989848e-01 3.959391e-01 5.076143e-03 0.000000e+00 0.000000e+00
 0.000000e+00 0.000000e+00 0.000000e+00 0.000000e+00 6.220096e-01 3.779904e-01 0.000000e+00 0.000000e+00
 0.000000e+00 0.000000e+00 0.000000e+00 0.000000e+00 0.000000e+00 7.843665e-01 2.156334e-01 0.000000e+00
 0.000000e+00 0.000000e+00 0.000000e+00 0.000000e+00 0.000000e+00 0.000000e+00 7.777778e-01 2.222222e-01
 0.000000e+00 0.000000e+00 0.000000e+00 0.000000e+00 0.000000e+00 0.000000e+00 0.000000e+00 0.000000e+00
<ENDHMM>
