~o
<STREAMINFO> 1 36
<VECSIZE> 36<NULLD><LPC_D_A><DIAGC>
~h "bagi"
<BEGINHMM>
<NUMSTATES> 8
<STATE> 2
<MEAN> 36
 -2.834209e+00 5.371047e+00 -8.265957e+00 1.048681e+01 -1.146072e+01 1.104310e+01 -9.327216e+00 6.841236e+00 -4.360548e+00 2.248501e+00 -8.740256e-01 2.334100e-01 8.830196e-02 -2.202051e-01 3.711874e-01 -5.203106e-01 5.869822e-01 -5.775756e-01 4.912619e-01 -3.611949e-01 2.225632e-01 -1.158865e-01 3.659908e-02 -7.318006e-03 1.930005e-02 -5.255346e-02 9.639538e-02 -1.400177e-01 1.652753e-01 -1.724344e-01 1.581810e-01 -1.256913e-01 8.760653e-02 -5.126944e-02 2.227397e-02 -6.710278e-03
<VARIANCE> 36
 2.270323e-01 1.689817e+00 5.480513e+00 1.165010e+01 1.682983e+01 1.867370e+01 1.641683e+01 1.147031e+01 5.968417e+00 2.148160e+00 4.588483e-01 4.138721e-02 3.856824e-02 2.846728e-01 9.110863e-01 1.968081e+00 2.863312e+00 3.185855e+00 2.711627e+00 1.794325e+00 8.736237e-01 2.944471e-01 5.969780e-02 5.323128e-03 8.384780e-03 6.345589e-02 1.998727e-01 4.234346e-01 5.989097e-01 6.437701e-01 5.309755e-01 3.434443e-01 1.626897e-01 5.414518e-02 1.092051e-02 9.938880e-04
<GCONST> 4.056481e+01
<STATE> 3
<MEAN> 36
 -8.056805e-01 1.500278e-01 -2.682446e-01 2.395626e-01 -2.397167e-01 3.141987e-01 -2.035738e-01 1.794272e-01 -2.457394e-01 1.230373e-01 -1.487855e-01 1.028487e-01 -1.056405e-02 9.878594e-04 7.950849e-03 -3.878082e-04 -2.948927e-03 1.251952e-03 3.514013e-03 9.709669e-05 -1.390389e-03 -4.106130e-04 1.963626e-03 -2.101749e-03 -7.164255e-04 7.736681e-03 -1.538450e-03 -1.068276e-04 -8.391148e-04 -1.066186e-05 4.203329e-04 1.134133e-03 8.869048e-04 2.670779e-04 -7.370128e-04 -4.274067e-04
<VARIANCE> 36
 2.706167e-01 1.313228e-01 2.419586e-01 1.207322e-01 9.750985e-02 6.969116e-02 7.835285e-02 8.565070e-02 2.795982e-02 3.611457e-02 4.243268e-02 1.510184e-02 3.349531e-02 2.132826e-02 9.335071e-03 9.558198e-03 5.196797e-03 4.723774e-03 3.266934e-03 3.830135e-03 1.832725e-03 2.542370e-03 2.227653e-03 1.439715e-03 7.095391e-03 5.247134e-03 2.121517e-03 2.166273e-03 1.176014e-03 1.001851e-03 7.060054e-04 7.983080e-04 3.598521e-04 5.388896e-04 4.442602e-04 2.932094e-04
<GCONST> -1.101905e+02
<STATE> 4
<MEAN> 36
 -1.304309e+00 9.788216e-01 -8.085613e-01 8.168361e-01 -8.916941e-01 7.681718e-01 -4.564995e-01 2.962784e-01 -2.117736e-01 1.940382e-02 3.047012e-03 1.034854e-02 9.503110e-03 5.727271e-02 -7.187906e-02 6.615416e-02 -6.844614e-02 5.925449e-02 -4.815421e-02 4.820841e-02 -2.173194e-03 6.691549e-04 -7.575101e-03 -8.598778e-03 -1.224035e-02 7.605743e-02 -1.786655e-01 2.573351e-01 -2.707813e-01 2.792866e-01 -2.440703e-01 1.872982e-01 -1.203188e-01 6.514762e-02 -2.759914e-02 8.102397e-03
<VARIANCE> 36
 5.793232e-01 1.580666e+00 2.983212e+00 3.247666e+00 2.843533e+00 2.074561e+00 1.456212e+00 7.630407e-01 3.599998e-01 1.796513e-01 7.557390e-02 2.309250e-02 3.380878e-02 9.104165e-02 1.192780e-01 2.032374e-01 2.768658e-01 2.888230e-01 2.483572e-01 1.688121e-01 8.218180e-02 3.200454e-02 8.584398e-03 2.135850e-03 1.502728e-02 5.062900e-02 9.615973e-02 1.956647e-01 2.965485e-01 3.180202e-01 2.582632e-01 1.578418e-01 6.845213e-02 2.092938e-02 3.680499e-03 5.419010e-04
<GCONST> -7.299889e+00
<STATE> 5
<MEAN> 36
 -2.822192e+00 5.476332e+00 -8.425490e+00 1.087668e+01 -1.212169e+01 1.192256e+01 -1.026795e+01 7.706076e+00 -4.943369e+00 2.539119e+00 -9.857309e-01 2.205224e-01 -5.586122e-02 1.584503e-01 -2.741893e-01 4.117280e-01 -4.823406e-01 5.118929e-01 -4.549383e-01 3.575652e-01 -2.351631e-01 1.283700e-01 -5.089860e-02 1.291601e-02 2.879220e-02 -7.896022e-02 1.422952e-01 -2.077715e-01 2.616619e-01 -2.738962e-01 2.546814e-01 -2.001350e-01 1.307869e-01 -6.620642e-02 2.340498e-02 -1.427132e-03
<VARIANCE> 36
 1.769184e-01 1.170036e+00 4.279022e+00 9.635690e+00 1.465145e+01 1.636219e+01 1.345641e+01 8.432987e+00 3.949250e+00 1.360284e+00 2.932549e-01 3.098960e-02 4.305387e-02 2.879240e-01 9.350152e-01 1.973918e+00 2.850467e+00 3.062017e+00 2.482395e+00 1.524851e+00 6.758547e-01 2.095159e-01 3.927147e-02 3.497907e-03 8.423844e-03 4.797653e-02 1.641950e-01 3.369403e-01 4.821139e-01 5.171154e-01 4.224918e-01 2.603416e-01 1.198628e-01 3.879422e-02 7.538415e-03 7.010850e-04
<GCONST> 3.254562e+01
<STATE> 6
<MEAN> 36
 -1.351147e+00 1.829933e+00 -2.443591e+00 3.084496e+00 -3.243508e+00 3.146258e+00 -2.493719e+00 1.924541e+00 -1.231132e+00 6.376785e-01 -2.987984e-01 1.016935e-01 6.914780e-02 -8.185840e-02 1.240182e-01 -2.116939e-01 3.376265e-01 -3.539870e-01 3.671115e-01 -2.911346e-01 2.195027e-01 -1.065777e-01 2.783942e-02 1.172176e-03 -2.146330e-02 2.340490e-02 -5.354253e-02 7.187346e-02 -9.082682e-02 9.485406e-02 -8.713165e-02 5.623564e-02 -4.286627e-02 1.849964e-02 -3.115602e-03 1.605223e-03
<VARIANCE> 36
 9.156207e-01 4.521147e+00 9.934272e+00 1.536015e+01 1.708253e+01 1.653866e+01 1.202092e+01 6.983959e+00 2.898646e+00 9.539128e-01 1.652233e-01 2.938786e-02 3.416409e-02 1.151338e-01 3.472247e-01 6.230442e-01 8.968928e-01 9.298139e-01 8.224772e-01 5.328891e-01 2.596162e-01 8.768337e-02 1.885392e-02 2.588033e-03 7.357057e-03 1.197566e-02 2.907154e-02 3.687068e-02 5.339538e-02 4.212875e-02 4.437310e-02 3.200705e-02 1.937351e-02 7.734625e-03 2.022964e-03 4.776071e-04
<GCONST> 5.104233e+00
<STATE> 7
<MEAN> 36
 -1.816963e+00 3.029103e+00 -4.426899e+00 5.539127e+00 -5.812958e+00 5.442003e+00 -4.315938e+00 3.055079e+00 -1.832642e+00 8.670354e-01 -3.442002e-01 9.535672e-02 -1.068128e-02 4.199188e-02 -1.126230e-01 1.562807e-01 -1.909993e-01 2.240033e-01 -2.065290e-01 1.631351e-01 -1.126430e-01 6.559844e-02 -3.268650e-02 1.166320e-02 -2.006440e-02 1.913643e-02 -2.619945e-02 4.832964e-02 -7.092620e-02 7.966797e-02 -7.730045e-02 6.217377e-02 -4.587398e-02 2.352006e-02 -4.865546e-03 2.087154e-03
<VARIANCE> 36
 1.319657e+00 7.419534e+00 1.931809e+01 3.435863e+01 4.567772e+01 4.738696e+01 3.915089e+01 2.477624e+01 1.161419e+01 3.724338e+00 6.830299e-01 6.270229e-02 5.329201e-02 3.118598e-01 1.126753e+00 2.533400e+00 4.033850e+00 4.704837e+00 4.237421e+00 2.881269e+00 1.401722e+00 4.578543e-01 8.485541e-02 7.255527e-03 1.191050e-02 8.329605e-02 3.117146e-01 7.058248e-01 1.123061e+00 1.302662e+00 1.159103e+00 7.708976e-01 3.666364e-01 1.166924e-01 2.133761e-02 1.581803e-03
<GCONST> 6.306779e+01
<TRANSP> 8
 0.000000e+00 2.624989e-01 7.375011e-01 0.000000e+00 0.000000e+00 0.000000e+00 0.000000e+00 0.000000e+00
 0.000000e+00 8.695379e-01 0.000000e+00 1.304621e-01 0.000000e+00 0.000000e+00 0.000000e+00 0.000000e+00
 0.000000e+00 0.000000e+00 9.507499e-01 4.925010e-02 0.000000e+00 0.000000e+00 0.000000e+00 0.000000e+00
 0.000000e+00 0.000000e+00 0.000000e+00 2.948618e-01 1.762838e-01 5.288544e-01 0.000000e+00 0.000000e+00
 0.000000e+00 0.000000e+00 0.000000e+00 0.000000e+00 8.574635e-01 1.425365e-01 0.000000e+00 0.000000e+00
 0.000000e+00 0.000000e+00 0.000000e+00 0.000000e+00 0.000000e+00 1.761481e-01 8.238519e-01 0.000000e+00
 0.000000e+00 0.000000e+00 0.000000e+00 0.000000e+00 0.000000e+00 0.000000e+00 4.637955e-01 5.362046e-01
 0.000000e+00 0.000000e+00 0.000000e+00 0.000000e+00 0.000000e+00 0.000000e+00 0.000000e+00 0.000000e+00
<ENDHMM>
