~o
<STREAMINFO> 1 39
<VECSIZE> 39<NULLD><MFCC_D_A_0><DIAGC>
~h "bagi"
<BEGINHMM>
<NUMSTATES> 6
<STATE> 2
<MEAN> 39
 -4.868656e+00 -9.663120e+00 1.588453e+00 -1.484992e+01 2.620105e+00 -1.863481e+01 1.189076e+01 -1.259253e+01 -6.710994e+00 -2.623071e+00 5.725411e-01 -7.888947e-01 7.792345e+01 -2.014309e-01 -5.711732e-02 2.178698e-01 5.086018e-01 4.360853e-01 -2.001010e-01 -3.150919e-01 -4.293317e-01 -2.155757e-02 5.610979e-02 2.608076e-01 -1.490073e-01 5.258228e-02 5.744965e-03 1.830183e-01 1.575316e-01 2.421421e-01 1.523568e-01 -6.174764e-02 -5.947705e-02 -8.027677e-02 4.091479e-02 -2.031328e-01 -6.472389e-02 -2.007149e-01 -9.498611e-02
<VARIANCE> 39
 4.802085e+01 7.750035e+01 3.025268e+01 8.682928e+01 3.496447e+01 1.065748e+02 1.210871e+02 5.217963e+01 3.123788e+01 2.459178e+01 2.729272e+01 1.931942e+01 1.605829e+02 2.444481e-01 1.173529e+00 1.241058e+00 2.105266e+00 1.442250e+00 2.487741e+00 2.055938e+00 1.907668e+00 1.709159e+00 2.004202e+00 1.821830e+00 1.947378e+00 1.017464e+00 5.520592e-02 1.654296e-01 1.802555e-01 2.793787e-01 2.678331e-01 4.001579e-01 2.639191e-01 3.284426e-01 3.211942e-01 3.500675e-01 4.157273e-01 3.712071e-01 1.652479e-01
<GCONST> 1.093907e+02
<STATE> 3
<MEAN> 39
 1.512957e+00 2.794525e+00 -5.343087e-02 1.026351e+01 3.884540e+00 -2.616536e+00 -4.215619e+00 6.529495e+00 2.830629e-01 -8.186874e+00 7.592866e-01 1.695914e-01 5.664229e+01 6.670137e-01 -7.444666e-02 -8.955336e-02 9.896553e-02 -3.641519e-02 -5.401507e-01 -6.135005e-01 2.122336e-03 -1.594500e-01 -3.200029e-01 2.967303e-01 1.937463e-01 5.667175e-01 -3.849471e-02 -1.263116e-01 -4.540091e-02 -1.170975e-01 -1.195271e-01 -4.322475e-02 2.236038e-02 -4.958131e-02 1.259293e-02 6.782729e-02 5.606268e-02 1.003909e-01 3.790124e-02
<VARIANCE> 39
 4.869003e+01 5.313800e+01 4.290822e+01 9.497552e+01 6.896336e+01 6.876829e+01 5.428533e+01 4.115768e+01 3.536973e+01 6.588611e+01 5.099018e+01 3.807410e+01 9.767361e+01 3.643303e+00 5.395980e+00 4.814237e+00 4.522009e+00 5.317754e+00 7.815423e+00 5.348735e+00 3.250629e+00 4.138204e+00 5.930707e+00 4.800693e+00 4.494039e+00 3.246189e+00 5.094001e-01 8.380235e-01 8.941605e-01 7.533619e-01 8.381876e-01 1.453856e+00 1.042430e+00 6.529362e-01 8.478683e-01 1.054940e+00 8.799663e-01 7.441275e-01 4.940501e-01
<GCONST> 1.413487e+02
<STATE> 4
<MEAN> 39
 -5.978543e+00 -7.935925e+00 1.574415e+01 -5.620067e+00 1.595502e+01 -2.583311e+01 5.455022e+00 -1.437320e+01 -2.841330e+00 -1.173152e+01 -6.884326e-01 -7.179286e+00 7.750923e+01 -1.493349e-02 1.695714e-01 7.364565e-02 -1.979098e-02 -8.497218e-03 7.285966e-02 3.195473e-02 3.050527e-01 1.979066e-01 -2.602789e-01 -1.990441e-01 -6.702407e-02 -1.978649e-01 3.527201e-02 -4.384832e-02 -3.918079e-02 -7.295330e-02 -1.050909e-01 2.615817e-03 5.957021e-02 6.071590e-02 -2.968398e-02 4.527025e-02 1.485747e-02 4.618723e-02 4.575759e-02
<VARIANCE> 39
 4.092270e+01 4.116478e+01 5.159256e+01 7.015960e+01 2.911372e+01 1.330840e+02 5.864925e+01 6.954521e+01 5.728201e+01 3.879724e+01 4.863335e+01 4.120954e+01 5.166283e+01 2.980708e+00 4.258527e+00 3.159366e+00 4.209986e+00 3.287023e+00 1.003716e+01 4.434715e+00 4.621752e+00 5.832375e+00 3.632125e+00 4.216084e+00 3.571232e+00 4.093019e+00 4.524014e-01 6.113439e-01 4.259729e-01 5.988910e-01 5.867482e-01 1.442108e+00 7.389981e-01 9.045642e-01 9.765938e-01 7.011799e-01 7.436338e-01 6.689242e-01 6.099287e-01
<GCONST> 1.371577e+02
<STATE> 5
<MEAN> 39
 -4.009048e+00 3.821770e+00 -2.828128e-01 6.204928e+00 3.039291e+00 -8.985932e+00 -7.862617e+00 -2.616094e+00 -4.170514e+00 -6.124493e+00 4.463103e-01 -4.771346e-01 7.052517e+01 -3.136247e-01 1.059588e-02 1.668526e-01 1.697878e-01 2.170881e-01 2.295265e-01 7.197145e-02 -1.358925e-01 1.080612e-02 9.120742e-02 -7.245644e-02 -1.807748e-01 -1.954024e-01 -1.589163e-02 2.698145e-02 2.992909e-02 7.083537e-03 1.486822e-02 2.186967e-02 1.298449e-02 7.405767e-04 -1.212999e-03 -1.471069e-02 -3.500764e-02 -3.221185e-02 -1.111552e-02
<VARIANCE> 39
 3.918447e+01 4.226084e+01 3.790850e+01 6.080781e+01 6.210174e+01 3.563584e+01 3.676164e+01 2.054898e+01 2.290235e+01 5.485941e+01 5.825260e+01 5.239459e+01 2.535503e+01 9.121060e-01 1.209215e+00 1.143407e+00 1.783885e+00 1.455286e+00 1.766111e+00 1.844736e+00 1.245742e+00 1.740055e+00 1.253331e+00 1.286928e+00 1.345707e+00 6.887138e-01 1.217437e-01 1.875390e-01 1.679070e-01 2.366078e-01 2.302732e-01 2.943028e-01 2.901917e-01 2.294525e-01 3.128398e-01 2.471038e-01 2.414829e-01 2.395478e-01 8.865257e-02
<GCONST> 1.028578e+02
<TRANSP> 6
 0.000000e+00 4.227447e-01 5.772554e-01 0.000000e+00 0.000000e+00 0.000000e+00
 0.000000e+00 8.789239e-01 4.947473e-02 7.160138e-02 0.000000e+00 0.000000e+00
 0.000000e+00 0.000000e+00 9.281936e-01 1.792742e-02 5.387894e-02 0.000000e+00
 0.000000e+00 0.000000e+00 0.000000e+00 9.504593e-01 0.000000e+00 4.954069e-02
 0.000000e+00 0.000000e+00 0.000000e+00 0.000000e+00 9.752501e-01 2.474988e-02
 0.000000e+00 0.000000e+00 0.000000e+00 0.000000e+00 0.000000e+00 0.000000e+00
<ENDHMM>
