~o
<STREAMINFO> 1 39
<VECSIZE> 39<NULLD><PLP_D_A_0><DIAGC>
~h "belas"
<BEGINHMM>
<NUMSTATES> 8
<STATE> 2
<MEAN> 39
 -4.283192e-02 -2.735447e-01 -7.209883e-01 1.330814e-01 -4.685637e-01 -8.895309e-01 -7.997099e-01 -6.064690e-01 -6.391430e-01 -9.215078e-01 -3.488033e-01 2.863401e-01 4.825996e+00 3.869534e-02 -1.274451e-01 1.121323e-02 -5.471835e-02 -1.453967e-01 9.920307e-03 -8.532513e-03 -6.174404e-02 -6.590311e-03 2.571606e-02 1.082329e-01 1.041546e-01 9.968636e-02 -4.779968e-03 -3.596013e-02 -2.995796e-04 -3.438540e-02 -3.124670e-02 1.258876e-02 1.461945e-02 2.195685e-02 3.208541e-02 3.334576e-02 3.810666e-02 1.054629e-02 2.055865e-02
<VARIANCE> 39
 2.248736e-01 4.861926e-01 4.675535e-01 2.618470e-01 4.587208e-01 4.313190e-01 2.916912e-01 6.666693e-01 4.699646e-01 2.706190e-01 4.644492e-01 3.250822e-01 7.345033e-01 2.057592e-02 3.989116e-02 4.181047e-02 2.540908e-02 5.621748e-02 5.751560e-02 2.977589e-02 2.835873e-02 4.290899e-02 2.492399e-02 4.270975e-02 3.304486e-02 1.779740e-02 4.290329e-03 6.007543e-03 7.047815e-03 4.003711e-03 9.440637e-03 8.690683e-03 7.213195e-03 6.444295e-03 8.550475e-03 4.133984e-03 6.206516e-03 7.130523e-03 3.494770e-03
<GCONST> -5.071017e+01
<STATE> 3
<MEAN> 39
 1.803256e-02 -1.416164e+00 -1.174935e+00 -1.239760e+00 -9.779814e-01 -1.508237e+00 -8.372157e-02 -5.385743e-01 -1.923252e-01 -1.839750e-03 3.900419e-01 6.779970e-01 6.367309e+00 -1.729644e-02 -6.773223e-02 -3.270600e-02 -1.039537e-01 -2.031229e-02 4.828404e-02 7.289281e-02 6.738980e-02 1.502465e-01 9.282696e-02 2.582897e-02 -1.437871e-02 6.320137e-02 -3.079008e-02 4.524803e-02 6.097532e-02 2.023544e-02 4.740086e-02 3.296755e-02 -2.410022e-02 -3.679141e-02 -4.057470e-02 -4.728296e-02 -2.741245e-02 -1.937699e-02 -3.211232e-02
<VARIANCE> 39
 6.442669e-02 4.836393e-01 5.204921e-01 6.366356e-01 2.817867e-01 3.484488e-01 7.721555e-01 5.001267e-01 4.418655e-01 2.732579e-01 2.035264e-01 1.728003e-01 3.141157e-01 3.603879e-03 1.998891e-02 1.764428e-02 1.678629e-02 1.838954e-02 1.348498e-02 2.679551e-02 2.255212e-02 3.069932e-02 2.550147e-02 1.943042e-02 1.749602e-02 7.645194e-03 1.916487e-03 2.998407e-03 4.136403e-03 2.787814e-03 2.825923e-03 2.980794e-03 6.029798e-03 4.113627e-03 7.212262e-03 3.523615e-03 3.518402e-03 3.007515e-03 1.049102e-03
<GCONST> -7.080012e+01
<STATE> 4
<MEAN> 39
 -4.013658e-01 -1.336188e+00 -1.659849e-01 -8.685369e-01 -1.053611e+00 -3.529076e-01 -4.494245e-01 -6.577967e-01 -1.705585e-01 -3.453754e-01 4.344639e-01 5.986489e-01 5.558703e+00 -3.575017e-01 -1.089291e-01 3.085954e-01 -1.183428e-01 6.137698e-02 1.185173e-01 2.329740e-02 -6.557233e-02 -1.246385e-01 7.100434e-02 2.261815e-02 -9.682115e-02 -2.432622e-02 -7.055739e-02 -2.712242e-02 -4.964727e-04 -2.600225e-02 -1.556337e-03 -3.482622e-02 -9.444622e-04 -9.206215e-04 -8.786493e-03 1.089089e-02 -2.415185e-02 -5.859650e-03 -9.737072e-03
<VARIANCE> 39
 3.916270e-01 4.338737e-01 7.024491e-01 5.893189e-01 3.017047e-01 7.597847e-01 4.374025e-01 2.429784e-01 4.374858e-01 3.874758e-01 1.605418e-01 2.201002e-01 9.329255e-01 4.467912e-02 5.590040e-02 2.966421e-02 3.757703e-02 3.548244e-02 3.773699e-02 3.282889e-02 2.536466e-02 3.632199e-02 4.319355e-02 2.993178e-02 1.655969e-02 5.579865e-03 7.265976e-03 7.125318e-03 1.061361e-02 5.686494e-03 8.981495e-03 5.857047e-03 4.813504e-03 3.516834e-03 7.571632e-03 5.671115e-03 3.773768e-03 4.650913e-03 1.860455e-03
<GCONST> -5.334910e+01
<STATE> 5
<MEAN> 39
 -1.669401e+00 -1.290044e+00 8.762637e-01 -2.352401e+00 7.835215e-01 -1.001930e+00 9.388789e-01 -1.085826e+00 1.668360e-01 -3.376659e-01 -8.813307e-02 -3.010080e-02 6.264081e+00 -4.639225e-02 2.679019e-02 1.962789e-02 3.877447e-02 2.118222e-02 3.201911e-02 7.446364e-03 3.448020e-02 -9.854734e-03 -1.590141e-03 4.319306e-02 -3.949303e-03 -9.151436e-02 3.272535e-02 -2.634582e-02 -3.268088e-02 6.490159e-03 -3.306219e-02 -1.485064e-02 1.677112e-02 5.257504e-03 -3.099346e-03 1.609205e-02 1.297432e-02 9.011122e-03 7.898734e-03
<VARIANCE> 39
 1.047012e+00 2.786720e-01 4.956101e-01 3.199626e-01 5.399008e-01 3.987596e-01 2.766659e-01 3.153129e-01 2.447162e-01 2.029215e-01 1.305197e-01 6.803314e-02 4.958356e-01 1.482187e-01 5.097914e-02 8.471379e-02 3.906426e-02 7.798708e-02 4.177393e-02 4.711760e-02 3.463236e-02 3.222452e-02 2.589538e-02 1.344964e-02 9.404213e-03 3.555266e-02 1.826619e-02 6.669706e-03 9.228274e-03 7.839377e-03 7.976508e-03 6.357735e-03 1.031409e-02 7.758618e-03 6.444901e-03 4.928695e-03 2.800143e-03 1.520594e-03 6.968618e-03
<GCONST> -5.150086e+01
<STATE> 6
<MEAN> 39
 -2.154347e+00 -1.730576e+00 2.869327e-01 -1.640279e+00 -1.033774e+00 -4.377334e-01 -2.495215e-01 -8.708185e-01 -3.237590e-01 9.733164e-02 4.666195e-01 3.545387e-01 5.716006e+00 -8.969088e-02 -3.445693e-02 -3.974208e-02 1.518384e-02 -1.611150e-02 1.524928e-02 7.171530e-03 -1.201904e-02 -1.306981e-02 1.262725e-02 -2.327475e-03 -2.992108e-03 -1.184987e-01 8.898463e-02 6.386672e-02 -7.631057e-02 5.448560e-02 1.157275e-02 -5.815895e-03 -1.062154e-02 1.577671e-02 1.472688e-02 -2.448201e-02 -1.001910e-02 5.003844e-03 -3.737095e-02
<VARIANCE> 39
 3.346354e-01 4.511070e-01 5.589474e-01 3.621893e-01 3.193254e-01 3.345688e-01 4.075554e-01 1.429485e-01 3.261528e-01 2.287070e-01 1.188322e-01 6.967260e-02 4.371430e-01 5.284474e-02 2.602794e-02 3.279630e-02 2.507756e-02 1.501494e-02 1.372641e-02 1.029194e-02 1.105280e-02 1.304580e-02 9.987197e-03 9.230726e-03 5.996160e-03 1.265381e-02 6.326366e-03 6.724220e-03 6.207156e-03 4.640044e-03 3.568013e-03 3.577489e-03 2.904164e-03 2.644269e-03 4.413873e-03 3.644474e-03 2.265833e-03 1.676403e-03 1.939008e-03
<GCONST> -7.281555e+01
<STATE> 7
<MEAN> 39
 -1.509576e+00 -1.091970e+00 -5.334420e-01 -9.798034e-01 -8.361852e-01 -5.911303e-01 -3.858485e-01 -7.132890e-01 -3.851617e-01 -2.674679e-01 2.690471e-01 3.420511e-01 4.490083e+00 1.124957e-01 1.474112e-01 -1.285921e-01 7.375397e-02 2.721344e-02 -5.023072e-02 -9.688310e-03 2.749958e-02 3.264607e-02 -5.473071e-02 -5.807460e-02 -9.732402e-03 -8.853648e-02 8.012116e-03 -9.962597e-03 1.807376e-02 -4.714645e-03 4.469711e-03 -3.898036e-03 -2.596059e-03 -3.726682e-04 -1.014882e-03 -1.408047e-03 2.763775e-03 -8.237400e-04 3.586911e-02
<VARIANCE> 39
 5.381497e-01 5.328549e-01 4.107367e-01 3.646419e-01 4.343773e-01 4.100820e-01 4.273689e-01 2.117217e-01 2.457015e-01 2.567000e-01 1.844823e-01 1.023705e-01 9.429688e-01 3.037431e-02 5.257419e-02 4.607704e-02 3.202856e-02 3.145581e-02 3.298054e-02 2.346801e-02 1.856866e-02 2.624037e-02 2.045879e-02 2.050216e-02 1.261790e-02 4.504059e-02 5.717600e-03 8.638437e-03 6.579337e-03 5.292021e-03 6.126513e-03 6.547569e-03 4.402085e-03 3.807012e-03 5.439856e-03 3.742127e-03 4.581366e-03 2.715227e-03 5.533840e-03
<GCONST> -5.744258e+01
<TRANSP> 8
 0.000000e+00 6.345570e-01 3.654430e-01 0.000000e+00 0.000000e+00 0.000000e+00 0.000000e+00 0.000000e+00
 0.000000e+00 7.764775e-01 1.359713e-01 8.755124e-02 0.000000e+00 0.000000e+00 0.000000e+00 0.000000e+00
 0.000000e+00 0.000000e+00 7.941503e-01 2.058497e-01 0.000000e+00 0.000000e+00 0.000000e+00 0.000000e+00
 0.000000e+00 0.000000e+00 0.000000e+00 7.056395e-01 6.094916e-02 2.334113e-01 0.000000e+00 0.000000e+00
 0.000000e+00 0.000000e+00 0.000000e+00 0.000000e+00 9.193590e-01 8.064106e-02 0.000000e+00 0.000000e+00
 0.000000e+00 0.000000e+00 0.000000e+00 0.000000e+00 0.000000e+00 7.728412e-01 2.271589e-01 0.000000e+00
 0.000000e+00 0.000000e+00 0.000000e+00 0.000000e+00 0.000000e+00 0.000000e+00 7.850124e-01 2.149877e-01
 0.000000e+00 0.000000e+00 0.000000e+00 0.000000e+00 0.000000e+00 0.000000e+00 0.000000e+00 0.000000e+00
<ENDHMM>
