~o
<STREAMINFO> 1 39
<VECSIZE> 39<NULLD><MFCC_D_A_0><DIAGC>
~h "delapan"
<BEGINHMM>
<NUMSTATES> 6
<STATE> 2
<MEAN> 39
 2.148697e+00 3.179914e+00 -4.540044e+00 9.691801e+00 5.039183e+00 -9.187245e-01 -4.096164e+00 2.647604e+00 -6.158573e-01 -6.996117e+00 -2.715384e+00 3.826101e+00 5.465970e+01 6.641144e-01 -3.284801e-01 -2.590410e-01 -2.150090e-01 -3.010106e-01 -2.091704e-01 -3.734034e-01 -1.121203e-01 1.076733e-02 -3.569038e-01 4.693631e-02 4.831921e-01 6.146940e-01 -4.319766e-02 -7.871543e-02 7.196667e-02 -1.583064e-01 -2.897489e-01 3.788461e-02 1.176939e-01 4.595579e-03 1.410048e-01 1.113409e-01 5.693136e-02 6.796581e-02 2.535313e-02
<VARIANCE> 39
 5.403324e+01 5.608762e+01 4.457148e+01 4.830309e+01 7.807676e+01 4.466543e+01 4.443596e+01 5.234877e+01 5.684007e+01 4.860549e+01 7.237098e+01 3.277726e+01 1.128563e+02 2.997880e+00 6.691061e+00 4.934084e+00 4.543430e+00 8.028247e+00 5.534065e+00 4.545450e+00 4.861139e+00 5.114494e+00 4.972933e+00 4.644977e+00 3.468092e+00 2.633180e+00 3.907652e-01 1.293677e+00 8.407376e-01 6.866992e-01 1.114769e+00 1.026552e+00 8.388078e-01 8.808846e-01 9.629162e-01 1.015470e+00 8.361011e-01 5.667758e-01 3.266330e-01
<GCONST> 1.403929e+02
<STATE> 3
<MEAN> 39
 2.177273e+00 2.600313e+00 1.532849e-01 4.196990e+00 -7.114183e+00 1.730283e+00 -1.184155e+00 1.011192e+00 5.099218e+00 -7.414095e+00 -4.037337e+00 8.280287e+00 5.528561e+01 -3.539689e-02 1.069030e-01 3.761670e-02 1.240376e-01 1.349252e-01 -7.606211e-02 1.546590e-01 2.164514e-01 -7.943312e-02 1.594509e-01 1.755449e-01 -1.443445e-01 -6.976621e-02 -2.210141e-02 1.431001e-01 -1.119185e-01 1.672141e-01 3.188729e-01 -1.260080e-01 -3.304963e-02 1.085146e-01 -4.553425e-02 -1.619140e-03 -9.870652e-02 -1.593368e-01 -1.051163e-01
<VARIANCE> 39
 5.145537e+01 5.946521e+01 3.341340e+01 2.817736e+01 6.521503e+01 3.808617e+01 2.886983e+01 6.137925e+01 5.070773e+01 3.345797e+01 3.741584e+01 3.994618e+01 1.066705e+02 3.547039e+00 4.752866e+00 3.660406e+00 3.930944e+00 1.040056e+01 3.390475e+00 2.773577e+00 3.490705e+00 4.446401e+00 2.470144e+00 3.933295e+00 4.211362e+00 3.493893e+00 4.707419e-01 7.589265e-01 6.827924e-01 7.384772e-01 1.870352e+00 6.899493e-01 5.802516e-01 6.953464e-01 8.104617e-01 4.638509e-01 8.389438e-01 7.433881e-01 3.829684e-01
<GCONST> 1.342660e+02
<STATE> 4
<MEAN> 39
 1.089475e+00 -3.076871e+00 -1.372591e+01 -2.281588e+00 3.222198e-01 -6.210429e+00 -2.332480e+00 7.440634e+00 1.999928e+00 3.469558e-01 3.980035e+00 9.724230e+00 7.269534e+01 -1.471093e-01 1.559350e-01 1.067429e-01 2.844739e-02 4.748383e-02 1.852867e-01 2.171079e-01 1.880158e-01 1.660686e-01 -1.440848e-02 -2.104238e-01 -1.195292e-01 -1.703599e-01 -2.118747e-02 2.745884e-02 3.235209e-02 5.049727e-02 4.270054e-02 3.398594e-02 -1.784013e-02 -4.341840e-02 -5.388641e-02 -3.465245e-02 -2.141253e-02 -4.239113e-02 -3.042286e-02
<VARIANCE> 39
 1.498811e+01 2.360202e+01 1.326528e+01 2.419265e+01 3.472887e+01 3.673919e+01 1.432013e+01 1.577281e+01 2.241125e+01 1.508666e+01 2.129575e+01 1.358463e+01 2.538697e+01 8.865148e-01 1.281477e+00 8.905296e-01 1.476406e+00 1.342006e+00 1.520908e+00 1.171153e+00 1.306514e+00 1.785096e+00 1.329071e+00 1.704315e+00 1.027139e+00 1.274344e+00 1.227711e-01 1.802631e-01 1.520769e-01 2.192489e-01 1.688237e-01 2.591335e-01 1.799146e-01 1.954691e-01 2.790994e-01 2.398029e-01 3.125086e-01 1.807396e-01 1.497777e-01
<GCONST> 9.265463e+01
<STATE> 5
<MEAN> 39
 1.423407e-01 9.956738e+00 -1.061143e+00 1.166408e+01 8.363524e+00 -4.109792e-01 -2.698765e+00 4.874827e+00 3.292676e+00 -5.043487e+00 -5.959282e+00 -1.042806e+00 5.453260e+01 -3.085449e-01 1.570983e-01 -2.048477e-01 -2.781662e-01 2.571790e-03 -2.607095e-01 -2.703583e-01 -2.391995e-01 -1.618539e-01 8.734129e-02 4.920230e-04 -2.763050e-01 -3.107446e-01 1.151559e-01 -2.701021e-01 -7.414283e-02 -2.506158e-01 -3.359036e-01 2.295945e-02 -7.551372e-02 -1.241589e-01 -2.283087e-02 -7.012101e-02 1.606460e-01 2.972185e-01 1.928561e-01
<VARIANCE> 39
 3.573413e+01 3.020295e+01 3.241520e+01 3.706678e+01 3.941483e+01 2.773419e+01 2.250564e+01 9.870377e+01 3.892464e+01 3.274711e+01 3.215376e+01 2.421219e+01 1.121319e+02 1.663771e+00 3.203216e+00 3.287121e+00 3.064074e+00 5.326364e+00 2.726401e+00 2.636017e+00 4.348237e+00 3.915998e+00 2.943378e+00 2.759453e+00 3.072416e+00 1.458264e+00 2.629943e-01 3.625068e-01 6.326498e-01 4.022859e-01 6.915917e-01 6.063660e-01 5.134650e-01 8.021224e-01 7.065712e-01 6.105080e-01 3.885354e-01 4.331568e-01 1.844110e-01
<GCONST> 1.232516e+02
<TRANSP> 6
 0.000000e+00 8.440021e-01 1.559980e-01 0.000000e+00 0.000000e+00 0.000000e+00
 0.000000e+00 9.313194e-01 3.816416e-02 3.051642e-02 0.000000e+00 0.000000e+00
 0.000000e+00 0.000000e+00 9.579634e-01 0.000000e+00 4.203657e-02 0.000000e+00
 0.000000e+00 0.000000e+00 0.000000e+00 9.787507e-01 1.417671e-02 7.072556e-03
 0.000000e+00 0.000000e+00 0.000000e+00 0.000000e+00 8.975083e-01 1.024917e-01
 0.000000e+00 0.000000e+00 0.000000e+00 0.000000e+00 0.000000e+00 0.000000e+00
<ENDHMM>
