~o
<STREAMINFO> 1 39
<VECSIZE> 39<NULLD><MFCC_D_A_0><DIAGC>
~h "dua"
<BEGINHMM>
<NUMSTATES> 6
<STATE> 2
<MEAN> 39
 -1.917550e+00 6.157213e+00 -5.809200e-01 9.061286e+00 7.834334e+00 3.410539e+00 -5.449567e+00 3.840384e+00 4.933620e+00 -5.463613e+00 -4.027648e+00 1.770801e+00 5.353360e+01 1.169592e+00 -6.319027e-02 3.316551e-01 -4.664629e-01 -2.807758e-01 2.402677e-01 -1.114628e+00 1.387728e-01 6.509639e-01 -1.491102e+00 -9.079696e-01 -3.774400e-02 1.026365e+00 -1.150834e-01 -5.548976e-02 2.149718e-01 -1.954719e-01 -4.662678e-01 -1.718978e-01 -2.085988e-03 2.436627e-01 1.704296e-01 -1.286926e-01 2.983876e-04 -3.644234e-02 -1.230541e-02
<VARIANCE> 39
 5.307398e+01 7.141099e+01 3.942443e+01 3.411593e+01 6.278117e+01 5.117548e+01 8.523512e+01 4.512607e+01 8.174749e+01 8.035422e+01 4.790004e+01 3.781876e+01 1.125944e+02 2.584094e+00 6.143658e+00 6.654064e+00 4.200250e+00 7.266974e+00 4.580007e+00 8.396173e+00 4.841647e+00 7.768628e+00 7.479330e+00 4.716874e+00 4.255394e+00 2.362954e+00 3.969074e-01 1.236929e+00 1.330479e+00 6.141880e-01 9.809610e-01 9.977545e-01 1.877091e+00 9.376132e-01 1.459426e+00 1.539741e+00 1.109176e+00 6.771554e-01 4.370452e-01
<GCONST> 1.450200e+02
<STATE> 3
<MEAN> 39
 3.896355e+00 6.034664e+00 5.053276e+00 2.499902e+00 -4.982939e+00 -7.239559e-01 -1.159015e+01 6.808359e+00 1.189063e+01 -1.264419e+01 -7.719615e+00 3.022142e+00 6.219330e+01 2.432095e-01 -3.278065e-01 -9.357352e-02 -2.844323e-01 -1.115067e+00 -9.432411e-01 1.731903e-02 2.143615e-01 1.889052e-01 2.974968e-01 1.507723e-01 3.682594e-01 3.008947e-01 -2.124374e-02 1.658761e-03 -2.892119e-01 1.620293e-01 3.265671e-01 -7.365509e-02 1.346662e-01 -8.391897e-02 -2.769908e-01 2.431494e-01 1.363994e-01 -6.487679e-03 -7.980286e-02
<VARIANCE> 39
 1.800933e+01 4.153956e+01 4.097434e+01 1.978831e+01 7.581350e+01 3.707626e+01 3.658878e+01 4.095140e+01 6.454833e+01 8.999271e+01 2.714843e+01 6.982345e+01 6.260165e+01 3.223715e-01 1.850199e+00 1.704762e+00 1.629012e+00 2.254245e+00 2.137496e+00 2.671926e+00 2.360618e+00 2.302682e+00 2.428403e+00 1.861087e+00 2.375074e+00 5.749229e-01 5.701599e-02 2.969696e-01 2.315474e-01 2.644475e-01 3.810602e-01 3.318090e-01 3.855739e-01 4.700519e-01 4.205858e-01 5.799391e-01 3.981031e-01 5.332832e-01 9.631541e-02
<GCONST> 1.112218e+02
<STATE> 4
<MEAN> 39
 2.296443e+00 -3.776242e+00 -1.299928e+01 -2.285562e+00 -1.765749e+00 -1.238513e+01 -7.555689e+00 9.003398e+00 2.696397e+00 1.908800e-01 2.082662e+00 5.195551e+00 7.405598e+01 -2.764646e-01 -5.973983e-03 -3.958332e-01 -1.655831e-01 -7.884910e-02 2.727164e-01 6.077589e-01 6.894325e-02 -1.279720e-01 3.054944e-02 2.014880e-01 3.074241e-01 -3.065783e-01 -7.343701e-02 1.047854e-01 1.228970e-01 6.116441e-02 4.512916e-02 1.514499e-01 3.760955e-02 -4.479057e-02 4.522248e-02 2.503563e-03 -5.084886e-02 -9.918824e-02 -8.607773e-02
<VARIANCE> 39
 1.344328e+01 2.943160e+01 4.608410e+01 1.463322e+01 1.466700e+01 5.292846e+01 3.742886e+01 2.381629e+01 1.873625e+01 2.765592e+01 2.056363e+01 2.063280e+01 2.246434e+01 3.879413e-01 1.240891e+00 1.077588e+00 6.548715e-01 6.078000e-01 1.489622e+00 1.287194e+00 1.330113e+00 1.274730e+00 1.247369e+00 1.533340e+00 1.153708e+00 6.454508e-01 3.075970e-02 1.081643e-01 1.083129e-01 1.085325e-01 1.129611e-01 2.390567e-01 2.742958e-01 2.369647e-01 2.230531e-01 2.240267e-01 2.548576e-01 1.766694e-01 4.209252e-02
<GCONST> 8.722760e+01
<STATE> 5
<MEAN> 39
 3.702340e-01 8.818610e+00 -1.350192e+00 4.793960e+00 -2.749753e+00 -3.292235e+00 -3.500453e-02 7.602284e+00 3.310387e+00 -8.416024e+00 -5.411884e+00 2.991171e+00 5.200096e+01 -6.270196e-01 3.457786e-01 -2.444156e-01 1.925651e-01 7.506155e-01 -4.346262e-02 5.209736e-01 -1.274145e-01 -8.326876e-01 7.447589e-01 2.054916e-01 -6.652377e-01 -6.473954e-01 4.733839e-02 -9.293739e-02 1.293821e-01 -1.244213e-01 -1.128660e-01 1.485660e-01 -2.226128e-01 -1.045072e-01 1.660589e-01 -1.327303e-01 -2.019140e-02 7.393423e-02 1.020673e-01
<VARIANCE> 39
 5.588783e+01 4.722579e+01 4.656158e+01 4.836572e+01 4.690433e+01 4.995427e+01 4.568796e+01 7.213459e+01 6.124057e+01 4.721140e+01 3.994379e+01 4.523748e+01 8.501673e+01 2.637786e+00 3.937560e+00 3.967085e+00 4.104379e+00 5.287514e+00 4.619603e+00 4.790833e+00 4.182199e+00 5.734392e+00 4.254365e+00 3.441063e+00 4.203249e+00 2.728374e+00 3.793172e-01 5.724261e-01 6.457539e-01 7.050014e-01 8.250948e-01 7.423744e-01 7.437800e-01 6.534343e-01 9.645877e-01 6.155404e-01 6.343678e-01 6.701565e-01 3.029251e-01
<GCONST> 1.351431e+02
<TRANSP> 6
 0.000000e+00 7.641513e-01 2.358487e-01 0.000000e+00 0.000000e+00 0.000000e+00
 0.000000e+00 8.616179e-01 1.383821e-01 0.000000e+00 0.000000e+00 0.000000e+00
 0.000000e+00 0.000000e+00 8.951405e-01 4.369139e-02 6.116816e-02 0.000000e+00
 0.000000e+00 0.000000e+00 0.000000e+00 9.466578e-01 2.131216e-02 3.202996e-02
 0.000000e+00 0.000000e+00 0.000000e+00 0.000000e+00 9.003721e-01 9.962793e-02
 0.000000e+00 0.000000e+00 0.000000e+00 0.000000e+00 0.000000e+00 0.000000e+00
<ENDHMM>
