~o
<STREAMINFO> 1 36
<VECSIZE> 36<NULLD><LPC_D_A><DIAGC>
~h "dua"
<BEGINHMM>
<NUMSTATES> 8
<STATE> 2
<MEAN> 36
 -1.809283e+00 2.603163e+00 -3.663750e+00 4.089411e+00 -4.095040e+00 3.526607e+00 -2.671158e+00 1.731302e+00 -9.490240e-01 4.009474e-01 -1.392848e-01 7.600962e-02 -5.932338e-02 5.309651e-02 -9.619148e-02 1.280995e-01 -1.452564e-01 1.501962e-01 -1.360496e-01 1.195200e-01 -8.168189e-02 5.002129e-02 -2.367722e-02 9.571396e-03 1.018298e-03 7.054784e-03 -7.556092e-03 2.187850e-02 -3.183042e-02 3.800128e-02 -3.921836e-02 3.595029e-02 -2.911418e-02 1.736764e-02 -9.204427e-03 2.811358e-03
<VARIANCE> 36
 1.118369e+00 4.714300e+00 9.136191e+00 1.436454e+01 1.651271e+01 1.585890e+01 1.221097e+01 7.291931e+00 3.404866e+00 1.114899e+00 2.406396e-01 2.777271e-02 2.997924e-02 1.023869e-01 2.718688e-01 5.720222e-01 8.683944e-01 1.027142e+00 9.682401e-01 7.100199e-01 3.892905e-01 1.499300e-01 3.502708e-02 3.290910e-03 5.719362e-03 2.364558e-02 6.338907e-02 1.340989e-01 2.027066e-01 2.382042e-01 2.171692e-01 1.517254e-01 8.007210e-02 2.999310e-02 7.062624e-03 7.121876e-04
<GCONST> 2.068904e+01
<STATE> 3
<MEAN> 36
 -3.200786e+00 5.866962e+00 -8.497521e+00 1.035943e+01 -1.074799e+01 9.628862e+00 -7.679098e+00 5.313780e+00 -3.077777e+00 1.470256e+00 -5.621568e-01 1.607206e-01 -9.817037e-03 -1.178239e-01 5.192059e-01 -1.136314e+00 1.842621e+00 -2.405837e+00 2.573309e+00 -2.253032e+00 1.620098e+00 -9.157341e-01 3.680536e-01 -8.312203e-02 6.422667e-02 -2.079994e-01 4.069391e-01 -6.342900e-01 8.123855e-01 -8.932196e-01 8.523642e-01 -7.001101e-01 4.791328e-01 -2.647851e-01 1.086649e-01 -2.358002e-02
<VARIANCE> 36
 4.672554e-01 6.406672e+00 2.857651e+01 7.379034e+01 1.295502e+02 1.701250e+02 1.719442e+02 1.324324e+02 7.511111e+01 2.841915e+01 5.741878e+00 3.322542e-01 2.186314e-01 3.991249e+00 2.292277e+01 7.139960e+01 1.443589e+02 2.035509e+02 2.030863e+02 1.430841e+02 6.969126e+01 2.175905e+01 3.533638e+00 1.627760e-01 2.972031e-02 4.665630e-01 2.507778e+00 7.633775e+00 1.524027e+01 2.148003e+01 2.163960e+01 1.549653e+01 7.709072e+00 2.475294e+00 4.191636e-01 2.037480e-02
<GCONST> 1.463259e+02
<STATE> 4
<MEAN> 36
 -1.048801e+00 6.606281e-01 -6.337104e-01 -1.251636e-01 9.628170e-01 -1.797587e+00 2.158289e+00 -1.889881e+00 1.333406e+00 -6.937338e-01 1.787734e-01 2.019638e-02 -4.288360e-02 -3.863112e-02 5.047451e-02 -5.532211e-02 4.443450e-02 -2.740932e-02 9.918511e-03 2.369109e-02 -2.750305e-02 2.425176e-02 -1.629323e-02 1.487921e-02 1.610811e-02 1.799712e-02 -6.114849e-02 1.559535e-01 -2.565632e-01 3.231652e-01 -3.361959e-01 2.813950e-01 -1.997423e-01 1.069752e-01 -4.036251e-02 1.128537e-02
<VARIANCE> 36
 1.887556e+00 2.523918e+01 1.504357e+02 4.946165e+02 1.044878e+03 1.517466e+03 1.540098e+03 1.092552e+03 5.314257e+02 1.640820e+02 2.603609e+01 1.189604e+00 3.712200e-02 5.630224e-02 1.486388e-01 2.826690e-01 3.875006e-01 4.021659e-01 3.209541e-01 2.066017e-01 1.040637e-01 3.971890e-02 1.136381e-02 1.774371e-03 2.064716e-02 2.805031e-01 1.673032e+00 5.377008e+00 1.113239e+01 1.597235e+01 1.611674e+01 1.142673e+01 5.572734e+00 1.734738e+00 2.806044e-01 1.330531e-02
<GCONST> 9.857327e+01
<STATE> 5
<MEAN> 36
 -3.412302e+00 6.814300e+00 -1.082901e+01 1.456875e+01 -1.667723e+01 1.648222e+01 -1.436006e+01 1.083136e+01 -6.865822e+00 3.579826e+00 -1.439602e+00 3.572809e-01 -5.493881e-02 6.216051e-01 -2.007206e+00 4.007962e+00 -6.138902e+00 7.651088e+00 -7.883910e+00 6.739111e+00 -4.754378e+00 2.657109e+00 -1.053028e+00 2.231699e-01 1.115217e-01 -3.926352e-01 8.375009e-01 -1.400658e+00 1.912913e+00 -2.204983e+00 2.165321e+00 -1.804860e+00 1.258557e+00 -7.118675e-01 2.977042e-01 -6.681530e-02
<VARIANCE> 36
 5.822457e-01 9.041717e+00 4.536760e+01 1.300480e+02 2.480961e+02 3.331049e+02 3.204751e+02 2.201832e+02 1.057332e+02 3.348465e+01 5.803926e+00 2.945888e-01 2.632768e-01 6.189123e+00 4.081777e+01 1.362875e+02 2.882174e+02 4.181570e+02 4.235045e+02 2.994938e+02 1.452404e+02 4.472677e+01 7.100194e+00 3.228997e-01 2.665490e-02 5.831392e-01 3.680270e+00 1.193655e+01 2.484991e+01 3.574316e+01 3.601195e+01 2.540793e+01 1.235341e+01 3.844156e+00 6.206110e-01 2.846831e-02
<GCONST> 1.629243e+02
<STATE> 6
<MEAN> 36
 -1.779526e+00 2.358228e+00 -3.280928e+00 3.688275e+00 -3.724550e+00 3.258037e+00 -2.534728e+00 1.719558e+00 -9.664716e-01 4.302053e-01 -1.628643e-01 6.920142e-02 3.080823e-02 -1.340561e-01 2.373903e-01 -3.374453e-01 4.185347e-01 -4.533544e-01 4.292326e-01 -3.523949e-01 2.417908e-01 -1.401826e-01 6.159277e-02 -1.077242e-02 -9.864213e-03 4.965866e-02 -7.356071e-02 1.023887e-01 -1.164800e-01 1.136150e-01 -1.019127e-01 7.606120e-02 -5.413045e-02 3.224690e-02 -1.260165e-02 2.522367e-03
<VARIANCE> 36
 1.023506e+00 4.779478e+00 9.048576e+00 1.437075e+01 1.700561e+01 1.680245e+01 1.367705e+01 8.589789e+00 4.207810e+00 1.510405e+00 3.297106e-01 3.514329e-02 5.984409e-02 3.047733e-01 8.565888e-01 1.791377e+00 2.728862e+00 3.200644e+00 2.917389e+00 2.021077e+00 1.023766e+00 3.580465e-01 7.414916e-02 5.991562e-03 1.045341e-02 6.222975e-02 2.294932e-01 6.090592e-01 1.146966e+00 1.574638e+00 1.578009e+00 1.140807e+00 5.751590e-01 1.899137e-01 3.456993e-02 2.102746e-03
<GCONST> 5.220461e+01
<STATE> 7
<MEAN> 36
 -8.830559e-01 2.216502e-01 -3.899856e-01 3.596253e-01 -4.205993e-01 3.697584e-01 -3.251697e-01 2.548462e-01 -2.202722e-01 1.656125e-01 -1.437502e-01 1.311313e-01 7.855994e-03 7.647070e-03 -1.248791e-02 1.990942e-02 -1.892964e-02 2.816834e-02 -3.155641e-02 2.104126e-02 -2.031393e-02 1.344677e-02 -4.835124e-03 1.623272e-03 2.750167e-03 3.750994e-03 -3.712267e-03 3.931727e-03 -4.147847e-03 4.911968e-03 -3.278946e-03 2.892495e-03 -1.561659e-03 3.105811e-04 -2.365776e-04 -9.350845e-04
<VARIANCE> 36
 4.055616e-01 5.801073e-01 9.071656e-01 1.133238e+00 1.147186e+00 1.000694e+00 7.644984e-01 4.923275e-01 2.260133e-01 1.055297e-01 4.731121e-02 1.723431e-02 3.623885e-02 7.262269e-02 2.082377e-01 4.988820e-01 8.417069e-01 1.051028e+00 1.029911e+00 7.933886e-01 4.384052e-01 1.677810e-01 3.990442e-02 3.943718e-03 5.694877e-03 5.394674e-03 5.787687e-03 1.055744e-02 1.598032e-02 2.010947e-02 1.947037e-02 1.475850e-02 7.929980e-03 3.263178e-03 1.202302e-03 3.453328e-04
<GCONST> -2.838633e+01
<TRANSP> 8
 0.000000e+00 9.586779e-01 4.132202e-02 0.000000e+00 0.000000e+00 0.000000e+00 0.000000e+00 0.000000e+00
 0.000000e+00 5.638945e-01 3.383601e-02 4.022695e-01 0.000000e+00 0.000000e+00 0.000000e+00 0.000000e+00
 0.000000e+00 0.000000e+00 7.073767e-01 1.920299e-01 1.005935e-01 0.000000e+00 0.000000e+00 0.000000e+00
 0.000000e+00 0.000000e+00 0.000000e+00 8.489962e-03 4.426797e-02 9.472421e-01 0.000000e+00 0.000000e+00
 0.000000e+00 0.000000e+00 0.000000e+00 0.000000e+00 4.737138e-01 5.262862e-01 0.000000e+00 0.000000e+00
 0.000000e+00 0.000000e+00 0.000000e+00 0.000000e+00 0.000000e+00 4.979429e-01 5.020571e-01 0.000000e+00
 0.000000e+00 0.000000e+00 0.000000e+00 0.000000e+00 0.000000e+00 0.000000e+00 9.105673e-01 8.943268e-02
 0.000000e+00 0.000000e+00 0.000000e+00 0.000000e+00 0.000000e+00 0.000000e+00 0.000000e+00 0.000000e+00
<ENDHMM>
