~o
<STREAMINFO> 1 39
<VECSIZE> 39<NULLD><PLP_D_A_0><DIAGC>
~h "dua"
<BEGINHMM>
<NUMSTATES> 8
<STATE> 2
<MEAN> 39
 -5.599797e-01 -2.700289e-01 -4.157549e-01 -2.033036e-01 3.615119e-02 -7.217062e-01 -8.026518e-01 -5.460987e-01 -2.878938e-01 -8.306423e-01 -3.487290e-01 -1.534137e-01 4.733700e+00 1.681301e-01 4.616666e-02 5.019116e-02 -8.622285e-02 -9.499018e-02 -2.449697e-02 -8.936456e-02 1.546039e-02 2.276013e-02 -1.232951e-01 -8.271904e-02 -3.445192e-02 1.484103e-01 -1.131906e-02 -2.600439e-02 1.068671e-02 -3.650688e-02 -8.671767e-02 -2.682245e-02 1.438704e-02 2.489995e-02 2.661205e-02 1.021135e-02 1.068724e-02 1.695037e-02 3.290362e-03
<VARIANCE> 39
 3.844575e-01 5.428036e-01 4.128687e-01 4.918433e-01 5.251209e-01 5.059794e-01 4.539285e-01 4.323628e-01 4.591214e-01 3.274774e-01 2.998852e-01 2.576300e-01 8.885787e-01 3.569123e-02 6.174458e-02 3.771157e-02 5.124850e-02 7.615400e-02 5.221913e-02 4.456775e-02 3.137504e-02 5.107162e-02 3.708955e-02 3.520640e-02 3.849304e-02 3.351637e-02 6.324910e-03 1.061176e-02 8.857025e-03 8.277952e-03 8.699206e-03 9.468896e-03 7.816473e-03 6.721130e-03 8.680476e-03 8.714796e-03 6.470956e-03 6.389153e-03 6.600401e-03
<GCONST> -4.273753e+01
<STATE> 3
<MEAN> 39
 -1.461038e-01 4.765678e-02 -1.042555e-01 -8.622714e-01 -1.199151e+00 -1.584770e+00 -7.015139e-01 -3.137078e-01 -2.502349e-01 -8.200601e-01 -5.044940e-01 -2.657790e-01 5.640199e+00 5.849293e-02 -8.856785e-02 -5.437357e-02 -7.865692e-02 -1.931606e-01 -1.319450e-01 2.434391e-02 7.013515e-02 3.492535e-02 2.740645e-02 5.751839e-02 7.142084e-02 7.751802e-02 -2.182997e-02 -2.408533e-02 -3.315139e-02 2.794934e-02 5.722297e-02 3.559785e-02 2.164537e-02 -1.452509e-02 -1.088298e-02 1.376910e-02 2.768614e-02 1.691651e-02 -1.769811e-02
<VARIANCE> 39
 7.751999e-02 7.026676e-01 4.515770e-01 5.626910e-01 4.087406e-01 4.878657e-01 6.476811e-01 3.243087e-01 3.573616e-01 2.632993e-01 1.706115e-01 2.040346e-01 2.386621e-01 3.885292e-03 3.142466e-02 2.927704e-02 1.855289e-02 2.737380e-02 3.693584e-02 2.622457e-02 1.719408e-02 2.339278e-02 2.903939e-02 1.744378e-02 2.095998e-02 1.194517e-02 1.527632e-03 5.447259e-03 3.366237e-03 4.723902e-03 5.507057e-03 4.583488e-03 4.824760e-03 3.212150e-03 5.002492e-03 6.997015e-03 3.387477e-03 4.564469e-03 3.633852e-03
<GCONST> -6.505756e+01
<STATE> 4
<MEAN> 39
 3.035561e-01 -6.055322e-01 2.281135e-01 -6.403480e-01 -1.756414e+00 -1.795245e-01 -1.303887e+00 1.074654e-01 9.852193e-01 -1.735568e+00 -1.076750e+00 5.361336e-01 4.198376e+00 -2.183899e-02 1.774277e-02 -2.036393e-02 2.510939e-02 -6.468085e-02 -9.719583e-02 1.467566e-01 1.014680e-01 -3.597074e-02 4.336452e-02 2.084971e-02 5.708024e-03 -3.540384e-02 -3.446254e-02 3.939512e-02 -6.250075e-02 4.469206e-02 1.081160e-01 -3.986583e-02 2.733213e-02 7.149828e-03 -6.370168e-02 5.353321e-02 2.186622e-02 -3.854315e-02 -5.426194e-02
<VARIANCE> 39
 3.371736e-02 2.541561e-01 2.231188e-01 1.766682e-01 2.705375e-01 1.779511e-01 3.346815e-01 2.538597e-01 2.421459e-01 2.023580e-01 1.899097e-01 2.489612e-01 7.966831e-02 8.183706e-03 3.937667e-02 5.724477e-02 3.974264e-02 1.042532e-01 3.969087e-02 3.346914e-02 4.505182e-02 4.421332e-02 3.302988e-02 2.783200e-02 3.679524e-02 2.462539e-02 2.093359e-03 8.142831e-03 4.851018e-03 5.961651e-03 9.926677e-03 8.244524e-03 6.136614e-03 1.008510e-02 6.149382e-03 5.328701e-03 5.238537e-03 7.469244e-03 2.973648e-03
<GCONST> -6.046426e+01
<STATE> 5
<MEAN> 39
 2.572373e-02 -1.147684e+00 -6.465406e-01 -1.377943e+00 -1.252821e+00 -1.922902e+00 6.912609e-02 -1.970570e-01 -2.584054e-01 -5.001550e-01 6.681738e-02 3.340054e-01 6.156765e+00 -3.138496e-02 -1.490942e-02 -6.853455e-02 3.824726e-03 2.799808e-02 7.581872e-02 7.296559e-02 -6.512723e-03 1.601172e-02 3.605675e-02 2.084504e-02 4.022542e-02 -4.107080e-02 -2.666230e-02 4.550153e-02 2.605496e-02 1.870195e-02 3.272668e-02 2.987172e-02 -1.716037e-02 -1.835518e-02 -3.262522e-03 -1.039459e-02 -2.044451e-02 -2.581973e-02 -4.783836e-02
<VARIANCE> 39
 5.278090e-02 7.133716e-01 1.217519e+00 7.473351e-01 3.321299e-01 7.625027e-01 1.156750e+00 5.655077e-01 4.582774e-01 3.014101e-01 2.745616e-01 2.025749e-01 3.152450e-01 5.474987e-03 3.067385e-02 1.904574e-02 1.331089e-02 1.705046e-02 2.169329e-02 1.813584e-02 1.313977e-02 1.893739e-02 1.581658e-02 1.768651e-02 1.453904e-02 2.215595e-02 1.046658e-03 4.269947e-03 3.521738e-03 2.939765e-03 5.189434e-03 4.691385e-03 3.663364e-03 2.981602e-03 3.879620e-03 3.694599e-03 3.064338e-03 2.778794e-03 2.839220e-03
<GCONST> -6.745784e+01
<STATE> 6
<MEAN> 39
 -2.279990e-01 -5.990820e-01 -3.668532e-01 -1.166365e+00 -6.984513e-01 -1.338337e+00 1.939619e-01 -4.606773e-01 -3.169763e-01 -7.475559e-01 -2.336137e-01 1.467675e-01 5.105817e+00 -1.059203e-01 7.594841e-02 -5.379924e-03 4.027944e-02 1.616387e-01 3.760070e-02 -3.826428e-02 -5.441773e-02 -7.746220e-02 5.803087e-02 2.425453e-02 -4.925170e-02 -1.363999e-01 5.140486e-03 -5.061490e-02 7.664426e-03 -2.565038e-02 -2.789795e-02 -3.211401e-03 -1.268284e-02 -1.661361e-02 5.808690e-04 3.121126e-03 5.229229e-03 1.692807e-02 4.873983e-02
<VARIANCE> 39
 1.889009e-01 6.576762e-01 6.156389e-01 6.923612e-01 6.078537e-01 7.743309e-01 7.939707e-01 7.590765e-01 4.071664e-01 2.316648e-01 3.530556e-01 2.741303e-01 1.067201e+00 2.784383e-02 4.728340e-02 4.050991e-02 3.934084e-02 6.576213e-02 7.095929e-02 3.419649e-02 4.002585e-02 4.455011e-02 2.825100e-02 3.361047e-02 3.472362e-02 6.530073e-02 4.475884e-03 8.074208e-03 8.243289e-03 6.088011e-03 1.469070e-02 1.436356e-02 6.093586e-03 8.121127e-03 7.367360e-03 4.954697e-03 6.710459e-03 6.112433e-03 9.662396e-03
<GCONST> -4.181219e+01
<STATE> 7
<MEAN> 39
 -5.791355e-01 -2.145312e-01 -7.465470e-01 -7.813207e-01 -8.685747e-01 -1.140342e+00 -5.844841e-01 -4.173211e-01 -3.794010e-01 -7.581107e-01 -3.077717e-01 1.074772e-01 4.961225e+00 -1.847522e-02 -3.770098e-02 1.980591e-04 1.815418e-02 5.134346e-02 2.853123e-02 -2.980010e-02 -4.613250e-02 -2.649160e-02 -1.058478e-02 -3.928662e-04 5.256698e-03 5.946805e-03 2.245589e-02 -9.986952e-03 5.911671e-03 -7.009920e-03 -2.212232e-02 -1.486957e-02 -3.353791e-03 9.676301e-03 2.169561e-02 -1.812871e-03 2.430766e-03 6.251909e-03 2.662762e-02
<VARIANCE> 39
 4.916118e-01 4.737083e-01 4.427719e-01 4.784988e-01 4.046792e-01 5.276927e-01 4.038611e-01 3.269361e-01 2.546397e-01 3.949547e-01 3.113312e-01 1.923079e-01 8.348643e-01 3.354122e-02 2.869322e-02 3.300657e-02 2.225924e-02 4.150796e-02 4.951241e-02 2.606260e-02 2.253314e-02 2.875077e-02 2.990056e-02 2.460294e-02 1.955380e-02 2.893274e-02 5.878548e-03 5.611978e-03 6.643408e-03 4.724132e-03 7.789403e-03 1.143840e-02 6.009928e-03 4.124933e-03 6.315972e-03 6.373283e-03 4.737520e-03 4.745707e-03 5.216140e-03
<GCONST> -5.292248e+01
<TRANSP> 8
 0.000000e+00 6.099583e-01 3.900417e-01 0.000000e+00 0.000000e+00 0.000000e+00 0.000000e+00 0.000000e+00
 0.000000e+00 7.358738e-01 1.754480e-01 8.867820e-02 0.000000e+00 0.000000e+00 0.000000e+00 0.000000e+00
 0.000000e+00 0.000000e+00 7.236633e-01 3.494886e-03 2.728418e-01 0.000000e+00 0.000000e+00 0.000000e+00
 0.000000e+00 0.000000e+00 0.000000e+00 8.350330e-01 0.000000e+00 1.649670e-01 0.000000e+00 0.000000e+00
 0.000000e+00 0.000000e+00 0.000000e+00 0.000000e+00 8.041423e-01 1.958577e-01 0.000000e+00 0.000000e+00
 0.000000e+00 0.000000e+00 0.000000e+00 0.000000e+00 0.000000e+00 6.144632e-01 3.855368e-01 0.000000e+00
 0.000000e+00 0.000000e+00 0.000000e+00 0.000000e+00 0.000000e+00 0.000000e+00 7.368820e-01 2.631180e-01
 0.000000e+00 0.000000e+00 0.000000e+00 0.000000e+00 0.000000e+00 0.000000e+00 0.000000e+00 0.000000e+00
<ENDHMM>
