~o
<STREAMINFO> 1 39
<VECSIZE> 39<NULLD><PLP_D_A_0><DIAGC>
~h "empat"
<BEGINHMM>
<NUMSTATES> 8
<STATE> 2
<MEAN> 39
 -4.846274e-01 -2.427224e-01 -3.158795e-01 -2.854757e-01 -4.048578e-02 -1.129122e+00 -9.397524e-02 -2.588567e-01 -2.810887e-01 -8.696828e-01 -8.972198e-01 -4.410695e-01 4.997017e+00 -5.473976e-03 8.945443e-02 4.864374e-02 3.269405e-02 5.200557e-02 3.192905e-02 -1.436229e-02 -4.405264e-03 1.047595e-02 -1.265936e-02 -5.988688e-02 -6.393528e-02 -5.520930e-02 -5.478919e-02 -3.028199e-02 -1.449803e-02 -2.182570e-02 -2.545616e-02 1.968276e-02 6.508856e-03 -5.803837e-03 2.512699e-03 2.450707e-02 5.582954e-02 3.593864e-02 -3.699424e-02
<VARIANCE> 39
 2.416560e-01 5.589477e-01 2.957842e-01 8.753652e-01 3.342679e-01 7.818802e-01 9.141581e-01 5.218988e-01 3.620953e-01 2.194661e-01 3.545437e-01 3.572347e-01 1.039370e+00 3.535454e-02 1.790839e-02 1.573992e-02 2.125327e-02 2.484875e-02 2.716069e-02 2.661627e-02 2.138491e-02 2.918759e-02 1.735782e-02 4.146889e-02 2.618154e-02 3.161167e-02 4.257496e-03 5.427776e-03 3.459551e-03 5.164011e-03 6.051412e-03 4.722035e-03 4.278720e-03 4.212143e-03 5.548470e-03 3.192824e-03 6.900921e-03 6.038055e-03 4.518076e-03
<GCONST> -5.574661e+01
<STATE> 3
<MEAN> 39
 -1.147336e+00 -2.519045e-01 -4.434692e-01 -3.664379e-01 -2.321712e-01 -7.001591e-01 -1.780748e-01 -4.052092e-01 -2.348153e-01 -5.371749e-01 -3.776766e-01 -2.011636e-01 4.395415e+00 6.116620e-02 -2.229543e-01 -1.707569e-01 -1.939746e-01 -2.381568e-01 -5.684398e-02 3.917705e-02 -3.822880e-04 3.570686e-02 6.676498e-02 2.273771e-01 1.721236e-01 1.675860e-01 1.165205e-01 -4.908303e-02 -4.051782e-02 -4.449296e-02 -6.514256e-02 -3.943543e-02 -1.452028e-03 1.905987e-02 3.506678e-02 -1.207871e-02 -8.818167e-03 1.639364e-02 1.330453e-01
<VARIANCE> 39
 1.353574e-01 3.568135e-01 3.165266e-01 3.377677e-01 3.146519e-01 2.341194e-01 3.191716e-01 2.341407e-01 1.509977e-01 1.685750e-01 2.916559e-01 1.037561e-01 6.986894e-01 6.604307e-02 2.938145e-02 1.920538e-02 3.102889e-02 3.431867e-02 4.038289e-02 2.057048e-02 2.213121e-02 4.002671e-02 1.971268e-02 2.802958e-02 1.470539e-02 7.544364e-02 4.576970e-03 7.181814e-03 4.266496e-03 5.196802e-03 5.326196e-03 6.209447e-03 5.131160e-03 3.679323e-03 7.385454e-03 2.973216e-03 7.571093e-03 2.694874e-03 6.244403e-03
<GCONST> -6.062381e+01
<STATE> 4
<MEAN> 39
 8.856845e-03 -1.132696e+00 -8.804439e-01 -1.141604e+00 -1.478728e+00 -8.896636e-01 -1.513998e-01 -3.591954e-01 1.367276e-01 -5.648524e-01 9.090284e-02 4.825991e-01 5.601438e+00 1.375722e-01 -1.043318e-01 -6.342923e-02 -5.541921e-02 -1.047689e-01 2.000919e-02 1.618035e-02 -4.807882e-03 4.309934e-02 -1.486088e-03 3.883341e-02 9.459771e-02 1.772372e-01 -9.506226e-02 7.622900e-02 2.694381e-02 7.059076e-02 1.111778e-01 2.050803e-02 -6.845338e-03 -1.005485e-02 -3.795862e-02 -4.089920e-03 -3.751291e-02 -4.754632e-02 -1.270926e-01
<VARIANCE> 39
 1.214735e-01 4.711633e-01 4.395371e-01 4.194577e-01 4.415875e-01 8.155058e-01 6.471319e-01 4.015622e-01 3.481630e-01 2.953395e-01 1.773415e-01 1.987790e-01 8.669488e-01 6.471034e-02 5.654860e-02 4.598041e-02 4.546306e-02 9.077849e-02 3.850135e-02 2.627272e-02 2.656562e-02 4.953422e-02 2.238108e-02 2.245319e-02 2.610261e-02 1.097897e-01 6.406278e-03 6.404863e-03 1.004341e-02 6.637352e-03 1.011427e-02 1.076487e-02 4.651860e-03 6.060530e-03 8.432399e-03 5.073621e-03 5.051193e-03 4.270427e-03 7.947433e-03
<GCONST> -4.712361e+01
<STATE> 5
<MEAN> 39
 1.050117e-02 -1.709899e+00 -1.463349e+00 -1.704458e+00 -1.134925e+00 -1.006252e+00 4.443705e-01 -5.665796e-01 5.483399e-01 -3.064308e-01 8.964258e-02 4.248130e-01 6.662990e+00 -3.359278e-02 8.574048e-02 6.179255e-02 -2.307132e-02 8.435509e-02 4.289684e-02 -8.140447e-02 -1.073609e-01 -4.563417e-02 3.720602e-02 6.351632e-03 4.830790e-02 -1.108189e-01 -4.613372e-02 6.176585e-02 2.738200e-02 1.213160e-02 2.342827e-02 -1.525478e-02 -2.811802e-02 2.770705e-02 -3.945027e-02 -1.012482e-02 -3.352636e-03 -1.737930e-02 -1.002809e-01
<VARIANCE> 39
 2.548009e-02 5.621522e-01 3.402111e-01 3.949104e-01 4.654547e-01 2.539458e-01 9.908594e-01 7.346423e-01 3.634554e-01 2.412327e-01 2.135047e-01 2.259769e-01 1.715801e-01 3.086408e-03 1.837739e-02 2.193791e-02 1.685675e-02 1.451482e-02 1.743939e-02 1.615950e-02 1.881372e-02 2.346808e-02 1.881245e-02 1.829695e-02 1.675855e-02 2.927861e-02 1.230137e-03 3.052912e-03 6.196937e-03 4.365232e-03 3.990439e-03 3.497103e-03 3.245343e-03 6.032502e-03 3.966214e-03 4.987962e-03 3.706764e-03 2.600238e-03 2.361824e-03
<GCONST> -7.112276e+01
<STATE> 6
<MEAN> 39
 -7.130308e-01 -7.547126e-01 -1.270731e+00 -1.223220e+00 -1.028640e+00 -9.230551e-01 -3.366278e-01 -4.131429e-01 -1.339759e-01 -3.093526e-01 1.537394e-01 5.234933e-01 5.091815e+00 -1.670540e-01 9.197298e-02 1.993196e-02 5.967182e-02 9.843610e-02 2.194556e-02 -6.092593e-03 4.607673e-02 -4.139771e-02 -5.237998e-03 -2.400836e-02 -7.565633e-02 -2.216898e-01 1.050707e-02 -3.446614e-03 1.124973e-02 1.265504e-02 6.440206e-03 2.955747e-04 9.910702e-03 1.088717e-03 1.178988e-02 -2.385321e-03 -1.290079e-02 -1.842697e-02 2.782928e-02
<VARIANCE> 39
 3.046944e-01 2.265110e-01 5.662633e-01 4.078743e-01 2.263341e-01 2.516506e-01 3.017300e-01 2.336819e-01 1.347533e-01 1.433485e-01 1.007174e-01 2.055372e-01 3.311304e-01 1.517058e-02 2.123252e-02 2.735871e-02 2.192682e-02 2.061419e-02 2.309501e-02 1.148659e-02 1.841420e-02 1.594471e-02 1.158313e-02 1.056108e-02 1.369871e-02 2.927301e-02 4.058151e-03 2.677291e-03 4.567567e-03 3.753166e-03 2.697895e-03 2.481127e-03 2.269136e-03 2.861141e-03 3.033354e-03 2.446165e-03 1.922979e-03 1.851101e-03 4.595931e-03
<GCONST> -7.545111e+01
<STATE> 7
<MEAN> 39
 -5.824565e-01 -5.188729e-01 -6.156269e-01 -7.679550e-01 -4.153882e-01 -1.042109e+00 -2.634093e-01 -5.797049e-01 -4.477710e-01 -8.129188e-01 -1.501434e-01 1.962647e-01 4.722482e+00 1.326082e-02 -1.348305e-03 1.649971e-02 4.446631e-03 2.281070e-02 -4.362156e-02 -1.270988e-02 -2.580203e-02 -5.012758e-02 -2.380737e-02 -1.464107e-02 -4.415995e-03 5.838097e-02 2.687896e-02 -4.700444e-02 -6.056224e-03 -2.991532e-02 -3.851327e-02 -3.076147e-03 9.676283e-04 -1.833197e-02 1.257755e-02 1.301366e-02 1.317480e-02 2.681016e-02 5.836956e-02
<VARIANCE> 39
 4.083169e-01 6.425169e-01 3.570084e-01 5.470893e-01 4.068475e-01 4.364459e-01 6.081163e-01 3.628223e-01 3.473345e-01 3.545703e-01 2.766593e-01 2.276913e-01 1.438166e+00 5.080173e-02 5.505479e-02 5.133109e-02 4.338541e-02 4.099840e-02 3.788380e-02 1.988447e-02 2.487627e-02 4.729268e-02 4.545414e-02 3.059534e-02 3.648948e-02 5.879432e-02 8.686524e-03 8.558890e-03 8.223529e-03 7.571423e-03 8.122241e-03 9.845496e-03 4.712155e-03 6.545181e-03 8.939955e-03 8.820564e-03 6.185923e-03 6.570831e-03 1.007695e-02
<GCONST> -4.403599e+01
<TRANSP> 8
 0.000000e+00 8.395651e-01 1.604349e-01 0.000000e+00 0.000000e+00 0.000000e+00 0.000000e+00 0.000000e+00
 0.000000e+00 7.758642e-01 1.640668e-01 6.006910e-02 0.000000e+00 0.000000e+00 0.000000e+00 0.000000e+00
 0.000000e+00 0.000000e+00 7.035512e-01 2.964488e-01 0.000000e+00 0.000000e+00 0.000000e+00 0.000000e+00
 0.000000e+00 0.000000e+00 0.000000e+00 6.650537e-01 1.346573e-01 2.002890e-01 0.000000e+00 0.000000e+00
 0.000000e+00 0.000000e+00 0.000000e+00 0.000000e+00 7.703455e-01 2.296545e-01 0.000000e+00 0.000000e+00
 0.000000e+00 0.000000e+00 0.000000e+00 0.000000e+00 0.000000e+00 7.339014e-01 2.660986e-01 0.000000e+00
 0.000000e+00 0.000000e+00 0.000000e+00 0.000000e+00 0.000000e+00 0.000000e+00 7.457629e-01 2.542371e-01
 0.000000e+00 0.000000e+00 0.000000e+00 0.000000e+00 0.000000e+00 0.000000e+00 0.000000e+00 0.000000e+00
<ENDHMM>
