~o
<STREAMINFO> 1 36
<VECSIZE> 36<NULLD><LPC_D_A><DIAGC>
~h "empat"
<BEGINHMM>
<NUMSTATES> 8
<STATE> 2
<MEAN> 36
 -2.484674e+00 3.966439e+00 -5.555605e+00 6.638376e+00 -6.833394e+00 6.198532e+00 -4.980684e+00 3.397530e+00 -2.001275e+00 1.013607e+00 -4.270099e-01 1.351267e-01 1.341494e-01 -4.281397e-01 8.313553e-01 -1.305151e+00 1.667652e+00 -1.814298e+00 1.717900e+00 -1.405087e+00 9.700966e-01 -5.620109e-01 2.605879e-01 -7.229530e-02 -6.159157e-01 2.942772e+00 -7.380798e+00 1.352658e+01 -1.970853e+01 2.356962e+01 -2.356918e+01 1.972527e+01 -1.356130e+01 7.406677e+00 -2.986847e+00 6.604719e-01
<VARIANCE> 36
 2.322767e-01 2.136544e+00 7.904914e+00 1.836338e+01 2.891444e+01 3.440100e+01 3.139701e+01 2.137589e+01 1.061038e+01 3.618075e+00 7.717074e-01 6.406119e-02 8.048321e-02 5.428764e-01 1.739968e+00 3.952952e+00 6.254720e+00 7.301617e+00 6.487710e+00 4.235023e+00 1.974812e+00 6.682070e-01 1.249181e-01 6.403616e-03 5.295328e+00 1.052045e+02 6.392706e+02 2.129091e+03 4.493060e+03 6.403509e+03 6.396075e+03 4.476338e+03 2.115364e+03 6.330430e+02 1.035008e+02 5.145737e+00
<GCONST> 1.587484e+02
<STATE> 3
<MEAN> 36
 -6.081319e-01 6.872401e-02 -3.027106e-01 2.023227e-01 -2.422814e-01 2.088579e-01 -2.086968e-01 1.909392e-01 -1.571538e-01 1.109709e-01 -1.557781e-01 9.875140e-02 -1.769762e-02 2.209001e-03 5.897213e-04 5.234092e-03 -4.212610e-03 -7.162114e-05 -2.089233e-03 3.074060e-03 2.823343e-04 7.310801e-04 -4.411207e-04 3.388216e-03 4.784669e-03 6.818696e-03 -1.921157e-04 -7.430721e-04 -1.342298e-03 1.041008e-04 -8.648235e-04 -2.135449e-04 -8.984411e-05 1.154011e-03 2.453209e-04 -3.363555e-04
<VARIANCE> 36
 3.981566e-01 1.617739e-01 1.558214e-01 1.403848e-01 9.942356e-02 5.283276e-02 8.317173e-02 7.027060e-02 4.058226e-02 3.110885e-02 2.490804e-02 1.594892e-02 5.390404e-02 2.005236e-02 1.092218e-02 1.273911e-02 6.242534e-03 4.914134e-03 4.424748e-03 5.119226e-03 2.788662e-03 2.096738e-03 2.649545e-03 1.456644e-03 9.449493e-03 3.569901e-03 2.168764e-03 2.317293e-03 1.363115e-03 1.032341e-03 8.704545e-04 1.025837e-03 5.837588e-04 4.467845e-04 5.061905e-04 2.894686e-04
<GCONST> -1.074061e+02
<STATE> 4
<MEAN> 36
 -1.609306e+00 2.061291e+00 -2.700190e+00 2.940365e+00 -2.907611e+00 2.459147e+00 -1.864212e+00 1.198066e+00 -6.558402e-01 2.862809e-01 -1.443734e-01 6.907807e-02 3.742168e-02 -2.536168e-02 5.273508e-02 -1.130832e-01 1.214089e-01 -1.113745e-01 8.924449e-02 -6.677747e-02 4.167887e-02 -2.308652e-02 1.461788e-02 -9.425309e-03 7.021355e-03 4.625339e-03 -3.494439e-02 6.165663e-02 -7.446467e-02 8.181155e-02 -7.567348e-02 6.502503e-02 -4.920895e-02 2.663471e-02 -1.094555e-02 2.451516e-03
<VARIANCE> 36
 8.248472e-01 3.004935e+00 6.394354e+00 1.010559e+01 1.079603e+01 9.335411e+00 6.425582e+00 3.571505e+00 1.694498e+00 6.071008e-01 1.949102e-01 3.578895e-02 5.296827e-02 1.344427e-01 2.605667e-01 4.443309e-01 5.563761e-01 5.619568e-01 4.850562e-01 3.444754e-01 1.881003e-01 7.774656e-02 2.181020e-02 3.458906e-03 1.436809e-02 3.615266e-02 6.552026e-02 1.150029e-01 1.452996e-01 1.482660e-01 1.248731e-01 8.353855e-02 4.381702e-02 1.842238e-02 5.281752e-03 7.902848e-04
<GCONST> 9.919072e+00
<STATE> 5
<MEAN> 36
 -2.600815e+00 4.172400e+00 -5.731861e+00 6.904040e+00 -7.188418e+00 6.515750e+00 -5.255938e+00 3.692927e+00 -2.259052e+00 1.139366e+00 -3.893566e-01 8.306741e-02 1.241499e-02 -4.841207e-02 8.878196e-02 -1.430528e-01 1.805583e-01 -1.855257e-01 1.665381e-01 -1.307845e-01 9.302968e-02 -5.283203e-02 2.825254e-02 -4.426934e-03 3.233651e-02 -6.976422e-02 1.162217e-01 -1.723628e-01 2.086679e-01 -2.182401e-01 2.017916e-01 -1.622374e-01 1.119359e-01 -6.627928e-02 2.766149e-02 -7.003533e-03
<VARIANCE> 36
 5.219461e-01 4.810256e+00 1.871493e+01 4.464351e+01 7.708493e+01 1.031006e+02 1.046352e+02 7.917640e+01 4.538709e+01 1.890297e+01 4.393205e+00 2.867797e-01 8.327853e-02 5.401357e-01 1.760403e+00 3.998573e+00 6.636197e+00 8.562118e+00 8.523232e+00 6.383961e+00 3.565350e+00 1.448041e+00 3.346196e-01 2.346638e-02 1.180238e-02 8.794188e-02 2.953112e-01 6.771846e-01 1.151674e+00 1.516018e+00 1.533748e+00 1.163137e+00 6.434833e-01 2.538644e-01 5.837928e-02 4.143332e-03
<GCONST> 8.499868e+01
<STATE> 6
<MEAN> 36
 -7.109542e-01 3.488959e-01 -6.282756e-01 4.745003e-01 -5.492855e-01 3.905769e-01 -2.286441e-01 2.045630e-01 -1.351813e-01 4.676832e-02 -4.778131e-02 5.906809e-02 1.000817e-01 -6.905855e-02 6.011217e-02 -1.099617e-01 8.922449e-02 -9.091679e-02 1.106878e-01 -9.939687e-02 5.994999e-02 -4.341168e-02 3.703410e-02 -1.055811e-02 -4.233398e-02 5.009935e-02 -3.755813e-02 6.266013e-02 -5.463275e-02 5.271151e-02 -4.910959e-02 3.733490e-02 -2.437412e-02 1.543347e-02 -1.151924e-02 4.599189e-03
<VARIANCE> 36
 5.790343e-01 9.085795e-01 1.123269e+00 1.225824e+00 8.341362e-01 4.691890e-01 2.708853e-01 1.175653e-01 7.923848e-02 5.153929e-02 3.806776e-02 1.829363e-02 6.676957e-02 1.110304e-01 2.219865e-01 5.540218e-01 1.058653e+00 1.476404e+00 1.512597e+00 1.139104e+00 6.033872e-01 2.162170e-01 4.601321e-02 4.011051e-03 9.072403e-03 1.142560e-02 1.703733e-02 2.739121e-02 3.535118e-02 3.571506e-02 2.974141e-02 1.929234e-02 9.540782e-03 3.708136e-03 1.181838e-03 2.802434e-04
<GCONST> -2.410984e+01
<STATE> 7
<MEAN> 36
 -1.237088e+00 1.647800e+00 -2.310202e+00 2.443489e+00 -2.455946e+00 2.096283e+00 -1.591291e+00 1.035768e+00 -5.972860e-01 2.625387e-01 -1.028037e-01 5.445743e-02 -3.207757e-02 1.449486e-01 -1.961775e-01 2.785010e-01 -2.891556e-01 2.905889e-01 -2.384818e-01 1.803165e-01 -1.207047e-01 6.830143e-02 -3.145555e-02 7.777623e-03 -2.799790e-02 2.440592e-02 -3.415763e-02 8.686563e-02 -8.545360e-02 9.964341e-02 -9.244477e-02 8.052331e-02 -5.393160e-02 3.278865e-02 -1.890576e-02 6.627955e-03
<VARIANCE> 36
 1.226755e+00 3.731606e+00 7.007629e+00 1.123961e+01 1.230961e+01 1.127402e+01 8.248034e+00 4.588508e+00 2.004570e+00 6.227360e-01 1.398259e-01 2.178673e-02 5.105009e-02 1.385452e-01 3.412973e-01 6.797034e-01 9.929628e-01 1.121726e+00 1.004184e+00 6.636011e-01 3.226900e-01 1.076194e-01 2.153417e-02 2.195120e-03 8.370404e-03 2.296522e-02 5.735973e-02 1.096351e-01 1.626202e-01 1.813882e-01 1.626179e-01 1.086418e-01 5.502435e-02 1.912662e-02 4.110158e-03 4.814839e-04
<GCONST> 1.384014e+01
<TRANSP> 8
 0.000000e+00 2.249998e-01 7.750002e-01 0.000000e+00 0.000000e+00 0.000000e+00 0.000000e+00 0.000000e+00
 0.000000e+00 2.800030e-01 0.000000e+00 7.199970e-01 0.000000e+00 0.000000e+00 0.000000e+00 0.000000e+00
 0.000000e+00 0.000000e+00 9.326518e-01 6.734823e-02 0.000000e+00 0.000000e+00 0.000000e+00 0.000000e+00
 0.000000e+00 0.000000e+00 0.000000e+00 6.055948e-01 5.423083e-02 3.401745e-01 0.000000e+00 0.000000e+00
 0.000000e+00 0.000000e+00 0.000000e+00 0.000000e+00 8.879284e-01 1.120716e-01 0.000000e+00 0.000000e+00
 0.000000e+00 0.000000e+00 0.000000e+00 0.000000e+00 0.000000e+00 4.214505e-01 5.785495e-01 0.000000e+00
 0.000000e+00 0.000000e+00 0.000000e+00 0.000000e+00 0.000000e+00 0.000000e+00 3.228934e-01 6.771066e-01
 0.000000e+00 0.000000e+00 0.000000e+00 0.000000e+00 0.000000e+00 0.000000e+00 0.000000e+00 0.000000e+00
<ENDHMM>
