~o
<STREAMINFO> 1 39
<VECSIZE> 39<NULLD><MFCC_D_A_0><DIAGC>
~h "enam"
<BEGINHMM>
<NUMSTATES> 6
<STATE> 2
<MEAN> 39
 2.489577e+00 6.115792e+00 -1.497155e+00 7.157680e+00 3.073481e+00 -2.105941e-01 -7.618809e-01 4.599769e+00 4.182008e+00 -6.654238e+00 -3.567199e+00 2.155166e+00 5.635440e+01 2.256219e-01 1.782125e-01 8.466215e-02 4.870536e-02 -1.862059e-02 2.764027e-03 3.030271e-02 -2.701311e-02 1.635946e-02 -6.586374e-02 -2.281669e-01 -1.727093e-01 1.402216e-01 -1.865674e-02 -3.583429e-02 -1.482589e-02 1.923080e-03 -8.048328e-03 -5.542911e-02 -3.925392e-02 -2.376771e-02 -4.232999e-02 -1.471372e-02 2.726078e-03 -1.745091e-02 -1.899547e-02
<VARIANCE> 39
 4.404514e+01 5.019229e+01 2.832053e+01 6.436246e+01 8.890108e+01 5.244655e+01 4.595505e+01 8.832948e+01 5.301798e+01 3.640973e+01 5.365426e+01 7.241053e+01 1.162801e+02 1.862866e+00 3.197015e+00 2.552779e+00 4.662921e+00 6.346280e+00 3.269821e+00 3.701343e+00 2.857079e+00 2.981844e+00 2.803300e+00 4.224926e+00 5.430679e+00 1.836950e+00 2.306733e-01 4.506891e-01 4.270149e-01 6.536690e-01 7.829605e-01 5.947850e-01 6.012041e-01 4.864593e-01 5.525613e-01 5.038638e-01 6.308151e-01 7.564673e-01 2.354189e-01
<GCONST> 1.307473e+02
<STATE> 3
<MEAN> 39
 -1.811924e+00 9.576098e+00 1.211387e+00 1.052269e+01 7.868767e+00 -1.589499e+00 -7.275760e+00 -4.595963e+00 -4.502429e-01 -4.051135e+00 -4.172788e+00 -1.113053e+00 6.681236e+01 2.632331e-01 1.940352e-03 -9.465227e-02 -1.168990e-01 -2.941444e-02 -2.422948e-02 -2.088731e-01 -1.871190e-01 -1.344930e-01 -1.214130e-01 1.235678e-01 1.907453e-01 2.527555e-01 -2.534354e-02 -1.745416e-01 -1.312685e-01 -2.635328e-01 -2.537402e-01 1.015546e-02 2.234461e-01 7.579283e-02 5.956186e-03 3.545691e-02 1.694312e-01 1.288577e-01 7.782038e-02
<VARIANCE> 39
 7.536958e+00 2.948766e+01 1.482979e+01 1.931532e+01 4.423269e+01 5.511100e+01 2.124628e+01 2.891179e+01 1.797347e+01 1.848547e+01 1.676958e+01 1.883937e+01 1.169975e+01 3.933815e-01 7.529645e-01 9.486926e-01 1.269378e+00 1.244038e+00 9.497610e-01 1.642538e+00 7.187251e-01 8.587765e-01 8.384519e-01 1.029959e+00 1.078887e+00 4.064924e-01 7.163203e-02 1.199636e-01 1.610692e-01 1.809881e-01 1.921433e-01 2.028824e-01 2.473651e-01 1.467742e-01 1.538209e-01 1.632609e-01 1.822179e-01 2.286319e-01 6.849580e-02
<GCONST> 8.476151e+01
<STATE> 4
<MEAN> 39
 1.406105e+00 -5.039184e+00 2.993824e+00 -8.378217e+00 4.980570e+00 -1.663691e+01 1.646961e+01 -1.622224e+01 -2.956211e+00 -9.883079e+00 -4.100070e+00 -1.538311e+00 7.646662e+01 8.407955e-02 -3.272082e-01 -3.254774e-01 -4.942714e-01 -4.413932e-01 5.513663e-02 1.801166e-01 3.467526e-01 1.644095e-01 3.009118e-03 2.541391e-01 2.942006e-01 2.348287e-01 -3.450137e-02 3.066826e-02 4.496869e-02 3.915094e-02 2.587640e-02 2.321773e-02 -5.673828e-02 3.410868e-02 5.784121e-02 5.057230e-03 -5.808885e-02 -3.759551e-02 -3.338859e-02
<VARIANCE> 39
 2.075305e+01 6.782535e+01 5.094520e+01 7.232265e+01 8.802731e+01 1.348500e+02 1.739397e+02 1.124910e+02 4.770942e+01 5.655450e+01 7.184969e+01 6.603242e+01 6.014512e+01 9.593187e-01 3.270501e+00 2.555040e+00 3.500744e+00 3.950277e+00 2.879321e+00 3.999476e+00 2.650675e+00 2.199936e+00 2.046753e+00 4.353913e+00 3.242160e+00 2.159880e+00 1.562167e-01 4.246492e-01 3.773099e-01 5.026405e-01 5.223387e-01 4.815228e-01 5.856593e-01 4.157403e-01 3.378295e-01 3.497131e-01 6.759965e-01 4.269358e-01 2.822782e-01
<GCONST> 1.281008e+02
<STATE> 5
<MEAN> 39
 -1.097326e+00 4.975140e+00 -4.521197e+00 -1.805799e-01 -3.966671e-01 -2.555324e+00 8.641277e-01 2.970752e+00 1.546599e+00 -6.322526e+00 -3.000667e+00 7.476758e-01 7.030788e+01 -3.002264e-01 5.856594e-02 1.501725e-01 1.875718e-01 9.210405e-02 -3.183725e-02 -5.186838e-02 -3.196863e-02 -5.448816e-02 3.621830e-02 -1.232152e-01 -1.766958e-01 -3.402172e-01 -3.366655e-03 2.789272e-03 1.700205e-02 2.815251e-02 1.055493e-02 -2.680679e-02 -3.715316e-02 -6.008948e-02 -4.361477e-02 1.312055e-03 3.494168e-02 3.751171e-03 -2.945910e-03
<VARIANCE> 39
 3.512418e+01 5.327105e+01 4.521480e+01 6.048832e+01 6.632536e+01 5.207364e+01 3.032244e+01 5.654239e+01 3.005875e+01 3.535224e+01 2.757660e+01 5.188857e+01 6.324358e+01 4.046199e-01 7.879118e-01 7.802811e-01 1.422119e+00 1.729258e+00 1.252883e+00 1.209021e+00 1.389216e+00 1.364640e+00 1.382952e+00 1.259729e+00 1.552759e+00 4.594615e-01 4.618813e-02 8.941685e-02 1.059116e-01 2.168298e-01 2.576534e-01 2.097705e-01 1.924847e-01 2.088886e-01 2.344161e-01 2.488959e-01 2.114560e-01 2.319554e-01 5.336712e-02
<GCONST> 9.770021e+01
<TRANSP> 6
 0.000000e+00 7.963840e-01 2.036161e-01 0.000000e+00 0.000000e+00 0.000000e+00
 0.000000e+00 9.214211e-01 2.691660e-02 5.166228e-02 0.000000e+00 0.000000e+00
 0.000000e+00 0.000000e+00 9.134560e-01 7.529419e-02 1.124981e-02 0.000000e+00
 0.000000e+00 0.000000e+00 0.000000e+00 9.128034e-01 4.315002e-02 4.404662e-02
 0.000000e+00 0.000000e+00 0.000000e+00 0.000000e+00 9.627235e-01 3.727648e-02
 0.000000e+00 0.000000e+00 0.000000e+00 0.000000e+00 0.000000e+00 0.000000e+00
<ENDHMM>
