~o
<STREAMINFO> 1 36
<VECSIZE> 36<NULLD><LPC_D_A><DIAGC>
~h "kali"
<BEGINHMM>
<NUMSTATES> 8
<STATE> 2
<MEAN> 36
 -7.147344e-01 3.487284e-01 -6.054378e-01 5.095897e-01 -4.446559e-01 4.550664e-01 -3.746106e-01 3.592293e-01 -3.822850e-01 2.146502e-01 -1.695910e-01 1.289639e-01 6.708796e-03 -2.357734e-03 5.774627e-03 -3.762505e-03 4.505134e-03 -2.497568e-03 2.044810e-03 -1.226186e-03 4.536703e-03 -4.284219e-03 -2.548596e-03 2.250645e-04 1.985530e-03 1.280014e-03 -3.180156e-04 -3.617471e-04 5.277026e-04 1.089085e-03 1.756845e-04 1.273883e-05 -3.197850e-04 2.468432e-04 -1.935769e-03 9.718051e-04
<VARIANCE> 36
 2.786413e-01 5.447936e-02 1.061165e-01 9.077203e-02 5.133684e-02 5.914278e-02 3.171914e-02 3.309494e-02 3.203158e-02 1.985254e-02 2.151833e-02 2.314884e-02 1.307099e-02 6.133915e-03 4.717828e-03 5.074205e-03 2.732970e-03 3.314458e-03 1.905940e-03 1.881529e-03 1.825564e-03 1.392658e-03 1.545824e-03 2.433307e-03 1.801812e-03 1.375849e-03 9.682737e-04 9.079159e-04 5.081779e-04 6.390350e-04 3.698010e-04 3.400310e-04 3.089125e-04 2.330692e-04 2.664289e-04 4.261403e-04
<GCONST> -1.300020e+02
<STATE> 3
<MEAN> 36
 -2.908904e+00 5.133535e+00 -7.474380e+00 9.516285e+00 -1.053450e+01 1.029590e+01 -8.880436e+00 6.657561e+00 -4.395816e+00 2.455751e+00 -9.763566e-01 2.171072e-01 -2.206055e-02 2.226337e-02 -1.630825e-02 9.197361e-03 9.168130e-03 -2.700414e-02 4.617888e-02 -5.446313e-02 5.211965e-02 -3.977220e-02 2.458900e-02 -1.089020e-02 1.262836e-02 -1.743837e-02 1.943752e-02 -2.339369e-02 2.943873e-02 -3.142803e-02 2.837780e-02 -2.067171e-02 1.560359e-02 -1.104810e-02 3.923571e-03 4.690926e-04
<VARIANCE> 36
 2.584485e-01 2.097274e+00 7.557220e+00 1.677121e+01 2.680527e+01 3.258923e+01 3.052093e+01 2.181135e+01 1.155310e+01 4.414029e+00 1.038983e+00 8.166604e-02 2.846322e-02 2.038544e-01 7.398300e-01 1.691534e+00 2.805492e+00 3.434274e+00 3.224575e+00 2.313422e+00 1.220183e+00 4.627260e-01 1.084316e-01 8.460675e-03 5.566419e-03 4.426257e-02 1.589586e-01 3.597718e-01 5.864648e-01 7.083638e-01 6.555697e-01 4.632846e-01 2.392069e-01 8.844814e-02 2.044547e-02 1.578769e-03
<GCONST> 4.947874e+01
<STATE> 4
<MEAN> 36
 -1.310620e+00 1.233501e+00 -1.054564e+00 1.245265e+00 -1.183475e+00 1.101082e+00 -7.729459e-01 6.436845e-01 -4.522746e-01 2.919156e-01 -1.613212e-01 9.321016e-02 1.099794e-02 4.045572e-04 8.709765e-03 1.064884e-02 -1.809595e-02 2.281376e-02 -4.862566e-03 9.375747e-03 5.521600e-03 2.098512e-03 -3.885607e-03 4.315559e-03 1.228769e-02 -2.300771e-02 -8.999476e-03 1.806917e-02 -2.953883e-02 2.618474e-02 -3.292185e-02 2.054230e-02 -1.904162e-02 7.072965e-03 -2.259419e-03 2.034746e-03
<VARIANCE> 36
 6.678634e-01 2.018231e+00 4.412427e+00 6.374713e+00 7.003758e+00 6.368679e+00 4.738279e+00 2.545817e+00 1.045651e+00 3.587445e-01 9.314461e-02 1.835007e-02 2.980008e-02 9.857045e-02 1.156518e-01 9.119269e-02 4.429955e-02 4.408127e-02 3.605537e-02 3.406219e-02 2.059074e-02 1.525736e-02 8.541435e-03 2.084088e-03 6.654547e-03 2.230189e-02 2.952453e-02 3.119393e-02 2.612813e-02 2.703880e-02 2.181453e-02 1.572358e-02 8.114178e-03 4.486391e-03 2.017846e-03 4.943984e-04
<GCONST> -2.866752e+01
<STATE> 5
<MEAN> 36
 -1.071962e+00 3.027784e-02 1.887435e-01 3.520759e-02 -6.406209e-02 1.005452e-01 2.154675e-02 -2.154594e-02 -9.938965e-02 2.652875e-03 -2.524802e-02 5.441128e-02 2.796615e-02 -2.535636e-02 -1.341142e-02 2.012574e-03 8.193256e-03 9.137558e-03 1.594395e-04 -7.396350e-04 -5.449411e-03 -4.789425e-03 4.226997e-03 -4.607017e-04 -5.526028e-04 1.406306e-02 -7.650561e-03 2.660062e-03 -1.827183e-03 1.204560e-03 7.377559e-04 2.673245e-03 -2.013811e-04 -3.231561e-04 1.311289e-03 -2.598931e-04
<VARIANCE> 36
 2.961949e-01 1.866999e-01 1.584091e-01 7.520080e-02 8.595563e-02 4.287478e-02 5.397615e-02 3.369600e-02 2.739898e-02 2.834439e-02 2.822792e-02 1.266847e-02 3.137024e-02 3.250743e-02 1.346225e-02 1.097671e-02 8.080156e-03 4.864506e-03 4.972023e-03 3.845856e-03 3.199086e-03 2.436767e-03 4.042650e-03 1.414018e-03 7.119855e-03 7.024670e-03 2.851196e-03 2.597104e-03 1.763920e-03 1.043163e-03 1.062461e-03 7.726333e-04 7.211579e-04 5.381302e-04 9.304538e-04 2.960745e-04
<GCONST> -1.075242e+02
<STATE> 6
<MEAN> 36
 -1.129005e+00 1.141091e+00 -1.475029e+00 1.806800e+00 -1.897859e+00 1.895118e+00 -1.509145e+00 1.187981e+00 -8.546768e-01 4.567564e-01 -2.106026e-01 1.020586e-01 -3.772313e-02 5.257722e-02 -5.332690e-02 6.852929e-02 -6.236111e-02 5.872236e-02 -3.660179e-02 2.339889e-02 -8.696633e-03 4.923660e-03 1.291783e-03 5.020967e-03 -1.258916e-03 6.988740e-05 -1.788847e-02 2.746250e-02 -1.865496e-02 2.024419e-02 -2.042937e-02 7.934391e-03 -6.961743e-03 5.228225e-03 -2.463165e-03 2.221229e-03
<VARIANCE> 36
 8.956038e-01 3.259930e+00 6.777953e+00 1.066466e+01 1.264320e+01 1.189212e+01 9.262344e+00 5.302513e+00 2.289680e+00 7.885255e-01 1.438415e-01 1.805053e-02 3.683063e-02 4.768502e-02 4.589825e-02 5.675647e-02 4.908670e-02 4.433330e-02 3.101119e-02 2.562577e-02 1.470297e-02 7.502208e-03 2.893751e-03 1.307539e-03 6.327141e-03 7.709921e-03 9.950820e-03 1.376312e-02 1.703957e-02 1.834169e-02 1.836972e-02 1.661985e-02 1.023558e-02 5.110745e-03 1.523084e-03 4.238645e-04
<GCONST> -3.120016e+01
<STATE> 7
<MEAN> 36
 -2.156652e+00 3.625002e+00 -5.291810e+00 6.697468e+00 -7.186832e+00 6.906938e+00 -5.763306e+00 4.171001e+00 -2.630690e+00 1.331604e+00 -4.922678e-01 1.193969e-01 2.678219e-02 -4.772788e-02 7.214981e-02 -9.245729e-02 1.224109e-01 -1.216627e-01 1.151130e-01 -9.280571e-02 6.745327e-02 -4.465742e-02 1.684858e-02 8.919750e-04 4.504503e-03 -1.349306e-02 1.590773e-02 -2.413366e-02 2.983581e-02 -3.074317e-02 2.668778e-02 -2.058935e-02 1.357873e-02 -5.978443e-03 2.181167e-03 -2.281057e-04
<VARIANCE> 36
 1.050845e+00 5.428673e+00 1.326074e+01 2.264077e+01 2.834663e+01 2.690636e+01 2.070069e+01 1.181859e+01 5.110513e+00 1.682951e+00 3.297791e-01 3.098086e-02 2.791237e-02 1.060169e-01 3.348520e-01 6.487131e-01 9.243464e-01 9.586351e-01 7.964113e-01 5.215232e-01 2.640412e-01 1.008921e-01 2.564415e-02 3.384993e-03 6.735777e-03 2.643476e-02 7.923927e-02 1.512681e-01 2.144228e-01 2.201669e-01 1.785326e-01 1.141693e-01 5.605236e-02 2.077938e-02 5.039243e-03 6.430621e-04
<GCONST> 2.258920e+01
<TRANSP> 8
 0.000000e+00 7.200009e-01 2.799991e-01 0.000000e+00 0.000000e+00 0.000000e+00 0.000000e+00 0.000000e+00
 0.000000e+00 9.053251e-01 0.000000e+00 9.467486e-02 0.000000e+00 0.000000e+00 0.000000e+00 0.000000e+00
 0.000000e+00 0.000000e+00 8.808659e-01 1.191342e-01 0.000000e+00 0.000000e+00 0.000000e+00 0.000000e+00
 0.000000e+00 0.000000e+00 0.000000e+00 4.995604e-01 2.601606e-01 2.402790e-01 0.000000e+00 0.000000e+00
 0.000000e+00 0.000000e+00 0.000000e+00 0.000000e+00 8.975475e-01 1.024525e-01 0.000000e+00 0.000000e+00
 0.000000e+00 0.000000e+00 0.000000e+00 0.000000e+00 0.000000e+00 6.005577e-02 9.399442e-01 0.000000e+00
 0.000000e+00 0.000000e+00 0.000000e+00 0.000000e+00 0.000000e+00 0.000000e+00 6.294104e-01 3.705896e-01
 0.000000e+00 0.000000e+00 0.000000e+00 0.000000e+00 0.000000e+00 0.000000e+00 0.000000e+00 0.000000e+00
<ENDHMM>
