~o
<STREAMINFO> 1 39
<VECSIZE> 39<NULLD><MFCC_D_A_0><DIAGC>
~h "kurang"
<BEGINHMM>
<NUMSTATES> 6
<STATE> 2
<MEAN> 39
 4.506223e+00 -5.332177e-02 3.825731e+00 1.476405e+00 -9.197347e+00 7.147667e+00 -7.627342e+00 2.713300e+00 1.361656e+01 -1.602432e+01 -7.065348e+00 1.410007e+01 5.399862e+01 3.000060e-01 3.163870e-01 -1.021638e-01 4.723390e-01 5.901998e-01 1.947529e-01 2.173532e-01 2.711029e-02 5.667925e-01 7.092322e-01 -2.922626e-01 1.767583e-01 2.977711e-02 -6.622507e-02 1.282374e-01 -9.068605e-02 6.504761e-02 1.594256e-01 -1.756980e-01 4.465374e-02 1.513048e-01 -1.046227e-01 1.271319e-01 5.438200e-02 -2.525398e-01 -1.134406e-01
<VARIANCE> 39
 2.010139e+01 3.219001e+01 4.010689e+01 2.367208e+01 7.828215e+01 4.123141e+01 5.410905e+01 3.760509e+01 6.235245e+01 5.735327e+01 3.143900e+01 5.987083e+01 1.831659e+01 1.844279e+00 3.364916e+00 5.185444e+00 2.901047e+00 8.278073e+00 3.984083e+00 5.971867e+00 4.207987e+00 5.418427e+00 6.060415e+00 4.215248e+00 6.328730e+00 1.980019e+00 3.930751e-01 5.890642e-01 1.083943e+00 5.948181e-01 1.575358e+00 6.632195e-01 1.013307e+00 6.954448e-01 1.073791e+00 1.156954e+00 8.808619e-01 8.797358e-01 3.733357e-01
<GCONST> 1.348168e+02
<STATE> 3
<MEAN> 39
 -7.185273e-01 2.079105e-01 -6.635089e+00 8.059990e-02 2.107487e+00 -6.485219e+00 -9.400853e+00 2.798010e+00 6.316512e-01 2.307015e-01 1.545332e+00 5.223875e+00 7.044911e+01 6.012458e-01 -1.888671e-01 -5.407493e-01 2.558917e-01 3.421270e-01 -4.886676e-01 -9.781662e-02 1.337961e-01 9.919026e-02 1.597289e-01 1.255985e-01 1.245065e-01 4.545514e-01 -3.243482e-02 -8.884376e-02 -1.009744e-02 -3.637917e-02 -3.047882e-02 7.724420e-02 8.808450e-02 2.487380e-02 6.675321e-02 -3.982387e-02 -3.390940e-02 8.024071e-03 2.455002e-02
<VARIANCE> 39
 3.304736e+01 2.314293e+01 6.217678e+01 3.321690e+01 3.810843e+01 5.058741e+01 3.295901e+01 2.548145e+01 2.940444e+01 2.662648e+01 1.872443e+01 3.488727e+01 3.533121e+01 1.189740e+00 1.660018e+00 2.443466e+00 2.810839e+00 3.010102e+00 4.046562e+00 3.086116e+00 2.898480e+00 2.518489e+00 1.794654e+00 1.832160e+00 2.482762e+00 8.158727e-01 1.764984e-01 1.908234e-01 2.845840e-01 4.555562e-01 4.662670e-01 7.162925e-01 4.056192e-01 4.665504e-01 3.767961e-01 3.002382e-01 3.541406e-01 2.908693e-01 1.295448e-01
<GCONST> 1.123841e+02
<STATE> 4
<MEAN> 39
 9.883403e-01 -2.994566e+00 -1.113099e+01 1.990339e+00 6.420090e+00 -2.323206e-01 -9.977921e-02 1.002671e+01 3.971980e+00 -3.013744e+00 -1.679356e+00 5.680073e+00 7.278123e+01 -3.273477e-01 5.758559e-01 5.055943e-01 4.969977e-01 3.717644e-01 5.151185e-01 2.733059e-01 3.460369e-01 -5.226014e-02 -3.877704e-01 -4.238735e-01 -4.543735e-01 -5.187607e-01 -6.186393e-03 5.612243e-02 2.811825e-02 2.254554e-02 4.023666e-02 -3.362951e-02 -8.941652e-02 -9.674764e-02 -5.597717e-02 5.898169e-02 4.388820e-02 1.634283e-02 -2.225093e-02
<VARIANCE> 39
 7.085276e+00 2.659190e+01 1.527543e+01 3.143843e+01 2.109114e+01 1.691730e+01 1.052661e+01 1.975329e+01 1.390577e+01 2.859385e+01 2.249341e+01 1.792242e+01 1.612984e+01 1.089600e-01 4.879749e-01 4.060447e-01 9.236729e-01 8.092706e-01 8.618244e-01 8.417851e-01 1.179190e+00 1.150805e+00 1.406880e+00 9.678911e-01 7.763932e-01 1.384119e-01 2.004828e-02 8.861730e-02 7.197170e-02 1.326369e-01 1.454219e-01 1.631545e-01 1.445535e-01 1.481922e-01 2.281941e-01 2.002123e-01 1.982520e-01 1.636090e-01 2.570916e-02
<GCONST> 7.426132e+01
<STATE> 5
<MEAN> 39
 1.284371e-01 7.155807e+00 -4.001297e-02 8.255616e+00 4.340596e+00 1.885126e+00 -1.905383e+00 7.630228e+00 8.230349e+00 -3.354555e+00 -5.054934e+00 2.017629e+00 5.132711e+01 -3.765568e-01 -6.266257e-01 4.005902e-01 -2.376719e-01 -3.506714e-01 1.492738e-01 -2.643226e-01 -6.594533e-01 -4.951546e-01 -2.018338e-01 3.985693e-01 -4.368100e-02 1.721769e-01 3.003852e-02 -1.306939e-01 7.787818e-02 -6.447185e-02 -1.779807e-01 9.668582e-03 -7.153923e-02 -1.188799e-01 1.980026e-02 -1.156942e-01 8.168276e-03 1.691549e-01 1.036614e-01
<VARIANCE> 39
 3.625013e+01 8.457718e+01 3.981395e+01 3.371656e+01 6.669839e+01 5.575473e+01 5.050384e+01 5.458598e+01 5.734637e+01 4.943610e+01 4.821688e+01 4.269505e+01 7.841408e+01 1.909707e+00 6.451056e+00 4.296260e+00 2.739042e+00 6.381001e+00 4.572938e+00 4.341670e+00 5.197423e+00 4.285526e+00 4.628404e+00 4.255267e+00 5.134629e+00 1.641906e+00 2.364508e-01 1.117751e+00 8.092132e-01 4.864359e-01 1.098945e+00 8.996603e-01 8.432385e-01 9.747909e-01 7.919089e-01 8.001570e-01 8.061282e-01 9.057614e-01 2.662142e-01
<GCONST> 1.364613e+02
<TRANSP> 6
 0.000000e+00 4.999999e-01 5.000002e-01 0.000000e+00 0.000000e+00 0.000000e+00
 0.000000e+00 9.373161e-01 6.268393e-02 0.000000e+00 0.000000e+00 0.000000e+00
 0.000000e+00 0.000000e+00 9.144889e-01 4.275557e-02 4.275554e-02 0.000000e+00
 0.000000e+00 0.000000e+00 0.000000e+00 9.502775e-01 3.729540e-02 1.242709e-02
 0.000000e+00 0.000000e+00 0.000000e+00 0.000000e+00 9.146160e-01 8.538389e-02
 0.000000e+00 0.000000e+00 0.000000e+00 0.000000e+00 0.000000e+00 0.000000e+00
<ENDHMM>
