~o
<STREAMINFO> 1 39
<VECSIZE> 39<NULLD><MFCC_D_A_0><DIAGC>
~h "lima"
<BEGINHMM>
<NUMSTATES> 6
<STATE> 2
<MEAN> 39
 -3.948976e-01 -1.151885e+00 -5.903066e-01 1.610029e+01 1.121962e+01 -3.131701e+00 -1.107619e+01 1.409895e+00 -2.159377e+00 -5.279809e+00 2.640183e+00 1.881591e+00 6.074343e+01 2.008980e-01 3.752451e-01 1.211282e-01 5.563157e-01 6.361910e-01 -1.837874e-01 -1.951253e-01 1.445940e-01 2.423144e-01 2.196366e-01 -2.752613e-01 -4.177068e-01 -2.996231e-03 -7.017658e-02 1.023276e-01 -1.829609e-02 -1.454041e-01 -8.250035e-02 1.224623e-01 1.949380e-01 1.116138e-01 1.287613e-01 2.493096e-02 -1.730825e-01 -9.652998e-02 -9.532768e-02
<VARIANCE> 39
 2.507675e+01 3.340863e+01 6.138295e+01 4.379720e+01 5.458686e+01 3.249694e+01 5.720668e+01 3.691305e+01 4.668989e+01 4.058557e+01 3.926138e+01 2.952306e+01 1.152920e+02 1.037345e+00 3.433691e+00 3.987047e+00 2.268976e+00 2.803792e+00 3.231149e+00 6.674047e+00 3.302601e+00 3.583078e+00 3.067342e+00 3.546043e+00 2.311517e+00 1.601259e+00 1.566228e-01 4.587390e-01 6.274434e-01 3.095411e-01 4.812007e-01 5.967935e-01 1.007016e+00 4.898807e-01 7.022614e-01 5.948684e-01 5.306722e-01 3.876460e-01 1.776860e-01
<GCONST> 1.241236e+02
<STATE> 3
<MEAN> 39
 8.618555e-01 7.883070e+00 -1.939977e+00 1.512687e+01 1.271992e+01 -1.831973e+00 -5.250262e+00 5.788406e+00 3.035125e+00 -2.895891e+00 -5.730051e+00 -5.703072e+00 5.962706e+01 7.177025e-01 4.324621e-02 -8.322333e-01 -1.351268e+00 -1.292391e+00 -5.094507e-01 6.228067e-01 1.001144e+00 3.498352e-01 -4.310494e-01 -9.133059e-02 4.697620e-01 4.601708e-01 1.363118e-01 -3.327746e-01 -1.470178e-01 -3.073579e-01 -4.222293e-01 -2.477312e-01 -9.118102e-02 2.593084e-02 -1.238188e-01 -1.166745e-01 5.767626e-01 6.138157e-01 2.524577e-01
<VARIANCE> 39
 2.066887e+01 3.631897e+01 2.411047e+01 1.714491e+01 3.207199e+01 1.651300e+01 1.442726e+01 6.925854e+01 3.150750e+01 1.060784e+01 2.372288e+01 1.594447e+01 8.627535e+01 3.896353e-01 6.059310e-01 9.479957e-01 2.002031e+00 2.665257e+00 2.331852e+00 9.577435e-01 1.334334e+00 1.300870e+00 9.971269e-01 3.688541e+00 3.936015e+00 4.160729e-01 5.455407e-02 1.107782e-01 1.934579e-01 2.641728e-01 2.881050e-01 3.374523e-01 2.492881e-01 2.458409e-01 2.674053e-01 2.141435e-01 3.652587e-01 3.695274e-01 4.953999e-02
<GCONST> 9.596127e+01
<STATE> 4
<MEAN> 39
 1.536088e+00 -3.612466e+00 -1.462886e+01 -2.020205e+00 2.877982e+00 -3.397236e+00 -5.362083e-01 1.263303e+01 4.385714e+00 -3.485445e+00 3.346575e+00 7.673694e+00 7.167104e+01 -1.707328e-01 -8.110966e-02 -2.059817e-01 -5.635287e-01 -5.923157e-01 2.434779e-01 3.833431e-01 -3.071677e-02 1.714589e-02 -3.171952e-02 1.787946e-01 5.575725e-01 -1.189128e-01 -1.144184e-01 7.517457e-02 2.115741e-01 2.172836e-01 1.889317e-01 1.998709e-01 -3.568216e-02 -1.748354e-01 -3.578180e-02 1.764226e-02 -1.758562e-01 -1.850251e-01 -1.008829e-01
<VARIANCE> 39
 2.186310e+01 3.874797e+01 1.586827e+01 1.704868e+01 1.045399e+01 2.828653e+01 2.029825e+01 1.717800e+01 2.040322e+01 1.604550e+01 2.891731e+01 1.611490e+01 4.867749e+01 5.483688e-01 1.300279e+00 1.404970e+00 2.300415e+00 2.107014e+00 1.269500e+00 1.221233e+00 1.677966e+00 1.508880e+00 1.354734e+00 2.479240e+00 3.126211e+00 9.704814e-01 5.687095e-02 1.245721e-01 1.558853e-01 2.335625e-01 1.994218e-01 3.148189e-01 2.335055e-01 2.495357e-01 2.191197e-01 2.162813e-01 3.201110e-01 2.150701e-01 5.850873e-02
<GCONST> 9.421522e+01
<STATE> 5
<MEAN> 39
 3.096819e+00 9.115097e+00 -2.484010e+00 3.945313e+00 -2.680184e+00 -1.606522e+00 1.339269e+00 9.760357e+00 5.062174e+00 -9.089302e+00 -2.895073e+00 6.362589e+00 5.339212e+01 -5.755658e-01 -1.694681e-01 3.001403e-01 -8.667824e-02 -8.902156e-02 4.264058e-01 1.028397e-01 -4.102108e-01 -2.522641e-01 8.079803e-03 5.166248e-02 3.487902e-02 -3.068207e-01 -3.063646e-02 2.782322e-02 1.573642e-02 1.279301e-01 1.689720e-01 -1.363825e-02 -1.100121e-01 -8.638490e-02 -2.538086e-02 5.725076e-02 -5.925209e-02 -1.647118e-01 -4.520047e-02
<VARIANCE> 39
 5.261209e+01 3.958733e+01 3.192420e+01 3.370692e+01 4.389866e+01 4.336464e+01 3.153392e+01 6.637726e+01 6.083612e+01 4.594149e+01 4.430318e+01 6.895669e+01 9.131799e+01 1.348153e+00 2.810419e+00 2.653035e+00 2.494112e+00 4.354342e+00 3.184209e+00 2.890306e+00 2.750974e+00 3.260368e+00 4.328602e+00 3.022103e+00 4.718388e+00 1.455354e+00 2.063053e-01 3.902674e-01 5.059251e-01 4.785399e-01 8.156524e-01 6.015584e-01 5.141670e-01 6.159755e-01 6.112701e-01 7.578107e-01 5.692381e-01 7.133159e-01 1.674554e-01
<GCONST> 1.263189e+02
<TRANSP> 6
 0.000000e+00 9.022189e-01 9.778115e-02 0.000000e+00 0.000000e+00 0.000000e+00
 0.000000e+00 9.278896e-01 7.211037e-02 0.000000e+00 0.000000e+00 0.000000e+00
 0.000000e+00 0.000000e+00 8.623828e-01 1.376172e-01 0.000000e+00 0.000000e+00
 0.000000e+00 0.000000e+00 0.000000e+00 8.775685e-01 8.783807e-02 3.459342e-02
 0.000000e+00 0.000000e+00 0.000000e+00 0.000000e+00 9.218432e-01 7.815684e-02
 0.000000e+00 0.000000e+00 0.000000e+00 0.000000e+00 0.000000e+00 0.000000e+00
<ENDHMM>
