~o
<STREAMINFO> 1 36
<VECSIZE> 36<NULLD><LPC_D_A><DIAGC>
~h "puluh"
<BEGINHMM>
<NUMSTATES> 8
<STATE> 2
<MEAN> 36
 -2.632844e+00 4.281770e+00 -6.025335e+00 7.148400e+00 -7.252309e+00 6.536739e+00 -5.327697e+00 3.671509e+00 -2.156288e+00 1.074934e+00 -3.803302e-01 9.116809e-02 9.870853e-02 -2.537390e-01 4.641300e-01 -6.581649e-01 7.714861e-01 -7.991351e-01 7.342168e-01 -5.994359e-01 4.184529e-01 -2.525871e-01 1.000270e-01 -1.620388e-02 -2.045635e-03 5.104115e-02 -1.127563e-01 1.852037e-01 -2.571436e-01 2.953021e-01 -2.954884e-01 2.653617e-01 -2.043591e-01 1.239170e-01 -5.904113e-02 1.559883e-02
<VARIANCE> 36
 1.604252e-01 1.924645e+00 7.843431e+00 1.899303e+01 3.359135e+01 4.418264e+01 4.466440e+01 3.487182e+01 2.034732e+01 8.453066e+00 2.133466e+00 1.705649e-01 1.043746e-01 1.452013e+00 6.208394e+00 1.608383e+01 2.869630e+01 3.677137e+01 3.688817e+01 2.881573e+01 1.617664e+01 6.247562e+00 1.430519e+00 9.858457e-02 1.082728e-02 1.478902e-01 6.437490e-01 1.669193e+00 3.014304e+00 3.920923e+00 3.976930e+00 3.128215e+00 1.774384e+00 6.961418e-01 1.641306e-01 1.223101e-02
<GCONST> 1.007123e+02
<STATE> 3
<MEAN> 36
 -1.399163e+00 1.658123e+00 -2.337107e+00 2.590542e+00 -2.576592e+00 2.242187e+00 -1.755285e+00 1.195467e+00 -7.188699e-01 3.198477e-01 -1.973043e-01 8.581703e-02 4.737374e-02 -3.083904e-02 5.593203e-02 -1.157243e-01 1.271114e-01 -1.465122e-01 1.380637e-01 -1.318741e-01 1.026544e-01 -6.820153e-02 4.227557e-02 -1.028285e-02 -2.665161e-03 -1.569576e-02 1.778824e-02 -8.013788e-03 3.384772e-03 5.990402e-03 -1.283347e-02 1.216220e-02 -1.549361e-02 1.221267e-02 -1.023097e-03 2.342073e-03
<VARIANCE> 36
 7.211441e-01 3.107286e+00 5.152363e+00 7.187212e+00 7.749992e+00 6.748699e+00 5.005558e+00 2.956848e+00 1.559802e+00 6.207267e-01 1.466265e-01 2.285707e-02 1.606767e-02 4.187250e-02 8.853831e-02 1.210216e-01 1.683592e-01 1.895166e-01 1.828828e-01 1.392317e-01 7.635562e-02 3.679108e-02 9.383420e-03 2.030231e-03 4.285452e-03 7.056258e-03 1.404600e-02 2.027292e-02 2.710081e-02 3.194588e-02 3.135538e-02 2.571245e-02 1.478621e-02 6.964801e-03 1.951186e-03 4.183785e-04
<GCONST> -2.014039e+01
<STATE> 4
<MEAN> 36
 -5.814632e-01 -1.933826e-02 -1.899088e-01 1.377289e-01 -1.987029e-01 1.643357e-01 -1.404213e-01 1.414684e-01 -1.553651e-01 7.701945e-02 -8.196804e-02 1.050444e-01 1.617039e-02 2.909137e-03 5.170568e-03 -2.780159e-03 3.752930e-03 -1.985035e-03 1.774695e-03 -2.804905e-03 1.920049e-03 -1.301970e-03 5.825601e-04 -1.563658e-03 4.017808e-04 3.373697e-03 -6.330834e-04 1.342684e-03 -1.942707e-03 7.273571e-04 -2.655501e-04 1.267846e-03 -3.002922e-04 -9.249098e-05 -1.204603e-03 -6.731334e-04
<VARIANCE> 36
 3.044812e-01 1.354298e-01 1.837037e-01 8.013570e-02 7.456730e-02 4.911023e-02 7.171083e-02 3.672842e-02 2.421233e-02 3.335043e-02 1.894389e-02 1.373420e-02 2.325869e-02 1.296636e-02 8.941280e-03 7.022017e-03 6.126068e-03 3.823321e-03 2.809966e-03 2.477503e-03 2.113469e-03 1.720345e-03 1.705010e-03 1.305546e-03 4.075722e-03 2.950772e-03 1.767510e-03 1.438957e-03 1.404066e-03 7.753227e-04 6.079017e-04 4.678342e-04 4.561490e-04 3.402140e-04 3.712198e-04 2.647066e-04
<GCONST> -1.188554e+02
<STATE> 5
<MEAN> 36
 -2.251916e+00 3.732572e+00 -5.058627e+00 5.758747e+00 -5.710161e+00 4.930549e+00 -3.799068e+00 2.357746e+00 -1.247595e+00 4.458118e-01 -1.076728e-01 2.089535e-02 1.085127e-01 -2.330296e-01 3.490672e-01 -4.509667e-01 5.059413e-01 -4.731627e-01 3.906335e-01 -2.805375e-01 1.626864e-01 -8.596712e-02 4.537607e-02 -1.607329e-02 1.340425e-02 -2.785917e-02 2.679324e-02 -9.887418e-03 -2.441032e-02 6.006540e-02 -8.793634e-02 9.872052e-02 -7.994542e-02 5.401358e-02 -2.813638e-02 7.931890e-03
<VARIANCE> 36
 2.945244e-01 9.364058e-01 2.040145e+00 2.900815e+00 3.199655e+00 3.220436e+00 2.799456e+00 2.138717e+00 1.508364e+00 7.511516e-01 2.152799e-01 2.213378e-02 1.860410e-02 7.793000e-02 2.287151e-01 4.530353e-01 6.461433e-01 7.457177e-01 7.044812e-01 4.980700e-01 2.489145e-01 8.266430e-02 1.278205e-02 6.081684e-04 3.932726e-04 1.057828e-03 1.951299e-03 4.321172e-03 1.542926e-02 3.017080e-02 4.119318e-02 4.108779e-02 2.613343e-02 9.515911e-03 2.645883e-03 3.096221e-04
<GCONST> -2.341930e+01
<STATE> 6
<MEAN> 36
 -8.274943e-01 8.198958e-01 -1.185411e+00 1.166449e+00 -1.064989e+00 8.571522e-01 -6.197443e-01 3.889034e-01 -2.166601e-01 5.997832e-02 -6.688849e-02 2.940987e-02 1.756889e-02 1.925455e-02 3.424669e-02 -5.278736e-02 3.999409e-02 -5.212277e-02 4.342559e-02 -1.804242e-02 1.769662e-02 -4.391377e-03 8.101950e-04 -1.124770e-02 -8.324059e-03 2.731716e-02 -1.930111e-02 3.120585e-02 -4.270000e-02 4.025888e-02 -4.305772e-02 2.473503e-02 -2.031328e-02 1.241466e-02 -1.561003e-03 3.870713e-03
<VARIANCE> 36
 7.442561e-01 1.685513e+00 2.300452e+00 2.910507e+00 2.700766e+00 2.126654e+00 1.529358e+00 8.914572e-01 5.131853e-01 2.128965e-01 7.649054e-02 1.914352e-02 3.093544e-02 3.683442e-02 5.212093e-02 8.806430e-02 1.224834e-01 1.387144e-01 1.254070e-01 8.656733e-02 4.137598e-02 1.325262e-02 3.346736e-03 1.027024e-03 4.697166e-03 4.033980e-03 5.477710e-03 9.203334e-03 1.438301e-02 1.810321e-02 1.546222e-02 1.257754e-02 6.122417e-03 2.045976e-03 7.069291e-04 2.393120e-04
<GCONST> -4.368700e+01
<STATE> 7
<MEAN> 36
 -1.563982e+00 2.493307e+00 -3.385453e+00 3.874703e+00 -3.897885e+00 3.428586e+00 -2.716253e+00 1.843920e+00 -1.061223e+00 4.552444e-01 -1.713623e-01 5.858479e-02 -2.166399e-03 3.583586e-02 -1.747114e-03 2.030347e-02 -5.315455e-02 5.632944e-02 -7.025179e-02 7.070205e-02 -6.004466e-02 4.015183e-02 -1.784352e-02 5.040181e-03 -7.309718e-03 1.015999e-02 -1.707943e-02 2.987205e-02 -3.815066e-02 4.438199e-02 -4.565684e-02 3.084863e-02 -2.268708e-02 1.314855e-02 -4.813012e-03 2.559770e-03
<VARIANCE> 36
 1.369635e+00 5.270499e+00 1.323755e+01 2.747679e+01 4.438204e+01 5.721482e+01 5.512645e+01 3.851270e+01 1.956398e+01 6.778510e+00 1.309348e+00 9.299525e-02 4.707555e-02 2.149059e-01 7.671753e-01 2.015220e+00 3.821494e+00 5.360903e+00 5.391671e+00 3.852919e+00 1.950201e+00 6.708596e-01 1.288068e-01 8.932143e-03 1.029095e-02 4.647920e-02 1.581266e-01 3.982135e-01 7.288546e-01 9.963132e-01 9.805249e-01 6.878625e-01 3.417891e-01 1.160325e-01 2.191271e-02 1.595414e-03
<GCONST> 6.310253e+01
<TRANSP> 8
 0.000000e+00 1.499996e-01 8.500004e-01 0.000000e+00 0.000000e+00 0.000000e+00 0.000000e+00 0.000000e+00
 0.000000e+00 8.459447e-01 1.540553e-01 0.000000e+00 0.000000e+00 0.000000e+00 0.000000e+00 0.000000e+00
 0.000000e+00 0.000000e+00 5.002580e-01 3.997943e-01 9.994776e-02 0.000000e+00 0.000000e+00 0.000000e+00
 0.000000e+00 0.000000e+00 0.000000e+00 9.383402e-01 0.000000e+00 6.165983e-02 0.000000e+00 0.000000e+00
 0.000000e+00 0.000000e+00 0.000000e+00 0.000000e+00 0.000000e+00 1.000000e+00 0.000000e+00 0.000000e+00
 0.000000e+00 0.000000e+00 0.000000e+00 0.000000e+00 0.000000e+00 2.731843e-01 7.268157e-01 0.000000e+00
 0.000000e+00 0.000000e+00 0.000000e+00 0.000000e+00 0.000000e+00 0.000000e+00 5.294068e-01 4.705932e-01
 0.000000e+00 0.000000e+00 0.000000e+00 0.000000e+00 0.000000e+00 0.000000e+00 0.000000e+00 0.000000e+00
<ENDHMM>
