~o
<STREAMINFO> 1 39
<VECSIZE> 39<NULLD><PLP_D_A_0><DIAGC>
~h "satu"
<BEGINHMM>
<NUMSTATES> 8
<STATE> 2
<MEAN> 39
 -2.082786e+00 -1.730223e+00 2.951056e-01 -1.355442e+00 -6.597881e-01 -4.908363e-01 -7.518838e-03 -9.256434e-01 -3.280130e-01 -1.222682e-02 3.223417e-01 2.569400e-01 5.481876e+00 1.553601e-01 1.611492e-02 -7.517070e-02 -7.854891e-02 -3.373996e-02 -5.179796e-02 -2.427255e-02 1.743179e-02 4.835663e-02 -2.520888e-02 1.070690e-02 3.891653e-02 1.489010e-01 1.281386e-01 6.442241e-02 -8.831626e-02 3.028965e-02 1.281926e-03 -1.017227e-02 -7.372161e-03 2.931139e-02 1.978676e-02 -2.712589e-02 -2.464114e-02 3.207873e-03 -1.385585e-02
<VARIANCE> 39
 5.081152e-01 5.482498e-01 5.111179e-01 4.564813e-01 7.071563e-01 3.840032e-01 7.886984e-01 1.769426e-01 5.296289e-01 2.246183e-01 2.076177e-01 1.130794e-01 8.486552e-01 1.519667e-01 8.256915e-02 9.626132e-02 3.217400e-02 3.054461e-02 3.361310e-02 2.841627e-02 2.446147e-02 2.424033e-02 2.461092e-02 1.833061e-02 1.220275e-02 2.532303e-02 1.704389e-02 1.174061e-02 9.770551e-03 7.414054e-03 6.271736e-03 8.205222e-03 5.698017e-03 3.720900e-03 4.430815e-03 4.346067e-03 3.449821e-03 2.407212e-03 2.899797e-03
<GCONST> -5.127290e+01
<STATE> 3
<MEAN> 39
 -1.136168e-01 -1.219145e+00 -9.006101e-01 -1.427075e+00 -9.900845e-01 -6.821488e-01 8.434933e-02 -6.695199e-01 7.728159e-02 -4.644900e-01 1.658692e-01 4.491896e-01 5.954434e+00 6.256154e-02 9.824301e-02 -7.955560e-02 6.845393e-02 -2.125206e-02 3.312329e-03 2.125669e-03 2.168757e-02 -1.259377e-03 -2.738772e-02 -3.941526e-02 4.062602e-03 -1.251011e-01 -1.173760e-01 -2.084154e-03 4.504631e-02 4.759577e-03 3.452874e-02 -4.980392e-03 -6.085587e-03 -4.004543e-03 -2.541706e-02 2.115483e-02 4.498398e-03 -1.842555e-02 -6.368413e-02
<VARIANCE> 39
 7.835142e-02 5.663702e-01 4.596367e-01 3.612005e-01 2.813870e-01 5.328258e-01 1.019481e+00 5.340818e-01 3.936118e-01 3.084732e-01 2.035296e-01 3.590975e-01 6.864945e-01 7.938488e-02 2.864118e-02 5.049562e-02 2.479715e-02 3.520569e-02 3.422112e-02 2.098082e-02 3.114395e-02 3.313346e-02 2.170246e-02 2.023072e-02 1.847678e-02 4.219210e-02 4.854784e-03 5.388015e-03 7.612600e-03 4.096023e-03 4.839365e-03 7.374332e-03 4.072798e-03 6.683897e-03 6.550898e-03 4.422376e-03 3.377028e-03 3.308535e-03 3.680876e-03
<GCONST> -5.509371e+01
<STATE> 4
<MEAN> 39
 -1.108052e+00 -6.068136e-01 -8.796545e-01 -1.025748e+00 -6.197395e-01 -8.228697e-01 -1.235998e-01 -4.109755e-01 -1.452437e-01 -3.542411e-01 1.803649e-02 2.126555e-01 4.467748e+00 -8.754037e-02 -5.236126e-02 3.467227e-02 6.680600e-02 2.172090e-02 -8.905885e-02 -2.297960e-04 2.493860e-02 -6.128027e-02 -3.737070e-02 1.333809e-02 -3.761950e-02 -1.524573e-02 9.276032e-02 -4.758903e-02 4.439923e-02 -5.275019e-03 -6.211124e-02 -2.729067e-02 -4.106823e-03 -1.790368e-02 -5.929240e-03 -3.960641e-02 -4.468837e-03 1.445519e-02 1.372346e-01
<VARIANCE> 39
 1.631009e-01 3.736380e-01 3.868044e-01 4.577183e-01 3.463553e-01 1.934990e-01 5.457283e-01 1.897872e-01 1.861560e-01 1.128056e-01 1.283489e-01 1.515377e-01 7.167555e-01 4.235484e-02 5.019395e-02 3.328421e-02 2.671514e-02 4.128372e-02 3.678123e-02 2.281654e-02 3.436159e-02 3.006349e-02 2.266764e-02 1.404738e-02 1.554982e-02 9.519324e-02 4.607959e-03 1.001235e-02 5.466145e-03 5.764770e-03 7.727787e-03 9.484849e-03 5.334334e-03 6.287107e-03 6.150077e-03 4.279334e-03 3.518218e-03 2.683492e-03 7.126635e-03
<GCONST> -5.808295e+01
<STATE> 5
<MEAN> 39
 -3.874619e-01 -1.128447e+00 -1.756073e-01 -8.343063e-01 -1.235365e+00 -1.370994e+00 -2.857874e-01 -5.264062e-01 -5.227498e-01 -1.056949e+00 -1.395452e-01 2.380460e-01 5.673345e+00 2.753341e-01 1.051160e-01 2.703126e-01 -4.876981e-02 -2.694869e-01 -1.664099e-01 -1.043302e-01 8.033308e-02 8.837502e-02 -1.587430e-01 -1.691934e-01 -2.892170e-02 2.474876e-01 -3.874964e-02 9.168979e-02 -1.354345e-02 -1.283177e-02 -2.503174e-04 1.852875e-02 -3.746540e-03 4.104860e-02 7.329836e-02 5.851346e-02 -9.650092e-03 -1.559874e-02 -1.251451e-01
<VARIANCE> 39
 2.481156e-01 6.228059e-01 4.969236e-01 5.507828e-01 4.605746e-01 9.777454e-01 9.444420e-01 4.532131e-01 4.147180e-01 2.998296e-01 2.988977e-01 1.361610e-01 8.006597e-01 2.130360e-02 6.029548e-02 2.974684e-02 2.870065e-02 6.087649e-02 8.830065e-02 3.756507e-02 3.344973e-02 5.870216e-02 3.870137e-02 2.014234e-02 1.735121e-02 6.294419e-02 7.048022e-03 8.614646e-03 1.001119e-02 5.857268e-03 1.032419e-02 1.051510e-02 7.311540e-03 6.422310e-03 8.524893e-03 6.108298e-03 6.910699e-03 2.025156e-03 5.851339e-03
<GCONST> -4.580975e+01
<STATE> 6
<MEAN> 39
 -8.803781e-02 -3.145548e-01 4.485907e-01 -1.055938e+00 -1.983146e+00 -2.033577e+00 -2.757480e-01 -8.060442e-02 8.283971e-02 -8.733788e-01 -4.475246e-01 -4.925936e-02 5.586190e+00 -5.535423e-02 8.953166e-02 -7.950461e-03 2.864944e-02 3.470514e-02 5.031454e-02 -3.980852e-03 -9.250944e-03 2.609374e-02 3.888574e-02 6.389082e-03 -1.934722e-02 -1.320051e-01 -4.814205e-02 -2.474331e-02 -5.222389e-02 1.236000e-02 7.372823e-02 4.530631e-02 2.143545e-02 -3.124601e-02 -3.899119e-02 1.495267e-02 1.905282e-02 5.669516e-03 -3.285608e-02
<VARIANCE> 39
 8.110210e-02 7.418827e-01 5.691122e-01 9.906354e-01 3.662688e-01 9.225832e-01 1.132982e+00 3.556935e-01 4.688863e-01 4.257654e-01 2.001330e-01 2.454019e-01 4.979578e-01 9.594047e-03 1.269538e-02 1.832026e-02 1.615294e-02 4.622516e-02 2.751859e-02 1.988279e-02 2.208905e-02 2.843528e-02 1.653502e-02 1.482009e-02 1.542291e-02 1.162080e-02 1.478051e-03 2.376404e-03 3.816932e-03 3.088120e-03 4.332321e-03 4.463315e-03 4.206346e-03 3.581856e-03 5.333250e-03 3.911366e-03 3.275438e-03 4.015728e-03 1.849129e-03
<GCONST> -6.523346e+01
<STATE> 7
<MEAN> 39
 -9.547417e-01 -2.944020e-01 -3.984182e-01 -7.594472e-01 -8.860598e-01 -1.091211e+00 -3.353572e-01 -3.987092e-01 -1.725358e-01 -5.636806e-01 -2.360603e-01 -5.637505e-04 4.561327e+00 -9.958506e-02 -7.706948e-02 -1.145868e-01 -2.907362e-02 9.692414e-02 5.569880e-02 5.155195e-02 -2.027459e-02 -3.568978e-02 7.564630e-02 5.773316e-02 7.139291e-03 -6.933019e-02 2.515038e-02 -2.162900e-02 1.379658e-02 -1.566796e-02 -3.479715e-02 -1.708947e-02 -1.105789e-02 9.668178e-03 1.094977e-02 -1.222397e-02 9.016423e-03 8.904517e-03 3.822014e-02
<VARIANCE> 39
 2.641682e-01 5.402025e-01 3.517570e-01 4.723019e-01 3.816492e-01 4.414105e-01 4.680367e-01 4.362180e-01 3.581823e-01 2.197623e-01 1.639703e-01 1.460827e-01 7.156473e-01 2.382756e-02 2.490187e-02 3.081400e-02 2.772736e-02 4.982805e-02 3.975580e-02 2.556530e-02 3.373852e-02 2.630189e-02 2.272319e-02 1.603588e-02 1.831022e-02 3.893928e-02 2.788981e-03 5.562855e-03 5.395581e-03 4.951304e-03 5.961041e-03 6.122987e-03 4.813078e-03 5.653706e-03 4.711405e-03 3.504264e-03 3.072255e-03 2.944016e-03 5.704435e-03
<GCONST> -5.874430e+01
<TRANSP> 8
 0.000000e+00 8.750368e-01 1.249632e-01 0.000000e+00 0.000000e+00 0.000000e+00 0.000000e+00 0.000000e+00
 0.000000e+00 8.136996e-01 1.863004e-01 0.000000e+00 0.000000e+00 0.000000e+00 0.000000e+00 0.000000e+00
 0.000000e+00 0.000000e+00 8.426144e-01 1.573857e-01 0.000000e+00 0.000000e+00 0.000000e+00 0.000000e+00
 0.000000e+00 0.000000e+00 0.000000e+00 7.997319e-01 2.002681e-01 0.000000e+00 0.000000e+00 0.000000e+00
 0.000000e+00 0.000000e+00 0.000000e+00 0.000000e+00 6.764141e-01 3.235860e-01 0.000000e+00 0.000000e+00
 0.000000e+00 0.000000e+00 0.000000e+00 0.000000e+00 0.000000e+00 8.230618e-01 1.769382e-01 0.000000e+00
 0.000000e+00 0.000000e+00 0.000000e+00 0.000000e+00 0.000000e+00 0.000000e+00 8.194593e-01 1.805407e-01
 0.000000e+00 0.000000e+00 0.000000e+00 0.000000e+00 0.000000e+00 0.000000e+00 0.000000e+00 0.000000e+00
<ENDHMM>
