~o
<STREAMINFO> 1 39
<VECSIZE> 39<NULLD><MFCC_D_A_0><DIAGC>
~h "satu"
<BEGINHMM>
<NUMSTATES> 6
<STATE> 2
<MEAN> 39
 -1.796910e+01 -8.942852e+00 8.015356e+00 -7.496256e+00 5.464415e-01 4.057284e+00 1.788769e+00 -4.915496e+00 2.346219e+00 4.659606e+00 1.636063e+00 2.325319e+00 7.318582e+01 1.553393e+00 1.155322e-03 -1.435492e+00 -3.412159e-01 -5.941172e-02 -7.891115e-01 -4.815394e-01 5.582527e-01 3.391012e-01 -2.376240e-01 6.790808e-03 6.651534e-01 7.193597e-01 2.725802e-01 2.187531e-02 -3.082771e-01 1.496343e-01 1.561733e-02 -3.453227e-02 -3.410675e-02 1.996945e-01 -4.004213e-06 -5.066245e-02 -4.521023e-02 5.759559e-02 -4.190102e-02
<VARIANCE> 39
 1.146475e+02 4.818817e+01 7.999136e+01 3.104212e+01 2.741385e+01 3.518547e+01 7.967897e+01 2.796145e+01 4.660571e+01 1.809622e+01 2.262759e+01 2.359852e+01 2.453809e+01 8.422563e+00 4.410902e+00 4.972843e+00 2.251634e+00 1.347046e+00 2.092396e+00 1.704396e+00 2.887757e+00 1.901329e+00 1.865731e+00 2.019881e+00 9.873552e-01 1.232500e+00 1.080203e+00 7.250552e-01 5.122052e-01 4.800986e-01 2.426436e-01 4.770862e-01 3.252200e-01 3.064679e-01 3.672723e-01 3.215002e-01 3.715561e-01 1.499132e-01 1.736798e-01
<GCONST> 1.168521e+02
<STATE> 3
<MEAN> 39
 -3.092902e+00 -2.989316e+00 -1.064960e+01 -5.085571e+00 -2.827567e+00 -6.824186e-01 -1.200997e+00 2.607743e+00 3.344211e+00 3.757250e-02 7.436454e-01 9.333056e+00 6.872718e+01 -5.580277e-01 2.577946e-01 -3.602627e-02 2.482777e-01 -1.490768e-01 1.531768e-01 1.466983e-01 -3.484124e-02 -2.049545e-01 -1.710218e-01 2.052669e-02 -2.429238e-01 -7.479003e-01 -5.224541e-02 3.382337e-02 1.703524e-01 7.191361e-02 7.384080e-02 5.805257e-03 -5.128150e-02 -5.563746e-02 -4.955148e-02 2.558664e-03 2.080295e-02 -8.193898e-02 1.139374e-02
<VARIANCE> 39
 3.324039e+01 3.455928e+01 5.936390e+01 4.260501e+01 1.817621e+01 2.871304e+01 3.591324e+01 3.809896e+01 3.130905e+01 1.968766e+01 2.172896e+01 2.356505e+01 8.220541e+01 6.178619e-01 1.072221e+00 1.369313e+00 8.932246e-01 1.083526e+00 9.624817e-01 1.391014e+00 1.424657e+00 1.231722e+00 1.325586e+00 9.221659e-01 1.334948e+00 8.440884e-01 8.930290e-02 2.096676e-01 2.703735e-01 2.509173e-01 2.186940e-01 2.566808e-01 3.221763e-01 3.125118e-01 3.276328e-01 2.398689e-01 2.022807e-01 1.794624e-01 1.320851e-01
<GCONST> 9.842579e+01
<STATE> 4
<MEAN> 39
 -2.272890e+00 -2.509338e-01 3.646236e+00 -1.677146e+00 -7.949239e+00 1.702076e+00 -6.333104e+00 2.078690e+00 3.722336e+00 -9.665348e+00 -2.198200e+00 5.040501e+00 5.303440e+01 2.999902e-01 3.862084e-01 2.172265e-01 2.477573e-01 2.112330e-02 -3.116615e-01 -1.296497e-01 2.814817e-01 1.570369e-01 -2.084521e-01 -1.919652e-01 -1.715572e-01 1.184415e-01 7.039085e-03 3.914768e-02 -1.702801e-03 -5.046884e-02 -4.329241e-02 -1.856552e-02 5.797837e-03 3.353880e-02 2.143651e-02 3.112051e-02 -1.868717e-04 -3.928837e-03 -1.530034e-02
<VARIANCE> 39
 5.443382e+01 1.260952e+02 6.982518e+01 5.515051e+01 7.079005e+01 6.697087e+01 7.988347e+01 5.465152e+01 1.144923e+02 8.186005e+01 3.210962e+01 4.607048e+01 1.078147e+02 4.207439e+00 8.356833e+00 6.053991e+00 4.711177e+00 6.319168e+00 6.669219e+00 6.422146e+00 5.333357e+00 8.576639e+00 7.286322e+00 3.592817e+00 4.462951e+00 6.061532e+00 5.367888e-01 1.498724e+00 9.559543e-01 8.036037e-01 1.168481e+00 1.203335e+00 1.109455e+00 1.133074e+00 1.460973e+00 1.304236e+00 7.539772e-01 8.345376e-01 8.117545e-01
<GCONST> 1.496965e+02
<STATE> 5
<MEAN> 39
 -3.131392e+00 7.594587e+00 3.152450e+00 4.562928e+00 -6.127601e+00 -9.118511e+00 -5.231131e+00 7.327443e+00 3.909404e+00 -4.491220e+00 -7.193304e-01 -4.465645e-01 6.626080e+01 -5.121568e-01 1.412144e-01 -1.585791e-01 -1.457020e-01 -1.744003e-02 2.287524e-01 4.264157e-01 -1.972299e-01 -7.315322e-02 4.746477e-01 -8.515845e-02 -1.457461e-01 -5.382794e-01 -2.782152e-02 -9.279692e-02 -9.175328e-02 -2.472225e-02 6.547500e-02 3.066671e-02 4.137148e-02 -8.446646e-02 -1.101381e-01 -7.472651e-03 1.548385e-02 3.309543e-02 1.864658e-02
<VARIANCE> 39
 2.096239e+01 3.632113e+01 5.518101e+01 2.095550e+01 3.111095e+01 5.664373e+01 5.263870e+01 3.014508e+01 2.865486e+01 6.078930e+01 1.316877e+01 1.738132e+01 7.341280e+01 4.383121e-01 7.614271e-01 9.148008e-01 9.437298e-01 1.282135e+00 1.459983e+00 1.655545e+00 1.544757e+00 1.482393e+00 1.287015e+00 1.034199e+00 7.754325e-01 5.276499e-01 8.279109e-02 9.386669e-02 1.047963e-01 1.584500e-01 1.867414e-01 2.398760e-01 3.708337e-01 2.351260e-01 2.306010e-01 2.180773e-01 2.101003e-01 1.629912e-01 8.040322e-02
<GCONST> 9.412325e+01
<TRANSP> 6
 0.000000e+00 5.624892e-01 4.375108e-01 0.000000e+00 0.000000e+00 0.000000e+00
 0.000000e+00 9.197034e-01 8.029661e-02 0.000000e+00 0.000000e+00 0.000000e+00
 0.000000e+00 0.000000e+00 9.109598e-01 8.904016e-02 0.000000e+00 0.000000e+00
 0.000000e+00 0.000000e+00 0.000000e+00 9.611786e-01 2.426295e-02 1.455842e-02
 0.000000e+00 0.000000e+00 0.000000e+00 0.000000e+00 9.435283e-01 5.647173e-02
 0.000000e+00 0.000000e+00 0.000000e+00 0.000000e+00 0.000000e+00 0.000000e+00
<ENDHMM>
