~o
<STREAMINFO> 1 39
<VECSIZE> 39<NULLD><PLP_D_A_0><DIAGC>
~h "sepuluh"
<BEGINHMM>
<NUMSTATES> 8
<STATE> 2
<MEAN> 39
 -1.954549e+00 -1.967597e+00 4.589970e-01 -1.193359e+00 -5.659463e-01 -6.627747e-01 2.142394e-02 -7.003072e-01 -4.915453e-01 -1.414680e-01 3.925864e-01 3.419798e-01 5.407640e+00 1.123836e-01 3.359147e-02 -7.928493e-02 2.929506e-02 4.520967e-02 -9.196381e-02 -6.423133e-02 5.265223e-02 -1.143593e-02 -5.520355e-02 -2.823618e-02 3.130630e-02 -2.875166e-02 7.147492e-02 1.231339e-01 -8.530102e-02 6.716944e-02 2.952459e-02 -5.201618e-03 -3.320351e-02 1.526509e-02 2.095121e-02 -2.863110e-02 -4.093015e-02 -2.243730e-02 -9.110850e-02
<VARIANCE> 39
 5.482842e-01 4.765784e-01 4.219982e-01 7.353506e-01 6.259639e-01 6.858181e-01 6.205408e-01 3.746573e-01 3.651011e-01 2.750210e-01 1.287305e-01 1.542825e-01 1.022767e+00 1.087404e-01 1.195764e-01 8.582719e-02 5.581319e-02 4.254945e-02 3.782081e-02 3.052210e-02 2.772320e-02 3.247190e-02 1.972128e-02 2.341800e-02 1.265345e-02 7.243057e-02 1.613808e-02 1.372176e-02 1.195249e-02 9.098900e-03 9.128596e-03 1.111240e-02 6.437696e-03 5.445783e-03 8.128135e-03 3.788650e-03 3.760065e-03 2.498753e-03 6.997731e-03
<GCONST> -4.454962e+01
<STATE> 3
<MEAN> 39
 -1.256505e+00 -7.193674e-01 -4.702050e-01 -6.697888e-01 -4.797404e-01 -7.929684e-01 -4.345230e-01 -4.988659e-01 -2.991414e-01 -4.794863e-01 -3.060907e-02 1.542633e-01 4.576376e+00 1.575720e-01 1.715786e-01 -3.375758e-02 1.506655e-02 -8.630320e-02 -7.929087e-02 -4.608496e-02 2.944610e-02 6.800935e-02 -4.283778e-02 -5.182028e-02 -5.033508e-02 -2.899748e-02 2.280185e-02 -2.453627e-02 6.440324e-02 -2.356816e-02 -5.711675e-02 -4.063687e-02 -2.750728e-03 -1.988605e-03 -1.943212e-03 -1.992116e-03 -2.456290e-03 -2.994228e-03 7.979170e-02
<VARIANCE> 39
 4.080096e-01 2.935498e-01 3.622562e-01 3.149366e-01 3.263724e-01 2.514861e-01 3.981936e-01 2.474937e-01 1.604276e-01 1.555055e-01 1.067766e-01 9.475839e-02 7.814260e-01 6.039245e-02 5.523765e-02 4.763823e-02 2.992354e-02 4.511030e-02 6.066355e-02 2.339268e-02 1.956241e-02 3.121832e-02 1.692773e-02 1.833609e-02 1.263681e-02 7.237510e-02 1.253480e-02 8.581452e-03 6.663460e-03 5.717829e-03 6.533965e-03 1.106382e-02 5.229640e-03 4.195540e-03 5.692830e-03 3.437095e-03 4.452981e-03 2.582189e-03 9.457126e-03
<GCONST> -5.680293e+01
<STATE> 4
<MEAN> 39
 -5.675921e-02 -1.073976e-01 2.615088e-01 -8.673102e-01 -1.599195e+00 -1.929926e+00 -5.503182e-01 -3.215796e-01 -2.051602e-03 -8.871771e-01 -4.996468e-01 -2.371859e-02 5.292856e+00 1.850837e-01 5.133340e-02 -2.721507e-02 6.356349e-04 -5.101305e-02 -1.119175e-01 -4.228903e-02 2.037437e-02 -3.338791e-02 -8.895007e-02 -1.643861e-01 -4.022412e-02 1.242333e-01 -7.252660e-02 -5.266166e-02 -1.096072e-01 8.084361e-03 1.515124e-01 1.122937e-01 1.922646e-02 -4.050623e-02 -5.080397e-02 1.620147e-02 1.838665e-02 -1.085156e-03 -5.867279e-02
<VARIANCE> 39
 9.983970e-02 6.276134e-01 4.798658e-01 4.583359e-01 4.100042e-01 1.171573e+00 7.780693e-01 3.141744e-01 5.791851e-01 4.157348e-01 3.092857e-01 1.640834e-01 6.742063e-01 2.547273e-02 3.042149e-02 7.385405e-02 2.110145e-02 1.221085e-01 9.893154e-02 2.348868e-02 2.469800e-02 4.138225e-02 2.451821e-02 2.585271e-02 1.957319e-02 1.757596e-02 2.956180e-03 4.988909e-03 5.871872e-03 3.424532e-03 1.002190e-02 1.458801e-02 5.242766e-03 5.372206e-03 1.005642e-02 4.927343e-03 6.472589e-03 3.443545e-03 1.604038e-03
<GCONST> -5.187269e+01
<STATE> 5
<MEAN> 39
 9.169146e-02 -2.650164e-01 -6.598356e-01 -6.111994e-01 -6.687872e-01 -1.534166e+00 -7.121052e-01 -4.903763e-01 -5.632560e-01 -9.795172e-01 -6.735371e-01 -2.407768e-01 5.420718e+00 -1.084864e-03 -4.169391e-02 -3.327992e-03 -4.593870e-03 -1.379061e-02 2.537682e-02 1.638078e-02 -6.791916e-03 -2.192600e-02 -2.311939e-02 1.540724e-02 1.981211e-02 2.281857e-02 -2.231524e-02 3.008435e-03 7.135716e-02 -8.450057e-03 -9.131765e-02 -3.198304e-02 1.303268e-02 3.599257e-02 4.604329e-02 -4.380707e-04 1.655634e-02 2.487960e-02 -3.891083e-04
<VARIANCE> 39
 1.025110e-01 4.919727e-01 4.122736e-01 9.523975e-01 5.801113e-01 6.702777e-01 7.032805e-01 4.368356e-01 3.178902e-01 3.187789e-01 2.191116e-01 1.991303e-01 5.498131e-01 4.003294e-03 1.097596e-02 4.704975e-02 2.085260e-02 1.098028e-01 5.716867e-02 2.081103e-02 3.179980e-02 4.431039e-02 1.984057e-02 2.110297e-02 1.786874e-02 4.515959e-03 1.195280e-03 2.459923e-03 6.068947e-03 4.308917e-03 1.505727e-02 1.133806e-02 4.042251e-03 5.896602e-03 6.951579e-03 4.315913e-03 4.894829e-03 3.854804e-03 1.115947e-03
<GCONST> -6.075839e+01
<STATE> 6
<MEAN> 39
 -9.356412e-02 -3.853202e-01 2.478503e-01 -1.001407e+00 -1.645553e+00 -1.633290e+00 -2.543121e-01 -1.540823e-01 5.656307e-03 -1.202892e+00 -5.512420e-01 1.447341e-01 5.526804e+00 -1.032349e-01 2.772505e-02 1.925774e-02 -3.455266e-03 4.269833e-02 6.950626e-02 7.759926e-02 5.508228e-02 3.752805e-02 2.174986e-02 3.371174e-02 9.073446e-03 -8.955568e-02 -2.564418e-02 -4.239341e-03 -7.711472e-02 -2.111035e-03 9.045361e-02 4.152439e-02 1.315065e-02 -3.337078e-02 -4.145652e-02 3.280167e-02 2.894373e-03 -2.677865e-02 -4.017657e-02
<VARIANCE> 39
 9.714545e-02 5.913279e-01 4.537793e-01 1.024741e+00 4.217762e-01 1.047478e+00 9.856553e-01 4.255545e-01 5.381421e-01 3.693156e-01 2.432862e-01 2.168046e-01 8.373408e-01 8.282342e-03 2.131606e-02 5.446062e-02 1.482102e-02 8.411105e-02 5.656665e-02 2.366056e-02 3.806816e-02 4.037182e-02 3.118404e-02 1.772993e-02 2.191574e-02 1.248246e-02 1.246384e-03 4.302989e-03 6.175199e-03 4.150474e-03 9.859478e-03 8.595803e-03 4.392928e-03 5.113226e-03 7.055044e-03 6.185350e-03 4.087306e-03 4.306610e-03 1.195396e-03
<GCONST> -5.590833e+01
<STATE> 7
<MEAN> 39
 -1.018312e+00 -5.400577e-01 -6.960946e-01 -1.033110e+00 -7.852606e-01 -9.897509e-01 -1.240215e-01 -3.428510e-01 -3.130645e-01 -6.243826e-01 -2.222947e-01 5.897962e-02 4.668429e+00 -1.005757e-01 -5.401880e-02 -6.361043e-02 -2.006759e-02 4.078953e-02 4.161045e-02 6.209379e-03 -3.315783e-02 -8.747941e-03 7.546229e-02 6.936341e-02 2.186787e-02 -7.982033e-02 2.937336e-02 -5.745475e-03 1.695482e-02 3.754630e-03 -2.024963e-02 -1.816767e-02 -2.123228e-02 2.098448e-03 9.495215e-03 -1.444224e-02 -2.028979e-03 7.400616e-03 2.884376e-02
<VARIANCE> 39
 2.526110e-01 4.552104e-01 5.054137e-01 5.464324e-01 3.617479e-01 2.466645e-01 5.959772e-01 4.567724e-01 2.422852e-01 1.822007e-01 2.095509e-01 1.149681e-01 8.971014e-01 2.346564e-02 2.734432e-02 3.538612e-02 3.596864e-02 3.443785e-02 3.262758e-02 2.573282e-02 1.858491e-02 2.507315e-02 2.017668e-02 1.866959e-02 1.559116e-02 3.183308e-02 3.115016e-03 5.038725e-03 7.072630e-03 7.055502e-03 6.849954e-03 5.622552e-03 5.395657e-03 4.362403e-03 4.768000e-03 3.301830e-03 3.559896e-03 2.707012e-03 5.133657e-03
<GCONST> -5.974774e+01
<TRANSP> 8
 0.000000e+00 8.749666e-01 1.250335e-01 0.000000e+00 0.000000e+00 0.000000e+00 0.000000e+00 0.000000e+00
 0.000000e+00 7.013295e-01 2.986706e-01 0.000000e+00 0.000000e+00 0.000000e+00 0.000000e+00 0.000000e+00
 0.000000e+00 0.000000e+00 8.318602e-01 1.681398e-01 0.000000e+00 0.000000e+00 0.000000e+00 0.000000e+00
 0.000000e+00 0.000000e+00 0.000000e+00 7.219489e-01 2.780511e-01 0.000000e+00 0.000000e+00 0.000000e+00
 0.000000e+00 0.000000e+00 0.000000e+00 0.000000e+00 8.309356e-01 1.690644e-01 0.000000e+00 0.000000e+00
 0.000000e+00 0.000000e+00 0.000000e+00 0.000000e+00 0.000000e+00 7.944742e-01 2.055258e-01 0.000000e+00
 0.000000e+00 0.000000e+00 0.000000e+00 0.000000e+00 0.000000e+00 0.000000e+00 8.512148e-01 1.487853e-01
 0.000000e+00 0.000000e+00 0.000000e+00 0.000000e+00 0.000000e+00 0.000000e+00 0.000000e+00 0.000000e+00
<ENDHMM>
