~o
<STREAMINFO> 1 39
<VECSIZE> 39<NULLD><MFCC_D_A_0><DIAGC>
~h "tambah"
<BEGINHMM>
<NUMSTATES> 6
<STATE> 2
<MEAN> 39
 9.345081e-01 5.319678e-01 -3.285531e+00 6.765010e-01 -7.452622e+00 -2.516335e+00 1.338343e-03 3.447447e+00 -8.581213e-01 -6.695517e+00 8.266002e-01 5.495767e+00 5.772378e+01 1.195178e+00 7.921683e-01 -5.329800e-01 6.019624e-01 6.216323e-01 -5.187424e-01 -8.976067e-02 1.031489e+00 8.279178e-01 -7.817364e-02 -5.790150e-01 -5.865760e-01 2.988764e-01 -2.466141e-01 2.234953e-01 1.645163e-01 2.478686e-01 3.790511e-01 1.772289e-01 -3.883105e-02 -3.576533e-02 1.248941e-01 1.331677e-01 -2.578345e-01 -4.324752e-01 -2.831560e-01
<VARIANCE> 39
 4.195823e+01 6.150547e+01 2.511710e+01 3.163064e+01 3.702161e+01 4.195225e+01 4.701968e+01 6.206296e+01 3.073142e+01 2.799564e+01 2.525130e+01 3.370491e+01 1.577325e+02 2.475350e+00 1.051111e+01 2.767998e+00 3.733311e+00 7.237783e+00 4.717962e+00 6.798388e+00 6.069225e+00 4.660570e+00 4.388871e+00 4.354084e+00 5.896417e+00 4.869017e+00 4.060447e-01 1.865883e+00 5.630505e-01 7.006977e-01 1.175176e+00 1.152934e+00 1.421964e+00 1.237502e+00 8.933056e-01 8.346916e-01 6.463392e-01 8.042142e-01 7.961081e-01
<GCONST> 1.392789e+02
<STATE> 3
<MEAN> 39
 1.666184e+00 1.407514e+01 -1.041800e+00 9.355680e+00 5.870853e+00 1.649778e-01 -1.949890e+00 4.416468e+00 7.849062e+00 -3.421239e+00 -1.121136e+01 -8.776956e+00 5.782602e+01 -1.415727e-01 6.830075e-01 4.567874e-01 1.378524e-01 2.250588e-01 2.875161e-01 -2.440074e-01 -3.493140e-01 9.048095e-02 -4.873034e-03 -5.669222e-01 -6.201025e-01 -3.817386e-01 1.988612e-01 -3.500955e-01 -6.586882e-02 -4.845016e-01 -7.847620e-01 -1.681947e-01 1.116861e-01 -7.862657e-02 -3.391825e-01 -2.774115e-01 5.461176e-01 9.071383e-01 3.223675e-01
<VARIANCE> 39
 1.167773e+01 8.799433e+00 1.383208e+01 6.684215e+00 1.960320e+01 1.317718e+01 9.460629e+00 9.535806e+01 2.941788e+01 1.211149e+01 2.872028e+01 1.522685e+01 8.786586e+01 3.558718e-01 5.739850e-01 6.461384e-01 2.182462e+00 5.317760e+00 2.099054e+00 1.256440e+00 1.147221e+00 2.856221e+00 1.514988e+00 4.340512e+00 6.220244e+00 4.461290e-01 6.037092e-02 1.691940e-01 1.691224e-01 2.073803e-01 3.528136e-01 3.980874e-01 2.619049e-01 2.713195e-01 3.868380e-01 3.190981e-01 3.785106e-01 4.824044e-01 6.800234e-02
<GCONST> 9.609248e+01
<STATE> 4
<MEAN> 39
 5.129710e+00 6.342674e+00 7.224033e-01 2.855474e+00 -7.608120e+00 5.735955e-01 -2.420654e+00 2.400456e+00 5.047545e+00 -1.112783e+01 -3.487776e+00 8.170998e+00 6.128948e+01 -4.217471e-02 -2.105233e+00 7.266741e-02 -3.638791e-01 -1.073432e+00 9.595299e-01 5.989480e-01 -1.324692e-01 -3.113060e-01 -7.003166e-01 1.720695e+00 2.486753e+00 8.388735e-01 -3.026630e-01 6.380422e-02 -9.737387e-02 4.608670e-01 7.067941e-01 1.001606e-01 4.091037e-01 2.512865e-01 -5.564095e-02 5.443819e-01 -4.040955e-02 -7.622395e-01 -2.788657e-01
<VARIANCE> 39
 1.520590e+01 5.284852e+01 1.655014e+01 2.010851e+01 3.009210e+01 6.418586e+01 1.915752e+01 9.332034e+01 3.327955e+01 2.575034e+01 2.581922e+01 4.936385e+01 8.824877e+01 1.708637e+00 2.078110e+00 2.873269e+00 2.906385e+00 7.327258e+00 6.098164e+00 3.939562e+00 2.497419e+00 4.011936e+00 3.976875e+00 1.827398e+00 6.952577e+00 1.759646e+00 2.202780e-01 6.260993e-01 7.041460e-01 2.885180e-01 6.571169e-01 1.544955e+00 5.958824e-01 4.671243e-01 1.038206e+00 5.095434e-01 3.347703e-01 8.339066e-01 2.595366e-01
<GCONST> 1.248647e+02
<STATE> 5
<MEAN> 39
 -3.635695e+00 -2.294081e-01 -1.853178e-01 6.996119e+00 -2.758931e+00 2.033448e+00 7.058663e+00 3.370081e+00 -2.715048e+00 -3.706116e+00 4.230431e+00 5.804332e+00 5.786650e+01 -8.198593e-01 7.499702e-03 2.515480e-02 1.304528e-01 4.308932e-01 -3.665920e-01 5.202559e-02 -3.041907e-01 -5.315004e-01 5.192074e-01 -6.066621e-02 -7.084906e-01 -4.806101e-01 1.172041e-01 1.113899e-01 6.689762e-02 -8.663623e-02 -1.019846e-01 -5.316653e-03 -3.270373e-01 -1.610254e-01 1.717674e-01 -2.168488e-01 -2.089365e-01 9.095269e-02 5.372447e-02
<VARIANCE> 39
 5.344624e+01 8.186362e+01 6.977663e+01 4.311458e+01 3.653198e+01 7.903416e+01 6.144566e+01 1.205553e+02 4.369279e+01 3.523316e+01 4.123374e+01 2.992270e+01 1.259558e+02 1.858253e+00 5.216940e+00 4.820628e+00 3.597197e+00 3.343432e+00 4.946763e+00 5.677938e+00 3.651314e+00 5.184532e+00 4.841084e+00 3.325224e+00 2.970791e+00 1.617980e+00 2.454499e-01 6.953684e-01 7.482673e-01 5.183156e-01 5.836380e-01 9.063480e-01 7.466761e-01 5.951907e-01 8.019429e-01 8.438093e-01 5.674042e-01 5.290428e-01 2.537453e-01
<GCONST> 1.340695e+02
<TRANSP> 6
 0.000000e+00 9.000994e-01 9.990063e-02 0.000000e+00 0.000000e+00 0.000000e+00
 0.000000e+00 8.937500e-01 1.062501e-01 0.000000e+00 0.000000e+00 0.000000e+00
 0.000000e+00 0.000000e+00 8.797100e-01 1.202901e-01 0.000000e+00 0.000000e+00
 0.000000e+00 0.000000e+00 0.000000e+00 8.555396e-01 1.444604e-01 0.000000e+00
 0.000000e+00 0.000000e+00 0.000000e+00 0.000000e+00 9.110563e-01 8.894369e-02
 0.000000e+00 0.000000e+00 0.000000e+00 0.000000e+00 0.000000e+00 0.000000e+00
<ENDHMM>
