~o
<STREAMINFO> 1 39
<VECSIZE> 39<NULLD><PLP_D_A_0><DIAGC>
~h "tambah"
<BEGINHMM>
<NUMSTATES> 8
<STATE> 2
<MEAN> 39
 -2.984519e-01 -9.650690e-01 -6.086672e-01 -1.053842e+00 -1.392383e+00 -6.558948e-01 1.335292e-01 -6.753160e-01 -1.674954e-01 -4.574769e-01 2.036227e-01 5.016422e-01 5.563365e+00 1.821232e-01 1.699184e-01 -2.223342e-02 5.432533e-02 7.236122e-02 -4.526128e-02 -3.839054e-02 6.519625e-02 6.544773e-02 -7.328665e-02 -1.524052e-01 -8.198481e-02 2.754772e-02 -4.511402e-02 5.140495e-02 2.668951e-02 4.870152e-02 8.140373e-02 -1.318354e-02 -3.181580e-02 -1.056143e-02 -5.502721e-03 -1.740968e-03 -7.545546e-02 -7.599219e-02 -6.478271e-02
<VARIANCE> 39
 3.988780e-01 5.151922e-01 2.348408e-01 6.979398e-01 2.567182e-01 2.405794e-01 6.644189e-01 5.396029e-01 3.615462e-01 2.165523e-01 1.929684e-01 2.104461e-01 1.145894e+00 3.518659e-02 5.340286e-02 2.893388e-02 3.829349e-02 5.752170e-02 2.693912e-02 3.564341e-02 2.998888e-02 3.065192e-02 1.954378e-02 5.161568e-02 5.551989e-02 6.375495e-02 6.360899e-03 9.807428e-03 5.118837e-03 6.496190e-03 6.550025e-03 5.526651e-03 6.943716e-03 6.907124e-03 5.857801e-03 4.648747e-03 6.192709e-03 7.041796e-03 1.095888e-02
<GCONST> -4.878974e+01
<STATE> 3
<MEAN> 39
 -9.317432e-02 -5.477317e-02 -4.729976e-01 -5.871298e-01 -2.850911e-01 -1.105817e+00 -3.646094e-01 -6.848312e-01 4.604116e-03 -8.894673e-01 -1.118896e+00 -5.594075e-01 5.432720e+00 -4.640733e-02 1.585680e-01 6.673223e-02 1.378518e-01 2.350048e-01 -2.691608e-02 -1.237739e-01 -3.331673e-02 -2.868346e-02 -5.426288e-02 -2.004444e-01 -1.991032e-01 -1.311921e-01 3.962379e-03 -6.928004e-02 -1.496919e-02 -7.341979e-02 -1.122056e-01 2.707169e-02 4.019120e-02 -7.495855e-03 -5.433957e-03 2.849756e-02 1.199765e-01 1.100784e-01 5.583824e-02
<VARIANCE> 39
 8.821121e-02 3.233780e-01 2.541769e-01 5.643284e-01 1.897807e-01 2.388197e-01 5.980097e-01 4.772793e-01 2.444371e-01 2.160381e-01 2.153420e-01 1.079524e-01 5.105978e-01 1.661152e-03 1.283080e-02 1.024921e-02 1.602301e-02 3.083773e-02 1.174553e-02 1.331559e-02 1.382440e-02 2.126958e-02 1.527006e-02 4.449950e-02 4.140370e-02 8.922449e-03 1.002923e-03 2.357828e-03 2.663590e-03 2.881681e-03 6.717486e-03 2.498062e-03 2.507329e-03 2.547846e-03 3.877563e-03 3.533568e-03 5.916805e-03 8.160741e-03 1.706363e-03
<GCONST> -7.578466e+01
<STATE> 4
<MEAN> 39
 -1.786463e-01 3.517715e-01 -4.103575e-01 -3.582523e-01 -1.538543e-01 -9.648426e-01 -5.968335e-01 -6.245890e-01 -8.763549e-02 -8.180978e-01 -1.106994e+00 -6.544831e-01 5.013135e+00 5.895964e-02 -1.279410e-01 -2.932566e-02 -1.952059e-01 -3.258705e-01 2.359702e-02 7.528036e-02 -2.811267e-02 5.822204e-03 6.159735e-02 2.555489e-01 2.880803e-01 1.267583e-01 2.130996e-02 -1.395594e-01 -2.010968e-02 -7.309006e-02 -1.414021e-01 4.010477e-02 6.956126e-02 -7.458556e-03 2.303353e-02 2.339668e-02 1.204714e-01 1.524783e-01 9.855598e-02
<VARIANCE> 39
 7.402994e-02 2.358049e-01 2.344911e-01 3.839045e-01 2.448489e-01 1.971290e-01 4.073375e-01 4.496857e-01 2.490622e-01 2.867222e-01 2.216753e-01 1.418338e-01 5.862322e-01 2.360598e-03 2.222368e-02 1.442997e-02 1.334379e-02 3.075121e-02 1.509877e-02 1.237872e-02 9.374863e-03 1.969880e-02 3.473146e-02 2.451438e-02 3.403961e-02 1.143018e-02 8.957154e-04 1.958214e-03 4.237784e-03 4.692901e-03 7.712653e-03 3.169601e-03 2.661370e-03 2.780924e-03 5.581177e-03 7.010331e-03 8.405016e-03 8.943464e-03 1.827132e-03
<GCONST> -7.259586e+01
<STATE> 5
<MEAN> 39
 1.066966e-01 -6.949127e-01 -6.172262e-01 -1.254230e+00 -1.486283e+00 -8.061179e-01 -1.249256e-01 -7.484807e-01 1.416547e-01 -6.423894e-01 -1.373538e-01 5.849832e-01 5.859508e+00 1.212812e-02 -3.088652e-01 -2.925439e-02 -1.208068e-01 -2.105645e-01 1.549630e-01 1.445927e-01 -5.921956e-02 8.054239e-02 6.809191e-02 2.368890e-01 2.923864e-01 1.919160e-01 -4.956367e-02 3.916064e-02 2.044478e-02 8.981171e-02 1.426377e-01 1.007442e-02 4.917631e-03 6.239877e-03 -2.808540e-02 -6.673280e-03 -6.459229e-02 -1.030211e-01 -6.284254e-02
<VARIANCE> 39
 7.295626e-02 6.578714e-01 2.467227e-01 7.849976e-01 1.831881e-01 4.301481e-01 6.874114e-01 5.816264e-01 3.481608e-01 4.650833e-01 1.473786e-01 2.071822e-01 8.312795e-01 7.322660e-03 2.036198e-02 2.633952e-02 3.662303e-02 5.458506e-02 2.340920e-02 1.887511e-02 1.511331e-02 3.298391e-02 4.436256e-02 3.271651e-02 4.001656e-02 1.768660e-02 1.704053e-03 7.775304e-03 5.677766e-03 3.031338e-03 4.576664e-03 5.345597e-03 5.658709e-03 2.739144e-03 6.280421e-03 8.969934e-03 3.989240e-03 6.716604e-03 3.365382e-03
<GCONST> -5.963284e+01
<STATE> 6
<MEAN> 39
 -3.988129e-01 -1.020120e+00 -8.622014e-01 -1.351649e+00 -1.053374e+00 -4.784180e-01 1.777464e-01 -7.682531e-01 2.906962e-01 -4.184594e-01 -9.265007e-03 3.684771e-01 5.835537e+00 -1.116244e-01 1.315457e-02 3.723963e-02 8.367661e-02 1.129948e-01 4.060368e-02 1.146440e-02 -1.000801e-02 -8.838586e-02 3.142169e-02 3.231591e-02 -5.520932e-02 -1.220492e-01 -1.821258e-02 3.471332e-02 1.039270e-02 2.400347e-02 2.758419e-02 -3.562986e-02 -2.303205e-02 3.524885e-03 -2.333155e-02 -1.266430e-03 -2.388047e-02 -4.125381e-02 -3.090121e-02
<VARIANCE> 39
 3.328515e-01 3.510354e-01 5.530906e-01 9.208862e-01 1.956329e-01 3.843101e-01 4.463795e-01 5.252413e-01 3.535066e-01 2.573278e-01 1.469464e-01 2.415264e-01 6.611596e-01 6.685723e-03 2.188557e-02 2.071508e-02 1.666452e-02 2.081414e-02 2.215863e-02 2.946354e-02 1.352402e-02 1.999960e-02 2.292812e-02 1.461742e-02 1.727367e-02 9.829226e-03 2.417239e-03 6.137760e-03 4.253468e-03 4.061494e-03 5.059114e-03 5.505485e-03 3.640899e-03 3.213946e-03 3.442156e-03 3.709838e-03 4.293620e-03 6.474718e-03 3.028922e-03
<GCONST> -6.572417e+01
<STATE> 7
<MEAN> 39
 -7.382017e-01 -9.194365e-01 -1.860894e-01 -7.432235e-01 -4.304815e-01 -6.836404e-01 2.369645e-03 -9.696947e-01 -4.480667e-01 -4.357872e-01 5.412706e-02 1.188311e-01 5.241666e+00 -6.250540e-02 1.871474e-02 3.611539e-02 5.052453e-02 6.012643e-02 -6.197693e-02 -5.469082e-02 -1.037721e-02 -5.158441e-02 -5.483658e-03 -4.111478e-02 -6.084486e-02 -4.369312e-02 3.024881e-02 3.733928e-03 -6.679102e-03 -2.219317e-02 -2.315103e-02 -2.277164e-03 -2.023943e-02 -1.279801e-03 2.529017e-02 -1.554500e-02 -1.291043e-02 8.591485e-03 2.246575e-02
<VARIANCE> 39
 6.432073e-01 6.315957e-01 6.395805e-01 1.006689e+00 5.811024e-01 4.410296e-01 5.698408e-01 6.779274e-01 3.642187e-01 2.854926e-01 3.588786e-01 2.396620e-01 9.863534e-01 8.458437e-02 7.646895e-02 5.193434e-02 5.754026e-02 5.503890e-02 4.115506e-02 5.195623e-02 3.967993e-02 4.541180e-02 3.871709e-02 3.457396e-02 3.120312e-02 4.642382e-02 1.364650e-02 1.433692e-02 9.670568e-03 9.794750e-03 1.015072e-02 8.339641e-03 1.012795e-02 7.690266e-03 8.181811e-03 7.767702e-03 7.138805e-03 6.130571e-03 9.232057e-03
<GCONST> -3.710697e+01
<TRANSP> 8
 0.000000e+00 8.636233e-01 1.363768e-01 0.000000e+00 0.000000e+00 0.000000e+00 0.000000e+00 0.000000e+00
 0.000000e+00 7.787126e-01 2.212874e-01 0.000000e+00 0.000000e+00 0.000000e+00 0.000000e+00 0.000000e+00
 0.000000e+00 0.000000e+00 6.647410e-01 3.229953e-01 1.226369e-02 0.000000e+00 0.000000e+00 0.000000e+00
 0.000000e+00 0.000000e+00 0.000000e+00 5.236807e-01 4.727862e-01 3.533079e-03 0.000000e+00 0.000000e+00
 0.000000e+00 0.000000e+00 0.000000e+00 0.000000e+00 6.119846e-01 3.880154e-01 0.000000e+00 0.000000e+00
 0.000000e+00 0.000000e+00 0.000000e+00 0.000000e+00 0.000000e+00 7.655859e-01 2.344141e-01 0.000000e+00
 0.000000e+00 0.000000e+00 0.000000e+00 0.000000e+00 0.000000e+00 0.000000e+00 7.854066e-01 2.145934e-01
 0.000000e+00 0.000000e+00 0.000000e+00 0.000000e+00 0.000000e+00 0.000000e+00 0.000000e+00 0.000000e+00
<ENDHMM>
