~o
<STREAMINFO> 1 39
<VECSIZE> 39<NULLD><MFCC_D_A_0><DIAGC>
~h "tambah"
<BEGINHMM>
<NUMSTATES> 6
<STATE> 2
<MEAN> 39
 -5.297074e+00 -7.704662e-01 7.186131e-01 -1.721354e+00 -3.279692e+00 -1.558586e+00 2.400658e+00 -6.015304e+00 -2.287513e+00 -4.617869e+00 2.905691e+00 6.979065e-01 6.722646e+01 1.395918e+00 3.864839e-02 -1.364639e-01 -1.206192e-01 -3.857414e-01 -4.061085e-02 1.681959e-01 -3.542250e-02 -7.188766e-02 -2.932984e-01 2.359189e-01 6.500785e-01 1.157803e+00 8.026608e-02 2.380048e-01 -3.437269e-02 -4.376469e-03 1.444271e-01 -3.400054e-02 -7.963710e-02 1.549212e-01 1.540050e-01 -3.747034e-02 -1.618634e-01 -9.586510e-03 -1.005978e-01
<VARIANCE> 39
 7.618689e+01 5.475220e+01 3.854105e+01 5.447324e+01 9.407381e+01 4.453828e+01 5.774313e+01 6.502834e+01 4.128256e+01 4.247954e+01 3.173711e+01 4.484306e+01 1.384444e+02 5.753478e+00 8.230603e+00 3.420358e+00 4.294003e+00 7.468756e+00 4.485693e+00 4.428871e+00 5.365521e+00 4.186080e+00 3.781002e+00 3.599407e+00 3.381379e+00 6.911642e+00 6.899500e-01 1.572794e+00 6.638709e-01 8.642139e-01 1.370343e+00 9.664271e-01 9.368816e-01 9.940114e-01 8.321173e-01 7.481756e-01 7.212865e-01 5.706276e-01 1.280759e+00
<GCONST> 1.429345e+02
<STATE> 3
<MEAN> 39
 3.398520e+00 5.043114e+00 -2.425950e+00 -2.367537e+00 -8.095674e+00 -3.541684e+00 1.321800e+00 -9.371930e-01 2.285246e+00 -5.695964e+00 -7.962846e-01 4.315592e+00 7.317778e+01 3.795737e-02 1.431820e+00 1.161089e-01 9.413463e-01 1.539773e+00 -3.796183e-01 -6.751562e-01 6.787790e-01 9.540401e-01 1.348279e-01 -1.491854e+00 -1.745177e+00 -9.893818e-01 -4.996587e-01 -5.280328e-02 2.213734e-01 4.755324e-01 5.092172e-01 3.054312e-01 2.794076e-02 -2.832438e-01 -8.388304e-02 1.142324e-01 -2.191550e-01 -6.246204e-01 -3.616845e-01
<VARIANCE> 39
 1.087075e+01 3.531343e+01 2.196596e+01 5.137473e+01 3.782094e+01 3.959959e+01 4.398515e+01 6.083504e+01 2.636012e+01 2.059742e+01 2.656989e+01 5.933642e+01 8.768391e+01 1.203717e+00 1.266486e+00 1.586301e+00 2.695846e+00 4.917927e+00 2.213542e+00 1.932120e+00 2.155305e+00 2.401199e+00 1.929284e+00 2.482136e+00 4.537253e+00 1.093060e+00 2.506723e-01 2.147214e-01 2.016633e-01 3.240559e-01 6.496696e-01 4.165680e-01 4.217210e-01 3.179767e-01 3.990289e-01 4.008723e-01 4.052972e-01 5.289162e-01 1.931006e-01
<GCONST> 1.137424e+02
<STATE> 4
<MEAN> 39
 3.738419e-01 1.321559e+01 8.259837e-02 7.646116e+00 4.724286e+00 -1.141231e+00 -2.521732e+00 1.128164e-01 6.328484e+00 -4.579442e+00 -1.071765e+01 -1.025360e+01 6.597715e+01 -1.334906e-01 5.030602e-01 3.065151e-01 1.731728e-01 3.094037e-01 1.790919e-01 -1.229153e-01 -1.883333e-01 -5.473871e-02 7.530914e-02 -3.027981e-01 -5.337479e-01 -3.311995e-01 1.688766e-01 -2.445387e-01 -8.077257e-02 -4.687370e-01 -7.188792e-01 -1.626260e-01 9.188841e-02 -3.553210e-02 -1.905411e-01 -1.021957e-01 4.616996e-01 7.451267e-01 2.898687e-01
<VARIANCE> 39
 7.125004e+00 1.358793e+01 1.423287e+01 1.465315e+01 1.594385e+01 2.845840e+01 1.418227e+01 5.121341e+01 2.930208e+01 2.156475e+01 2.142946e+01 1.687011e+01 7.371194e+01 2.774639e-01 4.087886e-01 4.745048e-01 1.856534e+00 3.676037e+00 1.168085e+00 8.218240e-01 7.998472e-01 1.439599e+00 9.932917e-01 2.632610e+00 4.291717e+00 4.257319e-01 4.530117e-02 1.302306e-01 1.192748e-01 1.867142e-01 3.688023e-01 2.254238e-01 1.535185e-01 1.775766e-01 2.592725e-01 2.422034e-01 2.634723e-01 4.230775e-01 7.796146e-02
<GCONST> 8.905717e+01
<STATE> 5
<MEAN> 39
 -3.389725e-02 -3.913504e-01 9.306669e-01 -5.334815e+00 -3.740884e+00 -2.416691e+00 6.272882e+00 -6.541857e+00 3.024298e+00 -6.991617e+00 -1.823031e+00 6.738316e-01 7.060328e+01 -2.882234e-01 -3.474402e-01 6.917596e-02 1.270910e-02 -2.829562e-02 9.837645e-02 1.042416e-01 -1.163024e-01 -2.436386e-01 4.675642e-02 3.091294e-01 3.374127e-01 -8.230083e-02 -3.831741e-02 2.767884e-02 1.022058e-02 6.834447e-02 1.104930e-01 1.587349e-02 -1.718523e-02 1.386062e-02 2.519807e-02 2.418345e-02 -6.176063e-02 -1.212665e-01 -3.340405e-02
<VARIANCE> 39
 4.936819e+01 7.617538e+01 6.792048e+01 1.262809e+02 8.427985e+01 6.347344e+01 8.017456e+01 1.179761e+02 5.747367e+01 4.332660e+01 5.669858e+01 5.969786e+01 1.105184e+02 1.562453e+00 3.419436e+00 2.136878e+00 3.187319e+00 5.673999e+00 3.139608e+00 2.768810e+00 3.122421e+00 3.148636e+00 2.884876e+00 3.191788e+00 4.372735e+00 2.425005e+00 2.046941e-01 4.550875e-01 3.493567e-01 4.677384e-01 7.629115e-01 5.820425e-01 4.636541e-01 5.504009e-01 5.683026e-01 4.824471e-01 4.602674e-01 5.340216e-01 3.244219e-01
<GCONST> 1.315322e+02
<TRANSP> 6
 0.000000e+00 6.930463e-01 3.069538e-01 0.000000e+00 0.000000e+00 0.000000e+00
 0.000000e+00 8.844598e-01 1.155402e-01 0.000000e+00 0.000000e+00 0.000000e+00
 0.000000e+00 0.000000e+00 7.532423e-01 1.833131e-01 6.344470e-02 0.000000e+00
 0.000000e+00 0.000000e+00 0.000000e+00 8.858653e-01 1.141347e-01 0.000000e+00
 0.000000e+00 0.000000e+00 0.000000e+00 0.000000e+00 9.568519e-01 4.314811e-02
 0.000000e+00 0.000000e+00 0.000000e+00 0.000000e+00 0.000000e+00 0.000000e+00
<ENDHMM>
