~o
<STREAMINFO> 1 39
<VECSIZE> 39<NULLD><MFCC_D_A_0><DIAGC>
~h "tujuh"
<BEGINHMM>
<NUMSTATES> 6
<STATE> 2
<MEAN> 39
 -1.046455e+00 1.318859e-01 1.294022e+00 9.483861e+00 2.731215e+00 1.601488e-01 -4.894794e+00 1.922874e+00 -6.535265e-01 -1.118830e+01 8.172967e-01 2.753178e+00 5.529853e+01 3.483857e-01 7.356504e-02 3.973979e-02 4.021781e-02 5.052359e-02 9.781313e-03 -5.926753e-02 1.386030e-02 -2.878040e-02 -1.229574e-01 -8.365708e-02 4.272199e-02 3.156707e-01 3.614992e-02 9.326474e-02 4.751586e-03 1.297689e-02 4.113872e-02 7.323218e-02 -2.883060e-03 -1.700703e-02 -8.938729e-03 3.606989e-03 -3.756742e-02 -3.939221e-02 -4.168781e-02
<VARIANCE> 39
 7.034708e+01 8.791193e+01 5.805676e+01 7.016785e+01 6.405505e+01 5.798466e+01 6.453759e+01 6.953607e+01 4.987387e+01 6.220068e+01 3.944625e+01 3.466703e+01 9.971420e+01 4.193326e+00 1.095660e+01 4.921186e+00 4.464958e+00 6.772614e+00 5.126265e+00 6.865972e+00 5.697232e+00 4.215600e+00 6.185110e+00 4.183239e+00 3.216379e+00 4.738248e+00 7.132645e-01 2.227762e+00 8.600542e-01 6.992756e-01 1.291510e+00 9.834118e-01 1.240835e+00 1.071002e+00 8.100203e-01 1.141308e+00 8.156909e-01 6.142933e-01 8.056073e-01
<GCONST> 1.462507e+02
<STATE> 3
<MEAN> 39
 -1.339978e+00 -6.999868e+00 1.470539e+01 -8.359738e+00 5.993728e+00 -1.655141e+01 1.130790e+01 -1.198118e+01 -2.986841e+00 -1.442047e+01 4.601848e-01 -6.725821e+00 7.583594e+01 4.042086e-02 -3.363569e-02 -2.972859e-01 -2.068197e-01 -4.322192e-02 9.461419e-02 1.483107e-01 -8.351719e-02 1.617674e-01 1.184992e-01 -1.131770e-01 2.361870e-01 -4.339491e-03 -1.511461e-02 -4.949367e-02 -5.714562e-02 5.066368e-03 1.492668e-02 6.571684e-03 -7.180273e-03 -1.238112e-02 -1.381776e-02 3.682142e-02 3.601952e-02 1.747952e-02 2.142901e-02
<VARIANCE> 39
 3.431373e+01 4.290326e+01 4.116557e+01 6.772422e+01 1.212237e+02 1.047188e+02 7.379747e+01 5.404428e+01 8.395641e+01 3.577724e+01 4.880851e+01 3.352861e+01 3.450258e+01 3.142996e+00 3.931316e+00 3.074001e+00 2.771245e+00 5.575912e+00 4.389829e+00 5.087840e+00 4.704642e+00 8.855426e+00 3.626402e+00 3.450686e+00 2.331128e+00 3.227500e+00 5.989441e-01 6.452703e-01 5.770996e-01 4.439519e-01 6.918257e-01 6.273435e-01 9.828338e-01 8.180661e-01 1.602736e+00 6.911699e-01 5.786084e-01 4.299808e-01 4.865367e-01
<GCONST> 1.359747e+02
<STATE> 4
<MEAN> 39
 -5.826961e+00 2.206711e+00 3.684163e+00 1.086024e+01 9.411708e+00 1.105622e+00 -5.568136e+00 -5.118858e+00 -3.518029e+00 -7.492171e+00 -2.819113e-01 -5.069182e-01 6.880849e+01 2.576371e-01 9.066119e-02 6.688952e-03 -1.102303e-01 -5.337293e-02 1.335524e-01 -6.200360e-02 5.609257e-03 -4.619389e-02 -1.763926e-01 -1.564500e-01 4.244437e-02 1.275388e-01 -5.455396e-02 -6.941594e-03 -2.509393e-02 -7.853820e-02 -1.133949e-01 -5.520517e-02 6.154545e-02 5.886136e-02 5.397357e-02 3.624550e-02 -1.061674e-02 -1.380264e-03 -4.259598e-02
<VARIANCE> 39
 3.683512e+01 7.784524e+01 4.284827e+01 7.110953e+01 6.451000e+01 6.559876e+01 6.013642e+01 5.355433e+01 4.198887e+01 4.376636e+01 2.506953e+01 2.254250e+01 3.922630e+01 3.589495e+00 6.450937e+00 2.889158e+00 2.387926e+00 3.125329e+00 3.211532e+00 3.950082e+00 4.129421e+00 3.786455e+00 2.469778e+00 1.835317e+00 1.662063e+00 2.108528e+00 5.578393e-01 1.026868e+00 5.769460e-01 4.399727e-01 5.044464e-01 6.296021e-01 6.889331e-01 7.764637e-01 6.861117e-01 4.284155e-01 3.433108e-01 3.018419e-01 3.364238e-01
<GCONST> 1.275978e+02
<STATE> 5
<MEAN> 39
 -3.221955e+00 6.652589e+00 -1.533275e-01 8.872695e-01 -1.358590e+00 -4.808733e+00 -3.240763e+00 -1.969877e+00 -2.602007e+00 -9.983168e+00 -4.822186e+00 -2.525289e+00 6.883681e+01 -3.346097e-01 -3.070854e-02 -2.470201e-01 -1.340517e-01 -2.599563e-01 -1.405184e-01 2.300935e-01 8.426971e-02 2.060342e-01 3.810301e-01 1.314474e-01 4.322739e-02 -3.336201e-01 -2.179793e-02 -8.577527e-02 -1.300736e-02 2.855685e-02 6.706697e-02 2.032687e-02 -2.024014e-02 -6.477749e-02 -3.032697e-02 3.157897e-02 5.977232e-02 3.560433e-02 3.121458e-02
<VARIANCE> 39
 4.034273e+01 3.539445e+01 3.167696e+01 4.736695e+01 4.163242e+01 5.051429e+01 4.421565e+01 3.574697e+01 3.680982e+01 5.024886e+01 2.731449e+01 2.730013e+01 5.483223e+01 5.121982e-01 9.244450e-01 9.470246e-01 1.072605e+00 1.355660e+00 1.957536e+00 1.521254e+00 1.277412e+00 1.762904e+00 1.868038e+00 1.366843e+00 1.039326e+00 5.583729e-01 5.107486e-02 1.096452e-01 1.323373e-01 1.763328e-01 2.196212e-01 3.195343e-01 2.424607e-01 2.385609e-01 2.517275e-01 2.993357e-01 2.611446e-01 2.034111e-01 4.312009e-02
<GCONST> 9.816720e+01
<TRANSP> 6
 0.000000e+00 7.924790e-01 2.075210e-01 0.000000e+00 0.000000e+00 0.000000e+00
 0.000000e+00 9.083413e-01 0.000000e+00 9.165876e-02 0.000000e+00 0.000000e+00
 0.000000e+00 0.000000e+00 9.741777e-01 1.867166e-02 7.150717e-03 0.000000e+00
 0.000000e+00 0.000000e+00 0.000000e+00 9.300525e-01 3.599053e-02 3.395702e-02
 0.000000e+00 0.000000e+00 0.000000e+00 0.000000e+00 9.432874e-01 5.671258e-02
 0.000000e+00 0.000000e+00 0.000000e+00 0.000000e+00 0.000000e+00 0.000000e+00
<ENDHMM>
