~o
<STREAMINFO> 1 39
<VECSIZE> 39<NULLD><MFCC_D_A_0><DIAGC>
~h "tujuh"
<BEGINHMM>
<NUMSTATES> 6
<STATE> 2
<MEAN> 39
 4.890136e-01 -1.261092e+00 1.483131e+00 1.233620e+01 1.996911e+00 7.519919e-01 -5.786041e+00 3.244513e+00 -1.238518e+00 -1.140316e+01 1.698353e+00 2.979199e+00 5.086893e+01 4.463918e-01 -4.225637e-01 4.226819e-01 5.368798e-01 1.870161e-01 2.319786e-01 -4.628786e-01 -1.069805e-01 2.471347e-01 -2.773172e-01 1.655348e-01 1.723571e-01 5.452766e-01 5.464097e-02 1.086447e-01 -2.950836e-02 -5.206976e-02 6.216200e-02 6.285732e-02 -7.785330e-02 -9.233112e-02 -1.691490e-02 -3.519240e-02 -3.650839e-02 7.917295e-03 -7.889238e-03
<VARIANCE> 39
 3.060423e+01 1.060032e+02 4.689281e+01 7.267038e+01 6.800095e+01 4.189511e+01 6.040585e+01 5.202277e+01 3.527875e+01 5.960554e+01 3.750776e+01 3.275534e+01 4.474243e+01 3.118233e+00 1.614537e+01 4.611381e+00 4.386266e+00 8.485634e+00 4.646548e+00 8.279890e+00 6.272484e+00 3.915700e+00 7.727577e+00 4.988921e+00 3.770682e+00 5.476079e+00 4.813237e-01 3.564736e+00 9.983001e-01 8.024426e-01 1.686192e+00 9.070602e-01 1.468304e+00 1.173801e+00 8.250700e-01 1.490248e+00 9.859030e-01 7.666026e-01 1.017191e+00
<GCONST> 1.462948e+02
<STATE> 3
<MEAN> 39
 -6.815551e+00 -1.462174e+00 1.666241e+00 1.515763e+01 1.599022e+01 3.443723e+00 -8.626426e+00 -2.422120e+00 -4.508935e-01 -1.793001e+00 2.552931e+00 8.754968e-01 6.857558e+01 2.101126e-01 -3.075869e-01 3.420737e-01 2.900033e-01 6.136867e-01 3.615606e-01 -5.825107e-01 -4.596635e-01 -1.225952e-01 -2.248601e-01 4.302016e-02 7.422502e-02 4.227343e-01 8.044726e-02 9.105936e-02 -1.678519e-01 -1.297854e-01 -1.324942e-01 1.403588e-02 5.365371e-02 2.361126e-02 -8.831847e-02 -5.577575e-02 -5.522304e-02 4.393280e-02 -5.000159e-02
<VARIANCE> 39
 2.463978e+01 5.044957e+01 4.150846e+01 2.409901e+01 3.222458e+01 3.237268e+01 4.628024e+01 4.921027e+01 3.250869e+01 2.301643e+01 1.580297e+01 1.848559e+01 1.494000e+01 3.519051e+00 5.013680e+00 3.676975e+00 2.359020e+00 3.474783e+00 2.034501e+00 4.945091e+00 3.800467e+00 3.875584e+00 2.280465e+00 1.594043e+00 1.155293e+00 1.852723e+00 5.275772e-01 9.359893e-01 7.547476e-01 4.385509e-01 7.007893e-01 4.106558e-01 9.193156e-01 7.967346e-01 5.757859e-01 3.907852e-01 3.337197e-01 2.186852e-01 2.773612e-01
<GCONST> 1.199570e+02
<STATE> 4
<MEAN> 39
 3.490083e+00 -3.250428e+00 3.898327e+00 1.025541e+01 6.133382e+00 7.547040e+00 -1.305691e+01 -1.889073e+00 1.044506e+00 -1.542091e+01 1.337994e-04 5.914203e+00 6.390290e+01 5.300317e-01 1.527185e+00 -9.340167e-01 -1.617061e+00 -1.153411e+00 -3.222468e-01 1.257208e+00 1.663503e+00 2.686469e-01 -6.187450e-01 -9.712446e-01 9.668256e-02 -4.319206e-01 -4.710128e-01 1.181947e-03 9.383982e-02 1.249549e-01 -9.712212e-02 -3.188825e-01 5.783600e-01 4.669038e-01 2.767556e-01 4.675923e-01 -5.490683e-03 -3.206388e-01 -2.847489e-01
<VARIANCE> 39
 1.795253e+01 3.289669e+01 3.115913e+01 3.284472e+01 9.139058e+01 3.153911e+01 3.380079e+01 8.719787e+01 8.204840e+01 4.138615e+01 2.779493e+01 2.422351e+01 8.409205e+01 1.467602e+00 1.429769e+00 2.703715e+00 2.172071e+00 4.459537e+00 3.062544e+00 4.370265e+00 3.649201e+00 2.695743e+00 3.366962e+00 2.301883e+00 2.516011e+00 8.446437e-01 1.707136e-01 2.784595e-01 5.639977e-01 6.515983e-01 8.905870e-01 4.980782e-01 6.657249e-01 9.677968e-01 7.801369e-01 5.689614e-01 4.793919e-01 4.018466e-01 1.135173e-01
<GCONST> 1.217722e+02
<STATE> 5
<MEAN> 39
 -1.802957e+00 5.717811e+00 -2.304506e+00 5.398833e+00 3.274519e+00 1.281183e+00 -2.199678e+00 3.369857e+00 5.908963e-02 -6.659951e+00 -3.062062e+00 1.293081e+00 6.022114e+01 -5.119085e-01 2.588924e-01 -2.525029e-01 -2.262978e-01 -3.683150e-01 -2.294869e-01 5.441320e-01 -1.027012e-01 -1.675219e-02 6.340294e-01 -7.389352e-02 -1.418919e-01 -5.587326e-01 4.487134e-02 -1.872580e-01 7.756799e-02 8.403877e-03 1.988843e-02 9.741580e-02 -1.911952e-01 -1.700320e-01 -1.492492e-02 -6.303194e-02 1.012172e-01 1.146289e-01 1.360602e-01
<VARIANCE> 39
 3.904240e+01 3.781302e+01 4.622395e+01 5.351085e+01 5.045171e+01 4.324287e+01 5.217718e+01 6.421696e+01 2.834028e+01 3.961771e+01 1.979919e+01 2.456556e+01 1.304366e+02 1.234843e+00 2.167396e+00 2.867278e+00 1.650524e+00 2.702751e+00 3.008423e+00 3.275020e+00 2.876252e+00 2.484838e+00 2.827709e+00 2.029270e+00 2.209072e+00 1.400138e+00 1.858505e-01 2.436069e-01 4.581995e-01 2.829969e-01 4.250722e-01 5.252021e-01 5.987321e-01 5.359121e-01 3.811389e-01 4.657015e-01 4.217685e-01 3.455416e-01 1.726605e-01
<GCONST> 1.181528e+02
<TRANSP> 6
 0.000000e+00 5.711591e-01 4.288408e-01 0.000000e+00 0.000000e+00 0.000000e+00
 0.000000e+00 9.431077e-01 7.091308e-03 4.980103e-02 0.000000e+00 0.000000e+00
 0.000000e+00 0.000000e+00 9.504526e-01 4.954744e-02 0.000000e+00 0.000000e+00
 0.000000e+00 0.000000e+00 0.000000e+00 8.182857e-01 1.646790e-01 1.703522e-02
 0.000000e+00 0.000000e+00 0.000000e+00 0.000000e+00 9.141257e-01 8.587424e-02
 0.000000e+00 0.000000e+00 0.000000e+00 0.000000e+00 0.000000e+00 0.000000e+00
<ENDHMM>
