~o
<STREAMINFO> 1 39
<VECSIZE> 39<NULLD><MFCC_D_A_0><DIAGC>
~h "dua"
<BEGINHMM>
<NUMSTATES> 6
<STATE> 2
<MEAN> 39
 -3.476539e+00 6.503679e+00 1.204657e+00 4.522753e+00 6.183429e+00 -7.915429e-01 -1.903457e+00 -1.020356e+00 4.488281e-01 -6.546592e+00 -2.404670e+00 -1.430155e+00 6.002487e+01 1.071519e+00 1.962299e-01 2.075289e-01 -3.109680e-01 -1.422093e-02 -5.270164e-03 -7.068668e-01 -7.908512e-02 -9.142736e-02 -9.751052e-01 -6.824579e-01 -3.036382e-01 8.870252e-01 -2.130141e-02 -5.928543e-02 1.087508e-01 -1.267007e-01 -3.481191e-01 -1.736690e-01 -1.020631e-02 1.265479e-01 9.461804e-02 -5.507218e-02 -3.581044e-02 -3.776374e-05 2.056506e-02
<VARIANCE> 39
 5.514367e+01 6.360612e+01 5.420341e+01 6.336039e+01 7.418384e+01 7.329279e+01 6.634175e+01 6.095898e+01 5.735350e+01 6.063049e+01 3.585033e+01 3.645970e+01 1.224432e+02 3.320721e+00 5.514224e+00 5.265408e+00 4.577782e+00 5.394142e+00 5.123403e+00 5.534656e+00 3.630391e+00 5.953368e+00 5.230733e+00 3.941099e+00 3.418747e+00 3.038122e+00 4.950061e-01 9.559720e-01 1.091873e+00 7.449594e-01 8.286020e-01 8.890895e-01 1.151896e+00 7.443988e-01 9.807780e-01 1.038709e+00 7.887154e-01 5.319963e-01 4.501230e-01
<GCONST> 1.415224e+02
<STATE> 3
<MEAN> 39
 2.367646e+00 -4.694547e+00 8.881199e+00 -1.378717e+01 -5.270098e+00 -1.877622e+01 1.502693e+01 -1.096666e+01 -2.856213e+00 -1.031776e+01 -3.135092e+00 -2.782516e+00 7.603224e+01 -4.664528e-02 -2.144687e-02 -2.103436e-01 7.015054e-02 5.474516e-02 1.855874e-01 4.565097e-02 -1.747831e-02 2.137611e-01 1.873181e-01 9.146683e-02 2.516067e-01 -1.887422e-01 -1.870015e-02 2.419908e-02 -2.284695e-02 3.190713e-02 1.242404e-01 6.599008e-02 -5.604232e-02 -2.312184e-02 3.423486e-02 -1.829303e-02 1.634035e-02 -1.347637e-04 -3.032116e-02
<VARIANCE> 39
 1.433069e+01 6.894380e+01 6.715961e+01 4.493761e+01 1.019108e+02 1.053905e+02 7.071764e+01 5.267097e+01 7.962983e+01 3.742009e+01 5.193871e+01 4.388906e+01 5.086447e+01 7.114841e-01 2.421336e+00 2.169050e+00 1.497882e+00 4.794711e+00 4.229642e+00 2.292907e+00 3.083121e+00 3.274194e+00 2.239394e+00 2.753606e+00 2.449081e+00 2.503451e+00 1.020268e-01 3.333677e-01 3.363417e-01 2.356296e-01 5.771196e-01 6.900637e-01 3.327672e-01 5.667806e-01 6.076321e-01 3.876017e-01 4.304711e-01 4.393820e-01 3.143631e-01
<GCONST> 1.224831e+02
<STATE> 4
<MEAN> 39
 2.737639e+00 7.674606e+00 2.489284e+00 2.367128e+00 -5.085471e+00 -4.916643e+00 -5.205116e+00 5.242390e+00 6.246411e+00 -1.192432e+01 -6.810161e+00 2.601478e+00 5.869074e+01 -1.833150e-01 1.505931e-01 -2.109493e-02 6.049719e-02 -8.268572e-02 -2.530425e-01 3.257730e-01 8.768794e-02 -3.014095e-01 3.385648e-01 3.636726e-02 -2.553869e-01 -1.928668e-01 -3.177451e-02 -1.110394e-02 -5.142577e-02 2.978931e-02 7.441780e-02 7.395988e-03 1.837437e-03 -6.243460e-02 -3.484648e-02 1.099653e-01 7.980990e-02 -1.822882e-02 -3.102132e-02
<VARIANCE> 39
 4.143085e+01 4.639046e+01 4.764487e+01 4.834620e+01 6.873761e+01 8.371614e+01 8.201633e+01 7.201408e+01 1.074034e+02 6.435384e+01 3.983579e+01 5.887101e+01 1.071086e+02 1.931489e+00 3.065030e+00 3.535938e+00 2.653301e+00 4.911095e+00 4.851958e+00 3.840379e+00 3.519219e+00 4.591272e+00 3.887047e+00 3.079753e+00 3.280624e+00 2.171528e+00 2.916190e-01 5.147977e-01 5.651450e-01 5.065051e-01 7.179793e-01 8.826442e-01 6.617532e-01 5.545678e-01 8.011166e-01 7.181756e-01 6.261922e-01 6.048467e-01 2.845251e-01
<GCONST> 1.339725e+02
<STATE> 5
<MEAN> 39
 -4.584613e-01 6.343330e+00 -1.978670e+00 -3.364636e-01 -5.031448e+00 -9.069397e+00 -4.450301e+00 1.372341e+00 3.330078e-01 -5.988956e+00 -1.711297e+00 -6.166019e-02 7.029443e+01 -1.475895e-01 -2.021432e-01 -2.190599e-01 -9.508289e-02 -9.400481e-02 9.842587e-03 8.558374e-02 -4.844825e-02 -6.010418e-02 6.976845e-02 1.185888e-01 2.104982e-01 -8.998559e-02 -2.793406e-02 -8.160632e-03 -5.331025e-03 1.943178e-02 5.236346e-02 5.630103e-02 1.939575e-02 -2.704890e-02 -1.915246e-02 -6.422282e-03 -1.679837e-03 6.034885e-03 -1.915180e-02
<VARIANCE> 39
 3.112554e+01 7.575735e+01 7.812504e+01 3.601540e+01 4.423721e+01 6.293385e+01 5.002249e+01 4.616652e+01 3.912449e+01 4.915210e+01 3.104067e+01 3.713185e+01 3.841066e+01 6.223007e-01 1.104878e+00 1.108581e+00 9.951832e-01 1.436462e+00 1.933605e+00 1.825304e+00 1.388754e+00 1.400159e+00 1.700887e+00 1.373331e+00 1.281998e+00 8.012863e-01 6.626602e-02 1.374134e-01 1.630646e-01 1.416290e-01 1.803272e-01 2.576315e-01 3.023459e-01 2.518954e-01 2.400128e-01 2.853481e-01 2.437350e-01 2.116386e-01 7.266090e-02
<GCONST> 1.018297e+02
<TRANSP> 6
 0.000000e+00 7.359498e-01 2.640502e-01 0.000000e+00 0.000000e+00 0.000000e+00
 0.000000e+00 8.490623e-01 1.526076e-02 1.356770e-01 0.000000e+00 0.000000e+00
 0.000000e+00 0.000000e+00 9.484665e-01 3.053291e-02 2.100059e-02 0.000000e+00
 0.000000e+00 0.000000e+00 0.000000e+00 8.869392e-01 5.646683e-02 5.659404e-02
 0.000000e+00 0.000000e+00 0.000000e+00 0.000000e+00 9.585553e-01 4.144473e-02
 0.000000e+00 0.000000e+00 0.000000e+00 0.000000e+00 0.000000e+00 0.000000e+00
<ENDHMM>
