~o
<STREAMINFO> 1 39
<VECSIZE> 39<NULLD><PLP_D_A_0><DIAGC>
~h "dua"
<BEGINHMM>
<NUMSTATES> 8
<STATE> 2
<MEAN> 39
 -5.599800e-01 -2.699841e-01 -4.157453e-01 -2.033015e-01 3.613764e-02 -7.217212e-01 -8.026640e-01 -5.460864e-01 -2.879030e-01 -8.306197e-01 -3.487311e-01 -1.534259e-01 4.733717e+00 1.681292e-01 4.617006e-02 5.018618e-02 -8.622430e-02 -9.499694e-02 -2.450928e-02 -8.936502e-02 1.546509e-02 2.276372e-02 -1.232865e-01 -8.271398e-02 -3.445028e-02 1.484048e-01 -1.131923e-02 -2.600918e-02 1.068309e-02 -3.650514e-02 -8.671733e-02 -2.682411e-02 1.438786e-02 2.489988e-02 2.661071e-02 1.020998e-02 1.068890e-02 1.695317e-02 3.292394e-03
<VARIANCE> 39
 3.844337e-01 5.428373e-01 4.128681e-01 4.918124e-01 5.250936e-01 5.059721e-01 4.539102e-01 4.323600e-01 4.590983e-01 3.274552e-01 2.998703e-01 2.576221e-01 8.885450e-01 3.568943e-02 6.174173e-02 3.771072e-02 5.124735e-02 7.614991e-02 5.221833e-02 4.456559e-02 3.137488e-02 5.106988e-02 3.708953e-02 3.520562e-02 3.849107e-02 3.351529e-02 6.324699e-03 1.061152e-02 8.857017e-03 8.277726e-03 8.698436e-03 9.468728e-03 7.816153e-03 6.721056e-03 8.680231e-03 8.714705e-03 6.470692e-03 6.389007e-03 6.600235e-03
<GCONST> -4.273870e+01
<STATE> 3
<MEAN> 39
 -1.460301e-01 4.753447e-02 -1.044204e-01 -8.623644e-01 -1.199404e+00 -1.584862e+00 -7.015274e-01 -3.135583e-01 -2.500968e-01 -8.202066e-01 -5.044544e-01 -2.655982e-01 5.640346e+00 5.847355e-02 -8.860290e-02 -5.442052e-02 -7.864050e-02 -1.930773e-01 -1.318852e-01 2.439416e-02 7.012718e-02 3.489945e-02 2.741024e-02 5.751537e-02 7.142235e-02 7.751827e-02 -2.184006e-02 -2.405963e-02 -3.314329e-02 2.795990e-02 5.725490e-02 3.561256e-02 2.164322e-02 -1.453951e-02 -1.089676e-02 1.379267e-02 2.767331e-02 1.688776e-02 -1.771707e-02
<VARIANCE> 39
 7.751431e-02 7.026554e-01 4.516365e-01 5.626093e-01 4.088106e-01 4.877516e-01 6.476157e-01 3.242997e-01 3.574430e-01 2.634656e-01 1.706553e-01 2.041153e-01 2.386763e-01 3.884849e-03 3.141628e-02 2.927896e-02 1.854861e-02 2.739024e-02 3.694119e-02 2.622543e-02 1.719538e-02 2.339607e-02 2.903584e-02 1.745043e-02 2.095785e-02 1.194175e-02 1.527584e-03 5.447740e-03 3.368123e-03 4.723039e-03 5.508923e-03 4.582849e-03 4.823797e-03 3.211984e-03 5.004653e-03 6.998616e-03 3.387459e-03 4.565566e-03 3.633481e-03
<GCONST> -6.505479e+01
<STATE> 4
<MEAN> 39
 3.035609e-01 -6.055423e-01 2.281462e-01 -6.403601e-01 -1.756442e+00 -1.795091e-01 -1.303925e+00 1.074421e-01 9.852294e-01 -1.735582e+00 -1.076751e+00 5.361212e-01 4.198389e+00 -2.183599e-02 1.773924e-02 -2.034882e-02 2.511167e-02 -6.469232e-02 -9.719067e-02 1.467510e-01 1.014590e-01 -3.596225e-02 4.336240e-02 2.084166e-02 5.708061e-03 -3.539670e-02 -3.446216e-02 3.939838e-02 -6.250457e-02 4.469710e-02 1.081232e-01 -3.986723e-02 2.733553e-02 7.150118e-03 -6.370322e-02 5.353566e-02 2.186541e-02 -3.854446e-02 -5.426364e-02
<VARIANCE> 39
 3.371719e-02 2.541613e-01 2.230881e-01 1.766673e-01 2.705198e-01 1.779479e-01 3.346379e-01 2.538547e-01 2.421478e-01 2.023513e-01 1.899153e-01 2.489596e-01 7.966493e-02 8.183493e-03 3.937753e-02 5.723771e-02 3.974346e-02 1.042520e-01 3.969082e-02 3.346904e-02 4.505029e-02 4.421200e-02 3.303061e-02 2.783046e-02 3.679632e-02 2.462421e-02 2.093403e-03 8.142790e-03 4.850675e-03 5.960909e-03 9.925280e-03 8.244700e-03 6.136386e-03 1.008540e-02 6.149317e-03 5.328495e-03 5.238687e-03 7.469439e-03 2.973604e-03
<GCONST> -6.046524e+01
<STATE> 5
<MEAN> 39
 2.560186e-02 -1.147569e+00 -6.461706e-01 -1.378428e+00 -1.253022e+00 -1.922562e+00 6.977776e-02 -1.975636e-01 -2.583578e-01 -5.002179e-01 6.648529e-02 3.340628e-01 6.156709e+00 -3.148767e-02 -1.461093e-02 -6.837339e-02 4.020273e-03 2.819663e-02 7.589132e-02 7.282923e-02 -6.572316e-03 1.595985e-02 3.599983e-02 2.075852e-02 4.002643e-02 -4.138281e-02 -2.666291e-02 4.548552e-02 2.606183e-02 1.872017e-02 3.277559e-02 2.985825e-02 -1.717978e-02 -1.833963e-02 -3.290160e-03 -1.042565e-02 -2.040840e-02 -2.581995e-02 -4.784229e-02
<VARIANCE> 39
 5.282679e-02 7.140347e-01 1.216885e+00 7.475243e-01 3.321004e-01 7.626918e-01 1.156968e+00 5.656843e-01 4.583175e-01 3.012642e-01 2.746800e-01 2.025424e-01 3.153477e-01 5.486669e-03 3.072156e-02 1.906100e-02 1.334822e-02 1.708584e-02 2.169237e-02 1.813873e-02 1.314386e-02 1.895018e-02 1.582507e-02 1.768490e-02 1.456799e-02 2.221820e-02 1.047275e-03 4.269459e-03 3.518110e-03 2.940815e-03 5.190352e-03 4.690017e-03 3.661822e-03 2.983948e-03 3.878962e-03 3.692730e-03 3.064652e-03 2.779486e-03 2.841055e-03
<GCONST> -6.743938e+01
<STATE> 6
<MEAN> 39
 -2.298610e-01 -5.943015e-01 -3.668223e-01 -1.162061e+00 -6.973652e-01 -1.334873e+00 1.914451e-01 -4.597833e-01 -3.176759e-01 -7.478678e-01 -2.343390e-01 1.457354e-01 5.101092e+00 -1.061703e-01 7.538637e-02 -5.435697e-03 4.023211e-02 1.617044e-01 3.781728e-02 -3.827899e-02 -5.471884e-02 -7.758414e-02 5.823039e-02 2.437652e-02 -4.922814e-02 -1.361664e-01 5.440326e-03 -5.102002e-02 7.393876e-03 -2.576150e-02 -2.813831e-02 -3.532615e-03 -1.282492e-02 -1.653868e-02 6.501434e-04 2.992172e-03 5.334227e-03 1.720308e-02 4.910225e-02
<VARIANCE> 39
 1.892021e-01 6.577874e-01 6.146032e-01 6.921095e-01 6.058263e-01 7.749731e-01 7.921292e-01 7.572527e-01 4.058278e-01 2.313758e-01 3.529842e-01 2.738508e-01 1.066977e+00 2.788642e-02 4.724807e-02 4.053995e-02 3.936467e-02 6.571810e-02 7.098125e-02 3.426627e-02 3.998133e-02 4.450554e-02 2.820517e-02 3.353307e-02 3.468911e-02 6.517378e-02 4.486714e-03 8.061574e-03 8.262487e-03 6.074328e-03 1.465024e-02 1.437989e-02 6.103172e-03 8.110913e-03 7.356471e-03 4.957955e-03 6.705066e-03 6.102238e-03 9.638257e-03
<GCONST> -4.183705e+01
<STATE> 7
<MEAN> 39
 -5.790317e-01 -2.164294e-01 -7.477338e-01 -7.824985e-01 -8.687773e-01 -1.141841e+00 -5.852726e-01 -4.176631e-01 -3.793106e-01 -7.579780e-01 -3.073771e-01 1.078346e-01 4.962871e+00 -1.805117e-02 -3.780218e-02 1.847991e-04 1.797294e-02 5.094046e-02 2.824896e-02 -2.977363e-02 -4.591021e-02 -2.631188e-02 -1.083029e-02 -4.552778e-04 5.489953e-03 6.371235e-03 2.234451e-02 -9.690194e-03 6.074850e-03 -6.964662e-03 -2.209462e-02 -1.471824e-02 -3.214346e-03 9.694270e-03 2.175433e-02 -1.713330e-03 2.339689e-03 6.092848e-03 2.644126e-02
<VARIANCE> 39
 4.928028e-01 4.740303e-01 4.427980e-01 4.789704e-01 4.050194e-01 5.272689e-01 4.039218e-01 3.272988e-01 2.550004e-01 3.955484e-01 3.114319e-01 1.923730e-01 8.346014e-01 3.349796e-02 2.868804e-02 3.298723e-02 2.219317e-02 4.146919e-02 4.948353e-02 2.602122e-02 2.253873e-02 2.874206e-02 2.991846e-02 2.464488e-02 1.953733e-02 2.888636e-02 5.881541e-03 5.591869e-03 6.633631e-03 4.726719e-03 7.790820e-03 1.143480e-02 6.005366e-03 4.125296e-03 6.321702e-03 6.375997e-03 4.740748e-03 4.745862e-03 5.206903e-03
<GCONST> -5.292667e+01
<TRANSP> 8
 0.000000e+00 6.099818e-01 3.900182e-01 0.000000e+00 0.000000e+00 0.000000e+00 0.000000e+00 0.000000e+00
 0.000000e+00 7.358778e-01 1.754550e-01 8.866718e-02 0.000000e+00 0.000000e+00 0.000000e+00 0.000000e+00
 0.000000e+00 0.000000e+00 7.237520e-01 3.498132e-03 2.727499e-01 0.000000e+00 0.000000e+00 0.000000e+00
 0.000000e+00 0.000000e+00 0.000000e+00 8.350292e-01 0.000000e+00 1.649708e-01 0.000000e+00 0.000000e+00
 0.000000e+00 0.000000e+00 0.000000e+00 0.000000e+00 8.043141e-01 1.956858e-01 0.000000e+00 0.000000e+00
 0.000000e+00 0.000000e+00 0.000000e+00 0.000000e+00 0.000000e+00 6.153849e-01 3.846151e-01 0.000000e+00
 0.000000e+00 0.000000e+00 0.000000e+00 0.000000e+00 0.000000e+00 0.000000e+00 7.361323e-01 2.638677e-01
 0.000000e+00 0.000000e+00 0.000000e+00 0.000000e+00 0.000000e+00 0.000000e+00 0.000000e+00 0.000000e+00
<ENDHMM>
