~o
<STREAMINFO> 1 39
<VECSIZE> 39<NULLD><PLP_D_A_0><DIAGC>
~h "kurang"
<BEGINHMM>
<NUMSTATES> 8
<STATE> 2
<MEAN> 39
 -3.638779e-01 -7.251734e-01 4.510400e-01 -1.359359e+00 -1.618869e+00 -2.024895e+00 -2.781115e-01 -1.790772e-01 -3.076755e-01 -4.138696e-01 -1.537273e-01 1.649401e-01 5.466590e+00 1.421497e-01 -3.051339e-02 -5.532397e-02 5.642023e-02 1.637416e-02 -6.115373e-02 -6.373681e-02 -8.442232e-03 -7.584969e-02 -7.638433e-02 -7.331914e-02 3.460916e-03 1.051199e-01 -2.305160e-02 -2.967739e-02 -7.738528e-02 -1.792989e-02 7.709978e-02 6.167189e-02 6.475179e-03 -3.203692e-02 1.314650e-02 1.359636e-02 2.355696e-02 1.998158e-02 -4.396920e-03
<VARIANCE> 39
 2.462865e-01 2.691666e-01 1.481487e+00 7.324414e-01 5.570919e-01 1.750282e+00 8.871138e-01 2.634891e-01 2.630029e-01 5.126871e-01 2.230194e-01 1.789718e-01 4.893911e-01 2.395876e-02 2.289048e-02 6.313995e-02 3.397697e-02 3.953093e-02 7.491468e-02 2.985477e-02 3.305677e-02 2.492489e-02 3.235943e-02 1.880265e-02 1.779677e-02 1.131925e-02 4.496103e-03 4.138418e-03 5.644990e-03 6.757614e-03 5.319488e-03 9.355034e-03 2.896606e-03 5.555496e-03 6.187188e-03 7.023002e-03 4.786735e-03 3.993439e-03 2.752198e-03
<GCONST> -5.319097e+01
<STATE> 3
<MEAN> 39
 -4.871315e-02 -9.883789e-01 -6.130765e-01 -1.435450e+00 -8.817427e-01 -1.373812e+00 -4.609181e-01 -7.597171e-01 -3.331264e-01 -7.607159e-01 -1.474333e-01 4.214726e-01 5.625097e+00 3.567256e-02 -9.927509e-02 -2.607691e-01 -6.954631e-02 2.807265e-01 1.962010e-01 -2.057816e-02 -1.353640e-01 7.457920e-02 1.159493e-01 1.214317e-01 1.452867e-01 3.391546e-02 -1.228581e-02 -4.983001e-03 4.331660e-02 5.244783e-03 -5.725688e-02 -2.838264e-02 6.847222e-02 5.684219e-02 3.384445e-02 4.956326e-02 1.361796e-02 -6.803912e-03 -7.822416e-03
<VARIANCE> 39
 6.458332e-02 2.351101e-01 4.956455e-01 1.020426e+00 4.665161e-01 9.097252e-01 1.969341e+00 3.045855e-01 3.865049e-01 3.288032e-01 3.057450e-01 2.031576e-01 7.198430e-01 4.008698e-03 1.301409e-02 1.540057e-02 1.909857e-02 2.668666e-02 2.548778e-02 2.222575e-02 2.360225e-02 3.321031e-02 1.595352e-02 3.300000e-02 1.632184e-02 2.602354e-03 1.348898e-03 3.653636e-03 3.357179e-03 2.633889e-03 8.826390e-03 7.979487e-03 8.229669e-03 6.491949e-03 3.931269e-03 3.694657e-03 7.992158e-03 6.083184e-03 1.168627e-03
<GCONST> -6.466759e+01
<STATE> 4
<MEAN> 39
 5.671673e-02 -1.438498e+00 -1.288759e+00 -1.373552e+00 -5.209007e-01 -1.226605e+00 -3.101895e-01 -4.459807e-01 6.511551e-04 -7.214635e-02 2.477565e-01 6.708556e-01 5.937425e+00 1.371144e-02 -1.101990e-01 8.982777e-03 1.114780e-02 -1.029715e-01 4.684780e-02 2.851382e-01 1.390295e-01 9.070183e-02 4.579374e-02 -1.522516e-02 -4.028018e-03 6.843428e-02 -2.245176e-02 6.373808e-02 7.243235e-02 3.300922e-02 -3.807842e-02 -1.197468e-02 2.197361e-02 2.006500e-02 -4.330586e-02 -6.195687e-02 -5.316395e-02 -5.513084e-02 -3.149151e-02
<VARIANCE> 39
 6.177780e-02 3.594723e-01 4.161161e-01 8.339218e-01 2.636483e-01 6.431882e-01 1.553527e+00 4.014551e-01 3.602927e-01 4.445419e-01 2.996347e-01 2.210049e-01 6.005852e-01 4.074916e-03 2.119481e-02 1.280974e-02 9.597003e-03 1.484627e-02 2.430575e-02 1.691401e-02 1.446584e-02 2.034806e-02 2.640116e-02 2.421665e-02 2.318634e-02 5.111758e-03 6.150638e-04 3.242333e-03 2.177924e-03 1.699680e-03 6.560507e-03 4.352081e-03 9.247992e-03 6.524001e-03 6.762852e-03 3.160000e-03 5.110882e-03 4.055341e-03 1.027679e-03
<GCONST> -6.961430e+01
<STATE> 5
<MEAN> 39
 4.157690e-02 -1.244738e+00 -5.797320e-01 -1.356571e+00 -9.220394e-01 -1.063324e+00 6.962432e-01 -5.575892e-01 5.416960e-02 -4.348041e-01 -2.667829e-01 5.711365e-01 5.682072e+00 -3.919277e-02 2.356722e-01 8.113476e-02 1.279280e-01 9.740339e-02 -9.320343e-02 3.360439e-02 6.022777e-02 -8.443122e-02 -2.950756e-02 -1.275288e-01 -1.884193e-01 -1.262622e-01 -1.213171e-02 3.681507e-02 7.574670e-04 2.344190e-02 6.814025e-02 -3.384759e-02 -7.415617e-02 -1.717148e-03 -1.934122e-02 -1.125340e-02 -1.856903e-02 -4.023026e-02 -3.008620e-02
<VARIANCE> 39
 3.746577e-02 4.271871e-01 4.789732e-01 9.024053e-01 3.033051e-01 1.261637e+00 1.873448e+00 6.982834e-01 7.731502e-01 2.629507e-01 3.074814e-01 3.046483e-01 1.184486e+00 2.188323e-03 1.410049e-02 1.767825e-02 1.079067e-02 2.987362e-02 3.578598e-02 4.207837e-02 2.578098e-02 2.385635e-02 3.100152e-02 1.798425e-02 3.438345e-02 3.781744e-03 7.065341e-04 5.807339e-03 3.014396e-03 2.547862e-03 3.950770e-03 5.180667e-03 4.528673e-03 4.170273e-03 6.198195e-03 3.631582e-03 3.878145e-03 6.796174e-03 1.192630e-03
<GCONST> -6.440488e+01
<STATE> 6
<MEAN> 39
 -3.235985e-01 -2.788156e-01 -6.499542e-01 -2.211001e-01 -2.049352e-01 -1.004302e+00 -4.414574e-01 3.089257e-02 -2.330862e-01 -7.308882e-01 -5.874365e-01 -1.957074e-01 5.014310e+00 -6.270020e-02 9.926016e-02 9.383068e-02 9.061451e-02 9.620333e-02 -1.889420e-02 -6.668498e-02 -3.265445e-02 -3.889668e-02 -2.896934e-02 -7.356288e-02 -7.276047e-02 -7.777754e-02 -6.367178e-03 -4.689950e-02 -9.309342e-04 -3.679966e-02 -3.379719e-02 2.807264e-02 -7.019621e-03 -3.099303e-02 1.030292e-02 1.215642e-02 4.036674e-02 4.649214e-02 1.928432e-02
<VARIANCE> 39
 8.348459e-02 2.148356e-01 3.145779e-01 4.258955e-01 2.659850e-01 5.557102e-01 4.381532e-01 3.885908e-01 2.788223e-01 1.387203e-01 1.894299e-01 1.588389e-01 6.078688e-01 4.637402e-03 9.498646e-03 1.701883e-02 1.445291e-02 2.349351e-02 2.377487e-02 1.480914e-02 1.972578e-02 1.919004e-02 1.554429e-02 1.815100e-02 2.007547e-02 4.855064e-03 1.366956e-03 3.105551e-03 3.185514e-03 2.999650e-03 3.648834e-03 6.407589e-03 4.030359e-03 4.085563e-03 3.648228e-03 3.457216e-03 3.800273e-03 4.125833e-03 7.691224e-04
<GCONST> -7.574159e+01
<STATE> 7
<MEAN> 39
 -5.782031e-01 -6.841512e-01 -4.461203e-02 -8.067867e-01 -4.161506e-01 -1.079783e+00 -1.473027e-01 -6.556619e-01 -2.749330e-01 -6.246829e-01 -4.158381e-01 3.060597e-02 4.962647e+00 -4.546714e-02 -1.367767e-01 3.952529e-02 -4.254837e-02 -7.954531e-02 3.947414e-02 -6.090630e-02 -6.951497e-02 -1.022783e-02 6.505387e-04 1.186252e-01 7.655174e-02 5.368388e-02 2.495368e-02 -1.100335e-03 -1.392338e-02 4.865489e-03 -1.664579e-02 -2.456308e-02 7.350978e-03 6.163126e-03 8.004458e-03 4.753604e-03 6.682049e-04 3.337993e-03 1.610658e-02
<VARIANCE> 39
 5.270661e-01 6.228676e-01 5.494092e-01 1.128844e+00 6.363692e-01 1.353227e+00 1.229930e+00 4.754454e-01 3.962126e-01 2.694286e-01 3.940853e-01 2.455431e-01 1.196544e+00 5.785448e-02 6.948029e-02 5.440101e-02 3.773630e-02 7.166714e-02 6.383520e-02 4.590223e-02 3.695288e-02 3.520121e-02 3.821792e-02 4.544370e-02 3.459667e-02 2.519463e-02 1.036404e-02 2.022817e-02 9.174733e-03 6.844445e-03 1.600915e-02 1.327301e-02 7.941738e-03 8.044861e-03 6.496134e-03 7.426952e-03 1.169382e-02 9.090908e-03 6.871826e-03
<GCONST> -3.554214e+01
<TRANSP> 8
 0.000000e+00 8.741884e-01 1.258116e-01 0.000000e+00 0.000000e+00 0.000000e+00 0.000000e+00 0.000000e+00
 0.000000e+00 7.790163e-01 2.209837e-01 0.000000e+00 0.000000e+00 0.000000e+00 0.000000e+00 0.000000e+00
 0.000000e+00 0.000000e+00 6.457379e-01 3.542621e-01 0.000000e+00 0.000000e+00 0.000000e+00 0.000000e+00
 0.000000e+00 0.000000e+00 0.000000e+00 6.304592e-01 3.695408e-01 0.000000e+00 0.000000e+00 0.000000e+00
 0.000000e+00 0.000000e+00 0.000000e+00 0.000000e+00 6.862970e-01 3.137030e-01 0.000000e+00 0.000000e+00
 0.000000e+00 0.000000e+00 0.000000e+00 0.000000e+00 0.000000e+00 7.557255e-01 2.442745e-01 0.000000e+00
 0.000000e+00 0.000000e+00 0.000000e+00 0.000000e+00 0.000000e+00 0.000000e+00 7.864978e-01 2.135022e-01
 0.000000e+00 0.000000e+00 0.000000e+00 0.000000e+00 0.000000e+00 0.000000e+00 0.000000e+00 0.000000e+00
<ENDHMM>
