~o
<STREAMINFO> 1 39
<VECSIZE> 39<NULLD><MFCC_D_A_0><DIAGC>
~h "puluh"
<BEGINHMM>
<NUMSTATES> 6
<STATE> 2
<MEAN> 39
 -3.869765e+00 2.999752e+00 -4.239798e+00 2.247325e+00 -3.717878e+00 -5.216506e+00 -4.988145e+00 3.578338e+00 3.424088e+00 -2.384752e+00 -2.814606e+00 4.431501e-01 5.423837e+01 5.694972e-01 -3.339919e-01 5.572721e-01 5.969980e-01 5.726288e-01 5.904765e-01 -3.131657e-01 -9.560600e-02 1.427565e-01 -7.614075e-02 4.178022e-01 -1.378781e-01 6.335514e-01 3.036905e-01 2.597943e-01 1.475614e-01 1.029880e-01 -1.193746e-01 -3.849822e-01 -2.166229e-01 3.365996e-01 2.902147e-01 -2.292706e-01 -3.350725e-01 -3.694450e-02 1.359060e-01
<VARIANCE> 39
 2.905330e+01 8.439454e+01 3.222970e+01 5.051067e+01 2.426080e+01 4.128447e+01 2.626662e+01 1.742436e+01 1.418411e+01 2.647885e+01 1.622072e+01 1.352030e+01 1.369723e+02 4.486368e+00 1.219567e+01 4.392389e+00 4.687990e+00 3.110607e+00 5.233653e+00 2.801072e+00 4.801922e+00 2.841308e+00 4.534557e+00 2.813292e+00 2.670359e+00 5.239710e+00 4.696239e-01 2.650681e+00 7.576292e-01 8.158756e-01 4.363256e-01 1.074911e+00 6.946315e-01 7.875573e-01 5.241036e-01 7.793891e-01 5.703636e-01 6.055261e-01 7.598616e-01
<GCONST> 1.309405e+02
<STATE> 3
<MEAN> 39
 8.007718e+00 4.387849e+00 -4.648083e-01 5.819372e+00 -3.870318e+00 -1.204251e-01 -5.957655e+00 5.767099e+00 9.314747e+00 -1.131418e+01 -9.106140e+00 1.080727e+00 5.493699e+01 -5.280717e-02 2.129516e-01 -2.946523e-01 -7.200506e-02 2.822631e-01 -1.623462e-01 2.559119e-01 5.514514e-01 -1.307751e-01 -1.344230e-02 2.573358e-01 -2.330242e-03 -1.748915e-01 -1.073711e-01 -4.327919e-02 -1.092725e-01 -4.201699e-02 -1.153596e-02 -3.033109e-02 1.755507e-01 9.576171e-03 -1.348868e-01 2.005173e-01 1.517896e-01 -4.211644e-02 -7.876989e-02
<VARIANCE> 39
 1.251485e+01 1.925483e+01 7.810596e+01 2.104870e+01 8.227941e+01 4.448285e+01 3.448050e+01 4.953363e+01 6.104753e+01 3.814731e+01 4.196415e+01 4.652980e+01 1.745359e+01 1.051505e+00 2.950992e+00 1.024119e+01 2.534835e+00 1.228877e+01 6.038352e+00 4.409462e+00 5.402051e+00 9.484969e+00 4.133103e+00 5.837052e+00 5.095127e+00 1.032729e+00 1.988534e-01 5.846384e-01 1.727933e+00 6.136922e-01 2.330377e+00 1.286467e+00 6.814263e-01 1.033666e+00 1.962501e+00 8.209456e-01 1.146547e+00 8.948897e-01 2.097002e-01
<GCONST> 1.349591e+02
<STATE> 4
<MEAN> 39
 -5.754934e-01 5.024665e+00 -3.082329e+00 5.268522e+00 2.366752e+00 -7.059002e+00 -8.172892e+00 5.915125e+00 4.572045e+00 -3.215281e+00 -6.914138e+00 -4.039943e+00 6.799844e+01 -2.739399e-01 -5.089867e-02 -8.300267e-02 -1.501199e-01 1.692612e-02 2.999662e-01 1.557519e-01 -1.570576e-01 -6.652738e-02 5.136916e-02 -1.775084e-02 2.497877e-02 -2.078005e-01 -4.112749e-02 -2.298498e-02 -2.439562e-02 -1.786797e-02 -8.702924e-03 5.575088e-02 5.596477e-02 -3.478231e-02 -4.266933e-03 2.365395e-02 2.470370e-02 3.005565e-02 -2.695782e-02
<VARIANCE> 39
 2.409104e+01 3.014989e+01 4.714232e+01 1.796646e+01 5.681537e+01 2.909883e+01 7.612766e+01 2.348844e+01 2.142798e+01 2.698727e+01 2.454570e+01 2.244800e+01 3.503866e+01 3.490203e-01 6.474223e-01 2.037464e+00 1.079559e+00 2.256342e+00 2.407845e+00 1.678495e+00 1.903904e+00 1.506776e+00 1.136114e+00 1.437005e+00 1.112996e+00 3.652966e-01 3.535225e-02 1.229850e-01 2.937126e-01 1.766749e-01 2.613662e-01 4.280161e-01 3.071106e-01 3.595724e-01 2.659658e-01 2.099137e-01 2.212794e-01 1.776918e-01 3.454621e-02
<GCONST> 9.601247e+01
<STATE> 5
<MEAN> 39
 -3.124804e+00 8.359473e+00 -5.392033e+00 -1.758749e+00 -4.771741e+00 -7.650672e-01 3.718763e+00 9.351264e+00 3.794312e+00 -2.197968e+00 -3.672201e-01 1.847820e-01 4.717057e+01 -5.124210e-01 -1.895036e-01 -4.258104e-02 -2.705178e-01 -1.436437e-01 -1.511602e-01 -6.975394e-02 -4.903174e-01 -3.058174e-01 1.799468e-01 7.293278e-02 -1.405583e-01 -2.429504e-01 2.294769e-02 -7.236542e-02 1.217059e-01 3.570119e-02 -7.942724e-03 -1.596513e-02 -1.732033e-01 -1.209507e-01 -2.799105e-02 -1.953145e-01 -6.066731e-02 7.347843e-02 8.081346e-02
<VARIANCE> 39
 4.040431e+01 5.660009e+01 4.874608e+01 4.718023e+01 5.862019e+01 5.328728e+01 5.296465e+01 4.033490e+01 3.674752e+01 6.168988e+01 2.621484e+01 3.024496e+01 6.898334e+01 1.949410e+00 5.949069e+00 5.077752e+00 5.765579e+00 4.238282e+00 4.632802e+00 6.889997e+00 3.733070e+00 4.010510e+00 7.628526e+00 3.427742e+00 4.299943e+00 2.331204e+00 2.425218e-01 1.149326e+00 9.177737e-01 1.065717e+00 6.233783e-01 9.483748e-01 1.322422e+00 8.104088e-01 8.933645e-01 1.301920e+00 7.663861e-01 9.526412e-01 3.293751e-01
<GCONST> 1.374819e+02
<TRANSP> 6
 0.000000e+00 6.249955e-01 3.750045e-01 0.000000e+00 0.000000e+00 0.000000e+00
 0.000000e+00 8.632033e-01 1.367967e-01 0.000000e+00 0.000000e+00 0.000000e+00
 0.000000e+00 0.000000e+00 9.022754e-01 5.497005e-02 4.275449e-02 0.000000e+00
 0.000000e+00 0.000000e+00 0.000000e+00 9.632883e-01 3.671172e-02 0.000000e+00
 0.000000e+00 0.000000e+00 0.000000e+00 0.000000e+00 8.974499e-01 1.025501e-01
 0.000000e+00 0.000000e+00 0.000000e+00 0.000000e+00 0.000000e+00 0.000000e+00
<ENDHMM>
