~o
<STREAMINFO> 1 39
<VECSIZE> 39<NULLD><PLP_D_A_0><DIAGC>
~h "sebelas"
<BEGINHMM>
<NUMSTATES> 8
<STATE> 2
<MEAN> 39
 -1.783232e+00 -1.728624e+00 3.110495e-01 -1.120891e+00 -6.766282e-01 -6.004282e-01 -1.859646e-01 -9.180886e-01 -6.496637e-01 -9.740864e-02 3.699854e-01 4.109183e-01 5.224799e+00 2.181036e-01 1.197853e-01 -5.778683e-02 7.816631e-02 -5.330432e-03 -1.072562e-01 -4.175759e-02 -5.771820e-03 -5.493759e-02 -8.663677e-02 -3.894692e-02 1.740590e-02 2.278599e-02 8.027941e-02 1.107383e-01 -3.907595e-02 6.742084e-02 3.088834e-02 -8.178320e-03 -1.120472e-02 2.487738e-02 9.651114e-03 -4.986447e-02 -4.582551e-02 -3.026094e-02 -4.628620e-02
<VARIANCE> 39
 7.103298e-01 5.755358e-01 5.040086e-01 6.393448e-01 4.981013e-01 5.535688e-01 6.983197e-01 4.063715e-01 4.769834e-01 2.417241e-01 1.706903e-01 1.184530e-01 1.331378e+00 1.447824e-01 1.625954e-01 7.581297e-02 7.095230e-02 4.477919e-02 3.660296e-02 3.826191e-02 3.280055e-02 5.101440e-02 4.592330e-02 2.974092e-02 1.526814e-02 4.133384e-02 1.909560e-02 1.832665e-02 1.360107e-02 9.021729e-03 7.372423e-03 9.453675e-03 7.055689e-03 5.964970e-03 9.715460e-03 5.936651e-03 4.879262e-03 3.242239e-03 7.506179e-03
<GCONST> -3.999850e+01
<STATE> 3
<MEAN> 39
 -3.429874e-01 -7.860080e-02 -2.456476e-01 -2.190735e-01 -2.831052e-01 -9.667187e-01 -4.822606e-01 -5.811621e-01 -6.790951e-01 -1.032952e+00 -4.116790e-01 3.141000e-02 4.885936e+00 1.271758e-01 4.412044e-02 -7.490257e-02 7.049071e-02 1.159978e-02 -3.718886e-02 -3.082558e-02 2.590822e-02 -1.449028e-02 -8.889733e-02 -6.617470e-02 6.509476e-03 9.724058e-03 -4.042749e-02 -1.055423e-01 2.303747e-03 -5.034483e-02 -4.828306e-02 -3.658654e-03 2.804175e-03 -2.031710e-02 -5.825642e-03 3.409583e-02 5.168161e-02 4.569827e-02 4.749495e-02
<VARIANCE> 39
 2.424125e-01 3.970663e-01 3.971761e-01 4.294032e-01 3.103983e-01 4.509543e-01 4.047104e-01 3.925729e-01 2.178394e-01 2.394615e-01 1.970502e-01 1.415531e-01 8.021306e-01 3.452866e-02 1.113728e-01 3.491886e-02 3.089332e-02 4.151698e-02 5.971377e-02 2.797266e-02 2.224331e-02 3.186202e-02 2.464566e-02 4.478980e-02 4.004575e-02 4.439308e-02 9.711821e-03 9.733610e-03 8.204812e-03 4.822102e-03 6.258612e-03 1.341868e-02 5.973836e-03 4.479698e-03 6.259743e-03 5.476494e-03 6.424531e-03 5.858404e-03 7.569440e-03
<GCONST> -5.002365e+01
<STATE> 4
<MEAN> 39
 5.738437e-03 -1.027682e+00 -6.520351e-01 -8.686242e-01 -9.716070e-01 -1.379829e+00 -2.294437e-01 -8.293613e-01 -6.906030e-01 -6.044410e-01 9.505593e-02 6.728768e-01 5.942160e+00 8.337880e-03 -1.238549e-01 -6.276038e-02 -1.133524e-01 -1.022327e-01 3.033675e-02 7.167730e-02 2.758692e-02 1.231546e-01 1.309015e-01 8.212262e-02 3.425545e-02 9.733129e-02 -2.035360e-02 2.135647e-02 1.510779e-02 1.981416e-03 2.610832e-02 2.367128e-02 1.085105e-02 1.020079e-02 1.678541e-02 3.251443e-03 -5.841522e-03 -2.818576e-02 -1.787243e-02
<VARIANCE> 39
 1.198243e-01 6.742770e-01 6.470129e-01 7.471439e-01 4.594743e-01 5.958605e-01 7.086860e-01 6.326309e-01 6.022936e-01 5.297482e-01 3.100538e-01 1.338799e-01 5.884093e-01 5.399859e-03 1.466709e-02 2.436868e-02 1.297396e-02 2.222173e-02 2.734671e-02 2.060818e-02 2.593317e-02 3.815186e-02 1.989449e-02 2.328116e-02 2.152353e-02 6.307201e-03 2.195274e-03 3.202200e-03 4.658377e-03 2.953129e-03 3.961388e-03 3.641730e-03 4.624776e-03 4.354575e-03 7.705147e-03 5.860920e-03 4.128861e-03 3.215692e-03 1.382523e-03
<GCONST> -6.364616e+01
<STATE> 5
<MEAN> 39
 -1.374836e-01 -1.408056e+00 -6.703531e-01 -1.220201e+00 -9.668344e-01 -7.835823e-01 -2.838789e-02 -6.642618e-01 7.301638e-02 -3.013666e-01 3.014859e-01 5.095407e-01 5.997050e+00 -2.225897e-01 1.229323e-02 2.452690e-01 -4.390169e-02 1.128298e-01 1.225614e-01 -5.021072e-02 -6.285691e-02 -7.957390e-02 -1.172480e-02 1.961246e-02 -6.117689e-02 -3.715820e-02 -9.346565e-02 -3.049132e-03 7.116286e-02 -2.486387e-02 1.534366e-02 -2.733086e-03 -1.144947e-02 -7.199198e-03 -3.717255e-02 9.186472e-03 -1.277653e-02 -8.915734e-03 -1.110832e-02
<VARIANCE> 39
 9.821219e-02 5.204587e-01 6.818005e-01 8.773462e-01 3.864492e-01 7.936704e-01 7.757891e-01 4.590151e-01 3.623359e-01 2.879815e-01 2.299140e-01 1.690239e-01 1.030757e+00 4.195050e-02 4.395751e-02 4.125509e-02 2.401298e-02 2.499540e-02 1.666561e-02 2.673634e-02 2.022075e-02 3.070394e-02 2.435788e-02 2.056614e-02 1.195623e-02 4.699761e-03 4.441168e-03 6.376185e-03 5.528163e-03 4.636623e-03 6.986681e-03 4.808435e-03 6.299014e-03 5.311296e-03 6.507029e-03 4.200761e-03 3.873491e-03 2.964322e-03 1.231873e-03
<GCONST> -5.912193e+01
<STATE> 6
<MEAN> 39
 -2.045108e+00 -1.541482e+00 7.195072e-01 -1.837452e+00 -4.637440e-01 -4.296202e-01 7.457151e-02 -8.006235e-01 -2.384756e-01 -2.585232e-02 2.464744e-01 2.731270e-01 5.911470e+00 -1.996571e-01 -6.179260e-02 3.951296e-02 -3.173555e-02 -2.641722e-03 2.293358e-02 3.845397e-02 6.927042e-03 -1.155618e-02 4.173629e-02 9.459027e-04 -3.142126e-03 -1.121322e-01 1.021321e-01 3.056692e-02 -1.058941e-01 5.453008e-02 -2.044856e-02 -2.608957e-02 -4.965018e-03 6.212630e-03 1.603232e-02 -1.995721e-02 -4.137010e-05 1.312485e-02 -3.654143e-02
<VARIANCE> 39
 3.486301e-01 5.172274e-01 7.224797e-01 5.637597e-01 1.267741e+00 3.932987e-01 7.437390e-01 1.891909e-01 3.781452e-01 2.408243e-01 2.229840e-01 7.851809e-02 5.197750e-01 7.970868e-02 4.866908e-02 6.754065e-02 4.204929e-02 3.599418e-02 3.057765e-02 2.167889e-02 2.408047e-02 2.142242e-02 1.732798e-02 9.846711e-03 7.417477e-03 1.525178e-02 6.453389e-03 1.110014e-02 6.401357e-03 6.193249e-03 6.075449e-03 5.058719e-03 5.832547e-03 4.034617e-03 5.774922e-03 4.002453e-03 1.679123e-03 1.649041e-03 1.918645e-03
<GCONST> -5.853369e+01
<STATE> 7
<MEAN> 39
 -1.566219e+00 -1.241493e+00 -4.238044e-01 -1.107571e+00 -7.985066e-01 -6.287178e-01 -2.403287e-01 -7.414848e-01 -3.328812e-01 -2.755291e-01 3.629441e-01 3.679454e-01 4.652785e+00 1.320811e-01 1.243917e-01 -1.496606e-01 8.038341e-02 2.111429e-02 -5.041065e-02 -1.805976e-02 2.990917e-03 1.909949e-03 -2.781667e-02 -2.620127e-02 -8.298023e-03 -1.023072e-01 1.389394e-03 -2.239294e-04 2.720616e-02 -1.265247e-02 1.168359e-02 1.651986e-04 1.071551e-03 -1.115767e-03 -2.859225e-03 -7.527985e-04 -4.554182e-03 -5.303389e-03 3.686313e-02
<VARIANCE> 39
 5.321583e-01 5.111707e-01 4.295959e-01 3.621497e-01 6.920230e-01 4.547729e-01 5.136343e-01 1.911965e-01 2.955699e-01 2.456489e-01 2.233749e-01 1.263635e-01 1.010875e+00 3.559636e-02 4.766922e-02 4.136391e-02 3.385528e-02 4.190038e-02 2.992333e-02 1.979779e-02 2.431079e-02 2.680787e-02 2.577403e-02 2.057502e-02 1.257304e-02 4.715485e-02 7.300362e-03 6.700670e-03 6.223844e-03 5.274328e-03 7.704666e-03 6.284852e-03 3.500420e-03 4.790135e-03 5.541843e-03 4.416003e-03 4.155314e-03 2.375001e-03 7.269546e-03
<GCONST> -5.525306e+01
<TRANSP> 8
 0.000000e+00 8.516893e-01 1.483107e-01 0.000000e+00 0.000000e+00 0.000000e+00 0.000000e+00 0.000000e+00
 0.000000e+00 7.839775e-01 2.160225e-01 0.000000e+00 0.000000e+00 0.000000e+00 0.000000e+00 0.000000e+00
 0.000000e+00 0.000000e+00 8.316830e-01 1.683170e-01 0.000000e+00 0.000000e+00 0.000000e+00 0.000000e+00
 0.000000e+00 0.000000e+00 0.000000e+00 8.606060e-01 1.393940e-01 0.000000e+00 0.000000e+00 0.000000e+00
 0.000000e+00 0.000000e+00 0.000000e+00 0.000000e+00 7.730520e-01 2.269479e-01 0.000000e+00 0.000000e+00
 0.000000e+00 0.000000e+00 0.000000e+00 0.000000e+00 0.000000e+00 8.192005e-01 1.807995e-01 0.000000e+00
 0.000000e+00 0.000000e+00 0.000000e+00 0.000000e+00 0.000000e+00 0.000000e+00 8.163138e-01 1.836862e-01
 0.000000e+00 0.000000e+00 0.000000e+00 0.000000e+00 0.000000e+00 0.000000e+00 0.000000e+00 0.000000e+00
<ENDHMM>
