~o
<STREAMINFO> 1 39
<VECSIZE> 39<NULLD><MFCC_D_A_0><DIAGC>
~h "sepuluh"
<BEGINHMM>
<NUMSTATES> 6
<STATE> 2
<MEAN> 39
 -1.344826e+01 -4.961115e+00 3.778109e+00 -2.230542e+00 -4.363149e-01 2.753666e+00 -2.318382e+00 -1.792551e+00 -9.728366e-01 -1.226372e+00 3.833663e-01 3.128593e+00 6.291799e+01 6.312904e-01 6.697617e-01 -5.259901e-01 4.117655e-01 7.485702e-02 -5.217512e-01 -4.075105e-01 2.978728e-01 1.872877e-01 -2.686428e-02 -2.053995e-02 -1.103236e-01 -1.544055e-01 1.667780e-01 2.133798e-01 -7.230341e-02 1.620555e-01 -9.656874e-03 -2.167572e-01 -9.461740e-02 1.603745e-01 1.326401e-02 -1.790494e-02 -4.897764e-02 -8.645237e-02 -5.504061e-02
<VARIANCE> 39
 5.371721e+01 7.684847e+01 5.144763e+01 4.513522e+01 4.215218e+01 3.733590e+01 4.015482e+01 2.657471e+01 3.197158e+01 2.781532e+01 1.936584e+01 2.126295e+01 8.556296e+01 5.279838e+00 6.181770e+00 3.769663e+00 4.161334e+00 3.574253e+00 4.688731e+00 3.681864e+00 2.536986e+00 2.585528e+00 2.177553e+00 2.396529e+00 1.916539e+00 2.655367e+00 8.162503e-01 7.065433e-01 6.735759e-01 5.841495e-01 5.567408e-01 8.493018e-01 6.823787e-01 4.490254e-01 4.606635e-01 4.870254e-01 4.059483e-01 3.153986e-01 2.818995e-01
<GCONST> 1.266368e+02
<STATE> 3
<MEAN> 39
 2.686233e+00 5.800352e+00 -1.335168e+00 4.672646e+00 -2.281332e+00 -2.188308e+00 -6.579146e+00 6.856023e+00 7.483675e+00 -1.073308e+01 -6.924452e+00 1.584777e+00 5.032554e+01 4.251449e-01 2.027072e-01 4.236895e-02 -8.298621e-02 -2.754487e-01 -1.486064e-01 -5.014161e-02 3.509417e-01 3.782630e-01 -2.639811e-01 -2.530518e-01 -1.780853e-02 2.379211e-01 -5.564399e-02 -1.813017e-01 -2.651419e-02 -6.973766e-02 -6.588812e-03 8.372940e-02 3.150904e-02 -4.940851e-02 -2.335650e-02 1.795476e-02 2.796721e-03 3.180597e-02 4.362924e-02
<VARIANCE> 39
 5.516174e+01 3.227744e+01 6.404086e+01 1.939681e+01 8.459803e+01 4.069857e+01 4.102729e+01 4.152842e+01 6.765579e+01 6.850387e+01 4.269213e+01 3.896883e+01 4.683812e+01 2.376322e+00 3.643096e+00 8.085302e+00 2.359579e+00 1.010116e+01 4.633152e+00 4.643044e+00 3.896734e+00 7.394458e+00 5.948883e+00 4.150558e+00 4.186645e+00 2.010605e+00 4.055377e-01 8.199796e-01 1.345469e+00 5.388247e-01 1.839885e+00 8.398799e-01 9.409128e-01 6.698985e-01 1.348587e+00 1.226733e+00 8.363892e-01 7.431028e-01 3.561026e-01
<GCONST> 1.383082e+02
<STATE> 4
<MEAN> 39
 3.285137e-01 3.569145e+00 -2.706041e+00 6.503974e+00 -2.210397e-01 -1.188093e+01 -9.045625e+00 7.542292e+00 3.250187e+00 -4.730070e+00 -5.344547e+00 -2.107059e+00 6.983470e+01 -2.576515e-01 -7.246619e-02 -1.243414e-01 -7.250704e-02 3.437416e-02 2.225732e-01 3.014016e-01 1.900776e-02 -7.344878e-02 -4.873864e-02 -7.384015e-02 6.674556e-02 -1.896054e-01 -7.141865e-02 3.667095e-04 6.129637e-03 -3.396194e-02 3.236342e-02 1.174992e-01 3.866660e-02 -7.297808e-02 -1.668048e-02 3.828227e-02 3.299309e-02 3.124226e-02 -5.110208e-02
<VARIANCE> 39
 1.170912e+01 3.516245e+01 4.903976e+01 2.476205e+01 4.379615e+01 3.723761e+01 4.398182e+01 3.316336e+01 2.497056e+01 3.260375e+01 1.792174e+01 2.384825e+01 2.501483e+01 4.013364e-01 7.705119e-01 1.448570e+00 1.440969e+00 1.972936e+00 2.072348e+00 1.320159e+00 1.825120e+00 1.544997e+00 1.299527e+00 1.334574e+00 1.374808e+00 4.199257e-01 4.685508e-02 1.285966e-01 2.074048e-01 2.370344e-01 3.201717e-01 4.538545e-01 2.469136e-01 3.910728e-01 2.802671e-01 1.832591e-01 2.044131e-01 2.249859e-01 4.062548e-02
<GCONST> 9.610460e+01
<STATE> 5
<MEAN> 39
 -4.570754e+00 7.414493e+00 -2.967588e+00 -1.023491e-01 -4.995991e+00 -2.016876e+00 1.364515e+00 7.792397e+00 3.597142e+00 -5.412084e+00 -3.016322e+00 2.187465e+00 4.933669e+01 -6.502838e-01 -1.254619e-01 -3.989734e-01 -8.109640e-01 -1.306682e-01 5.527196e-03 1.119334e-01 -6.606491e-01 -8.894395e-01 5.430756e-01 6.538397e-01 1.275309e-01 -3.795922e-01 1.451123e-01 -5.625475e-02 7.782469e-02 6.358345e-02 -2.391468e-02 -5.514790e-02 -1.521857e-01 4.100301e-02 3.654484e-02 -1.241599e-01 3.442263e-02 3.660250e-02 1.422143e-01
<VARIANCE> 39
 3.574000e+01 3.727435e+01 6.893679e+01 5.767506e+01 4.566961e+01 3.769444e+01 3.329080e+01 7.102861e+01 1.005953e+02 4.309491e+01 3.102232e+01 2.642769e+01 9.503197e+01 1.696821e+00 3.343416e+00 5.382861e+00 3.371791e+00 4.022385e+00 3.227553e+00 3.971936e+00 3.376723e+00 4.927132e+00 3.590206e+00 3.638809e+00 2.646373e+00 2.566037e+00 2.269837e-01 6.050103e-01 1.001513e+00 8.626716e-01 5.211530e-01 6.597927e-01 8.278379e-01 7.514508e-01 1.273671e+00 6.358809e-01 8.376154e-01 4.983694e-01 3.283497e-01
<GCONST> 1.320193e+02
<TRANSP> 6
 0.000000e+00 1.000000e+00 0.000000e+00 0.000000e+00 0.000000e+00 0.000000e+00
 0.000000e+00 9.334704e-01 6.652956e-02 0.000000e+00 0.000000e+00 0.000000e+00
 0.000000e+00 0.000000e+00 9.389983e-01 6.100164e-02 0.000000e+00 0.000000e+00
 0.000000e+00 0.000000e+00 0.000000e+00 9.371597e-01 6.284033e-02 0.000000e+00
 0.000000e+00 0.000000e+00 0.000000e+00 0.000000e+00 8.793391e-01 1.206609e-01
 0.000000e+00 0.000000e+00 0.000000e+00 0.000000e+00 0.000000e+00 0.000000e+00
<ENDHMM>
