~o
<STREAMINFO> 1 39
<VECSIZE> 39<NULLD><MFCC_D_A_0><DIAGC>
~h "sil"
<BEGINHMM>
<NUMSTATES> 6
<STATE> 2
<MEAN> 39
 -1.249875e+01 3.583057e+00 -6.159062e+00 -2.943322e+00 -2.991743e+00 -6.800501e-01 4.041841e-01 -1.043154e+00 -4.620281e+00 -4.545024e+00 -5.087340e-01 9.167770e-01 3.844923e+01 -1.108898e-01 6.549738e-02 -1.063017e-01 4.321997e-02 8.066028e-02 -5.005978e-02 -4.753667e-02 -1.391578e-02 2.317395e-03 2.969557e-02 1.173981e-03 3.274156e-03 -4.065519e-02 8.503977e-03 -1.566965e-02 4.167427e-02 1.122963e-02 -3.580546e-03 6.464494e-03 -2.165696e-02 1.281583e-02 3.085258e-02 1.364392e-02 -7.124529e-03 -3.025113e-03 1.845481e-02
<VARIANCE> 39
 3.205064e+01 4.488201e+01 8.824009e+01 5.937135e+01 4.550748e+01 4.613752e+01 5.331324e+01 4.857429e+01 7.085718e+01 5.314652e+01 4.267744e+01 3.445193e+01 1.226391e+02 1.225583e+00 1.965740e+00 2.904248e+00 3.076619e+00 2.910179e+00 3.668936e+00 3.814826e+00 4.118191e+00 4.428150e+00 4.332361e+00 3.771982e+00 3.354589e+00 2.123557e+00 1.885250e-01 2.791998e-01 4.306037e-01 5.310643e-01 5.519148e-01 7.333530e-01 7.701162e-01 8.309703e-01 8.737792e-01 8.879505e-01 7.767730e-01 6.839296e-01 2.595026e-01
<GCONST> 1.297883e+02
<STATE> 3
<MEAN> 39
 -1.008897e+01 -6.196724e+00 3.038550e+00 -6.349896e+00 8.371159e+00 -3.449424e+00 1.271049e+01 -5.281575e+00 5.061689e+00 -2.570369e+00 6.843049e+00 1.396019e-01 6.305516e+01 -1.870241e-02 7.182635e-02 -3.731581e-02 1.053029e-01 6.845464e-02 1.360772e-02 -4.624103e-02 2.012667e-02 2.845782e-02 -2.185588e-02 -4.326544e-02 -2.737134e-02 -9.907211e-02 -1.024636e-03 4.697902e-03 2.558717e-02 -4.423144e-03 6.859751e-03 -1.418908e-02 1.116227e-02 -1.344680e-02 -5.399398e-03 -2.135878e-02 -8.961036e-04 -1.040635e-02 2.734786e-02
<VARIANCE> 39
 2.655561e+01 4.662478e+01 4.287783e+01 4.594729e+01 5.881974e+01 3.385546e+01 6.679786e+01 3.099673e+01 5.355289e+01 3.103568e+01 3.158387e+01 1.946489e+01 3.902814e+01 4.592963e-01 7.938529e-01 8.481055e-01 1.250255e+00 1.123844e+00 1.186575e+00 1.262987e+00 1.578663e+00 1.601522e+00 1.569131e+00 1.351945e+00 1.170090e+00 6.014936e-01 8.233844e-02 1.173049e-01 1.446579e-01 2.237059e-01 2.112520e-01 2.370687e-01 2.509492e-01 3.096580e-01 2.976019e-01 3.119295e-01 2.573764e-01 2.362000e-01 1.069419e-01
<GCONST> 9.898491e+01
<STATE> 4
<MEAN> 39
 -1.597720e+01 2.278256e+00 -4.355511e+00 -3.483062e-01 -1.320749e+00 -1.040372e+00 3.151829e-02 -1.014108e+00 -4.951335e-01 -8.684842e-01 -2.540727e-01 -1.259421e+00 5.728214e+01 -2.094028e-02 2.097646e-02 9.368927e-03 2.477310e-02 1.210602e-02 -1.550678e-02 1.297255e-02 2.822903e-02 1.822360e-02 6.705085e-03 -9.020728e-03 -1.883767e-02 -2.124326e-02 4.389019e-03 -2.063004e-03 6.082185e-03 1.488066e-03 1.363613e-03 2.246515e-03 2.011362e-04 -2.910373e-03 -1.218646e-03 -9.120522e-04 1.295371e-03 9.197543e-04 8.372734e-03
<VARIANCE> 39
 3.145030e+00 5.491087e+00 7.057690e+00 8.366912e+00 7.847234e+00 1.626861e+01 1.589806e+01 2.248549e+01 9.976327e+00 1.181510e+01 1.152110e+01 9.896782e+00 2.683953e+01 6.970006e-02 1.373931e-01 2.325286e-01 3.189360e-01 4.340784e-01 5.289779e-01 6.470881e-01 6.867530e-01 6.854853e-01 6.616662e-01 6.436106e-01 5.839944e-01 3.199088e-02 1.324266e-02 2.797261e-02 4.451489e-02 6.431019e-02 9.084393e-02 1.073839e-01 1.341449e-01 1.409750e-01 1.388592e-01 1.361102e-01 1.298887e-01 1.168022e-01 5.778101e-03
<GCONST> 5.171969e+01
<STATE> 5
<MEAN> 39
 -1.209987e+01 -1.813373e-01 7.443978e-01 -7.038199e-01 1.579701e+00 -3.449395e+00 2.150445e+00 -3.845080e+00 2.091907e-02 -3.983304e+00 5.441148e-01 -7.164546e-01 5.740416e+01 6.229686e-01 -1.187084e-01 4.245976e-01 1.357518e-01 2.587845e-02 -3.074883e-01 -1.698851e-01 -3.168214e-01 -2.603475e-01 -3.085267e-01 -8.433883e-02 -6.551813e-02 1.047575e+00 8.898686e-02 -1.167254e-02 1.289205e-02 3.118186e-02 2.213903e-02 -2.953914e-02 -3.160647e-02 -7.797522e-03 -2.667792e-02 -3.127775e-02 -9.167573e-04 8.202683e-03 9.056871e-02
<VARIANCE> 39
 8.263166e+01 7.721047e+01 6.724993e+01 7.214194e+01 7.944498e+01 6.440608e+01 8.760538e+01 6.422211e+01 5.910361e+01 4.302838e+01 3.964272e+01 3.204157e+01 1.935814e+02 3.981915e+00 5.350535e+00 3.795387e+00 4.083501e+00 4.804761e+00 4.210785e+00 3.855923e+00 4.277812e+00 4.076732e+00 3.146069e+00 3.383730e+00 2.788213e+00 4.939438e+00 6.233512e-01 9.601459e-01 6.977936e-01 6.694715e-01 8.216540e-01 8.013938e-01 7.244870e-01 7.984460e-01 7.305533e-01 5.879639e-01 6.191415e-01 5.268598e-01 8.805375e-01
<GCONST> 1.400254e+02
<TRANSP> 6
 0.000000e+00 3.549621e-01 6.450379e-01 0.000000e+00 0.000000e+00 0.000000e+00
 0.000000e+00 9.589696e-01 3.255126e-02 8.479151e-03 0.000000e+00 0.000000e+00
 0.000000e+00 0.000000e+00 9.020640e-01 6.200370e-02 3.593228e-02 0.000000e+00
 0.000000e+00 0.000000e+00 0.000000e+00 9.780644e-01 1.646710e-02 5.468530e-03
 0.000000e+00 0.000000e+00 0.000000e+00 0.000000e+00 8.935650e-01 1.064350e-01
 0.000000e+00 0.000000e+00 0.000000e+00 0.000000e+00 0.000000e+00 0.000000e+00
<ENDHMM>
