~o
<STREAMINFO> 1 39
<VECSIZE> 39<NULLD><MFCC_D_A_0><DIAGC>
~h "bagi"
<BEGINHMM>
<NUMSTATES> 6
<STATE> 2
<MEAN> 39
 4.753513e-01 8.695013e+00 -2.206846e+00 1.008677e+01 4.871045e+00 -3.358812e+00 -5.532192e-01 1.060370e+01 3.704387e+00 -4.981904e+00 -4.592804e+00 -3.265677e+00 4.641920e+01 1.386377e+00 7.218141e-01 -6.094044e-01 4.452173e-01 8.618468e-02 -1.045810e+00 -1.015908e-01 5.730965e-01 -5.288574e-01 -9.579708e-01 -2.655108e-01 -4.596051e-01 5.446104e-01 2.822563e-01 -6.072420e-01 8.034852e-02 -2.929911e-01 -6.611778e-01 -8.125478e-02 -8.597248e-02 -1.446131e-01 -8.861598e-02 -3.418334e-01 5.646969e-02 3.923491e-01 4.926369e-01
<VARIANCE> 39
 3.920794e+01 3.503864e+01 2.532800e+01 2.996368e+01 3.796791e+01 2.499382e+01 2.226690e+01 4.081946e+01 5.871244e+01 3.588432e+01 4.763580e+01 3.966531e+01 2.148517e+01 3.446291e+00 7.820638e+00 4.182482e+00 3.650448e+00 6.345598e+00 4.164644e+00 2.801175e+00 4.502553e+00 6.740579e+00 4.321451e+00 5.449358e+00 5.751305e+00 3.946455e+00 4.639102e-01 6.714317e-01 8.938769e-01 6.022137e-01 7.987885e-01 8.909541e-01 5.966424e-01 9.608528e-01 1.322955e+00 6.954849e-01 1.104587e+00 9.402900e-01 4.075165e-01
<GCONST> 1.338595e+02
<STATE> 3
<MEAN> 39
 1.018659e+01 4.668943e-01 -1.832268e+00 8.631427e+00 -5.044774e+00 -4.698047e+00 -2.901857e+00 9.837780e+00 2.298368e-01 -1.773609e+01 -2.909885e+00 4.699407e+00 5.651808e+01 -4.385330e-01 -1.162931e+00 1.272880e+00 1.950032e-01 -1.839405e-01 1.562296e+00 -2.099033e-01 -4.374652e-01 -1.291722e-01 -8.731592e-01 1.001166e+00 1.026439e+00 3.555789e-01 -5.599176e-01 3.437483e-01 1.965932e-01 3.985990e-01 8.732863e-01 2.848772e-01 1.083857e-01 8.886460e-02 1.654481e-02 6.192614e-01 2.571245e-01 -4.855349e-01 -4.996245e-01
<VARIANCE> 39
 5.755416e+00 2.645358e+01 3.571704e+01 2.522127e+01 1.907008e+01 7.222153e+01 2.920667e+01 3.120609e+01 3.325834e+01 2.526978e+01 3.042161e+01 3.121862e+01 8.243304e+00 1.966889e+00 1.972643e+00 2.984151e+00 3.186751e+00 6.979975e+00 5.942273e+00 3.131346e+00 3.073539e+00 4.404397e+00 4.171100e+00 3.263422e+00 5.418656e+00 1.447409e+00 1.879211e-01 3.285351e-01 8.828883e-01 3.809265e-01 3.921378e-01 1.686374e+00 5.663436e-01 6.559069e-01 1.124326e+00 6.210189e-01 5.795516e-01 8.113078e-01 5.562103e-02
<GCONST> 1.197178e+02
<STATE> 4
<MEAN> 39
 4.884892e-01 1.514293e+00 1.656265e+00 1.732066e+01 8.243444e+00 1.590492e-01 -1.532809e+00 9.049848e+00 -1.689946e+00 -8.647201e+00 5.010607e+00 -1.365907e-01 4.938598e+01 -3.798582e-01 4.795541e-02 -5.532466e-01 1.514014e+00 1.690071e+00 -7.740468e-01 -3.136587e-01 -2.174779e-01 3.703041e-02 1.592394e+00 2.940938e-01 -1.240187e+00 -4.892236e-01 4.137770e-01 -2.672599e-01 -5.677159e-02 -6.773075e-02 -2.854984e-01 -1.758789e-01 -3.657327e-01 -1.483709e-01 1.293093e-01 -3.698182e-01 -1.749817e-01 1.099245e-01 3.993284e-01
<VARIANCE> 39
 1.283088e+01 4.748071e+01 3.312173e+01 3.359526e+01 3.380651e+01 4.942159e+01 4.067570e+01 2.202815e+01 2.545963e+01 6.323765e+01 3.538646e+01 2.949330e+01 1.709411e+01 3.117126e+00 7.047274e+00 4.417069e+00 3.606086e+00 3.385626e+00 6.954406e+00 6.721179e+00 3.568391e+00 3.475238e+00 7.299343e+00 5.774858e+00 3.201785e+00 3.422501e+00 3.011894e-01 1.358663e+00 1.128909e+00 9.229811e-01 6.338565e-01 1.556146e+00 1.354670e+00 7.420731e-01 7.834499e-01 1.687990e+00 1.212796e+00 6.973162e-01 4.934134e-01
<GCONST> 1.346158e+02
<STATE> 5
<MEAN> 39
 3.227768e+00 -3.292193e+00 3.110248e+00 1.966681e+01 1.155716e+01 -1.365116e+00 -1.219823e+01 4.474001e+00 7.665491e-01 -8.620213e+00 5.326211e+00 -1.928797e+00 5.389835e+01 -2.987466e-01 9.438267e-02 3.692834e-01 -1.252376e+00 -6.412737e-01 5.245811e-01 -3.248605e-01 -4.374222e-01 3.734081e-01 -1.648484e-01 -2.239493e-01 7.336487e-01 -3.649456e-02 -2.589665e-01 2.686559e-01 -6.242716e-02 -2.969534e-01 -2.317998e-01 9.763074e-02 5.592766e-01 6.627130e-02 -4.334441e-02 2.894743e-01 -2.031050e-01 1.106148e-03 -2.975518e-01
<VARIANCE> 39
 2.553191e+01 3.201552e+01 6.554823e+01 9.601647e+01 2.724981e+01 6.129788e+01 5.582237e+01 2.988393e+01 3.775050e+01 4.969305e+01 3.439338e+01 3.609265e+01 2.401539e+01 2.112728e+00 3.602121e+00 4.859467e+00 4.973422e+00 3.455981e+00 5.691296e+00 1.031413e+01 3.720055e+00 4.856412e+00 6.019164e+00 3.098114e+00 3.363601e+00 2.813923e+00 3.205654e-01 5.685342e-01 8.177138e-01 1.101312e+00 6.626961e-01 1.155054e+00 1.436240e+00 8.301139e-01 1.089998e+00 1.059258e+00 6.465566e-01 8.163601e-01 3.596819e-01
<GCONST> 1.349886e+02
<TRANSP> 6
 0.000000e+00 1.000000e+00 0.000000e+00 0.000000e+00 0.000000e+00 0.000000e+00
 0.000000e+00 8.688306e-01 1.311694e-01 0.000000e+00 0.000000e+00 0.000000e+00
 0.000000e+00 0.000000e+00 8.555821e-01 1.444179e-01 0.000000e+00 0.000000e+00
 0.000000e+00 0.000000e+00 0.000000e+00 8.750311e-01 1.249689e-01 0.000000e+00
 0.000000e+00 0.000000e+00 0.000000e+00 0.000000e+00 8.843910e-01 1.156090e-01
 0.000000e+00 0.000000e+00 0.000000e+00 0.000000e+00 0.000000e+00 0.000000e+00
<ENDHMM>
