~o
<STREAMINFO> 1 36
<VECSIZE> 36<NULLD><LPC_D_A><DIAGC>
~h "belas"
<BEGINHMM>
<NUMSTATES> 8
<STATE> 2
<MEAN> 36
 -2.927455e+00 5.285217e+00 -7.771114e+00 9.841587e+00 -1.063039e+01 1.000898e+01 -8.368130e+00 6.060295e+00 -3.791909e+00 1.993750e+00 -7.899426e-01 1.846053e-01 6.763402e-02 -5.454174e-02 7.323525e-02 -3.608387e-02 -1.290527e-02 6.805225e-02 -7.720757e-02 7.746506e-02 -5.478543e-02 2.974912e-02 -1.890349e-02 1.065683e-02 4.979062e-02 -7.877650e-02 1.602426e-01 -2.172739e-01 2.896598e-01 -2.831634e-01 2.635073e-01 -1.971494e-01 1.335314e-01 -7.044242e-02 2.895028e-02 -4.039652e-03
<VARIANCE> 36
 3.028429e-01 2.666122e+00 9.263296e+00 1.869750e+01 2.796118e+01 3.302944e+01 3.008068e+01 2.047342e+01 1.014490e+01 3.551667e+00 7.298687e-01 5.283950e-02 3.606836e-02 1.751690e-01 6.560926e-01 1.414503e+00 2.320420e+00 2.757511e+00 2.573071e+00 1.809275e+00 9.402245e-01 3.352938e-01 7.148305e-02 5.316390e-03 5.326087e-03 2.754318e-02 1.124843e-01 2.335595e-01 3.871061e-01 4.673481e-01 4.535089e-01 3.283892e-01 1.776293e-01 6.480478e-02 1.408302e-02 1.068286e-03
<GCONST> 4.226042e+01
<STATE> 3
<MEAN> 36
 -1.343328e+00 1.102680e+00 -1.499102e+00 1.281813e+00 -6.303647e-01 5.615605e-03 5.826595e-01 -8.726364e-01 7.554945e-01 -5.578516e-01 2.384220e-01 3.814288e-03 2.558358e-03 1.324080e-02 -1.700413e-02 5.438779e-02 -9.391932e-02 1.249521e-01 -1.252133e-01 1.074796e-01 -8.419396e-02 4.541942e-02 -1.128100e-02 5.893581e-03 -3.323304e-04 -6.778536e-03 3.170665e-02 -8.991861e-03 -7.183310e-03 2.857703e-02 -4.909342e-02 5.049356e-02 -4.133519e-02 2.910595e-02 -1.282261e-02 2.262334e-03
<VARIANCE> 36
 2.914210e+00 3.377300e+01 1.464945e+02 3.936994e+02 7.292502e+02 9.693314e+02 9.720356e+02 7.343676e+02 3.963925e+02 1.452378e+02 3.084884e+01 2.016531e+00 2.121676e-01 2.908318e+00 1.378626e+01 3.785981e+01 7.078569e+01 9.447838e+01 9.500072e+01 7.189987e+01 3.886690e+01 1.425117e+01 3.023918e+00 1.963432e-01 4.238368e-02 5.784081e-01 2.746874e+00 7.517197e+00 1.404954e+01 1.874282e+01 1.882860e+01 1.425231e+01 7.692801e+00 2.823137e+00 5.970682e-01 3.874718e-02
<GCONST> 1.627579e+02
<STATE> 4
<MEAN> 36
 -1.754148e+00 3.612405e+00 -4.543596e+00 6.132394e+00 -6.247708e+00 6.293489e+00 -5.181314e+00 4.021122e+00 -2.580476e+00 1.444240e+00 -5.945778e-01 2.018151e-01 4.543215e-02 -1.016673e-01 1.927027e-01 -2.853510e-01 3.356988e-01 -3.306611e-01 2.814593e-01 -2.117245e-01 1.341131e-01 -7.416310e-02 2.938810e-02 -7.945918e-03 -3.216510e-02 4.260269e-02 -9.358451e-02 1.021485e-01 -1.163984e-01 9.396313e-02 -7.549535e-02 4.169938e-02 -1.712432e-02 3.136309e-03 7.261464e-04 -2.342809e-03
<VARIANCE> 36
 3.051331e-01 9.235644e-01 3.160030e+00 5.249639e+00 7.015619e+00 7.734968e+00 6.655672e+00 4.696231e+00 2.312829e+00 9.927735e-01 2.207218e-01 4.203596e-02 6.649369e-02 1.462777e-01 5.894337e-01 9.295515e-01 1.507359e+00 1.619486e+00 1.497976e+00 1.032443e+00 5.408352e-01 2.111544e-01 4.502771e-02 5.600770e-03 7.716740e-03 1.687326e-02 6.459004e-02 1.113548e-01 1.806976e-01 2.158691e-01 2.020395e-01 1.511480e-01 7.940792e-02 3.259861e-02 6.904420e-03 9.699405e-04
<GCONST> 1.844745e+01
<STATE> 5
<MEAN> 36
 -8.594652e-01 5.019795e-01 -2.450262e-01 4.996542e-01 -2.803086e-01 3.644511e-01 -3.031512e-01 2.638563e-01 -2.446398e-01 1.936111e-01 -1.669206e-01 1.202268e-01 4.344446e-03 3.450135e-02 1.755260e-02 -6.581156e-03 -2.315856e-03 -3.327578e-03 5.357475e-03 3.771836e-04 2.783782e-03 2.866579e-04 -7.319952e-04 -1.233129e-03 -6.538707e-04 2.828329e-03 -4.245654e-03 -1.161936e-03 1.587998e-04 1.418035e-03 -5.333074e-04 5.043198e-04 2.701304e-04 1.141247e-03 -1.085798e-05 -1.091306e-04
<VARIANCE> 36
 3.316770e-01 3.217699e-01 2.117113e-01 2.236254e-01 1.351837e-01 1.059672e-01 1.011312e-01 1.068337e-01 5.094030e-02 4.723319e-02 3.311345e-02 1.381540e-02 2.130217e-02 2.211671e-02 1.210057e-02 1.287612e-02 7.906140e-03 7.265434e-03 4.310385e-03 5.177262e-03 3.042166e-03 2.902101e-03 2.228966e-03 1.236924e-03 3.029034e-03 3.820807e-03 2.496505e-03 2.620495e-03 1.550166e-03 1.401073e-03 8.557252e-04 9.976155e-04 6.148892e-04 5.764873e-04 4.433071e-04 2.561933e-04
<GCONST> -1.041195e+02
<STATE> 6
<MEAN> 36
 -1.268719e+00 1.580301e+00 -1.560100e+00 1.852757e+00 -1.881631e+00 1.647329e+00 -1.221018e+00 8.562699e-01 -5.356602e-01 2.556766e-01 -1.155883e-01 5.935331e-02 -3.754432e-02 8.562350e-02 -9.657043e-02 4.392554e-02 -1.988697e-02 4.998113e-02 -2.675171e-02 1.239694e-02 4.273721e-03 2.350455e-02 -1.891241e-03 2.964693e-03 -2.242685e-03 2.060182e-02 -2.951346e-02 4.584060e-02 -1.909797e-02 3.880808e-02 -3.665742e-02 3.806384e-02 -2.182077e-02 1.610717e-02 -8.203121e-03 5.337509e-03
<VARIANCE> 36
 8.497174e-01 2.716213e+00 7.081456e+00 1.113777e+01 1.401999e+01 1.450765e+01 1.224521e+01 7.977458e+00 4.031587e+00 1.519318e+00 3.479370e-01 3.953098e-02 2.322633e-02 9.720558e-02 1.684016e-01 3.381737e-01 5.328776e-01 6.824687e-01 6.488501e-01 4.705000e-01 2.522686e-01 9.764121e-02 2.310957e-02 2.904026e-03 4.346863e-03 1.722524e-02 4.036225e-02 8.550093e-02 1.319114e-01 1.610837e-01 1.470018e-01 1.071560e-01 5.692828e-02 2.231035e-02 5.002615e-03 6.952256e-04
<GCONST> 1.191209e+01
<STATE> 7
<MEAN> 36
 -1.185278e+00 1.422392e+00 -7.958076e-01 8.751732e-01 -5.689569e-01 8.166194e-01 -5.100934e-01 5.587181e-01 -3.040222e-01 2.742551e-01 -1.329477e-01 8.382865e-02 7.612467e-02 -6.609318e-02 2.716511e-03 1.767201e-02 1.136546e-02 -2.294243e-03 4.202889e-03 -1.090827e-03 1.385685e-02 -8.931757e-03 7.357225e-03 -1.430589e-04 1.303521e-02 -4.197437e-02 2.574269e-02 -1.354058e-02 -1.512542e-03 -1.578108e-02 1.083147e-02 -1.325566e-02 3.670285e-03 -1.028861e-02 2.651011e-03 -1.428257e-03
<VARIANCE> 36
 7.318381e-01 1.425502e+00 2.542322e+00 3.561010e+00 3.815944e+00 3.329578e+00 2.423000e+00 1.548260e+00 6.944841e-01 3.505206e-01 1.001080e-01 2.762426e-02 5.578781e-02 1.382220e-01 1.308796e-01 9.712142e-02 1.079346e-01 1.017006e-01 7.980452e-02 6.711463e-02 3.461599e-02 1.983163e-02 7.335986e-03 2.092939e-03 9.773785e-03 2.415183e-02 2.739968e-02 2.538913e-02 3.418318e-02 3.758875e-02 3.288424e-02 2.533682e-02 1.349517e-02 6.130663e-03 1.965296e-03 4.891023e-04
<GCONST> -2.499457e+01
<TRANSP> 8
 0.000000e+00 2.917129e-01 7.082871e-01 0.000000e+00 0.000000e+00 0.000000e+00 0.000000e+00 0.000000e+00
 0.000000e+00 7.854539e-01 2.058342e-02 1.939627e-01 0.000000e+00 0.000000e+00 0.000000e+00 0.000000e+00
 0.000000e+00 0.000000e+00 2.293967e-01 4.897780e-02 7.216256e-01 0.000000e+00 0.000000e+00 0.000000e+00
 0.000000e+00 0.000000e+00 0.000000e+00 8.588705e-01 1.861189e-02 1.225176e-01 0.000000e+00 0.000000e+00
 0.000000e+00 0.000000e+00 0.000000e+00 0.000000e+00 9.375055e-01 6.249450e-02 0.000000e+00 0.000000e+00
 0.000000e+00 0.000000e+00 0.000000e+00 0.000000e+00 0.000000e+00 1.496950e-01 8.503050e-01 0.000000e+00
 0.000000e+00 0.000000e+00 0.000000e+00 0.000000e+00 0.000000e+00 0.000000e+00 7.577816e-01 2.422185e-01
 0.000000e+00 0.000000e+00 0.000000e+00 0.000000e+00 0.000000e+00 0.000000e+00 0.000000e+00 0.000000e+00
<ENDHMM>
