~o
<STREAMINFO> 1 39
<VECSIZE> 39<NULLD><MFCC_D_A_0><DIAGC>
~h "dua"
<BEGINHMM>
<NUMSTATES> 6
<STATE> 2
<MEAN> 39
 -3.476756e+00 6.503540e+00 1.204720e+00 4.522727e+00 6.183396e+00 -7.916545e-01 -1.903400e+00 -1.020333e+00 4.488694e-01 -6.546498e+00 -2.404615e+00 -1.430247e+00 6.002491e+01 1.071487e+00 1.962355e-01 2.075266e-01 -3.109606e-01 -1.421928e-02 -5.283887e-03 -7.068388e-01 -7.908196e-02 -9.142177e-02 -9.750684e-01 -6.824438e-01 -3.036275e-01 8.870046e-01 -2.129717e-02 -5.928044e-02 1.087494e-01 -1.266968e-01 -3.481088e-01 -1.736610e-01 -1.020761e-02 1.265351e-01 9.461302e-02 -5.507365e-02 -3.581193e-02 -3.558813e-05 2.056683e-02
<VARIANCE> 39
 5.514370e+01 6.360810e+01 5.420382e+01 6.335956e+01 7.418325e+01 7.329189e+01 6.634222e+01 6.095943e+01 5.735410e+01 6.063014e+01 3.585017e+01 3.645969e+01 1.224425e+02 3.320650e+00 5.514178e+00 5.265349e+00 4.577723e+00 5.393995e+00 5.123311e+00 5.534718e+00 3.630361e+00 5.953430e+00 5.230714e+00 3.941147e+00 3.418721e+00 3.038078e+00 4.949953e-01 9.559650e-01 1.091856e+00 7.449517e-01 8.285803e-01 8.890848e-01 1.151891e+00 7.443902e-01 9.807864e-01 1.038706e+00 7.887231e-01 5.319909e-01 4.501159e-01
<GCONST> 1.415222e+02
<STATE> 3
<MEAN> 39
 2.367665e+00 -4.694610e+00 8.881118e+00 -1.378723e+01 -5.270141e+00 -1.877600e+01 1.502691e+01 -1.096680e+01 -2.856018e+00 -1.031796e+01 -3.135132e+00 -2.782556e+00 7.603230e+01 -4.664436e-02 -2.145040e-02 -2.103439e-01 7.015119e-02 5.473500e-02 1.855823e-01 4.566032e-02 -1.746839e-02 2.137604e-01 1.873257e-01 9.146628e-02 2.516124e-01 -1.887432e-01 -1.869974e-02 2.419584e-02 -2.284649e-02 3.190805e-02 1.242403e-01 6.599043e-02 -5.604091e-02 -2.311907e-02 3.423490e-02 -1.829213e-02 1.633986e-02 -1.322906e-04 -3.032052e-02
<VARIANCE> 39
 1.433069e+01 6.894362e+01 6.715972e+01 4.493724e+01 1.019114e+02 1.053933e+02 7.071691e+01 5.267219e+01 7.963180e+01 3.742057e+01 5.193876e+01 4.388989e+01 5.086457e+01 7.114756e-01 2.421329e+00 2.169032e+00 1.497869e+00 4.794673e+00 4.229623e+00 2.292923e+00 3.083231e+00 3.274196e+00 2.239450e+00 2.753607e+00 2.449125e+00 2.503463e+00 1.020262e-01 3.333662e-01 3.363397e-01 2.356267e-01 5.771165e-01 6.900604e-01 3.327718e-01 5.667998e-01 6.076352e-01 3.876094e-01 4.304750e-01 4.393906e-01 3.143637e-01
<GCONST> 1.224834e+02
<STATE> 4
<MEAN> 39
 2.737634e+00 7.674624e+00 2.489318e+00 2.367162e+00 -5.085447e+00 -4.916611e+00 -5.205054e+00 5.242375e+00 6.246467e+00 -1.192428e+01 -6.810216e+00 2.601524e+00 5.869076e+01 -1.833148e-01 1.505924e-01 -2.109541e-02 6.050185e-02 -8.270402e-02 -2.530564e-01 3.257761e-01 8.769161e-02 -3.014103e-01 3.385717e-01 3.637512e-02 -2.553840e-01 -1.928647e-01 -3.177567e-02 -1.110583e-02 -5.142903e-02 2.978825e-02 7.441967e-02 7.396881e-03 1.836653e-03 -6.243583e-02 -3.484873e-02 1.099680e-01 7.981418e-02 -1.822720e-02 -3.102154e-02
<VARIANCE> 39
 4.143068e+01 4.639055e+01 4.764429e+01 4.834642e+01 6.873801e+01 8.371704e+01 8.201643e+01 7.201448e+01 1.074046e+02 6.435345e+01 3.983608e+01 5.887102e+01 1.071086e+02 1.931463e+00 3.065043e+00 3.535943e+00 2.653288e+00 4.911102e+00 4.851947e+00 3.840377e+00 3.519239e+00 4.591233e+00 3.887070e+00 3.079740e+00 3.280608e+00 2.171520e+00 2.916173e-01 5.147941e-01 5.651416e-01 5.065010e-01 7.179715e-01 8.826455e-01 6.617555e-01 5.545763e-01 8.011057e-01 7.181810e-01 6.261898e-01 6.048456e-01 2.845247e-01
<GCONST> 1.339725e+02
<STATE> 5
<MEAN> 39
 -4.585183e-01 6.343339e+00 -1.978621e+00 -3.364353e-01 -5.031468e+00 -9.069529e+00 -4.450202e+00 1.372293e+00 3.329812e-01 -5.988948e+00 -1.711246e+00 -6.160624e-02 7.029430e+01 -1.475940e-01 -2.021409e-01 -2.190553e-01 -9.508234e-02 -9.399749e-02 9.850244e-03 8.557930e-02 -4.844792e-02 -6.010053e-02 6.976539e-02 1.185835e-01 2.104920e-01 -8.999154e-02 -2.793322e-02 -8.160332e-03 -5.330587e-03 1.943170e-02 5.236322e-02 5.630039e-02 1.939553e-02 -2.704773e-02 -1.915241e-02 -6.422315e-03 -1.680520e-03 6.033165e-03 -1.915139e-02
<VARIANCE> 39
 3.112630e+01 7.575549e+01 7.812253e+01 3.601565e+01 4.423660e+01 6.293446e+01 5.002401e+01 4.616576e+01 3.912461e+01 4.915147e+01 3.104054e+01 3.713131e+01 3.841240e+01 6.223032e-01 1.104871e+00 1.108576e+00 9.951752e-01 1.436460e+00 1.933610e+00 1.825308e+00 1.388755e+00 1.400165e+00 1.700870e+00 1.373316e+00 1.281979e+00 8.012839e-01 6.626618e-02 1.374138e-01 1.630649e-01 1.416277e-01 1.803277e-01 2.576329e-01 3.023456e-01 2.518956e-01 2.400135e-01 2.853459e-01 2.437318e-01 2.116364e-01 7.266098e-02
<GCONST> 1.018296e+02
<TRANSP> 6
 0.000000e+00 7.359558e-01 2.640442e-01 0.000000e+00 0.000000e+00 0.000000e+00
 0.000000e+00 8.490669e-01 1.526110e-02 1.356721e-01 0.000000e+00 0.000000e+00
 0.000000e+00 0.000000e+00 9.484679e-01 3.053221e-02 2.099989e-02 0.000000e+00
 0.000000e+00 0.000000e+00 0.000000e+00 8.869368e-01 5.646852e-02 5.659469e-02
 0.000000e+00 0.000000e+00 0.000000e+00 0.000000e+00 9.585557e-01 4.144433e-02
 0.000000e+00 0.000000e+00 0.000000e+00 0.000000e+00 0.000000e+00 0.000000e+00
<ENDHMM>
