~o
<STREAMINFO> 1 39
<VECSIZE> 39<NULLD><MFCC_D_A_0><DIAGC>
~h "empat"
<BEGINHMM>
<NUMSTATES> 6
<STATE> 2
<MEAN> 39
 -5.626320e+00 9.850346e+00 1.357812e+00 1.233883e+01 6.239478e+00 -8.821136e-01 -2.108600e-01 7.243758e+00 5.106679e+00 -5.072096e+00 -7.986914e+00 -5.971326e+00 4.988044e+01 -5.450771e-01 5.328535e-01 4.107086e-01 -8.198778e-02 1.858775e-01 4.086831e-01 4.430402e-01 8.482732e-02 2.822165e-01 3.577361e-01 -2.246107e-01 -3.177215e-01 -5.762596e-01 -1.330172e-01 -1.559402e-01 5.079953e-03 -1.520657e-01 -1.989949e-01 -4.389883e-03 -1.075248e-02 -7.204650e-02 -7.275026e-02 3.007919e-02 2.522864e-01 2.113562e-01 -3.018243e-02
<VARIANCE> 39
 7.074455e+01 4.678007e+01 3.101717e+01 3.260763e+01 3.017965e+01 7.644933e+01 2.728542e+01 6.729743e+01 7.101033e+01 7.356316e+01 3.930859e+01 4.873170e+01 1.103556e+02 1.327654e+00 1.511119e+00 1.722033e+00 2.085869e+00 2.099293e+00 2.764827e+00 3.655573e+00 3.238053e+00 3.064834e+00 2.196996e+00 3.685908e+00 3.042281e+00 5.620029e-01 1.909206e-01 2.203520e-01 2.299153e-01 3.332787e-01 4.215932e-01 4.210206e-01 5.842175e-01 6.781656e-01 7.902308e-01 4.688256e-01 6.025765e-01 6.771108e-01 9.620782e-02
<GCONST> 1.201127e+02
<STATE> 3
<MEAN> 39
 -2.019495e+00 6.939239e+00 -1.266884e-01 6.294754e+00 7.226115e-01 -9.528865e-01 -1.325690e+00 4.450121e+00 3.630609e+00 -5.497498e+00 -4.283780e+00 -6.616406e-01 4.899939e+01 1.179089e+00 -6.571336e-01 -1.989594e-01 -4.720762e-01 -1.203848e+00 1.112515e-01 -3.454947e-01 -6.341870e-01 -1.268568e-01 -7.003458e-01 8.286636e-02 1.024106e+00 1.141010e+00 1.704815e-01 -4.273818e-02 5.600615e-02 -6.186594e-02 -1.601941e-01 1.490832e-01 -9.487666e-02 9.313582e-03 2.897028e-01 -5.763888e-02 -1.153752e-01 1.735647e-01 1.308530e-01
<VARIANCE> 39
 8.056256e+01 7.968855e+01 4.843982e+01 4.663634e+01 6.274815e+01 4.049769e+01 3.817311e+01 4.063654e+01 3.849740e+01 5.180850e+01 5.718865e+01 4.427995e+01 8.918903e+01 4.663565e+00 8.688855e+00 5.458305e+00 6.256896e+00 7.904530e+00 5.253040e+00 3.096661e+00 4.072699e+00 7.120768e+00 4.841475e+00 5.336438e+00 6.403428e+00 5.663371e+00 7.525700e-01 1.437817e+00 1.146979e+00 1.252283e+00 1.374502e+00 1.196002e+00 6.271843e-01 8.613062e-01 9.760575e-01 8.873310e-01 8.431161e-01 1.115437e+00 9.789499e-01
<GCONST> 1.456750e+02
<STATE> 4
<MEAN> 39
 6.339793e+00 -1.761542e+00 3.057390e+00 -1.021996e+00 -1.356708e+01 6.572240e+00 -4.033554e+00 -2.505097e+00 7.422712e+00 -1.231111e+01 -2.645728e+00 1.228927e+01 6.299743e+01 -8.821321e-02 -2.008369e-01 3.809271e-01 1.056030e-01 3.888793e-01 5.681611e-01 -1.359397e-01 -3.579166e-01 -4.927483e-01 -2.051555e-01 4.926919e-01 3.242314e-01 1.236930e-01 -5.350587e-01 3.518546e-01 -2.772254e-01 3.634490e-01 8.146260e-01 -3.964258e-01 1.355921e-01 3.885248e-01 -4.844910e-01 2.944316e-01 9.220945e-02 -6.677097e-01 -6.079159e-01
<VARIANCE> 39
 1.602019e+01 4.369259e+01 1.104766e+01 1.777477e+01 3.112059e+01 2.352334e+01 1.452997e+01 3.008719e+01 3.052742e+01 2.155503e+01 3.312864e+01 1.615069e+01 4.297227e+01 2.191329e+00 2.622844e+00 2.248338e+00 3.617713e+00 7.097587e+00 2.999262e+00 1.976147e+00 2.861565e+00 3.602617e+00 1.611629e+00 2.974033e+00 4.132663e+00 2.721312e+00 1.450735e-01 6.300912e-01 4.037624e-01 4.940742e-01 6.291125e-01 4.920478e-01 3.708153e-01 6.952668e-01 4.952588e-01 2.880881e-01 5.960647e-01 4.387624e-01 2.856655e-01
<GCONST> 1.155470e+02
<STATE> 5
<MEAN> 39
 -5.006064e+00 7.514751e+00 1.954384e-01 3.700241e+00 -4.204113e-01 -3.264354e-01 -1.957554e+00 2.407780e+00 -1.727963e+00 -6.551818e+00 -1.900896e+00 3.187372e+00 4.935113e+01 -1.034268e+00 9.112963e-01 -2.658585e-01 -3.416128e-02 5.375068e-01 -6.947281e-01 2.071271e-01 3.566108e-01 -6.005284e-01 4.825115e-01 -2.114947e-01 -9.174128e-01 -1.228868e+00 1.979500e-01 -2.016834e-01 6.660812e-02 -1.289924e-01 -2.991695e-01 9.109915e-02 -4.535378e-02 -1.558307e-01 1.290697e-01 -1.319321e-01 -3.179204e-02 1.791720e-01 2.450248e-01
<VARIANCE> 39
 3.356493e+01 7.244778e+01 3.654593e+01 4.749870e+01 2.313325e+01 2.903996e+01 3.424502e+01 6.125937e+01 3.311309e+01 3.516084e+01 2.447101e+01 3.927771e+01 1.026728e+02 2.419823e+00 6.404020e+00 3.329241e+00 5.933893e+00 4.232273e+00 3.414860e+00 3.613021e+00 5.653616e+00 5.342278e+00 3.972858e+00 2.533873e+00 4.274061e+00 4.359935e+00 2.960696e-01 1.218105e+00 5.394253e-01 1.166935e+00 7.078155e-01 5.798341e-01 7.441214e-01 9.351146e-01 9.815562e-01 7.506469e-01 5.092572e-01 8.029617e-01 5.921116e-01
<GCONST> 1.335130e+02
<TRANSP> 6
 0.000000e+00 6.250106e-01 3.749895e-01 0.000000e+00 0.000000e+00 0.000000e+00
 0.000000e+00 8.993295e-01 1.006705e-01 0.000000e+00 0.000000e+00 0.000000e+00
 0.000000e+00 0.000000e+00 8.818262e-01 1.107883e-01 7.385483e-03 0.000000e+00
 0.000000e+00 0.000000e+00 0.000000e+00 8.506899e-01 1.294032e-01 1.990680e-02
 0.000000e+00 0.000000e+00 0.000000e+00 0.000000e+00 9.026498e-01 9.735026e-02
 0.000000e+00 0.000000e+00 0.000000e+00 0.000000e+00 0.000000e+00 0.000000e+00
<ENDHMM>
