~o
<STREAMINFO> 1 36
<VECSIZE> 36<NULLD><LPC_D_A><DIAGC>
~h "kali"
<BEGINHMM>
<NUMSTATES> 8
<STATE> 2
<MEAN> 36
 -7.147346e-01 3.487283e-01 -6.054377e-01 5.095900e-01 -4.446553e-01 4.550661e-01 -3.746103e-01 3.592292e-01 -3.822852e-01 2.146496e-01 -1.695907e-01 1.289639e-01 6.708931e-03 -2.357684e-03 5.774588e-03 -3.762435e-03 4.505101e-03 -2.497381e-03 2.044837e-03 -1.226122e-03 4.536607e-03 -4.284255e-03 -2.548655e-03 2.251296e-04 1.985484e-03 1.280047e-03 -3.180570e-04 -3.617135e-04 5.276675e-04 1.089158e-03 1.756528e-04 1.279925e-05 -3.198120e-04 2.468775e-04 -1.935788e-03 9.718362e-04
<VARIANCE> 36
 2.786420e-01 5.447951e-02 1.061166e-01 9.077224e-02 5.133684e-02 5.914282e-02 3.171918e-02 3.309507e-02 3.203163e-02 1.985245e-02 2.151846e-02 2.314881e-02 1.307105e-02 6.133974e-03 4.717837e-03 5.074255e-03 2.732978e-03 3.314487e-03 1.905949e-03 1.881541e-03 1.825565e-03 1.392663e-03 1.545829e-03 2.433306e-03 1.801823e-03 1.375854e-03 9.682747e-04 9.079236e-04 5.081820e-04 6.390418e-04 3.698026e-04 3.400357e-04 3.089125e-04 2.330703e-04 2.664302e-04 4.261392e-04
<GCONST> -1.300018e+02
<STATE> 3
<MEAN> 36
 -2.908904e+00 5.133531e+00 -7.474370e+00 9.516272e+00 -1.053448e+01 1.029588e+01 -8.880418e+00 6.657546e+00 -4.395806e+00 2.455746e+00 -9.763543e-01 2.171066e-01 -2.206037e-02 2.226299e-02 -1.630760e-02 9.196289e-03 9.169550e-03 -2.700588e-02 4.618081e-02 -5.446497e-02 5.212112e-02 -3.977320e-02 2.458945e-02 -1.089033e-02 1.262851e-02 -1.743864e-02 1.943786e-02 -2.339415e-02 2.943933e-02 -3.142872e-02 2.837843e-02 -2.067223e-02 1.560396e-02 -1.104831e-02 3.923622e-03 4.691060e-04
<VARIANCE> 36
 2.584469e-01 2.097266e+00 7.557172e+00 1.677107e+01 2.680500e+01 3.258885e+01 3.052054e+01 2.181106e+01 1.155295e+01 4.413977e+00 1.038973e+00 8.166536e-02 2.846297e-02 2.038528e-01 7.398224e-01 1.691516e+00 2.805457e+00 3.434226e+00 3.224526e+00 2.313385e+00 1.220164e+00 4.627196e-01 1.084304e-01 8.460606e-03 5.566366e-03 4.426223e-02 1.589571e-01 3.597681e-01 5.864578e-01 7.083543e-01 6.555600e-01 4.632773e-01 2.392031e-01 8.844682e-02 2.044521e-02 1.578754e-03
<GCONST> 4.947837e+01
<STATE> 4
<MEAN> 36
 -1.310618e+00 1.233504e+00 -1.054569e+00 1.245267e+00 -1.183476e+00 1.101085e+00 -7.729480e-01 6.436853e-01 -4.522744e-01 2.919158e-01 -1.613224e-01 9.321081e-02 1.099675e-02 4.062102e-04 8.709188e-03 1.064921e-02 -1.809563e-02 2.281365e-02 -4.862162e-03 9.375445e-03 5.521566e-03 2.099195e-03 -3.885705e-03 4.315482e-03 1.228778e-02 -2.300821e-02 -8.999328e-03 1.806938e-02 -2.953930e-02 2.618517e-02 -3.292237e-02 2.054263e-02 -1.904195e-02 7.073037e-03 -2.259249e-03 2.034630e-03
<VARIANCE> 36
 6.678655e-01 2.018236e+00 4.412435e+00 6.374732e+00 7.003778e+00 6.368688e+00 4.738281e+00 2.545817e+00 1.045651e+00 3.587444e-01 9.314453e-02 1.834996e-02 2.979989e-02 9.857015e-02 1.156521e-01 9.119322e-02 4.429996e-02 4.408172e-02 3.605560e-02 3.406243e-02 2.059090e-02 1.525735e-02 8.541440e-03 2.084066e-03 6.654568e-03 2.230197e-02 2.952466e-02 3.119415e-02 2.612836e-02 2.703903e-02 2.181465e-02 1.572363e-02 8.114176e-03 4.486395e-03 2.017839e-03 4.943963e-04
<GCONST> -2.866747e+01
<STATE> 5
<MEAN> 36
 -1.071961e+00 3.027794e-02 1.887442e-01 3.520733e-02 -6.406251e-02 1.005448e-01 2.154735e-02 -2.154595e-02 -9.938984e-02 2.652548e-03 -2.524779e-02 5.441109e-02 2.796640e-02 -2.535703e-02 -1.341117e-02 2.012672e-03 8.193225e-03 9.137615e-03 1.592088e-04 -7.394869e-04 -5.449324e-03 -4.789615e-03 4.227069e-03 -4.607116e-04 -5.526340e-04 1.406312e-02 -7.650665e-03 2.660057e-03 -1.827141e-03 1.204527e-03 7.377545e-04 2.673251e-03 -2.013715e-04 -3.231273e-04 1.311209e-03 -2.598501e-04
<VARIANCE> 36
 2.961960e-01 1.866999e-01 1.584088e-01 7.520060e-02 8.595558e-02 4.287469e-02 5.397635e-02 3.369590e-02 2.739892e-02 2.834432e-02 2.822785e-02 1.266845e-02 3.137025e-02 3.250764e-02 1.346237e-02 1.097670e-02 8.080151e-03 4.864504e-03 4.972063e-03 3.845867e-03 3.199099e-03 2.436807e-03 4.042658e-03 1.414015e-03 7.119843e-03 7.024661e-03 2.851207e-03 2.597103e-03 1.763917e-03 1.043162e-03 1.062460e-03 7.726315e-04 7.211582e-04 5.381299e-04 9.304546e-04 2.960743e-04
<GCONST> -1.075242e+02
<STATE> 6
<MEAN> 36
 -1.129001e+00 1.141085e+00 -1.475020e+00 1.806790e+00 -1.897845e+00 1.895106e+00 -1.509132e+00 1.187972e+00 -8.546706e-01 4.567532e-01 -2.106017e-01 1.020589e-01 -3.772293e-02 5.257666e-02 -5.332658e-02 6.852846e-02 -6.236089e-02 5.872209e-02 -3.660186e-02 2.339910e-02 -8.696791e-03 4.923891e-03 1.291749e-03 5.021077e-03 -1.259064e-03 6.991760e-05 -1.788856e-02 2.746254e-02 -1.865550e-02 2.024447e-02 -2.042997e-02 7.934711e-03 -6.962014e-03 5.228377e-03 -2.463168e-03 2.221155e-03
<VARIANCE> 36
 8.955997e-01 3.259905e+00 6.777896e+00 1.066456e+01 1.264309e+01 1.189200e+01 9.262246e+00 5.302452e+00 2.289652e+00 7.885161e-01 1.438400e-01 1.805049e-02 3.683053e-02 4.768488e-02 4.589808e-02 5.675631e-02 4.908666e-02 4.433349e-02 3.101144e-02 2.562592e-02 1.470299e-02 7.502180e-03 2.893731e-03 1.307535e-03 6.327132e-03 7.709939e-03 9.950805e-03 1.376311e-02 1.703945e-02 1.834150e-02 1.836942e-02 1.661957e-02 1.023542e-02 5.110675e-03 1.523074e-03 4.238638e-04
<GCONST> -3.120037e+01
<STATE> 7
<MEAN> 36
 -2.156650e+00 3.624999e+00 -5.291805e+00 6.697464e+00 -7.186828e+00 6.906936e+00 -5.763304e+00 4.171000e+00 -2.630690e+00 1.331604e+00 -4.922682e-01 1.193974e-01 2.678182e-02 -4.772732e-02 7.214862e-02 -9.245560e-02 1.224085e-01 -1.216607e-01 1.151110e-01 -9.280429e-02 6.745240e-02 -4.465691e-02 1.684841e-02 8.919769e-04 4.504513e-03 -1.349324e-02 1.590809e-02 -2.413429e-02 2.983651e-02 -3.074408e-02 2.668854e-02 -2.059005e-02 1.357919e-02 -5.978698e-03 2.181267e-03 -2.281506e-04
<VARIANCE> 36
 1.050846e+00 5.428672e+00 1.326073e+01 2.264075e+01 2.834662e+01 2.690634e+01 2.070067e+01 1.181858e+01 5.110505e+00 1.682947e+00 3.297779e-01 3.098072e-02 2.791224e-02 1.060160e-01 3.348491e-01 6.487076e-01 9.243392e-01 9.586271e-01 7.964052e-01 5.215189e-01 2.640389e-01 1.008912e-01 2.564393e-02 3.384965e-03 6.735725e-03 2.643442e-02 7.923833e-02 1.512664e-01 2.144203e-01 2.201642e-01 1.785305e-01 1.141678e-01 5.605159e-02 2.077910e-02 5.039178e-03 6.430551e-04
<GCONST> 2.258895e+01
<TRANSP> 8
 0.000000e+00 7.200016e-01 2.799984e-01 0.000000e+00 0.000000e+00 0.000000e+00 0.000000e+00 0.000000e+00
 0.000000e+00 9.053252e-01 0.000000e+00 9.467484e-02 0.000000e+00 0.000000e+00 0.000000e+00 0.000000e+00
 0.000000e+00 0.000000e+00 8.808655e-01 1.191346e-01 0.000000e+00 0.000000e+00 0.000000e+00 0.000000e+00
 0.000000e+00 0.000000e+00 0.000000e+00 4.995569e-01 2.601629e-01 2.402802e-01 0.000000e+00 0.000000e+00
 0.000000e+00 0.000000e+00 0.000000e+00 0.000000e+00 8.975476e-01 1.024524e-01 0.000000e+00 0.000000e+00
 0.000000e+00 0.000000e+00 0.000000e+00 0.000000e+00 0.000000e+00 6.005755e-02 9.399425e-01 0.000000e+00
 0.000000e+00 0.000000e+00 0.000000e+00 0.000000e+00 0.000000e+00 0.000000e+00 6.294094e-01 3.705906e-01
 0.000000e+00 0.000000e+00 0.000000e+00 0.000000e+00 0.000000e+00 0.000000e+00 0.000000e+00 0.000000e+00
<ENDHMM>
