~o
<STREAMINFO> 1 39
<VECSIZE> 39<NULLD><PLP_D_A_0><DIAGC>
~h "kali"
<BEGINHMM>
<NUMSTATES> 8
<STATE> 2
<MEAN> 39
 -6.446609e-01 -1.127310e+00 -9.694576e-01 -1.284689e+00 -9.287151e-01 -7.825527e-01 -2.181193e-01 -5.399768e-01 -2.554090e-01 -3.840177e-01 2.459814e-01 3.468078e-01 5.352946e+00 2.093132e-01 3.075554e-03 -8.306837e-02 3.209825e-02 -4.388646e-02 -3.800047e-02 -2.882159e-02 -6.689674e-03 4.881674e-02 8.179280e-03 -9.397727e-03 7.702158e-03 1.328775e-01 -1.957824e-02 1.333525e-02 3.469090e-03 1.228374e-02 3.939764e-03 -3.459474e-03 -1.068076e-03 -5.912237e-04 3.550930e-03 -1.365160e-02 -1.851528e-03 3.285697e-03 -2.014725e-02
<VARIANCE> 39
 6.830896e-01 3.540164e-01 4.140365e-01 7.400549e-01 5.242212e-01 4.520582e-01 8.369834e-01 2.188447e-01 2.926203e-01 4.687898e-01 1.298413e-01 1.209128e-01 8.886570e-01 3.949510e-02 1.979149e-02 3.664839e-02 5.496204e-02 2.981833e-02 3.461609e-02 4.410086e-02 3.043600e-02 4.769691e-02 2.543207e-02 2.002653e-02 1.380400e-02 2.802282e-02 1.002554e-02 4.380085e-03 5.625207e-03 6.873605e-03 7.082553e-03 6.422300e-03 9.031061e-03 5.075154e-03 9.174147e-03 5.492177e-03 3.726738e-03 2.548122e-03 6.672211e-03
<GCONST> -5.230755e+01
<STATE> 3
<MEAN> 39
 -3.706342e-02 -1.348630e+00 -1.127926e+00 -1.936059e+00 -1.069181e+00 -1.353527e+00 3.628072e-01 -6.850138e-01 5.267201e-02 -3.961078e-01 2.721519e-01 3.184859e-01 6.607417e+00 1.804437e-02 4.352784e-02 7.962795e-02 1.000644e-01 3.334425e-02 -8.846167e-02 -9.025708e-02 -5.737305e-02 -1.308611e-01 -6.000143e-02 3.016644e-03 5.502219e-02 -4.987484e-02 -2.764589e-02 7.226279e-03 4.361497e-02 3.706390e-02 3.643784e-02 -3.102332e-04 -1.516327e-02 -2.832339e-02 -6.063696e-02 -9.027177e-03 -3.719657e-03 -1.499161e-02 -2.415141e-02
<VARIANCE> 39
 2.003332e-02 7.191729e-01 2.172638e-01 1.900185e-01 3.298998e-01 2.103492e-01 9.099494e-01 2.308520e-01 2.820481e-01 1.665710e-01 2.923529e-01 2.130750e-01 1.537271e-01 2.352761e-03 4.239823e-03 1.377640e-02 1.161124e-02 1.410696e-02 1.519341e-02 1.432864e-02 2.472846e-02 3.702544e-02 2.089590e-02 1.494152e-02 1.508917e-02 3.940776e-03 2.093396e-03 1.087580e-03 2.530036e-03 2.238563e-03 2.788543e-03 3.445898e-03 3.521325e-03 4.150916e-03 5.652442e-03 3.605262e-03 3.028038e-03 4.236979e-03 8.376599e-04
<GCONST> -8.234229e+01
<STATE> 4
<MEAN> 39
 -1.534577e-02 -8.784004e-01 -6.768477e-01 -4.248684e-01 -5.112216e-01 -1.443558e+00 -6.018671e-01 -1.014550e+00 -1.034064e+00 -8.155599e-01 2.229331e-01 3.371680e-01 5.627245e+00 -9.054714e-02 -1.242349e-02 1.700526e-01 2.774536e-01 1.943695e-01 -1.091627e-01 -1.526792e-01 -8.742499e-02 -6.738857e-02 1.486844e-02 2.038305e-02 -1.426753e-01 -3.343546e-02 -3.634989e-02 -3.212130e-02 3.629239e-02 -1.685437e-02 -4.658864e-03 -1.861456e-02 -2.008016e-02 4.217890e-02 9.208886e-02 3.826893e-02 -5.699633e-03 -2.342110e-02 2.042660e-02
<VARIANCE> 39
 7.765306e-02 5.065514e-01 4.654259e-01 6.681072e-01 2.465194e-01 4.555622e-01 5.621763e-01 4.022260e-01 2.262469e-01 2.900436e-01 2.160391e-01 1.129605e-01 6.533054e-01 5.872717e-03 1.183472e-02 1.532670e-02 1.361909e-02 1.326449e-02 3.435461e-02 2.232095e-02 2.047421e-02 4.665149e-02 1.364298e-02 2.427351e-02 1.181247e-02 5.147019e-03 2.172964e-03 2.361675e-03 3.832248e-03 4.876309e-03 4.065796e-03 9.471819e-03 5.023488e-03 4.679562e-03 6.069324e-03 3.012116e-03 3.747346e-03 3.471462e-03 1.053305e-03
<GCONST> -7.038712e+01
<STATE> 5
<MEAN> 39
 -5.127629e-01 -1.307761e+00 1.929627e-01 1.103955e-01 1.665251e-01 -2.603541e+00 -9.548146e-01 -1.035810e+00 -7.094173e-01 -3.919829e-01 -1.891120e-02 -2.886039e-01 6.120403e+00 -8.250745e-02 2.007695e-02 7.237849e-02 8.263043e-02 6.713386e-02 -1.810113e-02 -5.467337e-02 2.084631e-02 7.122723e-02 1.918285e-02 -6.810895e-02 -5.894975e-02 -5.820392e-02 -2.400274e-03 3.660863e-02 -5.151577e-02 -8.223955e-02 -4.003514e-02 9.681608e-02 5.591175e-02 -1.398185e-02 -4.311320e-03 -2.407090e-02 3.344193e-04 4.808290e-02 -3.172787e-02
<VARIANCE> 39
 5.056022e-02 5.318597e-01 8.659117e-01 4.581437e-01 1.110350e-01 9.570056e-01 5.610333e-01 4.076996e-01 1.265014e-01 1.847408e-01 4.995461e-01 1.197469e-01 2.484643e-01 1.089482e-02 1.646117e-02 3.434638e-02 2.730640e-02 1.697643e-02 7.916195e-02 2.122013e-02 1.962359e-02 1.996759e-02 1.346307e-02 2.352674e-02 1.583314e-02 1.214811e-02 2.402715e-03 2.251372e-03 3.385592e-03 3.116971e-03 3.599440e-03 8.186476e-03 3.155400e-03 4.533351e-03 4.617004e-03 2.383176e-03 6.168663e-03 2.171813e-03 1.149492e-03
<GCONST> -6.964687e+01
<STATE> 6
<MEAN> 39
 -1.113033e+00 -6.325135e-01 -5.329210e-01 -1.290510e-01 -3.831621e-01 -1.212905e+00 -1.017122e+00 -9.226575e-01 -5.869509e-01 -5.039535e-01 -2.702965e-02 1.307943e-02 4.895673e+00 -8.170736e-02 2.211905e-02 1.253838e-02 -1.053752e-01 -4.101543e-02 1.210527e-01 4.333058e-02 -5.890869e-03 6.657916e-02 2.109773e-02 7.649925e-03 3.789664e-02 -5.641517e-02 9.089971e-03 -3.162026e-03 5.190358e-03 -1.584108e-02 -3.489704e-03 -1.368502e-02 6.501019e-03 1.267105e-02 -2.687752e-04 -6.962123e-04 4.220203e-03 -4.315950e-03 2.558894e-02
<VARIANCE> 39
 3.885609e-01 2.106778e-01 3.279355e-01 5.111682e-01 2.780659e-01 4.410118e-01 2.251008e-01 1.688625e-01 1.544662e-01 1.453175e-01 1.744296e-01 1.090510e-01 3.576523e-01 2.250264e-02 1.676232e-02 3.009540e-02 2.647639e-02 1.412494e-02 2.750919e-02 2.191726e-02 1.422991e-02 1.859196e-02 1.155097e-02 2.139969e-02 1.298994e-02 1.356168e-02 2.737946e-03 2.563840e-03 2.951505e-03 4.632224e-03 2.344232e-03 2.868466e-03 3.222075e-03 2.434944e-03 2.258180e-03 1.905521e-03 2.520654e-03 1.967570e-03 1.574846e-03
<GCONST> -7.640128e+01
<STATE> 7
<MEAN> 39
 -6.113457e-01 -7.554444e-01 1.618063e-02 -1.746346e-01 -2.942520e-01 -9.943377e-01 -8.270084e-01 -7.501043e-01 -3.414063e-01 -6.990896e-01 -2.141514e-02 8.634654e-02 4.657956e+00 1.189083e-02 3.981642e-02 -2.617675e-02 -8.590122e-02 -2.493741e-02 -1.827936e-02 6.104371e-02 8.577957e-02 4.784964e-03 -9.555719e-03 -4.121195e-02 -5.619393e-04 8.671112e-03 2.857490e-02 -1.266920e-03 -1.665895e-02 1.627209e-02 -7.892209e-03 -2.343439e-02 6.957131e-03 5.805448e-03 -1.220063e-02 -3.009758e-03 -5.476423e-03 7.552613e-04 6.766918e-04
<VARIANCE> 39
 7.966561e-01 8.502885e-01 6.349145e-01 1.017526e+00 6.267490e-01 7.721569e-01 6.611441e-01 4.540086e-01 3.807708e-01 2.962086e-01 3.959049e-01 2.462669e-01 1.028078e+00 6.673902e-02 8.577663e-02 5.349261e-02 5.487505e-02 6.094645e-02 6.216249e-02 4.465241e-02 2.916958e-02 4.078304e-02 2.856281e-02 4.053149e-02 3.035927e-02 3.635561e-02 1.124515e-02 1.807662e-02 1.210460e-02 1.131321e-02 1.166723e-02 1.408802e-02 1.047720e-02 6.855394e-03 1.002580e-02 5.594308e-03 8.244647e-03 6.331960e-03 8.443888e-03
<GCONST> -3.561870e+01
<TRANSP> 8
 0.000000e+00 8.701385e-01 1.298615e-01 0.000000e+00 0.000000e+00 0.000000e+00 0.000000e+00 0.000000e+00
 0.000000e+00 7.142110e-01 1.510397e-01 1.347493e-01 0.000000e+00 0.000000e+00 0.000000e+00 0.000000e+00
 0.000000e+00 0.000000e+00 8.225105e-01 1.774895e-01 0.000000e+00 0.000000e+00 0.000000e+00 0.000000e+00
 0.000000e+00 0.000000e+00 0.000000e+00 6.523371e-01 2.227034e-01 1.249595e-01 0.000000e+00 0.000000e+00
 0.000000e+00 0.000000e+00 0.000000e+00 0.000000e+00 7.780697e-01 2.219303e-01 0.000000e+00 0.000000e+00
 0.000000e+00 0.000000e+00 0.000000e+00 0.000000e+00 0.000000e+00 7.238813e-01 2.761187e-01 0.000000e+00
 0.000000e+00 0.000000e+00 0.000000e+00 0.000000e+00 0.000000e+00 0.000000e+00 8.015216e-01 1.984784e-01
 0.000000e+00 0.000000e+00 0.000000e+00 0.000000e+00 0.000000e+00 0.000000e+00 0.000000e+00 0.000000e+00
<ENDHMM>
