~o
<STREAMINFO> 1 39
<VECSIZE> 39<NULLD><MFCC_D_A_0><DIAGC>
~h "kali"
<BEGINHMM>
<NUMSTATES> 6
<STATE> 2
<MEAN> 39
 5.688500e+00 -2.688441e+00 4.772397e-02 6.843056e+00 -4.657413e+00 2.078907e+00 -3.169665e+00 -4.126410e-01 -3.736012e+00 -1.343893e+01 -7.147673e-03 5.340913e+00 5.519216e+01 3.829239e-01 -2.403556e-02 2.628214e-01 1.221530e+00 7.794330e-01 -2.234799e-02 -6.403253e-01 -3.820342e-01 9.011906e-02 -3.052912e-02 1.092432e-01 -1.015183e-02 2.608573e-01 -2.056756e-01 -1.020263e-01 2.769051e-01 -6.293669e-02 -9.527551e-02 2.783082e-01 -2.665102e-01 -1.686216e-01 3.270829e-01 5.326449e-02 1.258104e-01 1.024343e-01 -5.402653e-02
<VARIANCE> 39
 2.465569e+01 3.259220e+01 2.925750e+01 1.181986e+02 7.226855e+01 4.950409e+01 4.085552e+01 2.893399e+01 6.693188e+01 3.613279e+01 2.543240e+01 4.006866e+01 1.552638e+01 2.027159e+00 5.520041e+00 4.612026e+00 6.374941e+00 6.253918e+00 7.889792e+00 6.863642e+00 4.287483e+00 1.245985e+01 3.227286e+00 3.384897e+00 4.953377e+00 2.345662e+00 3.080293e-01 1.198545e+00 9.329903e-01 1.230636e+00 1.291778e+00 1.518520e+00 1.298719e+00 8.908753e-01 2.501217e+00 6.435845e-01 7.133734e-01 9.904444e-01 4.384244e-01
<GCONST> 1.389407e+02
<STATE> 3
<MEAN> 39
 5.292759e+00 -4.564134e+00 8.409851e+00 1.616969e+01 -3.991512e-01 5.716393e+00 -1.536237e+01 -7.740487e+00 4.725216e+00 -1.223861e+01 2.072623e+00 6.086740e+00 5.629538e+01 -3.364072e-01 3.356741e-01 6.659284e-01 3.779945e-01 5.816410e-01 4.177808e-02 -9.303871e-01 -8.452385e-02 7.873276e-01 3.044111e-01 1.484355e-01 -3.576211e-02 -2.797345e-01 -1.053498e-01 5.604261e-01 -6.736602e-01 -9.027968e-02 4.239221e-01 -5.090560e-01 9.416547e-01 7.955490e-01 -6.944576e-01 1.606257e-01 -1.596602e-01 -2.692308e-01 -4.078662e-01
<VARIANCE> 39
 1.868428e+00 8.629802e+00 1.214176e+01 1.160321e+01 1.724437e+01 2.247231e+01 1.267172e+01 1.523641e+01 1.216736e+01 1.594382e+01 9.766886e+00 1.825114e+01 2.579857e+00 3.951781e-01 2.035199e+00 3.828702e+00 9.830717e-01 2.381814e+00 2.604393e+00 5.080179e+00 4.072901e+00 3.122153e+00 1.519530e+00 1.942504e+00 1.181908e+00 9.485406e-01 9.301304e-02 2.162223e-01 2.664016e-01 2.836638e-01 3.395228e-01 4.962211e-01 4.029718e-01 3.003536e-01 3.241549e-01 2.523727e-01 4.106884e-01 2.669665e-01 7.730661e-02
<GCONST> 9.266893e+01
<STATE> 4
<MEAN> 39
 -3.739316e+00 -4.983636e+00 5.986722e+00 6.662682e+00 -1.244416e+00 2.135033e+00 -9.039285e+00 -3.659077e+00 -2.001255e+00 -5.424274e+00 2.565013e+00 3.590806e+00 5.112829e+01 -2.629403e-01 3.627681e-01 -1.001859e+00 -3.922635e-01 9.351295e-02 -8.814641e-01 9.351798e-01 7.978033e-01 -6.120787e-01 6.879289e-01 -1.681869e-01 -3.643945e-01 -4.752331e-01 2.112478e-01 3.499961e-02 4.081883e-02 3.588275e-02 2.088784e-02 4.539525e-02 -1.159944e-01 -4.531309e-02 1.527421e-01 -8.622780e-02 -1.795792e-01 -5.090063e-02 1.482692e-01
<VARIANCE> 39
 3.804160e+01 1.368493e+02 5.263955e+01 1.173537e+02 7.488583e+01 8.459991e+01 4.624942e+01 4.397155e+01 5.345159e+01 6.185878e+01 3.031182e+01 2.682605e+01 4.925729e+01 4.166044e+00 1.506844e+01 3.920068e+00 1.067738e+01 8.681527e+00 9.085576e+00 5.595354e+00 5.639217e+00 6.000885e+00 6.536490e+00 2.580457e+00 3.425772e+00 5.134326e+00 4.998462e-01 2.000696e+00 7.182420e-01 1.859626e+00 1.254300e+00 1.760722e+00 1.090711e+00 8.609148e-01 9.785280e-01 1.261403e+00 6.113543e-01 7.228882e-01 7.615928e-01
<GCONST> 1.473549e+02
<STATE> 5
<MEAN> 39
 3.745882e+00 9.176999e+00 -7.933773e-01 1.171839e+01 6.419641e+00 -1.861076e+00 -5.272879e+00 5.634653e+00 4.896108e+00 -5.866704e+00 -5.566690e+00 2.017618e-01 4.859565e+01 2.290319e-01 5.207285e-02 1.343272e-01 -8.648526e-01 -6.791260e-01 2.832125e-01 4.740844e-02 1.939114e-01 6.109923e-01 -4.831535e-01 -5.835101e-01 1.015079e-01 2.700006e-01 2.634803e-03 -2.812532e-01 1.182786e-01 2.428821e-02 -2.305439e-01 6.527840e-02 -9.107269e-02 -1.843622e-01 3.787385e-02 -6.412449e-02 1.210396e-01 1.437492e-01 1.303559e-01
<VARIANCE> 39
 3.655014e+01 4.521476e+01 3.371189e+01 4.472377e+01 7.119067e+01 3.297923e+01 2.439102e+01 3.317770e+01 4.185856e+01 6.004896e+01 4.614166e+01 5.982420e+01 3.103747e+01 2.479555e+00 4.509919e+00 3.925827e+00 2.324561e+00 4.215562e+00 2.931393e+00 3.046856e+00 2.373517e+00 4.218549e+00 3.963031e+00 5.257241e+00 4.900233e+00 2.164706e+00 4.205916e-01 6.429833e-01 7.421465e-01 4.341253e-01 6.137162e-01 6.649860e-01 6.604692e-01 4.742329e-01 7.740611e-01 7.819505e-01 8.321192e-01 6.496403e-01 3.195762e-01
<GCONST> 1.292513e+02
<TRANSP> 6
 0.000000e+00 9.500491e-01 4.995092e-02 0.000000e+00 0.000000e+00 0.000000e+00
 0.000000e+00 9.083836e-01 9.161644e-02 0.000000e+00 0.000000e+00 0.000000e+00
 0.000000e+00 0.000000e+00 8.213801e-01 1.786199e-01 0.000000e+00 0.000000e+00
 0.000000e+00 0.000000e+00 0.000000e+00 8.546423e-01 1.090603e-01 3.629732e-02
 0.000000e+00 0.000000e+00 0.000000e+00 0.000000e+00 9.210387e-01 7.896128e-02
 0.000000e+00 0.000000e+00 0.000000e+00 0.000000e+00 0.000000e+00 0.000000e+00
<ENDHMM>
