~o
<STREAMINFO> 1 39
<VECSIZE> 39<NULLD><MFCC_D_A_0><DIAGC>
~h "satu"
<BEGINHMM>
<NUMSTATES> 6
<STATE> 2
<MEAN> 39
 -2.243005e+01 -9.614528e+00 9.757392e+00 -8.923255e+00 5.228333e-01 -4.525838e-01 6.652757e+00 -8.976353e+00 9.909673e-01 -2.786393e-01 3.680935e+00 -6.585845e-01 7.284504e+01 5.826657e-01 9.679577e-02 -3.940215e-01 -3.922279e-01 -1.766094e-01 -3.494236e-01 -1.495287e-01 -6.080626e-02 -6.562030e-02 -7.896067e-02 1.162346e-01 1.651721e-01 7.020199e-01 6.888823e-01 3.325368e-01 -3.751684e-01 1.633025e-01 -9.678480e-03 -5.936788e-02 -1.209932e-01 1.556080e-01 1.856808e-02 -1.035194e-01 -7.049749e-02 9.377757e-02 -7.581361e-02
<VARIANCE> 39
 3.193465e+01 4.828022e+01 6.384129e+01 5.875373e+01 1.003137e+02 4.233986e+01 1.131285e+02 3.140447e+01 9.542908e+01 4.472438e+01 3.942952e+01 2.732888e+01 4.977867e+01 8.784080e+00 3.881096e+00 4.389552e+00 2.285935e+00 2.402901e+00 2.251953e+00 2.027960e+00 1.980644e+00 2.465247e+00 1.514912e+00 2.200849e+00 1.344193e+00 1.590860e+00 6.503696e-01 3.707641e-01 4.320417e-01 3.915156e-01 4.011670e-01 4.267876e-01 3.860978e-01 3.270758e-01 4.359163e-01 3.165213e-01 4.310870e-01 2.252846e-01 1.794459e-01
<GCONST> 1.217429e+02
<STATE> 3
<MEAN> 39
 -3.163734e+00 1.056952e+00 2.317019e+00 -1.715715e+00 -6.427824e+00 -2.769046e-01 -1.690396e+00 -1.270125e+00 1.227754e+00 -6.610416e+00 -3.786393e-01 4.563815e+00 6.020650e+01 5.022741e-01 3.459924e-01 -2.295660e-01 9.838182e-02 -1.243476e-01 -2.577518e-01 -1.617671e-02 2.722055e-01 2.235745e-01 -1.983654e-01 -2.775291e-01 -1.102448e-01 3.321277e-02 -1.389210e-01 -7.583478e-02 3.906183e-02 1.045425e-02 1.160632e-02 -1.576374e-03 2.981870e-02 -1.015257e-02 -7.590912e-03 3.701889e-02 -5.721804e-03 -5.505652e-02 -4.278353e-03
<VARIANCE> 39
 5.563990e+01 9.338359e+01 5.192603e+01 5.381582e+01 5.490683e+01 7.848483e+01 9.194986e+01 6.166529e+01 9.329228e+01 7.285812e+01 3.184250e+01 4.218560e+01 1.831114e+02 5.481140e+00 6.877657e+00 5.010629e+00 3.412641e+00 4.673730e+00 5.722259e+00 5.150383e+00 4.409489e+00 6.318482e+00 4.885917e+00 2.882192e+00 3.435447e+00 5.778335e+00 5.908179e-01 1.215909e+00 7.159413e-01 6.177707e-01 8.410033e-01 1.073186e+00 8.995367e-01 8.531790e-01 1.101919e+00 8.664721e-01 5.677565e-01 6.165085e-01 7.858140e-01
<GCONST> 1.439206e+02
<STATE> 4
<MEAN> 39
 -4.489838e-01 -8.429072e+00 6.554216e+00 -1.477477e+01 -5.341531e+00 -1.427622e+01 1.673463e+01 -1.092132e+01 3.547899e+00 -8.755943e+00 1.147645e+00 -4.648366e+00 7.452052e+01 -5.998356e-03 1.662356e-01 1.020065e-01 1.542538e-01 -7.861469e-02 -7.641561e-02 -1.155047e-01 1.319604e-01 -1.844539e-02 6.526518e-02 1.988540e-02 4.743574e-02 -2.625125e-01 -7.003312e-02 2.214814e-02 5.409189e-02 -3.038121e-02 6.328788e-02 1.967246e-02 -3.401086e-02 2.995986e-03 4.218223e-02 1.343196e-03 2.806400e-02 2.068808e-02 -4.978371e-03
<VARIANCE> 39
 2.897761e+01 4.068619e+01 9.907310e+01 3.111876e+01 1.611597e+02 1.352318e+02 4.289738e+01 8.365410e+01 6.651789e+01 4.529615e+01 5.191935e+01 5.017042e+01 8.262804e+01 1.510876e+00 2.198390e+00 2.615147e+00 2.145431e+00 6.935503e+00 4.353601e+00 2.090297e+00 5.974970e+00 3.106132e+00 3.154465e+00 2.882735e+00 3.475718e+00 4.519947e+00 2.459191e-01 4.390102e-01 3.449509e-01 3.328146e-01 7.600445e-01 5.933782e-01 4.082942e-01 9.878604e-01 5.476034e-01 5.659543e-01 5.416660e-01 6.309547e-01 6.205270e-01
<GCONST> 1.313842e+02
<STATE> 5
<MEAN> 39
 -3.960035e+00 6.348169e+00 -1.233801e+00 -2.440863e-02 -6.315629e+00 -9.212916e+00 -4.091309e+00 5.187803e-01 -9.987595e-03 -5.792284e+00 -2.004542e+00 -9.103950e-01 6.733919e+01 -3.132177e-01 3.464479e-02 4.069345e-02 1.520824e-01 7.977974e-02 1.056276e-01 7.032074e-03 -4.201151e-02 -1.003672e-01 4.908869e-02 -1.532485e-02 -7.062397e-02 -3.883105e-01 -3.579206e-02 -2.806162e-02 7.355113e-03 -1.914395e-02 8.462899e-03 1.624964e-02 8.612301e-03 -3.031609e-02 -3.252591e-02 -1.589878e-03 1.680834e-02 8.450513e-03 -7.577068e-03
<VARIANCE> 39
 4.006245e+01 5.282880e+01 7.451942e+01 4.955214e+01 3.723662e+01 6.440157e+01 3.217605e+01 4.970881e+01 3.541751e+01 4.657752e+01 1.970445e+01 4.218443e+01 4.924451e+01 1.393343e+00 9.905123e-01 1.245590e+00 1.134349e+00 1.455335e+00 1.843842e+00 1.466036e+00 1.533348e+00 1.837276e+00 2.027710e+00 1.297618e+00 1.119503e+00 1.207718e+00 1.957435e-01 1.593229e-01 1.854250e-01 1.984190e-01 2.371740e-01 2.538572e-01 2.624311e-01 2.465217e-01 3.226376e-01 3.432626e-01 2.589156e-01 2.044036e-01 1.637512e-01
<GCONST> 1.058118e+02
<TRANSP> 6
 0.000000e+00 7.000118e-01 2.999882e-01 0.000000e+00 0.000000e+00 0.000000e+00
 0.000000e+00 9.029213e-01 9.707876e-02 1.180781e-11 0.000000e+00 0.000000e+00
 0.000000e+00 0.000000e+00 9.454334e-01 1.784746e-02 3.671915e-02 0.000000e+00
 0.000000e+00 0.000000e+00 0.000000e+00 9.712099e-01 1.595179e-03 2.719491e-02
 0.000000e+00 0.000000e+00 0.000000e+00 0.000000e+00 9.694930e-01 3.050694e-02
 0.000000e+00 0.000000e+00 0.000000e+00 0.000000e+00 0.000000e+00 0.000000e+00
<ENDHMM>
