~o
<STREAMINFO> 1 39
<VECSIZE> 39<NULLD><MFCC_D_A_0><DIAGC>
~h "sebelas"
<BEGINHMM>
<NUMSTATES> 6
<STATE> 2
<MEAN> 39
 -1.833973e+01 -1.012216e+01 7.746303e+00 -3.023245e+00 -3.269754e+00 1.859935e+00 1.396363e+00 -5.422599e+00 -4.747754e+00 2.241668e-01 3.590082e+00 1.836330e+00 6.355373e+01 8.556247e-01 5.962714e-01 -2.274581e-01 3.661751e-01 3.351633e-01 -2.985795e-01 -3.691633e-01 -1.254392e-01 -1.968577e-01 -4.097985e-01 -1.276303e-01 1.852439e-01 1.237202e-01 4.528543e-01 4.727907e-01 -1.119832e-01 3.025908e-01 1.332852e-01 -1.260043e-01 -9.598295e-02 1.584793e-01 8.425312e-02 -2.984849e-01 -1.649585e-01 -4.726774e-03 -3.253169e-02
<VARIANCE> 39
 5.656462e+01 8.590695e+01 7.182590e+01 5.755601e+01 6.101579e+01 3.779868e+01 7.804062e+01 3.419991e+01 7.061118e+01 3.712781e+01 2.432253e+01 2.493205e+01 1.285947e+02 8.015804e+00 1.032796e+01 7.061532e+00 6.333502e+00 4.334103e+00 4.280664e+00 2.828669e+00 3.057202e+00 4.696667e+00 4.087997e+00 2.317080e+00 2.261378e+00 2.782813e+00 5.066425e-01 7.441935e-01 1.127849e+00 7.692779e-01 6.394391e-01 7.583475e-01 4.560966e-01 5.528677e-01 8.411692e-01 6.173493e-01 5.331371e-01 4.702100e-01 3.498361e-01
<GCONST> 1.358829e+02
<STATE> 3
<MEAN> 39
 -5.016726e+00 -8.705909e+00 1.110860e+01 -1.736171e+01 8.459387e+00 -1.317607e+01 1.844913e+01 -1.471272e+01 7.220212e-01 -7.990356e+00 8.208276e-01 -1.283435e-01 7.991187e+01 1.849466e-01 -7.119380e-02 -1.282971e-01 9.587519e-02 -1.131494e-01 5.197271e-02 -1.198972e-02 8.447700e-02 2.415126e-03 5.871118e-02 2.053921e-02 -1.069960e-02 -8.383713e-02 6.997585e-04 -1.078824e-02 -1.275786e-02 -7.071131e-03 4.910201e-03 3.250410e-03 5.154334e-03 -5.087939e-03 -5.486023e-03 7.049655e-03 3.492051e-03 3.654768e-03 -2.756676e-03
<VARIANCE> 39
 1.214312e+02 6.043034e+01 7.930795e+01 5.040474e+01 1.228297e+02 6.595612e+01 4.736443e+01 7.017393e+01 9.810118e+01 4.460826e+01 5.320333e+01 3.639538e+01 5.655241e+01 3.969517e+00 3.409019e+00 3.518235e+00 2.366287e+00 4.969857e+00 3.083167e+00 3.513303e+00 4.354195e+00 5.196460e+00 3.335789e+00 3.021385e+00 2.754579e+00 2.916748e+00 4.467465e-01 4.441277e-01 4.163792e-01 3.288136e-01 6.550285e-01 5.451497e-01 6.482188e-01 7.417468e-01 8.555461e-01 5.823698e-01 4.890569e-01 4.839426e-01 4.261737e-01
<GCONST> 1.338328e+02
<STATE> 4
<MEAN> 39
 -2.767690e+00 1.526801e+00 3.856837e+00 4.502565e+00 -2.229679e+00 8.147423e-01 -1.320435e+00 -2.277768e+00 -2.586239e+00 -8.660059e+00 -9.017788e-01 3.674325e+00 6.162718e+01 1.215270e-01 4.323718e-02 -1.341550e-01 1.828902e-03 -7.352611e-02 -1.669461e-01 1.226954e-02 4.842139e-02 -6.630775e-02 -7.946920e-02 -7.252807e-02 3.418733e-02 2.508229e-03 -9.524022e-02 -1.150418e-01 -4.781900e-03 -7.355415e-02 -3.872885e-02 2.418418e-03 2.121478e-02 -2.256841e-02 -3.159675e-02 5.769933e-02 5.231658e-02 1.079956e-02 9.704711e-03
<VARIANCE> 39
 8.156789e+01 1.228000e+02 5.856000e+01 5.053330e+01 7.626126e+01 7.093654e+01 4.277295e+01 6.954346e+01 5.113111e+01 5.249055e+01 5.317501e+01 4.106425e+01 1.222160e+02 4.301914e+00 4.987167e+00 4.409299e+00 3.077040e+00 4.169780e+00 5.046744e+00 3.249817e+00 3.134879e+00 3.635881e+00 3.864309e+00 3.522394e+00 2.715410e+00 2.322488e+00 6.323919e-01 6.674592e-01 7.125478e-01 5.287583e-01 7.118932e-01 8.938996e-01 6.484614e-01 5.842038e-01 6.704447e-01 7.090350e-01 5.917232e-01 4.892010e-01 3.621178e-01
<GCONST> 1.363895e+02
<STATE> 5
<MEAN> 39
 -8.287007e+00 -2.069628e+00 -1.655318e+00 -5.701876e+00 -5.176613e+00 -5.289226e+00 -1.399787e+00 -4.219800e+00 -1.941946e+00 -3.162792e+00 2.312750e+00 3.712776e+00 7.274796e+01 -3.306936e-01 -8.928367e-02 -1.992878e-03 -1.545157e-01 -2.640519e-02 1.995014e-01 6.691235e-02 -1.527836e-02 1.679667e-01 2.274323e-01 7.867350e-02 -6.953020e-02 -2.460376e-01 8.719342e-03 4.010016e-02 2.712544e-03 3.172129e-02 2.123204e-02 1.966691e-02 -4.739541e-03 5.617995e-03 1.290643e-02 -1.422620e-02 -1.983890e-02 -2.185366e-02 -2.634352e-02
<VARIANCE> 39
 1.300318e+02 5.255122e+01 8.670940e+01 6.392144e+01 3.451597e+01 5.775933e+01 3.563488e+01 4.119778e+01 5.053668e+01 5.206712e+01 2.882417e+01 3.555813e+01 5.097232e+01 2.057498e+00 1.370078e+00 1.828430e+00 1.884050e+00 1.138174e+00 1.392856e+00 1.146693e+00 1.416730e+00 1.880464e+00 1.344818e+00 1.283011e+00 9.835110e-01 6.860834e-01 2.157384e-01 1.794395e-01 1.841032e-01 2.674620e-01 1.954244e-01 2.546383e-01 2.107281e-01 2.556118e-01 2.993156e-01 2.231803e-01 2.265402e-01 1.657076e-01 7.557581e-02
<GCONST> 1.060027e+02
<TRANSP> 6
 0.000000e+00 8.048711e-01 1.951289e-01 0.000000e+00 0.000000e+00 0.000000e+00
 0.000000e+00 8.672439e-01 1.903216e-40 1.327561e-01 0.000000e+00 0.000000e+00
 0.000000e+00 0.000000e+00 9.839821e-01 6.676381e-03 9.341555e-03 0.000000e+00
 0.000000e+00 0.000000e+00 0.000000e+00 9.619381e-01 2.180845e-02 1.625344e-02
 0.000000e+00 0.000000e+00 0.000000e+00 0.000000e+00 9.720372e-01 2.796280e-02
 0.000000e+00 0.000000e+00 0.000000e+00 0.000000e+00 0.000000e+00 0.000000e+00
<ENDHMM>
