~o
<STREAMINFO> 1 36
<VECSIZE> 36<NULLD><LPC_D_A><DIAGC>
~h "sebelas"
<BEGINHMM>
<NUMSTATES> 8
<STATE> 2
<MEAN> 36
 -1.716203e+00 3.770865e+00 -4.856555e+00 6.696353e+00 -6.786250e+00 7.069452e+00 -5.808149e+00 4.669864e+00 -2.999531e+00 1.784924e+00 -7.413853e-01 3.012505e-01 -2.389732e-01 1.173399e-01 -4.176174e-01 2.371700e-01 -4.049444e-01 2.226957e-01 -3.282140e-01 1.742254e-01 -2.044334e-01 9.478455e-02 -6.132264e-02 6.490252e-03 -5.299334e-02 3.060367e-03 -4.113695e-02 -5.810898e-02 5.883732e-02 -1.661003e-01 1.479080e-01 -1.905063e-01 1.363767e-01 -1.087480e-01 5.337049e-02 -2.623876e-02
<VARIANCE> 36
 1.212899e-01 1.372661e-01 6.211274e-01 1.086910e+00 1.911722e+00 2.302824e+00 2.075739e+00 1.812494e+00 8.825750e-01 4.968053e-01 1.083606e-01 2.766893e-02 3.064389e-02 8.879904e-02 3.773261e-01 6.799470e-01 1.160894e+00 1.317974e+00 1.310078e+00 9.313492e-01 4.993073e-01 1.826212e-01 3.870519e-02 4.224347e-03 5.597461e-03 4.298104e-03 2.966717e-02 2.562830e-02 4.630410e-02 2.614909e-02 2.056119e-02 5.721888e-03 2.897047e-03 2.102654e-03 7.717806e-04 3.106238e-04
<GCONST> -2.074155e+01
<STATE> 3
<MEAN> 36
 -1.019384e+00 7.579362e-01 -3.421645e-01 4.614489e-01 -3.399150e-01 4.804035e-01 -2.603777e-01 2.851291e-01 -2.254473e-01 1.705258e-01 -1.157720e-01 8.671752e-02 -3.049123e-02 4.946947e-02 -2.020142e-03 -5.864925e-02 1.589432e-01 -1.646087e-01 1.700543e-01 -1.171788e-01 7.779640e-02 -4.303690e-02 2.535413e-02 -9.581524e-03 9.464650e-03 -1.870277e-03 -2.360998e-02 2.961828e-02 -3.839869e-02 2.559130e-02 -2.929733e-02 2.767465e-02 -2.175875e-02 9.294507e-03 -1.609241e-03 1.451821e-03
<VARIANCE> 36
 4.448844e-01 5.526348e-01 3.740589e-01 4.245161e-01 2.542887e-01 1.701221e-01 1.531412e-01 1.270584e-01 9.579433e-02 6.605124e-02 3.560064e-02 1.739174e-02 6.622208e-02 2.264762e-01 5.359176e-01 1.414836e+00 2.436866e+00 3.106149e+00 2.829020e+00 1.849273e+00 8.253406e-01 2.438421e-01 4.309585e-02 4.143318e-03 5.896367e-03 1.743096e-02 1.426499e-02 3.006818e-02 3.865753e-02 4.489765e-02 3.706037e-02 2.380467e-02 1.046914e-02 3.328384e-03 1.145352e-03 3.607500e-04
<GCONST> -2.293179e+01
<STATE> 4
<MEAN> 36
 -2.681700e+00 4.945503e+00 -7.358999e+00 9.347794e+00 -1.011357e+01 9.710278e+00 -8.252863e+00 6.068250e+00 -3.858405e+00 2.034647e+00 -8.164682e-01 2.073758e-01 8.757809e-03 -8.140843e-03 3.180934e-02 -3.427209e-02 4.639338e-02 -5.315905e-02 5.777096e-02 -5.446544e-02 4.723208e-02 -3.621532e-02 1.799549e-02 -8.353216e-03 6.165938e-03 1.025698e-02 -5.617675e-03 2.663488e-02 -3.065061e-02 4.274940e-02 -3.563499e-02 3.150646e-02 -1.805936e-02 8.928554e-03 -3.063490e-03 7.908957e-04
<VARIANCE> 36
 3.681423e-01 2.149692e+00 7.541448e+00 1.686114e+01 2.644027e+01 2.991886e+01 2.609608e+01 1.710183e+01 8.036263e+00 2.747167e+00 5.738950e-01 4.473627e-02 5.017697e-02 2.604986e-01 9.659229e-01 2.146786e+00 3.458553e+00 3.948229e+00 3.480666e+00 2.304048e+00 1.087745e+00 3.720209e-01 7.374133e-02 5.901262e-03 1.042345e-02 6.398555e-02 2.280321e-01 5.202251e-01 8.412678e-01 9.736243e-01 8.617256e-01 5.708199e-01 2.701069e-01 9.010582e-02 1.771802e-02 1.352698e-03
<GCONST> 5.071694e+01
<STATE> 5
<MEAN> 36
 -1.336047e+00 2.050372e+00 -1.929308e+00 2.483212e+00 -2.159955e+00 2.311428e+00 -1.783455e+00 1.534084e+00 -9.104645e-01 5.664085e-01 -2.428348e-01 1.247818e-01 5.470280e-04 2.970845e-02 -1.431573e-02 -3.056507e-02 6.693702e-02 -1.150790e-01 1.081074e-01 -1.008082e-01 7.027285e-02 -5.327954e-02 2.139266e-02 -1.087666e-02 3.574328e-02 -1.010979e-01 5.044081e-02 -6.847088e-02 4.371658e-02 -7.107446e-02 5.190535e-02 -6.300149e-02 2.961804e-02 -2.059105e-02 8.155559e-04 -2.204068e-05
<VARIANCE> 36
 6.550769e-01 2.215557e+00 5.098741e+00 8.461914e+00 1.125878e+01 1.031895e+01 8.332968e+00 4.628016e+00 2.359560e+00 8.355862e-01 2.103204e-01 3.390800e-02 4.783025e-02 1.398555e-01 1.368977e-01 1.483026e-01 1.566161e-01 1.682253e-01 1.212877e-01 1.018881e-01 5.467098e-02 3.278180e-02 8.528567e-03 2.937588e-03 1.151587e-02 2.438699e-02 2.556117e-02 2.854856e-02 3.445623e-02 3.143658e-02 2.143569e-02 1.525168e-02 8.623571e-03 6.018064e-03 1.733795e-03 6.220868e-04
<GCONST> -1.326950e+01
<STATE> 6
<MEAN> 36
 -9.169418e-01 5.790486e-01 -3.255090e-01 4.760685e-01 -2.937929e-01 3.876822e-01 -2.954912e-01 2.832402e-01 -2.291517e-01 1.853957e-01 -1.444705e-01 1.167725e-01 1.135639e-02 -1.322854e-02 8.165955e-03 -1.000970e-02 4.476389e-03 -1.054648e-02 5.167254e-03 -8.479621e-03 3.188343e-03 -1.827086e-03 2.232534e-04 7.469483e-05 8.618729e-04 -6.777535e-04 1.103734e-04 6.001458e-04 -1.232626e-03 1.694721e-03 -1.888727e-03 1.641378e-03 -3.897146e-04 4.959444e-04 1.203291e-04 7.326224e-05
<VARIANCE> 36
 3.682340e-01 5.635616e-01 4.717954e-01 5.361910e-01 3.352048e-01 2.978139e-01 2.110064e-01 1.842511e-01 8.922179e-02 7.940793e-02 3.704594e-02 1.702871e-02 3.253458e-02 5.343663e-02 2.905992e-02 2.527193e-02 1.808070e-02 1.654510e-02 9.964402e-03 1.186145e-02 6.102137e-03 5.351099e-03 3.061937e-03 1.350100e-03 5.895142e-03 9.528213e-03 6.058584e-03 5.085009e-03 3.991180e-03 3.289482e-03 2.267271e-03 2.301677e-03 1.351418e-03 1.030108e-03 6.446894e-04 2.694111e-04
<GCONST> -8.073763e+01
<STATE> 7
<MEAN> 36
 -1.838192e+00 3.224462e+00 -4.088940e+00 4.806024e+00 -4.579749e+00 3.864202e+00 -2.814873e+00 1.711752e+00 -8.702900e-01 2.957673e-01 -8.574330e-02 3.173861e-02 1.724464e-02 -6.794136e-02 6.340256e-02 -1.304097e-01 1.543801e-01 -2.032808e-01 1.907256e-01 -1.707388e-01 1.259309e-01 -8.197071e-02 3.879457e-02 -9.059657e-03 -8.360400e-03 1.671427e-02 -1.931057e-02 3.198515e-02 -4.137314e-02 4.857938e-02 -4.402603e-02 3.711139e-02 -2.615594e-02 1.217835e-02 -5.186339e-03 1.415105e-03
<VARIANCE> 36
 1.379756e+00 8.141897e+00 3.214119e+01 8.004176e+01 1.442924e+02 1.941079e+02 1.926225e+02 1.394344e+02 7.475982e+01 2.734975e+01 5.398459e+00 3.086078e-01 5.508201e-02 4.244520e-01 2.109783e+00 5.822208e+00 1.091339e+01 1.501040e+01 1.497540e+01 1.088353e+01 5.822072e+00 2.154977e+00 4.301815e-01 2.505086e-02 8.280411e-03 8.958976e-02 4.621570e-01 1.301597e+00 2.453795e+00 3.384243e+00 3.356210e+00 2.430522e+00 1.283095e+00 4.748836e-01 9.441655e-02 5.483758e-03
<GCONST> 1.003906e+02
<TRANSP> 8
 0.000000e+00 1.707280e-01 8.292720e-01 0.000000e+00 0.000000e+00 0.000000e+00 0.000000e+00 0.000000e+00
 0.000000e+00 3.636281e-01 0.000000e+00 6.363719e-01 0.000000e+00 0.000000e+00 0.000000e+00 0.000000e+00
 0.000000e+00 0.000000e+00 4.434487e-01 1.637054e-02 5.401809e-01 0.000000e+00 0.000000e+00 0.000000e+00
 0.000000e+00 0.000000e+00 0.000000e+00 9.344354e-01 6.556465e-02 0.000000e+00 0.000000e+00 0.000000e+00
 0.000000e+00 0.000000e+00 0.000000e+00 0.000000e+00 3.812422e-01 6.187578e-01 0.000000e+00 0.000000e+00
 0.000000e+00 0.000000e+00 0.000000e+00 0.000000e+00 0.000000e+00 9.561796e-01 4.382046e-02 0.000000e+00
 0.000000e+00 0.000000e+00 0.000000e+00 0.000000e+00 0.000000e+00 0.000000e+00 6.940207e-01 3.059793e-01
 0.000000e+00 0.000000e+00 0.000000e+00 0.000000e+00 0.000000e+00 0.000000e+00 0.000000e+00 0.000000e+00
<ENDHMM>
