~o
<STREAMINFO> 1 36
<VECSIZE> 36<NULLD><LPC_D_A><DIAGC>
~h "sepuluh"
<BEGINHMM>
<NUMSTATES> 8
<STATE> 2
<MEAN> 36
 -1.932242e+00 2.967902e+00 -3.428792e+00 3.877265e+00 -3.630139e+00 3.357449e+00 -2.559198e+00 1.853100e+00 -9.895090e-01 5.272782e-01 -1.815276e-01 8.018085e-02 -5.775031e-03 -3.177493e-02 3.005026e-02 -1.139578e-01 1.386151e-01 -1.730801e-01 1.720546e-01 -1.711577e-01 1.302217e-01 -9.123684e-02 4.881003e-02 -2.149085e-02 4.191568e-02 -5.970762e-02 4.261857e-02 -2.782059e-02 1.576142e-02 -1.323360e-02 6.619252e-03 -5.757609e-03 1.833142e-03 -5.347005e-03 -8.516947e-04 4.048668e-04
<VARIANCE> 36
 5.532100e-01 1.972000e+00 5.916191e+00 9.311655e+00 1.213126e+01 1.111243e+01 8.684963e+00 5.130187e+00 2.400408e+00 9.034749e-01 1.965274e-01 2.980434e-02 5.581895e-02 1.574327e-01 2.370451e-01 3.941867e-01 5.084381e-01 6.037177e-01 5.168515e-01 3.985100e-01 2.034543e-01 9.781643e-02 2.236368e-02 3.891111e-03 9.829140e-03 3.031449e-02 4.739580e-02 7.487539e-02 9.308676e-02 1.006947e-01 8.382076e-02 6.286401e-02 3.249820e-02 1.633196e-02 4.101666e-03 7.420252e-04
<GCONST> 7.542850e+00
<STATE> 3
<MEAN> 36
 -6.489242e-01 1.073676e-01 -2.508637e-01 2.736990e-01 -2.136346e-01 2.466923e-01 -1.934945e-01 2.051149e-01 -1.874337e-01 1.185826e-01 -1.185701e-01 1.202133e-01 1.537838e-02 -3.107915e-02 -4.742116e-04 -1.536498e-02 -3.186977e-03 -1.470694e-02 -1.023457e-03 -9.816404e-03 1.645331e-03 -6.498998e-03 -6.905696e-04 4.489884e-05 -2.034348e-03 6.568536e-03 -2.863945e-03 1.431111e-03 -9.885203e-05 5.857522e-04 -1.310228e-03 1.116750e-03 -1.133809e-03 1.878776e-03 -4.977529e-04 1.546109e-04
<VARIANCE> 36
 2.507049e-01 1.974233e-01 1.864109e-01 1.221029e-01 9.165087e-02 7.828446e-02 7.858765e-02 5.639869e-02 3.294638e-02 3.617380e-02 2.229420e-02 1.398041e-02 2.872564e-02 1.973665e-02 1.194583e-02 1.013726e-02 7.454492e-03 6.608023e-03 3.682088e-03 4.649274e-03 2.763512e-03 1.938201e-03 1.719752e-03 1.214196e-03 5.634472e-03 4.165976e-03 2.771423e-03 2.216811e-03 1.706603e-03 1.320200e-03 8.234534e-04 9.207284e-04 6.066729e-04 3.976257e-04 3.619318e-04 2.585231e-04
<GCONST> -1.095686e+02
<STATE> 4
<MEAN> 36
 -5.366264e-01 6.883682e-01 -1.110395e+00 1.170497e+00 -1.249350e+00 1.066881e+00 -9.055132e-01 6.108484e-01 -3.444429e-01 1.543855e-01 -1.115504e-01 7.426296e-02 1.966894e-02 4.768242e-02 -2.820962e-02 1.400814e-02 -9.750181e-03 2.752781e-02 -4.424591e-02 2.641275e-02 -4.006996e-02 3.671278e-02 -1.740882e-02 -8.568566e-04 -4.607426e-02 2.830269e-02 -2.342514e-02 3.980321e-02 -4.189064e-02 5.311830e-02 -3.798951e-02 4.134934e-02 -3.886372e-02 2.212467e-02 -1.070555e-02 8.304544e-03
<VARIANCE> 36
 7.827827e-01 2.289758e+00 3.832452e+00 6.717177e+00 7.399718e+00 7.982369e+00 5.597982e+00 3.606897e+00 1.508806e+00 5.672626e-01 1.222707e-01 2.896409e-02 3.027136e-02 2.449185e-02 2.615353e-02 1.546663e-02 2.973045e-02 1.915188e-02 2.395302e-02 1.467815e-02 1.368171e-02 6.729486e-03 3.209641e-03 1.145375e-03 4.344067e-03 8.610352e-03 2.344184e-02 5.401347e-02 7.945987e-02 9.309141e-02 8.222731e-02 6.006043e-02 3.062519e-02 1.256079e-02 3.646134e-03 7.678084e-04
<GCONST> -2.870200e+01
<STATE> 5
<MEAN> 36
 -2.661591e+00 4.692751e+00 -6.800966e+00 8.316417e+00 -8.827944e+00 8.262715e+00 -6.897759e+00 4.995344e+00 -3.098837e+00 1.606725e+00 -6.436360e-01 1.758331e-01 1.078983e-02 -9.099805e-03 -4.418112e-03 2.030461e-02 -4.594794e-02 5.005837e-02 -6.127799e-02 5.358563e-02 -4.996417e-02 2.888288e-02 -1.804329e-02 6.221033e-03 1.090448e-02 -1.965766e-02 3.250619e-02 -3.985207e-02 4.451063e-02 -3.871350e-02 3.185616e-02 -2.159905e-02 1.405457e-02 -7.844605e-03 4.116083e-03 -1.800874e-03
<VARIANCE> 36
 2.747871e-01 2.020590e+00 7.211978e+00 1.651056e+01 2.634342e+01 3.234761e+01 3.153468e+01 2.395711e+01 1.350386e+01 5.142544e+00 1.100449e+00 8.256570e-02 4.000060e-02 2.735662e-01 8.864896e-01 1.945292e+00 2.957669e+00 3.524784e+00 3.352160e+00 2.513370e+00 1.389641e+00 5.277464e-01 1.171330e-01 1.012927e-02 7.077719e-03 5.074521e-02 1.644760e-01 3.621050e-01 5.498230e-01 6.537646e-01 6.281347e-01 4.726228e-01 2.639988e-01 1.004633e-01 2.262450e-02 2.043877e-03
<GCONST> 5.242900e+01
<STATE> 6
<MEAN> 36
 -5.570318e-01 7.121984e-01 -1.155533e+00 1.244638e+00 -1.355252e+00 1.253883e+00 -1.140509e+00 8.201029e-01 -5.889340e-01 3.212063e-01 -2.029358e-01 9.919025e-02 1.557964e-02 -3.379832e-03 8.605020e-02 -1.213219e-01 1.531358e-01 -1.223468e-01 1.172033e-01 -8.315634e-02 4.327774e-02 -2.045378e-02 1.211063e-02 -7.021884e-03 -4.112024e-02 2.781541e-02 -2.855673e-02 4.609578e-02 -4.840046e-02 4.132503e-02 -1.286414e-02 1.078009e-02 4.337562e-04 -4.140146e-03 5.597521e-03 2.393474e-03
<VARIANCE> 36
 7.057185e-01 2.187211e+00 4.149802e+00 7.274144e+00 8.815602e+00 8.671302e+00 6.538537e+00 3.969626e+00 1.821089e+00 6.055685e-01 1.434364e-01 2.324889e-02 4.787735e-02 5.943557e-02 1.355948e-01 2.425547e-01 3.281540e-01 3.332988e-01 2.468705e-01 1.478328e-01 6.614029e-02 2.356770e-02 5.486164e-03 1.875501e-03 4.849246e-03 2.061003e-02 4.928250e-02 9.109920e-02 1.288265e-01 1.455615e-01 1.326417e-01 9.628166e-02 5.048276e-02 1.954090e-02 4.824791e-03 6.720238e-04
<GCONST> -3.270444e+00
<STATE> 7
<MEAN> 36
 -6.047344e-01 7.704320e-01 -1.070697e+00 1.039138e+00 -1.073389e+00 9.235765e-01 -7.830715e-01 5.563077e-01 -4.351435e-01 2.258461e-01 -1.465907e-01 6.845552e-02 -3.195350e-02 3.858298e-02 2.298461e-02 -2.358857e-02 3.669077e-02 -2.698248e-02 5.396327e-02 -3.304290e-02 2.309039e-02 -1.313049e-02 1.591168e-02 -2.478776e-03 -2.700776e-02 1.867383e-02 -3.621815e-02 6.110633e-02 -6.457461e-02 5.410320e-02 -3.611260e-02 1.988568e-02 -6.346945e-04 -3.210225e-03 4.518071e-03 3.210304e-03
<VARIANCE> 36
 7.031590e-01 1.555985e+00 2.694661e+00 4.249925e+00 4.753386e+00 4.545238e+00 3.377183e+00 2.072715e+00 9.834568e-01 3.830683e-01 9.540994e-02 1.711735e-02 3.885119e-02 8.593257e-02 2.418017e-01 4.935009e-01 7.322443e-01 8.381943e-01 7.312619e-01 5.075175e-01 2.566368e-01 9.248641e-02 2.058022e-02 3.052563e-03 5.195915e-03 1.210674e-02 2.248457e-02 3.339332e-02 4.379939e-02 4.141210e-02 3.052554e-02 1.773861e-02 8.625282e-03 3.662817e-03 9.168272e-04 2.616966e-04
<GCONST> -1.271357e+01
<TRANSP> 8
 0.000000e+00 4.832887e-01 5.167113e-01 0.000000e+00 0.000000e+00 0.000000e+00 0.000000e+00 0.000000e+00
 0.000000e+00 8.516388e-01 8.696508e-02 6.139611e-02 0.000000e+00 0.000000e+00 0.000000e+00 0.000000e+00
 0.000000e+00 0.000000e+00 9.608179e-01 3.918213e-02 0.000000e+00 0.000000e+00 0.000000e+00 0.000000e+00
 0.000000e+00 0.000000e+00 0.000000e+00 0.000000e+00 1.749988e-01 8.250012e-01 0.000000e+00 0.000000e+00
 0.000000e+00 0.000000e+00 0.000000e+00 0.000000e+00 9.453133e-01 5.468675e-02 0.000000e+00 0.000000e+00
 0.000000e+00 0.000000e+00 0.000000e+00 0.000000e+00 0.000000e+00 0.000000e+00 1.000000e+00 0.000000e+00
 0.000000e+00 0.000000e+00 0.000000e+00 0.000000e+00 0.000000e+00 0.000000e+00 9.085321e-02 9.091468e-01
 0.000000e+00 0.000000e+00 0.000000e+00 0.000000e+00 0.000000e+00 0.000000e+00 0.000000e+00 0.000000e+00
<ENDHMM>
