~o
<STREAMINFO> 1 39
<VECSIZE> 39<NULLD><MFCC_D_A_0><DIAGC>
~h "sil"
<BEGINHMM>
<NUMSTATES> 6
<STATE> 2
<MEAN> 39
 -9.294994e+00 1.237412e+00 -1.457023e+01 -7.375127e+00 -5.119056e+00 -9.942876e-01 6.951490e-01 -4.437408e-01 -8.722626e+00 -7.888840e+00 -4.613980e-01 2.238961e+00 4.063749e+01 -1.415596e-01 9.236164e-02 -1.655318e-01 -2.913336e-01 -7.548442e-02 5.681941e-02 1.305646e-01 -9.556630e-02 -1.956457e-01 -4.540068e-02 -1.439587e-02 -1.459765e-03 -1.270834e-01 -4.060195e-02 -4.453359e-03 1.502953e-01 1.012017e-01 -3.351153e-03 -2.287505e-02 -5.716601e-02 2.442662e-02 7.895345e-02 4.183107e-02 -1.730234e-02 -4.010886e-02 -1.679746e-02
<VARIANCE> 39
 1.713700e+01 5.419555e+01 6.375572e+01 5.992920e+01 3.377993e+01 6.118147e+01 4.341868e+01 5.150891e+01 6.071091e+01 4.391594e+01 3.656890e+01 2.997285e+01 1.502799e+01 1.001451e+00 2.272107e+00 3.494266e+00 3.211910e+00 2.888487e+00 4.223742e+00 3.722962e+00 3.996364e+00 4.180027e+00 3.736643e+00 3.801969e+00 3.320409e+00 9.975433e-01 1.230189e-01 2.796731e-01 4.416219e-01 5.740570e-01 5.572293e-01 8.021888e-01 7.802764e-01 8.362364e-01 8.418382e-01 7.202642e-01 7.787352e-01 6.946941e-01 9.372573e-02
<GCONST> 1.239705e+02
<STATE> 3
<MEAN> 39
 -1.971113e+01 2.419775e+00 -3.880400e+00 4.681181e+00 1.955833e+00 3.994371e+00 5.874060e+00 -1.318626e+00 2.892434e-01 8.240001e-01 3.641875e+00 2.148990e+00 5.397132e+01 -5.084160e-02 2.024328e-02 1.257434e-02 3.409470e-02 4.911811e-02 -9.666644e-03 3.495240e-02 1.648830e-01 1.001585e-01 2.382471e-02 4.090357e-02 5.046017e-02 -4.540594e-02 1.795219e-02 1.718304e-02 3.979347e-02 3.027956e-02 2.564167e-03 8.140828e-03 6.113289e-03 -7.352959e-03 -2.322826e-03 -6.952262e-03 -2.273954e-02 -1.230721e-02 1.841721e-02
<VARIANCE> 39
 3.721359e+00 6.470673e+00 8.551102e+00 9.048699e+00 7.490880e+00 1.007332e+01 9.547288e+00 2.302729e+01 1.443844e+01 1.767536e+01 1.197732e+01 1.027208e+01 2.580464e+00 1.156914e-01 2.854774e-01 3.953294e-01 4.698287e-01 6.134518e-01 7.694036e-01 7.834692e-01 9.600148e-01 8.419795e-01 8.576112e-01 7.558868e-01 8.107144e-01 5.904677e-02 2.333262e-02 5.243806e-02 7.651825e-02 9.460921e-02 1.281948e-01 1.461182e-01 1.536097e-01 2.017293e-01 1.603915e-01 1.648035e-01 1.453357e-01 1.494077e-01 1.315777e-02
<GCONST> 5.957240e+01
<STATE> 4
<MEAN> 39
 -1.521640e+01 7.592079e+00 -1.635783e+00 -5.821887e-01 -3.940039e+00 -1.950779e+00 -2.548023e+00 -9.930677e-01 -2.379710e+00 -2.428884e+00 -2.535430e+00 -7.179496e-01 3.551129e+01 -8.521812e-02 -2.236916e-02 1.497155e-01 2.669770e-01 1.228541e-01 -9.687143e-02 -1.711169e-01 3.653452e-02 1.852980e-01 1.367391e-01 -1.338787e-02 -2.786453e-02 -5.886441e-02 6.764453e-02 -7.764824e-02 -1.085340e-01 -1.899466e-02 2.159211e-02 1.837077e-02 4.149175e-02 3.215583e-02 -3.796066e-02 -5.719928e-02 2.975734e-02 6.504745e-02 6.048955e-02
<VARIANCE> 39
 1.272382e+01 1.631444e+01 3.837319e+01 4.451282e+01 3.499406e+01 4.392784e+01 5.191262e+01 6.154995e+01 6.692609e+01 5.220977e+01 5.372453e+01 4.300007e+01 6.295402e+00 9.140372e-01 1.218468e+00 3.018815e+00 3.730103e+00 3.545244e+00 4.833138e+00 5.107933e+00 5.596371e+00 6.101059e+00 5.885355e+00 5.286453e+00 4.783098e+00 5.384269e-01 1.654415e-01 2.733773e-01 5.061905e-01 6.450247e-01 7.266482e-01 1.026511e+00 1.050191e+00 1.133315e+00 1.245249e+00 1.229014e+00 1.093338e+00 9.614475e-01 1.062059e-01
<GCONST> 1.264205e+02
<STATE> 5
<MEAN> 39
 -1.043259e+01 -3.494771e-01 -4.330050e+00 2.333723e+00 -1.773873e+00 -1.653619e+00 -2.751509e+00 3.489724e-01 -1.179897e+00 -4.143126e+00 -1.675113e+00 1.696944e+00 4.433844e+01 8.918169e-01 -6.521825e-01 2.426090e-01 3.102295e-01 1.515612e-01 -3.811781e-02 -3.813056e-01 -1.955651e-01 -9.005445e-02 -3.371660e-01 -4.654424e-02 1.333523e-01 1.097819e+00 6.349567e-02 9.291501e-02 7.425970e-02 -2.862677e-02 -1.234370e-02 -9.319765e-03 -8.148307e-02 -7.954881e-02 -1.462025e-02 -1.630347e-02 -2.244494e-02 -6.215059e-02 5.518982e-02
<VARIANCE> 39
 6.662119e+01 9.251691e+01 8.205471e+01 6.889543e+01 8.059639e+01 5.455791e+01 6.918148e+01 8.188505e+01 8.589941e+01 6.735980e+01 5.190828e+01 5.055971e+01 1.316769e+02 3.582364e+00 8.819664e+00 6.623200e+00 5.282843e+00 7.490160e+00 5.551586e+00 5.753898e+00 6.768474e+00 6.129070e+00 4.890248e+00 5.272451e+00 4.401904e+00 5.907119e+00 5.903527e-01 1.586578e+00 1.206912e+00 9.667135e-01 1.399437e+00 1.227462e+00 1.124510e+00 1.353459e+00 1.186830e+00 9.902984e-01 1.084175e+00 9.081166e-01 1.158625e+00
<GCONST> 1.515524e+02
<TRANSP> 6
 0.000000e+00 7.631560e-01 2.368440e-01 0.000000e+00 0.000000e+00 0.000000e+00
 0.000000e+00 9.410498e-01 1.016383e-03 5.793384e-02 0.000000e+00 0.000000e+00
 0.000000e+00 0.000000e+00 9.688189e-01 0.000000e+00 3.118111e-02 0.000000e+00
 0.000000e+00 0.000000e+00 0.000000e+00 9.488984e-01 3.847190e-02 1.262971e-02
 0.000000e+00 0.000000e+00 0.000000e+00 0.000000e+00 9.063828e-01 9.361722e-02
 0.000000e+00 0.000000e+00 0.000000e+00 0.000000e+00 0.000000e+00 0.000000e+00
<ENDHMM>
