~o
<STREAMINFO> 1 39
<VECSIZE> 39<NULLD><PLP_D_A_0><DIAGC>
~h "sil"
<BEGINHMM>
<NUMSTATES> 8
<STATE> 2
<MEAN> 39
 -1.423167e+00 -5.128801e-01 -1.227055e+00 -8.719720e-01 -7.536112e-01 -5.038447e-01 -2.466822e-01 -3.608434e-01 -5.398911e-01 -3.121163e-01 1.633719e-01 3.002781e-01 2.792031e+00 -7.750258e-03 1.083872e-02 -5.799959e-02 -6.841885e-03 1.540741e-02 -8.133947e-03 -5.032387e-04 -1.455603e-02 -1.164615e-02 1.279524e-02 1.274134e-02 3.581536e-03 -2.012619e-02 3.713742e-03 -6.406742e-03 1.931989e-02 1.832302e-03 -4.999570e-03 9.396799e-04 -5.212571e-03 -2.306551e-04 4.139939e-03 3.514797e-04 -1.372934e-03 -2.763701e-03 1.277999e-02
<VARIANCE> 39
 2.291984e-01 3.998801e-01 6.378648e-01 4.022014e-01 2.294360e-01 3.286215e-01 3.252838e-01 3.705800e-01 3.168473e-01 2.572237e-01 3.423595e-01 1.440044e-01 7.613841e-01 1.651195e-02 3.993614e-02 4.473866e-02 3.322898e-02 2.704843e-02 3.437050e-02 2.897657e-02 3.313306e-02 3.018035e-02 2.960020e-02 3.138847e-02 1.443324e-02 3.537117e-02 2.219256e-03 5.786198e-03 6.769578e-03 5.993091e-03 4.855731e-03 6.705937e-03 5.473587e-03 6.517188e-03 5.838583e-03 6.151149e-03 6.255386e-03 2.910468e-03 4.060794e-03
<GCONST> -5.699310e+01
<STATE> 3
<MEAN> 39
 -1.239705e+00 -1.293393e+00 -3.327414e-01 -1.198670e+00 1.602706e-01 -7.459229e-01 5.329873e-01 -7.038743e-01 7.165197e-03 -3.302852e-01 2.558482e-01 2.183668e-02 4.786977e+00 -6.710381e-03 1.536495e-02 -5.197611e-03 1.691247e-02 5.604260e-03 -2.830562e-03 -2.907028e-03 2.238090e-03 1.058350e-03 -4.259130e-03 -8.324166e-03 -5.357771e-03 -2.076212e-02 -1.069528e-03 4.270627e-03 6.309739e-03 1.586226e-03 1.914369e-03 -1.821322e-03 4.172944e-04 2.478035e-03 1.579780e-03 -4.215705e-03 -2.666424e-03 -6.238856e-04 1.362641e-03
<VARIANCE> 39
 2.110839e-01 4.266465e-01 4.980845e-01 3.001178e-01 5.356079e-01 2.681665e-01 5.384952e-01 2.258175e-01 2.666708e-01 1.892991e-01 1.872929e-01 1.103578e-01 5.207386e-01 7.176913e-03 1.401476e-02 1.208722e-02 1.562934e-02 1.169576e-02 1.111802e-02 9.335252e-03 1.158847e-02 1.178831e-02 1.068446e-02 1.017035e-02 6.211736e-03 9.376549e-03 1.381861e-03 2.019670e-03 2.044442e-03 2.664970e-03 2.244896e-03 2.147530e-03 1.723028e-03 2.157961e-03 2.145054e-03 1.902557e-03 1.689832e-03 1.208207e-03 1.596429e-03
<GCONST> -8.497787e+01
<STATE> 4
<MEAN> 39
 -1.756082e+00 -6.141083e-01 -1.010238e+00 -7.833634e-01 -7.200296e-01 -7.061035e-01 -4.259514e-01 -3.724967e-01 -2.233656e-01 -1.678227e-01 -3.524958e-02 1.496322e-01 4.470148e+00 -1.273031e-03 1.731970e-03 9.565319e-04 1.260196e-03 -4.043921e-04 -1.872774e-03 2.963660e-03 3.817651e-03 2.568137e-04 -8.919068e-04 -1.098526e-03 -1.747144e-03 -1.564299e-03 5.458080e-04 -4.456864e-04 1.671253e-04 -2.717529e-04 -1.976504e-05 4.211013e-04 -4.805678e-04 -3.855330e-04 1.598600e-04 -2.726184e-04 4.211876e-05 2.046393e-04 8.508375e-04
<VARIANCE> 39
 8.872852e-03 3.768073e-02 2.885778e-02 2.518608e-02 2.925148e-02 8.174651e-02 7.845092e-02 1.291914e-01 2.765834e-02 2.782308e-02 8.458866e-02 4.559369e-02 3.409394e-03 2.845830e-04 5.627605e-04 1.047535e-03 1.262974e-03 1.694730e-03 1.821841e-03 2.068144e-03 2.343868e-03 2.329720e-03 2.179196e-03 2.183245e-03 1.077510e-03 1.181903e-04 5.576029e-05 1.163169e-04 1.921554e-04 2.564946e-04 3.421887e-04 3.647565e-04 4.128074e-04 4.776081e-04 4.735202e-04 4.427944e-04 4.413585e-04 2.172544e-04 2.439722e-05
<GCONST> -1.700654e+02
<STATE> 5
<MEAN> 39
 -1.824568e+00 -5.243143e-01 -8.253884e-01 -5.199404e-01 -4.258525e-01 -4.664920e-01 -1.873724e-01 -5.092215e-01 -3.115311e-01 -1.769256e-01 9.129552e-02 1.376750e-01 3.716321e+00 -1.243075e-02 1.050276e-02 1.189242e-02 1.064897e-02 9.125192e-03 9.732327e-05 6.309000e-05 1.196778e-02 1.308605e-02 -4.388980e-03 -1.137607e-02 -5.478943e-03 -1.171380e-02 5.648368e-03 -1.823885e-03 1.049919e-02 3.517204e-03 3.091973e-04 -5.891230e-04 -9.822405e-04 -5.171880e-03 -4.111291e-03 -2.009784e-03 -1.263071e-03 -7.474187e-04 1.303358e-02
<VARIANCE> 39
 1.131117e-01 1.280617e-01 1.674293e-01 1.419186e-01 1.321873e-01 1.062752e-01 1.389323e-01 1.359867e-01 1.031212e-01 8.554699e-02 1.074506e-01 4.245805e-02 9.182538e-01 2.245311e-03 3.755888e-03 6.153495e-03 6.111651e-03 5.211453e-03 5.706856e-03 5.569350e-03 6.516987e-03 5.876678e-03 5.561286e-03 5.443181e-03 2.736177e-03 1.402556e-03 1.060231e-03 1.259499e-03 1.418271e-03 1.777226e-03 1.388991e-03 1.457408e-03 1.330484e-03 1.425671e-03 1.411441e-03 1.276075e-03 1.179153e-03 6.041302e-04 8.651076e-04
<GCONST> -1.124057e+02
<STATE> 6
<MEAN> 39
 -1.759356e+00 -5.584827e-01 -7.822325e-01 -6.977369e-01 -5.377369e-01 -5.568551e-01 -2.070872e-01 -4.168219e-01 -2.295926e-01 -2.136881e-01 1.825510e-02 1.192615e-01 3.746524e+00 3.053006e-02 -1.930473e-03 7.433155e-02 4.229049e-02 1.470355e-02 -6.971848e-03 -2.636022e-02 -3.492825e-02 -1.703619e-02 -1.632710e-02 -4.425918e-04 -1.282978e-02 8.748990e-02 3.298139e-02 -9.584421e-03 1.600398e-02 1.248421e-02 5.089081e-03 -1.956984e-02 -1.863885e-02 -1.340799e-02 -1.688536e-02 -1.451115e-02 -3.737724e-04 -4.572351e-05 4.826704e-02
<VARIANCE> 39
 1.563405e-01 2.464602e-01 2.642156e-01 2.411117e-01 2.843931e-01 1.912348e-01 2.173387e-01 1.912669e-01 1.490060e-01 1.043921e-01 1.526012e-01 6.516261e-02 9.759031e-01 2.756812e-02 3.436983e-02 2.873274e-02 2.791158e-02 2.155555e-02 2.119118e-02 1.874009e-02 2.103299e-02 1.838682e-02 1.532632e-02 1.662000e-02 7.895687e-03 2.738498e-02 4.937776e-03 6.327412e-03 4.778355e-03 4.847096e-03 4.320536e-03 3.865978e-03 4.103863e-03 4.070377e-03 3.553000e-03 2.695073e-03 3.088546e-03 1.599707e-03 5.025866e-03
<GCONST> -7.166790e+01
<STATE> 7
<MEAN> 39
 -1.222381e+00 -8.384834e-01 -4.204724e-01 -7.093545e-01 -3.863890e-01 -9.143748e-01 -2.365448e-01 -6.512864e-01 -3.238034e-01 -4.704228e-01 -1.398126e-02 1.203166e-01 4.431619e+00 1.182446e-01 -3.236543e-02 5.773295e-02 2.199994e-02 -6.110310e-03 -7.499131e-02 -5.300517e-02 -2.722757e-02 -3.141238e-02 -4.532205e-02 -2.246017e-02 -4.541294e-04 1.816175e-01 7.698475e-03 2.013142e-03 -1.060348e-02 -6.315194e-03 -2.366753e-03 -9.269638e-04 -9.750315e-04 9.447235e-03 6.709825e-03 2.077064e-03 -1.414895e-03 1.039417e-03 -3.601611e-03
<VARIANCE> 39
 7.606146e-01 7.708274e-01 7.255762e-01 6.737366e-01 6.984186e-01 5.187232e-01 7.005090e-01 4.727120e-01 4.588756e-01 3.420852e-01 3.683920e-01 2.162044e-01 1.815583e+00 5.967501e-02 7.581137e-02 5.215612e-02 5.726767e-02 6.110099e-02 4.313219e-02 4.693995e-02 4.115710e-02 4.981412e-02 3.350993e-02 4.120750e-02 2.193188e-02 5.879527e-02 1.045398e-02 1.524517e-02 1.027348e-02 9.868965e-03 1.091758e-02 8.107000e-03 8.145314e-03 8.196615e-03 9.432782e-03 6.684988e-03 8.079552e-03 4.615005e-03 1.183293e-02
<GCONST> -3.630897e+01
<TRANSP> 8
 0.000000e+00 3.256516e-01 6.743485e-01 0.000000e+00 0.000000e+00 0.000000e+00 0.000000e+00 0.000000e+00
 0.000000e+00 8.851988e-01 1.148013e-01 0.000000e+00 0.000000e+00 0.000000e+00 0.000000e+00 0.000000e+00
 0.000000e+00 0.000000e+00 7.926505e-01 8.383624e-02 1.235133e-01 0.000000e+00 0.000000e+00 0.000000e+00
 0.000000e+00 0.000000e+00 0.000000e+00 9.593267e-01 2.817021e-02 1.250309e-02 0.000000e+00 0.000000e+00
 0.000000e+00 0.000000e+00 0.000000e+00 0.000000e+00 7.889807e-01 2.110193e-01 0.000000e+00 0.000000e+00
 0.000000e+00 0.000000e+00 0.000000e+00 0.000000e+00 0.000000e+00 6.141921e-01 3.858079e-01 0.000000e+00
 0.000000e+00 0.000000e+00 0.000000e+00 0.000000e+00 0.000000e+00 0.000000e+00 7.471963e-01 2.528037e-01
 0.000000e+00 0.000000e+00 0.000000e+00 0.000000e+00 0.000000e+00 0.000000e+00 0.000000e+00 0.000000e+00
<ENDHMM>
