~o
<STREAMINFO> 1 36
<VECSIZE> 36<NULLD><LPC_D_A><DIAGC>
~h "tambah"
<BEGINHMM>
<NUMSTATES> 8
<STATE> 2
<MEAN> 36
 -2.839215e+00 4.662888e+00 -6.290689e+00 7.347343e+00 -7.337256e+00 6.203895e+00 -4.681004e+00 3.077334e+00 -1.593875e+00 6.140339e-01 -1.506970e-01 3.724289e-02 2.043472e-02 -5.762550e-02 5.822793e-02 -6.832816e-02 7.338268e-02 -4.173160e-02 7.357140e-03 -2.986214e-03 -5.108364e-04 1.424286e-02 -6.491890e-03 -1.340074e-03 1.903176e-02 -3.839579e-02 5.401930e-02 -7.634782e-02 8.534203e-02 -7.441406e-02 5.823848e-02 -4.204885e-02 2.223195e-02 -8.795042e-03 3.676848e-03 -1.456997e-03
<VARIANCE> 36
 7.135068e-01 9.226374e+00 4.030310e+01 1.053854e+02 1.929732e+02 2.607518e+02 2.591992e+02 1.893014e+02 1.018434e+02 3.807946e+01 8.202139e+00 5.343534e-01 9.100402e-02 9.768317e-01 3.943746e+00 1.008072e+01 1.809888e+01 2.407083e+01 2.384891e+01 1.751887e+01 9.490758e+00 3.587776e+00 7.845054e-01 5.136430e-02 1.477301e-02 1.872691e-01 8.270163e-01 2.199111e+00 4.063070e+00 5.532657e+00 5.557304e+00 4.099916e+00 2.229439e+00 8.455068e-01 1.837526e-01 1.174594e-02
<GCONST> 1.169028e+02
<STATE> 3
<MEAN> 36
 -1.164908e+00 8.454194e-01 -9.476416e-01 1.016808e+00 -8.501577e-01 7.240654e-01 -5.338699e-01 4.558136e-01 -2.817430e-01 1.984523e-01 -1.802040e-01 8.774337e-02 -6.096171e-02 5.681691e-03 8.040505e-03 2.644367e-03 -1.274630e-02 7.498803e-04 -1.554700e-04 5.455901e-04 -2.607029e-03 1.975315e-03 -1.522500e-02 1.033467e-02 -3.216122e-03 1.195304e-02 -2.631274e-02 2.753121e-02 -2.533221e-02 3.002951e-02 -2.784219e-02 2.711469e-02 -1.632901e-02 8.254712e-03 -4.223275e-04 3.258577e-03
<VARIANCE> 36
 4.582840e-01 1.001268e+00 1.448555e+00 1.519139e+00 1.129548e+00 5.816315e-01 2.916830e-01 1.925882e-01 1.497274e-01 1.105628e-01 7.455575e-02 2.274796e-02 4.972455e-02 7.248138e-02 6.359155e-02 8.576124e-02 9.541392e-02 9.088577e-02 7.640826e-02 5.767763e-02 3.413663e-02 1.658669e-02 6.716217e-03 2.094883e-03 1.133624e-02 1.564262e-02 1.355542e-02 2.227482e-02 2.822581e-02 2.754454e-02 2.318125e-02 1.581870e-02 8.782583e-03 3.698776e-03 1.382533e-03 4.840947e-04
<GCONST> -4.362913e+01
<STATE> 4
<MEAN> 36
 -2.988429e-01 -5.170258e+00 1.573021e+01 -3.048218e+01 4.546695e+01 -5.579761e+01 5.733246e+01 -4.973708e+01 3.623090e+01 -2.136899e+01 9.571903e+00 -2.392081e+00 -3.998176e-02 8.425919e-02 -1.443201e-01 2.070786e-01 -2.694306e-01 2.851386e-01 -2.726765e-01 2.288239e-01 -1.591751e-01 9.188010e-02 -4.076818e-02 1.284503e-02 9.588995e-03 -3.227544e-02 6.374609e-02 -9.846713e-02 1.243710e-01 -1.373638e-01 1.313961e-01 -1.089521e-01 7.718769e-02 -4.657915e-02 2.167063e-02 -5.400159e-03
<VARIANCE> 36
 3.703774e+02 6.339719e+03 3.362513e+04 1.001058e+05 1.952585e+05 2.694888e+05 2.695093e+05 1.953146e+05 1.001572e+05 3.364171e+04 6.342874e+03 3.709880e+02 3.754111e+01 6.435351e+02 3.419171e+03 1.018116e+04 1.986505e+04 2.743108e+04 2.744489e+04 1.989365e+04 1.020457e+04 3.429778e+03 6.471490e+02 3.788393e+01 7.456922e+00 1.278647e+02 6.793975e+02 2.022321e+03 3.945145e+03 5.447355e+03 5.450012e+03 3.950494e+03 2.026584e+03 6.812639e+02 1.285865e+02 7.531993e+00
<GCONST> 3.596973e+02
<STATE> 5
<MEAN> 36
 -1.616740e+00 1.715027e+00 -2.043283e+00 2.268369e+00 -2.051291e+00 1.632998e+00 -1.198630e+00 7.981908e-01 -4.107765e-01 2.141220e-01 -1.515574e-01 8.562988e-02 -1.316972e-02 -7.237407e-02 4.766991e-02 -7.825390e-02 7.002488e-02 -8.645260e-02 4.784234e-02 -3.948784e-02 1.830801e-02 -1.213784e-02 2.668724e-03 2.410737e-03 3.293720e-02 -2.204239e-02 -1.722040e-03 -7.237867e-03 9.831619e-03 2.748003e-03 -1.520737e-03 4.484853e-03 -2.972184e-03 2.405453e-03 4.523204e-03 -7.267808e-04
<VARIANCE> 36
 5.233129e-01 2.284178e+00 4.059884e+00 4.920353e+00 4.926393e+00 3.623887e+00 2.240536e+00 1.300543e+00 6.748285e-01 3.176134e-01 1.571800e-01 3.147688e-02 4.362822e-02 9.273880e-02 1.701741e-01 2.673942e-01 3.100748e-01 2.748268e-01 2.084640e-01 1.355032e-01 7.304905e-02 3.037643e-02 1.000501e-02 2.112726e-03 1.098674e-02 2.526944e-02 3.942466e-02 6.388487e-02 7.490575e-02 7.300694e-02 5.788258e-02 3.936505e-02 2.098709e-02 8.718408e-03 2.780233e-03 6.096131e-04
<GCONST> -1.242562e+01
<STATE> 6
<MEAN> 36
 -7.833307e-01 9.559902e-02 -4.569710e-01 5.069293e-01 -3.859780e-01 3.164722e-01 -3.725763e-01 3.453513e-01 -2.113562e-01 1.796569e-01 -2.184143e-01 1.507928e-01 2.300874e-02 -8.386384e-03 2.906826e-04 -1.147118e-02 8.912498e-03 -8.195550e-03 4.791729e-03 -7.977988e-03 3.357148e-03 -1.645774e-03 3.860225e-03 -1.513235e-03 1.329541e-03 1.151687e-02 -5.776627e-03 6.931628e-03 -5.039097e-03 8.708305e-03 -2.960834e-03 3.882669e-03 -2.741388e-03 1.705163e-03 -1.944032e-05 -3.419587e-04
<VARIANCE> 36
 2.505094e-01 2.960071e-01 3.490355e-01 3.186122e-01 2.428112e-01 1.552680e-01 1.112650e-01 1.052962e-01 3.906321e-02 4.608579e-02 4.000958e-02 1.295893e-02 3.005531e-02 2.230413e-02 1.809082e-02 2.115213e-02 1.745644e-02 9.844509e-03 8.428128e-03 7.794185e-03 3.408020e-03 3.140580e-03 3.259463e-03 1.432538e-03 6.774398e-03 4.409431e-03 4.396975e-03 5.047162e-03 5.397924e-03 4.377782e-03 3.836754e-03 3.114526e-03 1.557920e-03 9.511332e-04 7.052604e-04 2.963663e-04
<GCONST> -8.936398e+01
<STATE> 7
<MEAN> 36
 -2.088087e+00 3.354550e+00 -4.645251e+00 5.513303e+00 -5.611911e+00 5.058270e+00 -4.095706e+00 2.907073e+00 -1.728560e+00 8.804747e-01 -3.471788e-01 9.940380e-02 -1.062702e-02 6.325238e-02 -9.480114e-02 1.294975e-01 -1.515477e-01 1.754801e-01 -1.477551e-01 1.311903e-01 -9.267883e-02 5.364837e-02 -1.907013e-02 5.995276e-03 3.017858e-04 -1.102712e-02 1.203679e-02 -1.243760e-02 1.356022e-02 -1.513266e-02 1.263114e-02 -9.512858e-03 6.917116e-03 -3.487685e-03 1.474521e-03 7.258049e-04
<VARIANCE> 36
 1.281953e+00 7.088768e+00 1.997625e+01 4.249222e+01 6.739951e+01 8.146616e+01 7.584819e+01 5.333331e+01 2.712117e+01 9.283678e+00 1.797593e+00 1.171753e-01 6.456131e-02 4.222123e-01 1.456586e+00 3.480621e+00 5.909674e+00 7.403194e+00 7.041817e+00 4.982664e+00 2.533449e+00 8.680840e-01 1.708589e-01 1.127946e-02 1.331205e-02 9.026095e-02 3.213066e-01 7.586816e-01 1.273596e+00 1.582492e+00 1.497989e+00 1.058191e+00 5.393765e-01 1.864590e-01 3.673569e-02 2.410475e-03
<GCONST> 7.729211e+01
<TRANSP> 8
 0.000000e+00 1.285732e-01 8.714268e-01 0.000000e+00 0.000000e+00 0.000000e+00 0.000000e+00 0.000000e+00
 0.000000e+00 8.854358e-01 1.145642e-01 0.000000e+00 0.000000e+00 0.000000e+00 0.000000e+00 0.000000e+00
 0.000000e+00 0.000000e+00 5.322078e-01 6.682720e-03 4.611095e-01 0.000000e+00 0.000000e+00 0.000000e+00
 0.000000e+00 0.000000e+00 0.000000e+00 9.411762e-01 5.882382e-02 0.000000e+00 0.000000e+00 0.000000e+00
 0.000000e+00 0.000000e+00 0.000000e+00 0.000000e+00 4.257017e-01 5.742983e-01 0.000000e+00 0.000000e+00
 0.000000e+00 0.000000e+00 0.000000e+00 0.000000e+00 0.000000e+00 9.172553e-01 8.274470e-02 0.000000e+00
 0.000000e+00 0.000000e+00 0.000000e+00 0.000000e+00 0.000000e+00 0.000000e+00 6.735648e-01 3.264352e-01
 0.000000e+00 0.000000e+00 0.000000e+00 0.000000e+00 0.000000e+00 0.000000e+00 0.000000e+00 0.000000e+00
<ENDHMM>
