~o
<STREAMINFO> 1 39
<VECSIZE> 39<NULLD><MFCC_D_A_0><DIAGC>
~h "tambah"
<BEGINHMM>
<NUMSTATES> 6
<STATE> 2
<MEAN> 39
 -5.307792e+00 -7.750161e-01 7.185583e-01 -1.723674e+00 -3.272152e+00 -1.561587e+00 2.399320e+00 -6.017387e+00 -2.287404e+00 -4.617070e+00 2.903424e+00 6.879487e-01 6.722243e+01 1.394466e+00 3.654852e-02 -1.350596e-01 -1.200392e-01 -3.865015e-01 -3.902828e-02 1.700274e-01 -3.714717e-02 -7.360066e-02 -2.929082e-01 2.372849e-01 6.503207e-01 1.158337e+00 8.139177e-02 2.384887e-01 -3.413774e-02 -4.664257e-03 1.443787e-01 -3.356702e-02 -7.941511e-02 1.550719e-01 1.540157e-01 -3.783149e-02 -1.614722e-01 -8.720087e-03 -9.989208e-02
<VARIANCE> 39
 7.617359e+01 5.478051e+01 3.856514e+01 5.450495e+01 9.410951e+01 4.454256e+01 5.777489e+01 6.502163e+01 4.130819e+01 4.250348e+01 3.175480e+01 4.479039e+01 1.384911e+02 5.757635e+00 8.235514e+00 3.421323e+00 4.297278e+00 7.473445e+00 4.486180e+00 4.428993e+00 5.366828e+00 4.186253e+00 3.782848e+00 3.600082e+00 3.380855e+00 6.919420e+00 6.896335e-01 1.574307e+00 6.643769e-01 8.647332e-01 1.370789e+00 9.667936e-01 9.370605e-01 9.948098e-01 8.324900e-01 7.487198e-01 7.217293e-01 5.702795e-01 1.281795e+00
<GCONST> 1.429485e+02
<STATE> 3
<MEAN> 39
 3.397857e+00 5.038069e+00 -2.420512e+00 -2.364188e+00 -8.102167e+00 -3.532151e+00 1.326115e+00 -9.440129e-01 2.275334e+00 -5.695479e+00 -7.845025e-01 4.328500e+00 7.317562e+01 4.303528e-02 1.432646e+00 1.131961e-01 9.377059e-01 1.536090e+00 -3.821000e-01 -6.764306e-01 6.804494e-01 9.546233e-01 1.333718e-01 -1.489799e+00 -1.740251e+00 -9.858876e-01 -5.004647e-01 -5.278221e-02 2.206697e-01 4.754111e-01 5.089913e-01 3.040590e-01 2.729639e-02 -2.827518e-01 -8.345921e-02 1.146525e-01 -2.196946e-01 -6.252189e-01 -3.625558e-01
<VARIANCE> 39
 1.088412e+01 3.527111e+01 2.198292e+01 5.130490e+01 3.777068e+01 3.962697e+01 4.395757e+01 6.084651e+01 2.638701e+01 2.060065e+01 2.660020e+01 5.928073e+01 8.766180e+01 1.215532e+00 1.266984e+00 1.589267e+00 2.697186e+00 4.917097e+00 2.214739e+00 1.933561e+00 2.156735e+00 2.400553e+00 1.930979e+00 2.479926e+00 4.544313e+00 1.097893e+00 2.506409e-01 2.147098e-01 2.020697e-01 3.241675e-01 6.502615e-01 4.177732e-01 4.226051e-01 3.181831e-01 3.994671e-01 4.006124e-01 4.052046e-01 5.283147e-01 1.930360e-01
<GCONST> 1.137693e+02
<STATE> 4
<MEAN> 39
 3.744262e-01 1.321549e+01 8.253769e-02 7.645388e+00 4.723592e+00 -1.142457e+00 -2.521694e+00 1.140546e-01 6.328065e+00 -4.578781e+00 -1.071608e+01 -1.025248e+01 6.597579e+01 -1.334616e-01 5.027726e-01 3.064829e-01 1.733198e-01 3.092839e-01 1.790690e-01 -1.227945e-01 -1.884965e-01 -5.475410e-02 7.517274e-02 -3.028615e-01 -5.335292e-01 -3.311178e-01 1.689084e-01 -2.447539e-01 -8.086852e-02 -4.687341e-01 -7.189237e-01 -1.624571e-01 9.191126e-02 -3.554559e-02 -1.904845e-01 -1.023657e-01 4.615636e-01 7.451248e-01 2.900018e-01
<VARIANCE> 39
 7.125583e+00 1.359029e+01 1.423483e+01 1.465758e+01 1.595012e+01 2.846410e+01 1.418168e+01 5.121644e+01 2.929920e+01 2.156094e+01 2.143944e+01 1.687881e+01 7.373904e+01 2.777951e-01 4.093711e-01 4.749099e-01 1.859269e+00 3.683068e+00 1.168989e+00 8.221746e-01 8.002251e-01 1.441360e+00 9.938532e-01 2.636955e+00 4.297751e+00 4.267104e-01 4.533752e-02 1.303261e-01 1.193596e-01 1.867076e-01 3.689606e-01 2.256018e-01 1.535501e-01 1.776475e-01 2.593139e-01 2.422985e-01 2.635055e-01 4.230685e-01 7.800698e-02
<GCONST> 8.908051e+01
<STATE> 5
<MEAN> 39
 -3.375750e-02 -3.926013e-01 9.305705e-01 -5.336105e+00 -3.741622e+00 -2.416990e+00 6.273617e+00 -6.542693e+00 3.024097e+00 -6.991874e+00 -1.822490e+00 6.745319e-01 7.060420e+01 -2.882897e-01 -3.473735e-01 6.921965e-02 1.286748e-02 -2.795536e-02 9.846338e-02 1.041930e-01 -1.162501e-01 -2.435457e-01 4.681775e-02 3.089247e-01 3.371517e-01 -8.241872e-02 -3.835905e-02 2.773650e-02 1.025903e-02 6.839562e-02 1.105941e-01 1.589509e-02 -1.718275e-02 1.386465e-02 2.520420e-02 2.422730e-02 -6.179864e-02 -1.213543e-01 -3.346262e-02
<VARIANCE> 39
 4.937147e+01 7.616339e+01 6.792529e+01 1.262796e+02 8.427997e+01 6.347679e+01 8.017654e+01 1.179776e+02 5.747557e+01 4.332771e+01 5.669570e+01 5.969100e+01 1.105117e+02 1.562464e+00 3.419697e+00 2.136991e+00 3.187183e+00 5.673480e+00 3.139614e+00 2.768932e+00 3.122510e+00 3.148572e+00 2.884887e+00 3.191699e+00 4.372152e+00 2.425054e+00 2.046873e-01 4.550570e-01 3.493395e-01 4.677238e-01 7.628177e-01 5.820468e-01 4.636758e-01 5.504224e-01 5.683148e-01 4.824249e-01 4.602811e-01 5.339301e-01 3.243946e-01
<GCONST> 1.315315e+02
<TRANSP> 6
 0.000000e+00 6.929063e-01 3.070937e-01 0.000000e+00 0.000000e+00 0.000000e+00
 0.000000e+00 8.843368e-01 1.156632e-01 0.000000e+00 0.000000e+00 0.000000e+00
 0.000000e+00 0.000000e+00 7.535749e-01 1.830661e-01 6.335904e-02 0.000000e+00
 0.000000e+00 0.000000e+00 0.000000e+00 8.859235e-01 1.140765e-01 0.000000e+00
 0.000000e+00 0.000000e+00 0.000000e+00 0.000000e+00 9.568498e-01 4.315019e-02
 0.000000e+00 0.000000e+00 0.000000e+00 0.000000e+00 0.000000e+00 0.000000e+00
<ENDHMM>
