~o
<STREAMINFO> 1 39
<VECSIZE> 39<NULLD><PLP_D_A_0><DIAGC>
~h "tiga"
<BEGINHMM>
<NUMSTATES> 8
<STATE> 2
<MEAN> 39
 -8.804720e-01 -1.208158e+00 -1.940618e-02 2.451791e-01 -2.848977e-01 -1.167433e+00 -1.182172e+00 -8.535052e-01 -3.868490e-01 -5.108331e-01 1.443185e-01 -5.087604e-02 5.003272e+00 1.788039e-01 5.011597e-03 2.119527e-01 3.280010e-01 1.632350e-01 -2.136662e-01 -2.099031e-01 -2.065758e-02 -8.705608e-02 -6.464224e-02 -7.823056e-02 -9.674556e-02 1.722904e-01 -2.444449e-02 7.786329e-02 -3.477135e-02 -9.957140e-03 8.865533e-03 1.516243e-02 7.042857e-02 4.837915e-02 -4.264133e-03 1.590638e-02 -2.743963e-02 -2.537741e-03 -8.804931e-02
<VARIANCE> 39
 2.531600e-01 4.325718e-01 6.153043e-01 8.552915e-01 6.350973e-01 8.105388e-01 6.234890e-01 2.519257e-01 3.075226e-01 3.324823e-01 3.103286e-01 1.461184e-01 1.181648e+00 1.670307e-02 7.181913e-02 3.917954e-02 4.998134e-02 4.572081e-02 5.907402e-02 4.881537e-02 3.555832e-02 3.311760e-02 2.505275e-02 3.521879e-02 1.425949e-02 4.789230e-02 5.734620e-03 1.257514e-02 1.058767e-02 1.498692e-02 9.306764e-03 1.211863e-02 1.429295e-02 6.532258e-03 7.033697e-03 6.614608e-03 5.709748e-03 2.663430e-03 1.055008e-02
<GCONST> -4.413599e+01
<STATE> 3
<MEAN> 39
 -7.446216e-01 -8.937196e-01 7.028104e-01 5.764051e-01 3.574789e-01 -2.039770e+00 -9.508309e-01 -6.553575e-01 -5.264482e-01 -5.213021e-01 -4.110079e-01 -2.731301e-01 5.357625e+00 -3.884850e-02 1.641295e-01 -7.863168e-02 -2.561923e-02 2.679854e-03 1.176519e-01 1.422022e-01 4.355734e-02 3.692672e-02 1.738130e-02 -2.338109e-02 -7.540629e-03 -1.658765e-01 -2.250303e-02 -4.490144e-02 -6.288449e-02 -9.509032e-02 -4.354344e-02 7.419582e-02 3.222915e-02 -3.194862e-02 2.025146e-02 9.454629e-03 3.910707e-02 3.266686e-02 1.224910e-02
<VARIANCE> 39
 9.503044e-02 6.725510e-01 1.015857e+00 9.338002e-01 2.862502e-01 1.332467e+00 5.154170e-01 3.573494e-01 2.303719e-01 2.092879e-01 4.657177e-01 1.394294e-01 8.863374e-01 9.649684e-03 2.415709e-02 3.363878e-02 2.935224e-02 1.756058e-02 5.932556e-02 2.689496e-02 1.858098e-02 2.092897e-02 2.000973e-02 2.991269e-02 1.394625e-02 2.211575e-02 3.093587e-03 1.144596e-02 5.026937e-03 8.681453e-03 6.244886e-03 1.030024e-02 8.335781e-03 3.359092e-03 5.699837e-03 4.445207e-03 5.050853e-03 3.846228e-03 1.046366e-02
<GCONST> -5.520783e+01
<STATE> 4
<MEAN> 39
 -9.641367e-01 -7.868655e-01 -9.976432e-02 1.350483e-01 1.325002e-01 -1.004898e+00 -6.977832e-01 -8.724025e-01 -3.613268e-01 -4.689110e-01 -9.528473e-02 -2.095981e-01 5.021049e+00 8.106274e-02 -2.196821e-01 -9.162178e-02 -2.290945e-01 -9.931782e-02 -1.323884e-03 -8.653854e-02 -1.353836e-01 -5.066160e-02 2.348025e-02 1.407661e-01 1.333647e-01 2.642740e-01 7.827927e-02 -3.216003e-02 1.984585e-02 -1.597887e-02 -4.401306e-02 -7.429389e-02 -5.706992e-02 8.068304e-05 -2.778511e-02 -8.566851e-03 3.702878e-02 4.530415e-02 7.422942e-02
<VARIANCE> 39
 2.258767e-01 7.159796e-01 5.820590e-01 8.905230e-01 4.431392e-01 3.305210e-01 4.938066e-01 4.940853e-01 3.102868e-01 2.710663e-01 1.797988e-01 1.102156e-01 1.103274e+00 2.841310e-02 4.233022e-02 4.175648e-02 3.263330e-02 2.965774e-02 7.305687e-02 6.984959e-02 2.438070e-02 3.906468e-02 3.541387e-02 2.851017e-02 1.765742e-02 3.925249e-02 2.954274e-03 1.510535e-02 1.001602e-02 7.525554e-03 6.555085e-03 1.346291e-02 1.357194e-02 8.029866e-03 7.899874e-03 8.651595e-03 6.991143e-03 3.323712e-03 1.203012e-02
<GCONST> -4.632938e+01
<STATE> 5
<MEAN> 39
 -1.728319e-01 -1.293790e+00 -2.408978e-01 -5.262489e-01 -3.559002e-01 -1.527208e+00 -1.143151e+00 -1.167617e+00 -6.720784e-01 -3.353908e-01 5.337498e-01 4.273354e-01 5.973095e+00 2.023640e-01 -2.127872e-02 -1.536956e-01 -2.461565e-01 -2.306468e-01 -3.146163e-02 1.445321e-01 9.946041e-02 -1.357855e-02 2.138627e-02 1.046433e-01 1.999676e-01 1.106161e-01 -4.612580e-02 7.372343e-02 -1.104393e-02 2.767017e-02 1.906032e-02 5.622410e-02 9.889113e-02 6.893389e-02 4.742366e-02 -1.956462e-02 -8.059032e-02 -5.407243e-02 -1.010843e-01
<VARIANCE> 39
 1.165645e-01 5.618713e-01 4.745389e-01 9.674614e-01 3.406051e-01 1.106521e+00 8.752884e-01 4.969572e-01 2.371908e-01 6.307715e-01 3.572667e-01 1.690512e-01 9.516604e-01 1.401779e-02 2.346073e-02 3.258963e-02 2.011532e-02 2.172423e-02 5.255213e-02 5.152303e-02 2.634860e-02 3.850625e-02 4.864457e-02 3.882717e-02 2.267878e-02 1.620290e-02 2.563059e-03 6.567776e-03 5.597975e-03 4.954180e-03 6.066110e-03 1.203576e-02 8.791794e-03 5.745012e-03 6.186046e-03 7.274523e-03 5.262094e-03 5.357567e-03 3.281991e-03
<GCONST> -5.166422e+01
<STATE> 6
<MEAN> 39
 -1.353488e-01 -1.130354e+00 -1.011735e+00 -1.183885e+00 -9.503393e-01 -1.324029e+00 -2.198792e-01 -5.749999e-01 -3.676641e-01 -2.535022e-01 5.255511e-01 6.806181e-01 5.927525e+00 -5.308030e-02 9.270244e-02 -1.899351e-02 -5.043739e-03 -3.719713e-02 1.070010e-01 1.086886e-01 6.033308e-02 3.791648e-02 -6.871904e-02 -7.727416e-02 -6.858617e-03 -1.412403e-01 -4.386058e-02 3.397697e-02 3.842418e-02 5.779285e-02 5.401061e-02 9.258283e-03 -3.331627e-02 -2.007806e-02 -1.260987e-02 -8.787274e-03 -1.897518e-02 -3.956924e-02 -4.856278e-02
<VARIANCE> 39
 1.618402e-01 6.033002e-01 6.674255e-01 8.681667e-01 2.367294e-01 5.905519e-01 8.147913e-01 6.439506e-01 3.298473e-01 4.568032e-01 2.935223e-01 1.459973e-01 6.559241e-01 9.164255e-03 2.325839e-02 1.512611e-02 1.546893e-02 1.376643e-02 1.791161e-02 2.554104e-02 2.209468e-02 2.028652e-02 1.791506e-02 1.656555e-02 1.490062e-02 1.792591e-02 2.013521e-03 2.911608e-03 3.110704e-03 3.500391e-03 3.796744e-03 4.448840e-03 4.348779e-03 3.759825e-03 4.066244e-03 4.548036e-03 3.494674e-03 4.124439e-03 3.785903e-03
<GCONST> -6.522806e+01
<STATE> 7
<MEAN> 39
 -4.510072e-01 -5.013639e-01 -5.338696e-01 -8.217347e-01 -5.272238e-01 -9.239101e-01 -2.508453e-01 -6.949399e-01 -5.611060e-01 -7.900672e-01 -4.396685e-02 3.067473e-01 4.998859e+00 -6.246066e-02 1.309624e-02 -2.342290e-02 7.201927e-03 4.350341e-02 -1.392658e-02 -1.109918e-02 1.360960e-02 -1.595378e-02 2.225454e-02 -1.068752e-02 -3.296497e-02 -6.081302e-02 7.620380e-03 -4.646305e-02 -7.489980e-03 -1.903379e-02 -1.849244e-02 -2.005760e-02 -8.507829e-03 -7.761663e-03 6.534246e-03 2.149701e-02 2.379549e-02 1.883321e-02 4.462736e-02
<VARIANCE> 39
 4.132887e-01 5.804369e-01 3.712158e-01 6.107835e-01 4.007117e-01 4.861106e-01 6.732017e-01 4.718532e-01 4.130371e-01 3.685641e-01 3.253925e-01 3.171360e-01 1.182369e+00 2.145080e-02 5.440561e-02 2.804266e-02 3.418669e-02 4.155843e-02 3.975393e-02 3.413517e-02 3.754384e-02 3.553412e-02 3.920825e-02 3.015907e-02 4.542896e-02 5.950310e-02 4.411535e-03 7.746163e-03 4.485557e-03 6.039240e-03 7.825467e-03 7.179359e-03 6.896317e-03 6.756328e-03 7.766121e-03 6.844648e-03 4.955793e-03 8.679192e-03 8.172524e-03
<GCONST> -4.602702e+01
<TRANSP> 8
 0.000000e+00 7.332300e-01 2.667700e-01 0.000000e+00 0.000000e+00 0.000000e+00 0.000000e+00 0.000000e+00
 0.000000e+00 6.827729e-01 3.172271e-01 0.000000e+00 0.000000e+00 0.000000e+00 0.000000e+00 0.000000e+00
 0.000000e+00 0.000000e+00 6.846408e-01 3.153592e-01 0.000000e+00 0.000000e+00 0.000000e+00 0.000000e+00
 0.000000e+00 0.000000e+00 0.000000e+00 6.559299e-01 3.440700e-01 0.000000e+00 0.000000e+00 0.000000e+00
 0.000000e+00 0.000000e+00 0.000000e+00 0.000000e+00 6.205796e-01 3.794204e-01 0.000000e+00 0.000000e+00
 0.000000e+00 0.000000e+00 0.000000e+00 0.000000e+00 0.000000e+00 7.455841e-01 2.544159e-01 0.000000e+00
 0.000000e+00 0.000000e+00 0.000000e+00 0.000000e+00 0.000000e+00 0.000000e+00 7.945716e-01 2.054285e-01
 0.000000e+00 0.000000e+00 0.000000e+00 0.000000e+00 0.000000e+00 0.000000e+00 0.000000e+00 0.000000e+00
<ENDHMM>
