~o
<STREAMINFO> 1 39
<VECSIZE> 39<NULLD><MFCC_D_A_0><DIAGC>
~h "tujuh"
<BEGINHMM>
<NUMSTATES> 6
<STATE> 2
<MEAN> 39
 -1.046517e+00 1.320508e-01 1.294134e+00 9.483897e+00 2.731299e+00 1.600552e-01 -4.894672e+00 1.922837e+00 -6.537336e-01 -1.118823e+01 8.174524e-01 2.753133e+00 5.529853e+01 3.483837e-01 7.357333e-02 3.975257e-02 4.021813e-02 5.051819e-02 9.783494e-03 -5.927971e-02 1.385851e-02 -2.876525e-02 -1.229567e-01 -8.365870e-02 4.272696e-02 3.156670e-01 3.614954e-02 9.325215e-02 4.745475e-03 1.297623e-02 4.113084e-02 7.322969e-02 -2.885030e-03 -1.700527e-02 -8.937940e-03 3.604761e-03 -3.756976e-02 -3.939344e-02 -4.168415e-02
<VARIANCE> 39
 7.034631e+01 8.791164e+01 5.805474e+01 7.016785e+01 6.405512e+01 5.798412e+01 6.453720e+01 6.953661e+01 4.987410e+01 6.220106e+01 3.944637e+01 3.466717e+01 9.971793e+01 4.193388e+00 1.095639e+01 4.921063e+00 4.464995e+00 6.772547e+00 5.126204e+00 6.866004e+00 5.697211e+00 4.215622e+00 6.185230e+00 4.183270e+00 3.216384e+00 4.738283e+00 7.132768e-01 2.227729e+00 8.600368e-01 6.992834e-01 1.291494e+00 9.834032e-01 1.240842e+00 1.070998e+00 8.100271e-01 1.141350e+00 8.156970e-01 6.142994e-01 8.056190e-01
<GCONST> 1.462507e+02
<STATE> 3
<MEAN> 39
 -1.340009e+00 -6.999928e+00 1.470546e+01 -8.359729e+00 5.993743e+00 -1.655148e+01 1.130797e+01 -1.198114e+01 -2.986921e+00 -1.442041e+01 4.602168e-01 -6.725748e+00 7.583596e+01 4.041972e-02 -3.363571e-02 -2.972845e-01 -2.068271e-01 -4.322730e-02 9.461740e-02 1.483131e-01 -8.351051e-02 1.617751e-01 1.184939e-01 -1.131706e-01 2.361819e-01 -4.339764e-03 -1.511490e-02 -4.949201e-02 -5.714697e-02 5.065118e-03 1.492586e-02 6.571646e-03 -7.179988e-03 -1.238150e-02 -1.381558e-02 3.682033e-02 3.601900e-02 1.747731e-02 2.142883e-02
<VARIANCE> 39
 3.431448e+01 4.290358e+01 4.116652e+01 6.772462e+01 1.212223e+02 1.047207e+02 7.379807e+01 5.404423e+01 8.395643e+01 3.577729e+01 4.880993e+01 3.352903e+01 3.450286e+01 3.143054e+00 3.931348e+00 3.074071e+00 2.771208e+00 5.575908e+00 4.389894e+00 5.087913e+00 4.704713e+00 8.855536e+00 3.626427e+00 3.450799e+00 2.331141e+00 3.227529e+00 5.989531e-01 6.452770e-01 5.771090e-01 4.439475e-01 6.918338e-01 6.273453e-01 9.828468e-01 8.180798e-01 1.602764e+00 6.911805e-01 5.786309e-01 4.299808e-01 4.865429e-01
<GCONST> 1.359752e+02
<STATE> 4
<MEAN> 39
 -5.826970e+00 2.206641e+00 3.684167e+00 1.086034e+01 9.411763e+00 1.105664e+00 -5.568137e+00 -5.118814e+00 -3.517972e+00 -7.492052e+00 -2.818899e-01 -5.068784e-01 6.880852e+01 2.576432e-01 9.066529e-02 6.687393e-03 -1.102320e-01 -5.337121e-02 1.335569e-01 -6.200663e-02 5.607318e-03 -4.619707e-02 -1.763978e-01 -1.564574e-01 4.243882e-02 1.275410e-01 -5.455209e-02 -6.938197e-03 -2.509429e-02 -7.853837e-02 -1.133951e-01 -5.520542e-02 6.154575e-02 5.886325e-02 5.397112e-02 3.624472e-02 -1.061762e-02 -1.380433e-03 -4.259866e-02
<VARIANCE> 39
 3.683506e+01 7.784445e+01 4.284834e+01 7.110927e+01 6.451024e+01 6.559762e+01 6.013612e+01 5.355447e+01 4.198844e+01 4.376612e+01 2.506934e+01 2.254290e+01 3.922585e+01 3.589494e+00 6.450883e+00 2.889201e+00 2.387927e+00 3.125347e+00 3.211461e+00 3.950061e+00 4.129426e+00 3.786406e+00 2.469754e+00 1.835300e+00 1.662070e+00 2.108509e+00 5.578418e-01 1.026860e+00 5.769529e-01 4.399722e-01 5.044528e-01 6.295851e-01 6.889347e-01 7.764680e-01 6.861054e-01 4.284140e-01 3.433098e-01 3.018391e-01 3.364218e-01
<GCONST> 1.275976e+02
<STATE> 5
<MEAN> 39
 -3.221817e+00 6.652462e+00 -1.532557e-01 8.872868e-01 -1.358511e+00 -4.808715e+00 -3.240811e+00 -1.969853e+00 -2.601886e+00 -9.983055e+00 -4.822073e+00 -2.525145e+00 6.883704e+01 -3.345956e-01 -3.070122e-02 -2.470272e-01 -1.340569e-01 -2.599627e-01 -1.405264e-01 2.301021e-01 8.427241e-02 2.060313e-01 3.810222e-01 1.314452e-01 4.322430e-02 -3.336058e-01 -2.179946e-02 -8.577634e-02 -1.300772e-02 2.855679e-02 6.706730e-02 2.032762e-02 -2.023908e-02 -6.477919e-02 -3.032739e-02 3.157964e-02 5.977127e-02 3.560351e-02 3.121504e-02
<VARIANCE> 39
 4.034192e+01 3.539566e+01 3.167666e+01 4.736696e+01 4.163281e+01 5.051371e+01 4.421718e+01 3.574702e+01 3.680927e+01 5.024886e+01 2.731450e+01 2.730022e+01 5.482949e+01 5.121966e-01 9.244471e-01 9.470084e-01 1.072615e+00 1.355680e+00 1.957513e+00 1.521236e+00 1.277411e+00 1.762881e+00 1.868049e+00 1.366856e+00 1.039317e+00 5.583770e-01 5.107529e-02 1.096451e-01 1.323363e-01 1.763348e-01 2.196223e-01 3.195307e-01 2.424584e-01 2.385619e-01 2.517234e-01 2.993381e-01 2.611484e-01 2.034117e-01 4.312096e-02
<GCONST> 9.816720e+01
<TRANSP> 6
 0.000000e+00 7.924711e-01 2.075290e-01 0.000000e+00 0.000000e+00 0.000000e+00
 0.000000e+00 9.083424e-01 8.250254e-39 9.165762e-02 0.000000e+00 0.000000e+00
 0.000000e+00 0.000000e+00 9.741777e-01 1.867079e-02 7.151559e-03 0.000000e+00
 0.000000e+00 0.000000e+00 0.000000e+00 9.300514e-01 3.599041e-02 3.395814e-02
 0.000000e+00 0.000000e+00 0.000000e+00 0.000000e+00 9.432869e-01 5.671313e-02
 0.000000e+00 0.000000e+00 0.000000e+00 0.000000e+00 0.000000e+00 0.000000e+00
<ENDHMM>
