~o
<STREAMINFO> 1 39
<VECSIZE> 39<NULLD><MFCC_D_A_0><DIAGC>
~h "delapan"
<BEGINHMM>
<NUMSTATES> 6
<STATE> 2
<MEAN> 39
 3.090061e+00 4.612727e+00 -1.704211e+00 8.110793e+00 -2.630826e-01 -9.347399e-01 -1.904233e+00 4.739557e+00 3.649634e+00 -8.058083e+00 -5.089503e+00 4.918391e+00 5.056052e+01 6.801785e-02 5.273542e-02 2.032469e-03 7.945021e-03 6.527303e-03 -7.231734e-02 1.816533e-02 9.915744e-02 7.479113e-03 -5.758166e-02 -3.473540e-02 -7.084368e-02 1.997722e-02 -2.769307e-03 -1.734896e-02 -6.236135e-03 -5.897574e-03 -1.321221e-02 2.471488e-03 1.120317e-02 -1.453856e-02 -7.040314e-03 1.411498e-02 1.045920e-02 3.431211e-03 3.315420e-03
<VARIANCE> 39
 4.986093e+01 6.809783e+01 4.825906e+01 5.175012e+01 1.129278e+02 5.142078e+01 3.381704e+01 4.915240e+01 5.455840e+01 3.561356e+01 4.716118e+01 4.821678e+01 5.135239e+01 3.354838e+00 5.950315e+00 4.996966e+00 4.161753e+00 9.816162e+00 5.144143e+00 3.379844e+00 4.463614e+00 4.745213e+00 3.713660e+00 4.438501e+00 3.923239e+00 3.222913e+00 4.675570e-01 1.050365e+00 9.246340e-01 7.326364e-01 1.695288e+00 1.011840e+00 6.510925e-01 8.650160e-01 8.895922e-01 7.435650e-01 8.734531e-01 7.213631e-01 4.100671e-01
<GCONST> 1.396123e+02
<STATE> 3
<MEAN> 39
 -1.518453e+00 5.608167e+00 4.835793e-01 4.484290e+00 -2.269633e-01 -5.253505e-01 -3.698368e-01 -7.101269e+00 -1.588153e+00 -3.521247e+00 -7.617279e-01 2.123969e+00 6.787519e+01 2.223524e-01 1.144418e-02 -1.135982e-01 -7.684545e-02 -1.076094e-01 -1.782613e-01 -1.344537e-01 5.237030e-02 -6.385584e-02 -4.131670e-02 3.860511e-02 8.631394e-02 1.614560e-01 -4.245181e-02 -3.783852e-02 -3.842938e-02 -7.218929e-02 -5.961374e-02 -3.540077e-02 2.870157e-02 5.149038e-02 6.787265e-02 1.073029e-02 2.375393e-02 2.816110e-02 -7.773930e-03
<VARIANCE> 39
 4.224650e+01 4.583398e+01 3.185348e+01 6.024263e+01 7.959581e+01 5.768000e+01 4.233876e+01 4.052086e+01 4.006213e+01 3.725092e+01 3.021177e+01 3.717307e+01 6.368783e+01 3.342279e+00 2.936569e+00 1.938004e+00 2.761619e+00 3.716738e+00 2.570033e+00 2.417075e+00 2.760565e+00 2.986107e+00 2.437046e+00 2.241763e+00 2.804524e+00 3.872370e+00 4.306384e-01 4.554994e-01 3.356646e-01 4.478358e-01 5.507579e-01 4.602657e-01 4.535712e-01 4.704001e-01 5.638433e-01 4.204763e-01 3.951671e-01 4.617096e-01 4.843881e-01
<GCONST> 1.241574e+02
<STATE> 4
<MEAN> 39
 1.104477e+00 -7.398808e+00 2.936923e+00 -1.246297e+01 2.619182e+00 -1.535291e+01 1.852389e+01 -1.317175e+01 8.515755e-01 -9.164298e+00 -1.757309e+00 -2.079437e+00 7.602074e+01 -8.870091e-02 -7.146341e-02 2.627005e-03 -1.289477e-01 6.278289e-03 6.628655e-02 1.044178e-01 1.599246e-04 1.007462e-01 1.293037e-02 6.991155e-02 -6.561527e-03 4.129487e-02 -4.421983e-03 -2.539551e-03 1.002050e-02 1.434298e-02 2.624282e-02 4.035580e-03 -1.537229e-02 7.604010e-03 -6.197272e-03 7.578781e-04 -1.525066e-02 -1.238771e-02 4.269580e-03
<VARIANCE> 39
 2.384007e+01 6.602087e+01 3.259381e+01 5.310311e+01 9.332478e+01 9.430659e+01 8.694324e+01 1.050235e+02 5.407624e+01 3.473079e+01 5.820233e+01 3.864844e+01 9.974569e+01 1.329823e+00 3.751478e+00 2.294303e+00 3.202775e+00 5.533045e+00 4.273902e+00 4.353221e+00 4.933016e+00 3.559707e+00 2.507703e+00 3.996342e+00 2.737829e+00 5.158916e+00 2.475392e-01 4.607333e-01 3.366497e-01 5.393831e-01 8.290794e-01 7.038044e-01 6.905432e-01 7.818621e-01 6.467887e-01 5.028667e-01 7.348264e-01 5.041198e-01 6.933817e-01
<GCONST> 1.330956e+02
<STATE> 5
<MEAN> 39
 -7.936506e-01 2.350864e+00 -7.909461e+00 -3.098830e+00 -3.984056e+00 -7.813683e+00 -2.850679e+00 1.538041e+00 9.349031e-01 -4.582644e+00 -5.958514e-01 3.656233e+00 7.187086e+01 -1.345221e-01 -1.953502e-02 -5.422431e-03 1.538177e-03 1.651246e-02 8.354823e-02 6.176093e-02 3.485535e-02 1.187003e-01 8.651052e-02 -3.986916e-02 -4.627723e-02 -1.171373e-01 -3.368742e-04 3.584140e-03 5.551975e-03 2.187064e-02 2.014026e-02 1.898666e-06 -1.714103e-02 -2.684620e-02 -4.127061e-02 -1.530700e-02 2.953101e-03 -1.608660e-02 -5.750334e-03
<VARIANCE> 39
 3.318774e+01 4.179255e+01 4.102787e+01 3.874799e+01 6.928379e+01 3.330953e+01 1.674729e+01 4.234682e+01 3.434780e+01 3.845150e+01 3.427141e+01 4.025920e+01 4.674030e+01 1.281911e+00 1.072456e+00 1.083221e+00 1.469460e+00 1.846372e+00 1.430500e+00 1.375576e+00 1.585744e+00 2.265521e+00 1.488094e+00 1.526064e+00 1.083994e+00 1.301938e+00 1.793036e-01 1.517064e-01 1.655612e-01 2.137705e-01 2.416590e-01 2.606882e-01 2.235150e-01 2.576661e-01 3.357891e-01 2.806803e-01 2.849768e-01 1.934165e-01 1.528760e-01
<GCONST> 1.036656e+02
<TRANSP> 6
 0.000000e+00 2.279227e-01 7.720773e-01 0.000000e+00 0.000000e+00 0.000000e+00
 0.000000e+00 9.794115e-01 1.440830e-03 1.914763e-02 0.000000e+00 0.000000e+00
 0.000000e+00 0.000000e+00 9.356422e-01 2.545885e-02 3.889896e-02 0.000000e+00
 0.000000e+00 0.000000e+00 0.000000e+00 9.474677e-01 2.463801e-10 5.253228e-02
 0.000000e+00 0.000000e+00 0.000000e+00 0.000000e+00 9.743111e-01 2.568893e-02
 0.000000e+00 0.000000e+00 0.000000e+00 0.000000e+00 0.000000e+00 0.000000e+00
<ENDHMM>
