~o
<STREAMINFO> 1 39
<VECSIZE> 39<NULLD><MFCC_D_A_0><DIAGC>
~h "delapan"
<BEGINHMM>
<NUMSTATES> 6
<STATE> 2
<MEAN> 39
 2.148688e+00 3.179925e+00 -4.539861e+00 9.691750e+00 5.038803e+00 -9.186382e-01 -4.095990e+00 2.647846e+00 -6.154293e-01 -6.996314e+00 -2.715680e+00 3.826167e+00 5.465912e+01 6.640879e-01 -3.284713e-01 -2.590285e-01 -2.149938e-01 -3.010038e-01 -2.091455e-01 -3.733557e-01 -1.120929e-01 1.077618e-02 -3.569052e-01 4.692627e-02 4.831609e-01 6.146724e-01 -4.319317e-02 -7.870664e-02 7.196398e-02 -1.582945e-01 -2.897281e-01 3.788702e-02 1.176838e-01 4.583543e-03 1.409853e-01 1.113309e-01 5.692918e-02 6.796446e-02 2.535004e-02
<VARIANCE> 39
 5.403421e+01 5.608951e+01 4.457156e+01 4.830458e+01 7.807981e+01 4.466521e+01 4.443511e+01 5.234839e+01 5.683946e+01 4.860667e+01 7.237225e+01 3.277767e+01 1.128518e+02 2.997934e+00 6.691405e+00 4.934021e+00 4.543612e+00 8.028461e+00 5.533916e+00 4.545438e+00 4.860992e+00 5.114612e+00 4.973156e+00 4.645188e+00 3.468160e+00 2.633237e+00 3.907662e-01 1.293749e+00 8.407370e-01 6.867317e-01 1.114808e+00 1.026526e+00 8.388056e-01 8.808352e-01 9.629469e-01 1.015520e+00 8.361507e-01 5.667958e-01 3.266409e-01
<GCONST> 1.403934e+02
<STATE> 3
<MEAN> 39
 2.177287e+00 2.600298e+00 1.532416e-01 4.196774e+00 -7.114283e+00 1.730309e+00 -1.184176e+00 1.011415e+00 5.099281e+00 -7.414144e+00 -4.037432e+00 8.280168e+00 5.528532e+01 -3.539629e-02 1.068982e-01 3.763317e-02 1.240440e-01 1.349203e-01 -7.605284e-02 1.546615e-01 2.164468e-01 -7.943293e-02 1.594497e-01 1.755389e-01 -1.443415e-01 -6.976301e-02 -2.209918e-02 1.431003e-01 -1.119214e-01 1.672148e-01 3.188733e-01 -1.260063e-01 -3.305013e-02 1.085118e-01 -4.552935e-02 -1.619825e-03 -9.870921e-02 -1.593359e-01 -1.051155e-01
<VARIANCE> 39
 5.145449e+01 5.946632e+01 3.341320e+01 2.817756e+01 6.521509e+01 3.808673e+01 2.887012e+01 6.137866e+01 5.070959e+01 3.345790e+01 3.741700e+01 3.994659e+01 1.066677e+02 3.546968e+00 4.752857e+00 3.660391e+00 3.930920e+00 1.040037e+01 3.390440e+00 2.773602e+00 3.490661e+00 4.446440e+00 2.470153e+00 3.933388e+00 4.211288e+00 3.493838e+00 4.707302e-01 7.589307e-01 6.827907e-01 7.384693e-01 1.870338e+00 6.899480e-01 5.802541e-01 6.953403e-01 8.104662e-01 4.638491e-01 8.389612e-01 7.433745e-01 3.829604e-01
<GCONST> 1.342660e+02
<STATE> 4
<MEAN> 39
 1.089546e+00 -3.076895e+00 -1.372592e+01 -2.281577e+00 3.221484e-01 -6.210456e+00 -2.332441e+00 7.440538e+00 1.999985e+00 3.469652e-01 3.979986e+00 9.724243e+00 7.269543e+01 -1.471049e-01 1.559359e-01 1.067423e-01 2.845406e-02 4.749065e-02 1.852865e-01 2.171065e-01 1.880180e-01 1.660627e-01 -1.441453e-02 -2.104324e-01 -1.195381e-01 -1.703589e-01 -2.118798e-02 2.745935e-02 3.235389e-02 5.049868e-02 4.270119e-02 3.398528e-02 -1.784023e-02 -4.341596e-02 -5.388708e-02 -3.465239e-02 -2.141276e-02 -4.239088e-02 -3.042335e-02
<VARIANCE> 39
 1.498795e+01 2.360184e+01 1.326534e+01 2.419291e+01 3.472934e+01 3.673908e+01 1.432030e+01 1.577285e+01 2.241154e+01 1.508665e+01 2.129655e+01 1.358457e+01 2.538687e+01 8.865143e-01 1.281499e+00 8.905450e-01 1.476439e+00 1.342038e+00 1.520907e+00 1.171170e+00 1.306500e+00 1.785102e+00 1.329051e+00 1.704404e+00 1.027137e+00 1.274354e+00 1.227711e-01 1.802662e-01 1.520791e-01 2.192557e-01 1.688305e-01 2.591338e-01 1.799166e-01 1.954687e-01 2.791004e-01 2.397973e-01 3.125238e-01 1.807398e-01 1.497782e-01
<GCONST> 9.265495e+01
<STATE> 5
<MEAN> 39
 1.424129e-01 9.956793e+00 -1.061102e+00 1.166407e+01 8.363384e+00 -4.110499e-01 -2.698594e+00 4.875122e+00 3.292686e+00 -5.043622e+00 -5.959327e+00 -1.042764e+00 5.453238e+01 -3.085475e-01 1.571223e-01 -2.048514e-01 -2.781570e-01 2.581075e-03 -2.607002e-01 -2.703361e-01 -2.392057e-01 -1.618495e-01 8.735034e-02 4.877813e-04 -2.763005e-01 -3.107568e-01 1.151503e-01 -2.701066e-01 -7.414109e-02 -2.506165e-01 -3.359011e-01 2.295926e-02 -7.551289e-02 -1.241620e-01 -2.284299e-02 -7.012080e-02 1.606523e-01 2.972183e-01 1.928554e-01
<VARIANCE> 39
 3.573358e+01 3.020204e+01 3.241441e+01 3.706639e+01 3.941447e+01 2.773375e+01 2.250547e+01 9.870676e+01 3.892508e+01 3.274718e+01 3.215395e+01 2.421231e+01 1.121315e+02 1.663753e+00 3.203244e+00 3.287194e+00 3.064154e+00 5.326340e+00 2.726356e+00 2.636002e+00 4.348225e+00 3.916081e+00 2.943284e+00 2.759456e+00 3.072400e+00 1.458274e+00 2.629885e-01 3.625032e-01 6.326525e-01 4.022863e-01 6.915712e-01 6.063575e-01 5.134583e-01 8.021297e-01 7.065769e-01 6.104881e-01 3.885339e-01 4.331568e-01 1.844096e-01
<GCONST> 1.232514e+02
<TRANSP> 6
 0.000000e+00 8.439928e-01 1.560072e-01 0.000000e+00 0.000000e+00 0.000000e+00
 0.000000e+00 9.313237e-01 3.816375e-02 3.051258e-02 0.000000e+00 0.000000e+00
 0.000000e+00 0.000000e+00 9.579632e-01 0.000000e+00 4.203676e-02 0.000000e+00
 0.000000e+00 0.000000e+00 0.000000e+00 9.787504e-01 1.417737e-02 7.072192e-03
 0.000000e+00 0.000000e+00 0.000000e+00 0.000000e+00 8.975083e-01 1.024917e-01
 0.000000e+00 0.000000e+00 0.000000e+00 0.000000e+00 0.000000e+00 0.000000e+00
<ENDHMM>
