~o
<STREAMINFO> 1 39
<VECSIZE> 39<NULLD><PLP_D_A_0><DIAGC>
~h "empat"
<BEGINHMM>
<NUMSTATES> 8
<STATE> 2
<MEAN> 39
 -4.846271e-01 -2.427229e-01 -3.158792e-01 -2.854762e-01 -4.048572e-02 -1.129123e+00 -9.397439e-02 -2.588573e-01 -2.810895e-01 -8.696831e-01 -8.972198e-01 -4.410694e-01 4.997016e+00 -5.474139e-03 8.945449e-02 4.864380e-02 3.269403e-02 5.200557e-02 3.192921e-02 -1.436217e-02 -4.405223e-03 1.047605e-02 -1.265924e-02 -5.988676e-02 -6.393519e-02 -5.520948e-02 -5.478917e-02 -3.028201e-02 -1.449803e-02 -2.182566e-02 -2.545613e-02 1.968274e-02 6.508817e-03 -5.803813e-03 2.512737e-03 2.450708e-02 5.582959e-02 3.593864e-02 -3.699419e-02
<VARIANCE> 39
 2.416560e-01 5.589476e-01 2.957841e-01 8.753657e-01 3.342677e-01 7.818795e-01 9.141575e-01 5.218990e-01 3.620952e-01 2.194662e-01 3.545435e-01 3.572347e-01 1.039371e+00 3.535450e-02 1.790837e-02 1.573991e-02 2.125324e-02 2.484875e-02 2.716070e-02 2.661630e-02 2.138492e-02 2.918759e-02 1.735785e-02 4.146889e-02 2.618156e-02 3.161162e-02 4.257491e-03 5.427778e-03 3.459551e-03 5.164007e-03 6.051411e-03 4.722032e-03 4.278724e-03 4.212144e-03 5.548471e-03 3.192827e-03 6.900920e-03 6.038057e-03 4.518078e-03
<GCONST> -5.574661e+01
<STATE> 3
<MEAN> 39
 -1.147337e+00 -2.519034e-01 -4.434678e-01 -3.664373e-01 -2.321703e-01 -7.001581e-01 -1.780752e-01 -4.052096e-01 -2.348153e-01 -5.371749e-01 -3.776769e-01 -2.011636e-01 4.395413e+00 6.116576e-02 -2.229543e-01 -1.707571e-01 -1.939747e-01 -2.381565e-01 -5.684412e-02 3.917707e-02 -3.822086e-04 3.570663e-02 6.676508e-02 2.273772e-01 1.721234e-01 1.675857e-01 1.165207e-01 -4.908320e-02 -4.051809e-02 -4.449310e-02 -6.514270e-02 -3.943559e-02 -1.451966e-03 1.905987e-02 3.506673e-02 -1.207875e-02 -8.818044e-03 1.639364e-02 1.330455e-01
<VARIANCE> 39
 1.353565e-01 3.568131e-01 3.165259e-01 3.377669e-01 3.146520e-01 2.341187e-01 3.191714e-01 2.341409e-01 1.509977e-01 1.685749e-01 2.916558e-01 1.037561e-01 6.986896e-01 6.604303e-02 2.938143e-02 1.920538e-02 3.102896e-02 3.431866e-02 4.038298e-02 2.057048e-02 2.213122e-02 4.002675e-02 1.971269e-02 2.802959e-02 1.470540e-02 7.544362e-02 4.576963e-03 7.181815e-03 4.266464e-03 5.196800e-03 5.326193e-03 6.209446e-03 5.131167e-03 3.679329e-03 7.385456e-03 2.973218e-03 7.571092e-03 2.694871e-03 6.244398e-03
<GCONST> -6.062383e+01
<STATE> 4
<MEAN> 39
 8.835645e-03 -1.132725e+00 -8.804395e-01 -1.141629e+00 -1.478695e+00 -8.896958e-01 -1.513585e-01 -3.591770e-01 1.366942e-01 -5.648769e-01 9.090263e-02 4.825705e-01 5.601426e+00 1.375745e-01 -1.043345e-01 -6.344141e-02 -5.542127e-02 -1.047706e-01 2.001181e-02 1.618390e-02 -4.810141e-03 4.310494e-02 -1.479780e-03 3.882521e-02 9.459613e-02 1.772403e-01 -9.505924e-02 7.622990e-02 2.694409e-02 7.059088e-02 1.111795e-01 2.050900e-02 -6.849150e-03 -1.005630e-02 -3.795411e-02 -4.090773e-03 -3.751360e-02 -4.754416e-02 -1.270950e-01
<VARIANCE> 39
 1.214729e-01 4.712229e-01 4.395398e-01 4.194642e-01 4.416027e-01 8.154991e-01 6.472242e-01 4.015505e-01 3.481913e-01 2.953290e-01 1.773464e-01 1.987846e-01 8.670027e-01 6.471165e-02 5.654939e-02 4.597934e-02 4.546369e-02 9.077853e-02 3.850345e-02 2.627295e-02 2.656627e-02 4.953216e-02 2.238187e-02 2.245255e-02 2.610336e-02 1.097922e-01 6.406473e-03 6.405093e-03 1.004414e-02 6.637509e-03 1.011484e-02 1.076494e-02 4.652075e-03 6.060923e-03 8.432922e-03 5.073589e-03 5.051207e-03 4.270555e-03 7.947857e-03
<GCONST> -4.712256e+01
<STATE> 5
<MEAN> 39
 1.052825e-02 -1.709607e+00 -1.463312e+00 -1.704276e+00 -1.134992e+00 -1.006234e+00 4.440539e-01 -5.665643e-01 5.482493e-01 -3.063283e-01 8.968916e-02 4.249141e-01 6.662771e+00 -3.361609e-02 8.575323e-02 6.180534e-02 -2.304895e-02 8.434334e-02 4.288027e-02 -8.139181e-02 -1.073324e-01 -4.567346e-02 3.717733e-02 6.381016e-03 4.828776e-02 -1.108401e-01 -4.614762e-02 6.175270e-02 2.737468e-02 1.212807e-02 2.341882e-02 -1.524527e-02 -2.810048e-02 2.770711e-02 -3.944647e-02 -1.012950e-02 -3.361223e-03 -1.739150e-02 -1.002699e-01
<VARIANCE> 39
 2.548116e-02 5.622075e-01 3.402224e-01 3.949904e-01 4.654399e-01 2.539749e-01 9.907459e-01 7.345152e-01 3.633613e-01 2.412037e-01 2.134630e-01 2.259927e-01 1.716485e-01 3.087746e-03 1.837427e-02 2.193370e-02 1.685705e-02 1.451663e-02 1.743523e-02 1.615984e-02 1.881306e-02 2.347211e-02 1.881245e-02 1.829728e-02 1.675898e-02 2.927578e-02 1.230776e-03 3.053059e-03 6.196240e-03 4.364504e-03 3.989073e-03 3.496941e-03 3.245495e-03 6.031093e-03 3.965621e-03 4.987456e-03 3.706412e-03 2.600299e-03 2.360919e-03
<GCONST> -7.112359e+01
<STATE> 6
<MEAN> 39
 -7.131243e-01 -7.546904e-01 -1.270705e+00 -1.223199e+00 -1.028619e+00 -9.230158e-01 -3.366192e-01 -4.131467e-01 -1.340052e-01 -3.093927e-01 1.537214e-01 5.234795e-01 5.091697e+00 -1.670617e-01 9.197009e-02 1.992533e-02 5.967623e-02 9.844361e-02 2.194622e-02 -6.091463e-03 4.608595e-02 -4.138219e-02 -5.235656e-03 -2.401994e-02 -7.566334e-02 -2.216964e-01 1.051899e-02 -3.449619e-03 1.124998e-02 1.265513e-02 6.440456e-03 2.933246e-04 9.909986e-03 1.085744e-03 1.179232e-02 -2.380292e-03 -1.289758e-02 -1.842334e-02 2.784254e-02
<VARIANCE> 39
 3.046673e-01 2.265117e-01 5.662924e-01 4.079028e-01 2.263122e-01 2.516512e-01 3.017490e-01 2.336808e-01 1.347519e-01 1.433560e-01 1.007210e-01 2.055296e-01 3.310792e-01 1.517195e-02 2.123422e-02 2.736218e-02 2.192837e-02 2.061488e-02 2.309660e-02 1.148603e-02 1.841475e-02 1.594278e-02 1.158252e-02 1.056052e-02 1.369872e-02 2.927421e-02 4.057569e-03 2.677204e-03 4.567252e-03 3.753528e-03 2.697974e-03 2.481190e-03 2.269125e-03 2.860966e-03 3.033326e-03 2.446051e-03 1.922958e-03 1.851062e-03 4.594844e-03
<GCONST> -7.545144e+01
<STATE> 7
<MEAN> 39
 -5.824511e-01 -5.188746e-01 -6.156303e-01 -7.679639e-01 -4.153812e-01 -1.042121e+00 -2.634089e-01 -5.797045e-01 -4.477723e-01 -8.129185e-01 -1.501433e-01 1.962612e-01 4.722488e+00 1.326467e-02 -1.351604e-03 1.650314e-02 4.443159e-03 2.280854e-02 -4.362065e-02 -1.270905e-02 -2.580266e-02 -5.012773e-02 -2.380764e-02 -1.464013e-02 -4.413004e-03 5.838754e-02 2.687850e-02 -4.700508e-02 -6.055632e-03 -2.991397e-02 -3.851269e-02 -3.076715e-03 9.681844e-04 -1.833194e-02 1.257670e-02 1.301283e-02 1.317487e-02 2.681079e-02 5.837021e-02
<VARIANCE> 39
 4.083188e-01 6.425227e-01 3.570110e-01 5.470880e-01 4.068486e-01 4.364445e-01 6.081223e-01 3.628239e-01 3.473383e-01 3.545723e-01 2.766631e-01 2.276905e-01 1.438181e+00 5.080094e-02 5.505449e-02 5.132967e-02 4.338476e-02 4.099841e-02 3.788415e-02 1.988434e-02 2.487629e-02 4.729332e-02 4.545467e-02 3.059560e-02 3.648930e-02 5.879149e-02 8.686583e-03 8.558918e-03 8.223590e-03 7.571455e-03 8.122319e-03 9.845592e-03 4.712184e-03 6.545230e-03 8.940055e-03 8.820711e-03 6.186007e-03 6.570827e-03 1.007714e-02
<GCONST> -4.403588e+01
<TRANSP> 8
 0.000000e+00 8.395650e-01 1.604349e-01 0.000000e+00 0.000000e+00 0.000000e+00 0.000000e+00 0.000000e+00
 0.000000e+00 7.758641e-01 1.640668e-01 6.006916e-02 0.000000e+00 0.000000e+00 0.000000e+00 0.000000e+00
 0.000000e+00 0.000000e+00 7.035506e-01 2.964495e-01 0.000000e+00 0.000000e+00 0.000000e+00 0.000000e+00
 0.000000e+00 0.000000e+00 0.000000e+00 6.650502e-01 1.347140e-01 2.002358e-01 0.000000e+00 0.000000e+00
 0.000000e+00 0.000000e+00 0.000000e+00 0.000000e+00 7.703202e-01 2.296798e-01 0.000000e+00 0.000000e+00
 0.000000e+00 0.000000e+00 0.000000e+00 0.000000e+00 0.000000e+00 7.338704e-01 2.661295e-01 0.000000e+00
 0.000000e+00 0.000000e+00 0.000000e+00 0.000000e+00 0.000000e+00 0.000000e+00 7.457591e-01 2.542409e-01
 0.000000e+00 0.000000e+00 0.000000e+00 0.000000e+00 0.000000e+00 0.000000e+00 0.000000e+00 0.000000e+00
<ENDHMM>
