~o
<STREAMINFO> 1 39
<VECSIZE> 39<NULLD><MFCC_D_A_0><DIAGC>
~h "enam"
<BEGINHMM>
<NUMSTATES> 6
<STATE> 2
<MEAN> 39
 2.489562e+00 6.115818e+00 -1.497125e+00 7.157723e+00 3.073495e+00 -2.105783e-01 -7.618842e-01 4.599723e+00 4.182026e+00 -6.654270e+00 -3.567201e+00 2.155226e+00 5.635440e+01 2.256291e-01 1.782048e-01 8.466228e-02 4.870865e-02 -1.862162e-02 2.758516e-03 3.028809e-02 -2.701787e-02 1.635634e-02 -6.586827e-02 -2.281650e-01 -1.727010e-01 1.402322e-01 -1.865828e-02 -3.583276e-02 -1.482842e-02 1.923145e-03 -8.047988e-03 -5.542961e-02 -3.925525e-02 -2.376600e-02 -4.232849e-02 -1.471402e-02 2.725718e-03 -1.745109e-02 -1.899610e-02
<VARIANCE> 39
 4.404511e+01 5.019263e+01 2.832074e+01 6.436192e+01 8.890118e+01 5.244609e+01 4.595468e+01 8.832929e+01 5.301773e+01 3.641011e+01 5.365366e+01 7.241069e+01 1.162795e+02 1.862884e+00 3.197033e+00 2.552779e+00 4.662894e+00 6.346290e+00 3.269842e+00 3.701328e+00 2.857081e+00 2.981851e+00 2.803320e+00 4.224882e+00 5.430695e+00 1.836954e+00 2.306757e-01 4.506953e-01 4.270163e-01 6.536617e-01 7.829636e-01 5.947919e-01 6.011963e-01 4.864551e-01 5.525612e-01 5.038680e-01 6.308110e-01 7.564692e-01 2.354194e-01
<GCONST> 1.307473e+02
<STATE> 3
<MEAN> 39
 -1.811944e+00 9.576060e+00 1.211386e+00 1.052278e+01 7.868961e+00 -1.589382e+00 -7.275750e+00 -4.595878e+00 -4.502332e-01 -4.051105e+00 -4.172801e+00 -1.113087e+00 6.681229e+01 2.632334e-01 1.938215e-03 -9.465399e-02 -1.169031e-01 -2.941845e-02 -2.422680e-02 -2.088717e-01 -1.871193e-01 -1.344881e-01 -1.214127e-01 1.235686e-01 1.907455e-01 2.527586e-01 -2.534338e-02 -1.745424e-01 -1.312707e-01 -2.635340e-01 -2.537422e-01 1.015324e-02 2.234473e-01 7.579374e-02 5.957989e-03 3.545817e-02 1.694312e-01 1.288558e-01 7.781977e-02
<VARIANCE> 39
 7.537190e+00 2.948792e+01 1.483018e+01 1.931504e+01 4.423152e+01 5.510994e+01 2.124655e+01 2.891120e+01 1.797347e+01 1.848510e+01 1.676949e+01 1.883939e+01 1.170061e+01 3.933871e-01 7.529749e-01 9.486948e-01 1.269386e+00 1.244036e+00 9.497594e-01 1.642566e+00 7.187369e-01 8.587760e-01 8.384455e-01 1.029962e+00 1.078881e+00 4.064932e-01 7.163163e-02 1.199641e-01 1.610696e-01 1.809908e-01 1.921442e-01 2.028829e-01 2.473723e-01 1.467775e-01 1.538226e-01 1.632597e-01 1.822193e-01 2.286310e-01 6.849566e-02
<GCONST> 8.476173e+01
<STATE> 4
<MEAN> 39
 1.406164e+00 -5.039218e+00 2.993752e+00 -8.378234e+00 4.980515e+00 -1.663680e+01 1.646931e+01 -1.622222e+01 -2.956127e+00 -9.883261e+00 -4.100109e+00 -1.538287e+00 7.646658e+01 8.408263e-02 -3.272132e-01 -3.254920e-01 -4.942795e-01 -4.414010e-01 5.512953e-02 1.801306e-01 3.467560e-01 1.644104e-01 2.999917e-03 2.541369e-01 2.941935e-01 2.348345e-01 -3.450184e-02 3.066732e-02 4.496860e-02 3.914975e-02 2.587475e-02 2.321854e-02 -5.673536e-02 3.410897e-02 5.784088e-02 5.056963e-03 -5.808895e-02 -3.759361e-02 -3.338910e-02
<VARIANCE> 39
 2.075297e+01 6.782603e+01 5.094543e+01 7.232465e+01 8.802782e+01 1.348526e+02 1.739395e+02 1.124933e+02 4.770968e+01 5.655512e+01 7.184971e+01 6.603235e+01 6.014672e+01 9.593393e-01 3.270531e+00 2.555095e+00 3.500785e+00 3.950345e+00 2.879358e+00 3.999593e+00 2.650730e+00 2.199986e+00 2.046767e+00 4.353941e+00 3.242168e+00 2.159945e+00 1.562177e-01 4.246496e-01 3.773150e-01 5.026484e-01 5.223497e-01 4.815268e-01 5.856740e-01 4.157452e-01 3.378392e-01 3.497137e-01 6.760015e-01 4.269306e-01 2.822857e-01
<GCONST> 1.281014e+02
<STATE> 5
<MEAN> 39
 -1.097299e+00 4.975074e+00 -4.521195e+00 -1.803989e-01 -3.964701e-01 -2.555179e+00 8.643215e-01 2.970897e+00 1.546577e+00 -6.322482e+00 -3.000551e+00 7.477392e-01 7.030774e+01 -3.002287e-01 5.856726e-02 1.501755e-01 1.875642e-01 9.210104e-02 -3.183644e-02 -5.186737e-02 -3.196858e-02 -5.448739e-02 3.622346e-02 -1.232113e-01 -1.766939e-01 -3.402189e-01 -3.366195e-03 2.789797e-03 1.700404e-02 2.815342e-02 1.055503e-02 -2.680640e-02 -3.715432e-02 -6.009099e-02 -4.361565e-02 1.313427e-03 3.494019e-02 3.749315e-03 -2.945640e-03
<VARIANCE> 39
 3.512446e+01 5.327203e+01 4.521601e+01 6.048753e+01 6.632481e+01 5.207399e+01 3.032342e+01 5.654298e+01 3.005948e+01 3.535295e+01 2.757645e+01 5.188895e+01 6.324547e+01 4.046210e-01 7.879255e-01 7.802874e-01 1.422125e+00 1.729256e+00 1.252893e+00 1.209037e+00 1.389230e+00 1.364630e+00 1.382958e+00 1.259719e+00 1.552759e+00 4.594664e-01 4.618847e-02 8.941839e-02 1.059131e-01 2.168321e-01 2.576530e-01 2.097716e-01 1.924862e-01 2.088890e-01 2.344140e-01 2.488964e-01 2.114542e-01 2.319584e-01 5.336907e-02
<GCONST> 9.770054e+01
<TRANSP> 6
 0.000000e+00 7.963787e-01 2.036213e-01 0.000000e+00 0.000000e+00 0.000000e+00
 0.000000e+00 9.214218e-01 2.691656e-02 5.166167e-02 0.000000e+00 0.000000e+00
 0.000000e+00 0.000000e+00 9.134560e-01 7.529379e-02 1.125018e-02 0.000000e+00
 0.000000e+00 0.000000e+00 0.000000e+00 9.128025e-01 4.315057e-02 4.404697e-02
 0.000000e+00 0.000000e+00 0.000000e+00 0.000000e+00 9.627237e-01 3.727626e-02
 0.000000e+00 0.000000e+00 0.000000e+00 0.000000e+00 0.000000e+00 0.000000e+00
<ENDHMM>
