~o
<STREAMINFO> 1 39
<VECSIZE> 39<NULLD><MFCC_D_A_0><DIAGC>
~h "lima"
<BEGINHMM>
<NUMSTATES> 6
<STATE> 2
<MEAN> 39
 -3.949336e-01 -1.151942e+00 -5.901982e-01 1.610035e+01 1.121954e+01 -3.131650e+00 -1.107622e+01 1.409864e+00 -2.159205e+00 -5.279759e+00 2.640193e+00 1.881608e+00 6.074341e+01 2.009068e-01 3.752600e-01 1.211416e-01 5.563390e-01 6.362022e-01 -1.838009e-01 -1.951140e-01 1.445969e-01 2.422898e-01 2.196447e-01 -2.752414e-01 -4.177010e-01 -2.991941e-03 -7.017612e-02 1.023312e-01 -1.829983e-02 -1.454097e-01 -8.250054e-02 1.224609e-01 1.949402e-01 1.116159e-01 1.287580e-01 2.492828e-02 -1.730861e-01 -9.653024e-02 -9.532928e-02
<VARIANCE> 39
 2.507603e+01 3.340869e+01 6.138390e+01 4.379857e+01 5.458764e+01 3.249723e+01 5.720620e+01 3.691191e+01 4.668918e+01 4.058459e+01 3.926087e+01 2.952246e+01 1.152913e+02 1.037351e+00 3.433682e+00 3.987085e+00 2.269043e+00 2.803717e+00 3.231084e+00 6.673976e+00 3.302553e+00 3.583026e+00 3.067322e+00 3.545997e+00 2.311523e+00 1.601283e+00 1.566213e-01 4.587359e-01 6.274447e-01 3.095433e-01 4.811890e-01 5.967810e-01 1.006998e+00 4.898773e-01 7.022539e-01 5.948681e-01 5.306646e-01 3.876487e-01 1.776867e-01
<GCONST> 1.241234e+02
<STATE> 3
<MEAN> 39
 8.618687e-01 7.883115e+00 -1.939922e+00 1.512691e+01 1.271987e+01 -1.832020e+00 -5.250220e+00 5.788444e+00 3.035153e+00 -2.895883e+00 -5.730057e+00 -5.703066e+00 5.962700e+01 7.177023e-01 4.324546e-02 -8.322386e-01 -1.351265e+00 -1.292389e+00 -5.094560e-01 6.228075e-01 1.001157e+00 3.498419e-01 -4.310555e-01 -9.134639e-02 4.697538e-01 4.601676e-01 1.363118e-01 -3.327784e-01 -1.470151e-01 -3.073557e-01 -4.222320e-01 -2.477290e-01 -9.118520e-02 2.592459e-02 -1.238186e-01 -1.166750e-01 5.767683e-01 6.138164e-01 2.524602e-01
<VARIANCE> 39
 2.066808e+01 3.631885e+01 2.410932e+01 1.714540e+01 3.207226e+01 1.651307e+01 1.442733e+01 6.925959e+01 3.150765e+01 1.060804e+01 2.372312e+01 1.594513e+01 8.627666e+01 3.896318e-01 6.059420e-01 9.479933e-01 2.002057e+00 2.665238e+00 2.331873e+00 9.577490e-01 1.334394e+00 1.300897e+00 9.971376e-01 3.688607e+00 3.936079e+00 4.160753e-01 5.455407e-02 1.107768e-01 1.934576e-01 2.641802e-01 2.881041e-01 3.374535e-01 2.492884e-01 2.458518e-01 2.674136e-01 2.141486e-01 3.652663e-01 3.695418e-01 4.954057e-02
<GCONST> 9.596167e+01
<STATE> 4
<MEAN> 39
 1.536093e+00 -3.612428e+00 -1.462879e+01 -2.020135e+00 2.878035e+00 -3.397316e+00 -5.362589e-01 1.263311e+01 4.385677e+00 -3.485498e+00 3.346657e+00 7.673714e+00 7.167104e+01 -1.707283e-01 -8.110384e-02 -2.059781e-01 -5.635253e-01 -5.923161e-01 2.434829e-01 3.833464e-01 -3.072224e-02 1.714662e-02 -3.171956e-02 1.787993e-01 5.575765e-01 -1.189121e-01 -1.144174e-01 7.517399e-02 2.115744e-01 2.172866e-01 1.889314e-01 1.998699e-01 -3.568106e-02 -1.748374e-01 -3.578413e-02 1.764275e-02 -1.758583e-01 -1.850236e-01 -1.008830e-01
<VARIANCE> 39
 2.186261e+01 3.874811e+01 1.586865e+01 1.704900e+01 1.045398e+01 2.828633e+01 2.029849e+01 1.717797e+01 2.040328e+01 1.604526e+01 2.891737e+01 1.611543e+01 4.867807e+01 5.483674e-01 1.300292e+00 1.404957e+00 2.300447e+00 2.107040e+00 1.269516e+00 1.221255e+00 1.677993e+00 1.508904e+00 1.354744e+00 2.479270e+00 3.126264e+00 9.704922e-01 5.687033e-02 1.245734e-01 1.558840e-01 2.335649e-01 1.994215e-01 3.148237e-01 2.335126e-01 2.495384e-01 2.191224e-01 2.162820e-01 3.201142e-01 2.150720e-01 5.851012e-02
<GCONST> 9.421549e+01
<STATE> 5
<MEAN> 39
 3.096967e+00 9.115249e+00 -2.483830e+00 3.945585e+00 -2.680111e+00 -1.606628e+00 1.339134e+00 9.760293e+00 5.062457e+00 -9.089008e+00 -2.895161e+00 6.362428e+00 5.339220e+01 -5.755513e-01 -1.694627e-01 3.001471e-01 -8.667633e-02 -8.901557e-02 4.264126e-01 1.028399e-01 -4.101992e-01 -2.522591e-01 8.067472e-03 5.166905e-02 3.490053e-02 -3.068092e-01 -3.063987e-02 2.782342e-02 1.573780e-02 1.279290e-01 1.689768e-01 -1.363057e-02 -1.100128e-01 -8.639153e-02 -2.538687e-02 5.724124e-02 -5.926007e-02 -1.647101e-01 -4.520190e-02
<VARIANCE> 39
 5.261012e+01 3.958924e+01 3.192512e+01 3.370554e+01 4.389842e+01 4.336670e+01 3.153331e+01 6.637792e+01 6.083700e+01 4.594094e+01 4.430368e+01 6.895871e+01 9.131646e+01 1.348170e+00 2.810527e+00 2.653068e+00 2.494142e+00 4.354393e+00 3.184237e+00 2.890286e+00 2.750952e+00 3.260448e+00 4.328637e+00 3.022085e+00 4.718569e+00 1.455396e+00 2.063054e-01 3.902784e-01 5.059279e-01 4.785450e-01 8.156525e-01 6.015654e-01 5.141690e-01 6.159776e-01 6.112822e-01 7.578027e-01 5.692283e-01 7.133314e-01 1.674605e-01
<GCONST> 1.263193e+02
<TRANSP> 6
 0.000000e+00 9.022112e-01 9.778878e-02 0.000000e+00 0.000000e+00 0.000000e+00
 0.000000e+00 9.278889e-01 7.211110e-02 0.000000e+00 0.000000e+00 0.000000e+00
 0.000000e+00 0.000000e+00 8.623817e-01 1.376183e-01 0.000000e+00 0.000000e+00
 0.000000e+00 0.000000e+00 0.000000e+00 8.775653e-01 8.784098e-02 3.459373e-02
 0.000000e+00 0.000000e+00 0.000000e+00 0.000000e+00 9.218422e-01 7.815786e-02
 0.000000e+00 0.000000e+00 0.000000e+00 0.000000e+00 0.000000e+00 0.000000e+00
<ENDHMM>
