~o
<STREAMINFO> 1 39
<VECSIZE> 39<NULLD><MFCC_D_A_0><DIAGC>
~h "satu"
<BEGINHMM>
<NUMSTATES> 6
<STATE> 2
<MEAN> 39
 -1.796923e+01 -8.942796e+00 8.015128e+00 -7.496083e+00 5.462380e-01 4.057521e+00 1.788974e+00 -4.915411e+00 2.346112e+00 4.659576e+00 1.636228e+00 2.325204e+00 7.318581e+01 1.553420e+00 1.136834e-03 -1.435498e+00 -3.412103e-01 -5.937579e-02 -7.891211e-01 -4.815543e-01 5.582576e-01 3.391165e-01 -2.376138e-01 6.807193e-03 6.651861e-01 7.194056e-01 2.725596e-01 2.186630e-02 -3.082753e-01 1.496184e-01 1.561982e-02 -3.455347e-02 -3.410142e-02 1.996891e-01 5.468704e-06 -5.066836e-02 -4.521877e-02 5.759358e-02 -4.189973e-02
<VARIANCE> 39
 1.146500e+02 4.818701e+01 7.998934e+01 3.103800e+01 2.741267e+01 3.518292e+01 7.967943e+01 2.796159e+01 4.660651e+01 1.809594e+01 2.262686e+01 2.359913e+01 2.453788e+01 8.422641e+00 4.411013e+00 4.972944e+00 2.251588e+00 1.347016e+00 2.092406e+00 1.704325e+00 2.887844e+00 1.901290e+00 1.865703e+00 2.019888e+00 9.873232e-01 1.232513e+00 1.080204e+00 7.250557e-01 5.122164e-01 4.800634e-01 2.426367e-01 4.770566e-01 3.252061e-01 3.064602e-01 3.672570e-01 3.214995e-01 3.715543e-01 1.499095e-01 1.736803e-01
<GCONST> 1.168515e+02
<STATE> 3
<MEAN> 39
 -3.092731e+00 -2.989402e+00 -1.064995e+01 -5.085586e+00 -2.827428e+00 -6.826581e-01 -1.201107e+00 2.608063e+00 3.344259e+00 3.747537e-02 7.437258e-01 9.333178e+00 6.872755e+01 -5.580356e-01 2.578064e-01 -3.603193e-02 2.482768e-01 -1.490603e-01 1.531668e-01 1.467046e-01 -3.485001e-02 -2.049423e-01 -1.710073e-01 2.051564e-02 -2.429262e-01 -7.479094e-01 -5.224747e-02 3.382193e-02 1.703561e-01 7.190968e-02 7.383797e-02 5.810121e-03 -5.127976e-02 -5.564332e-02 -4.954813e-02 2.554597e-03 2.080718e-02 -8.193961e-02 1.139497e-02
<VARIANCE> 39
 3.324022e+01 3.455840e+01 5.936194e+01 4.260258e+01 1.817532e+01 2.871267e+01 3.591326e+01 3.810038e+01 3.130741e+01 1.968735e+01 2.172856e+01 2.356425e+01 8.220356e+01 6.178248e-01 1.072209e+00 1.369288e+00 8.931988e-01 1.083509e+00 9.624471e-01 1.390974e+00 1.424641e+00 1.231711e+00 1.325549e+00 9.221534e-01 1.334921e+00 8.440791e-01 8.930033e-02 2.096623e-01 2.703742e-01 2.509072e-01 2.186834e-01 2.566647e-01 3.221619e-01 3.125153e-01 3.276224e-01 2.398676e-01 2.022737e-01 1.794572e-01 1.320833e-01
<GCONST> 9.842484e+01
<STATE> 4
<MEAN> 39
 -2.273076e+00 -2.510936e-01 3.645821e+00 -1.676974e+00 -7.949133e+00 1.701992e+00 -6.333012e+00 2.078447e+00 3.722018e+00 -9.665271e+00 -2.198101e+00 5.040484e+00 5.303460e+01 3.000136e-01 3.861976e-01 2.173019e-01 2.477824e-01 2.112735e-02 -3.116780e-01 -1.296771e-01 2.814864e-01 1.570374e-01 -2.084880e-01 -1.919636e-01 -1.715583e-01 1.184900e-01 7.041833e-03 3.915024e-02 -1.705508e-03 -5.047347e-02 -4.329785e-02 -1.856186e-02 5.795271e-03 3.354729e-02 2.144173e-02 3.112189e-02 -1.840520e-04 -3.924550e-03 -1.530243e-02
<VARIANCE> 39
 5.443383e+01 1.260935e+02 6.982450e+01 5.515045e+01 7.079034e+01 6.697035e+01 7.988258e+01 5.465064e+01 1.144869e+02 8.185736e+01 3.211016e+01 4.607059e+01 1.078178e+02 4.207478e+00 8.356859e+00 6.053938e+00 4.711207e+00 6.319141e+00 6.668973e+00 6.422184e+00 5.333282e+00 8.576516e+00 7.286239e+00 3.592888e+00 4.462970e+00 6.061533e+00 5.368014e-01 1.498728e+00 9.559415e-01 8.036095e-01 1.168473e+00 1.203282e+00 1.109479e+00 1.133056e+00 1.460969e+00 1.304220e+00 7.539944e-01 8.345430e-01 8.117653e-01
<GCONST> 1.496964e+02
<STATE> 5
<MEAN> 39
 -3.131273e+00 7.594362e+00 3.152529e+00 4.563006e+00 -6.127417e+00 -9.118227e+00 -5.231116e+00 7.327498e+00 3.909273e+00 -4.491690e+00 -7.193557e-01 -4.463885e-01 6.626137e+01 -5.121422e-01 1.412390e-01 -1.585776e-01 -1.456938e-01 -1.743628e-02 2.287347e-01 4.264097e-01 -1.972476e-01 -7.317419e-02 4.746742e-01 -8.516078e-02 -1.457564e-01 -5.382792e-01 -2.781634e-02 -9.279885e-02 -9.175749e-02 -2.472487e-02 6.547308e-02 3.065273e-02 4.136211e-02 -8.446817e-02 -1.101417e-01 -7.468740e-03 1.549355e-02 3.310054e-02 1.865108e-02
<VARIANCE> 39
 2.096117e+01 3.631971e+01 5.517915e+01 2.095375e+01 3.111089e+01 5.664426e+01 5.263783e+01 3.014440e+01 2.865399e+01 6.078649e+01 1.316852e+01 1.738193e+01 7.339874e+01 4.383278e-01 7.614337e-01 9.147805e-01 9.437356e-01 1.282107e+00 1.459995e+00 1.655581e+00 1.544715e+00 1.482366e+00 1.286989e+00 1.034192e+00 7.754321e-01 5.276726e-01 8.279479e-02 9.387026e-02 1.047968e-01 1.584501e-01 1.867351e-01 2.398848e-01 3.708489e-01 2.351193e-01 2.305932e-01 2.180755e-01 2.101038e-01 1.629935e-01 8.040922e-02
<GCONST> 9.412290e+01
<TRANSP> 6
 0.000000e+00 5.625075e-01 4.374925e-01 0.000000e+00 0.000000e+00 0.000000e+00
 0.000000e+00 9.197068e-01 8.029319e-02 0.000000e+00 0.000000e+00 0.000000e+00
 0.000000e+00 0.000000e+00 9.109662e-01 8.903381e-02 0.000000e+00 0.000000e+00
 0.000000e+00 0.000000e+00 0.000000e+00 9.611760e-01 2.426547e-02 1.455852e-02
 0.000000e+00 0.000000e+00 0.000000e+00 0.000000e+00 9.435295e-01 5.647049e-02
 0.000000e+00 0.000000e+00 0.000000e+00 0.000000e+00 0.000000e+00 0.000000e+00
<ENDHMM>
