~o
<STREAMINFO> 1 39
<VECSIZE> 39<NULLD><PLP_D_A_0><DIAGC>
~h "satu"
<BEGINHMM>
<NUMSTATES> 8
<STATE> 2
<MEAN> 39
 -2.082789e+00 -1.730226e+00 2.951064e-01 -1.355441e+00 -6.597868e-01 -4.908341e-01 -7.520122e-03 -9.256432e-01 -3.280121e-01 -1.222487e-02 3.223408e-01 2.569391e-01 5.481873e+00 1.553582e-01 1.611353e-02 -7.516971e-02 -7.854921e-02 -3.373976e-02 -5.179811e-02 -2.427324e-02 1.743161e-02 4.835650e-02 -2.520859e-02 1.070716e-02 3.891677e-02 1.489013e-01 1.281388e-01 6.442247e-02 -8.831662e-02 3.028960e-02 1.282049e-03 -1.017253e-02 -7.372198e-03 2.931165e-02 1.978663e-02 -2.712591e-02 -2.464109e-02 3.207980e-03 -1.385570e-02
<VARIANCE> 39
 5.081123e-01 5.482488e-01 5.111197e-01 4.564815e-01 7.071562e-01 3.840032e-01 7.887006e-01 1.769419e-01 5.296301e-01 2.246173e-01 2.076190e-01 1.130785e-01 8.486563e-01 1.519662e-01 8.256911e-02 9.626161e-02 3.217404e-02 3.054463e-02 3.361321e-02 2.841622e-02 2.446139e-02 2.424032e-02 2.461086e-02 1.833055e-02 1.220271e-02 2.532306e-02 1.704388e-02 1.174064e-02 9.770549e-03 7.414088e-03 6.271753e-03 8.205235e-03 5.698035e-03 3.720897e-03 4.430828e-03 4.346076e-03 3.449821e-03 2.407208e-03 2.899793e-03
<GCONST> -5.127290e+01
<STATE> 3
<MEAN> 39
 -1.136299e-01 -1.219135e+00 -9.006188e-01 -1.427076e+00 -9.900807e-01 -6.821542e-01 8.434537e-02 -6.695147e-01 7.727795e-02 -4.644883e-01 1.658679e-01 4.491882e-01 5.954416e+00 6.255518e-02 9.824263e-02 -7.955498e-02 6.845171e-02 -2.124951e-02 3.311960e-03 2.125299e-03 2.168833e-02 -1.259543e-03 -2.738800e-02 -3.941455e-02 4.061827e-03 -1.251044e-01 -1.173731e-01 -2.085218e-03 4.504545e-02 4.760012e-03 3.452803e-02 -4.980027e-03 -6.085482e-03 -4.004049e-03 -2.541553e-02 2.115447e-02 4.498299e-03 -1.842523e-02 -6.368159e-02
<VARIANCE> 39
 7.835745e-02 5.663698e-01 4.596464e-01 3.611973e-01 2.813855e-01 5.328178e-01 1.019476e+00 5.340756e-01 3.936069e-01 3.084681e-01 2.035268e-01 3.590953e-01 6.864915e-01 7.938598e-02 2.864109e-02 5.049464e-02 2.479712e-02 3.520562e-02 3.422053e-02 2.098059e-02 3.114399e-02 3.313306e-02 2.170232e-02 2.023052e-02 1.847649e-02 4.219223e-02 4.854979e-03 5.387969e-03 7.612540e-03 4.095953e-03 4.839319e-03 7.374227e-03 4.072751e-03 6.683765e-03 6.550903e-03 4.422316e-03 3.376992e-03 3.308495e-03 3.681104e-03
<GCONST> -5.509382e+01
<STATE> 4
<MEAN> 39
 -1.108067e+00 -6.068704e-01 -8.796360e-01 -1.025674e+00 -6.197741e-01 -8.229071e-01 -1.236159e-01 -4.109532e-01 -1.452947e-01 -3.542586e-01 1.806870e-02 2.126605e-01 4.467746e+00 -8.750299e-02 -5.237414e-02 3.469137e-02 6.680532e-02 2.170410e-02 -8.906296e-02 -2.294020e-04 2.493722e-02 -6.129156e-02 -3.739114e-02 1.333712e-02 -3.761536e-02 -1.519917e-02 9.276436e-02 -4.757476e-02 4.440146e-02 -5.277135e-03 -6.211256e-02 -2.728660e-02 -4.110142e-03 -1.790475e-02 -5.922105e-03 -3.960988e-02 -4.477256e-03 1.445420e-02 1.372291e-01
<VARIANCE> 39
 1.630926e-01 3.736623e-01 3.867657e-01 4.577335e-01 3.463677e-01 1.935223e-01 5.457089e-01 1.897979e-01 1.861795e-01 1.128098e-01 1.283567e-01 1.515342e-01 7.167469e-01 4.236473e-02 5.019648e-02 3.328927e-02 2.671531e-02 4.128513e-02 3.678439e-02 2.281781e-02 3.436033e-02 3.006394e-02 2.267388e-02 1.404783e-02 1.555026e-02 9.520370e-02 4.607486e-03 1.001450e-02 5.466014e-03 5.765086e-03 7.727557e-03 9.485108e-03 5.334496e-03 6.287159e-03 6.150820e-03 4.279118e-03 3.518988e-03 2.683473e-03 7.126931e-03
<GCONST> -5.808113e+01
<STATE> 5
<MEAN> 39
 -3.873599e-01 -1.128420e+00 -1.755140e-01 -8.343785e-01 -1.235384e+00 -1.371009e+00 -2.857918e-01 -5.264499e-01 -5.227141e-01 -1.057020e+00 -1.396215e-01 2.380328e-01 5.673471e+00 2.753293e-01 1.051526e-01 2.703168e-01 -4.878034e-02 -2.695036e-01 -1.664165e-01 -1.043436e-01 8.034242e-02 8.841473e-02 -1.587239e-01 -1.692151e-01 -2.892790e-02 2.474575e-01 -3.876967e-02 9.168423e-02 -1.355399e-02 -1.283044e-02 -2.424866e-04 1.852750e-02 -3.740758e-03 4.105600e-02 7.329518e-02 5.853073e-02 -9.637255e-03 -1.560005e-02 -1.251668e-01
<VARIANCE> 39
 2.480594e-01 6.228565e-01 4.969231e-01 5.508022e-01 4.606080e-01 9.778585e-01 9.445139e-01 4.532210e-01 4.147545e-01 2.998226e-01 2.988910e-01 1.361586e-01 8.005916e-01 2.130522e-02 6.028506e-02 2.974446e-02 2.870026e-02 6.087989e-02 8.830246e-02 3.756418e-02 3.345124e-02 5.869893e-02 3.870034e-02 2.013927e-02 1.735132e-02 6.294695e-02 7.046053e-03 8.615385e-03 1.001135e-02 5.857004e-03 1.032468e-02 1.051553e-02 7.311640e-03 6.421958e-03 8.525315e-03 6.107002e-03 6.910130e-03 2.025164e-03 5.848459e-03
<GCONST> -4.581082e+01
<STATE> 6
<MEAN> 39
 -8.803733e-02 -3.145536e-01 4.485922e-01 -1.055938e+00 -1.983147e+00 -2.033574e+00 -2.757494e-01 -8.060397e-02 8.284183e-02 -8.733742e-01 -4.475280e-01 -4.926139e-02 5.586184e+00 -5.535571e-02 8.953130e-02 -7.952233e-03 2.865011e-02 3.470786e-02 5.031576e-02 -3.980056e-03 -9.252209e-03 2.609128e-02 3.888543e-02 6.390136e-03 -1.934706e-02 -1.320058e-01 -4.814158e-02 -2.474329e-02 -5.222385e-02 1.235997e-02 7.372815e-02 4.530611e-02 2.143551e-02 -3.124614e-02 -3.899148e-02 1.495198e-02 1.905287e-02 5.669611e-03 -3.285540e-02
<VARIANCE> 39
 8.110251e-02 7.418818e-01 5.691134e-01 9.906396e-01 3.662707e-01 9.225850e-01 1.132984e+00 3.556952e-01 4.688897e-01 4.257648e-01 2.001307e-01 2.454029e-01 4.979577e-01 9.593843e-03 1.269544e-02 1.832010e-02 1.615291e-02 4.622456e-02 2.751860e-02 1.988283e-02 2.208888e-02 2.843457e-02 1.653505e-02 1.481995e-02 1.542296e-02 1.162085e-02 1.478026e-03 2.376387e-03 3.816943e-03 3.088122e-03 4.332335e-03 4.463319e-03 4.206373e-03 3.581856e-03 5.333280e-03 3.911295e-03 3.275440e-03 4.015749e-03 1.849083e-03
<GCONST> -6.523356e+01
<STATE> 7
<MEAN> 39
 -9.547403e-01 -2.944039e-01 -3.984181e-01 -7.594481e-01 -8.860586e-01 -1.091210e+00 -3.353544e-01 -3.987074e-01 -1.725342e-01 -5.636805e-01 -2.360595e-01 -5.638003e-04 4.561325e+00 -9.958469e-02 -7.706942e-02 -1.145868e-01 -2.907391e-02 9.692400e-02 5.569821e-02 5.155202e-02 -2.027435e-02 -3.568998e-02 7.564637e-02 5.773335e-02 7.139088e-03 -6.932975e-02 2.515057e-02 -2.162906e-02 1.379673e-02 -1.566800e-02 -3.479735e-02 -1.708952e-02 -1.105803e-02 9.668084e-03 1.094973e-02 -1.222409e-02 9.016397e-03 8.904499e-03 3.822039e-02
<VARIANCE> 39
 2.641681e-01 5.402040e-01 3.517566e-01 4.723026e-01 3.816510e-01 4.414112e-01 4.680368e-01 4.362192e-01 3.581833e-01 2.197629e-01 1.639706e-01 1.460830e-01 7.156511e-01 2.382771e-02 2.490200e-02 3.081416e-02 2.772745e-02 4.982820e-02 3.975595e-02 2.556540e-02 3.373867e-02 2.630193e-02 2.272329e-02 1.603592e-02 1.831026e-02 3.893951e-02 2.788995e-03 5.562890e-03 5.395604e-03 4.951334e-03 5.961064e-03 6.123024e-03 4.813096e-03 5.653736e-03 4.711420e-03 3.504276e-03 3.072266e-03 2.944021e-03 5.704466e-03
<GCONST> -5.874416e+01
<TRANSP> 8
 0.000000e+00 8.750362e-01 1.249638e-01 0.000000e+00 0.000000e+00 0.000000e+00 0.000000e+00 0.000000e+00
 0.000000e+00 8.136992e-01 1.863008e-01 0.000000e+00 0.000000e+00 0.000000e+00 0.000000e+00 0.000000e+00
 0.000000e+00 0.000000e+00 8.426187e-01 1.573813e-01 0.000000e+00 0.000000e+00 0.000000e+00 0.000000e+00
 0.000000e+00 0.000000e+00 0.000000e+00 7.997423e-01 2.002577e-01 0.000000e+00 0.000000e+00 0.000000e+00
 0.000000e+00 0.000000e+00 0.000000e+00 0.000000e+00 6.763738e-01 3.236261e-01 0.000000e+00 0.000000e+00
 0.000000e+00 0.000000e+00 0.000000e+00 0.000000e+00 0.000000e+00 8.230606e-01 1.769394e-01 0.000000e+00
 0.000000e+00 0.000000e+00 0.000000e+00 0.000000e+00 0.000000e+00 0.000000e+00 8.194587e-01 1.805414e-01
 0.000000e+00 0.000000e+00 0.000000e+00 0.000000e+00 0.000000e+00 0.000000e+00 0.000000e+00 0.000000e+00
<ENDHMM>
