~o
<STREAMINFO> 1 39
<VECSIZE> 39<NULLD><MFCC_D_A_0><DIAGC>
~h "sepuluh"
<BEGINHMM>
<NUMSTATES> 6
<STATE> 2
<MEAN> 39
 -4.314893e+00 -6.223012e+00 1.259744e+01 -1.431809e+01 -1.657327e+00 -1.528326e+01 1.347497e+01 -1.097031e+01 -1.007973e+00 -9.165086e+00 -7.024221e-01 -2.188965e+00 7.428293e+01 1.431360e-01 -3.921121e-02 -1.614573e-01 5.458707e-02 -2.060851e-02 -1.125442e-01 -1.072951e-01 1.286006e-01 3.517959e-02 -6.406341e-02 -6.440677e-02 7.271141e-02 -1.322784e-01 1.466436e-02 8.985280e-02 -6.820563e-02 4.971865e-02 5.473030e-02 5.171194e-02 -5.265280e-02 -9.638038e-03 4.126847e-02 2.204920e-02 -9.192973e-03 -1.859312e-02 -8.669811e-02
<VARIANCE> 39
 1.017831e+02 4.565227e+01 4.108334e+01 8.258463e+01 1.686386e+02 1.457251e+02 5.571937e+01 5.174688e+01 5.421096e+01 6.372696e+01 8.506902e+01 3.657429e+01 5.215950e+01 3.156002e+00 2.642156e+00 4.552089e+00 3.157449e+00 7.510046e+00 6.752509e+00 3.488636e+00 3.106104e+00 4.465082e+00 3.476481e+00 3.943483e+00 2.798737e+00 3.113502e+00 4.422088e-01 3.829338e-01 6.600296e-01 5.303763e-01 9.564835e-01 1.017080e+00 6.774608e-01 5.748501e-01 8.782637e-01 6.845723e-01 5.944494e-01 6.152917e-01 4.383239e-01
<GCONST> 1.377104e+02
<STATE> 3
<MEAN> 39
 -1.521225e+01 -7.430280e-01 1.866040e+00 -1.019534e+00 -6.169466e-01 2.701870e-01 -7.236311e-01 -3.517220e+00 -1.466897e+00 -2.085755e+00 2.347595e-01 6.832657e-01 6.388962e+01 5.483738e-01 8.399893e-01 -3.960195e-01 1.651322e-01 -2.245393e-02 -9.825442e-02 -8.374230e-02 1.706197e-01 1.790739e-01 -2.028449e-02 -1.114973e-01 -1.974418e-01 -4.500642e-01 1.985857e-01 6.921089e-02 1.520554e-01 3.527746e-02 -9.826655e-02 -2.043484e-01 -1.027233e-01 1.034447e-02 -4.718887e-02 -2.578332e-02 6.540435e-03 -1.596603e-02 1.875258e-01
<VARIANCE> 39
 4.653878e+01 3.682116e+01 3.533577e+01 3.034431e+01 1.849716e+01 2.468127e+01 3.601379e+01 2.368197e+01 2.032140e+01 2.130740e+01 1.764146e+01 1.899950e+01 4.888211e+01 4.550444e+00 3.547964e+00 2.631661e+00 1.971590e+00 1.380525e+00 1.998175e+00 1.902449e+00 1.697498e+00 1.839494e+00 1.350877e+00 1.547161e+00 1.331993e+00 2.644272e+00 8.447666e-01 5.254015e-01 4.877375e-01 3.526069e-01 2.796641e-01 4.537092e-01 4.600457e-01 3.853693e-01 3.987105e-01 2.619166e-01 2.620317e-01 1.889845e-01 2.586830e-01
<GCONST> 1.109850e+02
<STATE> 4
<MEAN> 39
 -2.066164e-01 5.224714e+00 -4.064966e-01 2.576362e+00 -3.170241e+00 -3.624619e+00 -3.395838e+00 4.204993e+00 2.788894e+00 -8.523031e+00 -4.164461e+00 8.576013e-01 5.426908e+01 5.205688e-01 4.412275e-01 7.663778e-02 9.949506e-03 -3.123034e-01 -5.289691e-01 -2.632996e-01 1.557218e-01 5.562172e-04 -1.769769e-01 -6.844679e-02 -1.238468e-02 2.237743e-01 -1.062325e-01 -1.015079e-01 -5.516018e-02 -1.367774e-02 2.351895e-02 6.383090e-02 6.462202e-02 1.825009e-02 3.295971e-03 -2.563634e-02 -1.517229e-02 -9.748491e-03 -5.449234e-02
<VARIANCE> 39
 6.280633e+01 8.352517e+01 6.943187e+01 4.521612e+01 8.050289e+01 6.993362e+01 5.781853e+01 6.776441e+01 9.967383e+01 5.757703e+01 4.687178e+01 3.729856e+01 1.176453e+02 3.842453e+00 5.459269e+00 6.699746e+00 4.085273e+00 7.930327e+00 6.858831e+00 4.736076e+00 4.063250e+00 6.137948e+00 4.704976e+00 3.815538e+00 3.113109e+00 2.965235e+00 4.855575e-01 9.668514e-01 1.146836e+00 7.660076e-01 1.265591e+00 1.138592e+00 8.685585e-01 7.107828e-01 1.098081e+00 9.236272e-01 7.595918e-01 5.632790e-01 4.308090e-01
<GCONST> 1.436439e+02
<STATE> 5
<MEAN> 39
 -2.361752e+00 8.057608e+00 5.311652e-01 2.884454e+00 -4.622209e+00 -9.858528e+00 -4.032909e+00 1.104730e+00 -5.615562e-01 -8.274550e+00 -5.299050e+00 -3.620906e+00 6.759957e+01 -3.197237e-01 -2.148618e-01 -1.805422e-01 -7.439220e-02 1.457941e-01 2.692767e-01 1.629086e-01 -3.602219e-02 -4.548345e-02 8.177543e-02 5.565677e-03 4.120884e-02 -2.280611e-01 -2.142328e-02 -1.894833e-02 -1.081966e-02 -1.590853e-02 1.779265e-02 2.557613e-02 -1.137925e-02 -1.733617e-02 4.453635e-03 2.280512e-02 1.664963e-02 1.911769e-02 -1.071199e-02
<VARIANCE> 39
 3.995047e+01 4.863945e+01 4.973595e+01 4.029782e+01 4.772585e+01 5.243428e+01 5.286100e+01 4.701172e+01 4.376667e+01 4.031749e+01 2.924572e+01 2.020930e+01 3.592637e+01 5.333653e-01 7.062395e-01 1.215187e+00 1.272977e+00 1.751757e+00 1.931404e+00 1.397271e+00 1.458001e+00 2.005078e+00 1.371279e+00 1.509389e+00 1.233765e+00 5.316060e-01 5.201573e-02 1.093511e-01 1.590765e-01 2.240469e-01 2.799698e-01 3.433094e-01 2.623335e-01 2.762533e-01 3.414747e-01 2.249086e-01 2.402993e-01 2.022040e-01 5.464985e-02
<GCONST> 1.003580e+02
<TRANSP> 6
 0.000000e+00 6.124471e-01 3.875529e-01 0.000000e+00 0.000000e+00 0.000000e+00
 0.000000e+00 9.521519e-01 2.648359e-02 2.136448e-02 0.000000e+00 0.000000e+00
 0.000000e+00 0.000000e+00 9.239274e-01 7.353132e-02 2.541317e-03 0.000000e+00
 0.000000e+00 0.000000e+00 0.000000e+00 9.341697e-01 3.716143e-02 2.866897e-02
 0.000000e+00 0.000000e+00 0.000000e+00 0.000000e+00 9.736539e-01 2.634606e-02
 0.000000e+00 0.000000e+00 0.000000e+00 0.000000e+00 0.000000e+00 0.000000e+00
<ENDHMM>
