~o
<STREAMINFO> 1 39
<VECSIZE> 39<NULLD><MFCC_D_A_0><DIAGC>
~h "sil"
<BEGINHMM>
<NUMSTATES> 6
<STATE> 2
<MEAN> 39
 -1.249880e+01 3.582966e+00 -6.159231e+00 -2.943452e+00 -2.991819e+00 -6.800165e-01 4.041777e-01 -1.043240e+00 -4.620426e+00 -4.545035e+00 -5.086949e-01 9.168355e-01 3.844919e+01 -1.108829e-01 6.550676e-02 -1.063044e-01 4.322207e-02 8.066484e-02 -5.005920e-02 -4.753553e-02 -1.390967e-02 2.314763e-03 2.969650e-02 1.169519e-03 3.277838e-03 -4.066005e-02 8.504163e-03 -1.567111e-02 4.167296e-02 1.122725e-02 -3.582165e-03 6.462230e-03 -2.165829e-02 1.281506e-02 3.085136e-02 1.364203e-02 -7.125411e-03 -3.023803e-03 1.845655e-02
<VARIANCE> 39
 3.205064e+01 4.488237e+01 8.824099e+01 5.937141e+01 4.550800e+01 4.613855e+01 5.331380e+01 4.857472e+01 7.085738e+01 5.314618e+01 4.267759e+01 3.445212e+01 1.226358e+02 1.225610e+00 1.965780e+00 2.904311e+00 3.076651e+00 2.910228e+00 3.668997e+00 3.814878e+00 4.118232e+00 4.428180e+00 4.332343e+00 3.771992e+00 3.354595e+00 2.123588e+00 1.885287e-01 2.792033e-01 4.306107e-01 5.310693e-01 5.519236e-01 7.333648e-01 7.701238e-01 8.309757e-01 8.737773e-01 8.879437e-01 7.767783e-01 6.839332e-01 2.595047e-01
<GCONST> 1.297887e+02
<STATE> 3
<MEAN> 39
 -1.008909e+01 -6.196414e+00 3.037599e+00 -6.349365e+00 8.370003e+00 -3.448636e+00 1.270946e+01 -5.281375e+00 5.060042e+00 -2.569571e+00 6.842427e+00 1.401474e-01 6.305443e+01 -1.870980e-02 7.183503e-02 -3.732068e-02 1.053055e-01 6.845586e-02 1.360639e-02 -4.624368e-02 2.013408e-02 2.847269e-02 -2.186200e-02 -4.326591e-02 -2.737335e-02 -9.908633e-02 -1.024473e-03 4.699389e-03 2.559285e-02 -4.421145e-03 6.860791e-03 -1.418645e-02 1.116260e-02 -1.344354e-02 -5.398599e-03 -2.135873e-02 -8.969789e-04 -1.040660e-02 2.734927e-02
<VARIANCE> 39
 2.655948e+01 4.663259e+01 4.288267e+01 4.595388e+01 5.882533e+01 3.385558e+01 6.680556e+01 3.099797e+01 5.354688e+01 3.103333e+01 3.158511e+01 1.946322e+01 3.903217e+01 4.592672e-01 7.938743e-01 8.481136e-01 1.250198e+00 1.123833e+00 1.186580e+00 1.263013e+00 1.578638e+00 1.601561e+00 1.568881e+00 1.351985e+00 1.170050e+00 6.014002e-01 8.232979e-02 1.173024e-01 1.446509e-01 2.236863e-01 2.112446e-01 2.370680e-01 2.509535e-01 3.096470e-01 2.976065e-01 3.118731e-01 2.573807e-01 2.361876e-01 1.069116e-01
<GCONST> 9.898440e+01
<STATE> 4
<MEAN> 39
 -1.597719e+01 2.278293e+00 -4.355473e+00 -3.482867e-01 -1.320733e+00 -1.040354e+00 3.152816e-02 -1.014050e+00 -4.951102e-01 -8.684707e-01 -2.541294e-01 -1.259466e+00 5.728212e+01 -2.093998e-02 2.097585e-02 9.370224e-03 2.477417e-02 1.210689e-02 -1.550549e-02 1.297270e-02 2.822739e-02 1.822271e-02 6.706445e-03 -9.019499e-03 -1.883592e-02 -2.124223e-02 4.389022e-03 -2.062886e-03 6.081578e-03 1.488282e-03 1.364310e-03 2.246874e-03 2.018558e-04 -2.910385e-03 -1.218541e-03 -9.122934e-04 1.295583e-03 9.198040e-04 8.372488e-03
<VARIANCE> 39
 3.144943e+00 5.491005e+00 7.057470e+00 8.366735e+00 7.847115e+00 1.626826e+01 1.589777e+01 2.248514e+01 9.976182e+00 1.181490e+01 1.152069e+01 9.896634e+00 2.683960e+01 6.969813e-02 1.373885e-01 2.325222e-01 3.189293e-01 4.340723e-01 5.289671e-01 6.470769e-01 6.867430e-01 6.854777e-01 6.616570e-01 6.436023e-01 5.839840e-01 3.198962e-02 1.324242e-02 2.797194e-02 4.451360e-02 6.430864e-02 9.084248e-02 1.073820e-01 1.341429e-01 1.409729e-01 1.388575e-01 1.361083e-01 1.298868e-01 1.168004e-01 5.778010e-03
<GCONST> 5.171893e+01
<STATE> 5
<MEAN> 39
 -1.209977e+01 -1.812402e-01 7.443096e-01 -7.037267e-01 1.579626e+00 -3.449377e+00 2.150419e+00 -3.844939e+00 2.085281e-02 -3.983312e+00 5.439847e-01 -7.163663e-01 5.740384e+01 6.229663e-01 -1.187044e-01 4.245965e-01 1.357530e-01 2.587637e-02 -3.074971e-01 -1.698828e-01 -3.168240e-01 -2.603488e-01 -3.085340e-01 -8.435449e-02 -6.552634e-02 1.047572e+00 8.898669e-02 -1.167496e-02 1.289247e-02 3.117830e-02 2.213476e-02 -2.954419e-02 -3.160680e-02 -7.804529e-03 -2.668125e-02 -3.127579e-02 -9.169098e-04 8.200761e-03 9.057143e-02
<VARIANCE> 39
 8.263155e+01 7.721076e+01 6.725070e+01 7.214178e+01 7.944321e+01 6.440729e+01 8.760565e+01 6.422292e+01 5.910302e+01 4.302910e+01 3.964307e+01 3.204206e+01 1.935854e+02 3.981884e+00 5.350517e+00 3.795420e+00 4.083521e+00 4.804794e+00 4.210844e+00 3.855939e+00 4.277844e+00 4.076771e+00 3.146135e+00 3.383830e+00 2.788250e+00 4.939378e+00 6.233444e-01 9.601443e-01 6.978007e-01 6.694754e-01 8.216644e-01 8.014040e-01 7.244837e-01 7.984551e-01 7.305682e-01 5.879785e-01 6.191617e-01 5.268700e-01 8.805324e-01
<GCONST> 1.400257e+02
<TRANSP> 6
 0.000000e+00 3.549573e-01 6.450427e-01 0.000000e+00 0.000000e+00 0.000000e+00
 0.000000e+00 9.589704e-01 3.255404e-02 8.475541e-03 0.000000e+00 0.000000e+00
 0.000000e+00 0.000000e+00 9.020512e-01 6.201216e-02 3.593666e-02 0.000000e+00
 0.000000e+00 0.000000e+00 0.000000e+00 9.780642e-01 1.646722e-02 5.468532e-03
 0.000000e+00 0.000000e+00 0.000000e+00 0.000000e+00 8.935645e-01 1.064355e-01
 0.000000e+00 0.000000e+00 0.000000e+00 0.000000e+00 0.000000e+00 0.000000e+00
<ENDHMM>
