~o
<STREAMINFO> 1 39
<VECSIZE> 39<NULLD><PLP_D_A_0><DIAGC>
~h "sil"
<BEGINHMM>
<NUMSTATES> 8
<STATE> 2
<MEAN> 39
 -1.423159e+00 -5.128914e-01 -1.227065e+00 -8.719620e-01 -7.536107e-01 -5.038552e-01 -2.466803e-01 -3.608369e-01 -5.398923e-01 -3.121148e-01 1.633818e-01 3.002793e-01 2.792043e+00 -7.750247e-03 1.083926e-02 -5.800003e-02 -6.842363e-03 1.540917e-02 -8.131869e-03 -5.045692e-04 -1.455719e-02 -1.164525e-02 1.279524e-02 1.274037e-02 3.581392e-03 -2.012618e-02 3.713166e-03 -6.406084e-03 1.932036e-02 1.831221e-03 -4.999518e-03 9.410622e-04 -5.211873e-03 -2.312419e-04 4.139469e-03 3.514417e-04 -1.372988e-03 -2.763623e-03 1.277940e-02
<VARIANCE> 39
 2.292043e-01 3.998865e-01 6.378747e-01 4.021990e-01 2.294318e-01 3.286216e-01 3.252803e-01 3.705768e-01 3.168423e-01 2.572227e-01 3.423597e-01 1.440030e-01 7.613954e-01 1.651182e-02 3.993569e-02 4.473796e-02 3.322865e-02 2.704789e-02 3.437001e-02 2.897632e-02 3.313293e-02 3.018025e-02 2.959997e-02 3.138812e-02 1.443307e-02 3.537146e-02 2.219263e-03 5.786201e-03 6.769494e-03 5.993077e-03 4.855698e-03 6.705902e-03 5.473574e-03 6.517053e-03 5.838535e-03 6.151069e-03 6.255308e-03 2.910437e-03 4.060841e-03
<GCONST> -5.699330e+01
<STATE> 3
<MEAN> 39
 -1.239706e+00 -1.293398e+00 -3.326919e-01 -1.198689e+00 1.603091e-01 -7.459433e-01 5.330207e-01 -7.038765e-01 7.215068e-03 -3.303053e-01 2.558386e-01 2.181135e-02 4.787015e+00 -6.709241e-03 1.536260e-02 -5.198441e-03 1.691005e-02 5.602124e-03 -2.829134e-03 -2.905084e-03 2.236716e-03 1.056052e-03 -4.258739e-03 -8.322507e-03 -5.357275e-03 -2.076009e-02 -1.069175e-03 4.270700e-03 6.308820e-03 1.586759e-03 1.914042e-03 -1.821483e-03 4.170840e-04 2.478066e-03 1.579857e-03 -4.215685e-03 -2.665737e-03 -6.239736e-04 1.362364e-03
<VARIANCE> 39
 2.110768e-01 4.266381e-01 4.980493e-01 3.001039e-01 5.356021e-01 2.681660e-01 5.384845e-01 2.258107e-01 2.666678e-01 1.892966e-01 1.872871e-01 1.103587e-01 5.207191e-01 7.177077e-03 1.401429e-02 1.208699e-02 1.562955e-02 1.169587e-02 1.111817e-02 9.334840e-03 1.158833e-02 1.178778e-02 1.068472e-02 1.017008e-02 6.211757e-03 9.376739e-03 1.381905e-03 2.019626e-03 2.044467e-03 2.665033e-03 2.244954e-03 2.147570e-03 1.723030e-03 2.157981e-03 2.145012e-03 1.902649e-03 1.689837e-03 1.208219e-03 1.596461e-03
<GCONST> -8.497810e+01
<STATE> 4
<MEAN> 39
 -1.756081e+00 -6.141056e-01 -1.010237e+00 -7.833622e-01 -7.200285e-01 -7.061001e-01 -4.259484e-01 -3.724923e-01 -2.233654e-01 -1.678217e-01 -3.525358e-02 1.496296e-01 4.470148e+00 -1.273020e-03 1.731984e-03 9.565040e-04 1.260253e-03 -4.043346e-04 -1.872802e-03 2.963699e-03 3.817679e-03 2.567322e-04 -8.919109e-04 -1.098558e-03 -1.747189e-03 -1.564307e-03 5.458021e-04 -4.457179e-04 1.671464e-04 -2.717584e-04 -1.978650e-05 4.211125e-04 -4.805459e-04 -3.855184e-04 1.598805e-04 -2.726009e-04 4.214326e-05 2.046467e-04 8.508486e-04
<VARIANCE> 39
 8.872695e-03 3.768028e-02 2.885769e-02 2.518580e-02 2.925100e-02 8.174623e-02 7.845031e-02 1.291914e-01 2.765821e-02 2.782292e-02 8.458783e-02 4.559360e-02 3.409336e-03 2.845764e-04 5.627545e-04 1.047523e-03 1.262954e-03 1.694706e-03 1.821819e-03 2.068125e-03 2.343831e-03 2.329681e-03 2.179153e-03 2.183215e-03 1.077495e-03 1.181881e-04 5.575896e-05 1.163155e-04 1.921529e-04 2.564909e-04 3.421851e-04 3.647509e-04 4.128022e-04 4.775996e-04 4.735116e-04 4.427852e-04 4.413522e-04 2.172511e-04 2.439680e-05
<GCONST> -1.700659e+02
<STATE> 5
<MEAN> 39
 -1.824559e+00 -5.243279e-01 -8.254064e-01 -5.199459e-01 -4.258437e-01 -4.664810e-01 -1.873692e-01 -5.092489e-01 -3.115542e-01 -1.769238e-01 9.131894e-02 1.376863e-01 3.716326e+00 -1.243295e-02 1.050511e-02 1.189286e-02 1.064788e-02 9.124084e-03 9.498461e-05 6.260473e-05 1.196982e-02 1.308722e-02 -4.388831e-03 -1.137548e-02 -5.479070e-03 -1.171658e-02 5.645003e-03 -1.823365e-03 1.049852e-02 3.515956e-03 3.081950e-04 -5.895701e-04 -9.812015e-04 -5.169434e-03 -4.108973e-03 -2.008835e-03 -1.264334e-03 -7.477046e-04 1.302883e-02
<VARIANCE> 39
 1.131124e-01 1.280703e-01 1.674397e-01 1.419260e-01 1.321877e-01 1.062778e-01 1.389344e-01 1.359915e-01 1.031359e-01 8.555741e-02 1.074572e-01 4.246284e-02 9.182326e-01 2.245390e-03 3.756593e-03 6.153929e-03 6.111954e-03 5.211567e-03 5.707172e-03 5.569739e-03 6.517081e-03 5.876948e-03 5.561549e-03 5.443434e-03 2.736276e-03 1.402732e-03 1.059877e-03 1.259172e-03 1.418132e-03 1.776948e-03 1.388704e-03 1.457340e-03 1.330207e-03 1.425573e-03 1.411274e-03 1.276014e-03 1.179058e-03 6.040910e-04 8.647655e-04
<GCONST> -1.124063e+02
<STATE> 6
<MEAN> 39
 -1.759400e+00 -5.584866e-01 -7.821844e-01 -6.977153e-01 -5.377359e-01 -5.568817e-01 -2.070676e-01 -4.167894e-01 -2.295369e-01 -2.136907e-01 1.820773e-02 1.192315e-01 3.746618e+00 3.052557e-02 -1.929455e-03 7.431793e-02 4.228581e-02 1.470773e-02 -6.961276e-03 -2.635324e-02 -3.492267e-02 -1.703147e-02 -1.632309e-02 -4.430779e-04 -1.283108e-02 8.748100e-02 3.298503e-02 -9.580694e-03 1.600505e-02 1.248768e-02 5.096104e-03 -1.956418e-02 -1.863988e-02 -1.341354e-02 -1.688952e-02 -1.451032e-02 -3.712078e-04 -4.609061e-05 4.826981e-02
<VARIANCE> 39
 1.563324e-01 2.464331e-01 2.641359e-01 2.410736e-01 2.843675e-01 1.912003e-01 2.173362e-01 1.912429e-01 1.489774e-01 1.043737e-01 1.525673e-01 6.515006e-02 9.758727e-01 2.756193e-02 3.435949e-02 2.872210e-02 2.790514e-02 2.154975e-02 2.118519e-02 1.873575e-02 2.102918e-02 1.838307e-02 1.532201e-02 1.661278e-02 7.894043e-03 2.737929e-02 4.937836e-03 6.326951e-03 4.777428e-03 4.846651e-03 4.320048e-03 3.865101e-03 4.103347e-03 4.069787e-03 3.552560e-03 2.694815e-03 3.088034e-03 1.599547e-03 5.025466e-03
<GCONST> -7.167467e+01
<STATE> 7
<MEAN> 39
 -1.222427e+00 -8.384514e-01 -4.205300e-01 -7.093635e-01 -3.863973e-01 -9.143142e-01 -2.365370e-01 -6.512709e-01 -3.238128e-01 -4.703884e-01 -1.395334e-02 1.203278e-01 4.431481e+00 1.182342e-01 -3.236278e-02 5.774070e-02 2.200710e-02 -6.108697e-03 -7.498945e-02 -5.300543e-02 -2.722925e-02 -3.141151e-02 -4.532043e-02 -2.245901e-02 -4.541955e-04 1.816062e-01 7.700895e-03 2.008711e-03 -1.060037e-02 -6.314537e-03 -2.369407e-03 -9.318683e-04 -9.766547e-04 9.446274e-03 6.708215e-03 2.074315e-03 -1.416051e-03 1.039929e-03 -3.593930e-03
<VARIANCE> 39
 7.605518e-01 7.707791e-01 7.255864e-01 6.737027e-01 6.983877e-01 5.187219e-01 7.004573e-01 4.726883e-01 4.588457e-01 3.420721e-01 3.683811e-01 2.161899e-01 1.815635e+00 5.967417e-02 7.581062e-02 5.215904e-02 5.726688e-02 6.109896e-02 4.313175e-02 4.693828e-02 4.115602e-02 4.981206e-02 3.350971e-02 4.120851e-02 2.193079e-02 5.879463e-02 1.045330e-02 1.524442e-02 1.027342e-02 9.868704e-03 1.091712e-02 8.107064e-03 8.145220e-03 8.196367e-03 9.432352e-03 6.684687e-03 8.079250e-03 4.614697e-03 1.183261e-02
<GCONST> -3.631010e+01
<TRANSP> 8
 0.000000e+00 3.256570e-01 6.743430e-01 0.000000e+00 0.000000e+00 0.000000e+00 0.000000e+00 0.000000e+00
 0.000000e+00 8.851985e-01 1.148015e-01 0.000000e+00 0.000000e+00 0.000000e+00 0.000000e+00 0.000000e+00
 0.000000e+00 0.000000e+00 7.926549e-01 8.383320e-02 1.235119e-01 0.000000e+00 0.000000e+00 0.000000e+00
 0.000000e+00 0.000000e+00 0.000000e+00 9.593267e-01 2.817024e-02 1.250310e-02 0.000000e+00 0.000000e+00
 0.000000e+00 0.000000e+00 0.000000e+00 0.000000e+00 7.889749e-01 2.110251e-01 0.000000e+00 0.000000e+00
 0.000000e+00 0.000000e+00 0.000000e+00 0.000000e+00 0.000000e+00 6.141569e-01 3.858431e-01 0.000000e+00
 0.000000e+00 0.000000e+00 0.000000e+00 0.000000e+00 0.000000e+00 0.000000e+00 7.472284e-01 2.527716e-01
 0.000000e+00 0.000000e+00 0.000000e+00 0.000000e+00 0.000000e+00 0.000000e+00 0.000000e+00 0.000000e+00
<ENDHMM>
