~o
<STREAMINFO> 1 39
<VECSIZE> 39<NULLD><MFCC_D_A_0><DIAGC>
~h "tambah"
<BEGINHMM>
<NUMSTATES> 6
<STATE> 2
<MEAN> 39
 9.344119e-01 5.319678e-01 -3.285482e+00 6.765126e-01 -7.452553e+00 -2.516361e+00 1.309815e-03 3.447333e+00 -8.580983e-01 -6.695494e+00 8.265899e-01 5.495805e+00 5.772388e+01 1.195178e+00 7.921850e-01 -5.329792e-01 6.019574e-01 6.216385e-01 -5.187339e-01 -8.976693e-02 1.031497e+00 8.279197e-01 -7.818154e-02 -5.790219e-01 -5.865631e-01 2.988692e-01 -2.466119e-01 2.234861e-01 1.645149e-01 2.478646e-01 3.790425e-01 1.772320e-01 -3.883430e-02 -3.576906e-02 1.248914e-01 1.331707e-01 -2.578318e-01 -4.324791e-01 -2.831531e-01
<VARIANCE> 39
 4.195828e+01 6.150578e+01 2.511730e+01 3.163010e+01 3.702181e+01 4.195205e+01 4.701968e+01 6.206362e+01 3.073161e+01 2.799563e+01 2.525154e+01 3.370515e+01 1.577349e+02 2.475355e+00 1.051102e+01 2.768005e+00 3.733268e+00 7.237745e+00 4.717989e+00 6.798314e+00 6.069288e+00 4.660583e+00 4.388904e+00 4.354113e+00 5.896491e+00 4.868961e+00 4.060458e-01 1.865884e+00 5.630553e-01 7.006987e-01 1.175184e+00 1.152941e+00 1.421944e+00 1.237514e+00 8.933142e-01 8.346924e-01 6.463457e-01 8.042135e-01 7.961143e-01
<GCONST> 1.392790e+02
<STATE> 3
<MEAN> 39
 1.666124e+00 1.407519e+01 -1.041719e+00 9.355696e+00 5.870832e+00 1.649842e-01 -1.949939e+00 4.416288e+00 7.849030e+00 -3.421140e+00 -1.121132e+01 -8.776975e+00 5.782610e+01 -1.415717e-01 6.830107e-01 4.567877e-01 1.378572e-01 2.250522e-01 2.875112e-01 -2.439999e-01 -3.493110e-01 9.046704e-02 -4.871750e-03 -5.669084e-01 -6.201096e-01 -3.817418e-01 1.988604e-01 -3.500935e-01 -6.587163e-02 -4.845022e-01 -7.847558e-01 -1.681939e-01 1.116889e-01 -7.862440e-02 -3.391853e-01 -2.774147e-01 5.461167e-01 9.071400e-01 3.223667e-01
<VARIANCE> 39
 1.167761e+01 8.799446e+00 1.383196e+01 6.684240e+00 1.960291e+01 1.317704e+01 9.460563e+00 9.535810e+01 2.941794e+01 1.211160e+01 2.872017e+01 1.522697e+01 8.786620e+01 3.558685e-01 5.739921e-01 6.461400e-01 2.182480e+00 5.317734e+00 2.099056e+00 1.256431e+00 1.147220e+00 2.856229e+00 1.515002e+00 4.340473e+00 6.220265e+00 4.461324e-01 6.037012e-02 1.691925e-01 1.691236e-01 2.073819e-01 3.528127e-01 3.980868e-01 2.619011e-01 2.713209e-01 3.868361e-01 3.190981e-01 3.785059e-01 4.824022e-01 6.800140e-02
<GCONST> 9.609244e+01
<STATE> 4
<MEAN> 39
 5.129653e+00 6.342832e+00 7.223904e-01 2.855468e+00 -7.608038e+00 5.735611e-01 -2.420630e+00 2.400369e+00 5.047396e+00 -1.112778e+01 -3.487723e+00 8.170922e+00 6.128954e+01 -4.217082e-02 -2.105238e+00 7.266065e-02 -3.639015e-01 -1.073426e+00 9.595420e-01 5.989339e-01 -1.324603e-01 -3.112906e-01 -7.003278e-01 1.720696e+00 2.486764e+00 8.388821e-01 -3.026647e-01 6.379694e-02 -9.737115e-02 4.608638e-01 7.067918e-01 1.001687e-01 4.090998e-01 2.512841e-01 -5.562701e-02 5.443867e-01 -4.040958e-02 -7.622373e-01 -2.788635e-01
<VARIANCE> 39
 1.520600e+01 5.284771e+01 1.655016e+01 2.010871e+01 3.009134e+01 6.418637e+01 1.915724e+01 9.332109e+01 3.327895e+01 2.575022e+01 2.581882e+01 4.936372e+01 8.824938e+01 1.708638e+00 2.078063e+00 2.873254e+00 2.906367e+00 7.327117e+00 6.098226e+00 3.939503e+00 2.497416e+00 4.011903e+00 3.976866e+00 1.827411e+00 6.952534e+00 1.759604e+00 2.202781e-01 6.260946e-01 7.041485e-01 2.885208e-01 6.571059e-01 1.544969e+00 5.958816e-01 4.671262e-01 1.038194e+00 5.095391e-01 3.347742e-01 8.339065e-01 2.595335e-01
<GCONST> 1.248645e+02
<STATE> 5
<MEAN> 39
 -3.635707e+00 -2.292797e-01 -1.853811e-01 6.996034e+00 -2.758958e+00 2.033479e+00 7.058669e+00 3.370068e+00 -2.714979e+00 -3.706110e+00 4.230391e+00 5.804322e+00 5.786650e+01 -8.198531e-01 7.501592e-03 2.514083e-02 1.304540e-01 4.308732e-01 -3.665867e-01 5.203877e-02 -3.041970e-01 -5.314998e-01 5.192150e-01 -6.066494e-02 -7.084949e-01 -4.806174e-01 1.172035e-01 1.113876e-01 6.689814e-02 -8.663345e-02 -1.019841e-01 -5.318635e-03 -3.270344e-01 -1.610259e-01 1.717590e-01 -2.168452e-01 -2.089322e-01 9.094664e-02 5.372519e-02
<VARIANCE> 39
 5.344538e+01 8.186247e+01 6.977530e+01 4.311406e+01 3.653126e+01 7.903492e+01 6.144535e+01 1.205555e+02 4.369276e+01 3.523281e+01 4.123358e+01 2.992279e+01 1.259563e+02 1.858200e+00 5.216894e+00 4.820532e+00 3.597160e+00 3.343389e+00 4.946719e+00 5.677886e+00 3.651325e+00 5.184453e+00 4.841047e+00 3.325186e+00 2.970768e+00 1.617975e+00 2.454447e-01 6.953646e-01 7.482533e-01 5.183120e-01 5.836344e-01 9.063448e-01 7.466704e-01 5.951905e-01 8.019381e-01 8.438056e-01 5.673973e-01 5.290400e-01 2.537447e-01
<GCONST> 1.340692e+02
<TRANSP> 6
 0.000000e+00 9.000984e-01 9.990153e-02 0.000000e+00 0.000000e+00 0.000000e+00
 0.000000e+00 8.937503e-01 1.062497e-01 0.000000e+00 0.000000e+00 0.000000e+00
 0.000000e+00 0.000000e+00 8.797101e-01 1.202899e-01 0.000000e+00 0.000000e+00
 0.000000e+00 0.000000e+00 0.000000e+00 8.555390e-01 1.444610e-01 0.000000e+00
 0.000000e+00 0.000000e+00 0.000000e+00 0.000000e+00 9.110568e-01 8.894321e-02
 0.000000e+00 0.000000e+00 0.000000e+00 0.000000e+00 0.000000e+00 0.000000e+00
<ENDHMM>
