~o
<STREAMINFO> 1 39
<VECSIZE> 39<NULLD><PLP_D_A_0><DIAGC>
~h "bagi"
<BEGINHMM>
<NUMSTATES> 8
<STATE> 2
<MEAN> 39
 -3.873482e-01 -4.119567e-01 -7.270965e-01 -4.364080e-01 -6.934429e-01 -1.036638e+00 -6.630031e-01 -6.106521e-02 -3.219745e-01 -7.471020e-01 -1.957504e-01 3.055361e-02 4.693882e+00 1.995481e-01 -3.707375e-02 -5.340766e-02 -2.488957e-02 -1.047398e-01 -1.344420e-01 -7.719542e-02 3.075352e-02 -1.679499e-02 -8.523691e-02 7.265519e-02 7.040439e-02 1.721147e-01 -2.074774e-02 -5.712376e-02 1.475031e-02 -2.077741e-02 -1.783663e-02 1.389379e-02 2.895323e-03 -1.229958e-02 7.308612e-03 1.674184e-02 4.585429e-02 2.977710e-02 2.491391e-02
<VARIANCE> 39
 6.631753e-01 3.736050e-01 2.838970e-01 4.512273e-01 4.360197e-01 5.040971e-01 2.530517e-01 2.498195e-01 2.373251e-01 3.834362e-01 3.651201e-01 2.736005e-01 9.707341e-01 3.651087e-02 8.846519e-02 4.634628e-02 4.984532e-02 5.636379e-02 8.257131e-02 3.053596e-02 2.355717e-02 2.236436e-02 3.338401e-02 5.733223e-02 5.457474e-02 3.419390e-02 9.361603e-03 1.326463e-02 8.392491e-03 8.839887e-03 1.550287e-02 1.406446e-02 4.506080e-03 4.054392e-03 4.277392e-03 5.611125e-03 6.849171e-03 1.055138e-02 9.774529e-03
<GCONST> -4.417945e+01
<STATE> 3
<MEAN> 39
 -8.141246e-02 -1.091342e+00 -9.091353e-01 -1.115067e+00 -5.584704e-01 -1.771104e+00 -5.229070e-01 -4.329263e-01 -6.600067e-01 -1.549879e-01 6.651571e-01 5.417873e-01 6.170346e+00 -6.665806e-02 5.591703e-02 6.937567e-02 9.950260e-02 8.697055e-02 5.136851e-02 1.691323e-03 -8.671726e-02 -4.866313e-02 1.244991e-03 1.630736e-03 -1.004962e-02 -6.924023e-02 -3.460699e-02 4.146660e-02 4.196935e-02 5.249410e-02 3.721119e-02 2.408963e-02 -3.626732e-03 -7.781133e-03 2.710941e-03 -2.067324e-02 -4.397024e-02 -5.132212e-02 -5.037367e-02
<VARIANCE> 39
 5.841185e-02 8.474516e-01 3.091213e-01 8.735237e-01 4.991692e-01 3.221847e-01 1.059269e+00 2.900236e-01 2.519393e-01 5.811524e-01 3.535440e-01 1.164892e-01 4.985384e-01 6.779369e-03 2.691885e-02 1.906504e-02 1.765320e-02 1.117340e-02 3.482450e-02 2.381547e-02 1.358582e-02 2.659411e-02 1.883329e-02 2.382591e-02 1.622203e-02 1.516617e-02 1.408407e-03 8.772758e-03 2.693417e-03 3.805962e-03 4.459941e-03 8.458949e-03 4.777682e-03 3.688992e-03 6.938052e-03 4.879271e-03 3.600307e-03 4.529533e-03 4.249213e-03
<GCONST> -6.429138e+01
<STATE> 4
<MEAN> 39
 -5.407791e-01 -7.338740e-01 4.306641e-02 -3.367988e-01 9.484405e-02 -1.361475e+00 -4.036745e-01 -7.648759e-01 -5.874123e-01 -7.270593e-01 1.087507e-01 -5.355934e-02 5.205988e+00 -1.141486e-01 -1.917474e-02 1.387950e-01 2.393523e-01 1.860251e-01 -7.332658e-02 -1.248203e-01 3.243950e-02 6.088010e-02 -2.685422e-02 -7.773508e-02 -1.921547e-01 -5.682497e-02 3.619123e-02 -5.766421e-02 -2.634451e-03 -1.022646e-02 -1.561862e-02 -6.735152e-02 -4.392857e-02 1.254567e-02 2.216735e-03 7.592977e-03 -2.633606e-03 1.305870e-02 6.743224e-02
<VARIANCE> 39
 1.556169e-01 5.655749e-01 5.005620e-01 9.386973e-01 5.151485e-01 9.995922e-01 3.848545e-01 6.055270e-01 2.141987e-01 4.898911e-01 2.442404e-01 2.082469e-01 1.032686e+00 1.607244e-02 6.119721e-02 3.317786e-02 1.730006e-02 2.400354e-02 6.941929e-02 2.500201e-02 3.267371e-02 3.858567e-02 4.257716e-02 2.778038e-02 2.474928e-02 4.168056e-02 3.392966e-03 8.992052e-03 6.838381e-03 5.579854e-03 6.152021e-03 1.664509e-02 6.040286e-03 7.185065e-03 8.431440e-03 6.469314e-03 4.736261e-03 6.365894e-03 5.608752e-03
<GCONST> -4.880740e+01
<STATE> 5
<MEAN> 39
 -6.087571e-01 -5.270452e-01 1.098472e-01 5.884721e-01 9.984313e-02 -1.858491e+00 -1.496366e+00 -6.183130e-01 -4.608919e-01 -7.772503e-01 -2.963453e-01 -5.850374e-01 5.637156e+00 3.119599e-04 -7.380319e-02 4.872769e-02 8.295944e-02 3.162135e-02 -4.747578e-02 -1.100611e-01 -2.006203e-02 -4.303257e-02 -9.493208e-03 -1.338225e-02 -3.804478e-02 1.693345e-02 -5.871635e-03 2.428632e-02 -3.294565e-02 -5.895094e-02 -3.328608e-02 4.183410e-02 4.081695e-02 -1.166140e-02 -5.138341e-03 6.842493e-03 1.410645e-02 4.147260e-02 -2.305994e-02
<VARIANCE> 39
 1.058725e-01 4.079395e-01 2.706607e-01 3.211849e-01 1.512734e-01 3.826643e-01 2.180689e-01 8.280660e-02 1.586796e-01 1.582952e-01 2.729855e-01 8.160829e-02 2.622594e-01 1.476065e-02 1.610887e-02 2.256512e-02 2.025422e-02 1.684077e-02 4.460551e-02 3.526846e-02 1.336033e-02 1.480511e-02 8.616590e-03 8.832371e-03 1.354507e-02 1.833797e-02 2.647314e-03 3.040092e-03 3.103575e-03 4.461975e-03 2.655620e-03 2.673230e-03 2.015630e-03 2.246192e-03 3.142186e-03 1.878034e-03 2.151985e-03 2.963582e-03 9.304137e-04
<GCONST> -8.054478e+01
<STATE> 6
<MEAN> 39
 -6.399550e-01 -1.502841e+00 7.265247e-01 -2.178665e-01 5.818542e-01 -2.287367e+00 -9.474947e-01 -9.329723e-01 -6.170534e-01 -7.257389e-01 -2.436898e-02 -2.516755e-01 5.882747e+00 -2.280757e-02 4.173401e-02 -5.865721e-02 -1.522951e-01 -4.559644e-02 1.308504e-01 6.347647e-02 -4.671533e-02 1.648245e-02 1.909022e-02 1.249914e-02 7.206867e-02 -2.825874e-02 -1.968944e-02 2.894090e-02 -3.350261e-02 -4.929643e-02 -2.305031e-02 2.997700e-02 6.732680e-02 1.760322e-02 1.147005e-02 5.480786e-03 -9.731094e-03 1.540674e-02 -2.868221e-02
<VARIANCE> 39
 2.209188e-01 3.118488e-01 7.266733e-01 1.086481e+00 2.570944e-01 2.050856e+00 8.009686e-01 2.915785e-01 2.671853e-01 3.637381e-01 4.397244e-01 1.423460e-01 9.173902e-01 2.985425e-02 3.593657e-02 5.178520e-02 4.549865e-02 2.979233e-02 8.633356e-02 4.216832e-02 2.879023e-02 3.138043e-02 2.524483e-02 2.935942e-02 1.750482e-02 3.248746e-02 4.197360e-03 8.655109e-03 1.059534e-02 8.463632e-03 7.029605e-03 2.377083e-02 9.663516e-03 6.507761e-03 7.714438e-03 5.885659e-03 6.687956e-03 4.047020e-03 8.185540e-03
<GCONST> -4.545903e+01
<STATE> 7
<MEAN> 39
 -1.210023e+00 -6.553859e-01 -3.497009e-01 -4.822945e-01 -2.506085e-01 -1.164143e+00 -7.505572e-01 -7.789606e-01 -4.928755e-01 -4.848040e-01 2.521521e-03 3.301064e-02 5.145030e+00 2.436490e-03 2.992534e-02 -4.219097e-02 -1.061950e-01 -7.020177e-02 5.617816e-03 9.151945e-02 3.715000e-02 3.019918e-02 1.906911e-02 -3.184141e-03 3.885930e-02 -1.456573e-02 3.292602e-02 -7.020363e-03 1.557756e-02 3.585650e-02 5.625799e-03 -2.875972e-02 -2.686989e-02 5.847211e-03 -6.286083e-03 -9.230259e-03 -2.178699e-03 -2.271830e-02 2.141931e-02
<VARIANCE> 39
 5.119045e-01 3.836288e-01 4.600306e-01 1.022219e+00 5.512820e-01 4.872794e-01 3.582433e-01 2.052813e-01 1.583604e-01 1.819434e-01 1.955125e-01 9.233696e-02 6.324179e-01 5.370945e-02 3.017971e-02 3.226706e-02 3.982464e-02 2.339425e-02 4.358147e-02 3.015658e-02 1.395705e-02 2.151258e-02 1.790698e-02 2.705907e-02 1.402238e-02 2.376991e-02 8.454874e-03 5.181816e-03 4.791529e-03 5.181565e-03 3.739842e-03 7.552363e-03 4.456753e-03 3.472633e-03 3.735555e-03 2.661358e-03 3.866245e-03 1.777011e-03 4.191931e-03
<GCONST> -6.094161e+01
<TRANSP> 8
 0.000000e+00 7.250287e-01 2.749713e-01 0.000000e+00 0.000000e+00 0.000000e+00 0.000000e+00 0.000000e+00
 0.000000e+00 7.967080e-01 2.032920e-01 0.000000e+00 0.000000e+00 0.000000e+00 0.000000e+00 0.000000e+00
 0.000000e+00 0.000000e+00 7.881344e-01 2.118656e-01 0.000000e+00 0.000000e+00 0.000000e+00 0.000000e+00
 0.000000e+00 0.000000e+00 0.000000e+00 7.273364e-01 2.726636e-01 0.000000e+00 0.000000e+00 0.000000e+00
 0.000000e+00 0.000000e+00 0.000000e+00 0.000000e+00 7.239826e-01 2.760174e-01 0.000000e+00 0.000000e+00
 0.000000e+00 0.000000e+00 0.000000e+00 0.000000e+00 0.000000e+00 7.304448e-01 2.695553e-01 0.000000e+00
 0.000000e+00 0.000000e+00 0.000000e+00 0.000000e+00 0.000000e+00 0.000000e+00 7.468866e-01 2.531134e-01
 0.000000e+00 0.000000e+00 0.000000e+00 0.000000e+00 0.000000e+00 0.000000e+00 0.000000e+00 0.000000e+00
<ENDHMM>
