~o
<STREAMINFO> 1 39
<VECSIZE> 39<NULLD><MFCC_D_A_0><DIAGC>
~h "dua"
<BEGINHMM>
<NUMSTATES> 6
<STATE> 2
<MEAN> 39
 -1.917706e+00 6.156812e+00 -5.810055e-01 9.061253e+00 7.834279e+00 3.410628e+00 -5.449406e+00 3.840523e+00 4.933607e+00 -5.463576e+00 -4.027608e+00 1.770808e+00 5.353375e+01 1.169568e+00 -6.319293e-02 3.316431e-01 -4.664714e-01 -2.807696e-01 2.402627e-01 -1.114628e+00 1.387631e-01 6.509354e-01 -1.491104e+00 -9.079491e-01 -3.773787e-02 1.026346e+00 -1.150809e-01 -5.547882e-02 2.149689e-01 -1.954700e-01 -4.662495e-01 -1.718941e-01 -2.086493e-03 2.436616e-01 1.704209e-01 -1.286897e-01 2.996725e-04 -3.644813e-02 -1.230809e-02
<VARIANCE> 39
 5.307454e+01 7.141783e+01 3.942409e+01 3.411705e+01 6.278290e+01 5.117547e+01 8.523444e+01 4.512629e+01 8.175002e+01 8.035461e+01 4.790110e+01 3.781884e+01 1.125947e+02 2.584035e+00 6.143911e+00 6.653917e+00 4.200254e+00 7.266793e+00 4.580021e+00 8.396108e+00 4.841652e+00 7.768879e+00 7.479303e+00 4.716948e+00 4.255373e+00 2.362997e+00 3.968962e-01 1.236965e+00 1.330455e+00 6.141867e-01 9.809417e-01 9.977652e-01 1.877061e+00 9.376159e-01 1.459484e+00 1.539751e+00 1.109195e+00 6.771441e-01 4.370492e-01
<GCONST> 1.450202e+02
<STATE> 3
<MEAN> 39
 3.896290e+00 6.034682e+00 5.053053e+00 2.499862e+00 -4.982712e+00 -7.241415e-01 -1.159023e+01 6.808342e+00 1.189042e+01 -1.264398e+01 -7.719547e+00 3.021952e+00 6.219348e+01 2.432180e-01 -3.278220e-01 -9.357902e-02 -2.844543e-01 -1.115083e+00 -9.432479e-01 1.730781e-02 2.143550e-01 1.889004e-01 2.974969e-01 1.507747e-01 3.682675e-01 3.009092e-01 -2.124313e-02 1.651120e-03 -2.892116e-01 1.620320e-01 3.265626e-01 -7.364865e-02 1.346712e-01 -8.392410e-02 -2.769860e-01 2.431512e-01 1.364012e-01 -6.481833e-03 -7.980005e-02
<VARIANCE> 39
 1.800927e+01 4.153846e+01 4.097490e+01 1.978825e+01 7.581322e+01 3.707795e+01 3.658748e+01 4.095066e+01 6.454807e+01 8.999503e+01 2.714850e+01 6.982375e+01 6.260233e+01 3.223680e-01 1.850210e+00 1.704774e+00 1.628997e+00 2.254204e+00 2.137495e+00 2.671844e+00 2.360597e+00 2.302678e+00 2.428385e+00 1.861096e+00 2.375093e+00 5.749174e-01 5.701441e-02 2.969678e-01 2.315454e-01 2.644472e-01 3.810530e-01 3.318082e-01 3.855693e-01 4.700488e-01 4.205824e-01 5.799415e-01 3.981024e-01 5.332772e-01 9.631503e-02
<GCONST> 1.112216e+02
<STATE> 4
<MEAN> 39
 2.296416e+00 -3.776215e+00 -1.299944e+01 -2.285618e+00 -1.765737e+00 -1.238511e+01 -7.555629e+00 9.003337e+00 2.696381e+00 1.909947e-01 2.082751e+00 5.195564e+00 7.405589e+01 -2.764750e-01 -5.953531e-03 -3.958124e-01 -1.655729e-01 -7.884818e-02 2.727372e-01 6.077662e-01 6.893913e-02 -1.279656e-01 3.054911e-02 2.014836e-01 3.074138e-01 -3.065930e-01 -7.343575e-02 1.047893e-01 1.229012e-01 6.116623e-02 4.512688e-02 1.514469e-01 3.760366e-02 -4.479460e-02 4.522101e-02 2.500778e-03 -5.085513e-02 -9.919213e-02 -8.607823e-02
<VARIANCE> 39
 1.344379e+01 2.943110e+01 4.608364e+01 1.463293e+01 1.466714e+01 5.292878e+01 3.742804e+01 2.381571e+01 1.873615e+01 2.765531e+01 2.056361e+01 2.063254e+01 2.246449e+01 3.879346e-01 1.240866e+00 1.077589e+00 6.548522e-01 6.078140e-01 1.489585e+00 1.287219e+00 1.330122e+00 1.274703e+00 1.247339e+00 1.533341e+00 1.153688e+00 6.454279e-01 3.075994e-02 1.081636e-01 1.083108e-01 1.085300e-01 1.129624e-01 2.390568e-01 2.742993e-01 2.369619e-01 2.230524e-01 2.240208e-01 2.548591e-01 1.766700e-01 4.209224e-02
<GCONST> 8.722734e+01
<STATE> 5
<MEAN> 39
 3.703316e-01 8.818661e+00 -1.350160e+00 4.794072e+00 -2.749699e+00 -3.292225e+00 -3.513247e-02 7.602086e+00 3.310381e+00 -8.415973e+00 -5.411907e+00 2.991124e+00 5.200095e+01 -6.269975e-01 3.457705e-01 -2.444234e-01 1.925845e-01 7.506166e-01 -4.346863e-02 5.209646e-01 -1.274153e-01 -8.326721e-01 7.447578e-01 2.054870e-01 -6.652292e-01 -6.473805e-01 4.733841e-02 -9.293699e-02 1.293833e-01 -1.244226e-01 -1.128640e-01 1.485608e-01 -2.226097e-01 -1.044948e-01 1.660530e-01 -1.327318e-01 -2.018927e-02 7.392952e-02 1.020690e-01
<VARIANCE> 39
 5.588866e+01 4.722540e+01 4.656155e+01 4.836438e+01 4.690565e+01 4.995394e+01 4.568758e+01 7.213298e+01 6.123958e+01 4.721144e+01 3.994424e+01 4.523808e+01 8.501577e+01 2.637788e+00 3.937603e+00 3.967066e+00 4.104317e+00 5.287513e+00 4.619581e+00 4.790892e+00 4.182183e+00 5.734285e+00 4.254384e+00 3.441047e+00 4.203255e+00 2.728401e+00 3.793142e-01 5.724286e-01 6.457502e-01 7.049827e-01 8.250989e-01 7.423800e-01 7.437893e-01 6.534460e-01 9.645622e-01 6.155373e-01 6.343677e-01 6.701539e-01 3.029277e-01
<GCONST> 1.351431e+02
<TRANSP> 6
 0.000000e+00 7.641485e-01 2.358515e-01 0.000000e+00 0.000000e+00 0.000000e+00
 0.000000e+00 8.616188e-01 1.383812e-01 0.000000e+00 0.000000e+00 0.000000e+00
 0.000000e+00 0.000000e+00 8.951405e-01 4.369181e-02 6.116770e-02 0.000000e+00
 0.000000e+00 0.000000e+00 0.000000e+00 9.466572e-01 2.131192e-02 3.203086e-02
 0.000000e+00 0.000000e+00 0.000000e+00 0.000000e+00 9.003738e-01 9.962627e-02
 0.000000e+00 0.000000e+00 0.000000e+00 0.000000e+00 0.000000e+00 0.000000e+00
<ENDHMM>
