~o
<STREAMINFO> 1 39
<VECSIZE> 39<NULLD><MFCC_D_A_0><DIAGC>
~h "empat"
<BEGINHMM>
<NUMSTATES> 6
<STATE> 2
<MEAN> 39
 -6.115125e+00 6.424567e+00 -6.554460e-01 1.076277e+01 9.557844e+00 4.198956e+00 2.965809e+00 7.959047e+00 2.840845e+00 -2.570497e+00 -5.854708e+00 -4.528628e+00 6.428940e+01 -2.504887e-01 8.747233e-02 7.503619e-02 -9.453715e-02 -3.931805e-02 1.577245e-01 1.794376e-01 2.245277e-02 1.051253e-01 8.848671e-02 -1.825624e-01 -2.365309e-01 -2.073943e-01 -4.442982e-02 -1.047753e-01 -8.109470e-02 -1.772740e-01 -1.690177e-01 -1.125203e-01 -1.018844e-01 -1.038399e-01 -3.968890e-02 7.890295e-02 1.275213e-01 9.450549e-02 9.432505e-03
<VARIANCE> 39
 1.329319e+01 2.539846e+01 1.871772e+01 1.907539e+01 1.763305e+01 1.087147e+01 1.543473e+01 2.457847e+01 8.814645e+00 1.093851e+01 9.821721e+00 1.203489e+01 9.220622e+00 1.293964e+00 5.434005e-01 5.857781e-01 1.349629e+00 1.528879e+00 1.024155e+00 1.275901e+00 9.865583e-01 7.406757e-01 1.224668e+00 8.560923e-01 9.194530e-01 6.806256e-01 1.816204e-01 1.055435e-01 1.042435e-01 1.684198e-01 1.916496e-01 2.011742e-01 2.251037e-01 1.255191e-01 1.554876e-01 2.055306e-01 1.239110e-01 1.644127e-01 1.342289e-01
<GCONST> 8.133961e+01
<STATE> 3
<MEAN> 39
 -9.045276e-01 3.685761e+00 -4.909981e-01 4.194336e+00 -2.362984e+00 -4.538735e-01 -2.515494e+00 5.371238e+00 5.412165e+00 -5.856565e+00 -4.705489e+00 1.435907e+00 5.180109e+01 4.988828e-01 -2.860276e-01 -3.601423e-01 -4.321514e-01 -3.349862e-01 -1.653472e-01 -1.675513e-01 -1.702312e-01 -3.827530e-02 -1.028279e-01 1.820743e-01 6.031278e-01 4.891548e-01 -2.834907e-02 1.290463e-02 -8.076015e-02 -2.455653e-02 4.990307e-02 -5.328665e-03 2.019542e-02 5.312947e-02 2.762048e-03 3.732165e-03 -4.992967e-03 1.195474e-02 -4.045871e-02
<VARIANCE> 39
 7.442175e+01 8.125941e+01 4.388078e+01 5.218612e+01 9.046568e+01 5.200823e+01 2.945617e+01 5.181140e+01 6.144580e+01 6.943571e+01 5.175132e+01 8.510781e+01 1.227905e+02 5.098860e+00 6.656380e+00 5.018212e+00 5.144383e+00 7.347483e+00 5.294333e+00 3.525911e+00 4.633691e+00 6.695552e+00 4.448486e+00 5.194212e+00 5.937729e+00 6.163537e+00 6.833845e-01 1.083039e+00 8.422903e-01 9.513410e-01 1.193897e+00 9.723371e-01 6.264527e-01 9.415272e-01 1.172894e+00 7.976580e-01 9.187011e-01 9.485817e-01 8.358739e-01
<GCONST> 1.460541e+02
<STATE> 4
<MEAN> 39
 2.637852e-01 -5.894854e+00 -1.688888e+01 -6.917437e+00 -2.974105e+00 -4.194708e+00 -4.425234e+00 4.229484e+00 6.396816e+00 8.897459e-03 1.623320e+00 1.335862e+01 7.285027e+01 -4.981589e-01 3.177298e-01 -3.182231e-02 -7.368553e-02 1.750388e-02 2.956725e-01 1.312483e-01 -1.082888e-01 -3.676625e-01 -8.924343e-02 1.046155e-01 -5.846943e-02 -5.873673e-01 -8.168305e-02 1.137260e-01 1.726801e-01 1.066333e-01 7.791139e-02 6.109201e-02 2.760789e-02 1.974948e-03 -5.727274e-02 2.889500e-02 3.624161e-03 -1.429469e-01 -8.664797e-02
<VARIANCE> 39
 1.955972e+01 1.814430e+01 1.063683e+01 7.643686e+00 1.000089e+01 2.062884e+01 1.446676e+01 2.238674e+01 3.162820e+01 1.560643e+01 1.117892e+01 1.880511e+01 3.339684e+01 2.604145e-01 6.445908e-01 1.213683e+00 6.613338e-01 7.464957e-01 1.089168e+00 1.206283e+00 1.568833e+00 1.389793e+00 9.991467e-01 7.703356e-01 1.784856e+00 4.927448e-01 7.882438e-02 1.318738e-01 2.656255e-01 1.733135e-01 1.843686e-01 2.464617e-01 2.509865e-01 3.517792e-01 2.655137e-01 1.862767e-01 1.486356e-01 2.909760e-01 1.005341e-01
<GCONST> 8.487280e+01
<STATE> 5
<MEAN> 39
 -6.113621e+00 8.158469e+00 -1.796419e+00 1.090979e+00 -2.071849e+00 9.709519e-01 -1.056888e+00 -8.526574e-01 -1.596678e+00 -5.203267e+00 1.427739e-02 5.522093e+00 5.364279e+01 -4.739977e-01 5.831162e-01 5.872332e-01 3.402451e-01 4.961816e-01 7.984211e-02 1.176456e-01 -1.134282e-01 -4.366550e-01 2.762255e-01 9.520681e-03 -6.317093e-01 -5.007812e-01 1.352087e-01 -1.334511e-01 1.475567e-01 1.307753e-01 -6.800088e-02 -1.245848e-02 -3.693715e-02 1.627912e-02 1.183300e-01 -1.109068e-01 -1.288419e-01 -2.625104e-02 1.706176e-01
<VARIANCE> 39
 2.577509e+01 3.561940e+01 4.704785e+01 3.607725e+01 2.909957e+01 3.583567e+01 2.452999e+01 4.852363e+01 2.835979e+01 3.081362e+01 2.243936e+01 3.727902e+01 1.777515e+02 2.220221e+00 3.107225e+00 2.780179e+00 3.870182e+00 3.212010e+00 2.954971e+00 2.657820e+00 4.087279e+00 3.414040e+00 2.261298e+00 2.485017e+00 3.687060e+00 2.178491e+00 2.985305e-01 4.111307e-01 4.203926e-01 6.315410e-01 5.271118e-01 4.189958e-01 5.760264e-01 7.824376e-01 6.156021e-01 4.771621e-01 5.579041e-01 7.221656e-01 2.811497e-01
<GCONST> 1.234970e+02
<TRANSP> 6
 0.000000e+00 4.687422e-01 5.312577e-01 0.000000e+00 0.000000e+00 0.000000e+00
 0.000000e+00 9.364419e-01 6.355812e-02 0.000000e+00 0.000000e+00 0.000000e+00
 0.000000e+00 0.000000e+00 9.359003e-01 2.410145e-02 3.999828e-02 0.000000e+00
 0.000000e+00 0.000000e+00 0.000000e+00 9.544137e-01 4.558636e-02 0.000000e+00
 0.000000e+00 0.000000e+00 0.000000e+00 0.000000e+00 8.104609e-01 1.895391e-01
 0.000000e+00 0.000000e+00 0.000000e+00 0.000000e+00 0.000000e+00 0.000000e+00
<ENDHMM>
