~o
<STREAMINFO> 1 39
<VECSIZE> 39<NULLD><MFCC_D_A_0><DIAGC>
~h "empat"
<BEGINHMM>
<NUMSTATES> 6
<STATE> 2
<MEAN> 39
 -1.416448e+00 -5.574583e+00 2.646177e+00 -1.000148e+01 2.623219e+00 -1.179949e+01 1.683325e+01 -8.323918e+00 3.104672e+00 -1.033339e+01 -1.933306e+00 -4.587859e+00 7.200294e+01 6.830508e-02 1.571953e-01 6.374569e-02 1.344303e-01 2.358429e-01 1.329151e-01 -1.845241e-01 1.823456e-01 -6.423654e-02 -5.460762e-02 -1.122678e-01 -9.958208e-02 -1.391344e-01 -1.814293e-02 -4.152479e-02 -4.179971e-02 -5.477815e-02 -2.884718e-02 -2.184988e-02 1.917834e-02 -1.727725e-02 5.377898e-02 3.085484e-02 8.919531e-03 1.285955e-02 3.600894e-02
<VARIANCE> 39
 3.083058e+01 7.291933e+01 5.864257e+01 7.327772e+01 8.930293e+01 8.316841e+01 8.475192e+01 8.226080e+01 6.671660e+01 3.581483e+01 7.076411e+01 4.483016e+01 1.159118e+02 2.201691e+00 3.421306e+00 2.660684e+00 2.457809e+00 4.721669e+00 3.205197e+00 2.784644e+00 4.467699e+00 3.776789e+00 2.919749e+00 4.184423e+00 3.096030e+00 5.552400e+00 2.712238e-01 5.042099e-01 4.374425e-01 4.258234e-01 7.516146e-01 5.095070e-01 4.409017e-01 7.123417e-01 6.050423e-01 4.595565e-01 5.779099e-01 4.779218e-01 6.073233e-01
<GCONST> 1.330749e+02
<STATE> 3
<MEAN> 39
 -6.593860e+00 8.536003e+00 5.697495e-01 8.274973e+00 6.117746e+00 1.217697e+00 8.480495e-01 2.941164e+00 2.169996e+00 -3.415800e+00 -6.281437e+00 -5.889561e+00 6.347816e+01 -5.144702e-01 -1.347449e-01 -5.589482e-02 -1.970518e-01 -1.431175e-01 1.479073e-01 1.453110e-01 -8.888721e-02 1.519712e-02 1.718661e-01 1.248121e-01 5.977685e-02 -3.702404e-01 -3.450228e-02 -1.126878e-01 -7.019382e-02 -1.206399e-01 -1.152056e-01 -6.466503e-02 -3.295532e-02 -6.844585e-02 -4.550501e-02 3.761208e-02 1.288879e-01 1.086953e-01 3.566040e-02
<VARIANCE> 39
 2.244926e+01 3.025218e+01 1.985092e+01 2.752375e+01 2.822675e+01 2.963636e+01 2.151441e+01 3.936999e+01 1.802975e+01 1.267972e+01 1.948783e+01 1.957585e+01 2.215286e+01 9.257837e-01 7.782421e-01 7.811869e-01 9.133298e-01 1.051276e+00 9.844607e-01 1.035208e+00 9.394270e-01 1.157935e+00 9.281785e-01 1.091388e+00 1.148841e+00 5.239484e-01 1.946769e-01 1.151267e-01 1.210523e-01 1.367451e-01 1.829927e-01 2.026824e-01 1.816486e-01 1.595190e-01 2.129677e-01 1.774522e-01 1.778705e-01 1.998418e-01 1.636945e-01
<GCONST> 8.828201e+01
<STATE> 4
<MEAN> 39
 -2.160101e+00 4.138072e+00 -1.287683e+00 1.978021e+00 -3.035483e+00 -2.323876e+00 -1.025402e+00 1.343842e-01 1.153293e+00 -5.933271e+00 -2.664317e+00 1.544536e+00 5.891394e+01 5.599004e-01 -1.709605e-01 -2.606293e-01 -3.799805e-01 -4.576634e-01 -3.377049e-01 -1.433303e-01 -7.015119e-02 -7.713375e-04 -1.417788e-01 1.294375e-01 3.565173e-01 6.219130e-01 -1.784452e-02 -2.207973e-02 -1.528840e-02 9.674590e-03 1.963946e-02 1.633335e-02 -4.239133e-03 3.350879e-02 2.039835e-02 -2.431605e-02 -2.188064e-02 1.661778e-03 -1.731244e-02
<VARIANCE> 39
 6.530849e+01 6.370705e+01 3.907892e+01 5.541380e+01 8.045616e+01 6.231103e+01 3.553616e+01 6.846413e+01 6.429872e+01 5.599998e+01 4.231015e+01 6.013962e+01 1.878116e+02 5.874188e+00 5.222469e+00 4.030865e+00 4.617338e+00 6.515319e+00 4.867224e+00 3.179893e+00 4.226322e+00 5.411809e+00 3.677947e+00 4.138266e+00 4.555336e+00 6.603940e+00 8.455362e-01 8.500373e-01 6.794792e-01 8.252996e-01 1.041702e+00 8.839774e-01 6.331822e-01 8.093941e-01 9.302801e-01 6.663606e-01 7.691109e-01 7.372919e-01 8.819801e-01
<GCONST> 1.426605e+02
<STATE> 5
<MEAN> 39
 -2.551427e+00 5.828264e-01 -9.592406e+00 -5.733331e+00 -6.992404e+00 -5.301015e+00 -2.688800e+00 -6.867743e-01 2.103273e+00 -3.949479e+00 -3.277808e-01 5.403459e+00 6.955150e+01 -5.257587e-01 1.812889e-01 1.292547e-01 1.496188e-01 2.999989e-01 2.520489e-01 8.223795e-02 -1.375745e-01 -2.821220e-01 7.026459e-02 8.771789e-02 -1.086367e-01 -5.634689e-01 -3.719164e-02 4.854329e-02 6.629869e-02 4.892186e-02 4.139607e-02 2.161211e-03 8.271365e-03 4.700179e-03 -1.253154e-02 1.352289e-02 -8.470193e-03 -5.467404e-02 -3.240941e-02
<VARIANCE> 39
 4.932889e+01 4.059903e+01 5.580311e+01 3.472689e+01 4.250021e+01 3.252335e+01 1.670746e+01 4.078731e+01 4.749532e+01 3.428225e+01 1.874100e+01 5.593404e+01 6.951447e+01 7.801504e-01 8.305795e-01 1.318573e+00 1.170154e+00 1.176828e+00 1.369762e+00 1.344942e+00 1.482081e+00 1.697937e+00 1.132902e+00 1.140523e+00 1.438974e+00 8.206890e-01 1.047259e-01 1.425046e-01 2.158347e-01 1.857845e-01 1.975810e-01 2.423792e-01 2.555767e-01 2.928641e-01 3.089395e-01 2.265057e-01 2.476741e-01 2.603641e-01 1.058823e-01
<GCONST> 1.006165e+02
<TRANSP> 6
 0.000000e+00 7.025917e-01 2.974083e-01 0.000000e+00 0.000000e+00 0.000000e+00
 0.000000e+00 9.131083e-01 1.962554e-02 6.726611e-02 0.000000e+00 0.000000e+00
 0.000000e+00 0.000000e+00 9.247332e-01 7.526680e-02 0.000000e+00 0.000000e+00
 0.000000e+00 0.000000e+00 0.000000e+00 9.225669e-01 3.602353e-02 4.140962e-02
 0.000000e+00 0.000000e+00 0.000000e+00 0.000000e+00 9.503900e-01 4.961000e-02
 0.000000e+00 0.000000e+00 0.000000e+00 0.000000e+00 0.000000e+00 0.000000e+00
<ENDHMM>
