~o
<STREAMINFO> 1 39
<VECSIZE> 39<NULLD><MFCC_D_A_0><DIAGC>
~h "kali"
<BEGINHMM>
<NUMSTATES> 6
<STATE> 2
<MEAN> 39
 -3.266077e+00 -1.521810e+00 1.107944e+00 3.590316e+00 1.684254e-01 -2.608865e+00 -2.174374e+00 -4.221815e+00 -2.393924e+00 -6.737439e+00 2.338516e+00 2.108240e+00 6.152069e+01 4.237660e-01 4.483361e-02 -1.254478e-01 1.625941e-02 -4.423057e-02 -2.673923e-01 -1.895236e-01 7.794952e-02 2.322298e-01 9.984086e-02 -9.985204e-02 -4.028723e-03 4.047000e-01 -2.708917e-02 1.389118e-02 -6.886697e-03 -5.511184e-02 -4.488407e-02 8.379797e-04 2.687251e-02 5.038689e-02 6.410936e-02 -1.522994e-02 -1.025998e-02 3.814011e-02 -9.152838e-03
<VARIANCE> 39
 9.196396e+01 6.115223e+01 8.379880e+01 1.576345e+02 8.726508e+01 7.178611e+01 9.625305e+01 3.964879e+01 5.160675e+01 5.901206e+01 3.219582e+01 3.444327e+01 9.379551e+01 4.992315e+00 5.433759e+00 4.983065e+00 5.233600e+00 4.918210e+00 5.973122e+00 5.252567e+00 3.773088e+00 5.729104e+00 3.347311e+00 3.383379e+00 3.154955e+00 3.214379e+00 6.519840e-01 9.821914e-01 8.109303e-01 8.381384e-01 8.760186e-01 1.159072e+00 1.062883e+00 7.111453e-01 1.093237e+00 6.319250e-01 6.236817e-01 5.376393e-01 5.247107e-01
<GCONST> 1.425778e+02
<STATE> 3
<MEAN> 39
 3.175098e+00 -4.447292e+00 -5.286057e+00 -1.228608e+01 -6.875148e+00 -1.171547e+01 6.867416e+00 -7.390340e+00 1.968588e-01 -8.539927e+00 -6.438070e-01 -1.846442e-01 8.051765e+01 3.047893e-02 2.894464e-01 4.612345e-01 7.176156e-01 4.174404e-01 -2.523753e-01 -3.055223e-01 -4.403692e-01 -8.979670e-01 -3.795336e-01 -5.972892e-02 1.760697e-01 -2.925804e-01 -8.181463e-02 3.537762e-02 1.210096e-01 1.341495e-01 1.568944e-01 1.350094e-02 -2.729041e-02 -6.027302e-02 -1.234565e-01 -1.914660e-02 2.230990e-02 -9.210581e-02 -6.717878e-02
<VARIANCE> 39
 2.844690e+00 1.045378e+02 3.869321e+01 3.529897e+01 4.092199e+01 4.015039e+01 1.817350e+02 6.462543e+01 5.587121e+01 4.104455e+01 6.043217e+01 7.521569e+01 1.662500e+01 2.072634e-01 3.484096e-01 7.412614e-01 1.068750e+00 1.183538e+00 1.464801e+00 1.343165e+00 1.517374e+00 2.657701e+00 1.437385e+00 1.745158e+00 1.829900e+00 2.070149e-01 5.960245e-02 7.701982e-02 1.284511e-01 1.569294e-01 1.846333e-01 2.556181e-01 3.051384e-01 2.737798e-01 3.918307e-01 2.513999e-01 3.056353e-01 3.227020e-01 3.282469e-02
<GCONST> 9.679093e+01
<STATE> 4
<MEAN> 39
 -4.061152e-02 1.124608e+00 -1.843914e+00 1.161737e+01 7.768563e+00 -4.997781e+00 -7.840350e+00 4.281809e-01 -3.181783e+00 -3.578895e+00 2.260806e+00 2.001669e+00 6.199280e+01 -2.175964e-01 7.172062e-02 3.427148e-01 1.220458e-01 1.172361e-01 1.135467e-01 5.317315e-02 1.339229e-01 2.610599e-01 6.905393e-03 -2.665048e-01 -2.387312e-01 -1.171895e-01 -1.478786e-02 -2.039200e-02 3.040154e-03 -6.162976e-02 -6.903774e-02 6.056169e-02 5.322274e-02 -1.428550e-02 6.362107e-02 3.307492e-03 4.814653e-03 4.073637e-02 1.585549e-02
<VARIANCE> 39
 4.417636e+01 6.767155e+01 5.401892e+01 6.195638e+01 4.796512e+01 4.246151e+01 3.851309e+01 3.528355e+01 4.999294e+01 3.415020e+01 4.774257e+01 3.171215e+01 1.222950e+02 1.446676e+00 2.766500e+00 2.507932e+00 2.927818e+00 3.577511e+00 2.111725e+00 3.313055e+00 2.006057e+00 2.542107e+00 1.727062e+00 2.079540e+00 1.929802e+00 1.255535e+00 1.757642e-01 4.385955e-01 3.734937e-01 3.573921e-01 4.545936e-01 4.048992e-01 6.164828e-01 3.567347e-01 4.658162e-01 3.101348e-01 3.974544e-01 3.190919e-01 1.700945e-01
<GCONST> 1.190397e+02
<STATE> 5
<MEAN> 39
 -6.841516e+00 -4.019600e-01 5.273689e+00 1.962320e+00 3.883431e+00 -1.634057e+01 -1.411233e+00 -1.205040e+01 -5.360950e+00 -9.775302e+00 -4.231668e+00 -5.768262e+00 7.170008e+01 -3.455913e-01 3.398610e-02 9.489409e-02 -8.259428e-02 1.550307e-01 6.114187e-02 -5.415649e-02 1.683873e-01 3.485570e-01 2.125390e-01 1.310606e-01 -3.664703e-02 -1.924366e-01 3.763448e-02 -4.171792e-03 -2.456153e-02 -4.965219e-02 -5.889764e-02 -4.807528e-03 2.207455e-02 4.040411e-02 1.999875e-02 2.416077e-02 -8.618086e-03 3.155065e-02 1.490671e-02
<VARIANCE> 39
 4.474621e+01 7.377769e+01 8.026025e+01 6.120501e+01 5.313857e+01 1.330267e+02 1.005180e+02 7.757337e+01 3.624559e+01 2.664689e+01 3.200972e+01 2.138345e+01 6.318333e+01 1.187980e+00 1.165214e+00 1.238845e+00 2.313263e+00 1.882485e+00 4.275599e+00 2.139528e+00 2.297575e+00 2.411834e+00 1.498067e+00 2.765376e+00 1.762922e+00 8.944354e-01 1.516350e-01 1.881001e-01 1.455833e-01 2.418374e-01 2.549955e-01 6.130601e-01 3.486967e-01 4.179768e-01 4.741404e-01 3.104533e-01 4.789967e-01 2.988762e-01 1.315858e-01
<GCONST> 1.148915e+02
<TRANSP> 6
 0.000000e+00 8.600779e-01 1.399221e-01 0.000000e+00 0.000000e+00 0.000000e+00
 0.000000e+00 9.259967e-01 3.874078e-02 3.526252e-02 0.000000e+00 0.000000e+00
 0.000000e+00 0.000000e+00 9.339572e-01 2.239446e-02 4.364834e-02 0.000000e+00
 0.000000e+00 0.000000e+00 0.000000e+00 9.164914e-01 0.000000e+00 8.350858e-02
 0.000000e+00 0.000000e+00 0.000000e+00 0.000000e+00 9.691849e-01 3.081512e-02
 0.000000e+00 0.000000e+00 0.000000e+00 0.000000e+00 0.000000e+00 0.000000e+00
<ENDHMM>
