~o
<STREAMINFO> 1 39
<VECSIZE> 39<NULLD><MFCC_D_A_0><DIAGC>
~h "lima"
<BEGINHMM>
<NUMSTATES> 6
<STATE> 2
<MEAN> 39
 2.005440e+00 5.225425e+00 -2.981338e-01 1.027224e+01 4.401739e+00 -4.160986e+00 -3.256065e+00 3.304845e+00 1.117264e+00 -7.013915e+00 -1.045964e+00 5.363208e-01 5.712536e+01 2.274927e-01 1.413345e-01 4.118740e-02 1.387186e-01 7.440484e-02 -3.015573e-01 -2.184484e-01 4.421462e-02 8.060567e-03 -6.476966e-02 -1.090316e-01 -4.391062e-02 1.964608e-01 -5.294438e-02 -2.973324e-02 -9.157465e-03 -9.035668e-02 -4.278887e-02 4.248835e-02 2.579954e-02 3.278656e-02 4.235762e-02 -1.035732e-02 4.476974e-03 3.310800e-02 -3.218378e-02
<VARIANCE> 39
 4.397799e+01 5.057096e+01 5.439588e+01 8.153474e+01 7.189209e+01 5.633474e+01 6.900700e+01 1.112136e+02 7.260548e+01 4.839639e+01 5.128047e+01 6.169643e+01 1.074691e+02 2.114605e+00 3.198843e+00 3.746444e+00 3.903087e+00 5.276658e+00 4.496818e+00 5.499651e+00 3.823032e+00 4.022576e+00 3.848543e+00 3.823425e+00 4.046923e+00 2.373213e+00 3.104078e-01 5.089439e-01 5.947376e-01 5.053102e-01 7.820215e-01 8.116688e-01 8.994580e-01 6.074428e-01 7.795968e-01 6.727953e-01 6.849643e-01 6.122268e-01 3.249943e-01
<GCONST> 1.363398e+02
<STATE> 3
<MEAN> 39
 3.441521e-01 -7.272751e+00 7.946321e+00 -1.088388e+01 5.704958e+00 -2.153367e+01 1.857745e+01 -1.539446e+01 -4.065338e+00 -1.118123e+01 -7.011303e+00 -3.746793e+00 7.776173e+01 1.590736e-02 -2.031268e-01 -1.267685e-01 -1.753433e-01 -1.483914e-01 1.986061e-01 1.350670e-01 6.095595e-02 1.020066e-01 -2.346527e-02 1.567634e-01 2.188681e-01 1.078997e-02 -2.216598e-02 5.749892e-03 -2.747661e-03 9.731319e-03 1.807803e-02 1.906539e-02 -8.830728e-03 -8.655737e-03 2.446733e-02 2.512949e-02 3.070685e-02 5.101606e-03 -2.093956e-02
<VARIANCE> 39
 2.588880e+01 5.717118e+01 6.160615e+01 8.456703e+01 9.981311e+01 1.736471e+02 1.076706e+02 6.691656e+01 4.965740e+01 3.559345e+01 5.490047e+01 5.653148e+01 4.553417e+01 8.151475e-01 2.885360e+00 2.067053e+00 2.710936e+00 4.250611e+00 4.224967e+00 3.075987e+00 4.197161e+00 2.851664e+00 2.706231e+00 3.373296e+00 3.053098e+00 2.256644e+00 1.359816e-01 3.989172e-01 2.877264e-01 3.719322e-01 6.465672e-01 6.430444e-01 4.327252e-01 7.079905e-01 5.769733e-01 5.107326e-01 5.939412e-01 5.303910e-01 2.905703e-01
<GCONST> 1.279060e+02
<STATE> 4
<MEAN> 39
 -2.115510e+00 7.698146e+00 1.819708e+00 1.043457e+01 7.297867e+00 -5.447627e+00 -8.863791e+00 -2.451708e+00 -1.764413e+00 -4.053844e+00 -1.719477e+00 -3.672992e+00 6.836973e+01 2.825463e-01 5.106165e-02 -4.780566e-01 -7.698654e-01 -5.386049e-01 -2.175304e-02 3.958569e-01 3.768519e-01 2.883512e-01 -1.871658e-02 -7.239024e-02 1.719566e-01 1.721944e-01 1.838112e-02 -1.018022e-01 -6.735464e-02 -1.249247e-01 -1.505209e-01 -2.968191e-03 1.059981e-01 2.951052e-02 -2.205322e-02 -2.830575e-02 1.125928e-01 1.619570e-01 6.749467e-02
<VARIANCE> 39
 1.409550e+01 5.913169e+01 4.312686e+01 7.026669e+01 7.623557e+01 3.408217e+01 3.604815e+01 3.689688e+01 3.041333e+01 2.500301e+01 2.759020e+01 2.620883e+01 2.312156e+01 4.854697e-01 1.279918e+00 1.582107e+00 2.632271e+00 2.825103e+00 2.390083e+00 2.265066e+00 1.595869e+00 1.286929e+00 1.322218e+00 2.180436e+00 2.521119e+00 6.383369e-01 7.345736e-02 1.372444e-01 2.054756e-01 2.980829e-01 3.231106e-01 3.846035e-01 3.530409e-01 2.461835e-01 2.174447e-01 2.457437e-01 2.961641e-01 2.929569e-01 6.436066e-02
<GCONST> 1.037305e+02
<STATE> 5
<MEAN> 39
 -7.154043e-01 3.355621e+00 -5.973496e+00 -3.291394e+00 -3.850484e+00 -4.579725e+00 8.463480e-01 2.893293e+00 2.400863e-01 -7.393919e+00 2.931506e-01 4.144061e+00 7.026926e+01 -3.859037e-01 -9.792022e-02 4.257324e-02 3.194031e-04 -2.486633e-03 2.668727e-01 1.001463e-01 -1.513806e-01 -7.407356e-02 4.354369e-02 2.348031e-02 1.160880e-01 -2.841031e-01 -5.042314e-02 8.284524e-02 7.116699e-02 1.160494e-01 1.197538e-01 1.164497e-02 -8.797593e-02 -6.579413e-02 1.426408e-02 5.076494e-02 -8.954126e-02 -1.563757e-01 -7.764333e-02
<VARIANCE> 39
 3.805188e+01 5.704743e+01 5.822157e+01 4.647416e+01 4.958541e+01 4.385666e+01 3.417519e+01 6.271906e+01 3.822805e+01 3.718322e+01 3.552870e+01 3.982748e+01 6.837663e+01 6.471102e-01 1.177597e+00 9.274832e-01 1.262184e+00 1.475427e+00 1.282002e+00 1.476025e+00 1.245081e+00 1.724343e+00 1.792727e+00 1.436881e+00 1.911594e+00 1.085828e+00 9.284537e-02 1.486893e-01 1.668129e-01 2.428092e-01 2.743347e-01 2.517624e-01 2.748965e-01 2.814718e-01 2.782024e-01 3.109926e-01 2.733399e-01 3.101366e-01 1.099145e-01
<GCONST> 1.048663e+02
<TRANSP> 6
 0.000000e+00 8.000289e-01 1.999711e-01 0.000000e+00 0.000000e+00 0.000000e+00
 0.000000e+00 9.237906e-01 9.240002e-03 6.696939e-02 0.000000e+00 0.000000e+00
 0.000000e+00 0.000000e+00 9.621794e-01 0.000000e+00 3.782059e-02 0.000000e+00
 0.000000e+00 0.000000e+00 0.000000e+00 9.255639e-01 5.641271e-02 1.802336e-02
 0.000000e+00 0.000000e+00 0.000000e+00 0.000000e+00 9.261975e-01 7.380253e-02
 0.000000e+00 0.000000e+00 0.000000e+00 0.000000e+00 0.000000e+00 0.000000e+00
<ENDHMM>
