~o
<STREAMINFO> 1 39
<VECSIZE> 39<NULLD><MFCC_D_A_0><DIAGC>
~h "puluh"
<BEGINHMM>
<NUMSTATES> 6
<STATE> 2
<MEAN> 39
 -3.869903e+00 2.999913e+00 -4.239700e+00 2.247084e+00 -3.717930e+00 -5.216311e+00 -4.988151e+00 3.578251e+00 3.424069e+00 -2.384805e+00 -2.814589e+00 4.432101e-01 5.423830e+01 5.695187e-01 -3.340217e-01 5.572632e-01 5.970101e-01 5.726444e-01 5.904915e-01 -3.131795e-01 -9.560415e-02 1.427587e-01 -7.616106e-02 4.178293e-01 -1.378714e-01 6.335776e-01 3.037003e-01 2.597922e-01 1.475604e-01 1.029978e-01 -1.193696e-01 -3.849790e-01 -2.166081e-01 3.366041e-01 2.902110e-01 -2.292650e-01 -3.350818e-01 -3.695195e-02 1.359133e-01
<VARIANCE> 39
 2.905264e+01 8.439642e+01 3.223028e+01 5.050891e+01 2.426090e+01 4.128407e+01 2.626579e+01 1.742404e+01 1.418431e+01 2.647972e+01 1.622073e+01 1.352047e+01 1.369746e+02 4.486368e+00 1.219592e+01 4.392390e+00 4.688017e+00 3.110601e+00 5.233466e+00 2.800929e+00 4.801894e+00 2.841300e+00 4.534638e+00 2.813267e+00 2.670395e+00 5.239741e+00 4.696197e-01 2.650758e+00 7.576331e-01 8.158796e-01 4.363340e-01 1.074875e+00 6.945907e-01 7.875420e-01 5.240938e-01 7.793950e-01 5.703534e-01 6.055326e-01 7.598649e-01
<GCONST> 1.309404e+02
<STATE> 3
<MEAN> 39
 8.007648e+00 4.387809e+00 -4.647533e-01 5.819355e+00 -3.870358e+00 -1.203784e-01 -5.957597e+00 5.767077e+00 9.314703e+00 -1.131414e+01 -9.105966e+00 1.080863e+00 5.493694e+01 -5.280407e-02 2.129765e-01 -2.946430e-01 -7.199316e-02 2.822440e-01 -1.623849e-01 2.559299e-01 5.514544e-01 -1.307875e-01 -1.340844e-02 2.573364e-01 -2.356749e-03 -1.748968e-01 -1.073744e-01 -4.328147e-02 -1.092681e-01 -4.202283e-02 -1.154462e-02 -3.032810e-02 1.755443e-01 9.574399e-03 -1.348769e-01 2.005162e-01 1.517842e-01 -4.211858e-02 -7.877115e-02
<VARIANCE> 39
 1.251490e+01 1.925468e+01 7.810624e+01 2.104852e+01 8.227934e+01 4.448222e+01 3.448104e+01 4.953434e+01 6.104706e+01 3.814702e+01 4.196437e+01 4.653051e+01 1.745366e+01 1.051532e+00 2.951046e+00 1.024125e+01 2.534864e+00 1.228881e+01 6.038451e+00 4.409425e+00 5.402093e+00 9.484912e+00 4.133081e+00 5.837140e+00 5.095276e+00 1.032743e+00 1.988548e-01 5.846363e-01 1.727947e+00 6.136987e-01 2.330395e+00 1.286493e+00 6.814296e-01 1.033669e+00 1.962492e+00 8.209389e-01 1.146578e+00 8.949143e-01 2.097017e-01
<GCONST> 1.349593e+02
<STATE> 4
<MEAN> 39
 -5.754125e-01 5.024573e+00 -3.082520e+00 5.268426e+00 2.366815e+00 -7.059099e+00 -8.173120e+00 5.915095e+00 4.572102e+00 -3.215166e+00 -6.914160e+00 -4.039884e+00 6.799837e+01 -2.739396e-01 -5.089992e-02 -8.300821e-02 -1.501252e-01 1.691497e-02 2.999569e-01 1.557524e-01 -1.570535e-01 -6.652829e-02 5.136864e-02 -1.774874e-02 2.498580e-02 -2.078005e-01 -4.112808e-02 -2.298487e-02 -2.439582e-02 -1.786862e-02 -8.702099e-03 5.575251e-02 5.596486e-02 -3.478346e-02 -4.267547e-03 2.365455e-02 2.470461e-02 3.005693e-02 -2.695814e-02
<VARIANCE> 39
 2.409143e+01 3.014848e+01 4.714142e+01 1.796593e+01 5.681354e+01 2.909897e+01 7.612495e+01 2.348859e+01 2.142759e+01 2.698571e+01 2.454622e+01 2.244894e+01 3.504007e+01 3.490235e-01 6.474172e-01 2.037445e+00 1.079527e+00 2.256324e+00 2.407876e+00 1.678478e+00 1.903916e+00 1.506774e+00 1.136095e+00 1.437035e+00 1.113019e+00 3.652909e-01 3.535229e-02 1.229846e-01 2.937111e-01 1.766707e-01 2.613645e-01 4.280200e-01 3.071069e-01 3.595745e-01 2.659652e-01 2.099110e-01 2.212818e-01 1.776945e-01 3.454518e-02
<GCONST> 9.601228e+01
<STATE> 5
<MEAN> 39
 -3.124968e+00 8.359604e+00 -5.391908e+00 -1.758706e+00 -4.771861e+00 -7.655137e-01 3.718638e+00 9.351480e+00 3.794638e+00 -2.197527e+00 -3.671142e-01 1.847924e-01 4.717017e+01 -5.124551e-01 -1.894724e-01 -4.257303e-02 -2.705440e-01 -1.436219e-01 -1.511697e-01 -6.974472e-02 -4.903329e-01 -3.058190e-01 1.799372e-01 7.292531e-02 -1.405994e-01 -2.429713e-01 2.293900e-02 -7.236344e-02 1.217064e-01 3.569846e-02 -7.931904e-03 -1.596176e-02 -1.731961e-01 -1.209535e-01 -2.800225e-02 -1.953281e-01 -6.066221e-02 7.348547e-02 8.081034e-02
<VARIANCE> 39
 4.040497e+01 5.660050e+01 4.874613e+01 4.717874e+01 5.861839e+01 5.328985e+01 5.296419e+01 4.033496e+01 3.674841e+01 6.169093e+01 2.621591e+01 3.024566e+01 6.898158e+01 1.949299e+00 5.949005e+00 5.077549e+00 5.765316e+00 4.238398e+00 4.632667e+00 6.889846e+00 3.733045e+00 4.010420e+00 7.628411e+00 3.427928e+00 4.300070e+00 2.331148e+00 2.425088e-01 1.149307e+00 9.177389e-01 1.065669e+00 6.233860e-01 9.483563e-01 1.322395e+00 8.104001e-01 8.933412e-01 1.301871e+00 7.664323e-01 9.526602e-01 3.293641e-01
<GCONST> 1.374816e+02
<TRANSP> 6
 0.000000e+00 6.250121e-01 3.749879e-01 0.000000e+00 0.000000e+00 0.000000e+00
 0.000000e+00 8.632023e-01 1.367977e-01 0.000000e+00 0.000000e+00 0.000000e+00
 0.000000e+00 0.000000e+00 9.022767e-01 5.496943e-02 4.275386e-02 0.000000e+00
 0.000000e+00 0.000000e+00 0.000000e+00 9.632885e-01 3.671154e-02 0.000000e+00
 0.000000e+00 0.000000e+00 0.000000e+00 0.000000e+00 8.974483e-01 1.025517e-01
 0.000000e+00 0.000000e+00 0.000000e+00 0.000000e+00 0.000000e+00 0.000000e+00
<ENDHMM>
