~o
<STREAMINFO> 1 39
<VECSIZE> 39<NULLD><MFCC_D_A_0><DIAGC>
~h "satu"
<BEGINHMM>
<NUMSTATES> 6
<STATE> 2
<MEAN> 39
 -1.796906e+01 -8.942580e+00 8.015035e+00 -7.496296e+00 5.466098e-01 4.057550e+00 1.788325e+00 -4.915292e+00 2.346550e+00 4.659739e+00 1.636016e+00 2.325099e+00 7.318571e+01 1.553426e+00 1.128415e-03 -1.435546e+00 -3.412177e-01 -5.938445e-02 -7.891212e-01 -4.815426e-01 5.582783e-01 3.391267e-01 -2.375865e-01 6.815440e-03 6.651788e-01 7.193736e-01 2.725652e-01 2.186113e-02 -3.082740e-01 1.496252e-01 1.561726e-02 -3.455229e-02 -3.410271e-02 1.996893e-01 -1.182389e-06 -5.066867e-02 -4.521670e-02 5.759478e-02 -4.189637e-02
<VARIANCE> 39
 1.146486e+02 4.818445e+01 7.998903e+01 3.103854e+01 2.741250e+01 3.518384e+01 7.967546e+01 2.796130e+01 4.660377e+01 1.809507e+01 2.262631e+01 2.359856e+01 2.453633e+01 8.422470e+00 4.410720e+00 4.972684e+00 2.251574e+00 1.347018e+00 2.092353e+00 1.704308e+00 2.887801e+00 1.901190e+00 1.865625e+00 2.019816e+00 9.873241e-01 1.232439e+00 1.080196e+00 7.250247e-01 5.121891e-01 4.800742e-01 2.426364e-01 4.770529e-01 3.252051e-01 3.064646e-01 3.672450e-01 3.214811e-01 3.715425e-01 1.499097e-01 1.736685e-01
<GCONST> 1.168505e+02
<STATE> 3
<MEAN> 39
 -3.092713e+00 -2.989526e+00 -1.065035e+01 -5.085972e+00 -2.827425e+00 -6.827435e-01 -1.201421e+00 2.608115e+00 3.344343e+00 3.769372e-02 7.435976e-01 9.333123e+00 6.872740e+01 -5.580207e-01 2.577840e-01 -3.603070e-02 2.482637e-01 -1.490933e-01 1.531560e-01 1.467064e-01 -3.485368e-02 -2.049678e-01 -1.710400e-01 2.051983e-02 -2.429211e-01 -7.478799e-01 -5.224570e-02 3.382081e-02 1.703590e-01 7.191380e-02 7.383297e-02 5.814659e-03 -5.128163e-02 -5.564443e-02 -4.954312e-02 2.554612e-03 2.081052e-02 -8.194099e-02 1.139435e-02
<VARIANCE> 39
 3.323891e+01 3.455653e+01 5.935777e+01 4.260093e+01 1.817485e+01 2.871074e+01 3.591150e+01 3.809806e+01 3.130886e+01 1.968721e+01 2.172922e+01 2.356463e+01 8.220298e+01 6.177953e-01 1.072226e+00 1.369290e+00 8.931693e-01 1.083487e+00 9.624299e-01 1.390976e+00 1.424574e+00 1.231678e+00 1.325536e+00 9.221386e-01 1.334924e+00 8.440441e-01 8.929801e-02 2.096573e-01 2.703718e-01 2.509090e-01 2.186777e-01 2.566538e-01 3.221608e-01 3.124994e-01 3.276013e-01 2.398640e-01 2.022750e-01 1.794554e-01 1.320767e-01
<GCONST> 9.842397e+01
<STATE> 4
<MEAN> 39
 -2.273100e+00 -2.513642e-01 3.645743e+00 -1.677128e+00 -7.949157e+00 1.701930e+00 -6.333004e+00 2.078428e+00 3.721750e+00 -9.665340e+00 -2.197999e+00 5.040455e+00 5.303470e+01 3.000270e-01 3.861973e-01 2.173018e-01 2.477967e-01 2.113215e-02 -3.116638e-01 -1.296891e-01 2.814976e-01 1.570534e-01 -2.085041e-01 -1.919668e-01 -1.715438e-01 1.184905e-01 7.042874e-03 3.915607e-02 -1.708518e-03 -5.047814e-02 -4.329928e-02 -1.856389e-02 5.797583e-03 3.354884e-02 2.144630e-02 3.112179e-02 -1.892754e-04 -3.921807e-03 -1.530266e-02
<VARIANCE> 39
 5.443363e+01 1.260954e+02 6.982433e+01 5.515208e+01 7.079071e+01 6.696996e+01 7.987987e+01 5.465095e+01 1.144878e+02 8.185622e+01 3.211013e+01 4.606984e+01 1.078174e+02 4.207509e+00 8.356819e+00 6.053996e+00 4.711348e+00 6.319095e+00 6.669023e+00 6.422076e+00 5.333364e+00 8.576584e+00 7.286224e+00 3.592852e+00 4.462989e+00 6.061513e+00 5.368083e-01 1.498711e+00 9.559525e-01 8.036386e-01 1.168467e+00 1.203285e+00 1.109446e+00 1.133081e+00 1.460997e+00 1.304236e+00 7.539886e-01 8.345473e-01 8.117654e-01
<GCONST> 1.496965e+02
<STATE> 5
<MEAN> 39
 -3.131204e+00 7.594010e+00 3.151987e+00 4.562958e+00 -6.127211e+00 -9.118761e+00 -5.231572e+00 7.327696e+00 3.909423e+00 -4.491330e+00 -7.195037e-01 -4.462470e-01 6.626148e+01 -5.121405e-01 1.412572e-01 -1.585624e-01 -1.457062e-01 -1.746588e-02 2.287234e-01 4.264072e-01 -1.972524e-01 -7.316413e-02 4.746805e-01 -8.515365e-02 -1.457596e-01 -5.382740e-01 -2.781633e-02 -9.279507e-02 -9.174989e-02 -2.472051e-02 6.547256e-02 3.065388e-02 4.136323e-02 -8.446756e-02 -1.101431e-01 -7.466569e-03 1.550169e-02 3.309792e-02 1.864972e-02
<VARIANCE> 39
 2.096122e+01 3.631752e+01 5.517550e+01 2.095351e+01 3.110961e+01 5.664415e+01 5.263734e+01 3.014326e+01 2.865280e+01 6.078463e+01 1.316828e+01 1.738176e+01 7.339486e+01 4.383191e-01 7.613991e-01 9.147119e-01 9.437181e-01 1.282080e+00 1.459983e+00 1.655523e+00 1.544686e+00 1.482363e+00 1.286958e+00 1.034164e+00 7.754514e-01 5.276478e-01 8.279278e-02 9.386562e-02 1.047932e-01 1.584467e-01 1.867356e-01 2.398800e-01 3.708353e-01 2.351162e-01 2.305892e-01 2.180683e-01 2.101017e-01 1.629966e-01 8.040667e-02
<GCONST> 9.412192e+01
<TRANSP> 6
 0.000000e+00 5.625178e-01 4.374823e-01 0.000000e+00 0.000000e+00 0.000000e+00
 0.000000e+00 9.197051e-01 8.029491e-02 0.000000e+00 0.000000e+00 0.000000e+00
 0.000000e+00 0.000000e+00 9.109672e-01 8.903275e-02 0.000000e+00 0.000000e+00
 0.000000e+00 0.000000e+00 0.000000e+00 9.611758e-01 2.426497e-02 1.455922e-02
 0.000000e+00 0.000000e+00 0.000000e+00 0.000000e+00 9.435309e-01 5.646915e-02
 0.000000e+00 0.000000e+00 0.000000e+00 0.000000e+00 0.000000e+00 0.000000e+00
<ENDHMM>
