~o
<STREAMINFO> 1 39
<VECSIZE> 39<NULLD><PLP_D_A_0><DIAGC>
~h "sembilan"
<BEGINHMM>
<NUMSTATES> 8
<STATE> 2
<MEAN> 39
 -1.862651e+00 -1.728123e+00 3.382776e-01 -8.291625e-01 -6.522819e-01 -4.872141e-01 -1.560610e-01 -8.211192e-01 -5.993166e-01 -2.396274e-02 4.181345e-01 2.449261e-01 5.186049e+00 1.960505e-01 1.587043e-01 -4.020587e-02 1.218183e-01 9.691326e-02 -1.083968e-01 -6.151653e-02 4.172790e-03 -5.448489e-02 -5.620073e-02 -7.012390e-02 -3.577773e-02 1.144073e-02 1.014944e-01 1.195563e-01 -5.200335e-02 6.808548e-02 5.120634e-02 -2.046129e-02 -4.368619e-02 1.598549e-02 3.172167e-03 -3.883964e-02 -5.433455e-02 -3.372445e-02 -3.823396e-02
<VARIANCE> 39
 7.004836e-01 5.510082e-01 5.771062e-01 7.560846e-01 6.376162e-01 5.231504e-01 4.843135e-01 4.828922e-01 3.667913e-01 2.397148e-01 1.458384e-01 9.358267e-02 1.149129e+00 1.373898e-01 2.017330e-01 7.176749e-02 7.547386e-02 6.954194e-02 4.573237e-02 3.857540e-02 3.707292e-02 4.150836e-02 2.857868e-02 3.339034e-02 1.776784e-02 3.773787e-02 1.473082e-02 2.127698e-02 1.247797e-02 1.055257e-02 8.821553e-03 8.358861e-03 5.742189e-03 7.620375e-03 7.933867e-03 3.892479e-03 4.340107e-03 3.239439e-03 5.214194e-03
<GCONST> -4.115902e+01
<STATE> 3
<MEAN> 39
 -3.624449e-01 5.384178e-02 -1.008888e-01 4.043304e-02 8.160225e-02 -1.107287e+00 -8.919380e-01 -8.454748e-01 -5.369268e-01 -5.458015e-01 -4.665752e-01 -3.598360e-01 5.027891e+00 1.130005e-01 3.672246e-02 -4.398366e-02 1.349457e-01 7.935341e-02 -8.236769e-02 -1.026329e-01 -2.960635e-02 -1.661341e-02 -2.329108e-02 -8.501120e-03 -3.221793e-02 2.631747e-02 -7.019243e-02 -1.339700e-01 1.456006e-02 -3.331759e-02 -4.558453e-02 1.161577e-02 2.143247e-02 -1.782521e-02 -7.542856e-03 2.340920e-02 7.973225e-02 5.702572e-02 4.029120e-02
<VARIANCE> 39
 1.704745e-01 3.238046e-01 3.381476e-01 5.933449e-01 4.009751e-01 7.090014e-01 3.387372e-01 3.734095e-01 2.668281e-01 1.425942e-01 1.884142e-01 1.226579e-01 7.760121e-01 3.694651e-02 1.016884e-01 2.420558e-02 3.092903e-02 2.248645e-02 2.570248e-02 2.259053e-02 2.369420e-02 2.432808e-02 2.484756e-02 5.805318e-02 3.197926e-02 1.178057e-02 5.077075e-03 8.305395e-03 4.089835e-03 5.222345e-03 4.615974e-03 5.322363e-03 4.573179e-03 4.009498e-03 5.128519e-03 4.984273e-03 5.510808e-03 3.995615e-03 1.827318e-03
<GCONST> -5.930431e+01
<STATE> 4
<MEAN> 39
 -1.708121e-01 -9.874179e-01 -3.337862e-01 1.506058e-02 -2.571690e-01 -1.404255e+00 -8.369580e-01 -1.149583e+00 -8.701946e-01 -5.527954e-01 3.069966e-01 3.068955e-01 5.575907e+00 5.335112e-02 -1.252428e-01 -1.019643e-01 -1.657497e-01 -1.812978e-01 4.613391e-02 1.205877e-01 3.100516e-02 5.573679e-02 4.843376e-02 1.043034e-01 1.431979e-01 9.259975e-02 -2.885187e-03 3.007059e-02 1.551639e-03 -3.608738e-02 -9.289620e-03 2.695700e-02 2.422543e-02 2.831089e-02 4.526734e-02 1.455285e-02 -2.833886e-02 -1.708159e-02 -1.300901e-02
<VARIANCE> 39
 1.492964e-01 5.040473e-01 5.560754e-01 9.225718e-01 5.418288e-01 1.011303e+00 7.498526e-01 3.708723e-01 2.766211e-01 3.560946e-01 4.518081e-01 2.306018e-01 8.085926e-01 6.579540e-03 3.551527e-02 3.905977e-02 2.936953e-02 2.342642e-02 4.821000e-02 4.015365e-02 3.170125e-02 4.682618e-02 2.911249e-02 2.931761e-02 1.817268e-02 1.055038e-02 1.986410e-03 6.471530e-03 7.461889e-03 7.088486e-03 5.978237e-03 8.683019e-03 7.970749e-03 4.859402e-03 7.316442e-03 4.983902e-03 6.037956e-03 3.792709e-03 2.223189e-03
<GCONST> -5.366782e+01
<STATE> 5
<MEAN> 39
 8.645024e-03 -1.286367e+00 -8.645825e-01 -1.084227e+00 -8.799996e-01 -1.050244e+00 2.410011e-03 -6.575257e-01 -6.427103e-02 -1.882805e-01 4.442888e-01 6.578892e-01 5.989537e+00 -2.592081e-02 1.045550e-01 4.738568e-02 4.320176e-02 9.730828e-02 3.479231e-02 -2.983857e-02 2.913436e-02 3.089870e-02 -4.674350e-02 -1.137493e-01 -6.741808e-02 -7.694614e-02 -1.404092e-02 8.122233e-02 2.979179e-02 7.501961e-02 7.583562e-02 -3.165350e-02 -4.900184e-02 -1.354809e-02 -5.764824e-02 -4.504102e-02 -5.924792e-02 -5.203438e-02 -5.768751e-02
<VARIANCE> 39
 5.480908e-02 5.580642e-01 4.955128e-01 7.681557e-01 4.481450e-01 9.354807e-01 8.404546e-01 6.419463e-01 2.545324e-01 2.918404e-01 2.640011e-01 1.693855e-01 8.048348e-01 3.119220e-03 3.745959e-02 1.913860e-02 3.603629e-02 3.439717e-02 2.657112e-02 2.725221e-02 2.339095e-02 3.773325e-02 1.933970e-02 3.094251e-02 2.147177e-02 1.639226e-02 5.177559e-04 3.569066e-03 4.458191e-03 4.462100e-03 5.399120e-03 5.755692e-03 3.603714e-03 4.480573e-03 4.825252e-03 3.468469e-03 4.081811e-03 4.497191e-03 1.280634e-03
<GCONST> -6.353008e+01
<STATE> 6
<MEAN> 39
 -2.454872e-01 -2.063574e-02 -3.345681e-01 -1.177255e-01 8.317323e-02 -1.147231e+00 -6.372023e-01 -6.156555e-01 -3.201165e-01 -7.573465e-01 -6.043117e-01 -1.138043e-01 4.978886e+00 -7.267082e-02 1.320626e-01 3.679958e-02 7.160430e-02 1.090701e-01 -1.400633e-02 -1.597772e-02 2.591142e-02 -5.742763e-02 -7.422368e-02 -8.411355e-02 -8.933553e-02 -1.344328e-01 6.710767e-04 -9.558573e-02 -4.427867e-02 -6.874696e-02 -7.613263e-02 2.637800e-02 4.386214e-02 -1.684589e-02 9.787892e-06 3.311756e-02 9.296573e-02 6.816739e-02 4.589329e-02
<VARIANCE> 39
 8.030645e-02 3.364523e-01 3.339085e-01 6.907597e-01 3.172484e-01 7.030023e-01 5.143719e-01 5.263382e-01 2.307204e-01 2.167134e-01 3.072332e-01 2.282881e-01 8.605092e-01 8.844854e-03 3.803904e-02 2.804931e-02 3.610299e-02 4.058246e-02 3.674474e-02 2.365604e-02 2.508963e-02 1.646978e-02 2.289301e-02 4.624225e-02 3.545788e-02 1.463582e-02 1.529694e-03 4.242707e-03 3.804380e-03 3.994062e-03 5.538276e-03 6.712563e-03 3.948737e-03 5.235877e-03 4.615789e-03 4.491454e-03 4.923354e-03 5.734811e-03 2.100303e-03
<GCONST> -6.081245e+01
<STATE> 7
<MEAN> 39
 -4.568054e-01 -7.767070e-01 -6.440343e-01 -8.572612e-01 -4.473041e-01 -1.096794e+00 -1.314568e-01 -7.644655e-01 -4.290962e-01 -6.121330e-01 -2.091532e-02 3.603157e-01 5.244770e+00 -2.781626e-02 -1.412623e-01 -4.365909e-02 -9.639113e-02 -1.231609e-01 4.722155e-02 4.250278e-02 -2.224953e-02 4.861749e-02 7.702233e-02 9.583666e-02 5.919502e-02 6.144690e-02 8.462074e-03 1.393028e-02 1.318451e-02 4.586263e-03 5.194427e-03 -9.972814e-03 -1.506591e-02 5.755290e-03 1.159528e-02 4.782727e-03 -1.749729e-02 -1.785436e-02 8.989216e-03
<VARIANCE> 39
 5.878540e-01 6.642741e-01 4.572755e-01 8.746255e-01 6.914519e-01 6.083291e-01 7.815212e-01 4.146573e-01 4.678805e-01 3.668267e-01 2.241842e-01 2.435436e-01 1.376890e+00 2.931588e-02 3.841662e-02 4.295279e-02 3.148252e-02 4.895462e-02 3.734256e-02 2.468836e-02 2.921690e-02 3.871454e-02 3.010883e-02 2.983062e-02 2.938342e-02 2.609825e-02 5.038616e-03 6.577583e-03 7.215649e-03 5.900930e-03 9.501142e-03 6.511328e-03 4.388209e-03 5.546403e-03 6.633197e-03 6.100392e-03 5.037711e-03 4.363351e-03 4.159364e-03
<GCONST> -4.791203e+01
<TRANSP> 8
 0.000000e+00 6.502222e-01 3.497778e-01 0.000000e+00 0.000000e+00 0.000000e+00 0.000000e+00 0.000000e+00
 0.000000e+00 7.711446e-01 2.288554e-01 0.000000e+00 0.000000e+00 0.000000e+00 0.000000e+00 0.000000e+00
 0.000000e+00 0.000000e+00 7.939740e-01 2.033029e-01 2.723085e-03 0.000000e+00 0.000000e+00 0.000000e+00
 0.000000e+00 0.000000e+00 0.000000e+00 8.299893e-01 1.700107e-01 0.000000e+00 0.000000e+00 0.000000e+00
 0.000000e+00 0.000000e+00 0.000000e+00 0.000000e+00 7.945355e-01 2.054645e-01 0.000000e+00 0.000000e+00
 0.000000e+00 0.000000e+00 0.000000e+00 0.000000e+00 0.000000e+00 7.648171e-01 2.351829e-01 0.000000e+00
 0.000000e+00 0.000000e+00 0.000000e+00 0.000000e+00 0.000000e+00 0.000000e+00 7.992688e-01 2.007312e-01
 0.000000e+00 0.000000e+00 0.000000e+00 0.000000e+00 0.000000e+00 0.000000e+00 0.000000e+00 0.000000e+00
<ENDHMM>
