~o
<STREAMINFO> 1 39
<VECSIZE> 39<NULLD><PLP_D_A_0><DIAGC>
~h "sepuluh"
<BEGINHMM>
<NUMSTATES> 8
<STATE> 2
<MEAN> 39
 -1.954550e+00 -1.967600e+00 4.589983e-01 -1.193359e+00 -5.659472e-01 -6.627767e-01 2.142731e-02 -7.003071e-01 -4.915474e-01 -1.414684e-01 3.925869e-01 3.419793e-01 5.407641e+00 1.123851e-01 3.359212e-02 -7.928544e-02 2.929537e-02 4.520975e-02 -9.196409e-02 -6.423211e-02 5.265211e-02 -1.143613e-02 -5.520387e-02 -2.823617e-02 3.130645e-02 -2.875158e-02 7.147469e-02 1.231342e-01 -8.530109e-02 6.716944e-02 2.952472e-02 -5.201434e-03 -3.320341e-02 1.526510e-02 2.095161e-02 -2.863109e-02 -4.093023e-02 -2.243729e-02 -9.110888e-02
<VARIANCE> 39
 5.482858e-01 4.765791e-01 4.219975e-01 7.353526e-01 6.259665e-01 6.858188e-01 6.205410e-01 3.746581e-01 3.650999e-01 2.750214e-01 1.287304e-01 1.542823e-01 1.022765e+00 1.087403e-01 1.195763e-01 8.582730e-02 5.581317e-02 4.254951e-02 3.782088e-02 3.052195e-02 2.772311e-02 3.247190e-02 1.972123e-02 2.341791e-02 1.265340e-02 7.243079e-02 1.613808e-02 1.372173e-02 1.195252e-02 9.098900e-03 9.128625e-03 1.111243e-02 6.437700e-03 5.445789e-03 8.128107e-03 3.788653e-03 3.760048e-03 2.498740e-03 6.997736e-03
<GCONST> -4.454964e+01
<STATE> 3
<MEAN> 39
 -1.256501e+00 -7.193671e-01 -4.702043e-01 -6.697891e-01 -4.797404e-01 -7.929715e-01 -4.345219e-01 -4.988655e-01 -2.991407e-01 -4.794870e-01 -3.060851e-02 1.542630e-01 4.576377e+00 1.575724e-01 1.715786e-01 -3.375654e-02 1.506652e-02 -8.630385e-02 -7.929172e-02 -4.608490e-02 2.944610e-02 6.800961e-02 -4.283808e-02 -5.182070e-02 -5.033473e-02 -2.899658e-02 2.280165e-02 -2.453620e-02 6.440313e-02 -2.356810e-02 -5.711678e-02 -4.063679e-02 -2.750626e-03 -1.988662e-03 -1.943310e-03 -1.992150e-03 -2.456605e-03 -2.994190e-03 7.979142e-02
<VARIANCE> 39
 4.080123e-01 2.935508e-01 3.622581e-01 3.149391e-01 3.263737e-01 2.514872e-01 3.981929e-01 2.474950e-01 1.604278e-01 1.555052e-01 1.067769e-01 9.475874e-02 7.814281e-01 6.039238e-02 5.523764e-02 4.763861e-02 2.992357e-02 4.511077e-02 6.066407e-02 2.339278e-02 1.956254e-02 3.121844e-02 1.692775e-02 1.833609e-02 1.263687e-02 7.237533e-02 1.253478e-02 8.581446e-03 6.663457e-03 5.717832e-03 6.533985e-03 1.106381e-02 5.229625e-03 4.195534e-03 5.692819e-03 3.437093e-03 4.453011e-03 2.582191e-03 9.457157e-03
<GCONST> -5.680284e+01
<STATE> 4
<MEAN> 39
 -5.675776e-02 -1.073941e-01 2.615261e-01 -8.673159e-01 -1.599217e+00 -1.929927e+00 -5.503070e-01 -3.215794e-01 -2.046091e-03 -8.871832e-01 -4.996495e-01 -2.371093e-02 5.292850e+00 1.850859e-01 5.133537e-02 -2.721253e-02 6.365285e-04 -5.101833e-02 -1.119255e-01 -4.228904e-02 2.037708e-02 -3.338847e-02 -8.894946e-02 -1.643861e-01 -4.022399e-02 1.242354e-01 -7.252757e-02 -5.266258e-02 -1.096099e-01 8.084533e-03 1.515156e-01 1.122943e-01 1.922621e-02 -4.050624e-02 -5.080434e-02 1.620190e-02 1.838677e-02 -1.085640e-03 -5.867311e-02
<VARIANCE> 39
 9.984060e-02 6.276138e-01 4.798586e-01 4.583348e-01 4.099856e-01 1.171592e+00 7.780747e-01 3.141710e-01 5.791939e-01 4.157390e-01 3.092857e-01 1.640808e-01 6.742126e-01 2.547278e-02 3.042167e-02 7.385410e-02 2.110145e-02 1.221079e-01 9.892691e-02 2.348860e-02 2.469746e-02 4.138256e-02 2.451856e-02 2.585274e-02 1.957337e-02 1.757579e-02 2.956179e-03 4.988941e-03 5.871713e-03 3.424573e-03 1.002167e-02 1.458820e-02 5.242832e-03 5.372175e-03 1.005662e-02 4.927417e-03 6.472541e-03 3.443554e-03 1.604023e-03
<GCONST> -5.187275e+01
<STATE> 5
<MEAN> 39
 9.168120e-02 -2.650288e-01 -6.598629e-01 -6.111673e-01 -6.687958e-01 -1.534245e+00 -7.121844e-01 -4.903017e-01 -5.632473e-01 -9.794811e-01 -6.735064e-01 -2.407950e-01 5.420732e+00 -1.089312e-03 -4.168577e-02 -3.327033e-03 -4.598622e-03 -1.378225e-02 2.539275e-02 1.638434e-02 -6.784659e-03 -2.191419e-02 -2.312179e-02 1.539815e-02 1.980489e-02 2.281098e-02 -2.231771e-02 3.007782e-03 7.135089e-02 -8.448960e-03 -9.130976e-02 -3.197363e-02 1.303673e-02 3.598677e-02 4.603865e-02 -4.384385e-04 1.655561e-02 2.487996e-02 -3.926556e-04
<VARIANCE> 39
 1.025065e-01 4.919446e-01 4.122462e-01 9.523221e-01 5.800712e-01 6.703227e-01 7.033135e-01 4.368797e-01 3.178764e-01 3.187851e-01 2.191205e-01 1.991198e-01 5.497785e-01 4.003645e-03 1.097627e-02 4.704672e-02 2.085194e-02 1.097948e-01 5.716856e-02 2.081086e-02 3.179979e-02 4.430975e-02 1.983929e-02 2.110424e-02 1.786856e-02 4.516413e-03 1.195290e-03 2.459816e-03 6.069028e-03 4.308679e-03 1.505710e-02 1.133850e-02 4.042252e-03 5.896797e-03 6.951444e-03 4.315674e-03 4.894698e-03 3.854799e-03 1.116051e-03
<GCONST> -6.075861e+01
<STATE> 6
<MEAN> 39
 -9.354643e-02 -3.853784e-01 2.480850e-01 -1.001585e+00 -1.645783e+00 -1.633304e+00 -2.541074e-01 -1.542126e-01 5.688604e-03 -1.203048e+00 -5.512691e-01 1.448951e-01 5.526871e+00 -1.032225e-01 2.773014e-02 1.927727e-02 -3.442673e-03 4.268038e-02 6.947516e-02 7.759062e-02 5.508960e-02 3.750825e-02 2.174214e-02 3.374554e-02 9.081258e-03 -8.953345e-02 -2.563938e-02 -4.231086e-03 -7.712761e-02 -2.106909e-03 9.048310e-02 4.153470e-02 1.314877e-02 -3.336882e-02 -4.145788e-02 3.281328e-02 2.889829e-03 -2.679553e-02 -4.018051e-02
<VARIANCE> 39
 9.715220e-02 5.913941e-01 4.535953e-01 1.024826e+00 4.216110e-01 1.047511e+00 9.855896e-01 4.255558e-01 5.382163e-01 3.692290e-01 2.433077e-01 2.166909e-01 8.374359e-01 8.282159e-03 2.131835e-02 5.446586e-02 1.482160e-02 8.412546e-02 5.657331e-02 2.366310e-02 3.807235e-02 4.036757e-02 3.118803e-02 1.771936e-02 2.191593e-02 1.248051e-02 1.246434e-03 4.303092e-03 6.175391e-03 4.150969e-03 9.856962e-03 8.595825e-03 4.393169e-03 5.113829e-03 7.055877e-03 6.185447e-03 4.087672e-03 4.305568e-03 1.195555e-03
<GCONST> -5.590907e+01
<STATE> 7
<MEAN> 39
 -1.018231e+00 -5.399970e-01 -6.960848e-01 -1.033031e+00 -7.852332e-01 -9.897488e-01 -1.240862e-01 -3.427852e-01 -3.130273e-01 -6.243715e-01 -2.223258e-01 5.891131e-02 4.668468e+00 -1.005863e-01 -5.401777e-02 -6.361801e-02 -2.007123e-02 4.080205e-02 4.162802e-02 6.222758e-03 -3.315809e-02 -8.736144e-03 7.546600e-02 6.934270e-02 2.186579e-02 -7.983740e-02 2.936607e-02 -5.751449e-03 1.695048e-02 3.750476e-03 -2.025454e-02 -1.817139e-02 -2.123079e-02 2.093608e-03 9.489086e-03 -1.444343e-02 -2.025008e-03 7.405969e-03 2.883976e-02
<VARIANCE> 39
 2.526546e-01 4.552283e-01 5.053905e-01 5.464625e-01 3.617327e-01 2.466729e-01 5.959897e-01 4.567898e-01 2.422871e-01 1.822159e-01 2.095499e-01 1.150375e-01 8.970663e-01 2.346451e-02 2.734261e-02 3.538581e-02 3.596617e-02 3.443869e-02 3.262870e-02 2.573276e-02 1.858440e-02 2.507988e-02 2.017586e-02 1.867737e-02 1.559218e-02 3.183369e-02 3.115300e-03 5.038766e-03 7.072367e-03 7.055083e-03 6.849750e-03 5.622366e-03 5.395370e-03 4.362477e-03 4.768288e-03 3.301941e-03 3.559815e-03 2.707280e-03 5.133288e-03
<GCONST> -5.974624e+01
<TRANSP> 8
 0.000000e+00 8.749663e-01 1.250337e-01 0.000000e+00 0.000000e+00 0.000000e+00 0.000000e+00 0.000000e+00
 0.000000e+00 7.013284e-01 2.986716e-01 0.000000e+00 0.000000e+00 0.000000e+00 0.000000e+00 0.000000e+00
 0.000000e+00 0.000000e+00 8.318607e-01 1.681393e-01 0.000000e+00 0.000000e+00 0.000000e+00 0.000000e+00
 0.000000e+00 0.000000e+00 0.000000e+00 7.219421e-01 2.780580e-01 0.000000e+00 0.000000e+00 0.000000e+00
 0.000000e+00 0.000000e+00 0.000000e+00 0.000000e+00 8.309487e-01 1.690513e-01 0.000000e+00 0.000000e+00
 0.000000e+00 0.000000e+00 0.000000e+00 0.000000e+00 0.000000e+00 7.944281e-01 2.055718e-01 0.000000e+00
 0.000000e+00 0.000000e+00 0.000000e+00 0.000000e+00 0.000000e+00 0.000000e+00 8.512303e-01 1.487697e-01
 0.000000e+00 0.000000e+00 0.000000e+00 0.000000e+00 0.000000e+00 0.000000e+00 0.000000e+00 0.000000e+00
<ENDHMM>
