~o
<STREAMINFO> 1 39
<VECSIZE> 39<NULLD><MFCC_D_A_0><DIAGC>
~h "tiga"
<BEGINHMM>
<NUMSTATES> 6
<STATE> 2
<MEAN> 39
 -2.747785e+00 -1.340183e+00 1.522331e+00 1.345216e+01 4.004818e+00 -1.682059e+00 -9.190977e+00 1.461865e+00 1.069782e+00 -5.893945e+00 4.500829e-01 -1.192355e+00 4.873943e+01 7.799947e-01 -2.305095e-01 2.933167e-01 4.731124e-01 2.239807e-01 2.718607e-01 -4.418965e-01 -7.663544e-02 1.821682e-01 -6.615758e-01 5.337639e-02 3.775728e-01 7.053053e-01 7.257262e-02 9.692286e-02 1.132045e-02 -3.817128e-02 -7.985590e-02 -3.827573e-02 2.560206e-02 -1.202386e-03 -4.141000e-02 -1.056812e-01 -5.139579e-02 1.173977e-01 1.402858e-02
<VARIANCE> 39
 3.453134e+01 8.756557e+01 5.266368e+01 8.813438e+01 7.632558e+01 5.194418e+01 6.342206e+01 6.228058e+01 4.942184e+01 6.115735e+01 2.629777e+01 3.815008e+01 5.086694e+01 3.306086e+00 1.189584e+01 6.758068e+00 7.808980e+00 8.776054e+00 6.256247e+00 9.246681e+00 7.614131e+00 6.132873e+00 7.051410e+00 3.491087e+00 3.929298e+00 5.643974e+00 5.581097e-01 2.213564e+00 1.431139e+00 1.151023e+00 1.390842e+00 1.206543e+00 1.812475e+00 1.508669e+00 1.284356e+00 1.187241e+00 7.303983e-01 7.110643e-01 9.401176e-01
<GCONST> 1.495081e+02
<STATE> 3
<MEAN> 39
 -5.809374e+00 -1.472849e+00 4.280032e+00 1.723532e+01 1.104524e+01 -3.705597e+00 -9.556888e+00 4.510173e-01 -5.327946e-01 -7.375429e-01 7.444246e-01 -2.042311e+00 6.684496e+01 5.947422e-01 -1.851257e-01 -2.046317e-01 -1.544788e-01 -4.833513e-02 -3.383908e-01 -5.108423e-01 -1.840171e-01 -4.693750e-01 -1.419973e-01 5.054660e-01 5.182419e-01 4.970864e-01 -1.673526e-02 3.477082e-02 -2.072287e-01 -2.492265e-01 -2.401749e-01 -7.048521e-03 1.970626e-01 1.008394e-01 2.070869e-02 3.835114e-02 5.777000e-02 1.255526e-01 -7.098059e-02
<VARIANCE> 39
 3.267728e+01 3.425772e+01 3.456158e+01 5.113810e+01 3.485784e+01 3.383194e+01 6.521198e+01 5.688949e+01 3.695326e+01 3.997125e+01 2.128556e+01 1.911568e+01 4.071870e+01 1.648149e+00 2.574567e+00 2.380957e+00 5.416393e+00 3.817158e+00 3.450777e+00 5.928576e+00 2.460739e+00 3.677239e+00 1.811719e+00 2.546074e+00 2.495592e+00 2.137201e+00 2.620846e-01 4.089964e-01 3.797336e-01 5.967172e-01 5.378344e-01 5.051907e-01 1.045801e+00 4.627192e-01 6.582555e-01 3.851805e-01 3.283534e-01 3.245043e-01 3.090716e-01
<GCONST> 1.217131e+02
<STATE> 4
<MEAN> 39
 2.086624e+00 -5.199241e+00 -9.218146e+00 1.016541e-01 3.591410e-01 -6.037560e+00 -9.245498e+00 1.829156e+00 -4.071608e+00 -1.533424e+00 1.110940e+01 1.042762e+01 7.198334e+01 -1.166250e-01 4.999967e-01 -4.836633e-01 -6.381862e-01 -6.471927e-01 3.715625e-01 1.127546e+00 6.194186e-01 3.848001e-01 -1.386897e-01 -3.294049e-01 3.604858e-01 -4.445277e-01 -1.752605e-01 9.097549e-02 1.539251e-01 2.054424e-01 2.356000e-01 6.956268e-02 1.319179e-02 -9.844334e-03 8.268324e-02 2.200758e-02 -2.297956e-01 -2.409074e-01 -1.450879e-01
<VARIANCE> 39
 1.969962e+01 2.106784e+01 8.312521e+01 3.103283e+01 2.603648e+01 6.954106e+01 4.556515e+01 3.633960e+01 2.545176e+01 7.772906e+01 2.654201e+01 1.009648e+01 4.814052e+01 4.643533e-01 5.297980e-01 1.132355e+00 1.596519e+00 1.462209e+00 1.434549e+00 1.452170e+00 1.825280e+00 1.324465e+00 1.381173e+00 1.527184e+00 1.500895e+00 4.399790e-01 6.365150e-02 1.097854e-01 1.281543e-01 2.022753e-01 1.703992e-01 2.940484e-01 3.171530e-01 3.939223e-01 3.278690e-01 3.108837e-01 3.166494e-01 2.809572e-01 7.086972e-02
<GCONST> 9.800748e+01
<STATE> 5
<MEAN> 39
 1.887127e+00 5.582848e+00 -1.284854e+00 4.909502e+00 -1.316979e+00 1.067451e+00 -2.045175e+00 5.571819e+00 3.282374e+00 -1.153842e+01 -3.370898e+00 7.005825e+00 5.230849e+01 -7.621179e-01 8.332241e-01 -1.885070e-01 -3.384336e-02 2.878770e-01 -3.254788e-01 7.720563e-01 2.629911e-01 3.504279e-03 8.442808e-01 -4.373672e-01 -8.336592e-01 -9.580415e-01 -2.499483e-02 -7.320019e-02 5.134714e-02 3.229340e-02 9.345914e-02 6.727073e-02 -1.613015e-01 -9.749206e-02 -5.160393e-02 8.541898e-02 1.048890e-01 -7.468788e-02 1.093498e-02
<VARIANCE> 39
 5.085499e+01 4.700091e+01 3.340966e+01 5.390444e+01 5.361696e+01 4.532109e+01 4.212441e+01 5.914441e+01 7.058306e+01 5.897569e+01 4.493983e+01 1.030583e+02 7.498762e+01 1.452841e+00 3.138232e+00 3.498374e+00 2.913747e+00 4.852966e+00 3.745906e+00 3.180382e+00 5.335904e+00 4.730517e+00 4.525836e+00 3.424522e+00 6.218333e+00 1.803015e+00 2.571231e-01 3.633150e-01 6.571850e-01 5.941916e-01 8.802778e-01 7.896303e-01 5.379180e-01 8.765025e-01 7.727345e-01 8.878857e-01 6.278388e-01 9.685150e-01 2.403455e-01
<GCONST> 1.332164e+02
<TRANSP> 6
 0.000000e+00 5.787582e-01 4.212418e-01 0.000000e+00 0.000000e+00 0.000000e+00
 0.000000e+00 9.356602e-01 6.433982e-02 0.000000e+00 0.000000e+00 0.000000e+00
 0.000000e+00 0.000000e+00 9.155046e-01 8.449548e-02 0.000000e+00 0.000000e+00
 0.000000e+00 0.000000e+00 0.000000e+00 8.759810e-01 8.280419e-02 4.121483e-02
 0.000000e+00 0.000000e+00 0.000000e+00 0.000000e+00 9.012645e-01 9.873543e-02
 0.000000e+00 0.000000e+00 0.000000e+00 0.000000e+00 0.000000e+00 0.000000e+00
<ENDHMM>
