~o
<STREAMINFO> 1 39
<VECSIZE> 39<NULLD><PLP_D_A_0><DIAGC>
~h "tujuh"
<BEGINHMM>
<NUMSTATES> 8
<STATE> 2
<MEAN> 39
 -4.157337e-01 -8.121748e-01 -9.524161e-02 -1.615876e-01 -3.431683e-01 -1.212507e+00 -7.581995e-01 -7.987974e-01 -7.433003e-01 -1.058476e+00 1.160816e-01 8.167305e-02 5.229854e+00 8.992992e-02 6.061545e-02 6.407772e-02 1.599147e-01 1.528981e-01 2.627378e-02 -1.290679e-01 -5.400358e-02 -9.707347e-03 -4.079404e-02 -2.025189e-02 -2.922292e-02 3.031085e-02 -5.158730e-02 6.432430e-03 -1.780717e-02 1.076001e-02 2.449907e-02 3.037868e-02 2.933035e-02 2.229775e-02 3.157335e-02 3.594061e-02 -1.483690e-02 -7.515310e-03 -5.458517e-02
<VARIANCE> 39
 2.854889e-01 6.216413e-01 5.701408e-01 8.572950e-01 7.838615e-01 1.121515e+00 9.868802e-01 2.918103e-01 2.567666e-01 3.640056e-01 2.177550e-01 1.835975e-01 8.188702e-01 3.274449e-02 4.928759e-02 2.968955e-02 2.345492e-02 6.271204e-02 3.634519e-02 4.801711e-02 2.885674e-02 2.947246e-02 3.096578e-02 1.846007e-02 1.579808e-02 3.646285e-02 6.598395e-03 1.210526e-02 6.037318e-03 6.129208e-03 1.405188e-02 7.827526e-03 1.178397e-02 6.931843e-03 6.977422e-03 5.333551e-03 4.092126e-03 3.432965e-03 5.160800e-03
<GCONST> -4.755136e+01
<STATE> 3
<MEAN> 39
 -6.801909e-01 -3.742280e-01 -2.260797e-02 5.257687e-01 3.911887e-01 -8.784735e-01 -8.198566e-01 -7.199275e-01 -5.248395e-01 -7.930942e-01 -1.805129e-01 -1.303709e-01 4.836119e+00 -2.009905e-01 -1.578003e-01 5.404904e-02 -3.052267e-02 -2.696703e-02 8.461204e-02 7.429797e-02 1.233964e-01 1.790302e-01 1.418547e-02 -3.687727e-02 7.499695e-03 -3.502746e-02 -1.588330e-03 -1.152156e-01 1.218455e-02 -7.115527e-02 -4.960892e-02 2.155789e-03 -4.381745e-02 -4.132286e-02 -1.160685e-02 -3.472128e-02 5.308594e-02 3.655042e-02 9.837443e-02
<VARIANCE> 39
 1.646603e-01 3.511159e-01 3.821172e-01 5.082343e-01 3.315629e-01 4.054306e-01 4.547955e-01 3.262498e-01 1.582296e-01 2.667553e-01 1.636510e-01 8.834676e-02 5.533746e-01 1.653787e-02 7.467706e-02 2.908472e-02 2.423333e-02 1.963823e-02 3.417848e-02 4.175447e-02 2.673809e-02 2.528244e-02 2.069551e-02 2.221161e-02 1.451432e-02 3.207584e-02 5.310902e-03 7.060992e-03 5.663350e-03 4.854793e-03 5.957515e-03 6.795615e-03 1.393162e-02 7.769045e-03 6.925606e-03 3.535960e-03 2.996659e-03 2.097185e-03 4.614492e-03
<GCONST> -5.972520e+01
<STATE> 4
<MEAN> 39
 -1.343095e+00 -1.799370e+00 4.440128e-01 9.487505e-02 2.395189e-01 -7.800008e-01 -1.039322e+00 -6.644368e-01 2.467459e-02 -1.045593e+00 1.603484e-01 1.113123e-01 5.539190e+00 4.813734e-02 -2.070064e-01 5.730045e-02 -7.042332e-02 1.938902e-04 5.164491e-02 -2.164529e-01 -2.219976e-01 -5.329319e-02 -4.182228e-02 9.029081e-02 5.651116e-02 2.469891e-01 1.481474e-01 1.626605e-01 -5.880845e-02 -1.422586e-02 -2.281525e-02 -2.892696e-02 1.072330e-02 -4.829880e-02 -1.152778e-01 -1.648753e-03 -2.216261e-02 -1.629628e-02 -2.532366e-02
<VARIANCE> 39
 5.083585e-01 2.184333e-01 5.737519e-01 6.883457e-01 4.351678e-01 6.928566e-01 5.895208e-01 5.358224e-01 2.558112e-01 3.305474e-01 9.044530e-02 1.481181e-01 6.051906e-01 4.919179e-02 6.688011e-02 3.437391e-02 1.993153e-02 1.795550e-02 3.243335e-02 3.321631e-02 2.650553e-02 5.000817e-02 1.766367e-02 1.432663e-02 9.906309e-03 1.396528e-02 5.926298e-03 1.271266e-02 8.971156e-03 5.071323e-03 4.579920e-03 8.272222e-03 1.066452e-02 1.126865e-02 8.040877e-03 4.412930e-03 4.416177e-03 3.632861e-03 5.784860e-03
<GCONST> -5.387391e+01
<STATE> 5
<MEAN> 39
 -3.992188e-01 -1.187915e+00 1.670891e-01 8.642156e-02 1.836476e-01 -6.666300e-01 -1.454129e+00 -1.417959e+00 -7.771221e-01 -1.103297e+00 1.811546e-01 1.474729e-01 5.723909e+00 2.742484e-01 3.075834e-01 -1.432963e-01 -1.637210e-01 -1.867764e-01 -4.591606e-02 1.261554e-01 3.847097e-02 -1.547240e-01 -6.933803e-02 -8.776262e-02 -1.325702e-03 -4.196354e-02 -4.538485e-02 8.472127e-02 -1.112545e-02 -1.044247e-02 -4.226717e-02 -3.103891e-02 1.237882e-01 1.292402e-01 6.598634e-02 1.982964e-02 -5.916003e-02 -2.716114e-02 -9.591651e-02
<VARIANCE> 39
 2.376858e-01 4.636586e-01 3.510502e-01 5.399504e-01 3.417121e-01 8.154157e-01 5.356546e-01 4.090738e-01 3.259273e-01 2.508598e-01 1.498186e-01 1.062718e-01 5.960765e-01 2.810442e-02 3.236698e-02 2.400819e-02 1.999266e-02 3.512440e-02 3.527182e-02 4.646163e-02 4.997636e-02 4.807061e-02 1.753857e-02 1.662778e-02 1.851560e-02 1.414168e-02 5.529154e-03 1.024591e-02 6.533911e-03 5.351774e-03 5.468445e-03 6.569034e-03 6.759310e-03 4.440522e-03 6.800477e-03 3.437140e-03 2.674766e-03 2.070062e-03 1.982809e-03
<GCONST> -5.865347e+01
<STATE> 6
<MEAN> 39
 -2.694061e-01 -7.061816e-01 -2.923437e-02 -9.295868e-01 -4.499041e-01 -1.027863e+00 -8.133741e-02 -8.529230e-01 -5.955905e-01 -1.107010e+00 -2.450619e-01 1.317794e-01 5.298592e+00 2.427948e-04 5.300121e-02 -8.612622e-02 -7.794785e-02 -6.140497e-02 -1.676201e-02 1.205873e-01 7.660320e-02 4.491510e-02 6.007057e-02 -4.234591e-02 1.701609e-02 -5.789266e-02 -2.645707e-02 -5.015532e-02 1.323023e-02 2.123752e-02 1.750833e-02 3.729079e-03 -2.814839e-02 -1.663171e-02 1.490122e-02 1.800549e-02 2.334357e-02 4.496598e-03 1.777415e-02
<VARIANCE> 39
 2.434785e-01 6.178290e-01 6.767418e-01 1.080765e+00 6.038258e-01 1.009749e+00 9.130996e-01 5.869946e-01 4.673297e-01 3.103076e-01 2.139892e-01 2.519373e-01 1.213459e+00 2.576399e-02 6.724920e-02 4.228206e-02 3.589848e-02 6.485929e-02 5.225654e-02 4.251317e-02 5.126132e-02 4.032333e-02 3.430302e-02 2.924970e-02 3.104010e-02 5.052579e-02 5.650466e-03 9.643000e-03 8.292873e-03 6.684544e-03 1.159879e-02 9.945300e-03 6.432511e-03 8.873772e-03 9.381626e-03 7.346417e-03 4.602333e-03 6.140125e-03 8.666797e-03
<GCONST> -4.080487e+01
<STATE> 7
<MEAN> 39
 -6.023186e-01 -2.904432e-01 -5.975468e-01 -6.366984e-01 -7.137764e-01 -1.037073e+00 -6.298434e-01 -4.965020e-01 -4.265293e-01 -8.121541e-01 -3.149801e-01 6.532153e-02 5.252732e+00 -6.067690e-02 -3.522782e-02 -5.501161e-02 -2.385148e-02 -1.494659e-02 -9.785237e-03 4.485067e-02 1.134683e-02 2.359141e-02 7.191118e-02 3.256017e-02 1.754582e-02 -4.271745e-02 -8.350790e-04 -2.356772e-02 -3.090611e-03 2.547573e-03 1.238859e-02 3.164090e-03 -9.792445e-03 -1.345271e-02 -6.708489e-03 1.009941e-03 1.247548e-02 5.698303e-03 1.291976e-02
<VARIANCE> 39
 4.105141e-01 4.161016e-01 3.007291e-01 5.368392e-01 3.453804e-01 3.796089e-01 3.944499e-01 2.345261e-01 2.454827e-01 3.485460e-01 2.290189e-01 1.671356e-01 7.738637e-01 1.674669e-02 2.460414e-02 2.279787e-02 2.049292e-02 2.172861e-02 2.958522e-02 2.308856e-02 1.447736e-02 2.170664e-02 2.040130e-02 1.675053e-02 1.297957e-02 2.096358e-02 2.743552e-03 3.921373e-03 4.017329e-03 3.345054e-03 3.991729e-03 5.671267e-03 4.600497e-03 3.652186e-03 4.049649e-03 3.980695e-03 3.108797e-03 2.436185e-03 2.421382e-03
<GCONST> -6.633762e+01
<TRANSP> 8
 0.000000e+00 7.633546e-01 2.366454e-01 0.000000e+00 0.000000e+00 0.000000e+00 0.000000e+00 0.000000e+00
 0.000000e+00 7.944428e-01 1.974320e-01 8.125222e-03 0.000000e+00 0.000000e+00 0.000000e+00 0.000000e+00
 0.000000e+00 0.000000e+00 6.264900e-01 3.686953e-01 4.814620e-03 0.000000e+00 0.000000e+00 0.000000e+00
 0.000000e+00 0.000000e+00 0.000000e+00 5.558730e-01 4.385052e-01 5.621817e-03 0.000000e+00 0.000000e+00
 0.000000e+00 0.000000e+00 0.000000e+00 0.000000e+00 5.661706e-01 4.338294e-01 0.000000e+00 0.000000e+00
 0.000000e+00 0.000000e+00 0.000000e+00 0.000000e+00 0.000000e+00 7.740067e-01 2.259934e-01 0.000000e+00
 0.000000e+00 0.000000e+00 0.000000e+00 0.000000e+00 0.000000e+00 0.000000e+00 8.123050e-01 1.876950e-01
 0.000000e+00 0.000000e+00 0.000000e+00 0.000000e+00 0.000000e+00 0.000000e+00 0.000000e+00 0.000000e+00
<ENDHMM>
