~o
<STREAMINFO> 1 36
<VECSIZE> 36<NULLD><LPC_D_A><DIAGC>
~h "bagi"
<BEGINHMM>
<NUMSTATES> 8
<STATE> 2
<MEAN> 36
 -2.834208e+00 5.371045e+00 -8.265952e+00 1.048680e+01 -1.146071e+01 1.104308e+01 -9.327198e+00 6.841218e+00 -4.360532e+00 2.248492e+00 -8.740215e-01 2.334094e-01 8.830161e-02 -2.202041e-01 3.711856e-01 -5.203078e-01 5.869784e-01 -5.775713e-01 4.912573e-01 -3.611908e-01 2.225599e-01 -1.158844e-01 3.659813e-02 -7.317761e-03 1.930002e-02 -5.255324e-02 9.639491e-02 -1.400169e-01 1.652741e-01 -1.724330e-01 1.581794e-01 -1.256899e-01 8.760538e-02 -5.126868e-02 2.227363e-02 -6.710187e-03
<VARIANCE> 36
 2.270318e-01 1.689816e+00 5.480520e+00 1.165012e+01 1.682986e+01 1.867373e+01 1.641685e+01 1.147032e+01 5.968420e+00 2.148159e+00 4.588480e-01 4.138725e-02 3.856837e-02 2.846741e-01 9.110906e-01 1.968091e+00 2.863327e+00 3.185869e+00 2.711635e+00 1.794327e+00 8.736234e-01 2.944463e-01 5.969756e-02 5.323118e-03 8.384785e-03 6.345591e-02 1.998729e-01 4.234349e-01 5.989106e-01 6.437712e-01 5.309762e-01 3.434448e-01 1.626897e-01 5.414511e-02 1.092048e-02 9.938854e-04
<GCONST> 4.056485e+01
<STATE> 3
<MEAN> 36
 -8.056808e-01 1.500272e-01 -2.682440e-01 2.395628e-01 -2.397163e-01 3.141984e-01 -2.035733e-01 1.794272e-01 -2.457393e-01 1.230370e-01 -1.487851e-01 1.028485e-01 -1.056416e-02 9.878817e-04 7.950908e-03 -3.877885e-04 -2.948986e-03 1.251961e-03 3.514015e-03 9.711411e-05 -1.390400e-03 -4.106000e-04 1.963612e-03 -2.101752e-03 -7.164935e-04 7.736728e-03 -1.538454e-03 -1.068636e-04 -8.391278e-04 -1.066431e-05 4.203334e-04 1.134133e-03 8.869094e-04 2.670829e-04 -7.370226e-04 -4.274073e-04
<VARIANCE> 36
 2.706169e-01 1.313235e-01 2.419593e-01 1.207325e-01 9.751013e-02 6.969158e-02 7.835305e-02 8.565093e-02 2.795993e-02 3.611473e-02 4.243273e-02 1.510188e-02 3.349541e-02 2.132835e-02 9.335116e-03 9.558232e-03 5.196831e-03 4.723804e-03 3.266951e-03 3.830147e-03 1.832739e-03 2.542382e-03 2.227652e-03 1.439719e-03 7.095417e-03 5.247169e-03 2.121528e-03 2.166281e-03 1.176022e-03 1.001857e-03 7.060098e-04 7.983104e-04 3.598544e-04 5.388922e-04 4.442600e-04 2.932102e-04
<GCONST> -1.101904e+02
<STATE> 4
<MEAN> 36
 -1.304314e+00 9.788276e-01 -8.085637e-01 8.168355e-01 -8.916926e-01 7.681698e-01 -4.564993e-01 2.962798e-01 -2.117749e-01 1.940478e-02 3.046911e-03 1.034831e-02 9.502654e-03 5.727366e-02 -7.188033e-02 6.615486e-02 -6.844664e-02 5.925432e-02 -4.815364e-02 4.820791e-02 -2.173001e-03 6.691181e-04 -7.575274e-03 -8.598628e-03 -1.223993e-02 7.605680e-02 -1.786648e-01 2.573344e-01 -2.707803e-01 2.792855e-01 -2.440689e-01 1.872968e-01 -1.203176e-01 6.514698e-02 -2.759884e-02 8.102318e-03
<VARIANCE> 36
 5.793223e-01 1.580673e+00 2.983220e+00 3.247670e+00 2.843542e+00 2.074571e+00 1.456219e+00 7.630434e-01 3.600003e-01 1.796516e-01 7.557416e-02 2.309260e-02 3.380893e-02 9.104241e-02 1.192791e-01 2.032379e-01 2.768655e-01 2.888229e-01 2.483576e-01 1.688127e-01 8.218188e-02 3.200440e-02 8.584322e-03 2.135846e-03 1.502725e-02 5.062892e-02 9.615918e-02 1.956633e-01 2.965468e-01 3.180182e-01 2.582615e-01 1.578408e-01 6.845164e-02 2.092923e-02 3.680476e-03 5.419010e-04
<GCONST> -7.299911e+00
<STATE> 5
<MEAN> 36
 -2.822197e+00 5.476345e+00 -8.425511e+00 1.087670e+01 -1.212172e+01 1.192259e+01 -1.026797e+01 7.706086e+00 -4.943372e+00 2.539117e+00 -9.857279e-01 2.205204e-01 -5.586382e-02 1.584569e-01 -2.742011e-01 4.117462e-01 -4.823642e-01 5.119190e-01 -4.549634e-01 3.575863e-01 -2.351777e-01 1.283782e-01 -5.090200e-02 1.291682e-02 2.879270e-02 -7.896131e-02 1.422964e-01 -2.077726e-01 2.616622e-01 -2.738959e-01 2.546806e-01 -2.001339e-01 1.307859e-01 -6.620543e-02 2.340425e-02 -1.426829e-03
<VARIANCE> 36
 1.769181e-01 1.170031e+00 4.279019e+00 9.635714e+00 1.465150e+01 1.636229e+01 1.345652e+01 8.433080e+00 3.949303e+00 1.360308e+00 2.932606e-01 3.099005e-02 4.305324e-02 2.879199e-01 9.350036e-01 1.973895e+00 2.850430e+00 3.061975e+00 2.482352e+00 1.524820e+00 6.758391e-01 2.095112e-01 3.927088e-02 3.497906e-03 8.423868e-03 4.797680e-02 1.641958e-01 3.369424e-01 4.821167e-01 5.171178e-01 4.224928e-01 2.603416e-01 1.198626e-01 3.879414e-02 7.538397e-03 7.010853e-04
<GCONST> 3.254554e+01
<STATE> 6
<MEAN> 36
 -1.351191e+00 1.830029e+00 -2.443754e+00 3.084702e+00 -3.243748e+00 3.146505e+00 -2.493946e+00 1.924721e+00 -1.231259e+00 6.377522e-01 -2.988350e-01 1.017053e-01 6.914783e-02 -8.186544e-02 1.240279e-01 -2.117090e-01 3.376404e-01 -3.539994e-01 3.671192e-01 -2.911392e-01 2.195026e-01 -1.065774e-01 2.783868e-02 1.172426e-03 -2.146345e-02 2.340664e-02 -5.354313e-02 7.187337e-02 -9.082405e-02 9.485015e-02 -8.712734e-02 5.623208e-02 -4.286295e-02 1.849745e-02 -3.114089e-03 1.604591e-03
<VARIANCE> 36
 9.156244e-01 4.521193e+00 9.934520e+00 1.536054e+01 1.708317e+01 1.653941e+01 1.202165e+01 6.984455e+00 2.898928e+00 9.540108e-01 1.652516e-01 2.939083e-02 3.416359e-02 1.151336e-01 3.472240e-01 6.230454e-01 8.968940e-01 9.298156e-01 8.224760e-01 5.328868e-01 2.596149e-01 8.768284e-02 1.885393e-02 2.588051e-03 7.356839e-03 1.197542e-02 2.907101e-02 3.687041e-02 5.339552e-02 4.212933e-02 4.437348e-02 3.200692e-02 1.937341e-02 7.734586e-03 2.023010e-03 4.776173e-04
<GCONST> 5.104928e+00
<STATE> 7
<MEAN> 36
 -1.816962e+00 3.029099e+00 -4.426895e+00 5.539124e+00 -5.812952e+00 5.441990e+00 -4.315922e+00 3.055061e+00 -1.832625e+00 8.670239e-01 -3.441931e-01 9.535360e-02 -1.068095e-02 4.199291e-02 -1.126240e-01 1.562825e-01 -1.909997e-01 2.240019e-01 -2.065257e-01 1.631301e-01 -1.126377e-01 6.559493e-02 -3.268422e-02 1.166229e-02 -2.006384e-02 1.913423e-02 -2.619543e-02 4.832356e-02 -7.091903e-02 7.966067e-02 -7.729417e-02 6.216919e-02 -4.587143e-02 2.351884e-02 -4.865163e-03 2.087142e-03
<VARIANCE> 36
 1.319672e+00 7.419651e+00 1.931841e+01 3.435926e+01 4.567865e+01 4.738794e+01 3.915171e+01 2.477671e+01 1.161436e+01 3.724380e+00 6.830313e-01 6.270160e-02 5.329251e-02 3.118631e-01 1.126766e+00 2.533432e+00 4.033910e+00 4.704916e+00 4.237498e+00 2.881323e+00 1.401747e+00 4.578615e-01 8.485637e-02 7.255571e-03 1.191060e-02 8.329676e-02 3.117174e-01 7.058337e-01 1.123078e+00 1.302684e+00 1.159125e+00 7.709137e-01 3.666439e-01 1.166946e-01 2.133790e-02 1.581813e-03
<GCONST> 6.306829e+01
<TRANSP> 8
 0.000000e+00 2.624994e-01 7.375007e-01 0.000000e+00 0.000000e+00 0.000000e+00 0.000000e+00 0.000000e+00
 0.000000e+00 8.695376e-01 0.000000e+00 1.304624e-01 0.000000e+00 0.000000e+00 0.000000e+00 0.000000e+00
 0.000000e+00 0.000000e+00 9.507498e-01 4.925018e-02 0.000000e+00 0.000000e+00 0.000000e+00 0.000000e+00
 0.000000e+00 0.000000e+00 0.000000e+00 2.948643e-01 1.762835e-01 5.288522e-01 0.000000e+00 0.000000e+00
 0.000000e+00 0.000000e+00 0.000000e+00 0.000000e+00 8.574622e-01 1.425378e-01 0.000000e+00 0.000000e+00
 0.000000e+00 0.000000e+00 0.000000e+00 0.000000e+00 0.000000e+00 1.761809e-01 8.238191e-01 0.000000e+00
 0.000000e+00 0.000000e+00 0.000000e+00 0.000000e+00 0.000000e+00 0.000000e+00 4.637893e-01 5.362107e-01
 0.000000e+00 0.000000e+00 0.000000e+00 0.000000e+00 0.000000e+00 0.000000e+00 0.000000e+00 0.000000e+00
<ENDHMM>
