~o
<STREAMINFO> 1 39
<VECSIZE> 39<NULLD><MFCC_D_A_0><DIAGC>
~h "bagi"
<BEGINHMM>
<NUMSTATES> 6
<STATE> 2
<MEAN> 39
 -4.869470e+00 -9.662369e+00 1.587943e+00 -1.484920e+01 2.619762e+00 -1.863389e+01 1.188957e+01 -1.259201e+01 -6.710657e+00 -2.623077e+00 5.727024e-01 -7.888465e-01 7.792229e+01 -2.014239e-01 -5.708434e-02 2.178776e-01 5.086132e-01 4.360913e-01 -2.000560e-01 -3.150979e-01 -4.292814e-01 -2.153358e-02 5.609311e-02 2.607984e-01 -1.490220e-01 5.254772e-02 5.754328e-03 1.830188e-01 1.575320e-01 2.421342e-01 1.523524e-01 -6.174705e-02 -5.946913e-02 -8.027268e-02 4.091427e-02 -2.031269e-01 -6.473200e-02 -2.007076e-01 -9.497590e-02
<VARIANCE> 39
 4.802427e+01 7.750357e+01 3.025277e+01 8.683532e+01 3.496412e+01 1.065798e+02 1.210948e+02 5.218117e+01 3.123724e+01 2.459027e+01 2.729196e+01 1.931815e+01 1.605954e+02 2.444388e-01 1.173404e+00 1.240918e+00 2.105142e+00 1.442102e+00 2.487475e+00 2.055847e+00 1.907592e+00 1.709012e+00 2.004064e+00 1.821722e+00 1.947290e+00 1.017289e+00 5.520703e-02 1.654163e-01 1.802406e-01 2.793675e-01 2.678133e-01 4.001211e-01 2.639119e-01 3.284300e-01 3.211757e-01 3.500349e-01 4.157077e-01 3.711925e-01 1.652316e-01
<GCONST> 1.093892e+02
<STATE> 3
<MEAN> 39
 1.512943e+00 2.794528e+00 -5.347525e-02 1.026340e+01 3.884478e+00 -2.616574e+00 -4.215635e+00 6.529475e+00 2.830740e-01 -8.186901e+00 7.592911e-01 1.695167e-01 5.664240e+01 6.670285e-01 -7.443108e-02 -8.954202e-02 9.896209e-02 -3.642507e-02 -5.401517e-01 -6.135014e-01 2.126117e-03 -1.594478e-01 -3.200212e-01 2.967267e-01 1.937431e-01 5.667299e-01 -3.849354e-02 -1.263117e-01 -4.540234e-02 -1.170965e-01 -1.195272e-01 -4.322387e-02 2.236163e-02 -4.958202e-02 1.259350e-02 6.782506e-02 5.606359e-02 1.003926e-01 3.790171e-02
<VARIANCE> 39
 4.869084e+01 5.313794e+01 4.290789e+01 9.497612e+01 6.896444e+01 6.876855e+01 5.428519e+01 4.115793e+01 3.536971e+01 6.588616e+01 5.099056e+01 3.807386e+01 9.767352e+01 3.643335e+00 5.395938e+00 4.814196e+00 4.522008e+00 5.317767e+00 7.815383e+00 5.348702e+00 3.250614e+00 4.138181e+00 5.930695e+00 4.800718e+00 4.494015e+00 3.246204e+00 5.094086e-01 8.380132e-01 8.941501e-01 7.533559e-01 8.381834e-01 1.453846e+00 1.042419e+00 6.529315e-01 8.478565e-01 1.054934e+00 8.799738e-01 7.441149e-01 4.940486e-01
<GCONST> 1.413487e+02
<STATE> 4
<MEAN> 39
 -5.978483e+00 -7.935881e+00 1.574415e+01 -5.619943e+00 1.595501e+01 -2.583307e+01 5.454827e+00 -1.437328e+01 -2.841286e+00 -1.173155e+01 -6.883655e-01 -7.179265e+00 7.750915e+01 -1.493878e-02 1.695721e-01 7.365245e-02 -1.978491e-02 -8.498235e-03 7.284448e-02 3.196370e-02 3.050486e-01 1.979029e-01 -2.602704e-01 -1.990559e-01 -6.702287e-02 -1.978669e-01 3.527037e-02 -4.384819e-02 -3.918069e-02 -7.295308e-02 -1.050897e-01 2.614308e-03 5.957073e-02 6.071635e-02 -2.968441e-02 4.526869e-02 1.485770e-02 4.618532e-02 4.575812e-02
<VARIANCE> 39
 4.092175e+01 4.116517e+01 5.159274e+01 7.015800e+01 2.911360e+01 1.330834e+02 5.864975e+01 6.954606e+01 5.728213e+01 3.879695e+01 4.863301e+01 4.120997e+01 5.166383e+01 2.980631e+00 4.258588e+00 3.159371e+00 4.209962e+00 3.287025e+00 1.003702e+01 4.434747e+00 4.621746e+00 5.832368e+00 3.632118e+00 4.216092e+00 3.571233e+00 4.093023e+00 4.523945e-01 6.113548e-01 4.259731e-01 5.988891e-01 5.867479e-01 1.442087e+00 7.389964e-01 9.045632e-01 9.765924e-01 7.011772e-01 7.436358e-01 6.689277e-01 6.099310e-01
<GCONST> 1.371576e+02
<STATE> 5
<MEAN> 39
 -4.009094e+00 3.821842e+00 -2.828098e-01 6.204852e+00 3.039210e+00 -8.985937e+00 -7.862563e+00 -2.616125e+00 -4.170446e+00 -6.124650e+00 4.461949e-01 -4.771782e-01 7.052515e+01 -3.136303e-01 1.058946e-02 1.668519e-01 1.697849e-01 2.170896e-01 2.295325e-01 7.197543e-02 -1.358939e-01 1.080402e-02 9.121325e-02 -7.245579e-02 -1.807721e-01 -1.954036e-01 -1.589279e-02 2.698168e-02 2.992888e-02 7.082909e-03 1.486694e-02 2.186933e-02 1.298532e-02 7.407997e-04 -1.213280e-03 -1.470939e-02 -3.500791e-02 -3.221138e-02 -1.111601e-02
<VARIANCE> 39
 3.918472e+01 4.226030e+01 3.790858e+01 6.080796e+01 6.210110e+01 3.563616e+01 3.676159e+01 2.054873e+01 2.290240e+01 5.486002e+01 5.825218e+01 5.239435e+01 2.535569e+01 9.121094e-01 1.209196e+00 1.143411e+00 1.783888e+00 1.455279e+00 1.766113e+00 1.844722e+00 1.245727e+00 1.740062e+00 1.253322e+00 1.286933e+00 1.345713e+00 6.887147e-01 1.217442e-01 1.875365e-01 1.679063e-01 2.366066e-01 2.302724e-01 2.943017e-01 2.901902e-01 2.294471e-01 3.128411e-01 2.471025e-01 2.414834e-01 2.395490e-01 8.865214e-02
<GCONST> 1.028577e+02
<TRANSP> 6
 0.000000e+00 4.227476e-01 5.772523e-01 0.000000e+00 0.000000e+00 0.000000e+00
 0.000000e+00 8.789192e-01 4.948165e-02 7.159921e-02 0.000000e+00 0.000000e+00
 0.000000e+00 0.000000e+00 9.281937e-01 1.792734e-02 5.387900e-02 0.000000e+00
 0.000000e+00 0.000000e+00 0.000000e+00 9.504578e-01 0.000000e+00 4.954228e-02
 0.000000e+00 0.000000e+00 0.000000e+00 0.000000e+00 9.752502e-01 2.474975e-02
 0.000000e+00 0.000000e+00 0.000000e+00 0.000000e+00 0.000000e+00 0.000000e+00
<ENDHMM>
