~o
<STREAMINFO> 1 39
<VECSIZE> 39<NULLD><PLP_D_A_0><DIAGC>
~h "belas"
<BEGINHMM>
<NUMSTATES> 8
<STATE> 2
<MEAN> 39
 -4.283167e-02 -2.735364e-01 -7.209785e-01 1.330921e-01 -4.685662e-01 -8.895187e-01 -7.997029e-01 -6.064692e-01 -6.391336e-01 -9.215096e-01 -3.488176e-01 2.863362e-01 4.825978e+00 3.869576e-02 -1.274454e-01 1.121483e-02 -5.471621e-02 -1.453962e-01 9.922143e-03 -8.534380e-03 -6.174545e-02 -6.592613e-03 2.571256e-02 1.082325e-01 1.041546e-01 9.968599e-02 -4.779460e-03 -3.596145e-02 -2.995784e-04 -3.438589e-02 -3.124701e-02 1.258800e-02 1.461786e-02 2.195652e-02 3.208419e-02 3.334500e-02 3.810816e-02 1.054722e-02 2.055953e-02
<VARIANCE> 39
 2.248762e-01 4.861890e-01 4.675527e-01 2.618363e-01 4.587300e-01 4.313149e-01 2.916887e-01 6.666744e-01 4.699656e-01 2.706153e-01 4.644372e-01 3.250840e-01 7.344936e-01 2.057601e-02 3.989144e-02 4.181037e-02 2.540875e-02 5.621761e-02 5.751612e-02 2.977581e-02 2.835858e-02 4.290884e-02 2.492338e-02 4.271009e-02 3.304505e-02 1.779751e-02 4.290315e-03 6.007380e-03 7.047852e-03 4.003612e-03 9.440770e-03 8.690539e-03 7.213173e-03 6.444314e-03 8.550473e-03 4.133967e-03 6.206340e-03 7.130511e-03 3.494695e-03
<GCONST> -5.071037e+01
<STATE> 3
<MEAN> 39
 1.803258e-02 -1.416119e+00 -1.174943e+00 -1.239704e+00 -9.780015e-01 -1.508220e+00 -8.377931e-02 -5.385555e-01 -1.923351e-01 -1.856975e-03 3.900565e-01 6.780235e-01 6.367275e+00 -1.729810e-02 -6.773293e-02 -3.270287e-02 -1.039513e-01 -2.031550e-02 4.828582e-02 7.289611e-02 6.739184e-02 1.502371e-01 9.283030e-02 2.583765e-02 -1.437712e-02 6.319970e-02 -3.079346e-02 4.524478e-02 6.097507e-02 2.023291e-02 4.739865e-02 3.296831e-02 -2.409415e-02 -3.678977e-02 -4.057329e-02 -4.727937e-02 -2.741327e-02 -1.937988e-02 -3.211081e-02
<VARIANCE> 39
 6.442399e-02 4.836245e-01 5.204895e-01 6.366000e-01 2.817946e-01 3.484535e-01 7.721006e-01 5.001115e-01 4.418744e-01 2.732603e-01 2.035251e-01 1.727962e-01 3.141042e-01 3.603949e-03 1.998786e-02 1.764500e-02 1.678665e-02 1.838847e-02 1.348538e-02 2.679397e-02 2.255077e-02 3.070234e-02 2.549970e-02 1.942984e-02 1.749605e-02 7.645396e-03 1.916779e-03 2.998470e-03 4.136293e-03 2.787880e-03 2.826013e-03 2.980839e-03 6.029730e-03 4.113564e-03 7.212448e-03 3.523773e-03 3.518463e-03 3.007560e-03 1.049048e-03
<GCONST> -7.080022e+01
<STATE> 4
<MEAN> 39
 -4.018247e-01 -1.336579e+00 -1.655508e-01 -8.687281e-01 -1.053535e+00 -3.527799e-01 -4.495066e-01 -6.577153e-01 -1.708229e-01 -3.451777e-01 4.344859e-01 5.985471e-01 5.558540e+00 -3.575382e-01 -1.089891e-01 3.085433e-01 -1.184105e-01 6.134936e-02 1.184263e-01 2.330186e-02 -6.555746e-02 -1.246439e-01 7.103418e-02 2.260364e-02 -9.679420e-02 -2.430848e-02 -7.048965e-02 -2.707176e-02 -5.607037e-04 -2.595911e-02 -1.575250e-03 -3.482379e-02 -9.488267e-04 -9.263848e-04 -8.741702e-03 1.084909e-02 -2.414124e-02 -5.840927e-03 -9.756870e-03
<VARIANCE> 39
 3.920585e-01 4.343123e-01 7.027670e-01 5.893308e-01 3.016844e-01 7.596543e-01 4.374373e-01 2.429847e-01 4.376238e-01 3.875774e-01 1.605085e-01 2.200517e-01 9.329090e-01 4.467646e-02 5.589481e-02 2.967316e-02 3.757801e-02 3.548592e-02 3.775932e-02 3.282527e-02 2.536261e-02 3.632585e-02 4.318509e-02 2.992507e-02 1.656014e-02 5.579697e-03 7.274095e-03 7.134225e-03 1.062025e-02 5.691657e-03 8.981397e-03 5.856887e-03 4.813412e-03 3.517550e-03 7.576634e-03 5.678417e-03 3.773735e-03 4.650443e-03 1.861744e-03
<GCONST> -5.333960e+01
<STATE> 5
<MEAN> 39
 -1.669352e+00 -1.290065e+00 8.762318e-01 -2.352431e+00 7.834846e-01 -1.001956e+00 9.388888e-01 -1.085857e+00 1.668303e-01 -3.376613e-01 -8.814058e-02 -3.009454e-02 6.264143e+00 -4.639871e-02 2.680029e-02 1.964059e-02 3.877287e-02 2.119324e-02 3.202271e-02 7.435145e-03 3.446942e-02 -9.853416e-03 -1.599882e-03 4.318610e-02 -3.950276e-03 -9.151702e-02 3.272074e-02 -2.634451e-02 -3.267615e-02 6.492555e-03 -3.305994e-02 -1.484888e-02 1.676865e-02 5.259321e-03 -3.100958e-03 1.609177e-02 1.297554e-02 9.011032e-03 7.896427e-03
<VARIANCE> 39
 1.047075e+00 2.786871e-01 4.956408e-01 3.199511e-01 5.399290e-01 3.987701e-01 2.766656e-01 3.153172e-01 2.447209e-01 2.029224e-01 1.305265e-01 6.803545e-02 4.958209e-01 1.482163e-01 5.098002e-02 8.471763e-02 3.906296e-02 7.798827e-02 4.177285e-02 4.712133e-02 3.463516e-02 3.222444e-02 2.589776e-02 1.345087e-02 9.404439e-03 3.555167e-02 1.826690e-02 6.669766e-03 9.228950e-03 7.839420e-03 7.976575e-03 6.357700e-03 1.031432e-02 7.758658e-03 6.444967e-03 4.928773e-03 2.800234e-03 1.520627e-03 6.968618e-03
<GCONST> -5.149998e+01
<STATE> 6
<MEAN> 39
 -2.154545e+00 -1.730214e+00 2.865967e-01 -1.640408e+00 -1.033790e+00 -4.379313e-01 -2.493088e-01 -8.709853e-01 -3.235143e-01 9.731397e-02 4.665714e-01 3.545186e-01 5.716273e+00 -8.958053e-02 -3.440215e-02 -3.977237e-02 1.526685e-02 -1.609280e-02 1.528045e-02 7.157032e-03 -1.199138e-02 -1.304380e-02 1.260666e-02 -2.347430e-03 -2.992033e-03 -1.185332e-01 8.897112e-02 6.383789e-02 -7.627103e-02 5.446960e-02 1.159002e-02 -5.807622e-03 -1.063173e-02 1.578510e-02 1.469362e-02 -2.445775e-02 -1.001971e-02 4.994294e-03 -3.735388e-02
<VARIANCE> 39
 3.344870e-01 4.508171e-01 5.589776e-01 3.620898e-01 3.193168e-01 3.344792e-01 4.074093e-01 1.428083e-01 3.259684e-01 2.286352e-01 1.188178e-01 6.967485e-02 4.367085e-01 5.281955e-02 2.601084e-02 3.276606e-02 2.505276e-02 1.500636e-02 1.370953e-02 1.028841e-02 1.104959e-02 1.302835e-02 9.973804e-03 9.230260e-03 5.993539e-03 1.265029e-02 6.329308e-03 6.720318e-03 6.206512e-03 4.638678e-03 3.565540e-03 3.576422e-03 2.903214e-03 2.642678e-03 4.408713e-03 3.639643e-03 2.264988e-03 1.676047e-03 1.939132e-03
<GCONST> -7.283482e+01
<STATE> 7
<MEAN> 39
 -1.509563e+00 -1.092158e+00 -5.332859e-01 -9.797627e-01 -8.361971e-01 -5.910388e-01 -3.859215e-01 -7.132449e-01 -3.852429e-01 -2.674730e-01 2.690866e-01 3.420569e-01 4.489967e+00 1.124893e-01 1.474165e-01 -1.286244e-01 7.375830e-02 2.719103e-02 -5.022542e-02 -9.678968e-03 2.747855e-02 3.265795e-02 -5.474458e-02 -5.805446e-02 -9.727958e-03 -8.854037e-02 8.023512e-03 -9.945893e-03 1.805848e-02 -4.708967e-03 4.470525e-03 -3.902020e-03 -2.587915e-03 -3.728817e-04 -1.008007e-03 -1.411112e-03 2.759743e-03 -8.233202e-04 3.585972e-02
<VARIANCE> 39
 5.382018e-01 5.332283e-01 4.108828e-01 3.646471e-01 4.344307e-01 4.101513e-01 4.274515e-01 2.117564e-01 2.457843e-01 2.567303e-01 1.845157e-01 1.023719e-01 9.429352e-01 3.037369e-02 5.257629e-02 4.608612e-02 3.203091e-02 3.145913e-02 3.298568e-02 2.346658e-02 1.857099e-02 2.624228e-02 2.046333e-02 2.050445e-02 1.261868e-02 4.504177e-02 5.718000e-03 8.642561e-03 6.581615e-03 5.293295e-03 6.127162e-03 6.548063e-03 4.402556e-03 3.807613e-03 5.441691e-03 3.742857e-03 4.581947e-03 2.715266e-03 5.534879e-03
<GCONST> -5.743661e+01
<TRANSP> 8
 0.000000e+00 6.345457e-01 3.654543e-01 0.000000e+00 0.000000e+00 0.000000e+00 0.000000e+00 0.000000e+00
 0.000000e+00 7.764786e-01 1.359701e-01 8.755133e-02 0.000000e+00 0.000000e+00 0.000000e+00 0.000000e+00
 0.000000e+00 0.000000e+00 7.941554e-01 2.058446e-01 0.000000e+00 0.000000e+00 0.000000e+00 0.000000e+00
 0.000000e+00 0.000000e+00 0.000000e+00 7.057418e-01 6.092945e-02 2.333288e-01 0.000000e+00 0.000000e+00
 0.000000e+00 0.000000e+00 0.000000e+00 0.000000e+00 9.193584e-01 8.064157e-02 0.000000e+00 0.000000e+00
 0.000000e+00 0.000000e+00 0.000000e+00 0.000000e+00 0.000000e+00 7.727736e-01 2.272264e-01 0.000000e+00
 0.000000e+00 0.000000e+00 0.000000e+00 0.000000e+00 0.000000e+00 0.000000e+00 7.850126e-01 2.149874e-01
 0.000000e+00 0.000000e+00 0.000000e+00 0.000000e+00 0.000000e+00 0.000000e+00 0.000000e+00 0.000000e+00
<ENDHMM>
