~o
<STREAMINFO> 1 39
<VECSIZE> 39<NULLD><PLP_D_A_0><DIAGC>
~h "empat"
<BEGINHMM>
<NUMSTATES> 8
<STATE> 2
<MEAN> 39
 -4.846269e-01 -2.427220e-01 -3.158789e-01 -2.854771e-01 -4.048671e-02 -1.129123e+00 -9.397505e-02 -2.588577e-01 -2.810886e-01 -8.696831e-01 -8.972201e-01 -4.410695e-01 4.997017e+00 -5.473880e-03 8.945446e-02 4.864373e-02 3.269416e-02 5.200561e-02 3.192893e-02 -1.436243e-02 -4.405207e-03 1.047593e-02 -1.265940e-02 -5.988694e-02 -6.393530e-02 -5.520929e-02 -5.478928e-02 -3.028198e-02 -1.449796e-02 -2.182561e-02 -2.545611e-02 1.968278e-02 6.508877e-03 -5.803846e-03 2.512691e-03 2.450706e-02 5.582953e-02 3.593862e-02 -3.699429e-02
<VARIANCE> 39
 2.416557e-01 5.589471e-01 2.957836e-01 8.753639e-01 3.342678e-01 7.818788e-01 9.141577e-01 5.218985e-01 3.620948e-01 2.194657e-01 3.545432e-01 3.572341e-01 1.039369e+00 3.535453e-02 1.790838e-02 1.573991e-02 2.125319e-02 2.484873e-02 2.716065e-02 2.661618e-02 2.138488e-02 2.918755e-02 1.735781e-02 4.146881e-02 2.618150e-02 3.161165e-02 4.257491e-03 5.427777e-03 3.459549e-03 5.164004e-03 6.051406e-03 4.722027e-03 4.278715e-03 4.212139e-03 5.548465e-03 3.192820e-03 6.900920e-03 6.038050e-03 4.518074e-03
<GCONST> -5.574665e+01
<STATE> 3
<MEAN> 39
 -1.147336e+00 -2.519027e-01 -4.434671e-01 -3.664354e-01 -2.321701e-01 -7.001581e-01 -1.780759e-01 -4.052102e-01 -2.348166e-01 -5.371761e-01 -3.776784e-01 -2.011644e-01 4.395412e+00 6.116569e-02 -2.229541e-01 -1.707565e-01 -1.939745e-01 -2.381565e-01 -5.684366e-02 3.917706e-02 -3.824461e-04 3.570659e-02 6.676484e-02 2.273771e-01 1.721237e-01 1.675854e-01 1.165207e-01 -4.908314e-02 -4.051802e-02 -4.449318e-02 -6.514290e-02 -3.943541e-02 -1.452023e-03 1.905994e-02 3.506695e-02 -1.207866e-02 -8.817995e-03 1.639379e-02 1.330454e-01
<VARIANCE> 39
 1.353569e-01 3.568133e-01 3.165255e-01 3.377669e-01 3.146520e-01 2.341187e-01 3.191703e-01 2.341405e-01 1.509980e-01 1.685748e-01 2.916561e-01 1.037563e-01 6.986876e-01 6.604311e-02 2.938137e-02 1.920535e-02 3.102898e-02 3.431869e-02 4.038283e-02 2.057039e-02 2.213125e-02 4.002674e-02 1.971271e-02 2.802956e-02 1.470540e-02 7.544356e-02 4.576966e-03 7.181824e-03 4.266505e-03 5.196811e-03 5.326174e-03 6.209441e-03 5.131164e-03 3.679333e-03 7.385449e-03 2.973221e-03 7.571115e-03 2.694875e-03 6.244411e-03
<GCONST> -6.062383e+01
<STATE> 4
<MEAN> 39
 8.872216e-03 -1.132678e+00 -8.804538e-01 -1.141584e+00 -1.478753e+00 -8.896422e-01 -1.514263e-01 -3.592072e-01 1.367571e-01 -5.648358e-01 9.090434e-02 4.826147e-01 5.601449e+00 1.375745e-01 -1.043338e-01 -6.342061e-02 -5.542160e-02 -1.047714e-01 2.000877e-02 1.617761e-02 -4.806642e-03 4.309851e-02 -1.489451e-03 3.883992e-02 9.460030e-02 1.772405e-01 -9.506425e-02 7.622829e-02 2.694486e-02 7.059070e-02 1.111778e-01 2.050718e-02 -6.842280e-03 -1.005398e-02 -3.796260e-02 -4.088995e-03 -3.751276e-02 -4.754735e-02 -1.270902e-01
<VARIANCE> 39
 1.214756e-01 4.711204e-01 4.395296e-01 4.194552e-01 4.415772e-01 8.155144e-01 6.470704e-01 4.015723e-01 3.481397e-01 2.953491e-01 1.773379e-01 1.987746e-01 8.669119e-01 6.470858e-02 5.654735e-02 4.598143e-02 4.546167e-02 9.077828e-02 3.849973e-02 2.627281e-02 2.656535e-02 4.953490e-02 2.238060e-02 2.245396e-02 2.610193e-02 1.097861e-01 6.406168e-03 6.404728e-03 1.004268e-02 6.637270e-03 1.011368e-02 1.076489e-02 4.651645e-03 6.060231e-03 8.431975e-03 5.073651e-03 5.051216e-03 4.270329e-03 7.947269e-03
<GCONST> -4.712441e+01
<STATE> 5
<MEAN> 39
 1.048400e-02 -1.710140e+00 -1.463380e+00 -1.704597e+00 -1.134877e+00 -1.006255e+00 4.446227e-01 -5.665953e-01 5.484204e-01 -3.065170e-01 8.960582e-02 4.247408e-01 6.663171e+00 -3.357366e-02 8.573035e-02 6.178376e-02 -2.308960e-02 8.436528e-02 4.290950e-02 -8.141533e-02 -1.073853e-01 -4.560361e-02 3.722806e-02 6.328253e-03 4.832565e-02 -1.107997e-01 -4.612264e-02 6.177715e-02 2.738807e-02 1.213410e-02 2.343573e-02 -1.526333e-02 -2.813243e-02 2.770744e-02 -3.945432e-02 -1.011989e-02 -3.345572e-03 -1.736981e-02 -1.002902e-01
<VARIANCE> 39
 2.547920e-02 5.621006e-01 3.401975e-01 3.948469e-01 4.654663e-01 2.539272e-01 9.909557e-01 7.347490e-01 3.635269e-01 2.412553e-01 2.135395e-01 2.259642e-01 1.715191e-01 3.085231e-03 1.837994e-02 2.194141e-02 1.685671e-02 1.451363e-02 1.744276e-02 1.615891e-02 1.881378e-02 2.346516e-02 1.881259e-02 1.829700e-02 1.675819e-02 2.927952e-02 1.229660e-03 3.052677e-03 6.197443e-03 4.365789e-03 3.991486e-03 3.497198e-03 3.245163e-03 6.033597e-03 3.966636e-03 4.988291e-03 3.707063e-03 2.600245e-03 2.362470e-03
<GCONST> -7.112227e+01
<STATE> 6
<MEAN> 39
 -7.129489e-01 -7.547391e-01 -1.270728e+00 -1.223258e+00 -1.028643e+00 -9.230966e-01 -3.366086e-01 -4.131462e-01 -1.339509e-01 -3.093175e-01 1.537508e-01 5.234882e-01 5.091918e+00 -1.670476e-01 9.197473e-02 1.994083e-02 5.966933e-02 9.843144e-02 2.194629e-02 -6.092157e-03 4.607166e-02 -4.141079e-02 -5.239336e-03 -2.399771e-02 -7.565027e-02 -2.216847e-01 1.049680e-02 -3.444762e-03 1.124916e-02 1.265631e-02 6.440311e-03 2.970935e-04 9.910523e-03 1.089442e-03 1.178732e-02 -2.390746e-03 -1.290309e-02 -1.842943e-02 2.781998e-02
<VARIANCE> 39
 3.047132e-01 2.265152e-01 5.662514e-01 4.078568e-01 2.263625e-01 2.516493e-01 3.017466e-01 2.336832e-01 1.347555e-01 1.433418e-01 1.007157e-01 2.055495e-01 3.311648e-01 1.516939e-02 2.123089e-02 2.735467e-02 2.192558e-02 2.061351e-02 2.309398e-02 1.148691e-02 1.841373e-02 1.594680e-02 1.158375e-02 1.056155e-02 1.369863e-02 2.927208e-02 4.058744e-03 2.677486e-03 4.567950e-03 3.752868e-03 2.697814e-03 2.481088e-03 2.269221e-03 2.861507e-03 3.033491e-03 2.446552e-03 1.923002e-03 1.851168e-03 4.597462e-03
<GCONST> -7.545012e+01
<STATE> 7
<MEAN> 39
 -5.824564e-01 -5.188611e-01 -6.156248e-01 -7.679251e-01 -4.153967e-01 -1.042093e+00 -2.634304e-01 -5.797059e-01 -4.477773e-01 -8.129280e-01 -1.501469e-01 1.962764e-01 4.722469e+00 1.326024e-02 -1.345204e-03 1.649299e-02 4.449222e-03 2.281034e-02 -4.362565e-02 -1.271181e-02 -2.580466e-02 -5.012838e-02 -2.380834e-02 -1.464203e-02 -4.417373e-03 5.837873e-02 2.687911e-02 -4.700350e-02 -6.057437e-03 -2.991783e-02 -3.851493e-02 -3.075025e-03 9.675829e-04 -1.833050e-02 1.257901e-02 1.301506e-02 1.317482e-02 2.680931e-02 5.836650e-02
<VARIANCE> 39
 4.083196e-01 6.425096e-01 3.570082e-01 5.470736e-01 4.068505e-01 4.364520e-01 6.080892e-01 3.628246e-01 3.473321e-01 3.545698e-01 2.766583e-01 2.276942e-01 1.438180e+00 5.080258e-02 5.505610e-02 5.133381e-02 4.338657e-02 4.099862e-02 3.788318e-02 1.988495e-02 2.487602e-02 4.729258e-02 4.545413e-02 3.059553e-02 3.648999e-02 5.879696e-02 8.686529e-03 8.558956e-03 8.223569e-03 7.571410e-03 8.122228e-03 9.845544e-03 4.712178e-03 6.545083e-03 8.939885e-03 8.820327e-03 6.185930e-03 6.570970e-03 1.007663e-02
<GCONST> -4.403590e+01
<TRANSP> 8
 0.000000e+00 8.395652e-01 1.604348e-01 0.000000e+00 0.000000e+00 0.000000e+00 0.000000e+00 0.000000e+00
 0.000000e+00 7.758639e-01 1.640668e-01 6.006920e-02 0.000000e+00 0.000000e+00 0.000000e+00 0.000000e+00
 0.000000e+00 0.000000e+00 7.035508e-01 2.964493e-01 0.000000e+00 0.000000e+00 0.000000e+00 0.000000e+00
 0.000000e+00 0.000000e+00 0.000000e+00 6.650542e-01 1.346130e-01 2.003328e-01 0.000000e+00 0.000000e+00
 0.000000e+00 0.000000e+00 0.000000e+00 0.000000e+00 7.703620e-01 2.296380e-01 0.000000e+00 0.000000e+00
 0.000000e+00 0.000000e+00 0.000000e+00 0.000000e+00 0.000000e+00 7.339335e-01 2.660665e-01 0.000000e+00
 0.000000e+00 0.000000e+00 0.000000e+00 0.000000e+00 0.000000e+00 0.000000e+00 7.457622e-01 2.542378e-01
 0.000000e+00 0.000000e+00 0.000000e+00 0.000000e+00 0.000000e+00 0.000000e+00 0.000000e+00 0.000000e+00
<ENDHMM>
