~o
<STREAMINFO> 1 39
<VECSIZE> 39<NULLD><MFCC_D_A_0><DIAGC>
~h "empat"
<BEGINHMM>
<NUMSTATES> 6
<STATE> 2
<MEAN> 39
 -1.416513e+00 -5.574682e+00 2.646265e+00 -1.000158e+01 2.623336e+00 -1.179986e+01 1.683358e+01 -8.324061e+00 3.104511e+00 -1.033344e+01 -1.933222e+00 -4.587957e+00 7.200309e+01 6.830014e-02 1.571932e-01 6.374640e-02 1.344269e-01 2.358379e-01 1.329234e-01 -1.845284e-01 1.823414e-01 -6.423016e-02 -5.459924e-02 -1.122561e-01 -9.957755e-02 -1.391390e-01 -1.814202e-02 -4.152589e-02 -4.179999e-02 -5.477716e-02 -2.884859e-02 -2.184834e-02 1.918021e-02 -1.727868e-02 5.377662e-02 3.085066e-02 8.921949e-03 1.285818e-02 3.601049e-02
<VARIANCE> 39
 3.082962e+01 7.291817e+01 5.864278e+01 7.327537e+01 8.930233e+01 8.316779e+01 8.475105e+01 8.225832e+01 6.671573e+01 3.581451e+01 7.076427e+01 4.483003e+01 1.159109e+02 2.201624e+00 3.421309e+00 2.660703e+00 2.457794e+00 4.721679e+00 3.205216e+00 2.784640e+00 4.467652e+00 3.776815e+00 2.919726e+00 4.184438e+00 3.095990e+00 5.552416e+00 2.712190e-01 5.042097e-01 4.374451e-01 4.258177e-01 7.516094e-01 5.095112e-01 4.408968e-01 7.123282e-01 6.050462e-01 4.595486e-01 5.779127e-01 4.779170e-01 6.073266e-01
<GCONST> 1.330747e+02
<STATE> 3
<MEAN> 39
 -6.593903e+00 8.536042e+00 5.698132e-01 8.274858e+00 6.117625e+00 1.217546e+00 8.479396e-01 2.941000e+00 2.169994e+00 -3.415815e+00 -6.281380e+00 -5.889549e+00 6.347812e+01 -5.144743e-01 -1.347594e-01 -5.590641e-02 -1.970562e-01 -1.431212e-01 1.479077e-01 1.453085e-01 -8.888492e-02 1.520166e-02 1.718678e-01 1.248183e-01 5.978011e-02 -3.702404e-01 -3.450375e-02 -1.126871e-01 -7.019511e-02 -1.206385e-01 -1.152029e-01 -6.466496e-02 -3.295631e-02 -6.844717e-02 -4.550716e-02 3.761264e-02 1.288868e-01 1.086934e-01 3.565871e-02
<VARIANCE> 39
 2.244913e+01 3.025187e+01 1.985100e+01 2.752381e+01 2.822674e+01 2.963656e+01 2.151418e+01 3.936956e+01 1.802997e+01 1.267986e+01 1.948794e+01 1.957595e+01 2.215375e+01 9.257789e-01 7.782456e-01 7.811814e-01 9.133224e-01 1.051278e+00 9.844685e-01 1.035201e+00 9.394380e-01 1.157940e+00 9.281680e-01 1.091382e+00 1.148858e+00 5.239533e-01 1.946762e-01 1.151267e-01 1.210521e-01 1.367436e-01 1.829933e-01 2.026821e-01 1.816478e-01 1.595223e-01 2.129677e-01 1.774496e-01 1.778718e-01 1.998451e-01 1.636934e-01
<GCONST> 8.828210e+01
<STATE> 4
<MEAN> 39
 -2.160033e+00 4.138115e+00 -1.287682e+00 1.977999e+00 -3.035491e+00 -2.323853e+00 -1.025359e+00 1.342621e-01 1.153270e+00 -5.933231e+00 -2.664260e+00 1.544533e+00 5.891397e+01 5.598882e-01 -1.709559e-01 -2.606317e-01 -3.799686e-01 -4.576578e-01 -3.377087e-01 -1.433233e-01 -7.014883e-02 -7.895281e-04 -1.417861e-01 1.294389e-01 3.564984e-01 6.219040e-01 -1.784441e-02 -2.208038e-02 -1.528869e-02 9.673383e-03 1.963698e-02 1.633115e-02 -4.238337e-03 3.351045e-02 2.039749e-02 -2.431658e-02 -2.188031e-02 1.662563e-03 -1.731251e-02
<VARIANCE> 39
 6.530808e+01 6.370713e+01 3.907854e+01 5.541370e+01 8.045676e+01 6.231139e+01 3.553635e+01 6.846342e+01 6.429891e+01 5.599993e+01 4.231009e+01 6.013997e+01 1.878115e+02 5.874238e+00 5.222472e+00 4.030837e+00 4.617363e+00 6.515306e+00 4.867243e+00 3.179894e+00 4.226338e+00 5.411827e+00 3.677969e+00 4.138274e+00 4.555322e+00 6.604037e+00 8.455432e-01 8.500432e-01 6.794755e-01 8.253064e-01 1.041696e+00 8.839792e-01 6.331829e-01 8.093972e-01 9.302772e-01 6.663651e-01 7.691109e-01 7.372909e-01 8.819933e-01
<GCONST> 1.426605e+02
<STATE> 5
<MEAN> 39
 -2.551480e+00 5.829328e-01 -9.592360e+00 -5.733345e+00 -6.992642e+00 -5.301310e+00 -2.688718e+00 -6.868352e-01 2.103160e+00 -3.949531e+00 -3.278833e-01 5.403154e+00 6.955137e+01 -5.257542e-01 1.812789e-01 1.292549e-01 1.496148e-01 2.999977e-01 2.520576e-01 8.223362e-02 -1.375782e-01 -2.821074e-01 7.026429e-02 8.771554e-02 -1.086257e-01 -5.634664e-01 -3.718948e-02 4.854251e-02 6.629619e-02 4.892145e-02 4.139692e-02 2.162551e-03 8.269453e-03 4.698392e-03 -1.253266e-02 1.352245e-02 -8.469845e-03 -5.467249e-02 -3.240808e-02
<VARIANCE> 39
 4.933051e+01 4.059760e+01 5.580066e+01 3.472873e+01 4.250146e+01 3.252367e+01 1.670782e+01 4.078675e+01 4.749539e+01 3.428255e+01 1.874131e+01 5.593355e+01 6.951488e+01 7.801473e-01 8.305799e-01 1.318557e+00 1.170149e+00 1.176844e+00 1.369779e+00 1.344935e+00 1.482087e+00 1.697959e+00 1.132910e+00 1.140538e+00 1.438955e+00 8.206770e-01 1.047249e-01 1.425044e-01 2.158336e-01 1.857840e-01 1.975837e-01 2.423837e-01 2.555754e-01 2.928636e-01 3.089424e-01 2.265074e-01 2.476777e-01 2.603614e-01 1.058811e-01
<GCONST> 1.006167e+02
<TRANSP> 6
 0.000000e+00 7.026044e-01 2.973956e-01 0.000000e+00 0.000000e+00 0.000000e+00
 0.000000e+00 9.131109e-01 1.962459e-02 6.726453e-02 0.000000e+00 0.000000e+00
 0.000000e+00 0.000000e+00 9.247330e-01 7.526701e-02 0.000000e+00 0.000000e+00
 0.000000e+00 0.000000e+00 0.000000e+00 9.225667e-01 3.602268e-02 4.141070e-02
 0.000000e+00 0.000000e+00 0.000000e+00 0.000000e+00 9.503903e-01 4.960967e-02
 0.000000e+00 0.000000e+00 0.000000e+00 0.000000e+00 0.000000e+00 0.000000e+00
<ENDHMM>
