~o
<STREAMINFO> 1 39
<VECSIZE> 39<NULLD><PLP_D_A_0><DIAGC>
~h "enam"
<BEGINHMM>
<NUMSTATES> 8
<STATE> 2
<MEAN> 39
 -3.031849e-01 -3.064173e-01 -3.749191e-01 -6.183697e-02 2.280677e-01 -1.281587e+00 -6.649216e-01 -8.004825e-01 -4.218969e-01 -6.045117e-01 -5.742632e-01 1.833623e-02 5.082840e+00 9.633467e-02 -7.703254e-03 -3.378418e-02 -2.919767e-02 -2.506226e-02 7.310668e-03 -2.244894e-04 -2.377375e-03 -8.011413e-03 -2.804978e-02 2.849163e-02 3.342092e-02 9.210555e-02 -1.212108e-02 -5.541183e-02 -2.768832e-02 -5.567490e-02 -6.309529e-02 3.046652e-02 5.647502e-02 1.875255e-02 1.242641e-02 1.240306e-02 5.574461e-02 3.618565e-02 1.978446e-02
<VARIANCE> 39
 1.992485e-01 4.916523e-01 3.349702e-01 7.287037e-01 3.367772e-01 8.959632e-01 8.009215e-01 6.297189e-01 2.833977e-01 1.791749e-01 1.728821e-01 1.934691e-01 9.296806e-01 1.925108e-02 3.969721e-02 2.718492e-02 4.471926e-02 4.347610e-02 3.355722e-02 4.996703e-02 1.622523e-02 2.100995e-02 1.313423e-02 4.457634e-02 3.466281e-02 2.065489e-02 2.508062e-03 4.325807e-03 4.331763e-03 5.278061e-03 4.908995e-03 5.254300e-03 6.873102e-03 3.019443e-03 4.538422e-03 2.424265e-03 4.727717e-03 5.377243e-03 2.823023e-03
<GCONST> -5.780714e+01
<STATE> 3
<MEAN> 39
 2.549162e-02 -1.053236e+00 -9.241573e-01 -9.575237e-01 -7.639236e-01 -7.043816e-01 3.010174e-02 -5.749621e-01 -2.120665e-01 -5.442146e-01 3.447338e-01 6.479496e-01 5.805659e+00 3.273619e-02 -1.935511e-01 -1.150136e-01 -2.447399e-01 -2.768622e-01 1.195903e-01 2.738291e-01 9.310012e-02 8.803477e-02 4.714239e-02 1.550518e-01 1.353408e-01 1.545777e-01 -1.942763e-02 7.663590e-02 4.216564e-02 7.872625e-02 6.964370e-02 -5.677751e-02 -4.879231e-02 9.618200e-03 -3.762404e-03 -1.745212e-02 -1.094787e-01 -7.792607e-02 -7.028835e-02
<VARIANCE> 39
 1.115742e-01 6.189382e-01 2.718546e-01 5.577457e-01 4.372394e-01 7.077326e-01 8.141837e-01 7.231174e-01 3.465510e-01 3.840245e-01 2.252030e-01 1.485137e-01 9.179872e-01 5.221294e-03 2.432759e-02 3.856561e-02 3.474177e-02 2.795047e-02 3.573874e-02 2.858930e-02 2.825609e-02 2.170262e-02 1.393359e-02 3.380224e-02 2.893775e-02 9.472243e-03 1.704537e-03 4.681005e-03 4.986622e-03 5.011294e-03 6.481295e-03 7.393627e-03 6.339416e-03 3.953930e-03 4.369046e-03 4.475167e-03 4.746563e-03 6.371238e-03 1.920488e-03
<GCONST> -5.977385e+01
<STATE> 4
<MEAN> 39
 1.246375e-02 -1.240326e+00 -1.163629e+00 -1.334138e+00 -1.025115e+00 -7.807226e-01 5.127877e-01 -3.158621e-01 -1.388619e-01 -5.375297e-01 2.624023e-01 6.245612e-01 6.155634e+00 5.535199e-03 9.509650e-02 4.440208e-02 3.097329e-02 -6.284079e-03 -6.767143e-02 -1.290991e-02 7.449397e-02 4.729039e-03 -7.961683e-02 -1.167565e-01 -9.338715e-02 -6.150167e-02 -1.295331e-02 7.672757e-02 5.222826e-02 8.590838e-02 9.041484e-02 -3.825552e-02 -7.415270e-02 -2.090191e-02 -2.275118e-02 -2.741412e-02 -7.299042e-02 -7.117658e-02 -6.093894e-02
<VARIANCE> 39
 6.467983e-02 6.130326e-01 3.955387e-01 5.642622e-01 4.361975e-01 5.536435e-01 9.064705e-01 1.059656e+00 3.361148e-01 2.112255e-01 1.500677e-01 1.058023e-01 6.881227e-01 1.816319e-03 1.583106e-02 1.174922e-02 1.563646e-02 1.372236e-02 1.610364e-02 1.176159e-02 1.395379e-02 1.226248e-02 1.385630e-02 1.991993e-02 1.442461e-02 5.636948e-03 5.354259e-04 2.883607e-03 4.399971e-03 5.122428e-03 6.945054e-03 4.800525e-03 4.425861e-03 4.845499e-03 3.180003e-03 2.602303e-03 6.135567e-03 4.798443e-03 1.184455e-03
<GCONST> -7.389179e+01
<STATE> 5
<MEAN> 39
 3.311329e-02 -5.374131e-01 -6.089564e-01 -7.935587e-01 -6.359344e-01 -1.182065e+00 1.831825e-01 -2.909293e-01 -1.508623e-01 -8.965834e-01 -5.517167e-01 -7.286377e-02 5.439324e+00 -4.958622e-02 2.200164e-01 1.223412e-01 2.469360e-01 3.052342e-01 -1.077914e-01 -1.232029e-01 -6.007986e-04 -7.124793e-02 -8.865468e-02 -3.008293e-01 -2.956550e-01 -1.892345e-01 -1.737338e-02 -7.690814e-03 -4.768053e-03 2.839286e-03 3.920741e-02 3.798700e-02 -2.022645e-02 -3.199131e-02 -1.919688e-02 1.606899e-02 3.342313e-02 2.031915e-02 -5.055536e-04
<VARIANCE> 39
 6.986848e-02 3.838582e-01 3.560245e-01 7.797553e-01 4.914782e-01 7.999461e-01 8.829958e-01 6.325719e-01 4.767987e-01 2.016422e-01 4.429349e-01 3.668462e-01 9.125991e-01 2.977991e-03 1.008799e-02 3.204885e-02 1.790802e-02 2.347496e-02 3.197964e-02 1.925220e-02 2.818363e-02 2.251058e-02 2.142086e-02 2.697968e-02 2.701394e-02 3.650462e-03 6.638582e-04 2.795051e-03 3.647650e-03 5.943697e-03 7.947327e-03 4.147490e-03 3.610058e-03 3.534582e-03 4.077095e-03 2.963846e-03 9.571407e-03 8.134073e-03 1.120961e-03
<GCONST> -6.515676e+01
<STATE> 6
<MEAN> 39
 -3.884843e-01 4.651191e-02 -4.909174e-01 -5.963502e-02 -4.224755e-03 -7.339309e-01 -3.225448e-01 -2.361941e-01 -3.503737e-01 -8.729640e-01 -7.959625e-01 -4.059408e-01 4.942566e+00 -9.556778e-02 4.969862e-02 4.253180e-02 2.129215e-02 5.050604e-02 2.980153e-02 -3.312572e-02 -4.262673e-02 -3.842770e-02 1.839421e-02 7.249317e-03 -1.058666e-02 -9.462009e-02 -2.021503e-03 -5.992788e-02 -3.584490e-02 -6.175907e-02 -7.582515e-02 -6.732781e-04 1.547814e-02 -6.230637e-03 8.865535e-03 2.434799e-02 6.919975e-02 7.185387e-02 2.427079e-02
<VARIANCE> 39
 1.581336e-01 3.423080e-01 3.032057e-01 3.857959e-01 2.010734e-01 4.978502e-01 4.287135e-01 5.955197e-01 2.642170e-01 2.010901e-01 2.774579e-01 1.764668e-01 6.477882e-01 9.423771e-03 1.400367e-02 1.405904e-02 2.151506e-02 2.657706e-02 1.538405e-02 1.698298e-02 1.423832e-02 1.627134e-02 1.173663e-02 2.509575e-02 1.857754e-02 5.677840e-03 1.298119e-03 2.306735e-03 3.445363e-03 3.447717e-03 4.991307e-03 4.718798e-03 4.093677e-03 3.708530e-03 3.708575e-03 3.034136e-03 5.111277e-03 5.198228e-03 1.298659e-03
<GCONST> -7.239735e+01
<STATE> 7
<MEAN> 39
 -4.746603e-01 -6.803031e-01 -5.218182e-01 -9.935598e-01 -3.942193e-01 -1.254697e+00 -1.185990e-01 -7.275989e-01 -3.735735e-01 -6.829346e-01 -2.052071e-01 2.182958e-01 5.306367e+00 -2.331884e-02 -1.514472e-01 -5.844883e-02 -9.309650e-02 -1.325466e-01 3.195379e-03 -9.465573e-03 -2.226419e-02 4.601410e-02 9.128339e-02 1.467219e-01 1.375975e-01 5.749802e-02 9.765454e-03 3.402887e-04 8.587830e-03 1.526066e-03 -6.325647e-03 -2.717861e-03 1.316714e-02 1.048113e-02 7.572383e-03 3.013917e-03 -9.946791e-03 -1.916142e-02 2.009005e-02
<VARIANCE> 39
 5.197478e-01 6.520402e-01 4.101083e-01 7.236536e-01 7.072779e-01 6.733432e-01 8.160585e-01 4.202287e-01 3.400386e-01 3.740758e-01 3.174814e-01 4.031412e-01 1.208769e+00 2.247376e-02 3.165619e-02 2.611626e-02 2.495965e-02 4.261504e-02 3.120521e-02 3.309402e-02 2.826977e-02 3.153373e-02 2.567288e-02 2.913451e-02 4.033577e-02 2.359003e-02 4.176653e-03 6.830502e-03 4.695460e-03 4.819995e-03 8.319198e-03 4.841474e-03 5.238828e-03 4.145129e-03 5.212328e-03 4.709713e-03 6.367611e-03 8.000291e-03 3.722399e-03
<GCONST> -5.026419e+01
<TRANSP> 8
 0.000000e+00 7.999685e-01 2.000315e-01 0.000000e+00 0.000000e+00 0.000000e+00 0.000000e+00 0.000000e+00
 0.000000e+00 8.405460e-01 1.594540e-01 0.000000e+00 0.000000e+00 0.000000e+00 0.000000e+00 0.000000e+00
 0.000000e+00 0.000000e+00 5.580680e-01 4.252413e-01 1.669075e-02 0.000000e+00 0.000000e+00 0.000000e+00
 0.000000e+00 0.000000e+00 0.000000e+00 6.399871e-01 3.600130e-01 0.000000e+00 0.000000e+00 0.000000e+00
 0.000000e+00 0.000000e+00 0.000000e+00 0.000000e+00 5.785426e-01 4.214574e-01 0.000000e+00 0.000000e+00
 0.000000e+00 0.000000e+00 0.000000e+00 0.000000e+00 0.000000e+00 7.452540e-01 2.547460e-01 0.000000e+00
 0.000000e+00 0.000000e+00 0.000000e+00 0.000000e+00 0.000000e+00 0.000000e+00 7.752467e-01 2.247533e-01
 0.000000e+00 0.000000e+00 0.000000e+00 0.000000e+00 0.000000e+00 0.000000e+00 0.000000e+00 0.000000e+00
<ENDHMM>
