~o
<STREAMINFO> 1 36
<VECSIZE> 36<NULLD><LPC_D_A><DIAGC>
~h "kurang"
<BEGINHMM>
<NUMSTATES> 8
<STATE> 2
<MEAN> 36
 -9.474018e-01 7.441942e-02 -7.593969e-02 1.121997e-01 -1.657973e-01 2.068465e-01 -9.669410e-02 1.209067e-01 -1.518915e-01 5.913936e-02 -1.181756e-01 8.618333e-02 4.238531e-03 -1.103782e-02 -6.688503e-03 3.602296e-03 6.868386e-03 7.212257e-03 1.146409e-03 -2.166681e-03 -1.767752e-03 -3.081405e-04 -1.428064e-03 -2.435345e-03 2.272194e-03 4.720716e-03 -2.189401e-04 7.585281e-04 -6.994755e-04 -7.028625e-04 -6.422057e-04 1.012264e-04 4.011307e-04 4.646252e-06 2.108974e-04 -2.266739e-04
<VARIANCE> 36
 2.051630e-01 1.833069e-01 2.128568e-01 9.316318e-02 9.520052e-02 7.517310e-02 7.838421e-02 5.228272e-02 4.256982e-02 3.527450e-02 3.098240e-02 1.577289e-02 2.005299e-02 1.904824e-02 8.500762e-03 6.260574e-03 5.231868e-03 5.154772e-03 3.379829e-03 2.664497e-03 3.438608e-03 1.849532e-03 2.387617e-03 1.412003e-03 3.090966e-03 3.583864e-03 1.686074e-03 1.329068e-03 1.055992e-03 1.060594e-03 7.046818e-04 5.352520e-04 7.218843e-04 3.823460e-04 4.965204e-04 2.954068e-04
<GCONST> -1.137647e+02
<STATE> 3
<MEAN> 36
 -2.907668e+00 5.099339e+00 -7.295735e+00 8.725479e+00 -8.877339e+00 7.950019e+00 -6.457028e+00 4.560022e+00 -2.807515e+00 1.497004e+00 -6.211175e-01 1.775288e-01 -1.828196e-02 2.772708e-02 -6.421358e-02 9.447227e-02 -1.104449e-01 1.223753e-01 -1.147548e-01 9.530181e-02 -6.371274e-02 4.048670e-02 -1.280780e-02 -7.265679e-05 1.663272e-02 -3.343097e-02 5.002089e-02 -5.766728e-02 5.534635e-02 -4.446488e-02 3.325556e-02 -2.537889e-02 1.612533e-02 -1.057982e-02 5.429394e-03 -2.074700e-03
<VARIANCE> 36
 1.485623e-01 1.182126e+00 4.005511e+00 9.812338e+00 1.812451e+01 2.524148e+01 2.600900e+01 1.917799e+01 9.961812e+00 3.571514e+00 7.685122e-01 5.645895e-02 2.717511e-02 1.692695e-01 5.456068e-01 1.282646e+00 2.281212e+00 3.082501e+00 3.159867e+00 2.350644e+00 1.260848e+00 4.684185e-01 1.062955e-01 8.473662e-03 5.481937e-03 4.035571e-02 1.409117e-01 3.470253e-01 6.189803e-01 8.229269e-01 8.372754e-01 6.250207e-01 3.359495e-01 1.246698e-01 2.816740e-02 2.212678e-03
<GCONST> 4.593322e+01
<STATE> 4
<MEAN> 36
 -6.908677e-01 2.494429e-02 -1.553728e-01 1.241593e-01 -1.688522e-01 2.423484e-01 -9.545781e-02 1.203369e-01 -1.564517e-01 6.627414e-02 -1.235492e-01 5.743517e-02 -7.816839e-02 8.909845e-02 2.860942e-02 -7.842083e-03 -3.029828e-02 1.011074e-02 3.274418e-03 6.262002e-03 -1.210161e-02 3.912813e-03 1.012293e-02 -3.320367e-03 -1.144334e-02 -1.903169e-03 8.385546e-04 5.598143e-03 2.267718e-03 -4.173913e-03 -2.684651e-04 1.741695e-03 1.877641e-03 -4.012910e-03 1.025874e-03 2.322820e-03
<VARIANCE> 36
 2.308087e-01 2.890492e-01 1.556516e-01 1.217699e-01 8.571821e-02 8.315872e-02 7.662313e-02 6.566601e-02 3.094445e-02 3.927732e-02 2.788159e-02 1.612517e-02 2.169345e-02 3.049208e-02 1.307416e-02 1.047071e-02 5.810318e-03 5.875011e-03 3.582614e-03 2.625229e-03 2.302542e-03 1.488521e-03 1.489845e-03 1.029069e-03 6.620159e-03 6.716188e-03 2.628645e-03 2.579819e-03 1.615043e-03 1.568069e-03 7.173879e-04 7.663801e-04 3.575139e-04 3.170139e-04 3.365471e-04 2.382634e-04
<GCONST> -1.107677e+02
<STATE> 5
<MEAN> 36
 -2.952392e+00 5.136542e+00 -7.547160e+00 9.511637e+00 -1.013006e+01 9.420035e+00 -7.830783e+00 5.547972e+00 -3.262910e+00 1.644637e+00 -6.621724e-01 1.745575e-01 4.813891e-02 -1.125734e-01 1.359027e-01 -1.588636e-01 1.809481e-01 -1.567921e-01 1.243710e-01 -1.188127e-01 8.594033e-02 -4.887721e-02 2.880127e-02 -7.390047e-03 2.516061e-02 -5.928995e-02 9.817793e-02 -1.495660e-01 1.765630e-01 -1.689534e-01 1.435726e-01 -1.043945e-01 5.470826e-02 -2.635872e-02 1.255273e-02 -1.758583e-03
<VARIANCE> 36
 2.493708e+00 4.408305e+01 2.333346e+02 6.833193e+02 1.334538e+03 1.848974e+03 1.847608e+03 1.330927e+03 6.807835e+02 2.331987e+02 4.411102e+01 2.440513e+00 2.524397e-01 4.400754e+00 2.319244e+01 6.783662e+01 1.322579e+02 1.830250e+02 1.829139e+02 1.318275e+02 6.750925e+01 2.316907e+01 4.393356e+00 2.443530e-01 4.770045e-02 8.353453e-01 4.439423e+00 1.300184e+01 2.536150e+01 3.515754e+01 3.517231e+01 2.535811e+01 1.299932e+01 4.468338e+00 8.454583e-01 4.683530e-02
<GCONST> 1.792602e+02
<STATE> 6
<MEAN> 36
 -1.787027e+00 2.648262e+00 -3.849783e+00 4.765228e+00 -5.028225e+00 4.858818e+00 -4.049052e+00 2.959041e+00 -1.916036e+00 1.023161e+00 -4.195808e-01 1.404074e-01 1.591799e-02 -2.340190e-02 1.122505e-01 -1.300730e-01 1.471033e-01 -1.383225e-01 1.375633e-01 -8.069874e-02 4.541660e-02 -2.546719e-02 1.077265e-02 4.848521e-04 -1.607813e-02 3.748561e-02 -7.726843e-02 1.139395e-01 -1.342659e-01 1.341475e-01 -1.262844e-01 1.023705e-01 -6.538886e-02 3.781478e-02 -2.075428e-02 5.934256e-03
<VARIANCE> 36
 6.856287e-01 3.668997e+00 8.347986e+00 1.329153e+01 1.520694e+01 1.503532e+01 1.214586e+01 7.077040e+00 3.151276e+00 1.135312e+00 2.282019e-01 3.218085e-02 2.392012e-02 7.095730e-02 1.492613e-01 3.385139e-01 5.008331e-01 5.677793e-01 5.178235e-01 3.819112e-01 1.980796e-01 8.016592e-02 2.246635e-02 3.231581e-03 4.879788e-03 1.455939e-02 3.205835e-02 7.671948e-02 1.227068e-01 1.531655e-01 1.447735e-01 1.139145e-01 6.125869e-02 2.454516e-02 6.678612e-03 8.232719e-04
<GCONST> 9.876581e+00
<STATE> 7
<MEAN> 36
 -3.822094e+00 1.212874e+01 -2.791117e+01 4.944305e+01 -7.058273e+01 8.340363e+01 -8.275393e+01 6.899116e+01 -4.739671e+01 2.590031e+01 -1.049824e+01 2.364061e+00 -6.982127e-01 2.931725e+00 -7.139763e+00 1.303349e+01 -1.890379e+01 2.253019e+01 -2.252313e+01 1.885461e+01 -1.296533e+01 7.097399e+00 -2.876647e+00 6.454048e-01 1.176777e-01 -4.963968e-01 1.164365e+00 -2.144078e+00 3.124682e+00 -3.728440e+00 3.721894e+00 -3.119442e+00 2.145332e+00 -1.173094e+00 4.725689e-01 -1.033507e-01
<VARIANCE> 36
 4.466838e+02 8.896857e+03 5.423787e+04 1.808037e+05 3.817237e+05 5.443699e+05 5.439171e+05 3.806977e+05 1.799142e+05 5.381418e+04 8.785208e+03 4.367294e+02 2.261046e+01 4.477549e+02 2.725550e+03 9.077775e+03 1.914964e+04 2.729732e+04 2.726624e+04 1.908316e+04 9.020020e+03 2.699403e+03 4.408836e+02 2.195094e+01 6.836597e+00 1.352035e+02 8.227750e+02 2.740460e+03 5.780810e+03 8.239905e+03 8.230466e+03 5.759944e+03 2.722322e+03 8.146523e+02 1.330549e+02 6.624540e+00
<GCONST> 3.654163e+02
<TRANSP> 8
 0.000000e+00 7.499991e-01 2.500009e-01 0.000000e+00 0.000000e+00 0.000000e+00 0.000000e+00 0.000000e+00
 0.000000e+00 9.411187e-01 0.000000e+00 5.888127e-02 0.000000e+00 0.000000e+00 0.000000e+00 0.000000e+00
 0.000000e+00 0.000000e+00 9.305212e-01 0.000000e+00 6.947884e-02 0.000000e+00 0.000000e+00 0.000000e+00
 0.000000e+00 0.000000e+00 0.000000e+00 0.000000e+00 0.000000e+00 1.000000e+00 0.000000e+00 0.000000e+00
 0.000000e+00 0.000000e+00 0.000000e+00 0.000000e+00 7.337469e-01 2.662531e-01 0.000000e+00 0.000000e+00
 0.000000e+00 0.000000e+00 0.000000e+00 0.000000e+00 0.000000e+00 5.429242e-01 4.570759e-01 0.000000e+00
 0.000000e+00 0.000000e+00 0.000000e+00 0.000000e+00 0.000000e+00 0.000000e+00 1.919243e-01 8.080757e-01
 0.000000e+00 0.000000e+00 0.000000e+00 0.000000e+00 0.000000e+00 0.000000e+00 0.000000e+00 0.000000e+00
<ENDHMM>
