~o
<STREAMINFO> 1 39
<VECSIZE> 39<NULLD><MFCC_D_A_0><DIAGC>
~h "kurang"
<BEGINHMM>
<NUMSTATES> 6
<STATE> 2
<MEAN> 39
 3.076225e+00 4.490285e+00 2.037582e+00 5.345499e+00 -2.913977e+00 3.894937e+00 -4.984519e+00 5.542641e+00 1.184873e+01 -9.910739e+00 -6.640760e+00 8.414117e+00 5.075963e+01 2.157034e-02 -1.169348e-02 -3.537545e-02 2.867144e-01 3.301567e-01 6.992592e-02 1.471184e-02 -1.235619e-01 -7.125315e-02 2.696319e-01 2.192312e-02 -8.923309e-02 -5.316413e-03 -1.285379e-02 -2.977642e-02 6.727212e-03 -1.908782e-02 -5.027043e-02 -2.039306e-02 -1.293960e-02 -1.113895e-02 -3.386768e-02 -1.357033e-02 3.823341e-02 -2.351652e-02 3.393354e-04
<VARIANCE> 39
 2.517676e+01 7.379311e+01 4.124238e+01 3.770278e+01 1.103691e+02 5.642045e+01 5.641320e+01 5.460028e+01 6.407203e+01 9.112257e+01 3.963466e+01 9.027303e+01 3.012955e+01 1.684331e+00 5.224600e+00 4.557079e+00 2.754036e+00 7.834965e+00 4.541141e+00 5.093669e+00 5.141809e+00 5.500612e+00 5.778306e+00 4.644730e+00 6.569814e+00 1.791213e+00 3.012035e-01 9.123250e-01 9.506981e-01 5.296631e-01 1.424864e+00 8.369734e-01 9.196562e-01 8.965439e-01 9.533455e-01 1.064324e+00 8.835073e-01 1.047045e+00 3.333160e-01
<GCONST> 1.394284e+02
<STATE> 3
<MEAN> 39
 -1.599099e+00 1.902488e+00 -4.017129e+00 -2.140619e+00 -1.733335e+00 -9.248372e+00 -8.453710e+00 -1.074799e+00 -2.131007e+00 -3.464790e+00 -2.049984e-01 2.031380e+00 6.909206e+01 5.897352e-01 -3.211454e-01 -4.819122e-01 8.816230e-02 1.296851e-01 -1.447155e-01 2.573233e-02 1.046371e-01 -1.547730e-02 -5.330278e-02 6.788319e-02 2.419664e-01 4.859897e-01 -6.051517e-02 -5.825625e-02 -2.825106e-03 1.573525e-02 -1.066887e-03 8.310632e-02 1.360436e-01 7.302054e-02 7.347897e-02 1.905181e-02 -2.959714e-02 -1.926782e-02 -2.176645e-02
<VARIANCE> 39
 2.839574e+01 3.218739e+01 7.492174e+01 3.469659e+01 5.858088e+01 5.826882e+01 3.506883e+01 4.142756e+01 2.615378e+01 4.731236e+01 2.792176e+01 4.399559e+01 2.520906e+01 1.652542e+00 2.363458e+00 2.412005e+00 2.245882e+00 2.969715e+00 3.773136e+00 2.882223e+00 2.777493e+00 2.621411e+00 2.493530e+00 2.570593e+00 2.449224e+00 7.628487e-01 2.798391e-01 3.296611e-01 3.155894e-01 4.338887e-01 5.102617e-01 6.612618e-01 3.997005e-01 4.800889e-01 4.075750e-01 3.920051e-01 4.599891e-01 3.719668e-01 1.401648e-01
<GCONST> 1.175582e+02
<STATE> 4
<MEAN> 39
 -1.061855e+00 1.499897e+00 -5.700538e+00 2.403786e+00 3.574850e+00 -3.026417e+00 -1.374034e+00 5.005612e+00 1.435567e+00 -4.339409e+00 -2.790906e+00 8.998985e-01 6.883971e+01 -3.673481e-01 4.312681e-01 5.649668e-01 4.563963e-01 3.194478e-01 3.660978e-01 1.170513e-01 7.544443e-02 2.946910e-02 -1.154710e-01 -2.843000e-01 -3.132772e-01 -4.159772e-01 -8.218374e-03 -1.179213e-02 -4.576322e-03 -2.785719e-02 8.490221e-03 -3.482569e-02 -9.648927e-02 -9.275445e-02 -4.957063e-02 3.157056e-02 5.593469e-02 4.836152e-02 2.197297e-03
<VARIANCE> 39
 1.325561e+01 4.247947e+01 5.340837e+01 2.641751e+01 3.194694e+01 2.977184e+01 1.812646e+01 5.069167e+01 2.532789e+01 2.354490e+01 1.819895e+01 4.157566e+01 3.510260e+01 2.108718e-01 5.157395e-01 6.122279e-01 9.649668e-01 9.366114e-01 1.030752e+00 1.236732e+00 1.302921e+00 1.237629e+00 1.256457e+00 9.846316e-01 8.652439e-01 1.739399e-01 3.408074e-02 1.107659e-01 1.172125e-01 1.527245e-01 1.762542e-01 1.993885e-01 2.464843e-01 1.920192e-01 2.482016e-01 1.909190e-01 1.852131e-01 1.692453e-01 3.259857e-02
<GCONST> 8.581375e+01
<STATE> 5
<MEAN> 39
 8.443052e-02 -4.001400e+00 8.356944e+00 -1.522319e+01 -5.205212e+00 -2.027029e+01 1.625081e+01 -1.446431e+01 -4.098589e+00 -7.483678e+00 -3.408474e+00 -2.610199e+00 7.579857e+01 -7.607483e-02 -2.230356e-01 -1.295774e-01 -9.624945e-02 1.643627e-01 4.786582e-02 5.692629e-02 -1.541394e-01 -8.328542e-04 -7.422542e-02 -3.731963e-03 3.048997e-02 1.428502e-01 2.439216e-04 3.345541e-02 -4.855127e-03 7.578232e-03 3.038257e-02 -1.551593e-02 1.506572e-03 1.908074e-03 3.647710e-02 -1.648733e-02 1.961906e-02 -8.626096e-03 3.564591e-03
<VARIANCE> 39
 4.558194e+01 4.263508e+01 1.053624e+02 8.692034e+01 9.307873e+01 1.408342e+02 1.543382e+02 7.693519e+01 4.711581e+01 4.694860e+01 3.720875e+01 4.943788e+01 4.406994e+01 1.948681e+00 2.719732e+00 2.827854e+00 2.436574e+00 4.348048e+00 4.962348e+00 4.115983e+00 3.469120e+00 3.345815e+00 2.786144e+00 3.354452e+00 3.244260e+00 1.492376e+00 2.600788e-01 3.583893e-01 3.187562e-01 3.743332e-01 6.310346e-01 7.974240e-01 6.246588e-01 5.918149e-01 5.704511e-01 4.653404e-01 5.771874e-01 4.669856e-01 2.291806e-01
<GCONST> 1.302964e+02
<TRANSP> 6
 0.000000e+00 2.500065e-01 7.499935e-01 0.000000e+00 0.000000e+00 0.000000e+00
 0.000000e+00 9.680716e-01 2.235103e-02 9.577376e-03 0.000000e+00 0.000000e+00
 0.000000e+00 0.000000e+00 9.048121e-01 5.145255e-02 4.373534e-02 0.000000e+00
 0.000000e+00 0.000000e+00 0.000000e+00 9.410465e-01 3.462145e-02 2.433209e-02
 0.000000e+00 0.000000e+00 0.000000e+00 0.000000e+00 9.480684e-01 5.193157e-02
 0.000000e+00 0.000000e+00 0.000000e+00 0.000000e+00 0.000000e+00 0.000000e+00
<ENDHMM>
