~o
<STREAMINFO> 1 39
<VECSIZE> 39<NULLD><PLP_D_A_0><DIAGC>
~h "lima"
<BEGINHMM>
<NUMSTATES> 8
<STATE> 2
<MEAN> 39
 -4.986468e-01 -9.268638e-01 7.782114e-02 2.384483e-01 1.020151e-02 -1.573394e+00 -9.426360e-01 -8.615261e-01 -6.953180e-01 -6.705271e-01 4.446640e-02 8.016905e-03 5.258849e+00 4.860906e-02 4.010479e-02 6.795187e-02 1.110449e-01 7.882772e-02 -1.205602e-01 -1.182416e-01 1.846598e-02 2.845459e-02 -1.357925e-04 -2.517553e-02 -7.876305e-02 4.603994e-02 -8.457486e-03 2.375402e-02 -4.014424e-02 -4.004055e-02 -1.754468e-03 2.612353e-02 3.860051e-02 3.108999e-02 2.122927e-02 8.630512e-03 -2.722843e-02 -8.684253e-03 -3.463035e-02
<VARIANCE> 39
 2.699959e-01 4.966704e-01 9.516119e-01 8.342214e-01 4.564287e-01 1.677221e+00 9.687375e-01 5.100742e-01 3.912759e-01 2.986430e-01 4.452640e-01 1.696297e-01 1.144657e+00 2.358203e-02 4.278075e-02 6.730922e-02 4.307609e-02 3.477952e-02 6.113929e-02 6.973226e-02 4.981561e-02 2.943466e-02 2.246007e-02 3.541322e-02 1.444090e-02 2.980721e-02 4.165071e-03 7.347255e-03 1.272747e-02 7.687401e-03 7.345604e-03 1.153987e-02 1.148174e-02 1.028004e-02 7.215537e-03 4.549096e-03 8.515869e-03 3.072814e-03 3.643737e-03
<GCONST> -4.363778e+01
<STATE> 3
<MEAN> 39
 -4.941547e-01 -3.579474e-02 -1.414628e-01 4.812491e-01 6.217178e-02 -1.371535e+00 -1.469512e+00 -7.523930e-01 -4.531084e-01 -3.841019e-01 -9.549042e-02 -3.275235e-01 5.314878e+00 3.800597e-02 1.221971e-01 -9.535300e-02 -1.256186e-01 -1.586452e-02 1.039021e-01 9.503463e-02 2.700922e-02 8.090059e-02 1.558301e-03 -1.508236e-01 -6.733785e-02 -4.562925e-02 4.895884e-03 -2.387533e-02 -2.624609e-02 -4.842118e-02 -4.846410e-02 1.440633e-02 5.760107e-02 2.534441e-02 -3.259227e-03 -1.654059e-02 5.056472e-03 2.282819e-02 1.388284e-02
<VARIANCE> 39
 6.770623e-02 5.738059e-01 2.085413e-01 5.947716e-01 5.466302e-01 2.225258e-01 3.210127e-01 2.011033e-01 2.158351e-01 1.651397e-01 3.135166e-01 1.092969e-01 1.845741e-01 2.351078e-03 1.785678e-02 1.158344e-02 2.281184e-02 1.911896e-02 2.013081e-02 1.882090e-02 1.183097e-02 1.250661e-02 1.478261e-02 2.847494e-02 1.278621e-02 7.018340e-03 1.366862e-03 5.848166e-03 2.848693e-03 4.009376e-03 3.647661e-03 6.748126e-03 4.921322e-03 3.732857e-03 2.218892e-03 2.081811e-03 6.515383e-03 3.525618e-03 2.319399e-03
<GCONST> -7.663169e+01
<STATE> 4
<MEAN> 39
 -6.648523e-02 -1.540494e-01 -4.692521e-01 -2.075961e-01 2.072271e-01 -1.597955e+00 -5.000275e-01 -2.695067e-01 -3.179034e-01 -7.371901e-01 -8.837755e-01 -6.610726e-01 5.065023e+00 1.037849e-01 -6.095267e-02 -1.896407e-01 -2.285581e-01 -1.977576e-01 -3.646375e-03 2.589867e-01 1.822042e-01 8.806926e-03 -4.802072e-02 7.399266e-03 1.165742e-01 8.115530e-02 -2.438054e-03 -9.501562e-02 1.927728e-02 -2.680586e-02 -9.223973e-02 4.032484e-03 1.125460e-02 -2.548360e-02 4.036251e-03 3.424147e-03 1.201168e-01 1.115123e-01 6.244741e-02
<VARIANCE> 39
 8.824138e-02 3.796239e-01 3.342589e-01 9.478530e-01 3.053298e-01 8.184373e-01 8.653036e-01 3.939413e-01 3.095532e-01 1.665097e-01 2.662671e-01 1.542122e-01 9.958512e-01 4.304475e-03 3.322408e-02 1.491869e-02 2.866273e-02 4.277185e-02 2.896443e-02 2.548949e-02 3.151726e-02 2.179886e-02 2.068704e-02 6.581187e-02 5.047984e-02 1.363981e-02 1.289122e-03 2.127855e-03 5.512110e-03 4.504109e-03 5.251263e-03 5.893755e-03 4.534130e-03 4.920743e-03 5.009530e-03 5.323332e-03 5.906435e-03 5.141091e-03 1.121175e-03
<GCONST> -6.186098e+01
<STATE> 5
<MEAN> 39
 1.347581e-01 -6.895635e-01 -9.387189e-01 -1.085666e+00 -9.763411e-01 -1.378527e+00 1.705144e-01 9.680254e-03 -2.090681e-01 -7.383539e-01 -6.502785e-02 3.441827e-01 5.689191e+00 3.524986e-02 -2.108791e-01 -7.019863e-02 -2.294848e-01 -2.788641e-01 1.143307e-01 2.078942e-01 1.782926e-02 5.627632e-02 -6.677263e-03 2.183162e-01 2.981287e-01 1.483094e-01 -3.861805e-02 4.645182e-02 6.025271e-02 8.799328e-02 9.934909e-02 2.230825e-02 -8.196665e-02 -5.761660e-02 -3.635591e-03 6.049031e-03 -4.636939e-02 -6.024477e-02 -5.381224e-02
<VARIANCE> 39
 9.231865e-02 5.747846e-01 3.335530e-01 7.312100e-01 4.275324e-01 5.457593e-01 8.365115e-01 7.267294e-01 4.214262e-01 2.193851e-01 2.821487e-01 2.342697e-01 8.108612e-01 3.396684e-03 1.909634e-02 3.001628e-02 2.781010e-02 3.521899e-02 3.405346e-02 2.253780e-02 3.695111e-02 3.077350e-02 2.738232e-02 2.714183e-02 2.883570e-02 7.147726e-03 9.022203e-04 3.520922e-03 3.172040e-03 3.981172e-03 5.467684e-03 3.982573e-03 3.511693e-03 3.940171e-03 5.115283e-03 3.686520e-03 5.205265e-03 4.973007e-03 1.653483e-03
<GCONST> -6.335886e+01
<STATE> 6
<MEAN> 39
 -2.652782e-01 -9.866141e-01 -1.116152e+00 -1.285938e+00 -9.250560e-01 -9.720959e-01 2.722124e-01 -2.389139e-01 -2.444691e-01 -5.981232e-01 1.487105e-01 5.855244e-01 5.745954e+00 -7.907160e-02 4.259526e-02 3.350396e-02 4.047469e-02 3.530033e-02 6.182238e-02 -1.845523e-02 -3.262648e-02 -8.904105e-03 2.660353e-05 -2.605062e-02 -1.123948e-02 -1.028699e-01 -2.139937e-02 3.920443e-02 2.416716e-02 3.578245e-02 4.481553e-02 -4.228138e-03 -2.662074e-02 -5.986874e-03 -9.455392e-03 -2.123826e-03 -2.859335e-02 -4.391889e-02 -4.009449e-02
<VARIANCE> 39
 3.259450e-01 6.838342e-01 4.620898e-01 6.861984e-01 3.500897e-01 4.277084e-01 8.177013e-01 8.293595e-01 2.786278e-01 1.794115e-01 1.841765e-01 1.790524e-01 7.163317e-01 7.183333e-03 1.615328e-02 1.333971e-02 1.207565e-02 1.301787e-02 1.036873e-02 9.912371e-03 9.585523e-03 1.426411e-02 9.312985e-03 1.498355e-02 1.262930e-02 1.363000e-02 1.571605e-03 3.820811e-03 2.799775e-03 4.327287e-03 6.164248e-03 3.166903e-03 3.549611e-03 2.695590e-03 3.646243e-03 2.853312e-03 3.934116e-03 4.852314e-03 3.569224e-03
<GCONST> -7.148276e+01
<STATE> 7
<MEAN> 39
 -3.171114e-01 -4.776708e-01 -5.004765e-01 -8.656713e-01 -4.638373e-01 -1.012285e+00 -3.682774e-02 -5.356956e-01 -4.065385e-01 -8.510607e-01 -2.324176e-01 2.639755e-01 5.018773e+00 -5.732979e-02 -2.775886e-02 -4.968230e-03 9.862889e-03 5.117462e-02 6.203235e-03 -6.590106e-02 -5.124775e-02 -1.993531e-02 2.822404e-02 2.638195e-02 -1.117774e-02 -3.033446e-02 1.089989e-02 -2.785150e-02 -1.715666e-02 -2.028270e-02 -2.412824e-02 -1.444081e-02 5.303198e-03 5.982060e-03 8.867822e-03 1.414653e-02 1.585135e-02 8.187219e-03 2.936159e-02
<VARIANCE> 39
 3.589718e-01 7.179961e-01 3.424043e-01 6.749673e-01 5.470073e-01 6.839451e-01 6.942165e-01 5.946067e-01 3.463316e-01 3.370700e-01 2.639687e-01 2.842632e-01 1.263542e+00 2.967697e-02 4.588114e-02 3.357670e-02 3.467957e-02 6.135858e-02 3.838256e-02 3.009955e-02 2.755623e-02 3.913983e-02 3.970284e-02 3.260597e-02 4.000900e-02 5.344925e-02 5.485287e-03 8.001678e-03 7.136368e-03 5.507741e-03 1.235596e-02 7.591925e-03 5.949309e-03 4.840015e-03 6.371845e-03 7.137152e-03 5.839413e-03 7.579934e-03 6.711525e-03
<GCONST> -4.498872e+01
<TRANSP> 8
 0.000000e+00 8.006837e-01 1.993163e-01 0.000000e+00 0.000000e+00 0.000000e+00 0.000000e+00 0.000000e+00
 0.000000e+00 8.022545e-01 1.114037e-01 8.634178e-02 0.000000e+00 0.000000e+00 0.000000e+00 0.000000e+00
 0.000000e+00 0.000000e+00 7.294153e-01 2.373539e-01 3.323078e-02 0.000000e+00 0.000000e+00 0.000000e+00
 0.000000e+00 0.000000e+00 0.000000e+00 6.341746e-01 3.558850e-01 9.940415e-03 0.000000e+00 0.000000e+00
 0.000000e+00 0.000000e+00 0.000000e+00 0.000000e+00 5.458235e-01 4.541766e-01 0.000000e+00 0.000000e+00
 0.000000e+00 0.000000e+00 0.000000e+00 0.000000e+00 0.000000e+00 7.701969e-01 2.298031e-01 0.000000e+00
 0.000000e+00 0.000000e+00 0.000000e+00 0.000000e+00 0.000000e+00 0.000000e+00 7.794341e-01 2.205659e-01
 0.000000e+00 0.000000e+00 0.000000e+00 0.000000e+00 0.000000e+00 0.000000e+00 0.000000e+00 0.000000e+00
<ENDHMM>
