~o
<STREAMINFO> 1 39
<VECSIZE> 39<NULLD><MFCC_D_A_0><DIAGC>
~h "satu"
<BEGINHMM>
<NUMSTATES> 6
<STATE> 2
<MEAN> 39
 -2.239448e+01 -9.615562e+00 9.752211e+00 -8.952370e+00 5.364102e-01 -4.670102e-01 6.638935e+00 -8.966337e+00 9.981952e-01 -2.771448e-01 3.680546e+00 -6.496016e-01 7.285747e+01 6.000323e-01 9.860108e-02 -4.026303e-01 -3.887187e-01 -1.850982e-01 -3.464938e-01 -1.526493e-01 -5.836938e-02 -6.985183e-02 -8.165023e-02 1.141354e-01 1.680336e-01 6.994817e-01 6.854675e-01 3.304220e-01 -3.748562e-01 1.644052e-01 -9.228327e-03 -5.697687e-02 -1.192860e-01 1.560332e-01 2.094315e-02 -1.050597e-01 -7.093793e-02 9.312101e-02 -7.601423e-02
<VARIANCE> 39
 3.223968e+01 4.837674e+01 6.374668e+01 5.915016e+01 1.000688e+02 4.245412e+01 1.130891e+02 3.139073e+01 9.527823e+01 4.473820e+01 3.940954e+01 2.732840e+01 4.987708e+01 8.841481e+00 3.887933e+00 4.395858e+00 2.291323e+00 2.423188e+00 2.272050e+00 2.031754e+00 1.982699e+00 2.483759e+00 1.517188e+00 2.213980e+00 1.348263e+00 1.593493e+00 6.520879e-01 3.725244e-01 4.322170e-01 3.942094e-01 4.026400e-01 4.307114e-01 3.894689e-01 3.276811e-01 4.369146e-01 3.183998e-01 4.299008e-01 2.251576e-01 1.798200e-01
<GCONST> 1.218560e+02
<STATE> 3
<MEAN> 39
 -3.144203e+00 1.191327e+00 2.294535e+00 -1.483169e+00 -6.531260e+00 -1.489775e-01 -1.894650e+00 -1.126972e+00 1.200776e+00 -6.583566e+00 -4.143835e-01 4.677689e+00 5.994100e+01 4.363443e-01 3.560135e-01 -1.904354e-01 9.685245e-02 -8.553921e-02 -2.606896e-01 -3.530113e-02 2.822087e-01 2.561450e-01 -1.807074e-01 -2.516128e-01 -1.085061e-01 2.654213e-02 -1.281553e-01 -7.315102e-02 3.973436e-02 4.232958e-03 4.290777e-03 -1.170418e-02 2.286606e-02 -5.475382e-03 -1.688933e-02 4.171671e-02 -1.085741e-02 -5.267615e-02 -4.409023e-03
<VARIANCE> 39
 5.581828e+01 9.261620e+01 5.226082e+01 4.954369e+01 5.438350e+01 7.751383e+01 8.884005e+01 6.041371e+01 9.392595e+01 7.337212e+01 3.153182e+01 4.132205e+01 1.791871e+02 5.151146e+00 6.917466e+00 4.914012e+00 3.425667e+00 4.573829e+00 5.754539e+00 5.129629e+00 4.437801e+00 6.255481e+00 4.889040e+00 2.803136e+00 3.436721e+00 5.824938e+00 5.824159e-01 1.225988e+00 7.219087e-01 6.171494e-01 8.408737e-01 1.072168e+00 9.008532e-01 8.577959e-01 1.103967e+00 8.688416e-01 5.652907e-01 6.189300e-01 7.935523e-01
<GCONST> 1.436305e+02
<STATE> 4
<MEAN> 39
 -5.002258e-01 -8.472874e+00 6.506914e+00 -1.490110e+01 -5.221083e+00 -1.424168e+01 1.676421e+01 -1.098197e+01 3.548825e+00 -8.781998e+00 1.160422e+00 -4.683335e+00 7.467471e+01 9.461372e-02 1.532755e-01 4.331337e-02 1.547144e-01 -1.373841e-01 -7.665071e-02 -8.191475e-02 1.167857e-01 -6.337249e-02 3.356918e-02 -2.504802e-02 3.886138e-02 -2.469204e-01 -8.751275e-02 1.717776e-02 5.300091e-02 -2.088104e-02 7.408302e-02 3.372974e-02 -2.271797e-02 -4.564741e-03 5.485619e-02 -4.358697e-03 3.610009e-02 1.560455e-02 -4.517309e-03
<VARIANCE> 39
 2.916527e+01 4.035607e+01 9.783942e+01 3.153841e+01 1.599240e+02 1.337187e+02 4.229802e+01 8.279758e+01 6.601046e+01 4.477572e+01 5.188335e+01 4.955105e+01 8.258363e+01 2.128736e+00 2.209771e+00 2.831585e+00 2.147624e+00 7.045998e+00 4.321548e+00 2.182473e+00 5.910296e+00 3.228095e+00 3.200073e+00 3.025416e+00 3.478627e+00 4.487472e+00 2.668723e-01 4.381795e-01 3.418697e-01 3.374345e-01 7.609041e-01 6.011828e-01 4.150096e-01 9.801039e-01 5.529590e-01 5.669029e-01 5.467955e-01 6.289226e-01 6.126223e-01
<GCONST> 1.319833e+02
<STATE> 5
<MEAN> 39
 -3.957990e+00 6.345458e+00 -1.228995e+00 -3.007212e-02 -6.315584e+00 -9.217096e+00 -4.086967e+00 5.131726e-01 -8.062305e-03 -5.793200e+00 -1.998020e+00 -9.077557e-01 6.734135e+01 -3.130681e-01 3.446011e-02 3.958165e-02 1.520834e-01 8.098565e-02 1.057339e-01 7.124923e-03 -4.143877e-02 -9.982131e-02 4.967978e-02 -1.536883e-02 -7.010465e-02 -3.884154e-01 -3.597981e-02 -2.826008e-02 7.669758e-03 -1.921694e-02 8.305352e-03 1.632348e-02 8.554055e-03 -3.063241e-02 -3.269744e-02 -1.494772e-03 1.677145e-02 8.556396e-03 -7.548940e-03
<VARIANCE> 39
 4.004740e+01 5.280456e+01 7.457367e+01 4.959486e+01 3.723373e+01 6.440306e+01 3.219726e+01 4.969895e+01 3.541071e+01 4.653423e+01 1.978500e+01 4.217442e+01 4.914242e+01 1.393142e+00 9.902039e-01 1.247195e+00 1.134026e+00 1.458689e+00 1.844350e+00 1.465540e+00 1.533805e+00 1.837156e+00 2.027122e+00 1.297366e+00 1.119573e+00 1.207433e+00 1.959731e-01 1.593578e-01 1.855148e-01 1.985155e-01 2.371320e-01 2.538805e-01 2.622881e-01 2.464988e-01 3.225312e-01 3.431159e-01 2.588240e-01 2.044623e-01 1.637743e-01
<GCONST> 1.058170e+02
<TRANSP> 6
 0.000000e+00 7.006812e-01 2.993189e-01 0.000000e+00 0.000000e+00 0.000000e+00
 0.000000e+00 9.031920e-01 7.601760e-02 2.079035e-02 0.000000e+00 0.000000e+00
 0.000000e+00 0.000000e+00 9.531037e-01 9.702037e-03 3.719429e-02 0.000000e+00
 0.000000e+00 0.000000e+00 0.000000e+00 9.717149e-01 1.933407e-03 2.635172e-02
 0.000000e+00 0.000000e+00 0.000000e+00 0.000000e+00 9.692875e-01 3.071260e-02
 0.000000e+00 0.000000e+00 0.000000e+00 0.000000e+00 0.000000e+00 0.000000e+00
<ENDHMM>
