~o
<STREAMINFO> 1 39
<VECSIZE> 39<NULLD><MFCC_D_A_0><DIAGC>
~h "sebelas"
<BEGINHMM>
<NUMSTATES> 6
<STATE> 2
<MEAN> 39
 -1.833978e+01 -1.012213e+01 7.746493e+00 -3.023483e+00 -3.269626e+00 1.859760e+00 1.396308e+00 -5.422791e+00 -4.748046e+00 2.243956e-01 3.590096e+00 1.836099e+00 6.355427e+01 8.557057e-01 5.961505e-01 -2.274514e-01 3.661583e-01 3.350888e-01 -2.985949e-01 -3.691410e-01 -1.254836e-01 -1.969300e-01 -4.098065e-01 -1.276132e-01 1.852183e-01 1.238127e-01 4.528233e-01 4.727987e-01 -1.120088e-01 3.026098e-01 1.332836e-01 -1.259800e-01 -9.594305e-02 1.584547e-01 8.429479e-02 -2.984891e-01 -1.649684e-01 -4.715670e-03 -3.256604e-02
<VARIANCE> 39
 5.656277e+01 8.591111e+01 7.182457e+01 5.755520e+01 6.101748e+01 3.780024e+01 7.804185e+01 3.419969e+01 7.061159e+01 3.712750e+01 2.432189e+01 2.493188e+01 1.285950e+02 8.016369e+00 1.032790e+01 7.061350e+00 6.333512e+00 4.333947e+00 4.280732e+00 2.828784e+00 3.056770e+00 4.696610e+00 4.088123e+00 2.317012e+00 2.261331e+00 2.782856e+00 5.066899e-01 7.442095e-01 1.127846e+00 7.692961e-01 6.394493e-01 7.583545e-01 4.560939e-01 5.528162e-01 8.411968e-01 6.173297e-01 5.331216e-01 4.702034e-01 3.498368e-01
<GCONST> 1.358828e+02
<STATE> 3
<MEAN> 39
 -5.016976e+00 -8.705981e+00 1.110852e+01 -1.736185e+01 8.459575e+00 -1.317667e+01 1.844941e+01 -1.471280e+01 7.215474e-01 -7.990555e+00 8.209314e-01 -1.283551e-01 7.991203e+01 1.849416e-01 -7.121637e-02 -1.282841e-01 9.586508e-02 -1.131507e-01 5.199112e-02 -1.198755e-02 8.448159e-02 2.409290e-03 5.872602e-02 2.054397e-02 -1.069765e-02 -8.382963e-02 6.998261e-04 -1.078757e-02 -1.275964e-02 -7.072313e-03 4.910389e-03 3.244691e-03 5.151361e-03 -5.090179e-03 -5.483507e-03 7.047253e-03 3.496235e-03 3.652512e-03 -2.755820e-03
<VARIANCE> 39
 1.214273e+02 6.042886e+01 7.930618e+01 5.040407e+01 1.228235e+02 6.595573e+01 4.736290e+01 7.017651e+01 9.810157e+01 4.460899e+01 5.320332e+01 3.639491e+01 5.655133e+01 3.969536e+00 3.409022e+00 3.518228e+00 2.366271e+00 4.969767e+00 3.083188e+00 3.513331e+00 4.354229e+00 5.196592e+00 3.335945e+00 3.021475e+00 2.754569e+00 2.916813e+00 4.467529e-01 4.441354e-01 4.163848e-01 3.288148e-01 6.550233e-01 5.451472e-01 6.482217e-01 7.417483e-01 8.555655e-01 5.823994e-01 4.890741e-01 4.839381e-01 4.261797e-01
<GCONST> 1.338329e+02
<STATE> 4
<MEAN> 39
 -2.767524e+00 1.526845e+00 3.856647e+00 4.502624e+00 -2.229552e+00 8.146230e-01 -1.320280e+00 -2.277551e+00 -2.586139e+00 -8.659969e+00 -9.016796e-01 3.674283e+00 6.162706e+01 1.215130e-01 4.326411e-02 -1.341539e-01 1.838219e-03 -7.350011e-02 -1.669289e-01 1.229666e-02 4.845820e-02 -6.626058e-02 -7.946963e-02 -7.254268e-02 3.418571e-02 2.494329e-03 -9.523591e-02 -1.150418e-01 -4.771663e-03 -7.356066e-02 -3.873505e-02 2.413299e-03 2.120592e-02 -2.256487e-02 -3.160162e-02 5.769518e-02 5.231053e-02 1.079506e-02 9.713983e-03
<VARIANCE> 39
 8.156460e+01 1.227971e+02 5.855846e+01 5.053203e+01 7.626047e+01 7.093669e+01 4.277308e+01 6.954216e+01 5.113129e+01 5.249031e+01 5.317401e+01 4.106379e+01 1.222181e+02 4.302033e+00 4.987319e+00 4.409374e+00 3.077189e+00 4.169976e+00 5.046854e+00 3.249831e+00 3.134954e+00 3.635982e+00 3.864372e+00 3.522502e+00 2.715384e+00 2.322541e+00 6.324259e-01 6.674621e-01 7.125642e-01 5.287815e-01 7.119111e-01 8.939226e-01 6.484846e-01 5.842105e-01 6.704529e-01 7.090594e-01 5.917429e-01 4.891970e-01 3.621368e-01
<GCONST> 1.363901e+02
<STATE> 5
<MEAN> 39
 -8.287023e+00 -2.069639e+00 -1.655342e+00 -5.702132e+00 -5.176773e+00 -5.289521e+00 -1.399894e+00 -4.219805e+00 -1.942003e+00 -3.162671e+00 2.312770e+00 3.712728e+00 7.274815e+01 -3.306873e-01 -8.928164e-02 -2.000795e-03 -1.545195e-01 -2.640059e-02 1.994984e-01 6.690507e-02 -1.528996e-02 1.679644e-01 2.274319e-01 7.867531e-02 -6.952749e-02 -2.460320e-01 8.721588e-03 4.010359e-02 2.711999e-03 3.172574e-02 2.123492e-02 1.967101e-02 -4.739048e-03 5.620951e-03 1.290762e-02 -1.422689e-02 -1.983765e-02 -2.185383e-02 -2.634783e-02
<VARIANCE> 39
 1.300290e+02 5.255220e+01 8.670729e+01 6.392001e+01 3.451619e+01 5.776022e+01 3.563508e+01 4.119740e+01 5.053437e+01 5.206837e+01 2.882482e+01 3.555769e+01 5.097070e+01 2.057423e+00 1.370038e+00 1.828408e+00 1.884009e+00 1.138159e+00 1.392847e+00 1.146692e+00 1.416726e+00 1.880450e+00 1.344810e+00 1.283029e+00 9.835165e-01 6.860761e-01 2.157313e-01 1.794364e-01 1.841028e-01 2.674575e-01 1.954212e-01 2.546405e-01 2.107311e-01 2.556154e-01 2.993113e-01 2.231753e-01 2.265455e-01 1.657110e-01 7.557599e-02
<GCONST> 1.060025e+02
<TRANSP> 6
 0.000000e+00 8.048825e-01 1.951174e-01 0.000000e+00 0.000000e+00 0.000000e+00
 0.000000e+00 8.672437e-01 0.000000e+00 1.327563e-01 0.000000e+00 0.000000e+00
 0.000000e+00 0.000000e+00 9.839818e-01 6.679031e-03 9.339171e-03 0.000000e+00
 0.000000e+00 0.000000e+00 0.000000e+00 9.619374e-01 2.180832e-02 1.625429e-02
 0.000000e+00 0.000000e+00 0.000000e+00 0.000000e+00 9.720381e-01 2.796191e-02
 0.000000e+00 0.000000e+00 0.000000e+00 0.000000e+00 0.000000e+00 0.000000e+00
<ENDHMM>
