~o
<STREAMINFO> 1 39
<VECSIZE> 39<NULLD><PLP_D_A_0><DIAGC>
~h "sebelas"
<BEGINHMM>
<NUMSTATES> 8
<STATE> 2
<MEAN> 39
 -1.783000e+00 -1.728490e+00 3.109117e-01 -1.120787e+00 -6.765880e-01 -6.005108e-01 -1.861445e-01 -9.180241e-01 -6.496449e-01 -9.749921e-02 3.699653e-01 4.109285e-01 5.224843e+00 2.181377e-01 1.198378e-01 -5.779560e-02 7.819401e-02 -5.326068e-03 -1.072362e-01 -4.175564e-02 -5.744845e-03 -5.492712e-02 -8.666899e-02 -3.898222e-02 1.739728e-02 2.276724e-02 8.023559e-02 1.107185e-01 -3.905368e-02 6.740262e-02 3.088612e-02 -8.153967e-03 -1.118354e-02 2.487410e-02 9.655759e-03 -4.984798e-02 -4.582838e-02 -3.026817e-02 -4.629163e-02
<VARIANCE> 39
 7.104940e-01 5.755445e-01 5.040532e-01 6.393219e-01 4.980498e-01 5.535356e-01 6.984273e-01 4.063636e-01 4.769225e-01 2.417712e-01 1.706724e-01 1.184424e-01 1.331301e+00 1.447679e-01 1.625881e-01 7.580129e-02 7.094780e-02 4.477720e-02 3.660178e-02 3.825658e-02 3.280117e-02 5.101134e-02 4.592254e-02 2.974540e-02 1.526735e-02 4.132948e-02 1.910316e-02 1.832544e-02 1.360167e-02 9.021985e-03 7.371872e-03 9.456325e-03 7.057614e-03 5.964606e-03 9.715226e-03 5.937809e-03 4.878536e-03 3.242162e-03 7.505279e-03
<GCONST> -3.999835e+01
<STATE> 3
<MEAN> 39
 -3.431914e-01 -7.794154e-02 -2.451413e-01 -2.189639e-01 -2.830407e-01 -9.662483e-01 -4.819339e-01 -5.811266e-01 -6.787217e-01 -1.032913e+00 -4.120950e-01 3.107020e-02 4.885294e+00 1.271286e-01 4.429153e-02 -7.483062e-02 7.054424e-02 1.172083e-02 -3.702226e-02 -3.081962e-02 2.592880e-02 -1.431619e-02 -8.892633e-02 -6.637375e-02 6.353663e-03 9.610889e-03 -4.041167e-02 -1.056582e-01 2.245549e-03 -5.034826e-02 -4.829845e-02 -3.730178e-03 2.752959e-03 -2.033732e-02 -5.865075e-03 3.405780e-02 5.173095e-02 4.574933e-02 4.755992e-02
<VARIANCE> 39
 2.424740e-01 3.966863e-01 3.969228e-01 4.293371e-01 3.102413e-01 4.508513e-01 4.046502e-01 3.924817e-01 2.175359e-01 2.394510e-01 1.967994e-01 1.414802e-01 8.020487e-01 3.454109e-02 1.113872e-01 3.490602e-02 3.089895e-02 4.151675e-02 5.966793e-02 2.798421e-02 2.224368e-02 3.180730e-02 2.464174e-02 4.471749e-02 4.004055e-02 4.440743e-02 9.717425e-03 9.725300e-03 8.207012e-03 4.822280e-03 6.260966e-03 1.341902e-02 5.973288e-03 4.481247e-03 6.258959e-03 5.476389e-03 6.424604e-03 5.858575e-03 7.569666e-03
<GCONST> -5.003231e+01
<STATE> 4
<MEAN> 39
 5.739731e-03 -1.027277e+00 -6.514572e-01 -8.679084e-01 -9.708531e-01 -1.380249e+00 -2.300433e-01 -8.296344e-01 -6.917657e-01 -6.054056e-01 9.478214e-02 6.727102e-01 5.941592e+00 8.428032e-03 -1.240114e-01 -6.287683e-02 -1.133871e-01 -1.024040e-01 3.010852e-02 7.169062e-02 2.759757e-02 1.229566e-01 1.309467e-01 8.227991e-02 3.439734e-02 9.747075e-02 -2.036064e-02 2.132174e-02 1.506244e-02 1.916110e-03 2.605173e-02 2.373118e-02 1.092556e-02 1.024500e-02 1.689312e-02 3.349696e-03 -5.843144e-03 -2.818521e-02 -1.785553e-02
<VARIANCE> 39
 1.198880e-01 6.741133e-01 6.464154e-01 7.473692e-01 4.598829e-01 5.956598e-01 7.088900e-01 6.324515e-01 6.019751e-01 5.296390e-01 3.101486e-01 1.339242e-01 5.884272e-01 5.415772e-03 1.467247e-02 2.440225e-02 1.297511e-02 2.221601e-02 2.744920e-02 2.061618e-02 2.593916e-02 3.826915e-02 1.990268e-02 2.331843e-02 2.155024e-02 6.305738e-03 2.196742e-03 3.201787e-03 4.653674e-03 2.956515e-03 3.964557e-03 3.645193e-03 4.623913e-03 4.352587e-03 7.699251e-03 5.865375e-03 4.128931e-03 3.216057e-03 1.383482e-03
<GCONST> -6.362846e+01
<STATE> 5
<MEAN> 39
 -1.369541e-01 -1.407734e+00 -6.718351e-01 -1.220140e+00 -9.676034e-01 -7.842516e-01 -2.823165e-02 -6.637715e-01 7.332288e-02 -3.007314e-01 3.014355e-01 5.099722e-01 5.997582e+00 -2.220748e-01 1.227856e-02 2.448222e-01 -4.380671e-02 1.127316e-01 1.224864e-01 -5.014379e-02 -6.284326e-02 -7.926682e-02 -1.177788e-02 1.957105e-02 -6.105375e-02 -3.710488e-02 -9.339449e-02 -2.953427e-03 7.123761e-02 -2.476694e-02 1.540615e-02 -2.722277e-03 -1.151469e-02 -7.274266e-03 -3.728272e-02 9.094079e-03 -1.274121e-02 -8.947490e-03 -1.114624e-02
<VARIANCE> 39
 9.784015e-02 5.205169e-01 6.822847e-01 8.767663e-01 3.860521e-01 7.930517e-01 7.753089e-01 4.594882e-01 3.620929e-01 2.881148e-01 2.298175e-01 1.689248e-01 1.029701e+00 4.192702e-02 4.387008e-02 4.131430e-02 2.397572e-02 2.495431e-02 1.665161e-02 2.671887e-02 2.020977e-02 3.070554e-02 2.432775e-02 2.055768e-02 1.195777e-02 4.696262e-03 4.440702e-03 6.375906e-03 5.521699e-03 4.638450e-03 6.980930e-03 4.801507e-03 6.292691e-03 5.307799e-03 6.501872e-03 4.200882e-03 3.874389e-03 2.962226e-03 1.231606e-03
<GCONST> -5.914407e+01
<STATE> 6
<MEAN> 39
 -2.044603e+00 -1.541423e+00 7.196787e-01 -1.837467e+00 -4.632823e-01 -4.294962e-01 7.462937e-02 -8.006009e-01 -2.383841e-01 -2.610019e-02 2.463338e-01 2.729912e-01 5.911622e+00 -1.999283e-01 -6.187216e-02 3.970837e-02 -3.186401e-02 -2.624071e-03 2.297214e-02 3.844032e-02 6.959553e-03 -1.160006e-02 4.177248e-02 9.761318e-04 -3.179264e-03 -1.120619e-01 1.021210e-01 3.053204e-02 -1.058939e-01 5.451959e-02 -2.048035e-02 -2.610837e-02 -4.946916e-03 6.216399e-03 1.604155e-02 -1.994284e-02 -3.067547e-05 1.315170e-02 -3.653144e-02
<VARIANCE> 39
 3.490149e-01 5.174395e-01 7.223995e-01 5.640109e-01 1.267806e+00 3.936434e-01 7.439588e-01 1.892141e-01 3.781033e-01 2.409388e-01 2.229377e-01 7.853267e-02 5.201434e-01 7.973035e-02 4.869346e-02 6.756257e-02 4.205050e-02 3.602033e-02 3.059019e-02 2.168654e-02 2.408601e-02 2.145018e-02 1.733389e-02 9.852863e-03 7.421030e-03 1.525216e-02 6.457584e-03 1.110177e-02 6.403958e-03 6.196017e-03 6.075496e-03 5.062223e-03 5.836983e-03 4.036468e-03 5.775500e-03 4.004498e-03 1.678494e-03 1.649692e-03 1.919393e-03
<GCONST> -5.851923e+01
<STATE> 7
<MEAN> 39
 -1.566597e+00 -1.241726e+00 -4.236100e-01 -1.107758e+00 -7.988084e-01 -6.286932e-01 -2.403416e-01 -7.415588e-01 -3.329333e-01 -2.753646e-01 3.631026e-01 3.679554e-01 4.653254e+00 1.320619e-01 1.243571e-01 -1.496596e-01 8.041196e-02 2.111764e-02 -5.038057e-02 -1.805778e-02 2.988263e-03 1.887006e-03 -2.780522e-02 -2.619416e-02 -8.290566e-03 -1.023508e-01 1.409234e-03 -1.838389e-04 2.716990e-02 -1.263827e-02 1.169333e-02 1.630413e-04 1.066800e-03 -1.103771e-03 -2.842723e-03 -7.613270e-04 -4.573308e-03 -5.305083e-03 3.682736e-02
<VARIANCE> 39
 5.322254e-01 5.111203e-01 4.295973e-01 3.621105e-01 6.918792e-01 4.546798e-01 5.133995e-01 1.911449e-01 2.955644e-01 2.456475e-01 2.233697e-01 1.263226e-01 1.010890e+00 3.558169e-02 4.765654e-02 4.134977e-02 3.385033e-02 4.188309e-02 2.991376e-02 1.978989e-02 2.430313e-02 2.679735e-02 2.576523e-02 2.056786e-02 1.256852e-02 4.713940e-02 7.297479e-03 6.701520e-03 6.223860e-03 5.272842e-03 7.701880e-03 6.282177e-03 3.499011e-03 4.788482e-03 5.541101e-03 4.414724e-03 4.154675e-03 2.374155e-03 7.268668e-03
<GCONST> -5.526217e+01
<TRANSP> 8
 0.000000e+00 8.517300e-01 1.482700e-01 0.000000e+00 0.000000e+00 0.000000e+00 0.000000e+00 0.000000e+00
 0.000000e+00 7.840077e-01 2.159923e-01 0.000000e+00 0.000000e+00 0.000000e+00 0.000000e+00 0.000000e+00
 0.000000e+00 0.000000e+00 8.315279e-01 1.684721e-01 0.000000e+00 0.000000e+00 0.000000e+00 0.000000e+00
 0.000000e+00 0.000000e+00 0.000000e+00 8.605608e-01 1.394392e-01 0.000000e+00 0.000000e+00 0.000000e+00
 0.000000e+00 0.000000e+00 0.000000e+00 0.000000e+00 7.733161e-01 2.266839e-01 0.000000e+00 0.000000e+00
 0.000000e+00 0.000000e+00 0.000000e+00 0.000000e+00 0.000000e+00 8.191739e-01 1.808260e-01 0.000000e+00
 0.000000e+00 0.000000e+00 0.000000e+00 0.000000e+00 0.000000e+00 0.000000e+00 8.164062e-01 1.835938e-01
 0.000000e+00 0.000000e+00 0.000000e+00 0.000000e+00 0.000000e+00 0.000000e+00 0.000000e+00 0.000000e+00
<ENDHMM>
