~o
<STREAMINFO> 1 36
<VECSIZE> 36<NULLD><LPC_D_A><DIAGC>
~h "sepuluh"
<BEGINHMM>
<NUMSTATES> 8
<STATE> 2
<MEAN> 36
 -1.932094e+00 2.967658e+00 -3.428423e+00 3.876883e+00 -3.629727e+00 3.357133e+00 -2.558924e+00 1.852945e+00 -9.894074e-01 5.272626e-01 -1.815182e-01 8.018922e-02 -5.738679e-03 -3.182789e-02 3.006882e-02 -1.139754e-01 1.386055e-01 -1.730859e-01 1.720438e-01 -1.711667e-01 1.302146e-01 -9.124449e-02 4.880494e-02 -2.149233e-02 4.191023e-02 -5.969542e-02 4.260458e-02 -2.781294e-02 1.575301e-02 -1.322970e-02 6.613000e-03 -5.756404e-03 1.827791e-03 -5.346361e-03 -8.542682e-04 4.041634e-04
<VARIANCE> 36
 5.533550e-01 1.972268e+00 5.916640e+00 9.311765e+00 1.213119e+01 1.111183e+01 8.684472e+00 5.129714e+00 2.400180e+00 9.033583e-01 1.965034e-01 2.980249e-02 5.582486e-02 1.574384e-01 2.370236e-01 3.941467e-01 5.083849e-01 6.036514e-01 5.167947e-01 3.984652e-01 2.034322e-01 9.780625e-02 2.236205e-02 3.890753e-03 9.828739e-03 3.031222e-02 4.739207e-02 7.486725e-02 9.307677e-02 1.006824e-01 8.381078e-02 6.285644e-02 3.249442e-02 1.633016e-02 4.101275e-03 7.420413e-04
<GCONST> 7.540761e+00
<STATE> 3
<MEAN> 36
 -6.489215e-01 1.073536e-01 -2.508662e-01 2.736929e-01 -2.136395e-01 2.466839e-01 -1.934957e-01 2.051099e-01 -1.874349e-01 1.185792e-01 -1.185713e-01 1.202134e-01 1.537299e-02 -3.107053e-02 -4.777244e-04 -1.536024e-02 -3.188171e-03 -1.470293e-02 -1.025279e-03 -9.811701e-03 1.643782e-03 -6.495980e-03 -6.907000e-04 4.554750e-05 -2.034401e-03 6.568074e-03 -2.862721e-03 1.430673e-03 -9.798575e-05 5.856262e-04 -1.309577e-03 1.116891e-03 -1.133143e-03 1.878889e-03 -4.973795e-04 1.547474e-04
<VARIANCE> 36
 2.507039e-01 1.974086e-01 1.864117e-01 1.220982e-01 9.165043e-02 7.828038e-02 7.858631e-02 5.639410e-02 3.294565e-02 3.617224e-02 2.229417e-02 1.398034e-02 2.872408e-02 1.973279e-02 1.194482e-02 1.013593e-02 7.453917e-03 6.606886e-03 3.681641e-03 4.648110e-03 2.763225e-03 1.937675e-03 1.719651e-03 1.214175e-03 5.634435e-03 4.165938e-03 2.771328e-03 2.216786e-03 1.706499e-03 1.320199e-03 8.233906e-04 9.206869e-04 6.066415e-04 3.975981e-04 3.619213e-04 2.585096e-04
<GCONST> -1.095710e+02
<STATE> 4
<MEAN> 36
 -5.366266e-01 6.883716e-01 -1.110397e+00 1.170498e+00 -1.249349e+00 1.066878e+00 -9.055115e-01 6.108453e-01 -3.444409e-01 1.543858e-01 -1.115487e-01 7.426292e-02 1.966766e-02 4.768248e-02 -2.820948e-02 1.400853e-02 -9.750717e-03 2.752835e-02 -4.424573e-02 2.641282e-02 -4.006984e-02 3.671221e-02 -1.740881e-02 -8.565541e-04 -4.607457e-02 2.830321e-02 -2.342654e-02 3.980546e-02 -4.189324e-02 5.312105e-02 -3.799212e-02 4.135171e-02 -3.886547e-02 2.212556e-02 -1.070637e-02 8.304654e-03
<VARIANCE> 36
 7.827795e-01 2.289734e+00 3.832422e+00 6.717100e+00 7.399608e+00 7.982244e+00 5.597882e+00 3.606830e+00 1.508776e+00 5.672516e-01 1.222692e-01 2.896401e-02 3.027117e-02 2.449165e-02 2.615310e-02 1.546639e-02 2.973002e-02 1.915170e-02 2.395262e-02 1.467812e-02 1.368149e-02 6.729404e-03 3.209594e-03 1.145385e-03 4.344053e-03 8.610432e-03 2.344196e-02 5.401373e-02 7.946028e-02 9.309166e-02 8.222783e-02 6.006104e-02 3.062562e-02 1.256104e-02 3.646252e-03 7.678247e-04
<GCONST> -2.870214e+01
<STATE> 5
<MEAN> 36
 -2.661591e+00 4.692754e+00 -6.800976e+00 8.316436e+00 -8.827969e+00 8.262746e+00 -6.897792e+00 4.995376e+00 -3.098864e+00 1.606743e+00 -6.436444e-01 1.758354e-01 1.078944e-02 -9.098914e-03 -4.418734e-03 2.030536e-02 -4.594878e-02 5.005918e-02 -6.127836e-02 5.358607e-02 -4.996423e-02 2.888300e-02 -1.804354e-02 6.221237e-03 1.090464e-02 -1.965828e-02 3.250716e-02 -3.985358e-02 4.451247e-02 -3.871551e-02 3.185805e-02 -2.160067e-02 1.405565e-02 -7.845229e-03 4.116358e-03 -1.800983e-03
<VARIANCE> 36
 2.747822e-01 2.020544e+00 7.211776e+00 1.651007e+01 2.634260e+01 3.234657e+01 3.153369e+01 2.395636e+01 1.350344e+01 5.142392e+00 1.100424e+00 8.256464e-02 4.000012e-02 2.735621e-01 8.864725e-01 1.945251e+00 2.957603e+00 3.524700e+00 3.352078e+00 2.513308e+00 1.389607e+00 5.277345e-01 1.171311e-01 1.012920e-02 7.077581e-03 5.074415e-02 1.644720e-01 3.620959e-01 5.498084e-01 6.537467e-01 6.281171e-01 4.726098e-01 2.639917e-01 1.004608e-01 2.262406e-02 2.043850e-03
<GCONST> 5.242817e+01
<STATE> 6
<MEAN> 36
 -5.570347e-01 7.122051e-01 -1.155537e+00 1.244644e+00 -1.355257e+00 1.253886e+00 -1.140512e+00 8.201037e-01 -5.889341e-01 3.212074e-01 -2.029352e-01 9.919105e-02 1.557858e-02 -3.381851e-03 8.605254e-02 -1.213249e-01 1.531397e-01 -1.223506e-01 1.172073e-01 -8.315948e-02 4.327957e-02 -2.045553e-02 1.211089e-02 -7.021922e-03 -4.111995e-02 2.781488e-02 -2.855653e-02 4.609544e-02 -4.839984e-02 4.132469e-02 -1.286372e-02 1.077973e-02 4.339626e-04 -4.140396e-03 5.597592e-03 2.393335e-03
<VARIANCE> 36
 7.057185e-01 2.187211e+00 4.149808e+00 7.274146e+00 8.815610e+00 8.671312e+00 6.538540e+00 3.969630e+00 1.821090e+00 6.055683e-01 1.434363e-01 2.324892e-02 4.787720e-02 5.943542e-02 1.355944e-01 2.425544e-01 3.281537e-01 3.332991e-01 2.468709e-01 1.478332e-01 6.614067e-02 2.356789e-02 5.486205e-03 1.875520e-03 4.849151e-03 2.060955e-02 4.928137e-02 9.109704e-02 1.288233e-01 1.455576e-01 1.326381e-01 9.627874e-02 5.048123e-02 1.954030e-02 4.824648e-03 6.720143e-04
<GCONST> -3.270719e+00
<STATE> 7
<MEAN> 36
 -6.047398e-01 7.704384e-01 -1.070702e+00 1.039145e+00 -1.073395e+00 9.235796e-01 -7.830731e-01 5.563073e-01 -4.351424e-01 2.258451e-01 -1.465903e-01 6.845575e-02 -3.195398e-02 3.858044e-02 2.298764e-02 -2.359261e-02 3.669623e-02 -2.698790e-02 5.396894e-02 -3.304747e-02 2.309335e-02 -1.313286e-02 1.591229e-02 -2.478892e-03 -2.700752e-02 1.867396e-02 -3.621895e-02 6.110736e-02 -6.457593e-02 5.410492e-02 -3.611424e-02 1.988717e-02 -6.358023e-04 -3.209407e-03 4.517804e-03 3.210410e-03
<VARIANCE> 36
 7.031580e-01 1.555983e+00 2.694664e+00 4.249921e+00 4.753380e+00 4.545229e+00 3.377175e+00 2.072711e+00 9.834553e-01 3.830679e-01 9.540983e-02 1.711756e-02 3.885054e-02 8.592926e-02 2.417918e-01 4.934808e-01 7.322150e-01 8.381612e-01 7.312330e-01 5.074974e-01 2.566269e-01 9.248296e-02 2.057950e-02 3.052515e-03 5.195891e-03 1.210679e-02 2.248488e-02 3.339411e-02 4.380064e-02 4.141348e-02 3.052674e-02 1.773934e-02 8.625634e-03 3.662941e-03 9.168528e-04 2.617042e-04
<GCONST> -1.271368e+01
<TRANSP> 8
 0.000000e+00 4.833948e-01 5.166052e-01 0.000000e+00 0.000000e+00 0.000000e+00 0.000000e+00 0.000000e+00
 0.000000e+00 8.516262e-01 8.698555e-02 6.138832e-02 0.000000e+00 0.000000e+00 0.000000e+00 0.000000e+00
 0.000000e+00 0.000000e+00 9.608172e-01 3.918283e-02 0.000000e+00 0.000000e+00 0.000000e+00 0.000000e+00
 0.000000e+00 0.000000e+00 0.000000e+00 0.000000e+00 1.749994e-01 8.250006e-01 0.000000e+00 0.000000e+00
 0.000000e+00 0.000000e+00 0.000000e+00 0.000000e+00 9.453131e-01 5.468688e-02 0.000000e+00 0.000000e+00
 0.000000e+00 0.000000e+00 0.000000e+00 0.000000e+00 0.000000e+00 0.000000e+00 1.000000e+00 0.000000e+00
 0.000000e+00 0.000000e+00 0.000000e+00 0.000000e+00 0.000000e+00 0.000000e+00 9.085400e-02 9.091460e-01
 0.000000e+00 0.000000e+00 0.000000e+00 0.000000e+00 0.000000e+00 0.000000e+00 0.000000e+00 0.000000e+00
<ENDHMM>
