~o
<STREAMINFO> 1 39
<VECSIZE> 39<NULLD><MFCC_D_A_0><DIAGC>
~h "sepuluh"
<BEGINHMM>
<NUMSTATES> 6
<STATE> 2
<MEAN> 39
 -1.344818e+01 -4.961154e+00 3.778068e+00 -2.230394e+00 -4.364312e-01 2.753633e+00 -2.318373e+00 -1.792590e+00 -9.728174e-01 -1.226484e+00 3.834634e-01 3.128716e+00 6.291768e+01 6.313082e-01 6.697612e-01 -5.259984e-01 4.117716e-01 7.485045e-02 -5.217506e-01 -4.074915e-01 2.978804e-01 1.872853e-01 -2.687588e-02 -2.050915e-02 -1.102893e-01 -1.543891e-01 1.667729e-01 2.133689e-01 -7.229741e-02 1.620514e-01 -9.660807e-03 -2.167482e-01 -9.462388e-02 1.603775e-01 1.326813e-02 -1.791208e-02 -4.897742e-02 -8.645483e-02 -5.503735e-02
<VARIANCE> 39
 5.371877e+01 7.684985e+01 5.144807e+01 4.513696e+01 4.215311e+01 3.733906e+01 4.015574e+01 2.657448e+01 3.197145e+01 2.781479e+01 1.936599e+01 2.126287e+01 8.556489e+01 5.279800e+00 6.181863e+00 3.769651e+00 4.161401e+00 3.574428e+00 4.688821e+00 3.681944e+00 2.537096e+00 2.585527e+00 2.177590e+00 2.396593e+00 1.916578e+00 2.655460e+00 8.162560e-01 7.065286e-01 6.735882e-01 5.841667e-01 5.567560e-01 8.493306e-01 6.823881e-01 4.490259e-01 4.606629e-01 4.870354e-01 4.059563e-01 3.153955e-01 2.819070e-01
<GCONST> 1.266375e+02
<STATE> 3
<MEAN> 39
 2.686330e+00 5.800262e+00 -1.335269e+00 4.672719e+00 -2.281321e+00 -2.188233e+00 -6.579029e+00 6.855887e+00 7.483675e+00 -1.073289e+01 -6.924569e+00 1.584501e+00 5.032560e+01 4.251410e-01 2.026856e-01 4.237818e-02 -8.298092e-02 -2.754729e-01 -1.486044e-01 -5.014910e-02 3.509401e-01 3.782741e-01 -2.640022e-01 -2.530628e-01 -1.780242e-02 2.379274e-01 -5.564150e-02 -1.812950e-01 -2.650943e-02 -6.973359e-02 -6.589145e-03 8.372432e-02 3.151196e-02 -4.940908e-02 -2.335710e-02 1.795523e-02 2.797810e-03 3.181256e-02 4.362900e-02
<VARIANCE> 39
 5.516066e+01 3.227859e+01 6.404029e+01 1.939667e+01 8.459824e+01 4.069879e+01 4.102409e+01 4.152716e+01 6.765298e+01 6.850256e+01 4.269197e+01 3.896830e+01 4.683670e+01 2.376330e+00 3.643076e+00 8.085091e+00 2.359625e+00 1.010113e+01 4.633133e+00 4.642746e+00 3.896699e+00 7.394042e+00 5.948853e+00 4.150507e+00 4.186474e+00 2.010611e+00 4.055404e-01 8.199773e-01 1.345412e+00 5.388309e-01 1.839857e+00 8.398678e-01 9.408565e-01 6.699024e-01 1.348506e+00 1.226733e+00 8.363835e-01 7.430453e-01 3.561145e-01
<GCONST> 1.383076e+02
<STATE> 4
<MEAN> 39
 3.284913e-01 3.569129e+00 -2.705634e+00 6.504200e+00 -2.211139e-01 -1.188076e+01 -9.045423e+00 7.542370e+00 3.250190e+00 -4.730308e+00 -5.344436e+00 -2.106827e+00 6.983475e+01 -2.576516e-01 -7.246503e-02 -1.243395e-01 -7.249843e-02 3.438711e-02 2.225798e-01 3.014008e-01 1.900599e-02 -7.344776e-02 -4.873965e-02 -7.384962e-02 6.674074e-02 -1.896072e-01 -7.141892e-02 3.679513e-04 6.126614e-03 -3.396427e-02 3.236539e-02 1.174990e-01 3.866763e-02 -7.297754e-02 -1.668125e-02 3.828305e-02 3.299147e-02 3.123991e-02 -5.110320e-02
<VARIANCE> 39
 1.170916e+01 3.516552e+01 4.904089e+01 2.476214e+01 4.379768e+01 3.723746e+01 4.398218e+01 3.316344e+01 2.497179e+01 3.260479e+01 1.792141e+01 2.384936e+01 2.501583e+01 4.013420e-01 7.705490e-01 1.448611e+00 1.440985e+00 1.972986e+00 2.072333e+00 1.320177e+00 1.825097e+00 1.545057e+00 1.299539e+00 1.334537e+00 1.374832e+00 4.199420e-01 4.685669e-02 1.285985e-01 2.074109e-01 2.370346e-01 3.201872e-01 4.538466e-01 2.469043e-01 3.910671e-01 2.802717e-01 1.832619e-01 2.044079e-01 2.249860e-01 4.062698e-02
<GCONST> 9.610520e+01
<STATE> 5
<MEAN> 39
 -4.570637e+00 7.414371e+00 -2.967432e+00 -1.022423e-01 -4.996039e+00 -2.016883e+00 1.364671e+00 7.792966e+00 3.597600e+00 -5.412286e+00 -3.016452e+00 2.187731e+00 4.933679e+01 -6.502798e-01 -1.254506e-01 -3.989936e-01 -8.109454e-01 -1.305622e-01 5.543061e-03 1.119203e-01 -6.606219e-01 -8.893969e-01 5.431171e-01 6.538072e-01 1.275293e-01 -3.795947e-01 1.451152e-01 -5.625277e-02 7.781400e-02 6.358382e-02 -2.390054e-02 -5.514583e-02 -1.522036e-01 4.098152e-02 3.654127e-02 -1.241402e-01 3.443146e-02 3.659611e-02 1.422144e-01
<VARIANCE> 39
 3.574120e+01 3.727496e+01 6.893713e+01 5.767363e+01 4.566787e+01 3.769460e+01 3.329176e+01 7.102763e+01 1.005955e+02 4.309394e+01 3.102210e+01 2.642779e+01 9.503001e+01 1.696743e+00 3.343477e+00 5.382749e+00 3.371721e+00 4.022176e+00 3.227532e+00 3.971962e+00 3.376675e+00 4.927125e+00 3.590226e+00 3.638845e+00 2.646392e+00 2.566015e+00 2.269634e-01 6.050232e-01 1.001452e+00 8.626505e-01 5.211281e-01 6.597915e-01 8.278659e-01 7.514260e-01 1.273661e+00 6.359023e-01 8.376170e-01 4.983767e-01 3.283428e-01
<GCONST> 1.320190e+02
<TRANSP> 6
 0.000000e+00 1.000000e+00 0.000000e+00 0.000000e+00 0.000000e+00 0.000000e+00
 0.000000e+00 9.334699e-01 6.653011e-02 0.000000e+00 0.000000e+00 0.000000e+00
 0.000000e+00 0.000000e+00 9.389996e-01 6.100039e-02 0.000000e+00 0.000000e+00
 0.000000e+00 0.000000e+00 0.000000e+00 9.371579e-01 6.284208e-02 0.000000e+00
 0.000000e+00 0.000000e+00 0.000000e+00 0.000000e+00 8.793425e-01 1.206575e-01
 0.000000e+00 0.000000e+00 0.000000e+00 0.000000e+00 0.000000e+00 0.000000e+00
<ENDHMM>
