~o
<STREAMINFO> 1 39
<VECSIZE> 39<NULLD><MFCC_D_A_0><DIAGC>
~h "bagi"
<BEGINHMM>
<NUMSTATES> 6
<STATE> 2
<MEAN> 39
 4.754214e-01 8.694933e+00 -2.206870e+00 1.008675e+01 4.870943e+00 -3.358822e+00 -5.531798e-01 1.060376e+01 3.704438e+00 -4.981814e+00 -4.592636e+00 -3.265598e+00 4.641927e+01 1.386362e+00 7.218345e-01 -6.093937e-01 4.452315e-01 8.620961e-02 -1.045830e+00 -1.015726e-01 5.731106e-01 -5.288643e-01 -9.579601e-01 -2.655333e-01 -4.596230e-01 5.445933e-01 2.822568e-01 -6.072344e-01 8.034222e-02 -2.929776e-01 -6.611660e-01 -8.126630e-02 -8.596799e-02 -1.445978e-01 -8.862224e-02 -3.418369e-01 5.646445e-02 3.923377e-01 4.926309e-01
<VARIANCE> 39
 3.920833e+01 3.503941e+01 2.532846e+01 2.996371e+01 3.796834e+01 2.499381e+01 2.226748e+01 4.082188e+01 5.871278e+01 3.588502e+01 4.763680e+01 3.966663e+01 2.148567e+01 3.446343e+00 7.820780e+00 4.182628e+00 3.650441e+00 6.345666e+00 4.164623e+00 2.801255e+00 4.502726e+00 6.740651e+00 4.321372e+00 5.449458e+00 5.751509e+00 3.946473e+00 4.639080e-01 6.714582e-01 8.938904e-01 6.022222e-01 7.988057e-01 8.909301e-01 5.966552e-01 9.608779e-01 1.322971e+00 6.954736e-01 1.104612e+00 9.403265e-01 4.075179e-01
<GCONST> 1.338601e+02
<STATE> 3
<MEAN> 39
 1.018660e+01 4.670085e-01 -1.832374e+00 8.631597e+00 -5.044700e+00 -4.698254e+00 -2.901717e+00 9.837880e+00 2.297151e-01 -1.773604e+01 -2.909867e+00 4.699312e+00 5.651799e+01 -4.385294e-01 -1.162909e+00 1.272867e+00 1.950155e-01 -1.839433e-01 1.562289e+00 -2.098976e-01 -4.374650e-01 -1.291694e-01 -8.731804e-01 1.001155e+00 1.026446e+00 3.555714e-01 -5.599185e-01 3.437421e-01 1.965977e-01 3.985950e-01 8.732854e-01 2.848932e-01 1.083821e-01 8.885590e-02 1.655319e-02 6.192559e-01 2.571239e-01 -4.855243e-01 -4.996203e-01
<VARIANCE> 39
 5.755307e+00 2.645269e+01 3.571646e+01 2.522078e+01 1.906949e+01 7.222013e+01 2.920689e+01 3.120572e+01 3.325834e+01 2.526998e+01 3.042142e+01 3.121844e+01 8.242943e+00 1.966847e+00 1.972628e+00 2.984073e+00 3.186654e+00 6.979925e+00 5.942076e+00 3.131362e+00 3.073473e+00 4.404380e+00 4.171024e+00 3.263363e+00 5.418549e+00 1.447379e+00 1.879188e-01 3.285378e-01 8.828659e-01 3.809200e-01 3.921401e-01 1.686338e+00 5.663499e-01 6.558887e-01 1.124331e+00 6.210102e-01 5.795492e-01 8.112977e-01 5.562070e-02
<GCONST> 1.197172e+02
<STATE> 4
<MEAN> 39
 4.884543e-01 1.514314e+00 1.656336e+00 1.732063e+01 8.243300e+00 1.591716e-01 -1.532654e+00 9.049882e+00 -1.689909e+00 -8.647318e+00 5.010546e+00 -1.365068e-01 4.938597e+01 -3.798941e-01 4.795664e-02 -5.532206e-01 1.513991e+00 1.690067e+00 -7.740108e-01 -3.136395e-01 -2.174700e-01 3.704283e-02 1.592426e+00 2.940926e-01 -1.240193e+00 -4.892423e-01 4.137853e-01 -2.672634e-01 -5.678840e-02 -6.770874e-02 -2.854878e-01 -1.759022e-01 -3.657314e-01 -1.483697e-01 1.293019e-01 -3.698021e-01 -1.749896e-01 1.099067e-01 3.993288e-01
<VARIANCE> 39
 1.283080e+01 4.748200e+01 3.312112e+01 3.359290e+01 3.380581e+01 4.942175e+01 4.067569e+01 2.202838e+01 2.545985e+01 6.323829e+01 3.538629e+01 2.949257e+01 1.709398e+01 3.117111e+00 7.047347e+00 4.417099e+00 3.606033e+00 3.385618e+00 6.954698e+00 6.721114e+00 3.568450e+00 3.475315e+00 7.299187e+00 5.774806e+00 3.201732e+00 3.422434e+00 3.011868e-01 1.358683e+00 1.128883e+00 9.229402e-01 6.338580e-01 1.556169e+00 1.354648e+00 7.420761e-01 7.834620e-01 1.687987e+00 1.212762e+00 6.973047e-01 4.934108e-01
<GCONST> 1.346156e+02
<STATE> 5
<MEAN> 39
 3.227871e+00 -3.292132e+00 3.110015e+00 1.966716e+01 1.155714e+01 -1.365254e+00 -1.219803e+01 4.474062e+00 7.664225e-01 -8.620239e+00 5.326200e+00 -1.928944e+00 5.389827e+01 -2.986931e-01 9.437753e-02 3.692394e-01 -1.252317e+00 -6.412491e-01 5.245460e-01 -3.249097e-01 -4.374289e-01 3.733897e-01 -1.648737e-01 -2.239360e-01 7.336302e-01 -3.647548e-02 -2.589675e-01 2.686657e-01 -6.241269e-02 -2.969729e-01 -2.318014e-01 9.764669e-02 5.592562e-01 6.626994e-02 -4.333272e-02 2.894557e-01 -2.030949e-01 1.125756e-03 -2.975508e-01
<VARIANCE> 39
 2.553077e+01 3.201425e+01 6.554595e+01 9.601253e+01 2.724981e+01 6.129961e+01 5.582206e+01 2.988388e+01 3.774998e+01 4.969217e+01 3.439272e+01 3.609210e+01 2.401474e+01 2.112746e+00 3.602103e+00 4.859344e+00 4.973391e+00 3.455947e+00 5.691317e+00 1.031386e+01 3.720050e+00 4.856246e+00 6.019044e+00 3.098096e+00 3.363584e+00 2.813910e+00 3.205538e-01 5.685167e-01 8.177081e-01 1.101291e+00 6.626943e-01 1.155067e+00 1.436222e+00 8.301149e-01 1.089963e+00 1.059243e+00 6.465608e-01 8.163487e-01 3.596736e-01
<GCONST> 1.349881e+02
<TRANSP> 6
 0.000000e+00 1.000000e+00 0.000000e+00 0.000000e+00 0.000000e+00 0.000000e+00
 0.000000e+00 8.688307e-01 1.311693e-01 0.000000e+00 0.000000e+00 0.000000e+00
 0.000000e+00 0.000000e+00 8.555817e-01 1.444183e-01 0.000000e+00 0.000000e+00
 0.000000e+00 0.000000e+00 0.000000e+00 8.750297e-01 1.249703e-01 0.000000e+00
 0.000000e+00 0.000000e+00 0.000000e+00 0.000000e+00 8.843918e-01 1.156082e-01
 0.000000e+00 0.000000e+00 0.000000e+00 0.000000e+00 0.000000e+00 0.000000e+00
<ENDHMM>
