~o
<STREAMINFO> 1 39
<VECSIZE> 39<NULLD><MFCC_D_A_0><DIAGC>
~h "bagi"
<BEGINHMM>
<NUMSTATES> 6
<STATE> 2
<MEAN> 39
 -4.868994e+00 -9.662916e+00 1.588291e+00 -1.484967e+01 2.619770e+00 -1.863428e+01 1.189035e+01 -1.259229e+01 -6.710750e+00 -2.623002e+00 5.724730e-01 -7.888900e-01 7.792303e+01 -2.014200e-01 -5.709540e-02 2.178697e-01 5.086120e-01 4.360945e-01 -2.000369e-01 -3.150806e-01 -4.293101e-01 -2.153015e-02 5.610234e-02 2.608096e-01 -1.490170e-01 5.257047e-02 5.753147e-03 1.830192e-01 1.575292e-01 2.421417e-01 1.523516e-01 -6.175547e-02 -5.947483e-02 -8.027671e-02 4.091167e-02 -2.031297e-01 -6.472911e-02 -2.007083e-01 -9.497622e-02
<VARIANCE> 39
 4.802207e+01 7.750245e+01 3.025277e+01 8.683073e+01 3.496291e+01 1.065811e+02 1.210905e+02 5.218087e+01 3.123692e+01 2.459193e+01 2.729318e+01 1.931894e+01 1.605871e+02 2.444601e-01 1.173524e+00 1.241021e+00 2.105234e+00 1.442212e+00 2.487719e+00 2.055928e+00 1.907672e+00 1.709022e+00 2.004101e+00 1.821806e+00 1.947305e+00 1.017397e+00 5.520680e-02 1.654256e-01 1.802530e-01 2.793833e-01 2.678277e-01 4.001464e-01 2.639186e-01 3.284430e-01 3.211787e-01 3.500451e-01 4.157257e-01 3.711960e-01 1.652465e-01
<GCONST> 1.093904e+02
<STATE> 3
<MEAN> 39
 1.512983e+00 2.794568e+00 -5.342215e-02 1.026342e+01 3.884459e+00 -2.616568e+00 -4.215669e+00 6.529453e+00 2.830340e-01 -8.186990e+00 7.592874e-01 1.695827e-01 5.664240e+01 6.670277e-01 -7.445358e-02 -8.956497e-02 9.894379e-02 -3.643923e-02 -5.401799e-01 -6.135049e-01 2.124503e-03 -1.594500e-01 -3.200120e-01 2.967294e-01 1.937554e-01 5.667362e-01 -3.849605e-02 -1.263135e-01 -4.540428e-02 -1.170963e-01 -1.195273e-01 -4.322392e-02 2.236152e-02 -4.958445e-02 1.259288e-02 6.782839e-02 5.606379e-02 1.003909e-01 3.789917e-02
<VARIANCE> 39
 4.868998e+01 5.313804e+01 4.290826e+01 9.497534e+01 6.896487e+01 6.876865e+01 5.428510e+01 4.115780e+01 3.536938e+01 6.588589e+01 5.099025e+01 3.807365e+01 9.767418e+01 3.643354e+00 5.395940e+00 4.814216e+00 4.522026e+00 5.317774e+00 7.815360e+00 5.348717e+00 3.250625e+00 4.138179e+00 5.930707e+00 4.800694e+00 4.494001e+00 3.246224e+00 5.094091e-01 8.380216e-01 8.941521e-01 7.533605e-01 8.381860e-01 1.453852e+00 1.042422e+00 6.529343e-01 8.478591e-01 1.054935e+00 8.799671e-01 7.441166e-01 4.940535e-01
<GCONST> 1.413487e+02
<STATE> 4
<MEAN> 39
 -5.978509e+00 -7.935961e+00 1.574424e+01 -5.620002e+00 1.595498e+01 -2.583314e+01 5.454906e+00 -1.437321e+01 -2.841301e+00 -1.173149e+01 -6.885555e-01 -7.179215e+00 7.750920e+01 -1.493394e-02 1.695678e-01 7.365271e-02 -1.979228e-02 -8.494070e-03 7.284380e-02 3.195205e-02 3.050501e-01 1.978970e-01 -2.602830e-01 -1.990439e-01 -6.702220e-02 -1.978580e-01 3.527199e-02 -4.384699e-02 -3.918005e-02 -7.295197e-02 -1.050922e-01 2.614632e-03 5.956994e-02 6.071922e-02 -2.968484e-02 4.526992e-02 1.485833e-02 4.618567e-02 4.575676e-02
<VARIANCE> 39
 4.092297e+01 4.116520e+01 5.159290e+01 7.015916e+01 2.911367e+01 1.330847e+02 5.864874e+01 6.954533e+01 5.728243e+01 3.879766e+01 4.863405e+01 4.120950e+01 5.166281e+01 2.980704e+00 4.258588e+00 3.159410e+00 4.209949e+00 3.287040e+00 1.003716e+01 4.434661e+00 4.621798e+00 5.832343e+00 3.632126e+00 4.216113e+00 3.571228e+00 4.093030e+00 4.523996e-01 6.113529e-01 4.259770e-01 5.988843e-01 5.867496e-01 1.442104e+00 7.389851e-01 9.045743e-01 9.765812e-01 7.011739e-01 7.436368e-01 6.689224e-01 6.099290e-01
<GCONST> 1.371577e+02
<STATE> 5
<MEAN> 39
 -4.009058e+00 3.821879e+00 -2.827709e-01 6.204901e+00 3.039205e+00 -8.985995e+00 -7.862590e+00 -2.616145e+00 -4.170468e+00 -6.124675e+00 4.461326e-01 -4.772432e-01 7.052517e+01 -3.136236e-01 1.059536e-02 1.668502e-01 1.697865e-01 2.170907e-01 2.295249e-01 7.197212e-02 -1.358919e-01 1.080112e-02 9.120925e-02 -7.245357e-02 -1.807720e-01 -1.954014e-01 -1.589162e-02 2.698160e-02 2.992891e-02 7.083709e-03 1.486783e-02 2.186980e-02 1.298412e-02 7.411321e-04 -1.212775e-03 -1.470922e-02 -3.500749e-02 -3.221126e-02 -1.111629e-02
<VARIANCE> 39
 3.918479e+01 4.226080e+01 3.790831e+01 6.080821e+01 6.210193e+01 3.563603e+01 3.676191e+01 2.054908e+01 2.290237e+01 5.485957e+01 5.825259e+01 5.239486e+01 2.535546e+01 9.121138e-01 1.209222e+00 1.143409e+00 1.783894e+00 1.455288e+00 1.766115e+00 1.844735e+00 1.245745e+00 1.740058e+00 1.253343e+00 1.286926e+00 1.345707e+00 6.887187e-01 1.217448e-01 1.875404e-01 1.679069e-01 2.366091e-01 2.302728e-01 2.943027e-01 2.901906e-01 2.294510e-01 3.128404e-01 2.471060e-01 2.414829e-01 2.395486e-01 8.865320e-02
<GCONST> 1.028579e+02
<TRANSP> 6
 0.000000e+00 4.227684e-01 5.772316e-01 0.000000e+00 0.000000e+00 0.000000e+00
 0.000000e+00 8.789200e-01 4.948086e-02 7.159916e-02 0.000000e+00 0.000000e+00
 0.000000e+00 0.000000e+00 9.281927e-01 1.792729e-02 5.387995e-02 0.000000e+00
 0.000000e+00 0.000000e+00 0.000000e+00 9.504596e-01 0.000000e+00 4.954042e-02
 0.000000e+00 0.000000e+00 0.000000e+00 0.000000e+00 9.752502e-01 2.474970e-02
 0.000000e+00 0.000000e+00 0.000000e+00 0.000000e+00 0.000000e+00 0.000000e+00
<ENDHMM>
