~o
<STREAMINFO> 1 39
<VECSIZE> 39<NULLD><PLP_D_A_0><DIAGC>
~h "belas"
<BEGINHMM>
<NUMSTATES> 8
<STATE> 2
<MEAN> 39
 -4.282221e-02 -2.735234e-01 -7.209329e-01 1.331274e-01 -4.685979e-01 -8.894550e-01 -7.996764e-01 -6.064757e-01 -6.390837e-01 -9.215204e-01 -3.488668e-01 2.863362e-01 4.825905e+00 3.869557e-02 -1.274478e-01 1.122401e-02 -5.470908e-02 -1.453973e-01 9.933476e-03 -8.538457e-03 -6.174870e-02 -6.600409e-03 2.570102e-02 1.082365e-01 1.041529e-01 9.968433e-02 -4.778344e-03 -3.596516e-02 -2.998810e-04 -3.438671e-02 -3.124457e-02 1.258436e-02 1.461103e-02 2.195578e-02 3.207816e-02 3.334176e-02 3.811263e-02 1.054918e-02 2.056172e-02
<VARIANCE> 39
 2.248872e-01 4.861852e-01 4.675484e-01 2.617944e-01 4.588002e-01 4.313164e-01 2.916799e-01 6.666866e-01 4.699871e-01 2.705995e-01 4.643859e-01 3.250993e-01 7.344503e-01 2.057640e-02 3.989196e-02 4.181040e-02 2.540718e-02 5.621774e-02 5.751864e-02 2.977577e-02 2.835798e-02 4.290797e-02 2.492092e-02 4.271244e-02 3.304540e-02 1.779771e-02 4.290252e-03 6.006767e-03 7.047924e-03 4.003268e-03 9.441924e-03 8.689934e-03 7.213056e-03 6.444348e-03 8.550532e-03 4.133887e-03 6.205705e-03 7.130493e-03 3.494406e-03
<GCONST> -5.071088e+01
<STATE> 3
<MEAN> 39
 1.803277e-02 -1.415915e+00 -1.174980e+00 -1.239456e+00 -9.780989e-01 -1.508135e+00 -8.404044e-02 -5.384714e-01 -1.923700e-01 -1.929950e-03 3.901229e-01 6.781433e-01 6.367127e+00 -1.730649e-02 -6.773423e-02 -3.268651e-02 -1.039383e-01 -2.032804e-02 4.829536e-02 7.291048e-02 6.739946e-02 1.501919e-01 9.284338e-02 2.587653e-02 -1.437093e-02 6.319075e-02 -3.080943e-02 4.522989e-02 6.097484e-02 2.022172e-02 4.738853e-02 3.297127e-02 -2.406703e-02 -3.678304e-02 -4.056852e-02 -4.726378e-02 -2.741660e-02 -1.939271e-02 -3.210407e-02
<VARIANCE> 39
 6.441214e-02 4.835581e-01 5.204787e-01 6.364357e-01 2.818316e-01 3.484773e-01 7.718459e-01 5.000362e-01 4.419090e-01 2.732672e-01 2.035184e-01 1.727807e-01 3.140507e-01 3.604251e-03 1.998327e-02 1.764852e-02 1.678834e-02 1.838341e-02 1.348711e-02 2.678687e-02 2.254474e-02 3.071665e-02 2.549173e-02 1.942706e-02 1.749586e-02 7.646385e-03 1.918158e-03 2.998753e-03 4.135809e-03 2.788173e-03 2.826426e-03 2.981011e-03 6.029309e-03 4.113188e-03 7.213142e-03 3.524436e-03 3.518725e-03 3.007775e-03 1.048787e-03
<GCONST> -7.080066e+01
<STATE> 4
<MEAN> 39
 -4.040411e-01 -1.338437e+00 -1.634717e-01 -8.696673e-01 -1.053163e+00 -3.521931e-01 -4.498823e-01 -6.573297e-01 -1.721162e-01 -3.442134e-01 4.346023e-01 5.980654e-01 5.557778e+00 -3.577195e-01 -1.092711e-01 3.082947e-01 -1.187296e-01 6.123262e-02 1.179906e-01 2.332598e-02 -6.549213e-02 -1.246763e-01 7.117093e-02 2.252857e-02 -9.666869e-02 -2.422589e-02 -7.016614e-02 -2.682834e-02 -8.695180e-04 -2.575249e-02 -1.667226e-03 -3.481196e-02 -9.699785e-04 -9.545668e-04 -8.522649e-03 1.064793e-02 -2.409171e-02 -5.751003e-03 -9.851009e-03
<VARIANCE> 39
 3.941472e-01 4.364011e-01 7.043267e-01 5.894114e-01 3.015653e-01 7.590045e-01 4.375890e-01 2.430187e-01 4.383165e-01 3.880534e-01 1.603446e-01 2.198161e-01 9.328306e-01 4.466415e-02 5.586885e-02 2.971606e-02 3.758142e-02 3.550122e-02 3.786307e-02 3.280884e-02 2.535189e-02 3.634650e-02 4.314403e-02 2.989127e-02 1.656177e-02 5.578862e-03 7.313245e-03 7.177733e-03 1.065300e-02 5.716958e-03 8.980096e-03 5.855901e-03 4.813066e-03 3.520977e-03 7.601970e-03 5.713487e-03 3.773317e-03 4.648044e-03 1.868001e-03
<GCONST> -5.329401e+01
<STATE> 5
<MEAN> 39
 -1.669136e+00 -1.290166e+00 8.760910e-01 -2.352570e+00 7.833126e-01 -1.002070e+00 9.389313e-01 -1.086002e+00 1.668024e-01 -3.376398e-01 -8.817165e-02 -3.006281e-02 6.264427e+00 -4.643001e-02 2.684666e-02 1.969653e-02 3.876590e-02 2.124525e-02 3.203719e-02 7.385692e-03 3.441984e-02 -9.846662e-03 -1.644768e-03 4.315472e-02 -3.954501e-03 -9.153010e-02 3.270080e-02 -2.633761e-02 -3.265507e-02 6.504545e-03 -3.304991e-02 -1.484084e-02 1.675692e-02 5.268063e-03 -3.108078e-03 1.609015e-02 1.298075e-02 9.010453e-03 7.884862e-03
<VARIANCE> 39
 1.047366e+00 2.787678e-01 4.957857e-01 3.198934e-01 5.400701e-01 3.988205e-01 2.766720e-01 3.153376e-01 2.447447e-01 2.029302e-01 1.305606e-01 6.804708e-02 4.957454e-01 1.482057e-01 5.098423e-02 8.473676e-02 3.905731e-02 7.799428e-02 4.176848e-02 4.713916e-02 3.464845e-02 3.222413e-02 2.590870e-02 1.345640e-02 9.405392e-03 3.554714e-02 1.827020e-02 6.670254e-03 9.232099e-03 7.839658e-03 7.976941e-03 6.357570e-03 1.031552e-02 7.758888e-03 6.445258e-03 4.929241e-03 2.800660e-03 1.520794e-03 6.968711e-03
<GCONST> -5.149556e+01
<STATE> 6
<MEAN> 39
 -2.155451e+00 -1.728612e+00 2.850524e-01 -1.640956e+00 -1.033878e+00 -4.388061e-01 -2.483669e-01 -8.717679e-01 -3.223957e-01 9.720062e-02 4.663739e-01 3.544256e-01 5.717419e+00 -8.904592e-02 -3.412335e-02 -3.995317e-02 1.567132e-02 -1.601715e-02 1.542801e-02 7.092975e-03 -1.186995e-02 -1.290248e-02 1.249646e-02 -2.433126e-03 -2.986473e-03 -1.187084e-01 8.890908e-02 6.371000e-02 -7.608537e-02 5.439396e-02 1.167265e-02 -5.771525e-03 -1.067407e-02 1.582735e-02 1.453680e-02 -2.434190e-02 -1.002589e-02 4.948292e-03 -3.727670e-02
<VARIANCE> 39
 3.338342e-01 4.495277e-01 5.590326e-01 3.616694e-01 3.193335e-01 3.341132e-01 4.067816e-01 1.421657e-01 3.251166e-01 2.283236e-01 1.187721e-01 6.968711e-02 4.348282e-01 5.269388e-02 2.593381e-02 3.263601e-02 2.493717e-02 1.496635e-02 1.363416e-02 1.027308e-02 1.103656e-02 1.294459e-02 9.915580e-03 9.228523e-03 5.981767e-03 1.263521e-02 6.342857e-03 6.702395e-03 6.202779e-03 4.632211e-03 3.554774e-03 3.571997e-03 2.899049e-03 2.635334e-03 4.384058e-03 3.616625e-03 2.261487e-03 1.674411e-03 1.939508e-03
<GCONST> -7.292207e+01
<STATE> 7
<MEAN> 39
 -1.509488e+00 -1.092881e+00 -5.326711e-01 -9.795653e-01 -8.362290e-01 -5.906726e-01 -3.862167e-01 -7.130381e-01 -3.855677e-01 -2.674990e-01 2.692247e-01 3.420716e-01 4.489453e+00 1.124701e-01 1.474371e-01 -1.287488e-01 7.377391e-02 2.709254e-02 -5.020129e-02 -9.645116e-03 2.739559e-02 3.270547e-02 -5.480103e-02 -5.797037e-02 -9.710563e-03 -8.854733e-02 8.068128e-03 -9.884431e-03 1.799818e-02 -4.689045e-03 4.473414e-03 -3.917446e-03 -2.553466e-03 -3.767880e-04 -9.823112e-04 -1.422101e-03 2.745914e-03 -8.213156e-04 3.582553e-02
<VARIANCE> 39
 5.384260e-01 5.347304e-01 4.114693e-01 3.646580e-01 4.346511e-01 4.104266e-01 4.278030e-01 2.118990e-01 2.461341e-01 2.568575e-01 1.846480e-01 1.023811e-01 9.428140e-01 3.037037e-02 5.258793e-02 4.612269e-02 3.204212e-02 3.147304e-02 3.300778e-02 2.345788e-02 1.857927e-02 2.625080e-02 2.048280e-02 2.051459e-02 1.262227e-02 4.504773e-02 5.719306e-03 8.658924e-03 6.590928e-03 5.298532e-03 6.129751e-03 6.550126e-03 4.404454e-03 3.810147e-03 5.449365e-03 3.745921e-03 4.584413e-03 2.715492e-03 5.539077e-03
<GCONST> -5.741204e+01
<TRANSP> 8
 0.000000e+00 6.345024e-01 3.654976e-01 0.000000e+00 0.000000e+00 0.000000e+00 0.000000e+00 0.000000e+00
 0.000000e+00 7.764869e-01 1.359636e-01 8.754963e-02 0.000000e+00 0.000000e+00 0.000000e+00 0.000000e+00
 0.000000e+00 0.000000e+00 7.941788e-01 2.058212e-01 0.000000e+00 0.000000e+00 0.000000e+00 0.000000e+00
 0.000000e+00 0.000000e+00 0.000000e+00 7.062266e-01 6.083666e-02 2.329367e-01 0.000000e+00 0.000000e+00
 0.000000e+00 0.000000e+00 0.000000e+00 0.000000e+00 9.193544e-01 8.064565e-02 0.000000e+00 0.000000e+00
 0.000000e+00 0.000000e+00 0.000000e+00 0.000000e+00 0.000000e+00 7.724692e-01 2.275309e-01 0.000000e+00
 0.000000e+00 0.000000e+00 0.000000e+00 0.000000e+00 0.000000e+00 0.000000e+00 7.849991e-01 2.150010e-01
 0.000000e+00 0.000000e+00 0.000000e+00 0.000000e+00 0.000000e+00 0.000000e+00 0.000000e+00 0.000000e+00
<ENDHMM>
