~o
<STREAMINFO> 1 36
<VECSIZE> 36<NULLD><LPC_D_A><DIAGC>
~h "delapan"
<BEGINHMM>
<NUMSTATES> 8
<STATE> 2
<MEAN> 36
 -2.746481e+00 4.768201e+00 -7.113748e+00 9.002656e+00 -9.795814e+00 9.411834e+00 -8.011744e+00 5.912261e+00 -3.805196e+00 2.074140e+00 -8.596091e-01 2.254197e-01 1.636109e-02 -4.796812e-02 7.537100e-02 -1.068260e-01 1.199438e-01 -1.112720e-01 9.158494e-02 -6.261452e-02 3.298177e-02 -1.382422e-02 2.792833e-03 1.945091e-03 1.303862e-02 -3.520905e-02 6.801389e-02 -1.116410e-01 1.496430e-01 -1.701849e-01 1.682520e-01 -1.438883e-01 1.048981e-01 -6.459057e-02 3.100784e-02 -8.674833e-03
<VARIANCE> 36
 3.724140e-01 2.934838e+00 9.532873e+00 2.170296e+01 3.435144e+01 4.028577e+01 3.617404e+01 2.452714e+01 1.227406e+01 4.464352e+00 1.018006e+00 7.810578e-02 5.814082e-02 4.709653e-01 1.563368e+00 3.638886e+00 5.792077e+00 6.799923e+00 6.157339e+00 4.195937e+00 2.102129e+00 7.714918e-01 1.743954e-01 1.256774e-02 1.198847e-02 8.768772e-02 2.696356e-01 6.030726e-01 9.207709e-01 1.046350e+00 9.314483e-01 6.278106e-01 3.132448e-01 1.170188e-01 2.745805e-02 2.043476e-03
<GCONST> 6.416117e+01
<STATE> 3
<MEAN> 36
 -1.477850e+00 1.663833e+00 -2.272632e+00 2.491807e+00 -2.381302e+00 1.960509e+00 -1.387610e+00 8.307097e-01 -4.458055e-01 1.778571e-01 -6.297496e-02 5.011043e-02 -7.544913e-02 3.589929e-02 -7.621083e-02 1.366500e-01 -1.651759e-01 1.799256e-01 -1.570908e-01 1.184763e-01 -7.602520e-02 4.249132e-02 -1.312815e-02 3.806950e-03 -1.692711e-02 4.693465e-02 -7.656235e-02 1.248473e-01 -1.436113e-01 1.517089e-01 -1.408507e-01 1.067119e-01 -6.622771e-02 3.720320e-02 -1.650183e-02 4.673457e-03
<VARIANCE> 36
 9.237313e-01 3.708349e+00 7.229702e+00 1.082631e+01 1.215115e+01 1.092543e+01 7.756452e+00 4.272821e+00 1.888990e+00 6.349245e-01 1.544208e-01 2.316297e-02 5.636724e-02 1.660834e-01 4.863853e-01 1.238106e+00 2.189248e+00 2.802406e+00 2.689907e+00 1.882471e+00 9.172959e-01 3.025632e-01 6.169626e-02 5.296564e-03 1.223639e-02 8.988070e-02 3.408549e-01 7.946172e-01 1.296144e+00 1.600330e+00 1.526376e+00 1.121688e+00 6.282128e-01 2.475837e-01 5.487908e-02 3.632097e-03
<GCONST> 4.640973e+01
<STATE> 4
<MEAN> 36
 -8.387666e-01 4.709145e-02 -2.494352e-01 2.901804e-01 -2.182483e-01 2.307442e-01 -2.314225e-01 1.738073e-01 -1.802979e-01 1.190106e-01 -1.335373e-01 1.112841e-01 6.453327e-03 -1.801585e-03 -3.225834e-03 -5.868688e-04 1.793944e-03 9.238884e-04 1.295412e-03 -1.143036e-03 -4.227621e-04 -7.783053e-04 7.104844e-04 -3.568848e-04 2.715480e-03 2.804502e-03 1.248683e-03 -1.121132e-03 -8.903848e-04 1.219457e-04 3.469201e-04 2.174539e-04 -1.696023e-04 2.779865e-04 6.637988e-06 -2.571245e-05
<VARIANCE> 36
 3.226564e-01 1.852141e-01 2.218966e-01 1.500548e-01 1.353281e-01 7.563032e-02 9.163867e-02 8.419576e-02 4.192340e-02 4.060912e-02 2.836794e-02 1.275800e-02 4.520461e-02 2.058521e-02 1.384727e-02 1.196363e-02 9.127707e-03 4.813679e-03 4.446731e-03 4.659090e-03 2.916124e-03 2.605596e-03 2.552224e-03 1.402249e-03 8.671324e-03 4.254859e-03 2.845807e-03 2.501449e-03 1.930315e-03 1.015115e-03 9.190015e-04 9.758977e-04 6.191964e-04 5.626167e-04 5.512756e-04 3.001709e-04
<GCONST> -1.042448e+02
<STATE> 5
<MEAN> 36
 -1.995496e+00 1.399907e+00 6.385145e-01 -3.903037e+00 7.885684e+00 -1.128651e+01 1.276564e+01 -1.203675e+01 9.519587e+00 -6.180150e+00 3.009677e+00 -7.532098e-01 -5.627947e-02 2.076616e-01 -4.650373e-01 7.829530e-01 -1.073199e+00 1.244884e+00 -1.233562e+00 1.027800e+00 -7.088182e-01 3.987484e-01 -1.638029e-01 3.531463e-02 1.674596e-02 5.032952e-03 -6.759775e-02 1.280162e-01 -1.992822e-01 2.674908e-01 -2.988967e-01 2.862404e-01 -2.379662e-01 1.606842e-01 -7.989716e-02 2.080869e-02
<VARIANCE> 36
 1.391992e+01 2.263112e+02 1.065463e+03 2.877434e+03 5.363949e+03 7.206543e+03 7.225714e+03 5.406077e+03 2.915101e+03 1.085567e+03 2.324921e+02 1.443134e+01 1.311107e+00 2.156720e+01 1.015202e+02 2.732001e+02 5.090690e+02 6.838291e+02 6.861876e+02 5.146833e+02 2.783562e+02 1.042853e+02 2.260303e+01 1.424129e+00 2.501505e-01 4.110646e+00 1.936518e+01 5.229188e+01 9.767318e+01 1.311534e+02 1.314918e+02 9.847932e+01 5.304827e+01 1.979876e+01 4.292048e+00 2.719650e-01
<GCONST> 2.330329e+02
<STATE> 6
<MEAN> 36
 -1.692828e+00 2.395435e+00 -3.494929e+00 4.097920e+00 -4.138026e+00 3.672529e+00 -2.863323e+00 1.918544e+00 -1.136694e+00 5.413442e-01 -2.208951e-01 7.955858e-02 3.951977e-03 -3.580317e-02 1.404205e-01 -1.945722e-01 2.439031e-01 -2.809034e-01 2.810246e-01 -2.296371e-01 1.622416e-01 -9.611721e-02 4.304970e-02 -8.047098e-03 -9.987480e-03 1.008502e-02 -1.737360e-02 2.709396e-02 -3.324543e-02 4.813250e-02 -5.202149e-02 4.451473e-02 -3.390767e-02 2.350215e-02 -1.010610e-02 3.681904e-03
<VARIANCE> 36
 1.193034e+00 4.998829e+00 1.024364e+01 1.595589e+01 1.822261e+01 1.672351e+01 1.264136e+01 7.433070e+00 3.432883e+00 1.172082e+00 2.498477e-01 2.876065e-02 3.802513e-02 1.609294e-01 4.093526e-01 9.169270e-01 1.401049e+00 1.599110e+00 1.448864e+00 1.005725e+00 5.038301e-01 1.760146e-01 3.796969e-02 4.039063e-03 6.168821e-03 2.518559e-02 6.644265e-02 1.356464e-01 1.896144e-01 2.009538e-01 1.757994e-01 1.222935e-01 6.381286e-02 2.379326e-02 5.707807e-03 6.662032e-04
<GCONST> 2.411020e+01
<STATE> 7
<MEAN> 36
 -1.311824e+00 1.171811e+00 -1.477855e+00 1.525554e+00 -1.473719e+00 1.282629e+00 -9.142537e-01 6.574934e-01 -4.564756e-01 2.329491e-01 -1.514107e-01 7.162236e-02 -7.387593e-05 2.446059e-02 -2.207367e-02 3.414690e-02 -3.750549e-02 5.152684e-02 -4.715348e-02 3.476062e-02 -2.001143e-02 1.274379e-02 -2.026092e-03 1.200112e-04 5.761516e-03 2.251355e-04 -1.172049e-02 1.472442e-02 -3.797199e-03 6.415654e-03 -1.043884e-02 7.314737e-03 -4.791596e-03 2.733824e-03 -1.298486e-03 4.451056e-04
<VARIANCE> 36
 7.578022e-01 2.350335e+00 4.276046e+00 6.705914e+00 7.538506e+00 7.095208e+00 5.674789e+00 3.432888e+00 1.632583e+00 5.934263e-01 1.501801e-01 2.517799e-02 4.945984e-02 9.202434e-02 1.203558e-01 2.334162e-01 3.197279e-01 3.656508e-01 3.297603e-01 2.315027e-01 1.258253e-01 4.962566e-02 1.367569e-02 2.068155e-03 9.203643e-03 1.814022e-02 2.397278e-02 4.853656e-02 6.708948e-02 7.717226e-02 7.023355e-02 4.908823e-02 2.771859e-02 1.073674e-02 2.881764e-03 3.792280e-04
<GCONST> -6.030507e+00
<TRANSP> 8
 0.000000e+00 1.874977e-01 8.125023e-01 0.000000e+00 0.000000e+00 0.000000e+00 0.000000e+00 0.000000e+00
 0.000000e+00 9.029129e-01 9.708712e-02 0.000000e+00 0.000000e+00 0.000000e+00 0.000000e+00 0.000000e+00
 0.000000e+00 0.000000e+00 3.360808e-01 5.228390e-01 1.410802e-01 0.000000e+00 0.000000e+00 0.000000e+00
 0.000000e+00 0.000000e+00 0.000000e+00 9.558975e-01 0.000000e+00 4.410253e-02 0.000000e+00 0.000000e+00
 0.000000e+00 0.000000e+00 0.000000e+00 0.000000e+00 6.964123e-01 3.035878e-01 0.000000e+00 0.000000e+00
 0.000000e+00 0.000000e+00 0.000000e+00 0.000000e+00 0.000000e+00 4.524434e-01 5.475566e-01 0.000000e+00
 0.000000e+00 0.000000e+00 0.000000e+00 0.000000e+00 0.000000e+00 0.000000e+00 6.142843e-01 3.857156e-01
 0.000000e+00 0.000000e+00 0.000000e+00 0.000000e+00 0.000000e+00 0.000000e+00 0.000000e+00 0.000000e+00
<ENDHMM>
