~o
<STREAMINFO> 1 39
<VECSIZE> 39<NULLD><MFCC_D_A_0><DIAGC>
~h "dua"
<BEGINHMM>
<NUMSTATES> 6
<STATE> 2
<MEAN> 39
 2.174736e+00 9.551773e+00 5.277551e-01 9.275981e+00 5.515841e+00 7.599266e-01 -8.382563e+00 3.904878e+00 8.185587e+00 -7.378430e+00 -6.174596e+00 1.820979e+00 4.890580e+01 1.091951e+00 -3.445770e-02 4.369805e-01 -8.240866e-01 -1.127883e+00 4.373395e-01 -6.489595e-01 7.960154e-03 1.200913e+00 -1.225127e+00 -1.051895e+00 6.018481e-01 1.007458e+00 -1.179438e-01 -1.667008e-01 3.026616e-01 -5.917599e-02 -3.716934e-01 -3.360127e-02 -1.274938e-01 1.390266e-01 3.046275e-01 -2.057758e-01 -7.938109e-02 9.390898e-02 3.147877e-02
<VARIANCE> 39
 4.802892e+01 4.419371e+01 5.359809e+01 2.959757e+01 5.743957e+01 6.233521e+01 6.657794e+01 4.294860e+01 5.336852e+01 8.031761e+01 3.937637e+01 4.098317e+01 4.718326e+01 3.122716e+00 6.668449e+00 8.694462e+00 4.713333e+00 7.223295e+00 5.569345e+00 8.208716e+00 4.398739e+00 6.283607e+00 8.979309e+00 4.698662e+00 5.088059e+00 2.637584e+00 5.000857e-01 1.435706e+00 1.764886e+00 8.244364e-01 1.187903e+00 1.206534e+00 1.826901e+00 1.019959e+00 1.174720e+00 1.630238e+00 1.120966e+00 9.547076e-01 5.273371e-01
<GCONST> 1.457629e+02
<STATE> 3
<MEAN> 39
 7.359797e+00 4.030968e+00 7.684675e+00 1.776368e+00 -1.086848e+01 1.784454e+00 -1.182852e+01 8.321918e+00 1.757224e+01 -1.886601e+01 -1.060842e+01 9.640157e+00 5.611975e+01 -5.125397e-02 3.588505e-02 -1.704840e-01 2.090380e-01 -4.070484e-01 -7.303484e-01 7.976726e-01 4.815334e-01 -3.707668e-01 3.650575e-01 2.706595e-01 3.665889e-02 -1.161406e-01 -9.042859e-02 1.710032e-01 -3.734300e-01 2.236480e-01 5.357676e-01 -1.678520e-01 2.276691e-01 -1.587831e-03 -4.428710e-01 4.511068e-01 2.460809e-01 -3.121619e-01 -2.142457e-01
<VARIANCE> 39
 5.200403e+00 3.312350e+01 2.566325e+01 1.957173e+01 3.476801e+01 2.128809e+01 4.761535e+01 2.918761e+01 3.174905e+01 3.450636e+01 2.308837e+01 3.451880e+01 1.433458e+01 4.413344e-01 2.424876e+00 2.785000e+00 2.227084e+00 5.103520e+00 2.765754e+00 3.002338e+00 2.870833e+00 4.023295e+00 3.926279e+00 3.011917e+00 3.141533e+00 1.009417e+00 9.162154e-02 3.338991e-01 3.433130e-01 3.448951e-01 4.911040e-01 4.536355e-01 4.369411e-01 5.364470e-01 6.727635e-01 6.565004e-01 6.012567e-01 5.673705e-01 1.103560e-01
<GCONST> 1.122724e+02
<STATE> 4
<MEAN> 39
 -1.488791e+00 1.151290e+01 5.926649e+00 3.896409e+00 -3.951367e+00 3.233575e+00 -1.831104e+00 -3.306730e+00 6.182524e-01 -9.936495e+00 -3.998987e+00 2.855424e-03 6.850586e+01 -4.030868e-01 -2.633688e-01 -1.449689e-01 1.465424e-01 6.491316e-02 8.872762e-02 2.689553e-01 -7.704536e-02 -3.464091e-01 6.672684e-02 2.695371e-01 3.331802e-01 -3.292421e-01 -1.430288e-02 -1.941339e-02 -2.718800e-02 -1.839093e-02 -9.263944e-03 3.142999e-02 3.422969e-02 2.667274e-03 -2.123606e-02 1.509106e-02 2.568985e-02 1.480171e-02 -1.342347e-02
<VARIANCE> 39
 2.524761e+01 5.674404e+01 2.151684e+01 3.265623e+01 4.819123e+01 2.577514e+01 3.679574e+01 1.458658e+01 4.390757e+01 2.393409e+01 4.687729e+01 3.693268e+01 3.821128e+01 9.590126e-01 1.933718e+00 1.217061e+00 1.390546e+00 1.850495e+00 1.503275e+00 1.907763e+00 1.431933e+00 1.423738e+00 1.818588e+00 1.988289e+00 1.920979e+00 1.304070e+00 1.032788e-01 2.200441e-01 1.823936e-01 1.973664e-01 2.397196e-01 2.556716e-01 3.446651e-01 2.893065e-01 2.456338e-01 3.360070e-01 3.618814e-01 3.516744e-01 1.166265e-01
<GCONST> 1.037844e+02
<STATE> 5
<MEAN> 39
 2.330886e+00 9.076750e+00 -3.281009e+00 5.732522e+00 -1.295303e+00 -5.297105e+00 3.088372e-02 9.192455e+00 2.096694e+00 -7.816443e+00 -5.005777e+00 2.120164e+00 4.841431e+01 -3.572766e-01 1.485608e-01 -1.978646e-01 -3.014907e-03 3.548469e-01 -3.450041e-02 2.657480e-01 -1.505344e-01 -5.152534e-01 5.765142e-01 1.030582e-01 -5.698656e-01 -3.283099e-01 4.287017e-02 -1.065879e-01 2.764547e-01 -1.223048e-01 -2.433682e-01 2.332539e-01 -3.387200e-01 -1.926525e-01 3.790655e-01 -2.665810e-01 -1.734596e-01 1.632792e-01 1.348064e-01
<VARIANCE> 39
 5.199582e+01 4.868066e+01 4.322876e+01 5.356971e+01 4.759342e+01 3.812349e+01 4.357383e+01 5.550790e+01 5.168165e+01 4.065493e+01 3.866948e+01 3.921668e+01 3.716433e+01 3.167600e+00 4.712791e+00 4.729427e+00 4.462497e+00 6.048062e+00 4.367134e+00 5.151916e+00 4.198923e+00 7.379037e+00 4.943599e+00 3.595084e+00 4.921191e+00 3.088145e+00 4.300877e-01 7.760909e-01 7.657828e-01 8.451185e-01 9.325530e-01 8.185391e-01 7.162625e-01 6.617939e-01 1.138434e+00 7.702602e-01 6.880371e-01 7.922903e-01 3.507599e-01
<GCONST> 1.365089e+02
<TRANSP> 6
 0.000000e+00 5.004735e-01 4.995265e-01 0.000000e+00 0.000000e+00 0.000000e+00
 0.000000e+00 8.874769e-01 1.125232e-01 0.000000e+00 0.000000e+00 0.000000e+00
 0.000000e+00 0.000000e+00 8.831167e-01 2.922048e-02 8.766285e-02 0.000000e+00
 0.000000e+00 0.000000e+00 0.000000e+00 9.597555e-01 1.341536e-02 2.682919e-02
 0.000000e+00 0.000000e+00 0.000000e+00 0.000000e+00 8.983905e-01 1.016095e-01
 0.000000e+00 0.000000e+00 0.000000e+00 0.000000e+00 0.000000e+00 0.000000e+00
<ENDHMM>
