~o
<STREAMINFO> 1 39
<VECSIZE> 39<NULLD><PLP_D_A_0><DIAGC>
~h "dua"
<BEGINHMM>
<NUMSTATES> 8
<STATE> 2
<MEAN> 39
 -5.599813e-01 -2.700571e-01 -4.157610e-01 -2.033049e-01 3.615866e-02 -7.216973e-01 -8.026433e-01 -5.461076e-01 -2.878875e-01 -8.306569e-01 -3.487275e-01 -1.534053e-01 4.733688e+00 1.681309e-01 4.616487e-02 5.019475e-02 -8.622143e-02 -9.498529e-02 -2.448902e-02 -8.936415e-02 1.545715e-02 2.275764e-02 -1.233007e-01 -8.272240e-02 -3.445291e-02 1.484139e-01 -1.131889e-02 -2.600124e-02 1.068904e-02 -3.650818e-02 -8.671782e-02 -2.682122e-02 1.438643e-02 2.490004e-02 2.661293e-02 1.021225e-02 1.068616e-02 1.694857e-02 3.289051e-03
<VARIANCE> 39
 3.844736e-01 5.427796e-01 4.128671e-01 4.918615e-01 5.251367e-01 5.059819e-01 4.539385e-01 4.323629e-01 4.591341e-01 3.274906e-01 2.998940e-01 2.576348e-01 8.885975e-01 3.569234e-02 6.174631e-02 3.771205e-02 5.124913e-02 7.615647e-02 5.221946e-02 4.456901e-02 3.137508e-02 5.107261e-02 3.708940e-02 3.520684e-02 3.849428e-02 3.351704e-02 6.325040e-03 1.061187e-02 8.857001e-03 8.278046e-03 8.699671e-03 9.468969e-03 7.816664e-03 6.721166e-03 8.680606e-03 8.714802e-03 6.471112e-03 6.389231e-03 6.600475e-03
<GCONST> -4.273687e+01
<STATE> 3
<MEAN> 39
 -1.461520e-01 4.773798e-02 -1.041378e-01 -8.622160e-01 -1.198986e+00 -1.584715e+00 -7.014983e-01 -3.138089e-01 -2.503268e-01 -8.199660e-01 -5.045204e-01 -2.658973e-01 5.640103e+00 5.850568e-02 -8.854412e-02 -5.434221e-02 -7.866799e-02 -1.932146e-01 -1.319834e-01 2.431071e-02 7.014021e-02 3.494173e-02 2.740351e-02 5.751967e-02 7.142033e-02 7.751740e-02 -2.182334e-02 -2.410246e-02 -3.315727e-02 2.794231e-02 5.720238e-02 3.558855e-02 2.164648e-02 -1.451577e-02 -1.087388e-02 1.375358e-02 2.769455e-02 1.693552e-02 -1.768555e-02
<VARIANCE> 39
 7.752372e-02 7.026774e-01 4.515410e-01 5.627506e-01 4.086946e-01 4.879472e-01 6.477277e-01 3.243136e-01 3.573117e-01 2.631910e-01 1.705828e-01 2.039807e-01 2.386534e-01 3.885568e-03 3.143025e-02 2.927570e-02 1.855567e-02 2.736358e-02 3.693255e-02 2.622399e-02 1.719321e-02 2.339084e-02 2.904191e-02 1.743960e-02 2.096147e-02 1.194752e-02 1.527665e-03 5.446921e-03 3.365058e-03 4.724470e-03 5.505953e-03 4.583972e-03 4.825412e-03 3.212266e-03 5.001148e-03 6.996003e-03 3.387483e-03 4.563746e-03 3.634080e-03
<GCONST> -6.505922e+01
<STATE> 4
<MEAN> 39
 3.035521e-01 -6.055248e-01 2.280888e-01 -6.403389e-01 -1.756393e+00 -1.795354e-01 -1.303857e+00 1.074828e-01 9.852119e-01 -1.735558e+00 -1.076748e+00 5.361436e-01 4.198366e+00 -2.184149e-02 1.774569e-02 -2.037553e-02 2.510795e-02 -6.467181e-02 -9.720001e-02 1.467608e-01 1.014746e-01 -3.597741e-02 4.336620e-02 2.085581e-02 5.707780e-03 -3.540956e-02 -3.446287e-02 3.939259e-02 -6.249776e-02 4.468805e-02 1.081106e-01 -3.986479e-02 2.732950e-02 7.149733e-03 -6.370071e-02 5.353140e-02 2.186681e-02 -3.854224e-02 -5.426058e-02
<VARIANCE> 39
 3.371760e-02 2.541519e-01 2.231415e-01 1.766692e-01 2.705511e-01 1.779532e-01 3.347144e-01 2.538637e-01 2.421443e-01 2.023633e-01 1.899055e-01 2.489622e-01 7.967084e-02 8.183930e-03 3.937607e-02 5.725009e-02 3.974211e-02 1.042543e-01 3.969108e-02 3.346924e-02 4.505296e-02 4.421445e-02 3.302934e-02 2.783316e-02 3.679449e-02 2.462642e-02 2.093328e-03 8.142877e-03 4.851294e-03 5.962275e-03 9.927712e-03 8.244390e-03 6.136793e-03 1.008489e-02 6.149433e-03 5.328870e-03 5.238423e-03 7.469100e-03 2.973692e-03
<GCONST> -6.046347e+01
<STATE> 5
<MEAN> 39
 2.580244e-02 -1.147748e+00 -6.467897e-01 -1.377622e+00 -1.252689e+00 -1.923116e+00 6.869040e-02 -1.967295e-01 -2.584298e-01 -5.001171e-01 6.703119e-02 3.339705e-01 6.156797e+00 -3.131822e-02 -1.510751e-02 -6.864161e-02 3.696421e-03 2.786723e-02 7.577211e-02 7.305530e-02 -6.472898e-03 1.604469e-02 3.609471e-02 2.090358e-02 4.035571e-02 -4.086488e-02 -2.666202e-02 4.551176e-02 2.605098e-02 1.868999e-02 3.269389e-02 2.987974e-02 -1.714737e-02 -1.836433e-02 -3.244709e-03 -1.037419e-02 -2.046802e-02 -2.581985e-02 -4.783535e-02
<VARIANCE> 39
 5.275007e-02 7.129469e-01 1.217916e+00 7.472086e-01 3.321451e-01 7.623790e-01 1.156610e+00 5.653987e-01 4.582511e-01 3.015065e-01 2.744879e-01 2.025957e-01 3.151754e-01 5.467274e-03 3.064141e-02 1.903550e-02 1.328630e-02 1.702711e-02 2.169348e-02 1.813383e-02 1.313713e-02 1.892953e-02 1.581105e-02 1.768737e-02 1.451993e-02 2.211483e-02 1.046238e-03 4.270256e-03 3.523975e-03 2.939020e-03 5.188645e-03 4.692216e-03 3.664379e-03 2.980123e-03 3.880003e-03 3.695803e-03 3.064135e-03 2.778309e-03 2.838013e-03
<GCONST> -6.747023e+01
<STATE> 6
<MEAN> 39
 -2.268305e-01 -6.021302e-01 -3.668253e-01 -1.169106e+00 -6.991688e-01 -1.340530e+00 1.955969e-01 -4.612745e-01 -3.165528e-01 -7.473533e-01 -2.331338e-01 1.474308e-01 5.108905e+00 -1.057553e-01 7.630880e-02 -5.351189e-03 4.032489e-02 1.616096e-01 3.745529e-02 -3.826234e-02 -5.422467e-02 -7.738049e-02 5.789223e-02 2.417191e-02 -4.926806e-02 -1.365546e-01 4.949522e-03 -5.035290e-02 7.831517e-03 -2.557964e-02 -2.773994e-02 -3.011843e-03 -1.259591e-02 -1.666238e-02 5.361047e-04 3.203060e-03 5.161399e-03 1.675255e-02 4.850348e-02
<VARIANCE> 39
 1.887115e-01 6.576097e-01 6.162854e-01 6.925511e-01 6.091715e-01 7.739836e-01 7.951544e-01 7.602126e-01 4.080143e-01 2.318501e-01 3.530675e-01 2.742964e-01 1.067214e+00 2.781639e-02 4.730608e-02 4.048792e-02 3.932445e-02 6.578546e-02 7.093943e-02 3.415478e-02 4.005332e-02 4.457638e-02 2.827881e-02 3.365772e-02 3.474354e-02 6.537864e-02 4.468768e-03 8.081660e-03 8.231010e-03 6.096697e-03 1.471640e-02 1.435339e-02 6.087266e-03 8.127587e-03 7.373813e-03 4.952402e-03 6.713137e-03 6.118506e-03 9.677673e-03
<GCONST> -4.179747e+01
<STATE> 7
<MEAN> 39
 -5.791847e-01 -2.133506e-01 -7.458257e-01 -7.806004e-01 -8.684556e-01 -1.139421e+00 -5.839909e-01 -4.170845e-01 -3.794440e-01 -7.581904e-01 -3.080273e-01 1.072524e-01 4.960168e+00 -1.874706e-02 -3.763295e-02 2.137677e-04 1.826168e-02 5.159097e-02 2.871617e-02 -2.981194e-02 -4.627459e-02 -2.660501e-02 -1.042351e-02 -3.534730e-04 5.107824e-03 5.677188e-03 2.252519e-02 -1.017451e-02 5.812486e-03 -7.036500e-03 -2.213938e-02 -1.496020e-02 -3.439850e-03 9.664457e-03 2.165821e-02 -1.876112e-03 2.488807e-03 6.351426e-03 2.674576e-02
<VARIANCE> 39
 4.908648e-01 4.735146e-01 4.427409e-01 4.781909e-01 4.044628e-01 5.279167e-01 4.038095e-01 3.267113e-01 2.544179e-01 3.945772e-01 3.112828e-01 1.922731e-01 8.351110e-01 3.356864e-02 2.869749e-02 3.301983e-02 2.230141e-02 4.153253e-02 4.953349e-02 2.608610e-02 2.252932e-02 2.875688e-02 2.989056e-02 2.457746e-02 1.956529e-02 2.896337e-02 5.876711e-03 5.625044e-03 6.649422e-03 4.722518e-03 7.788796e-03 1.144031e-02 6.012768e-03 4.124621e-03 6.312595e-03 6.371658e-03 4.735865e-03 4.745806e-03 5.222215e-03
<GCONST> -5.291933e+01
<TRANSP> 8
 0.000000e+00 6.099421e-01 3.900580e-01 0.000000e+00 0.000000e+00 0.000000e+00 0.000000e+00 0.000000e+00
 0.000000e+00 7.358716e-01 1.754431e-01 8.868531e-02 0.000000e+00 0.000000e+00 0.000000e+00 0.000000e+00
 0.000000e+00 0.000000e+00 7.236059e-01 3.492837e-03 2.729012e-01 0.000000e+00 0.000000e+00 0.000000e+00
 0.000000e+00 0.000000e+00 0.000000e+00 8.350362e-01 0.000000e+00 1.649639e-01 0.000000e+00 0.000000e+00
 0.000000e+00 0.000000e+00 0.000000e+00 0.000000e+00 8.040286e-01 1.959714e-01 0.000000e+00 0.000000e+00
 0.000000e+00 0.000000e+00 0.000000e+00 0.000000e+00 0.000000e+00 6.138864e-01 3.861136e-01 0.000000e+00
 0.000000e+00 0.000000e+00 0.000000e+00 0.000000e+00 0.000000e+00 0.000000e+00 7.373585e-01 2.626415e-01
 0.000000e+00 0.000000e+00 0.000000e+00 0.000000e+00 0.000000e+00 0.000000e+00 0.000000e+00 0.000000e+00
<ENDHMM>
