~o
<STREAMINFO> 1 39
<VECSIZE> 39<NULLD><PLP_D_A_0><DIAGC>
~h "empat"
<BEGINHMM>
<NUMSTATES> 8
<STATE> 2
<MEAN> 39
 -4.846269e-01 -2.427232e-01 -3.158793e-01 -2.854771e-01 -4.048600e-02 -1.129123e+00 -9.397574e-02 -2.588577e-01 -2.810892e-01 -8.696831e-01 -8.972194e-01 -4.410691e-01 4.997017e+00 -5.473419e-03 8.945466e-02 4.864377e-02 3.269446e-02 5.200578e-02 3.192914e-02 -1.436242e-02 -4.405061e-03 1.047610e-02 -1.265966e-02 -5.988706e-02 -6.393547e-02 -5.520898e-02 -5.478934e-02 -3.028188e-02 -1.449789e-02 -2.182556e-02 -2.545604e-02 1.968284e-02 6.508910e-03 -5.803867e-03 2.512725e-03 2.450711e-02 5.582947e-02 3.593855e-02 -3.699431e-02
<VARIANCE> 39
 2.416559e-01 5.589470e-01 2.957839e-01 8.753644e-01 3.342680e-01 7.818785e-01 9.141572e-01 5.218986e-01 3.620951e-01 2.194657e-01 3.545436e-01 3.572341e-01 1.039368e+00 3.535447e-02 1.790833e-02 1.573992e-02 2.125317e-02 2.484870e-02 2.716075e-02 2.661622e-02 2.138488e-02 2.918759e-02 1.735784e-02 4.146889e-02 2.618145e-02 3.161166e-02 4.257485e-03 5.427770e-03 3.459548e-03 5.163994e-03 6.051400e-03 4.722020e-03 4.278722e-03 4.212138e-03 5.548465e-03 3.192829e-03 6.900920e-03 6.038052e-03 4.518074e-03
<GCONST> -5.574665e+01
<STATE> 3
<MEAN> 39
 -1.147343e+00 -2.518931e-01 -4.434623e-01 -3.664254e-01 -2.321647e-01 -7.001497e-01 -1.780822e-01 -4.052110e-01 -2.348187e-01 -5.371767e-01 -3.776858e-01 -2.011677e-01 4.395403e+00 6.116229e-02 -2.229517e-01 -1.707548e-01 -1.939740e-01 -2.381543e-01 -5.684344e-02 3.917604e-02 -3.829144e-04 3.570549e-02 6.676473e-02 2.273756e-01 1.721231e-01 1.675808e-01 1.165214e-01 -4.908377e-02 -4.051888e-02 -4.449380e-02 -6.514403e-02 -3.943587e-02 -1.452036e-03 1.906035e-02 3.506745e-02 -1.207873e-02 -8.817006e-03 1.639426e-02 1.330458e-01
<VARIANCE> 39
 1.353524e-01 3.568083e-01 3.165202e-01 3.377607e-01 3.146501e-01 2.341135e-01 3.191617e-01 2.341384e-01 1.509965e-01 1.685731e-01 2.916532e-01 1.037564e-01 6.986778e-01 6.604275e-02 2.938115e-02 1.920507e-02 3.102906e-02 3.431827e-02 4.038270e-02 2.057003e-02 2.213122e-02 4.002681e-02 1.971271e-02 2.802927e-02 1.470551e-02 7.544300e-02 4.576935e-03 7.181838e-03 4.266444e-03 5.196786e-03 5.326037e-03 6.209396e-03 5.131174e-03 3.679320e-03 7.385400e-03 2.973226e-03 7.571114e-03 2.694870e-03 6.244403e-03
<GCONST> -6.062415e+01
<STATE> 4
<MEAN> 39
 8.893939e-03 -1.132660e+00 -8.804915e-01 -1.141553e+00 -1.478795e+00 -8.896210e-01 -1.514558e-01 -3.592144e-01 1.368169e-01 -5.648128e-01 9.090994e-02 4.826229e-01 5.601480e+00 1.375899e-01 -1.043482e-01 -6.340931e-02 -5.543625e-02 -1.047868e-01 2.001206e-02 1.617422e-02 -4.805417e-03 4.310701e-02 -1.492245e-03 3.885078e-02 9.460860e-02 1.772625e-01 -9.506657e-02 7.622683e-02 2.694974e-02 7.059071e-02 1.111812e-01 2.050618e-02 -6.836794e-03 -1.005360e-02 -3.797033e-02 -4.086835e-03 -3.751354e-02 -4.754708e-02 -1.270848e-01
<VARIANCE> 39
 1.214828e-01 4.710628e-01 4.395043e-01 4.194550e-01 4.415657e-01 8.155403e-01 6.469994e-01 4.015906e-01 3.480996e-01 2.953683e-01 1.773327e-01 1.987680e-01 8.668691e-01 6.470343e-02 5.654378e-02 4.598339e-02 4.545684e-02 9.077734e-02 3.849727e-02 2.627371e-02 2.656544e-02 4.953383e-02 2.238011e-02 2.245604e-02 2.610052e-02 1.097757e-01 6.406080e-03 6.404658e-03 1.004102e-02 6.637196e-03 1.011232e-02 1.076516e-02 4.651189e-03 6.059750e-03 8.431238e-03 5.073723e-03 5.051304e-03 4.270177e-03 7.947406e-03
<GCONST> -4.712566e+01
<STATE> 5
<MEAN> 39
 1.046298e-02 -1.710564e+00 -1.463445e+00 -1.704821e+00 -1.134811e+00 -1.006238e+00 4.450501e-01 -5.666221e-01 5.485798e-01 -3.066722e-01 8.953901e-02 4.246373e-01 6.663496e+00 -3.353987e-02 8.571324e-02 6.177131e-02 -2.312141e-02 8.438541e-02 4.292994e-02 -8.143657e-02 -1.074307e-01 -4.555363e-02 3.726401e-02 6.288711e-03 4.836061e-02 -1.107634e-01 -4.610365e-02 6.179800e-02 2.739828e-02 1.213756e-02 2.344855e-02 -1.528005e-02 -2.815831e-02 2.770900e-02 -3.946369e-02 -1.010880e-02 -3.332542e-03 -1.735434e-02 -1.003065e-01
<VARIANCE> 39
 2.547756e-02 5.619991e-01 3.401693e-01 3.947371e-01 4.654849e-01 2.539026e-01 9.911091e-01 7.349359e-01 3.636417e-01 2.412915e-01 2.136007e-01 2.259417e-01 1.713942e-01 3.082982e-03 1.838432e-02 2.194764e-02 1.685692e-02 1.451186e-02 1.744839e-02 1.615713e-02 1.881298e-02 2.346091e-02 1.881287e-02 1.829759e-02 1.675709e-02 2.927840e-02 1.228918e-03 3.052018e-03 6.198150e-03 4.366670e-03 3.993102e-03 3.497261e-03 3.244746e-03 6.035319e-03 3.967257e-03 4.988728e-03 3.707553e-03 2.600333e-03 2.363365e-03
<GCONST> -7.112211e+01
<STATE> 6
<MEAN> 39
 -7.127916e-01 -7.548035e-01 -1.270685e+00 -1.223365e+00 -1.028624e+00 -9.231900e-01 -3.365276e-01 -4.131609e-01 -1.339047e-01 -3.092490e-01 1.537654e-01 5.234524e-01 5.092121e+00 -1.670354e-01 9.197538e-02 1.996379e-02 5.966632e-02 9.842584e-02 2.195010e-02 -6.088043e-03 4.606633e-02 -4.143602e-02 -5.240554e-03 -2.397533e-02 -7.563791e-02 -2.216741e-01 1.047680e-02 -3.442147e-03 1.124780e-02 1.266157e-02 6.441215e-03 2.990315e-04 9.908643e-03 1.087485e-03 1.178149e-02 -2.402920e-03 -1.290658e-02 -1.843300e-02 2.780557e-02
<VARIANCE> 39
 3.047433e-01 2.265322e-01 5.662544e-01 4.078306e-01 2.264313e-01 2.516462e-01 3.018342e-01 2.336864e-01 1.347608e-01 1.433259e-01 1.007148e-01 2.055834e-01 3.312066e-01 1.516708e-02 2.122741e-02 2.734448e-02 2.192325e-02 2.061198e-02 2.309261e-02 1.148711e-02 1.841254e-02 1.595156e-02 1.158515e-02 1.056228e-02 1.369825e-02 2.927011e-02 4.060052e-03 2.678098e-03 4.568914e-03 3.752281e-03 2.697619e-03 2.481030e-03 2.269521e-03 2.862571e-03 3.033954e-03 2.447789e-03 1.923037e-03 1.851369e-03 4.601557e-03
<GCONST> -7.544708e+01
<STATE> 7
<MEAN> 39
 -5.824494e-01 -5.188211e-01 -6.156216e-01 -7.678284e-01 -4.154170e-01 -1.042051e+00 -2.635067e-01 -5.797080e-01 -4.478017e-01 -8.129602e-01 -1.501592e-01 1.963154e-01 4.722430e+00 1.326322e-02 -1.337928e-03 1.647320e-02 4.454614e-03 2.280648e-02 -4.363957e-02 -1.271814e-02 -2.581537e-02 -5.013170e-02 -2.381213e-02 -1.464428e-02 -4.418633e-03 5.837904e-02 2.687906e-02 -4.700102e-02 -6.061203e-03 -2.992511e-02 -3.852037e-02 -3.071683e-03 9.681777e-04 -1.832513e-02 1.258308e-02 1.301902e-02 1.317501e-02 2.680701e-02 5.835610e-02
<VARIANCE> 39
 4.083320e-01 6.424938e-01 3.570121e-01 5.470155e-01 4.068639e-01 4.364742e-01 6.080002e-01 3.628370e-01 3.473291e-01 3.545707e-01 2.766596e-01 2.277048e-01 1.438251e+00 5.080469e-02 5.506064e-02 5.134219e-02 4.339016e-02 4.099957e-02 3.788164e-02 1.988644e-02 2.487524e-02 4.729314e-02 4.545483e-02 3.059672e-02 3.649186e-02 5.880319e-02 8.686672e-03 8.559233e-03 8.223779e-03 7.571375e-03 8.122321e-03 9.845875e-03 4.712314e-03 6.544817e-03 8.939783e-03 8.819652e-03 6.186090e-03 6.571481e-03 1.007572e-02
<GCONST> -4.403526e+01
<TRANSP> 8
 0.000000e+00 8.395663e-01 1.604338e-01 0.000000e+00 0.000000e+00 0.000000e+00 0.000000e+00 0.000000e+00
 0.000000e+00 7.758635e-01 1.640673e-01 6.006917e-02 0.000000e+00 0.000000e+00 0.000000e+00 0.000000e+00
 0.000000e+00 0.000000e+00 7.035486e-01 2.964514e-01 0.000000e+00 0.000000e+00 0.000000e+00 0.000000e+00
 0.000000e+00 0.000000e+00 0.000000e+00 6.650481e-01 1.345411e-01 2.004108e-01 0.000000e+00 0.000000e+00
 0.000000e+00 0.000000e+00 0.000000e+00 0.000000e+00 7.703823e-01 2.296177e-01 0.000000e+00 0.000000e+00
 0.000000e+00 0.000000e+00 0.000000e+00 0.000000e+00 0.000000e+00 7.340068e-01 2.659932e-01 0.000000e+00
 0.000000e+00 0.000000e+00 0.000000e+00 0.000000e+00 0.000000e+00 0.000000e+00 7.457534e-01 2.542466e-01
 0.000000e+00 0.000000e+00 0.000000e+00 0.000000e+00 0.000000e+00 0.000000e+00 0.000000e+00 0.000000e+00
<ENDHMM>
