~o
<STREAMINFO> 1 36
<VECSIZE> 36<NULLD><LPC_D_A><DIAGC>
~h "empat"
<BEGINHMM>
<NUMSTATES> 8
<STATE> 2
<MEAN> 36
 -2.484674e+00 3.966438e+00 -5.555602e+00 6.638373e+00 -6.833393e+00 6.198533e+00 -4.980686e+00 3.397532e+00 -2.001276e+00 1.013608e+00 -4.270107e-01 1.351266e-01 1.341485e-01 -4.281360e-01 8.313501e-01 -1.305145e+00 1.667645e+00 -1.814292e+00 1.717896e+00 -1.405085e+00 9.700955e-01 -5.620100e-01 2.605877e-01 -7.229540e-02 -6.159121e-01 2.942758e+00 -7.380765e+00 1.352652e+01 -1.970844e+01 2.356951e+01 -2.356908e+01 1.972518e+01 -1.356124e+01 7.406643e+00 -2.986833e+00 6.604690e-01
<VARIANCE> 36
 2.322776e-01 2.136553e+00 7.904947e+00 1.836344e+01 2.891450e+01 3.440104e+01 3.139701e+01 2.137590e+01 1.061039e+01 3.618076e+00 7.717081e-01 6.406124e-02 8.048359e-02 5.428808e-01 1.739976e+00 3.952960e+00 6.254712e+00 7.301589e+00 6.487670e+00 4.234989e+00 1.974794e+00 6.682010e-01 1.249169e-01 6.403529e-03 5.295306e+00 1.052040e+02 6.392679e+02 2.129082e+03 4.493040e+03 6.403482e+03 6.396048e+03 4.476319e+03 2.115355e+03 6.330403e+02 1.035004e+02 5.145715e+00
<GCONST> 1.587483e+02
<STATE> 3
<MEAN> 36
 -6.081320e-01 6.872389e-02 -3.027118e-01 2.023235e-01 -2.422821e-01 2.088581e-01 -2.086974e-01 1.909399e-01 -1.571545e-01 1.109711e-01 -1.557782e-01 9.875161e-02 -1.769772e-02 2.209055e-03 5.897863e-04 5.234103e-03 -4.212656e-03 -7.165878e-05 -2.089231e-03 3.074085e-03 2.823616e-04 7.310700e-04 -4.411372e-04 3.388231e-03 4.784678e-03 6.818727e-03 -1.920937e-04 -7.430843e-04 -1.342283e-03 1.041013e-04 -8.648192e-04 -2.135647e-04 -8.983693e-05 1.154006e-03 2.453220e-04 -3.363651e-04
<VARIANCE> 36
 3.981558e-01 1.617741e-01 1.558217e-01 1.403852e-01 9.942365e-02 5.283300e-02 8.317190e-02 7.027069e-02 4.058216e-02 3.110887e-02 2.490811e-02 1.594893e-02 5.390413e-02 2.005242e-02 1.092221e-02 1.273916e-02 6.242550e-03 4.914150e-03 4.424769e-03 5.119245e-03 2.788668e-03 2.096741e-03 2.649553e-03 1.456648e-03 9.449533e-03 3.569913e-03 2.168773e-03 2.317302e-03 1.363120e-03 1.032346e-03 8.704602e-04 1.025841e-03 5.837606e-04 4.467855e-04 5.061929e-04 2.894694e-04
<GCONST> -1.074061e+02
<STATE> 4
<MEAN> 36
 -1.609303e+00 2.061279e+00 -2.700169e+00 2.940341e+00 -2.907588e+00 2.459127e+00 -1.864197e+00 1.198060e+00 -6.558380e-01 2.862817e-01 -1.443753e-01 6.907944e-02 3.742101e-02 -2.535925e-02 5.273127e-02 -1.130790e-01 1.214048e-01 -1.113706e-01 8.924158e-02 -6.677587e-02 4.167804e-02 -2.308612e-02 1.461784e-02 -9.425313e-03 7.022060e-03 4.624400e-03 -3.494358e-02 6.165563e-02 -7.446361e-02 8.181066e-02 -7.567268e-02 6.502445e-02 -4.920859e-02 2.663440e-02 -1.094536e-02 2.451408e-03
<VARIANCE> 36
 8.248512e-01 3.004942e+00 6.394358e+00 1.010558e+01 1.079601e+01 9.335376e+00 6.425556e+00 3.571489e+00 1.694492e+00 6.070978e-01 1.949097e-01 3.578890e-02 5.296851e-02 1.344422e-01 2.605645e-01 4.443264e-01 5.563709e-01 5.619529e-01 4.850551e-01 3.444766e-01 1.881018e-01 7.774740e-02 2.181049e-02 3.458926e-03 1.436814e-02 3.615270e-02 6.552008e-02 1.150024e-01 1.452990e-01 1.482654e-01 1.248723e-01 8.353785e-02 4.381660e-02 1.842220e-02 5.281723e-03 7.902812e-04
<GCONST> 9.918987e+00
<STATE> 5
<MEAN> 36
 -2.600813e+00 4.172401e+00 -5.731870e+00 6.904048e+00 -7.188420e+00 6.515749e+00 -5.255929e+00 3.692913e+00 -2.259041e+00 1.139359e+00 -3.893527e-01 8.306628e-02 1.241713e-02 -4.841648e-02 8.878902e-02 -1.430625e-01 1.805688e-01 -1.855354e-01 1.665457e-01 -1.307894e-01 9.303249e-02 -5.283329e-02 2.825281e-02 -4.427101e-03 3.233627e-02 -6.976400e-02 1.162214e-01 -1.723623e-01 2.086669e-01 -2.182387e-01 2.017899e-01 -1.622355e-01 1.119344e-01 -6.627835e-02 2.766106e-02 -7.003402e-03
<VARIANCE> 36
 5.219353e-01 4.810112e+00 1.871432e+01 4.464214e+01 7.708271e+01 1.030978e+02 1.046323e+02 7.917428e+01 4.538580e+01 1.890238e+01 4.393066e+00 2.867714e-01 8.327722e-02 5.401247e-01 1.760363e+00 3.998490e+00 6.636070e+00 8.561958e+00 8.523082e+00 6.383851e+00 3.565287e+00 1.448011e+00 3.346121e-01 2.346589e-02 1.180220e-02 8.794016e-02 2.953047e-01 6.771715e-01 1.151655e+00 1.515995e+00 1.533728e+00 1.163123e+00 6.434762e-01 2.538612e-01 5.837846e-02 4.143277e-03
<GCONST> 8.499793e+01
<STATE> 6
<MEAN> 36
 -7.109539e-01 3.488936e-01 -6.282725e-01 4.744976e-01 -5.492837e-01 3.905757e-01 -2.286434e-01 2.045630e-01 -1.351821e-01 4.676864e-02 -4.778181e-02 5.906803e-02 1.000822e-01 -6.905874e-02 6.011162e-02 -1.099607e-01 8.922276e-02 -9.091445e-02 1.106855e-01 -9.939481e-02 5.994838e-02 -4.341086e-02 3.703386e-02 -1.055823e-02 -4.233410e-02 5.009948e-02 -3.755809e-02 6.266000e-02 -5.463262e-02 5.271131e-02 -4.910939e-02 3.733474e-02 -2.437395e-02 1.543334e-02 -1.151919e-02 4.599209e-03
<VARIANCE> 36
 5.790339e-01 9.085773e-01 1.123268e+00 1.225822e+00 8.341362e-01 4.691893e-01 2.708855e-01 1.175652e-01 7.923803e-02 5.153884e-02 3.806763e-02 1.829365e-02 6.676973e-02 1.110295e-01 2.219810e-01 5.540054e-01 1.058619e+00 1.476354e+00 1.512547e+00 1.139066e+00 6.033670e-01 2.162098e-01 4.601182e-02 4.010973e-03 9.072450e-03 1.142560e-02 1.703728e-02 2.739104e-02 3.535090e-02 3.571470e-02 2.974107e-02 1.929210e-02 9.540664e-03 3.708101e-03 1.181834e-03 2.802449e-04
<GCONST> -2.411024e+01
<STATE> 7
<MEAN> 36
 -1.237087e+00 1.647798e+00 -2.310199e+00 2.443485e+00 -2.455944e+00 2.096282e+00 -1.591291e+00 1.035768e+00 -5.972871e-01 2.625392e-01 -1.028039e-01 5.445712e-02 -3.207791e-02 1.449497e-01 -1.961796e-01 2.785041e-01 -2.891595e-01 2.905932e-01 -2.384858e-01 1.803197e-01 -1.207068e-01 6.830234e-02 -3.145587e-02 7.777723e-03 -2.799817e-02 2.440628e-02 -3.415810e-02 8.686628e-02 -8.545392e-02 9.964348e-02 -9.244461e-02 8.052294e-02 -5.393117e-02 3.278841e-02 -1.890570e-02 6.628064e-03
<VARIANCE> 36
 1.226754e+00 3.731593e+00 7.007606e+00 1.123957e+01 1.230957e+01 1.127397e+01 8.248000e+00 4.588487e+00 2.004560e+00 6.227332e-01 1.398252e-01 2.178669e-02 5.105004e-02 1.385447e-01 3.412960e-01 6.796990e-01 9.929534e-01 1.121713e+00 1.004170e+00 6.635902e-01 3.226843e-01 1.076176e-01 2.153382e-02 2.195104e-03 8.370441e-03 2.296521e-02 5.735978e-02 1.096350e-01 1.626197e-01 1.813873e-01 1.626167e-01 1.086407e-01 5.502371e-02 1.912637e-02 4.110103e-03 4.814787e-04
<GCONST> 1.383990e+01
<TRANSP> 8
 0.000000e+00 2.249979e-01 7.750021e-01 0.000000e+00 0.000000e+00 0.000000e+00 0.000000e+00 0.000000e+00
 0.000000e+00 2.800012e-01 0.000000e+00 7.199988e-01 0.000000e+00 0.000000e+00 0.000000e+00 0.000000e+00
 0.000000e+00 0.000000e+00 9.326516e-01 6.734847e-02 0.000000e+00 0.000000e+00 0.000000e+00 0.000000e+00
 0.000000e+00 0.000000e+00 0.000000e+00 6.055909e-01 5.423057e-02 3.401785e-01 0.000000e+00 0.000000e+00
 0.000000e+00 0.000000e+00 0.000000e+00 0.000000e+00 8.879284e-01 1.120716e-01 0.000000e+00 0.000000e+00
 0.000000e+00 0.000000e+00 0.000000e+00 0.000000e+00 0.000000e+00 4.214518e-01 5.785482e-01 0.000000e+00
 0.000000e+00 0.000000e+00 0.000000e+00 0.000000e+00 0.000000e+00 0.000000e+00 3.228941e-01 6.771060e-01
 0.000000e+00 0.000000e+00 0.000000e+00 0.000000e+00 0.000000e+00 0.000000e+00 0.000000e+00 0.000000e+00
<ENDHMM>
