~o
<STREAMINFO> 1 39
<VECSIZE> 39<NULLD><MFCC_D_A_0><DIAGC>
~h "enam"
<BEGINHMM>
<NUMSTATES> 6
<STATE> 2
<MEAN> 39
 1.225065e+00 9.466677e+00 -2.655487e+00 1.428254e+01 1.191354e+01 -3.672821e-01 -4.516909e+00 4.205794e+00 2.863608e+00 -5.292306e+00 -4.527388e+00 2.226347e-01 5.155751e+01 7.784613e-01 -5.589607e-02 -3.334245e-02 -7.745678e-02 -3.456476e-01 2.470678e-01 4.468328e-01 1.949953e-01 2.534892e-01 -2.160224e-01 -2.225996e-01 1.177965e-01 5.893027e-01 -1.084705e-02 -2.916895e-01 2.235159e-02 -4.140628e-01 -4.701515e-01 2.227529e-01 2.516796e-02 -4.293076e-02 7.088787e-02 -9.605037e-02 2.941000e-01 3.339203e-01 1.399530e-01
<VARIANCE> 39
 2.829872e+01 2.068994e+01 1.994160e+01 3.564172e+01 1.530010e+01 2.660846e+01 2.746538e+01 9.944659e+01 3.213771e+01 1.821416e+01 3.227339e+01 3.168709e+01 7.103193e+01 1.503150e+00 2.475729e+00 1.680344e+00 4.743987e+00 3.833325e+00 2.192122e+00 4.070541e+00 2.178667e+00 2.553645e+00 2.673429e+00 3.826880e+00 4.608617e+00 1.192914e+00 2.366846e-01 2.124406e-01 2.562318e-01 5.347224e-01 3.781756e-01 3.664199e-01 6.555261e-01 4.896212e-01 5.312545e-01 3.769476e-01 5.114768e-01 5.825225e-01 1.456161e-01
<GCONST> 1.159351e+02
<STATE> 3
<MEAN> 39
 6.768201e+00 2.141101e+00 -6.908602e-01 4.373854e-01 -6.852064e+00 6.192253e+00 -4.389388e-01 5.089284e+00 8.054935e+00 -9.631322e+00 1.277802e+00 1.225208e+01 6.019735e+01 -1.514406e-02 2.866692e-01 4.546348e-02 -5.928371e-02 -4.586810e-01 -5.234798e-01 2.756763e-01 4.896195e-01 4.160713e-01 2.916874e-01 -2.548986e-01 -1.626786e-01 -1.012048e-01 -1.519079e-01 3.183458e-01 -7.872534e-02 6.136520e-01 7.528056e-01 -3.245724e-01 2.765661e-03 1.568765e-01 -1.613493e-01 1.789116e-01 -3.421359e-01 -7.026241e-01 -2.945551e-01
<VARIANCE> 39
 1.004894e+01 3.926746e+01 1.678410e+01 2.010461e+01 3.398368e+01 2.276247e+01 2.147174e+01 7.739214e+01 3.174614e+01 3.080316e+01 3.470369e+01 2.465614e+01 4.873917e+01 4.697106e-01 2.478516e+00 1.773248e+00 5.629508e+00 8.341318e+00 4.249577e+00 2.484902e+00 3.417861e+00 2.026143e+00 2.014356e+00 4.222348e+00 6.870564e+00 1.328275e+00 8.497858e-02 2.534510e-01 2.882145e-01 4.530029e-01 6.395615e-01 5.486289e-01 5.785333e-01 6.585401e-01 4.531708e-01 3.011624e-01 6.101023e-01 6.785460e-01 8.047606e-02
<GCONST> 1.150054e+02
<STATE> 4
<MEAN> 39
 2.194435e+00 1.179986e+01 -4.231165e-01 1.257708e+01 7.336832e+00 4.616508e-01 2.059311e-02 7.135595e+00 6.330100e+00 -6.074907e+00 -9.574029e+00 -4.401414e+00 5.499252e+01 -4.238593e-01 4.684997e-01 2.934575e-01 5.928596e-01 8.936108e-01 1.014365e-01 6.750674e-02 7.219106e-02 -1.743674e-01 7.607810e-02 -5.709823e-01 -1.124286e+00 -4.799502e-01 2.715782e-02 -1.146893e-01 2.737599e-02 -3.195948e-01 -3.838832e-01 8.195221e-02 -5.452718e-02 -1.577926e-01 8.089531e-03 -1.705856e-02 2.459491e-01 3.921271e-01 9.177153e-02
<VARIANCE> 39
 1.581596e+01 2.102924e+01 1.775231e+01 1.002927e+01 2.029469e+01 1.801141e+01 1.608932e+01 1.010888e+02 5.113777e+01 8.505373e+00 2.827425e+01 2.275371e+01 7.086282e+01 3.833863e-01 7.088657e-01 7.558670e-01 2.049740e+00 3.215907e+00 1.022340e+00 1.227809e+00 1.667215e+00 2.103132e+00 1.547910e+00 2.765440e+00 4.174834e+00 3.422077e-01 5.087367e-02 1.041577e-01 1.694312e-01 2.287194e-01 2.385760e-01 3.040942e-01 2.041861e-01 2.534532e-01 4.013327e-01 3.686774e-01 3.292450e-01 4.481176e-01 4.076048e-02
<GCONST> 9.526012e+01
<STATE> 5
<MEAN> 39
 1.965634e-01 6.394582e+00 -3.388960e-01 6.466122e+00 6.222815e-01 1.921627e+00 -2.108280e+00 4.924189e+00 4.318389e+00 -8.806419e+00 -5.549400e+00 1.539190e+00 4.977914e+01 -4.353775e-01 -1.212438e+00 -6.005244e-02 -9.704867e-01 -1.290100e+00 1.767259e-01 -3.088657e-01 -8.766677e-01 -6.753432e-01 -5.149504e-01 6.734683e-01 1.144030e+00 1.638914e-01 5.843290e-02 -1.100918e-01 3.520826e-02 -5.102014e-02 -6.024179e-02 -2.607632e-02 -4.285993e-02 -1.898750e-02 -3.917975e-02 -2.309830e-02 -9.129945e-02 1.883931e-03 1.300097e-01
<VARIANCE> 39
 8.118501e+01 8.705653e+01 3.368400e+01 4.137167e+01 7.926069e+01 4.926860e+01 4.733361e+01 5.717984e+01 6.057979e+01 7.668628e+01 5.320536e+01 8.504667e+01 5.743847e+01 1.911925e+00 3.424435e+00 3.727747e+00 3.552199e+00 4.492864e+00 4.242990e+00 2.633281e+00 3.709979e+00 6.256288e+00 6.294437e+00 4.176261e+00 4.603186e+00 2.009271e+00 2.692834e-01 5.927827e-01 6.420611e-01 6.645636e-01 7.801971e-01 7.245783e-01 5.110625e-01 5.555052e-01 1.112766e+00 1.176268e+00 9.449207e-01 8.208532e-01 3.137108e-01
<GCONST> 1.362216e+02
<TRANSP> 6
 0.000000e+00 7.499943e-01 2.500057e-01 0.000000e+00 0.000000e+00 0.000000e+00
 0.000000e+00 8.973633e-01 9.408346e-02 8.553285e-03 0.000000e+00 0.000000e+00
 0.000000e+00 0.000000e+00 8.934095e-01 1.065905e-01 0.000000e+00 0.000000e+00
 0.000000e+00 0.000000e+00 0.000000e+00 9.006156e-01 7.453772e-02 2.484670e-02
 0.000000e+00 0.000000e+00 0.000000e+00 0.000000e+00 8.932055e-01 1.067945e-01
 0.000000e+00 0.000000e+00 0.000000e+00 0.000000e+00 0.000000e+00 0.000000e+00
<ENDHMM>
