~o
<STREAMINFO> 1 39
<VECSIZE> 39<NULLD><MFCC_D_A_0><DIAGC>
~h "lima"
<BEGINHMM>
<NUMSTATES> 6
<STATE> 2
<MEAN> 39
 -3.948803e-01 -1.151716e+00 -5.903225e-01 1.610038e+01 1.121938e+01 -3.131663e+00 -1.107598e+01 1.409995e+00 -2.159060e+00 -5.279950e+00 2.639975e+00 1.881493e+00 6.074252e+01 2.009226e-01 3.752690e-01 1.211397e-01 5.563263e-01 6.362033e-01 -1.837907e-01 -1.951178e-01 1.446090e-01 2.423220e-01 2.196433e-01 -2.752675e-01 -4.177202e-01 -2.983014e-03 -7.017654e-02 1.023319e-01 -1.830014e-02 -1.454107e-01 -8.250188e-02 1.224619e-01 1.949411e-01 1.116158e-01 1.287631e-01 2.493453e-02 -1.730852e-01 -9.652801e-02 -9.533022e-02
<VARIANCE> 39
 2.507803e+01 3.340874e+01 6.138390e+01 4.379786e+01 5.458667e+01 3.249678e+01 5.720609e+01 3.691298e+01 4.669014e+01 4.058696e+01 3.926294e+01 2.952391e+01 1.152949e+02 1.037390e+00 3.433811e+00 3.987192e+00 2.269078e+00 2.803877e+00 3.231159e+00 6.674088e+00 3.302638e+00 3.583207e+00 3.067512e+00 3.546197e+00 2.311652e+00 1.601338e+00 1.566306e-01 4.587574e-01 6.274618e-01 3.095528e-01 4.812178e-01 5.967960e-01 1.007024e+00 4.898790e-01 7.022896e-01 5.948970e-01 5.306942e-01 3.876667e-01 1.776959e-01
<GCONST> 1.241247e+02
<STATE> 3
<MEAN> 39
 8.621241e-01 7.883368e+00 -1.939985e+00 1.512681e+01 1.271970e+01 -1.832126e+00 -5.250148e+00 5.788629e+00 3.035382e+00 -2.895947e+00 -5.730257e+00 -5.703151e+00 5.962648e+01 7.177170e-01 4.324921e-02 -8.322373e-01 -1.351265e+00 -1.292388e+00 -5.094522e-01 6.227990e-01 1.001144e+00 3.498236e-01 -4.310728e-01 -9.134565e-02 4.697756e-01 4.601764e-01 1.363108e-01 -3.327836e-01 -1.470062e-01 -3.073504e-01 -4.222397e-01 -2.477243e-01 -9.118409e-02 2.592218e-02 -1.238248e-01 -1.166835e-01 5.767766e-01 6.138242e-01 2.524614e-01
<VARIANCE> 39
 2.066892e+01 3.631742e+01 2.410964e+01 1.714522e+01 3.207100e+01 1.651291e+01 1.442741e+01 6.925973e+01 3.150849e+01 1.060820e+01 2.372452e+01 1.594483e+01 8.627741e+01 3.896355e-01 6.059491e-01 9.479978e-01 2.001997e+00 2.665278e+00 2.331872e+00 9.577653e-01 1.334356e+00 1.300904e+00 9.971690e-01 3.688714e+00 3.936078e+00 4.160780e-01 5.455521e-02 1.107843e-01 1.934628e-01 2.641738e-01 2.881051e-01 3.374655e-01 2.492970e-01 2.458463e-01 2.674151e-01 2.141574e-01 3.652700e-01 3.695339e-01 4.954252e-02
<GCONST> 9.596201e+01
<STATE> 4
<MEAN> 39
 1.536287e+00 -3.612285e+00 -1.462867e+01 -2.020033e+00 2.877981e+00 -3.397454e+00 -5.363249e-01 1.263304e+01 4.385718e+00 -3.485474e+00 3.346483e+00 7.673617e+00 7.167096e+01 -1.707141e-01 -8.111732e-02 -2.059860e-01 -5.635487e-01 -5.923540e-01 2.434686e-01 3.833464e-01 -3.070123e-02 1.715114e-02 -3.173720e-02 1.788280e-01 5.576264e-01 -1.188968e-01 -1.144233e-01 7.517527e-02 2.115831e-01 2.172892e-01 1.889366e-01 1.998834e-01 -3.568383e-02 -1.748406e-01 -3.578086e-02 1.764110e-02 -1.758611e-01 -1.850291e-01 -1.008865e-01
<VARIANCE> 39
 2.186274e+01 3.875084e+01 1.586891e+01 1.704964e+01 1.045405e+01 2.828720e+01 2.029817e+01 1.717797e+01 2.040353e+01 1.604550e+01 2.891842e+01 1.611490e+01 4.868081e+01 5.483810e-01 1.300349e+00 1.405006e+00 2.300495e+00 2.107148e+00 1.269536e+00 1.221286e+00 1.678031e+00 1.508919e+00 1.354768e+00 2.479324e+00 3.126336e+00 9.705169e-01 5.687296e-02 1.245782e-01 1.558857e-01 2.335672e-01 1.994257e-01 3.148362e-01 2.335159e-01 2.495415e-01 2.191232e-01 2.162813e-01 3.201150e-01 2.150700e-01 5.851140e-02
<GCONST> 9.421629e+01
<STATE> 5
<MEAN> 39
 3.096820e+00 9.115192e+00 -2.483978e+00 3.945304e+00 -2.680133e+00 -1.606536e+00 1.339168e+00 9.760489e+00 5.062258e+00 -9.089338e+00 -2.895009e+00 6.362542e+00 5.339175e+01 -5.755761e-01 -1.694674e-01 3.001384e-01 -8.668675e-02 -8.903798e-02 4.263954e-01 1.028393e-01 -4.102198e-01 -2.522731e-01 8.078099e-03 5.166107e-02 3.488202e-02 -3.068270e-01 -3.063783e-02 2.781873e-02 1.573839e-02 1.279304e-01 1.689703e-01 -1.363085e-02 -1.100074e-01 -8.639071e-02 -2.537823e-02 5.725273e-02 -5.926039e-02 -1.647129e-01 -4.519787e-02
<VARIANCE> 39
 5.261170e+01 3.958661e+01 3.192383e+01 3.370699e+01 4.389782e+01 4.336506e+01 3.153421e+01 6.637680e+01 6.083545e+01 4.594347e+01 4.430321e+01 6.895673e+01 9.131588e+01 1.348169e+00 2.810493e+00 2.653026e+00 2.494198e+00 4.354393e+00 3.184215e+00 2.890374e+00 2.751022e+00 3.260370e+00 4.328848e+00 3.022145e+00 4.718457e+00 1.455402e+00 2.063061e-01 3.902782e-01 5.059260e-01 4.785538e-01 8.156574e-01 6.015526e-01 5.141795e-01 6.159862e-01 6.112677e-01 7.578462e-01 5.692456e-01 7.133219e-01 1.674632e-01
<GCONST> 1.263194e+02
<TRANSP> 6
 0.000000e+00 9.022157e-01 9.778439e-02 0.000000e+00 0.000000e+00 0.000000e+00
 0.000000e+00 9.278886e-01 7.211144e-02 0.000000e+00 0.000000e+00 0.000000e+00
 0.000000e+00 0.000000e+00 8.623815e-01 1.376185e-01 0.000000e+00 0.000000e+00
 0.000000e+00 0.000000e+00 0.000000e+00 8.775570e-01 8.784869e-02 3.459436e-02
 0.000000e+00 0.000000e+00 0.000000e+00 0.000000e+00 9.218443e-01 7.815573e-02
 0.000000e+00 0.000000e+00 0.000000e+00 0.000000e+00 0.000000e+00 0.000000e+00
<ENDHMM>
