~o
<STREAMINFO> 1 39
<VECSIZE> 39<NULLD><MFCC_D_A_0><DIAGC>
~h "puluh"
<BEGINHMM>
<NUMSTATES> 6
<STATE> 2
<MEAN> 39
 -3.219412e-01 -2.971433e+00 9.942467e+00 -1.454677e+01 -1.048524e+00 -1.566233e+01 1.460843e+01 -1.214097e+01 -1.076470e+00 -9.287926e+00 -2.248871e+00 -5.522871e+00 7.399477e+01 -4.699408e-01 -1.335976e-01 1.052191e-01 6.542021e-02 1.184482e-01 2.274934e-01 2.272514e-01 1.555583e-01 4.490746e-01 5.271396e-02 6.687911e-01 -1.243715e-02 -4.675832e-02 -2.378543e-02 1.999006e-02 3.534758e-02 8.452841e-02 -4.124021e-02 -3.886715e-02 9.119405e-03 3.353243e-02 1.379374e-02 3.037555e-02 1.377736e-02 5.245898e-03 -3.295414e-02
<VARIANCE> 39
 5.228706e+01 3.112494e+01 5.529360e+01 6.344550e+01 1.520440e+02 1.067826e+02 6.808321e+01 4.268872e+01 8.786903e+01 4.309883e+01 9.330151e+01 3.412001e+01 3.939722e+01 1.778780e+00 1.620007e+00 2.714162e+00 3.179247e+00 5.577121e+00 6.732157e+00 2.766364e+00 3.605492e+00 3.441763e+00 3.142705e+00 4.157561e+00 2.773570e+00 2.672625e+00 2.787032e-01 2.817530e-01 4.230886e-01 4.968090e-01 7.786893e-01 1.161403e+00 5.338005e-01 6.096736e-01 5.294253e-01 5.992836e-01 7.693139e-01 5.355641e-01 3.797794e-01
<GCONST> 1.315015e+02
<STATE> 3
<MEAN> 39
 9.928761e-01 6.353816e+00 -1.482639e+00 2.784103e+00 -3.930655e+00 -1.604246e+00 -1.141142e+00 5.133131e+00 4.588247e+00 -6.672541e+00 -4.483832e+00 2.077908e-01 5.297961e+01 4.347022e-02 4.904966e-02 5.398080e-02 -3.455572e-02 -5.420688e-02 -7.163551e-02 4.926920e-02 8.609475e-02 -2.901893e-02 6.838376e-03 1.507808e-01 -1.421874e-02 2.310883e-02 4.737242e-02 1.207267e-02 2.580161e-02 4.224416e-02 -2.293381e-02 -1.003783e-01 -3.708340e-02 3.112266e-02 -1.886940e-03 -3.362893e-02 -2.183123e-02 3.592827e-03 3.299686e-02
<VARIANCE> 39
 6.273386e+01 5.709867e+01 6.626041e+01 5.436182e+01 6.623875e+01 5.318191e+01 6.882072e+01 5.879987e+01 6.720192e+01 5.857642e+01 4.883395e+01 3.638417e+01 8.780016e+01 2.568413e+00 5.829432e+00 6.774906e+00 4.460008e+00 7.483743e+00 6.401243e+00 5.187207e+00 4.792850e+00 5.794559e+00 5.140700e+00 4.037637e+00 4.207510e+00 2.700497e+00 3.634235e-01 1.148856e+00 1.159649e+00 8.627406e-01 1.289244e+00 1.297129e+00 9.713871e-01 9.396127e-01 1.244129e+00 9.890594e-01 8.650899e-01 8.029555e-01 4.386195e-01
<GCONST> 1.437445e+02
<STATE> 4
<MEAN> 39
 -2.475694e+00 1.121454e+01 2.764800e+00 1.820772e+00 -6.772833e+00 -6.171985e+00 8.440247e-01 -8.750823e-01 -3.090000e+00 -1.257439e+01 -7.244650e+00 -4.769790e+00 6.771684e+01 -4.948896e-01 -4.805438e-01 -3.424183e-01 9.025767e-03 1.455356e-01 4.226205e-01 3.332700e-01 -5.893786e-02 -6.168701e-02 2.882973e-01 2.798332e-01 8.876646e-02 -3.137161e-01 -4.699018e-02 -4.784804e-02 -3.591184e-02 -1.900685e-02 4.029059e-02 3.984540e-02 2.656512e-02 1.436551e-02 8.105835e-02 1.233865e-01 6.747650e-02 3.154751e-02 -3.287811e-02
<VARIANCE> 39
 1.901637e+01 4.072192e+01 5.270901e+01 5.580892e+01 2.565095e+01 5.257955e+01 5.066772e+01 3.237549e+01 3.504557e+01 1.899527e+01 2.001216e+01 1.442688e+01 1.600365e+01 3.060503e-01 8.533043e-01 2.095548e+00 1.537851e+00 1.785425e+00 2.201639e+00 1.994752e+00 1.431825e+00 2.183696e+00 1.602107e+00 1.005063e+00 8.940114e-01 2.772219e-01 5.292871e-02 1.456002e-01 3.214289e-01 2.525003e-01 3.127515e-01 3.740216e-01 3.694143e-01 2.381387e-01 3.182958e-01 2.165539e-01 1.744864e-01 1.758282e-01 4.000780e-02
<GCONST> 9.664190e+01
<STATE> 5
<MEAN> 39
 -6.537252e+00 2.660149e+00 -3.263098e+00 4.083720e-01 6.772713e-01 -5.765647e+00 -3.075177e+00 1.124703e+00 3.148026e+00 -2.567745e+00 -2.641450e+00 -2.712454e+00 6.320848e+01 -1.581106e-01 -6.066347e-02 -3.042725e-02 -3.815767e-02 9.996895e-02 1.051755e-01 -2.592075e-02 -8.755527e-02 -2.900312e-02 7.798523e-02 7.771422e-02 1.317897e-01 -1.483884e-01 -1.727918e-03 -6.162024e-03 1.234017e-02 -2.921377e-02 -3.578278e-02 -1.003080e-04 -3.907072e-03 -2.748589e-02 -4.679155e-02 -4.409350e-02 -3.533453e-02 8.649176e-03 1.102474e-02
<VARIANCE> 39
 5.806214e+01 1.923493e+01 3.435680e+01 3.340351e+01 5.881135e+01 3.326625e+01 1.086163e+02 4.189232e+01 3.807375e+01 1.928968e+01 4.599442e+01 1.827363e+01 6.393938e+01 8.477665e-01 8.596867e-01 1.568766e+00 1.348540e+00 1.962202e+00 2.153466e+00 1.877349e+00 1.513802e+00 1.492706e+00 1.574874e+00 1.530206e+00 1.347475e+00 6.623794e-01 1.036947e-01 1.647002e-01 2.602789e-01 2.336425e-01 2.763967e-01 4.037865e-01 3.662603e-01 2.811096e-01 2.697705e-01 2.644204e-01 2.535497e-01 2.559629e-01 6.166679e-02
<GCONST> 1.038214e+02
<TRANSP> 6
 0.000000e+00 3.138700e-01 6.861300e-01 0.000000e+00 0.000000e+00 0.000000e+00
 0.000000e+00 9.519447e-01 1.915034e-02 2.890496e-02 0.000000e+00 0.000000e+00
 0.000000e+00 0.000000e+00 9.247712e-01 2.885406e-02 4.637476e-02 0.000000e+00
 0.000000e+00 0.000000e+00 0.000000e+00 9.322075e-01 5.096162e-02 1.683087e-02
 0.000000e+00 0.000000e+00 0.000000e+00 0.000000e+00 9.358835e-01 6.411657e-02
 0.000000e+00 0.000000e+00 0.000000e+00 0.000000e+00 0.000000e+00 0.000000e+00
<ENDHMM>
