~o
<STREAMINFO> 1 36
<VECSIZE> 36<NULLD><LPC_D_A><DIAGC>
~h "sembilan"
<BEGINHMM>
<NUMSTATES> 8
<STATE> 2
<MEAN> 36
 -8.236852e-01 2.606932e-01 -4.069963e-01 4.138527e-01 -2.848917e-01 3.598198e-01 -3.123605e-01 2.791649e-01 -2.266010e-01 1.829770e-01 -1.701552e-01 1.303127e-01 -1.071622e-03 -2.644921e-02 -5.888083e-03 -1.252050e-02 -1.708571e-03 -5.557688e-03 7.491079e-06 -6.411122e-03 -2.992119e-03 -3.309439e-03 4.749649e-04 -1.554138e-03 1.125582e-03 3.325053e-04 2.510024e-04 -1.336243e-05 -4.379785e-04 1.044770e-03 -8.241090e-04 1.272406e-04 -7.452430e-04 7.340829e-04 -1.850183e-04 -3.821767e-04
<VARIANCE> 36
 1.798781e-01 1.950883e-01 1.842714e-01 1.770839e-01 1.169398e-01 7.524920e-02 7.475290e-02 8.265101e-02 3.498232e-02 2.920152e-02 2.713412e-02 1.358005e-02 1.736426e-02 2.204087e-02 6.914807e-03 1.497900e-02 4.936800e-03 6.416189e-03 3.508712e-03 4.109299e-03 2.094016e-03 2.320549e-03 1.631728e-03 1.193763e-03 2.956521e-03 4.016055e-03 1.301477e-03 2.877241e-03 1.011849e-03 1.176596e-03 6.816464e-04 7.207452e-04 3.831836e-04 3.730497e-04 3.177902e-04 2.368307e-04
<GCONST> -1.133215e+02
<STATE> 3
<MEAN> 36
 -2.597893e+00 4.575227e+00 -6.708978e+00 8.353659e+00 -8.841821e+00 8.467381e+00 -7.120221e+00 5.241098e+00 -3.335642e+00 1.805030e+00 -7.250103e-01 1.937571e-01 -4.754061e-02 5.950064e-02 -1.130959e-01 1.101062e-01 -1.159618e-01 6.870784e-02 -4.587579e-02 3.109589e-03 8.038704e-03 -1.713420e-02 6.859520e-03 -6.401579e-03 7.308362e-03 -5.061207e-03 7.275283e-03 -2.867686e-03 3.341503e-04 -2.094603e-03 3.931781e-03 -5.480026e-03 6.805074e-03 -6.978177e-03 3.228315e-03 -1.598093e-03
<VARIANCE> 36
 3.717647e-01 1.771421e+00 5.565878e+00 1.139312e+01 1.734134e+01 1.861430e+01 1.677886e+01 1.116660e+01 5.644435e+00 2.013884e+00 4.965947e-01 5.015161e-02 3.598160e-02 2.214768e-01 7.066933e-01 1.652575e+00 2.603173e+00 2.959524e+00 2.670589e+00 1.814764e+00 8.957105e-01 3.232210e-01 7.286572e-02 5.917959e-03 6.125026e-03 4.063642e-02 1.277220e-01 2.983222e-01 4.639788e-01 5.194526e-01 4.594698e-01 3.111839e-01 1.532196e-01 5.567051e-02 1.296419e-02 1.203480e-03
<GCONST> 3.883200e+01
<STATE> 4
<MEAN> 36
 -9.391742e-01 2.317805e-02 -3.108852e-02 1.510802e-01 -1.207916e-01 1.819364e-01 -5.386775e-02 1.018634e-01 -1.597467e-01 2.774793e-02 -6.389395e-02 8.065749e-02 1.142104e-02 -1.367613e-02 -3.869796e-03 -1.040721e-02 -6.326092e-03 -7.373117e-03 1.139490e-03 -4.302659e-03 -2.507040e-04 -4.086945e-03 7.779957e-04 -1.637279e-03 -5.241095e-04 4.949729e-03 2.813938e-03 1.564091e-03 -2.764811e-03 1.279328e-04 2.423128e-04 1.140729e-03 1.266112e-03 4.705959e-04 1.219188e-03 4.434876e-04
<VARIANCE> 36
 3.635656e-01 4.396841e-01 2.948400e-01 2.012952e-01 1.488742e-01 9.820612e-02 1.117650e-01 9.657874e-02 3.920544e-02 6.523935e-02 3.935243e-02 1.672584e-02 4.285177e-02 6.176884e-02 2.507327e-02 2.049211e-02 1.767591e-02 1.054815e-02 7.523224e-03 8.429418e-03 4.358484e-03 4.612313e-03 3.047496e-03 1.963660e-03 7.772809e-03 1.262570e-02 4.896991e-03 4.868900e-03 3.804299e-03 2.389033e-03 1.783746e-03 1.753091e-03 9.678533e-04 1.014766e-03 6.639680e-04 4.195657e-04
<GCONST> -8.822934e+01
<STATE> 5
<MEAN> 36
 -3.395842e+00 7.147696e+00 -1.198802e+01 1.660072e+01 -1.968093e+01 2.044422e+01 -1.856956e+01 1.454490e+01 -9.753678e+00 5.415513e+00 -2.253623e+00 5.251573e-01 6.600943e-02 -1.529592e-01 2.276843e-01 -3.091854e-01 3.345195e-01 -2.972046e-01 2.337238e-01 -1.517469e-01 7.826810e-02 -3.402092e-02 5.524811e-03 2.075989e-03 2.606521e-02 -8.098721e-02 1.517623e-01 -2.306140e-01 2.943442e-01 -3.177939e-01 2.915807e-01 -2.320667e-01 1.530112e-01 -7.901685e-02 3.456060e-02 -9.502308e-03
<VARIANCE> 36
 7.385937e+00 1.163072e+02 5.492860e+02 1.457125e+03 2.666962e+03 3.611794e+03 3.583525e+03 2.608401e+03 1.408582e+03 5.243094e+02 1.081313e+02 6.533350e+00 8.325841e-01 1.308229e+01 6.113642e+01 1.609019e+02 2.927206e+02 3.939917e+02 3.882184e+02 2.812211e+02 1.514198e+02 5.608352e+01 1.149613e+01 6.899549e-01 1.638277e-01 2.596663e+00 1.214916e+01 3.197830e+01 5.824543e+01 7.839158e+01 7.718255e+01 5.589459e+01 3.010920e+01 1.115191e+01 2.281151e+00 1.363930e-01
<GCONST> 2.112247e+02
<STATE> 6
<MEAN> 36
 -1.354831e+00 1.427449e+00 -1.870658e+00 1.861215e+00 -1.667046e+00 1.272161e+00 -8.059614e-01 5.031988e-01 -2.802352e-01 8.060993e-02 -5.168792e-02 3.215872e-02 -1.361732e-02 2.275691e-02 3.164404e-02 -3.968260e-02 6.940981e-02 -1.010688e-01 1.067629e-01 -9.839544e-02 7.573066e-02 -4.601078e-02 3.112016e-02 -1.194558e-02 -9.180915e-03 1.043099e-02 -1.294022e-02 2.721214e-02 -2.450520e-02 2.891141e-02 -3.424837e-02 2.238523e-02 -1.292883e-02 1.081286e-02 -3.944442e-03 1.511362e-03
<VARIANCE> 36
 8.013603e-01 2.377271e+00 3.618107e+00 4.472546e+00 3.733848e+00 2.530726e+00 1.608873e+00 1.001862e+00 6.189865e-01 2.868332e-01 1.005736e-01 2.082583e-02 3.695834e-02 1.016631e-01 1.505379e-01 2.405158e-01 2.746239e-01 2.683776e-01 2.272418e-01 1.628319e-01 9.384102e-02 3.827087e-02 1.169756e-02 2.208044e-03 6.442070e-03 2.018078e-02 3.184725e-02 5.300802e-02 6.305879e-02 6.098114e-02 4.912950e-02 3.354284e-02 1.750017e-02 6.522395e-03 1.919190e-03 3.816478e-04
<GCONST> -1.708801e+01
<STATE> 7
<MEAN> 36
 -1.728221e+00 2.595959e+00 -3.758725e+00 4.467669e+00 -4.621026e+00 4.132756e+00 -3.257995e+00 2.246390e+00 -1.355848e+00 6.541549e-01 -2.549903e-01 8.759997e-02 -3.805625e-02 6.556666e-02 -5.487296e-02 1.147283e-01 -1.296414e-01 1.203613e-01 -1.191298e-01 8.147246e-02 -4.494197e-02 2.992764e-02 -4.960864e-03 3.607352e-03 1.891737e-03 -1.679679e-02 1.976189e-02 -1.682085e-02 1.817282e-02 1.930042e-03 -1.539433e-02 1.379068e-02 -1.253817e-02 8.022654e-03 -5.966244e-03 2.379537e-03
<VARIANCE> 36
 1.535791e+00 6.458480e+00 1.466307e+01 2.600522e+01 3.402650e+01 3.615377e+01 3.083888e+01 1.979400e+01 9.339862e+00 3.136461e+00 6.183403e-01 4.987827e-02 3.238253e-02 1.851347e-01 6.113133e-01 1.408295e+00 2.342794e+00 2.976473e+00 2.897302e+00 2.068535e+00 1.089286e+00 4.185056e-01 9.502632e-02 7.458265e-03 6.386708e-03 3.119662e-02 1.006920e-01 2.379679e-01 4.024878e-01 5.286224e-01 5.274836e-01 3.831235e-01 2.021260e-01 7.549230e-02 1.655840e-02 1.413261e-03
<GCONST> 4.801358e+01
<TRANSP> 8
 0.000000e+00 7.622989e-01 2.377011e-01 0.000000e+00 0.000000e+00 0.000000e+00 0.000000e+00 0.000000e+00
 0.000000e+00 9.375215e-01 0.000000e+00 6.247850e-02 0.000000e+00 0.000000e+00 0.000000e+00 0.000000e+00
 0.000000e+00 0.000000e+00 9.283505e-01 1.136448e-02 6.028503e-02 0.000000e+00 0.000000e+00 0.000000e+00
 0.000000e+00 0.000000e+00 0.000000e+00 8.954008e-01 0.000000e+00 1.045992e-01 0.000000e+00 0.000000e+00
 0.000000e+00 0.000000e+00 0.000000e+00 0.000000e+00 6.190274e-01 3.809727e-01 0.000000e+00 0.000000e+00
 0.000000e+00 0.000000e+00 0.000000e+00 0.000000e+00 0.000000e+00 5.462087e-01 4.537912e-01 0.000000e+00
 0.000000e+00 0.000000e+00 0.000000e+00 0.000000e+00 0.000000e+00 0.000000e+00 4.133293e-01 5.866708e-01
 0.000000e+00 0.000000e+00 0.000000e+00 0.000000e+00 0.000000e+00 0.000000e+00 0.000000e+00 0.000000e+00
<ENDHMM>
