~o
<STREAMINFO> 1 39
<VECSIZE> 39<NULLD><PLP_D_A_0><DIAGC>
~h "sil"
<BEGINHMM>
<NUMSTATES> 8
<STATE> 2
<MEAN> 39
 -1.423161e+00 -5.128884e-01 -1.227060e+00 -8.719645e-01 -7.536105e-01 -5.038527e-01 -2.466818e-01 -3.608390e-01 -5.398903e-01 -3.121147e-01 1.633786e-01 3.002783e-01 2.792035e+00 -7.750301e-03 1.083902e-02 -5.799986e-02 -6.842344e-03 1.540866e-02 -8.132325e-03 -5.042467e-04 -1.455694e-02 -1.164545e-02 1.279525e-02 1.274058e-02 3.581413e-03 -2.012562e-02 3.713331e-03 -6.406235e-03 1.932017e-02 1.831477e-03 -4.999531e-03 9.407704e-04 -5.211982e-03 -2.311108e-04 4.139504e-03 3.514413e-04 -1.372944e-03 -2.763632e-03 1.277951e-02
<VARIANCE> 39
 2.292021e-01 3.998832e-01 6.378703e-01 4.021986e-01 2.294332e-01 3.286200e-01 3.252806e-01 3.705762e-01 3.168428e-01 2.572222e-01 3.423586e-01 1.440033e-01 7.614090e-01 1.651183e-02 3.993579e-02 4.473800e-02 3.322865e-02 2.704798e-02 3.437008e-02 2.897631e-02 3.313290e-02 3.018024e-02 2.959995e-02 3.138821e-02 1.443310e-02 3.537180e-02 2.219263e-03 5.786196e-03 6.769510e-03 5.993073e-03 4.855704e-03 6.705908e-03 5.473574e-03 6.517071e-03 5.838535e-03 6.151076e-03 6.255319e-03 2.910440e-03 4.060871e-03
<GCONST> -5.699328e+01
<STATE> 3
<MEAN> 39
 -1.239709e+00 -1.293393e+00 -3.327053e-01 -1.198682e+00 1.603005e-01 -7.459400e-01 5.330120e-01 -7.038749e-01 7.206660e-03 -3.303022e-01 2.558410e-01 2.181557e-02 4.787005e+00 -6.709450e-03 1.536300e-02 -5.198070e-03 1.691038e-02 5.602601e-03 -2.829374e-03 -2.905446e-03 2.237085e-03 1.056541e-03 -4.258803e-03 -8.322791e-03 -5.357358e-03 -2.076032e-02 -1.069283e-03 4.270691e-03 6.309006e-03 1.586585e-03 1.914072e-03 -1.821393e-03 4.171431e-04 2.478099e-03 1.579908e-03 -4.215672e-03 -2.665936e-03 -6.239813e-04 1.362351e-03
<VARIANCE> 39
 2.110772e-01 4.266366e-01 4.980620e-01 3.001065e-01 5.356012e-01 2.681656e-01 5.384847e-01 2.258124e-01 2.666703e-01 1.892976e-01 1.872871e-01 1.103589e-01 5.207229e-01 7.177013e-03 1.401429e-02 1.208700e-02 1.562944e-02 1.169583e-02 1.111810e-02 9.334865e-03 1.158829e-02 1.178779e-02 1.068464e-02 1.017007e-02 6.211729e-03 9.376661e-03 1.381890e-03 2.019627e-03 2.044458e-03 2.665014e-03 2.244934e-03 2.147548e-03 1.723019e-03 2.157963e-03 2.145002e-03 1.902632e-03 1.689828e-03 1.208211e-03 1.596448e-03
<GCONST> -8.497817e+01
<STATE> 4
<MEAN> 39
 -1.756081e+00 -6.141063e-01 -1.010238e+00 -7.833633e-01 -7.200290e-01 -7.060999e-01 -4.259479e-01 -3.724917e-01 -2.233647e-01 -1.678211e-01 -3.525288e-02 1.496296e-01 4.470148e+00 -1.273044e-03 1.731955e-03 9.565207e-04 1.260143e-03 -4.044250e-04 -1.872753e-03 2.963642e-03 3.817654e-03 2.567895e-04 -8.919475e-04 -1.098560e-03 -1.747147e-03 -1.564302e-03 5.458093e-04 -4.456981e-04 1.671286e-04 -2.717344e-04 -1.976516e-05 4.210919e-04 -4.805616e-04 -3.855443e-04 1.598527e-04 -2.726019e-04 4.214208e-05 2.046498e-04 8.508407e-04
<VARIANCE> 39
 8.872880e-03 3.768071e-02 2.885804e-02 2.518607e-02 2.925112e-02 8.174618e-02 7.845075e-02 1.291921e-01 2.765836e-02 2.782310e-02 8.458851e-02 4.559403e-02 3.409382e-03 2.845795e-04 5.627573e-04 1.047526e-03 1.262956e-03 1.694719e-03 1.821840e-03 2.068136e-03 2.343835e-03 2.329696e-03 2.179180e-03 2.183244e-03 1.077505e-03 1.181887e-04 5.575964e-05 1.163164e-04 1.921544e-04 2.564914e-04 3.421882e-04 3.647575e-04 4.128059e-04 4.776006e-04 4.735153e-04 4.427891e-04 4.413601e-04 2.172540e-04 2.439688e-05
<GCONST> -1.700656e+02
<STATE> 5
<MEAN> 39
 -1.824561e+00 -5.243248e-01 -8.254021e-01 -5.199457e-01 -4.258454e-01 -4.664840e-01 -1.873705e-01 -5.092434e-01 -3.115489e-01 -1.769246e-01 9.131403e-02 1.376841e-01 3.716322e+00 -1.243252e-02 1.050465e-02 1.189282e-02 1.064811e-02 9.124280e-03 9.538707e-05 6.265612e-05 1.196937e-02 1.308699e-02 -4.388829e-03 -1.137562e-02 -5.479096e-03 -1.171600e-02 5.645710e-03 -1.823449e-03 1.049857e-02 3.516281e-03 3.084406e-04 -5.895085e-04 -9.814465e-04 -5.169903e-03 -4.109410e-03 -2.009054e-03 -1.264112e-03 -7.476535e-04 1.302977e-02
<VARIANCE> 39
 1.131122e-01 1.280680e-01 1.674366e-01 1.419244e-01 1.321872e-01 1.062770e-01 1.389335e-01 1.359884e-01 1.031322e-01 8.555438e-02 1.074547e-01 4.246169e-02 9.182407e-01 2.245364e-03 3.756413e-03 6.153796e-03 6.111863e-03 5.211520e-03 5.707074e-03 5.569641e-03 6.517034e-03 5.876878e-03 5.561472e-03 5.443363e-03 2.736257e-03 1.402682e-03 1.059942e-03 1.259229e-03 1.418154e-03 1.776991e-03 1.388758e-03 1.457354e-03 1.330259e-03 1.425587e-03 1.411302e-03 1.276022e-03 1.179074e-03 6.040988e-04 8.648285e-04
<GCONST> -1.124063e+02
<STATE> 6
<MEAN> 39
 -1.759392e+00 -5.584835e-01 -7.821932e-01 -6.977184e-01 -5.377349e-01 -5.568785e-01 -2.070722e-01 -4.167949e-01 -2.295463e-01 -2.136913e-01 1.821586e-02 1.192362e-01 3.746599e+00 3.052690e-02 -1.929460e-03 7.432001e-02 4.228685e-02 1.470701e-02 -6.963520e-03 -2.635469e-02 -3.492363e-02 -1.703223e-02 -1.632404e-02 -4.431437e-04 -1.283072e-02 8.748293e-02 3.298419e-02 -9.581513e-03 1.600471e-02 1.248674e-02 5.094672e-03 -1.956503e-02 -1.863962e-02 -1.341252e-02 -1.688861e-02 -1.451036e-02 -3.716381e-04 -4.597372e-05 4.826921e-02
<VARIANCE> 39
 1.563343e-01 2.464384e-01 2.641506e-01 2.410807e-01 2.843732e-01 1.912079e-01 2.173372e-01 1.912480e-01 1.489832e-01 1.043774e-01 1.525738e-01 6.515246e-02 9.758824e-01 2.756321e-02 3.436156e-02 2.872422e-02 2.790641e-02 2.155101e-02 2.118641e-02 1.873666e-02 2.102999e-02 1.838386e-02 1.532288e-02 1.661422e-02 7.894406e-03 2.738040e-02 4.937822e-03 6.327036e-03 4.777634e-03 4.846728e-03 4.320149e-03 3.865283e-03 4.103467e-03 4.069922e-03 3.552662e-03 2.694865e-03 3.088142e-03 1.599584e-03 5.025551e-03
<GCONST> -7.167329e+01
<STATE> 7
<MEAN> 39
 -1.222419e+00 -8.384577e-01 -4.205175e-01 -7.093637e-01 -3.863955e-01 -9.143252e-01 -2.365367e-01 -6.512731e-01 -3.238091e-01 -4.703947e-01 -1.395916e-02 1.203246e-01 4.431509e+00 1.182361e-01 -3.236293e-02 5.773950e-02 2.200574e-02 -6.108940e-03 -7.498943e-02 -5.300540e-02 -2.722915e-02 -3.141169e-02 -4.532091e-02 -2.245962e-02 -4.544796e-04 1.816082e-01 7.700488e-03 2.009707e-03 -1.060090e-02 -6.314499e-03 -2.368780e-03 -9.310324e-04 -9.765286e-04 9.446390e-03 6.708450e-03 2.074771e-03 -1.415822e-03 1.039775e-03 -3.595550e-03
<VARIANCE> 39
 7.605599e-01 7.707881e-01 7.255839e-01 6.737068e-01 6.983931e-01 5.187197e-01 7.004668e-01 4.726922e-01 4.588492e-01 3.420739e-01 3.683839e-01 2.161927e-01 1.815619e+00 5.967406e-02 7.581045e-02 5.215817e-02 5.726675e-02 6.109910e-02 4.313164e-02 4.693851e-02 4.115607e-02 4.981208e-02 3.350961e-02 4.120824e-02 2.193095e-02 5.879451e-02 1.045338e-02 1.524448e-02 1.027339e-02 9.868735e-03 1.091716e-02 8.107013e-03 8.145203e-03 8.196378e-03 9.432367e-03 6.684721e-03 8.079286e-03 4.614751e-03 1.183262e-02
<GCONST> -3.631002e+01
<TRANSP> 8
 0.000000e+00 3.256559e-01 6.743441e-01 0.000000e+00 0.000000e+00 0.000000e+00 0.000000e+00 0.000000e+00
 0.000000e+00 8.851985e-01 1.148015e-01 0.000000e+00 0.000000e+00 0.000000e+00 0.000000e+00 0.000000e+00
 0.000000e+00 0.000000e+00 7.926564e-01 8.383289e-02 1.235108e-01 0.000000e+00 0.000000e+00 0.000000e+00
 0.000000e+00 0.000000e+00 0.000000e+00 9.593266e-01 2.817020e-02 1.250320e-02 0.000000e+00 0.000000e+00
 0.000000e+00 0.000000e+00 0.000000e+00 0.000000e+00 7.889762e-01 2.110238e-01 0.000000e+00 0.000000e+00
 0.000000e+00 0.000000e+00 0.000000e+00 0.000000e+00 0.000000e+00 6.141642e-01 3.858357e-01 0.000000e+00
 0.000000e+00 0.000000e+00 0.000000e+00 0.000000e+00 0.000000e+00 0.000000e+00 7.472219e-01 2.527781e-01
 0.000000e+00 0.000000e+00 0.000000e+00 0.000000e+00 0.000000e+00 0.000000e+00 0.000000e+00 0.000000e+00
<ENDHMM>
