~o
<STREAMINFO> 1 36
<VECSIZE> 36<NULLD><LPC_D_A><DIAGC>
~h "tambah"
<BEGINHMM>
<NUMSTATES> 8
<STATE> 2
<MEAN> 36
 -2.839226e+00 4.662943e+00 -6.290810e+00 7.347534e+00 -7.337509e+00 6.204191e+00 -4.681302e+00 3.077588e+00 -1.594063e+00 6.141522e-01 -1.507552e-01 3.725891e-02 2.043371e-02 -5.762236e-02 5.822483e-02 -6.832433e-02 7.337800e-02 -4.172793e-02 7.354771e-03 -2.983950e-03 -5.126020e-04 1.424316e-02 -6.491993e-03 -1.339871e-03 1.903148e-02 -3.839643e-02 5.402165e-02 -7.635162e-02 8.534757e-02 -7.442133e-02 5.824629e-02 -4.205560e-02 2.223711e-02 -8.798288e-03 3.678261e-03 -1.457282e-03
<VARIANCE> 36
 7.135382e-01 9.226670e+00 4.030397e+01 1.053871e+02 1.929755e+02 2.607539e+02 2.592011e+02 1.893031e+02 1.018447e+02 3.808019e+01 8.202415e+00 5.343828e-01 9.100885e-02 9.768872e-01 3.943944e+00 1.008118e+01 1.809964e+01 2.407174e+01 2.384979e+01 1.751956e+01 9.491158e+00 3.587945e+00 7.845529e-01 5.136847e-02 1.477393e-02 1.872794e-01 8.270513e-01 2.199191e+00 4.063195e+00 5.532802e+00 5.557444e+00 4.100025e+00 2.229506e+00 8.455358e-01 1.837612e-01 1.174673e-02
<GCONST> 1.169042e+02
<STATE> 3
<MEAN> 36
 -1.164908e+00 8.454192e-01 -9.476417e-01 1.016806e+00 -8.501555e-01 7.240629e-01 -5.338678e-01 4.558122e-01 -2.817422e-01 1.984524e-01 -1.802043e-01 8.774345e-02 -6.096141e-02 5.680917e-03 8.041660e-03 2.642493e-03 -1.274374e-02 7.473493e-04 -1.530978e-04 5.436466e-04 -2.605562e-03 1.974542e-03 -1.522468e-02 1.033461e-02 -3.216081e-03 1.195308e-02 -2.631275e-02 2.753128e-02 -2.533237e-02 3.002972e-02 -2.784236e-02 2.711482e-02 -1.632903e-02 8.254636e-03 -4.222597e-04 3.258548e-03
<VARIANCE> 36
 4.582848e-01 1.001267e+00 1.448549e+00 1.519129e+00 1.129537e+00 5.816244e-01 2.916814e-01 1.925898e-01 1.497287e-01 1.105628e-01 7.455549e-02 2.274788e-02 4.972465e-02 7.248162e-02 6.359234e-02 8.576337e-02 9.541786e-02 9.089043e-02 7.641287e-02 5.768105e-02 3.413840e-02 1.658731e-02 6.716352e-03 2.094893e-03 1.133625e-02 1.564262e-02 1.355546e-02 2.227490e-02 2.822591e-02 2.754465e-02 2.318135e-02 1.581875e-02 8.782572e-03 3.698756e-03 1.382524e-03 4.840930e-04
<GCONST> -4.362878e+01
<STATE> 4
<MEAN> 36
 -2.982807e-01 -5.172600e+00 1.573561e+01 -3.049151e+01 4.548000e+01 -5.581293e+01 5.734778e+01 -4.975011e+01 3.624024e+01 -2.137439e+01 9.574238e+00 -2.392645e+00 -3.997808e-02 8.425289e-02 -1.443089e-01 2.070658e-01 -2.694176e-01 2.851283e-01 -2.726708e-01 2.288186e-01 -1.591697e-01 9.187637e-02 -4.076454e-02 1.284358e-02 9.589388e-03 -3.227691e-02 6.374990e-02 -9.847203e-02 1.243782e-01 -1.373726e-01 1.314046e-01 -1.089588e-01 7.719226e-02 -4.658183e-02 2.167109e-02 -5.400305e-03
<VARIANCE> 36
 3.704288e+02 6.340584e+03 3.362968e+04 1.001193e+05 1.952849e+05 2.695252e+05 2.695458e+05 1.953411e+05 1.001708e+05 3.364628e+04 6.343746e+03 3.710398e+02 3.754647e+01 6.436257e+02 3.419648e+03 1.018258e+04 1.986782e+04 2.743491e+04 2.744872e+04 1.989642e+04 1.020600e+04 3.430259e+03 6.472408e+02 3.788939e+01 7.457982e+00 1.278827e+02 6.794921e+02 2.022602e+03 3.945694e+03 5.448114e+03 5.450771e+03 3.951045e+03 2.026867e+03 6.813593e+02 1.286047e+02 7.533076e+00
<GCONST> 3.597023e+02
<STATE> 5
<MEAN> 36
 -1.616736e+00 1.715015e+00 -2.043268e+00 2.268351e+00 -2.051272e+00 1.632983e+00 -1.198619e+00 7.981846e-01 -4.107739e-01 2.141222e-01 -1.515592e-01 8.563071e-02 -1.317111e-02 -7.237181e-02 4.766615e-02 -7.824896e-02 7.001917e-02 -8.644689e-02 4.783714e-02 -3.948350e-02 1.830492e-02 -1.213593e-02 2.667764e-03 2.411125e-03 3.293742e-02 -2.204240e-02 -1.721957e-03 -7.238243e-03 9.832071e-03 2.747258e-03 -1.519840e-03 4.484015e-03 -2.971564e-03 2.404969e-03 4.523566e-03 -7.269012e-04
<VARIANCE> 36
 5.233112e-01 2.284163e+00 4.059843e+00 4.920278e+00 4.926282e+00 3.623783e+00 2.240457e+00 1.300495e+00 6.748070e-01 3.176073e-01 1.571785e-01 3.147677e-02 4.362824e-02 9.273898e-02 1.701732e-01 2.673919e-01 3.100718e-01 2.748238e-01 2.084612e-01 1.355015e-01 7.304815e-02 3.037608e-02 1.000490e-02 2.112714e-03 1.098677e-02 2.526966e-02 3.942509e-02 6.388579e-02 7.490712e-02 7.300849e-02 5.788394e-02 3.936598e-02 2.098756e-02 8.718566e-03 2.780261e-03 6.096158e-04
<GCONST> -1.242575e+01
<STATE> 6
<MEAN> 36
 -7.833310e-01 9.559920e-02 -4.569709e-01 5.069292e-01 -3.859778e-01 3.164719e-01 -3.725761e-01 3.453512e-01 -2.113560e-01 1.796568e-01 -2.184144e-01 1.507928e-01 2.300875e-02 -8.386385e-03 2.907034e-04 -1.147122e-02 8.912533e-03 -8.195620e-03 4.791793e-03 -7.978030e-03 3.357157e-03 -1.645776e-03 3.860238e-03 -1.513257e-03 1.329554e-03 1.151690e-02 -5.776688e-03 6.931698e-03 -5.039178e-03 8.708403e-03 -2.960926e-03 3.882738e-03 -2.741454e-03 1.705209e-03 -1.945644e-05 -3.419518e-04
<VARIANCE> 36
 2.505094e-01 2.960082e-01 3.490363e-01 3.186122e-01 2.428102e-01 1.552673e-01 1.112647e-01 1.052961e-01 3.906330e-02 4.608586e-02 4.000961e-02 1.295893e-02 3.005530e-02 2.230413e-02 1.809082e-02 2.115208e-02 1.745642e-02 9.844555e-03 8.428188e-03 7.794226e-03 3.408037e-03 3.140580e-03 3.259461e-03 1.432536e-03 6.774408e-03 4.409448e-03 4.397000e-03 5.047226e-03 5.398053e-03 4.377958e-03 3.836940e-03 3.114681e-03 1.558009e-03 9.511691e-04 7.052699e-04 2.963671e-04
<GCONST> -8.936366e+01
<STATE> 7
<MEAN> 36
 -2.088088e+00 3.354548e+00 -4.645249e+00 5.513293e+00 -5.611891e+00 5.058240e+00 -4.095673e+00 2.907042e+00 -1.728537e+00 8.804615e-01 -3.471726e-01 9.940178e-02 -1.062758e-02 6.325419e-02 -9.480442e-02 1.295020e-01 -1.515528e-01 1.754854e-01 -1.477603e-01 1.311949e-01 -9.268229e-02 5.365064e-02 -1.907124e-02 5.995582e-03 3.018309e-04 -1.102725e-02 1.203687e-02 -1.243753e-02 1.356000e-02 -1.513230e-02 1.263063e-02 -9.512486e-03 6.916922e-03 -3.487554e-03 1.474387e-03 7.258689e-04
<VARIANCE> 36
 1.281962e+00 7.088860e+00 1.997659e+01 4.249296e+01 6.740064e+01 8.146750e+01 7.584951e+01 5.333442e+01 2.712187e+01 9.283947e+00 1.797649e+00 1.171784e-01 6.456125e-02 4.222184e-01 1.456609e+00 3.480679e+00 5.909762e+00 7.403305e+00 7.041929e+00 4.982755e+00 2.533504e+00 8.681039e-01 1.708630e-01 1.127970e-02 1.331206e-02 9.026238e-02 3.213119e-01 7.586955e-01 1.273617e+00 1.582517e+00 1.498015e+00 1.058213e+00 5.393897e-01 1.864640e-01 3.673669e-02 2.410526e-03
<GCONST> 7.729277e+01
<TRANSP> 8
 0.000000e+00 1.285751e-01 8.714249e-01 0.000000e+00 0.000000e+00 0.000000e+00 0.000000e+00 0.000000e+00
 0.000000e+00 8.854381e-01 1.145619e-01 0.000000e+00 0.000000e+00 0.000000e+00 0.000000e+00 0.000000e+00
 0.000000e+00 0.000000e+00 5.322074e-01 6.682197e-03 4.611104e-01 0.000000e+00 0.000000e+00 0.000000e+00
 0.000000e+00 0.000000e+00 0.000000e+00 9.411737e-01 5.882624e-02 0.000000e+00 0.000000e+00 0.000000e+00
 0.000000e+00 0.000000e+00 0.000000e+00 0.000000e+00 4.256974e-01 5.743027e-01 0.000000e+00 0.000000e+00
 0.000000e+00 0.000000e+00 0.000000e+00 0.000000e+00 0.000000e+00 9.172553e-01 8.274472e-02 0.000000e+00
 0.000000e+00 0.000000e+00 0.000000e+00 0.000000e+00 0.000000e+00 0.000000e+00 6.735641e-01 3.264360e-01
 0.000000e+00 0.000000e+00 0.000000e+00 0.000000e+00 0.000000e+00 0.000000e+00 0.000000e+00 0.000000e+00
<ENDHMM>
