~o
<STREAMINFO> 1 36
<VECSIZE> 36<NULLD><LPC_D_A><DIAGC>
~h "tiga"
<BEGINHMM>
<NUMSTATES> 8
<STATE> 2
<MEAN> 36
 -1.012882e+00 1.561406e-01 9.820442e-02 -3.646460e-02 -7.126009e-02 1.494890e-01 2.971167e-02 -1.287283e-02 -8.700400e-02 8.742103e-03 -4.523142e-02 3.117429e-02 -2.371901e-02 -1.967799e-02 -1.331344e-03 7.945128e-03 3.719385e-03 4.626099e-03 -5.696488e-03 -2.701952e-03 -2.983745e-03 2.637439e-03 7.270752e-05 3.697299e-03 1.587889e-02 -3.470964e-03 -4.969832e-03 9.984948e-04 -1.381298e-03 -6.073182e-04 -1.626206e-03 1.053965e-03 -4.339199e-04 -1.599515e-04 4.309145e-04 2.183016e-04
<VARIANCE> 36
 4.193586e-01 3.423292e-01 1.870627e-01 1.314542e-01 8.338494e-02 5.602916e-02 5.422639e-02 5.307001e-02 3.136826e-02 3.819575e-02 3.203992e-02 1.579523e-02 6.945141e-02 4.601721e-02 2.310591e-02 1.382553e-02 1.186015e-02 7.404479e-03 6.036440e-03 5.995855e-03 3.944195e-03 4.203016e-03 3.651847e-03 1.657839e-03 1.539026e-02 1.033109e-02 5.385810e-03 2.992314e-03 2.800643e-03 1.486309e-03 1.352450e-03 1.280038e-03 8.463853e-04 8.772670e-04 8.112762e-04 3.713579e-04
<GCONST> -9.596629e+01
<STATE> 3
<MEAN> 36
 -2.683072e+00 5.023718e+00 -7.535181e+00 9.369932e+00 -9.896352e+00 9.098128e+00 -7.285964e+00 5.035026e+00 -2.938574e+00 1.353495e+00 -4.527528e-01 7.775316e-02 -5.318248e-02 1.208286e-01 -2.038258e-01 2.780139e-01 -3.194009e-01 3.217695e-01 -2.898672e-01 2.324353e-01 -1.621340e-01 9.779150e-02 -4.471039e-02 1.284268e-02 1.125461e-02 -2.938090e-02 5.601394e-02 -8.356742e-02 1.000322e-01 -9.866031e-02 8.060475e-02 -5.622457e-02 3.284349e-02 -1.474548e-02 5.754354e-03 -2.409131e-03
<VARIANCE> 36
 6.034778e-01 5.110382e+00 1.806073e+01 4.116093e+01 6.443785e+01 7.405172e+01 6.349884e+01 4.044711e+01 1.842863e+01 5.686851e+00 9.810041e-01 7.605104e-02 8.343998e-02 6.320670e-01 2.118686e+00 4.582536e+00 6.771295e+00 7.408168e+00 6.218510e+00 3.972310e+00 1.849121e+00 5.909173e-01 1.045724e-01 8.013095e-03 1.344130e-02 9.995677e-02 3.243503e-01 6.914458e-01 1.012309e+00 1.115350e+00 9.588828e-01 6.386682e-01 3.097382e-01 1.027719e-01 1.841068e-02 1.451937e-03
<GCONST> 6.928269e+01
<STATE> 4
<MEAN> 36
 -8.044267e-01 2.911977e-01 -5.646652e-01 4.935896e-01 -4.389671e-01 4.293638e-01 -4.217817e-01 3.706930e-01 -3.472355e-01 2.528196e-01 -2.781492e-01 1.570580e-01 4.894322e-03 -6.152096e-03 2.682094e-03 -5.700605e-03 -4.555901e-04 -7.009616e-03 5.229929e-04 -1.605635e-03 1.684597e-03 -1.689451e-03 2.435708e-03 3.492506e-03 9.995176e-03 1.662224e-03 2.172661e-03 -2.532132e-03 2.568177e-03 -7.059805e-04 2.231581e-03 -2.872016e-03 1.129768e-03 -1.752995e-03 2.644886e-03 -3.074600e-04
<VARIANCE> 36
 2.334328e-01 1.033473e-01 1.297736e-01 1.057505e-01 6.289279e-02 7.604488e-02 4.152580e-02 5.323734e-02 2.652955e-02 2.535897e-02 2.530083e-02 1.115185e-02 3.447573e-02 1.257635e-02 7.722844e-03 1.297865e-02 6.626884e-03 7.575293e-03 4.317110e-03 4.633757e-03 2.901600e-03 2.830130e-03 2.254215e-03 1.216169e-03 6.835197e-03 2.408121e-03 1.415434e-03 2.660425e-03 1.350402e-03 1.585505e-03 8.652165e-04 9.678045e-04 5.880985e-04 6.178636e-04 5.197433e-04 2.315275e-04
<GCONST> -1.122836e+02
<STATE> 5
<MEAN> 36
 -2.779461e+00 4.963719e+00 -7.311473e+00 9.058218e+00 -9.714404e+00 9.282150e+00 -7.946085e+00 5.961416e+00 -3.864022e+00 2.055978e+00 -8.068915e-01 1.953299e-01 5.660951e-02 -2.132957e-01 3.904887e-01 -5.865013e-01 7.383987e-01 -8.101597e-01 7.759674e-01 -6.514775e-01 4.643254e-01 -2.741907e-01 1.237170e-01 -3.276822e-02 1.948113e-02 -4.434833e-02 8.168677e-02 -1.193170e-01 1.516925e-01 -1.749678e-01 1.797251e-01 -1.584119e-01 1.174498e-01 -7.075595e-02 3.167303e-02 -7.780640e-03
<VARIANCE> 36
 2.492734e-01 1.892388e+00 5.787484e+00 1.213375e+01 1.825188e+01 2.115290e+01 1.937366e+01 1.373280e+01 7.130467e+00 2.566754e+00 5.512862e-01 4.216907e-02 3.258889e-02 2.376902e-01 7.092664e-01 1.437092e+00 2.119539e+00 2.468709e+00 2.323176e+00 1.692660e+00 9.087307e-01 3.343163e-01 7.053455e-02 5.116314e-03 1.073444e-02 8.175799e-02 2.807153e-01 6.738526e-01 1.152182e+00 1.449280e+00 1.347404e+00 9.068638e-01 4.271356e-01 1.324060e-01 2.343217e-02 1.446521e-03
<GCONST> 4.825834e+01
<STATE> 6
<MEAN> 36
 -1.525318e+00 2.126688e+00 -3.252403e+00 3.961419e+00 -4.120010e+00 3.730873e+00 -2.953981e+00 2.052366e+00 -1.302070e+00 6.531574e-01 -2.999055e-01 1.370600e-01 4.503769e-02 -1.128279e-02 -3.158872e-03 1.552799e-03 -3.148969e-02 6.784658e-02 -7.784435e-02 7.269380e-02 -6.910781e-02 3.879250e-02 -5.911021e-03 2.106244e-03 -1.543302e-02 3.186375e-02 -4.981983e-02 8.362901e-02 -1.148767e-01 1.381909e-01 -1.427022e-01 1.269227e-01 -9.361419e-02 5.799928e-02 -2.498029e-02 4.799576e-03
<VARIANCE> 36
 2.210605e+00 2.037898e+01 9.018438e+01 2.577433e+02 5.064948e+02 7.091515e+02 7.080118e+02 4.998113e+02 2.450336e+02 7.840403e+01 1.373211e+01 7.608958e-01 1.306930e-01 1.651421e+00 8.695544e+00 2.658080e+01 5.385838e+01 7.622658e+01 7.607556e+01 5.343067e+01 2.599199e+01 8.207003e+00 1.423617e+00 7.909743e-02 2.789254e-02 3.382141e-01 1.763385e+00 5.327275e+00 1.070940e+01 1.505808e+01 1.494816e+01 1.045490e+01 5.077201e+00 1.600243e+00 2.778888e-01 1.542529e-02
<GCONST> 1.458759e+02
<STATE> 7
<MEAN> 36
 -1.353612e+00 1.618143e+00 -2.275543e+00 2.533318e+00 -2.513530e+00 2.236055e+00 -1.809418e+00 1.294540e+00 -8.567221e-01 4.625449e-01 -2.087088e-01 1.084714e-01 5.704771e-03 3.715684e-02 -6.824693e-02 9.239004e-02 -1.161973e-01 1.220578e-01 -1.116936e-01 9.000318e-02 -7.164094e-02 4.361695e-02 -1.575406e-02 3.242946e-03 -4.358233e-03 1.141020e-03 7.946142e-03 -5.274037e-05 4.461121e-03 -7.330820e-03 8.992620e-03 -7.900021e-03 8.898058e-03 -6.563040e-03 1.132373e-03 -1.320811e-04
<VARIANCE> 36
 1.182846e+00 4.202022e+00 8.113627e+00 1.264690e+01 1.450236e+01 1.353519e+01 1.010417e+01 5.760501e+00 2.469367e+00 7.677696e-01 1.443132e-01 2.043500e-02 6.547119e-02 1.614997e-01 3.524645e-01 6.629621e-01 8.931520e-01 9.460537e-01 7.649220e-01 4.703686e-01 2.170929e-01 7.246816e-02 1.528668e-02 2.491442e-03 1.201391e-02 2.297991e-02 3.992707e-02 6.371541e-02 7.735115e-02 8.356992e-02 7.373526e-02 4.875988e-02 2.646774e-02 1.025423e-02 2.303344e-03 5.251836e-04
<GCONST> 8.357898e+00
<TRANSP> 8
 0.000000e+00 7.594920e-01 2.405080e-01 0.000000e+00 0.000000e+00 0.000000e+00 0.000000e+00 0.000000e+00
 0.000000e+00 8.773097e-01 0.000000e+00 1.226903e-01 0.000000e+00 0.000000e+00 0.000000e+00 0.000000e+00
 0.000000e+00 0.000000e+00 8.729795e-01 6.685200e-03 1.203353e-01 0.000000e+00 0.000000e+00 0.000000e+00
 0.000000e+00 0.000000e+00 0.000000e+00 8.894850e-01 0.000000e+00 1.105150e-01 0.000000e+00 0.000000e+00
 0.000000e+00 0.000000e+00 0.000000e+00 0.000000e+00 8.304616e-01 1.695384e-01 0.000000e+00 0.000000e+00
 0.000000e+00 0.000000e+00 0.000000e+00 0.000000e+00 0.000000e+00 2.402866e-01 7.597135e-01 0.000000e+00
 0.000000e+00 0.000000e+00 0.000000e+00 0.000000e+00 0.000000e+00 0.000000e+00 5.219714e-01 4.780286e-01
 0.000000e+00 0.000000e+00 0.000000e+00 0.000000e+00 0.000000e+00 0.000000e+00 0.000000e+00 0.000000e+00
<ENDHMM>
