~o
<STREAMINFO> 1 39
<VECSIZE> 39<NULLD><MFCC_D_A_0><DIAGC>
~h "tujuh"
<BEGINHMM>
<NUMSTATES> 6
<STATE> 2
<MEAN> 39
 1.409142e+00 -1.990347e+00 1.862144e+00 1.368311e+01 2.504826e+00 9.435112e-01 -5.207305e+00 3.688285e+00 -1.361567e+00 -1.111990e+01 2.134034e+00 2.608735e+00 5.143306e+01 3.540131e-01 -3.918621e-01 4.880497e-01 4.482989e-01 1.372748e-01 2.760570e-01 -4.475571e-01 -7.431380e-02 2.713114e-01 -2.665230e-01 1.105095e-01 7.565553e-02 4.765581e-01 5.765576e-02 1.029154e-01 -5.796583e-02 -6.849014e-02 8.492919e-02 6.744110e-02 -1.062940e-01 -1.071087e-01 -1.687054e-02 -1.763464e-02 -9.975922e-03 2.654062e-02 -7.220238e-03
<VARIANCE> 39
 2.502859e+01 1.056094e+02 4.883670e+01 7.418042e+01 6.766170e+01 3.711861e+01 6.122300e+01 5.228803e+01 3.680146e+01 5.880466e+01 3.386125e+01 3.348238e+01 3.970096e+01 2.863520e+00 1.625443e+01 5.084926e+00 4.741866e+00 9.085350e+00 4.436912e+00 8.720244e+00 6.535585e+00 4.318820e+00 8.159829e+00 5.143775e+00 3.650225e+00 5.373990e+00 4.724155e-01 3.607355e+00 1.085151e+00 8.918751e-01 1.891864e+00 9.114347e-01 1.562271e+00 1.256839e+00 9.156829e-01 1.571961e+00 1.033105e+00 7.454790e-01 1.046228e+00
<GCONST> 1.468535e+02
<STATE> 3
<MEAN> 39
 -7.639659e+00 3.564363e+00 9.438680e+00 1.946664e+01 1.121492e+01 1.023016e+01 -6.355191e+00 -1.350561e+01 -1.692898e+00 -5.140585e+00 7.865571e-01 -3.382262e+00 6.739024e+01 1.098588e-01 -9.454853e-04 3.711606e-01 2.318548e-02 2.345663e-01 6.786026e-01 -4.826840e-01 -5.555928e-01 -4.750120e-01 -3.419139e-01 1.874128e-01 -2.094449e-02 1.827165e-01 7.840084e-02 7.834002e-03 -2.057902e-01 -2.466528e-01 -1.246072e-01 -1.711271e-02 1.502504e-01 1.828663e-02 -1.427380e-01 -1.482395e-01 -2.281492e-02 9.627489e-02 4.670677e-02
<VARIANCE> 39
 2.452422e+01 1.142459e+02 3.875346e+01 2.228712e+01 2.070916e+01 6.662686e+01 8.476997e+01 3.906269e+01 7.604628e+01 3.112073e+01 1.554926e+01 1.908998e+01 1.565238e+01 3.165573e+00 1.387615e+01 4.593327e+00 2.567962e+00 1.850072e+00 5.606994e+00 3.991769e+00 4.227952e+00 8.941326e+00 3.156303e+00 1.704775e+00 1.586774e+00 1.512704e+00 4.334264e-01 2.391523e+00 7.177528e-01 4.525838e-01 3.196696e-01 1.003340e+00 1.083724e+00 8.277002e-01 1.386154e+00 4.681426e-01 3.761133e-01 2.649693e-01 2.550843e-01
<GCONST> 1.276498e+02
<STATE> 4
<MEAN> 39
 1.100161e+00 2.438794e+00 7.455899e+00 1.146963e+01 3.071394e+00 1.056862e+01 -6.558283e+00 -5.657247e+00 -2.366722e+00 -1.581422e+01 -5.220581e-01 2.990338e+00 6.252802e+01 1.746923e-01 9.107897e-01 -3.986309e-01 -1.132540e+00 -9.307346e-01 -1.473643e-01 9.699007e-01 8.073591e-01 3.984195e-01 -4.915325e-01 -8.404325e-01 4.009868e-01 -2.919337e-01 -2.430974e-01 -2.251719e-02 -4.563333e-02 1.521931e-01 -9.476475e-02 -3.450323e-01 2.472216e-01 3.058196e-01 2.203228e-01 2.727933e-01 -1.369784e-01 -1.477474e-01 -1.990664e-01
<VARIANCE> 39
 3.896922e+01 7.634431e+01 1.289319e+01 2.423302e+01 3.871727e+01 2.193484e+01 1.057392e+02 7.299516e+01 5.913889e+01 2.657144e+01 2.644281e+01 3.412445e+01 3.111366e+01 1.389579e+00 1.395577e+00 2.191079e+00 2.602597e+00 3.027927e+00 3.040221e+00 5.145485e+00 4.496075e+00 1.882768e+00 2.302009e+00 2.156026e+00 2.429961e+00 1.068434e+00 1.770220e-01 2.327051e-01 4.152490e-01 5.714247e-01 7.254614e-01 5.496382e-01 9.155175e-01 7.889363e-01 3.482175e-01 4.973826e-01 3.760089e-01 4.685534e-01 1.672156e-01
<GCONST> 1.185202e+02
<STATE> 5
<MEAN> 39
 7.127226e-01 8.435938e+00 -2.091983e+00 4.537326e+00 -4.122539e-01 2.720746e-01 -4.306401e-01 6.907365e+00 2.354691e+00 -1.065738e+01 -5.415873e+00 2.377996e+00 4.924705e+01 -4.862005e-01 3.776568e-01 -6.729092e-01 -3.716162e-01 -1.834900e-01 -6.986723e-01 5.686318e-01 2.127036e-01 -1.086038e-01 8.972096e-01 -9.963019e-02 -2.783358e-01 -6.090853e-01 3.439511e-02 -2.682758e-01 1.626729e-01 -2.056068e-03 -2.345618e-02 2.532477e-01 -1.034123e-01 -2.166934e-01 -9.472825e-02 -3.567672e-02 2.577694e-01 1.487372e-01 1.835321e-01
<VARIANCE> 39
 6.551646e+01 3.755359e+01 5.792444e+01 8.405978e+01 6.693929e+01 3.931530e+01 4.273220e+01 5.530966e+01 5.195081e+01 4.833848e+01 2.593850e+01 4.465561e+01 4.516336e+01 1.855678e+00 4.963282e+00 5.212553e+00 2.819003e+00 5.093344e+00 5.371576e+00 5.752519e+00 5.367260e+00 3.425529e+00 4.723649e+00 4.265120e+00 4.481325e+00 2.883509e+00 3.087514e-01 3.640682e-01 8.617314e-01 4.199847e-01 6.786211e-01 8.698215e-01 9.435714e-01 9.399220e-01 7.002628e-01 7.422952e-01 7.901832e-01 7.039697e-01 3.190213e-01
<GCONST> 1.345203e+02
<TRANSP> 6
 0.000000e+00 7.499967e-01 2.500034e-01 0.000000e+00 0.000000e+00 0.000000e+00
 0.000000e+00 9.457180e-01 1.503775e-40 5.428205e-02 0.000000e+00 0.000000e+00
 0.000000e+00 0.000000e+00 9.386892e-01 6.131078e-02 0.000000e+00 0.000000e+00
 0.000000e+00 0.000000e+00 0.000000e+00 8.704735e-01 1.295265e-01 0.000000e+00
 0.000000e+00 0.000000e+00 0.000000e+00 0.000000e+00 8.789375e-01 1.210625e-01
 0.000000e+00 0.000000e+00 0.000000e+00 0.000000e+00 0.000000e+00 0.000000e+00
<ENDHMM>
