~o
<STREAMINFO> 1 39
<VECSIZE> 39<NULLD><PLP_D_A_0><DIAGC>
~h "bagi"
<BEGINHMM>
<NUMSTATES> 8
<STATE> 2
<MEAN> 39
 -3.857884e-01 -4.128881e-01 -7.270123e-01 -4.361276e-01 -6.944759e-01 -1.036723e+00 -6.627367e-01 -6.054756e-02 -3.222795e-01 -7.483600e-01 -1.955709e-01 3.111483e-02 4.693723e+00 1.988944e-01 -3.741539e-02 -5.281156e-02 -2.465524e-02 -1.044411e-01 -1.335752e-01 -7.718060e-02 3.049913e-02 -1.673935e-02 -8.508524e-02 7.316481e-02 7.042214e-02 1.718713e-01 -2.096326e-02 -5.689416e-02 1.478382e-02 -2.057604e-02 -1.750683e-02 1.392821e-02 2.883876e-03 -1.229574e-02 7.357078e-03 1.688239e-02 4.572578e-02 2.953870e-02 2.463640e-02
<VARIANCE> 39
 6.633446e-01 3.742560e-01 2.840003e-01 4.514430e-01 4.360268e-01 5.052353e-01 2.536373e-01 2.502053e-01 2.374399e-01 3.843573e-01 3.650010e-01 2.734073e-01 9.704106e-01 3.669882e-02 8.839196e-02 4.658744e-02 4.981919e-02 5.632903e-02 8.300751e-02 3.050753e-02 2.357374e-02 2.237730e-02 3.336528e-02 5.742051e-02 5.448202e-02 3.418756e-02 9.375475e-03 1.329065e-02 8.393623e-03 8.858007e-03 1.554572e-02 1.408501e-02 4.520739e-03 4.060145e-03 4.304264e-03 5.619838e-03 6.849282e-03 1.056983e-02 9.799211e-03
<GCONST> -4.412931e+01
<STATE> 3
<MEAN> 39
 -8.248277e-02 -1.087058e+00 -9.079388e-01 -1.113205e+00 -5.587636e-01 -1.768330e+00 -5.232320e-01 -4.335478e-01 -6.605486e-01 -1.573469e-01 6.641013e-01 5.417899e-01 6.167810e+00 -6.724412e-02 5.595553e-02 6.959692e-02 9.989344e-02 8.742454e-02 5.168636e-02 1.800530e-03 -8.636449e-02 -4.835866e-02 1.607878e-03 1.149334e-03 -1.085562e-02 -6.969066e-02 -3.440432e-02 4.102221e-02 4.171053e-02 5.243924e-02 3.708629e-02 2.360130e-02 -3.849705e-03 -7.695153e-03 2.916662e-03 -2.054365e-02 -4.390822e-02 -5.135471e-02 -4.991723e-02
<VARIANCE> 39
 5.818179e-02 8.508238e-01 3.090115e-01 8.721706e-01 4.977541e-01 3.232582e-01 1.056104e+00 2.890942e-01 2.513169e-01 5.823809e-01 3.529237e-01 1.163879e-01 4.989130e-01 6.864000e-03 2.684021e-02 1.904596e-02 1.764277e-02 1.121980e-02 3.479451e-02 2.381520e-02 1.360495e-02 2.666593e-02 1.881782e-02 2.372349e-02 1.631445e-02 1.513190e-02 1.387385e-03 8.796647e-03 2.708956e-03 3.792664e-03 4.438130e-03 8.471664e-03 4.770929e-03 3.681680e-03 6.942689e-03 4.874166e-03 3.607396e-03 4.519770e-03 4.273572e-03
<GCONST> -6.429939e+01
<STATE> 4
<MEAN> 39
 -5.440890e-01 -7.400589e-01 5.057114e-02 -3.377201e-01 1.027889e-01 -1.368328e+00 -4.020013e-01 -7.675509e-01 -5.861979e-01 -7.262278e-01 1.061350e-01 -5.653471e-02 5.209646e+00 -1.135039e-01 -2.000905e-02 1.391635e-01 2.396678e-01 1.855762e-01 -7.633454e-02 -1.257008e-01 3.306424e-02 6.047833e-02 -2.747126e-02 -7.856092e-02 -1.916934e-01 -5.538069e-02 3.657789e-02 -5.752342e-02 -2.761027e-03 -1.064985e-02 -1.598155e-02 -6.716555e-02 -4.371816e-02 1.229872e-02 1.758099e-03 7.725274e-03 -2.330958e-03 1.337744e-02 6.749406e-02
<VARIANCE> 39
 1.552182e-01 5.643530e-01 5.043601e-01 9.418575e-01 5.130653e-01 1.007151e+00 3.851640e-01 6.052890e-01 2.143683e-01 4.889491e-01 2.463443e-01 2.070271e-01 1.037198e+00 1.605183e-02 6.151922e-02 3.327457e-02 1.730341e-02 2.411437e-02 6.963611e-02 2.487612e-02 3.279715e-02 3.856669e-02 4.258604e-02 2.765384e-02 2.492180e-02 4.215335e-02 3.383814e-03 8.991413e-03 6.849587e-03 5.569704e-03 6.125845e-03 1.667348e-02 6.050855e-03 7.223800e-03 8.400213e-03 6.496244e-03 4.749708e-03 6.340358e-03 5.605311e-03
<GCONST> -4.876424e+01
<STATE> 5
<MEAN> 39
 -6.048498e-01 -5.299567e-01 1.128291e-01 5.876371e-01 1.012227e-01 -1.863810e+00 -1.497333e+00 -6.148194e-01 -4.566852e-01 -7.738444e-01 -2.931727e-01 -5.843565e-01 5.641758e+00 2.784719e-03 -7.467505e-02 5.029794e-02 8.602373e-02 3.367391e-02 -4.964792e-02 -1.135147e-01 -1.968911e-02 -4.291382e-02 -9.254460e-03 -1.344210e-02 -4.038837e-02 1.893361e-02 -5.979497e-03 2.504483e-02 -3.306749e-02 -5.889224e-02 -3.327176e-02 4.281376e-02 4.135436e-02 -1.195051e-02 -5.809477e-03 6.191041e-03 1.388022e-02 4.153252e-02 -2.375362e-02
<VARIANCE> 39
 1.056212e-01 4.120928e-01 2.768961e-01 3.217600e-01 1.510872e-01 3.931300e-01 2.197211e-01 8.255128e-02 1.582001e-01 1.586947e-01 2.751579e-01 8.201697e-02 2.650476e-01 1.447706e-02 1.602561e-02 2.228587e-02 1.938448e-02 1.660088e-02 4.419856e-02 3.445571e-02 1.332547e-02 1.494762e-02 8.789545e-03 8.727732e-03 1.319688e-02 1.788977e-02 2.671851e-03 3.062428e-03 3.143306e-03 4.502434e-03 2.684206e-03 2.717044e-03 2.016041e-03 2.262780e-03 3.110045e-03 1.846730e-03 2.163755e-03 2.984271e-03 9.219224e-04
<GCONST> -8.057389e+01
<STATE> 6
<MEAN> 39
 -6.367112e-01 -1.502946e+00 7.263479e-01 -2.134451e-01 5.831991e-01 -2.286030e+00 -9.517214e-01 -9.329199e-01 -6.172825e-01 -7.262544e-01 -2.219422e-02 -2.541040e-01 5.883250e+00 -2.315495e-02 4.292307e-02 -5.913673e-02 -1.523827e-01 -4.561079e-02 1.327562e-01 6.454667e-02 -4.718165e-02 1.586779e-02 1.788986e-02 1.211730e-02 7.196909e-02 -2.931610e-02 -2.002756e-02 2.888684e-02 -3.352526e-02 -4.967372e-02 -2.345830e-02 2.980104e-02 6.765988e-02 1.770599e-02 1.153962e-02 5.364128e-03 -1.005468e-02 1.580997e-02 -2.878113e-02
<VARIANCE> 39
 2.193569e-01 3.119389e-01 7.202889e-01 1.095836e+00 2.551410e-01 2.045496e+00 8.038126e-01 2.920895e-01 2.677938e-01 3.647674e-01 4.377658e-01 1.439052e-01 9.161355e-01 2.998330e-02 3.580608e-02 5.155558e-02 4.525291e-02 2.982638e-02 8.557480e-02 4.233514e-02 2.882557e-02 3.148048e-02 2.518067e-02 2.931881e-02 1.745247e-02 3.253253e-02 4.182662e-03 8.652580e-03 1.060157e-02 8.483380e-03 7.028258e-03 2.375119e-02 9.642711e-03 6.483512e-03 7.738201e-03 5.902333e-03 6.659255e-03 4.056395e-03 8.178825e-03
<GCONST> -4.547962e+01
<STATE> 7
<MEAN> 39
 -1.209453e+00 -6.514264e-01 -3.492983e-01 -4.731961e-01 -2.504859e-01 -1.166305e+00 -7.552126e-01 -7.805921e-01 -4.966215e-01 -4.892139e-01 -3.623581e-03 2.784173e-02 5.144591e+00 7.285673e-04 2.950377e-02 -4.329129e-02 -1.079505e-01 -7.111630e-02 7.074241e-03 9.218155e-02 3.610419e-02 3.028049e-02 1.978834e-02 -2.313029e-03 4.037216e-02 -1.590976e-02 3.273114e-02 -7.267270e-03 1.533454e-02 3.514356e-02 5.575043e-03 -2.858439e-02 -2.681214e-02 6.084612e-03 -5.585330e-03 -8.692581e-03 -1.704343e-03 -2.232227e-02 2.156711e-02
<VARIANCE> 39
 5.066658e-01 3.810899e-01 4.551953e-01 1.018673e+00 5.460331e-01 4.836544e-01 3.567393e-01 2.036996e-01 1.584038e-01 1.824339e-01 1.983775e-01 9.405211e-02 6.256561e-01 5.343806e-02 2.990892e-02 3.211696e-02 3.973462e-02 2.327219e-02 4.339083e-02 2.990161e-02 1.394603e-02 2.131557e-02 1.780003e-02 2.697326e-02 1.413206e-02 2.370789e-02 8.376908e-03 5.138670e-03 4.754550e-03 5.184188e-03 3.712010e-03 7.495292e-03 4.417802e-03 3.449638e-03 3.747363e-03 2.663016e-03 3.862323e-03 1.779936e-03 4.154195e-03
<GCONST> -6.108945e+01
<TRANSP> 8
 0.000000e+00 7.250326e-01 2.749674e-01 0.000000e+00 0.000000e+00 0.000000e+00 0.000000e+00 0.000000e+00
 0.000000e+00 7.970863e-01 2.029137e-01 0.000000e+00 0.000000e+00 0.000000e+00 0.000000e+00 0.000000e+00
 0.000000e+00 0.000000e+00 7.887569e-01 2.112431e-01 0.000000e+00 0.000000e+00 0.000000e+00 0.000000e+00
 0.000000e+00 0.000000e+00 0.000000e+00 7.265186e-01 2.734814e-01 0.000000e+00 0.000000e+00 0.000000e+00
 0.000000e+00 0.000000e+00 0.000000e+00 0.000000e+00 7.208815e-01 2.791185e-01 0.000000e+00 0.000000e+00
 0.000000e+00 0.000000e+00 0.000000e+00 0.000000e+00 0.000000e+00 7.296361e-01 2.703639e-01 0.000000e+00
 0.000000e+00 0.000000e+00 0.000000e+00 0.000000e+00 0.000000e+00 0.000000e+00 7.495314e-01 2.504685e-01
 0.000000e+00 0.000000e+00 0.000000e+00 0.000000e+00 0.000000e+00 0.000000e+00 0.000000e+00 0.000000e+00
<ENDHMM>
