~o
<STREAMINFO> 1 39
<VECSIZE> 39<NULLD><MFCC_D_A_0><DIAGC>
~h "belas"
<BEGINHMM>
<NUMSTATES> 6
<STATE> 2
<MEAN> 39
 5.549208e+00 3.419853e+00 5.806109e-01 7.905334e+00 -3.135649e+00 1.268145e+00 -3.254631e+00 1.065997e+00 3.399886e+00 -1.115187e+01 -4.587574e+00 8.140064e+00 5.880483e+01 -5.748284e-02 -6.931840e-01 5.048749e-01 -2.752053e-01 -6.185891e-01 5.675372e-01 -1.507264e-01 -3.295397e-01 2.355936e-01 -3.963969e-02 7.639503e-01 7.584342e-01 3.749954e-01 -9.644369e-02 4.564095e-02 2.588681e-02 7.075660e-02 1.814579e-01 6.616457e-02 3.888565e-02 6.579065e-02 -4.973960e-02 3.442916e-02 7.843576e-02 -9.717431e-02 -8.496453e-02
<VARIANCE> 39
 2.432157e+01 6.146681e+01 4.410635e+01 3.157341e+01 8.965766e+01 5.331563e+01 2.986957e+01 1.007562e+02 5.548932e+01 3.399821e+01 4.577737e+01 6.778041e+01 9.572123e+01 1.145506e+00 2.452991e+00 3.508905e+00 2.016673e+00 5.925484e+00 4.353775e+00 2.382838e+00 2.899262e+00 3.753038e+00 2.714827e+00 3.241417e+00 2.639315e+00 1.135206e+00 1.712213e-01 3.980743e-01 6.089703e-01 3.692819e-01 9.987057e-01 8.042938e-01 4.653152e-01 5.739780e-01 7.002255e-01 5.262562e-01 5.281564e-01 4.961025e-01 1.697140e-01
<GCONST> 1.257907e+02
<STATE> 3
<MEAN> 39
 -1.690166e-01 -8.274644e+00 8.291130e+00 6.382427e+00 -7.023559e+00 1.246455e+01 -3.596495e+00 -1.411988e+00 4.091025e+00 -8.479356e+00 7.466405e+00 1.072186e+01 5.856059e+01 -1.966561e+00 -2.102657e+00 1.261573e+00 -8.036062e-01 3.118646e-01 5.871556e-01 1.883343e-01 1.575532e-01 -1.329295e+00 1.679041e+00 5.414405e-01 -1.821726e+00 -1.552050e-02 -2.456260e-01 -4.572532e-01 1.949871e-01 -5.788441e-01 -2.137775e-01 -4.644530e-01 -7.544699e-02 -6.569323e-02 -3.526022e-01 2.611588e-01 -4.316794e-01 -1.319114e-01 2.381321e-01
<VARIANCE> 39
 1.889936e+01 6.524932e+01 1.817816e+01 1.586008e+01 2.671003e+01 2.628923e+01 3.130098e+01 2.792388e+01 4.517486e+01 2.998434e+01 1.758732e+01 3.242031e+01 4.549728e+01 1.509311e+00 4.752421e+00 3.565256e+00 4.182345e+00 4.521791e+00 3.557734e+00 4.649536e+00 3.187322e+00 4.350544e+00 4.445516e+00 2.694771e+00 2.141066e+00 1.314803e+00 1.987745e-01 8.985267e-01 5.671449e-01 5.314211e-01 7.727582e-01 7.213792e-01 6.342020e-01 6.205928e-01 6.824283e-01 6.983516e-01 4.380934e-01 5.875490e-01 2.253891e-01
<GCONST> 1.222687e+02
<STATE> 4
<MEAN> 39
 -1.727335e+01 -2.060015e+01 1.738886e+01 -7.767306e+00 -6.114797e+00 5.442354e+00 -1.864262e+00 -3.776806e+00 -7.534926e+00 2.820500e+00 2.350981e+00 2.315931e+00 6.440843e+01 -9.277269e-01 -2.640367e-01 -7.072631e-01 -6.209780e-01 -1.792675e-01 -6.208416e-01 1.285561e-01 -3.845111e-01 -3.395077e-01 -2.676198e-02 -3.945999e-01 -1.193883e-01 -4.921812e-01 4.990929e-01 7.355482e-01 -7.643380e-01 6.494821e-01 -6.101355e-02 1.335368e-01 1.180908e-01 -1.186104e-01 4.117012e-01 -4.655320e-01 1.644874e-01 2.076598e-01 -3.782001e-01
<VARIANCE> 39
 6.599950e+01 1.703099e+01 2.338907e+01 3.358466e+01 4.832030e+01 4.354668e+01 1.116061e+02 7.547166e+01 4.607848e+01 4.208922e+01 3.351187e+01 1.526083e+01 8.174506e+01 3.110036e+00 3.645370e+00 4.511271e+00 4.452797e+00 2.822142e+00 3.894869e+00 1.943412e+00 2.603165e+00 4.089089e+00 4.244661e+00 3.277481e+00 1.586570e+00 1.058961e+00 1.837712e-01 4.069399e-01 3.685340e-01 4.393756e-01 4.835463e-01 6.520782e-01 5.407410e-01 5.308794e-01 6.004103e-01 6.301450e-01 5.791422e-01 3.868583e-01 1.104263e-01
<GCONST> 1.227887e+02
<STATE> 5
<MEAN> 39
 -1.188808e+01 -4.938716e+00 -5.940068e-01 6.540008e-01 -6.220359e+00 1.636425e+00 -8.012645e-01 -2.697963e+00 -3.502047e+00 -5.058638e+00 2.498445e+00 3.621408e+00 4.933213e+01 5.942753e-01 1.930941e+00 -1.116888e+00 7.469044e-01 4.149996e-01 -7.360973e-01 7.312505e-02 1.911597e-01 3.732747e-01 -3.914216e-01 -4.419283e-01 3.964967e-02 -9.327282e-01 1.758443e-02 -1.268265e-01 2.995245e-01 -1.534698e-01 9.343316e-02 5.498436e-02 -1.193708e-01 8.294646e-02 -5.153896e-02 3.483957e-02 -3.030988e-02 2.376564e-02 2.156931e-01
<VARIANCE> 39
 5.973357e+01 8.330750e+01 4.297385e+01 5.086367e+01 5.586864e+01 6.128444e+01 5.936966e+01 6.053190e+01 4.862187e+01 6.106842e+01 2.932202e+01 2.546441e+01 9.824264e+01 1.867779e+00 6.678760e+00 6.545991e+00 5.362631e+00 5.869096e+00 7.039972e+00 4.491440e+00 5.429195e+00 6.276981e+00 4.555672e+00 3.435171e+00 3.348775e+00 4.244762e+00 2.375788e-01 1.099300e+00 8.708825e-01 9.524522e-01 1.234597e+00 1.284725e+00 8.404883e-01 1.125383e+00 1.251762e+00 9.918860e-01 6.596082e-01 6.945698e-01 5.068948e-01
<GCONST> 1.412753e+02
<TRANSP> 6
 0.000000e+00 1.000000e+00 0.000000e+00 0.000000e+00 0.000000e+00 0.000000e+00
 0.000000e+00 9.216990e-01 7.830101e-02 0.000000e+00 0.000000e+00 0.000000e+00
 0.000000e+00 0.000000e+00 8.426323e-01 1.573678e-01 0.000000e+00 0.000000e+00
 0.000000e+00 0.000000e+00 0.000000e+00 8.634963e-01 1.365037e-01 0.000000e+00
 0.000000e+00 0.000000e+00 0.000000e+00 0.000000e+00 8.962893e-01 1.037107e-01
 0.000000e+00 0.000000e+00 0.000000e+00 0.000000e+00 0.000000e+00 0.000000e+00
<ENDHMM>
