~o
<STREAMINFO> 1 39
<VECSIZE> 39<NULLD><MFCC_D_A_0><DIAGC>
~h "delapan"
<BEGINHMM>
<NUMSTATES> 6
<STATE> 2
<MEAN> 39
 3.088930e+00 4.611678e+00 -1.703194e+00 8.109401e+00 -2.635716e-01 -9.336793e-01 -1.902923e+00 4.737462e+00 3.649179e+00 -8.056989e+00 -5.089545e+00 4.918936e+00 5.056264e+01 6.828962e-02 5.251649e-02 2.033356e-03 8.130504e-03 6.779604e-03 -7.240700e-02 1.810643e-02 9.895366e-02 7.058329e-03 -5.770894e-02 -3.463105e-02 -7.047217e-02 2.025915e-02 -2.799256e-03 -1.744475e-02 -6.364568e-03 -5.930790e-03 -1.319511e-02 2.296327e-03 1.109996e-02 -1.447010e-02 -7.021776e-03 1.404360e-02 1.064591e-02 3.361665e-03 3.359170e-03
<VARIANCE> 39
 4.987055e+01 6.811079e+01 4.826098e+01 5.175122e+01 1.129194e+02 5.142064e+01 3.382531e+01 4.919225e+01 5.456326e+01 3.562086e+01 4.716736e+01 4.821924e+01 5.139686e+01 3.355137e+00 5.950655e+00 4.997120e+00 4.162261e+00 9.816675e+00 5.143866e+00 3.380170e+00 4.464305e+00 4.746265e+00 3.713542e+00 4.439378e+00 3.924118e+00 3.223546e+00 4.676473e-01 1.050429e+00 9.247264e-01 7.326394e-01 1.695259e+00 1.011846e+00 6.512860e-01 8.653479e-01 8.898929e-01 7.435554e-01 8.738640e-01 7.216031e-01 4.100841e-01
<GCONST> 1.396187e+02
<STATE> 3
<MEAN> 39
 -1.489012e+00 5.585802e+00 4.463550e-01 4.450224e+00 -2.751545e-01 -6.598220e-01 -4.335500e-01 -7.108818e+00 -1.732065e+00 -3.608939e+00 -7.527224e-01 2.111966e+00 6.790845e+01 2.212822e-01 4.940200e-03 -1.163928e-01 -8.659559e-02 -1.246893e-01 -1.834739e-01 -1.190973e-01 6.196623e-02 -5.320511e-02 -2.933990e-02 4.356136e-02 8.674596e-02 1.650494e-01 -4.275500e-02 -4.022925e-02 -3.967889e-02 -7.237960e-02 -5.670996e-02 -3.299316e-02 3.022099e-02 5.242413e-02 7.384177e-02 1.683608e-02 2.342183e-02 2.806398e-02 -7.321577e-03
<VARIANCE> 39
 4.196704e+01 4.556034e+01 3.191538e+01 5.992616e+01 7.976752e+01 5.912107e+01 4.258209e+01 4.023903e+01 4.204573e+01 3.798635e+01 3.016942e+01 3.698092e+01 6.325620e+01 3.315460e+00 2.918984e+00 1.932922e+00 2.753153e+00 3.720060e+00 2.555874e+00 2.428594e+00 2.755265e+00 2.993678e+00 2.457481e+00 2.225428e+00 2.786024e+00 3.838803e+00 4.273908e-01 4.520191e-01 3.353425e-01 4.449860e-01 5.484170e-01 4.569584e-01 4.505402e-01 4.682668e-01 5.631078e-01 4.222724e-01 3.919195e-01 4.581079e-01 4.802515e-01
<GCONST> 1.241212e+02
<STATE> 4
<MEAN> 39
 1.103528e+00 -7.400083e+00 2.937580e+00 -1.246427e+01 2.617995e+00 -1.535290e+01 1.852665e+01 -1.317332e+01 8.530772e-01 -9.163368e+00 -1.758283e+00 -2.079519e+00 7.602122e+01 -8.858617e-02 -7.176464e-02 2.650415e-03 -1.288599e-01 6.211334e-03 6.639597e-02 1.046359e-01 2.374270e-04 1.007041e-01 1.310043e-02 6.972481e-02 -6.626858e-03 4.129479e-02 -4.299765e-03 -2.445756e-03 1.004559e-02 1.435757e-02 2.624269e-02 3.868992e-03 -1.554644e-02 7.702068e-03 -6.241352e-03 6.405716e-04 -1.524650e-02 -1.233217e-02 4.348451e-03
<VARIANCE> 39
 2.384203e+01 6.601183e+01 3.259203e+01 5.307532e+01 9.335349e+01 9.432713e+01 8.687999e+01 1.050073e+02 5.406101e+01 3.474130e+01 5.819482e+01 3.864965e+01 9.972549e+01 1.329739e+00 3.753047e+00 2.294286e+00 3.203005e+00 5.534294e+00 4.273046e+00 4.352834e+00 4.933421e+00 3.559629e+00 2.507549e+00 3.995376e+00 2.737664e+00 5.159613e+00 2.475724e-01 4.611409e-01 3.366111e-01 5.393578e-01 8.292430e-01 7.038213e-01 6.907604e-01 7.819220e-01 6.467245e-01 5.030639e-01 7.348101e-01 5.041456e-01 6.933167e-01
<GCONST> 1.330962e+02
<STATE> 5
<MEAN> 39
 -8.073182e-01 2.344872e+00 -7.940804e+00 -3.125441e+00 -3.975278e+00 -7.772748e+00 -2.825603e+00 1.602021e+00 1.048015e+00 -4.531814e+00 -6.000316e-01 3.674277e+00 7.187393e+01 -1.364108e-01 -1.506283e-02 -2.836845e-03 8.432388e-03 2.868880e-02 8.877022e-02 5.267805e-02 2.838138e-02 1.130323e-01 7.930701e-02 -4.367439e-02 -4.763922e-02 -1.215768e-01 9.933753e-05 5.470258e-03 6.746587e-03 2.263287e-02 1.870730e-02 -1.183625e-03 -1.830428e-02 -2.808364e-02 -4.598931e-02 -1.947082e-02 2.922281e-03 -1.630390e-02 -6.107109e-03
<VARIANCE> 39
 3.333756e+01 4.196837e+01 4.099129e+01 3.880259e+01 6.924976e+01 3.311755e+01 1.657324e+01 4.194945e+01 3.243008e+01 3.807628e+01 3.432870e+01 4.036533e+01 4.701863e+01 1.285550e+00 1.071097e+00 1.080464e+00 1.464939e+00 1.827436e+00 1.430752e+00 1.364531e+00 1.580764e+00 2.257198e+00 1.469962e+00 1.531705e+00 1.084369e+00 1.304797e+00 1.796991e-01 1.516079e-01 1.645346e-01 2.140529e-01 2.413688e-01 2.616719e-01 2.236850e-01 2.573389e-01 3.336058e-01 2.781776e-01 2.861970e-01 1.938899e-01 1.534885e-01
<GCONST> 1.035505e+02
<TRANSP> 6
 0.000000e+00 2.287896e-01 7.712104e-01 0.000000e+00 0.000000e+00 0.000000e+00
 0.000000e+00 9.793338e-01 1.506815e-03 1.915943e-02 0.000000e+00 0.000000e+00
 0.000000e+00 0.000000e+00 9.362901e-01 2.516067e-02 3.854921e-02 0.000000e+00
 0.000000e+00 0.000000e+00 0.000000e+00 9.475046e-01 7.089640e-07 5.249475e-02
 0.000000e+00 0.000000e+00 0.000000e+00 0.000000e+00 9.741180e-01 2.588201e-02
 0.000000e+00 0.000000e+00 0.000000e+00 0.000000e+00 0.000000e+00 0.000000e+00
<ENDHMM>
