~o
<STREAMINFO> 1 36
<VECSIZE> 36<NULLD><LPC_D_A><DIAGC>
~h "delapan"
<BEGINHMM>
<NUMSTATES> 8
<STATE> 2
<MEAN> 36
 -2.746447e+00 4.768084e+00 -7.113521e+00 9.002305e+00 -9.795363e+00 9.411352e+00 -8.011300e+00 5.911910e+00 -3.804965e+00 2.074017e+00 -8.595577e-01 2.254091e-01 1.637856e-02 -4.801981e-02 7.546741e-02 -1.069736e-01 1.201280e-01 -1.114685e-01 9.176651e-02 -6.275844e-02 3.307969e-02 -1.388104e-02 2.818495e-03 1.938734e-03 1.303428e-02 -3.519320e-02 6.798282e-02 -1.115925e-01 1.495791e-01 -1.701146e-01 1.681859e-01 -1.438342e-01 1.048615e-01 -6.457023e-02 3.099888e-02 -8.672819e-03
<VARIANCE> 36
 3.724093e-01 2.934901e+00 9.533257e+00 2.170391e+01 3.435298e+01 4.028738e+01 3.617520e+01 2.452767e+01 1.227416e+01 4.464324e+00 1.017990e+00 7.810391e-02 5.814333e-02 4.709904e-01 1.563456e+00 3.639075e+00 5.792338e+00 6.800178e+00 6.157521e+00 4.196023e+00 2.102163e+00 7.715024e-01 1.743973e-01 1.256791e-02 1.198803e-02 8.768674e-02 2.696366e-01 6.030771e-01 9.207844e-01 1.046368e+00 9.314610e-01 6.278170e-01 3.132457e-01 1.170176e-01 2.745753e-02 2.043427e-03
<GCONST> 6.416172e+01
<STATE> 3
<MEAN> 36
 -1.477793e+00 1.663745e+00 -2.272553e+00 2.491757e+00 -2.381304e+00 1.960545e+00 -1.387659e+00 8.307589e-01 -4.458335e-01 1.778635e-01 -6.297766e-02 5.011050e-02 -7.547820e-02 3.597050e-02 -7.634434e-02 1.368572e-01 -1.654346e-01 1.802019e-01 -1.573452e-01 1.186773e-01 -7.616051e-02 4.256843e-02 -1.316207e-02 3.815156e-03 -1.692376e-02 4.691873e-02 -7.652906e-02 1.247966e-01 -1.435431e-01 1.516335e-01 -1.407799e-01 1.066534e-01 -6.618726e-02 3.718073e-02 -1.649200e-02 4.671413e-03
<VARIANCE> 36
 9.237654e-01 3.708534e+00 7.230161e+00 1.082710e+01 1.215214e+01 1.092638e+01 7.757213e+00 4.273308e+00 1.889223e+00 6.349946e-01 1.544310e-01 2.316358e-02 5.635942e-02 1.660219e-01 4.861869e-01 1.237694e+00 2.188723e+00 2.801931e+00 2.689598e+00 1.882327e+00 9.172343e-01 3.025342e-01 6.168821e-02 5.295947e-03 1.223777e-02 8.989379e-02 3.409075e-01 7.947409e-01 1.296341e+00 1.600578e+00 1.526621e+00 1.121874e+00 6.283216e-01 2.476285e-01 5.488895e-02 3.632704e-03
<GCONST> 4.641028e+01
<STATE> 4
<MEAN> 36
 -8.387670e-01 4.708944e-02 -2.494311e-01 2.901779e-01 -2.182461e-01 2.307422e-01 -2.314200e-01 1.738056e-01 -1.802965e-01 1.190093e-01 -1.335366e-01 1.112837e-01 6.453208e-03 -1.801560e-03 -3.225824e-03 -5.869724e-04 1.793879e-03 9.238982e-04 1.295432e-03 -1.143034e-03 -4.227898e-04 -7.782971e-04 7.104640e-04 -3.568554e-04 2.715525e-03 2.804504e-03 1.248664e-03 -1.121176e-03 -8.904034e-04 1.219335e-04 3.469067e-04 2.174349e-04 -1.695933e-04 2.779877e-04 6.642891e-06 -2.571462e-05
<VARIANCE> 36
 3.226571e-01 1.852147e-01 2.218975e-01 1.500541e-01 1.353280e-01 7.563017e-02 9.163898e-02 8.419544e-02 4.192337e-02 4.060926e-02 2.836800e-02 1.275804e-02 4.520469e-02 2.058535e-02 1.384736e-02 1.196360e-02 9.127750e-03 4.813674e-03 4.446741e-03 4.659088e-03 2.916120e-03 2.605595e-03 2.552239e-03 1.402252e-03 8.671320e-03 4.254870e-03 2.845825e-03 2.501440e-03 1.930321e-03 1.015115e-03 9.190040e-04 9.758985e-04 6.191950e-04 5.626157e-04 5.512788e-04 3.001720e-04
<GCONST> -1.042448e+02
<STATE> 5
<MEAN> 36
 -1.995479e+00 1.399845e+00 6.386498e-01 -3.903237e+00 7.885926e+00 -1.128678e+01 1.276590e+01 -1.203696e+01 9.519760e+00 -6.180264e+00 3.009728e+00 -7.532208e-01 -5.627549e-02 2.076526e-01 -4.650254e-01 7.829418e-01 -1.073194e+00 1.244886e+00 -1.233570e+00 1.027810e+00 -7.088273e-01 3.987539e-01 -1.638045e-01 3.531474e-02 1.674262e-02 5.043352e-03 -6.761668e-02 1.280439e-01 -1.993158e-01 2.675268e-01 -2.989310e-01 2.862692e-01 -2.379879e-01 1.606981e-01 -7.990357e-02 2.081012e-02
<VARIANCE> 36
 1.391979e+01 2.263103e+02 1.065461e+03 2.877424e+03 5.363919e+03 7.206500e+03 7.225669e+03 5.406043e+03 2.915092e+03 1.085565e+03 2.324914e+02 1.443123e+01 1.311092e+00 2.156701e+01 1.015194e+02 2.731971e+02 5.090618e+02 6.838190e+02 6.861772e+02 5.146759e+02 2.783528e+02 1.042843e+02 2.260280e+01 1.424109e+00 2.501463e-01 4.110587e+00 1.936492e+01 5.229101e+01 9.767125e+01 1.311507e+02 1.314891e+02 9.847732e+01 5.304734e+01 1.979847e+01 4.291978e+00 2.719596e-01
<GCONST> 2.330325e+02
<STATE> 6
<MEAN> 36
 -1.692835e+00 2.395450e+00 -3.494942e+00 4.097930e+00 -4.138036e+00 3.672532e+00 -2.863322e+00 1.918539e+00 -1.136688e+00 5.413390e-01 -2.208910e-01 7.955694e-02 3.950974e-03 -3.579979e-02 1.404147e-01 -1.945658e-01 2.438969e-01 -2.808991e-01 2.810224e-01 -2.296370e-01 1.622419e-01 -9.611775e-02 4.304980e-02 -8.047163e-03 -9.987527e-03 1.008487e-02 -1.737376e-02 2.709417e-02 -3.324487e-02 4.813159e-02 -5.202030e-02 4.451364e-02 -3.390673e-02 2.350142e-02 -1.010582e-02 3.681837e-03
<VARIANCE> 36
 1.193034e+00 4.998823e+00 1.024362e+01 1.595588e+01 1.822255e+01 1.672343e+01 1.264127e+01 7.433007e+00 3.432849e+00 1.172072e+00 2.498465e-01 2.876058e-02 3.802548e-02 1.609319e-01 4.093612e-01 9.169427e-01 1.401072e+00 1.599136e+00 1.448887e+00 1.005741e+00 5.038387e-01 1.760177e-01 3.797038e-02 4.039092e-03 6.168951e-03 2.518616e-02 6.644414e-02 1.356488e-01 1.896169e-01 2.009555e-01 1.758002e-01 1.222936e-01 6.381276e-02 2.379320e-02 5.707781e-03 6.661987e-04
<GCONST> 2.411041e+01
<STATE> 7
<MEAN> 36
 -1.311828e+00 1.171822e+00 -1.477870e+00 1.525568e+00 -1.473726e+00 1.282629e+00 -9.142511e-01 6.574869e-01 -4.564677e-01 2.329428e-01 -1.514073e-01 7.162102e-02 -7.376588e-05 2.446004e-02 -2.207404e-02 3.414801e-02 -3.750626e-02 5.152739e-02 -4.715450e-02 3.476132e-02 -2.001165e-02 1.274360e-02 -2.026012e-03 1.199296e-04 5.761309e-03 2.252338e-04 -1.172054e-02 1.472484e-02 -3.798054e-03 6.416861e-03 -1.044002e-02 7.316054e-03 -4.792656e-03 2.734498e-03 -1.298786e-03 4.452129e-04
<VARIANCE> 36
 7.578105e-01 2.350368e+00 4.276081e+00 6.705934e+00 7.538493e+00 7.095173e+00 5.674751e+00 3.432865e+00 1.632578e+00 5.934260e-01 1.501811e-01 2.517815e-02 4.945961e-02 9.202436e-02 1.203579e-01 2.334207e-01 3.197352e-01 3.656587e-01 3.297661e-01 2.315060e-01 1.258266e-01 4.962611e-02 1.367581e-02 2.068165e-03 9.203599e-03 1.814026e-02 2.397304e-02 4.853705e-02 6.709038e-02 7.717359e-02 7.023509e-02 4.908957e-02 2.771942e-02 1.073709e-02 2.881847e-03 3.792343e-04
<GCONST> -6.030139e+00
<TRANSP> 8
 0.000000e+00 1.874986e-01 8.125014e-01 0.000000e+00 0.000000e+00 0.000000e+00 0.000000e+00 0.000000e+00
 0.000000e+00 9.029187e-01 9.708128e-02 0.000000e+00 0.000000e+00 0.000000e+00 0.000000e+00 0.000000e+00
 0.000000e+00 0.000000e+00 3.360288e-01 5.228783e-01 1.410930e-01 0.000000e+00 0.000000e+00 0.000000e+00
 0.000000e+00 0.000000e+00 0.000000e+00 9.558976e-01 0.000000e+00 4.410245e-02 0.000000e+00 0.000000e+00
 0.000000e+00 0.000000e+00 0.000000e+00 0.000000e+00 6.964287e-01 3.035713e-01 0.000000e+00 0.000000e+00
 0.000000e+00 0.000000e+00 0.000000e+00 0.000000e+00 0.000000e+00 4.524471e-01 5.475529e-01 0.000000e+00
 0.000000e+00 0.000000e+00 0.000000e+00 0.000000e+00 0.000000e+00 0.000000e+00 6.142832e-01 3.857168e-01
 0.000000e+00 0.000000e+00 0.000000e+00 0.000000e+00 0.000000e+00 0.000000e+00 0.000000e+00 0.000000e+00
<ENDHMM>
