~o
<STREAMINFO> 1 36
<VECSIZE> 36<NULLD><LPC_D_A><DIAGC>
~h "dua"
<BEGINHMM>
<NUMSTATES> 8
<STATE> 2
<MEAN> 36
 -1.809281e+00 2.603157e+00 -3.663740e+00 4.089397e+00 -4.095025e+00 3.526590e+00 -2.671141e+00 1.731288e+00 -9.490116e-01 4.009385e-01 -1.392809e-01 7.600845e-02 -5.932657e-02 5.310191e-02 -9.619943e-02 1.281106e-01 -1.452691e-01 1.502096e-01 -1.360624e-01 1.195309e-01 -8.168971e-02 5.002635e-02 -2.367973e-02 9.572112e-03 1.018734e-03 7.053833e-03 -7.554875e-03 2.187716e-02 -3.182903e-02 3.800004e-02 -3.921738e-02 3.594964e-02 -2.911397e-02 1.736761e-02 -9.204324e-03 2.811320e-03
<VARIANCE> 36
 1.118374e+00 4.714305e+00 9.136176e+00 1.436446e+01 1.651258e+01 1.585874e+01 1.221081e+01 7.291829e+00 3.404815e+00 1.114880e+00 2.406360e-01 2.777279e-02 2.997828e-02 1.023831e-01 2.718601e-01 5.720046e-01 8.683706e-01 1.027116e+00 9.682168e-01 7.100038e-01 3.892819e-01 1.499259e-01 3.502573e-02 3.290818e-03 5.719211e-03 2.364480e-02 6.338735e-02 1.340955e-01 2.027020e-01 2.381990e-01 2.171645e-01 1.517221e-01 8.007030e-02 2.999232e-02 7.062394e-03 7.121725e-04
<GCONST> 2.068829e+01
<STATE> 3
<MEAN> 36
 -3.200585e+00 5.866145e+00 -8.495797e+00 1.035668e+01 -1.074421e+01 9.624208e+00 -7.674212e+00 5.309420e+00 -3.074456e+00 1.468306e+00 -5.614264e-01 1.606029e-01 -9.832848e-03 -1.179065e-01 5.196109e-01 -1.137226e+00 1.844088e+00 -2.407742e+00 2.575396e+00 -2.254926e+00 1.621536e+00 -9.166389e-01 3.684757e-01 -8.322889e-02 6.416059e-02 -2.078202e-01 4.066425e-01 -6.338619e-01 8.118452e-01 -8.925985e-01 8.517140e-01 -6.995057e-01 4.786542e-01 -2.644786e-01 1.085287e-01 -2.355099e-02
<VARIANCE> 36
 4.676211e-01 6.411392e+00 2.859709e+01 7.384283e+01 1.296402e+02 1.702397e+02 1.720586e+02 1.325208e+02 7.516145e+01 2.843878e+01 5.746137e+00 3.325214e-01 2.187812e-01 3.993973e+00 2.293813e+01 7.144690e+01 1.444538e+02 2.036840e+02 2.032182e+02 1.431765e+02 6.973607e+01 2.177290e+01 3.535851e+00 1.628748e-01 2.973884e-02 4.668787e-01 2.509507e+00 7.639035e+00 1.525075e+01 2.149478e+01 2.165447e+01 1.550717e+01 7.714370e+00 2.476995e+00 4.194544e-01 2.038927e-02
<GCONST> 1.463504e+02
<STATE> 4
<MEAN> 36
 -1.049569e+00 6.626432e-01 -6.370084e-01 -1.205152e-01 9.572465e-01 -1.791670e+00 2.152772e+00 -1.885473e+00 1.330411e+00 -6.921178e-01 1.781873e-01 2.030048e-02 -4.287285e-02 -3.859726e-02 5.039847e-02 -5.518822e-02 4.425670e-02 -2.720881e-02 9.702891e-03 2.389089e-02 -2.767118e-02 2.438077e-02 -1.636688e-02 1.489675e-02 1.615105e-02 1.784874e-02 -6.086871e-02 1.555092e-01 -2.559756e-01 3.224916e-01 -3.355184e-01 2.808065e-01 -1.993098e-01 1.067194e-01 -4.025415e-02 1.126113e-02
<VARIANCE> 36
 1.888752e+00 2.524225e+01 1.504104e+02 4.944871e+02 1.044558e+03 1.516969e+03 1.539577e+03 1.092176e+03 5.312416e+02 1.640251e+02 2.602694e+01 1.189178e+00 3.711528e-02 5.633199e-02 1.487551e-01 2.829060e-01 3.877747e-01 4.023643e-01 3.210823e-01 2.066797e-01 1.041189e-01 3.975787e-02 1.137706e-02 1.774772e-03 2.064419e-02 2.804524e-01 1.672579e+00 5.375402e+00 1.112889e+01 1.596719e+01 1.611152e+01 1.142306e+01 5.570988e+00 1.734210e+00 2.805215e-01 1.330138e-02
<GCONST> 9.857436e+01
<STATE> 5
<MEAN> 36
 -3.412351e+00 6.814445e+00 -1.082926e+01 1.456911e+01 -1.667769e+01 1.648274e+01 -1.436060e+01 1.083185e+01 -6.866201e+00 3.580058e+00 -1.439708e+00 3.573066e-01 -5.493484e-02 6.215448e-01 -2.007017e+00 4.007595e+00 -6.138343e+00 7.650396e+00 -7.883207e+00 6.738517e+00 -4.753966e+00 2.656883e+00 -1.052939e+00 2.231510e-01 1.115347e-01 -3.926724e-01 8.375626e-01 -1.400743e+00 1.913013e+00 -2.205087e+00 2.165418e+00 -1.804942e+00 1.258618e+00 -7.119040e-01 2.977211e-01 -6.681941e-02
<VARIANCE> 36
 5.822144e-01 9.041361e+00 4.536621e+01 1.300446e+02 2.480905e+02 3.330987e+02 3.204703e+02 2.201807e+02 1.057326e+02 3.348471e+01 5.803981e+00 2.945943e-01 2.632532e-01 6.188672e+00 4.081495e+01 1.362781e+02 2.881979e+02 4.181289e+02 4.234764e+02 2.994740e+02 1.452309e+02 4.472389e+01 7.099752e+00 3.228802e-01 2.665296e-02 5.830910e-01 3.679960e+00 1.193554e+01 2.484781e+01 3.574014e+01 3.600893e+01 2.540581e+01 1.235239e+01 3.843843e+00 6.205627e-01 2.846623e-02
<GCONST> 1.629223e+02
<STATE> 6
<MEAN> 36
 -1.779542e+00 2.358265e+00 -3.280977e+00 3.688334e+00 -3.724608e+00 3.258087e+00 -2.534767e+00 1.719583e+00 -9.664854e-01 4.302119e-01 -1.628656e-01 6.920093e-02 3.081257e-02 -1.340670e-01 2.374086e-01 -3.374719e-01 4.185674e-01 -4.533897e-01 4.292664e-01 -3.524232e-01 2.418109e-01 -1.401941e-01 6.159773e-02 -1.077374e-02 -9.863200e-03 4.965539e-02 -7.355490e-02 1.023799e-01 -1.164695e-01 1.136041e-01 -1.019020e-01 7.605176e-02 -5.412298e-02 3.224185e-02 -1.259905e-02 2.521633e-03
<VARIANCE> 36
 1.023512e+00 4.779541e+00 9.048764e+00 1.437113e+01 1.700607e+01 1.680291e+01 1.367741e+01 8.590012e+00 4.207919e+00 1.510445e+00 3.297184e-01 3.514347e-02 5.984475e-02 3.047816e-01 8.566192e-01 1.791455e+00 2.729003e+00 3.200827e+00 2.917573e+00 2.021208e+00 1.023833e+00 3.580692e-01 7.415347e-02 5.991803e-03 1.045312e-02 6.222587e-02 2.294713e-01 6.089920e-01 1.146832e+00 1.574451e+00 1.577819e+00 1.140667e+00 5.750867e-01 1.898891e-01 3.456528e-02 2.102485e-03
<GCONST> 5.220418e+01
<STATE> 7
<MEAN> 36
 -8.830556e-01 2.216506e-01 -3.899860e-01 3.596252e-01 -4.205987e-01 3.697571e-01 -3.251686e-01 2.548452e-01 -2.202715e-01 1.656122e-01 -1.437501e-01 1.311313e-01 7.856771e-03 7.644345e-03 -1.248238e-02 1.990071e-02 -1.891827e-02 2.815566e-02 -3.154387e-02 2.103033e-02 -2.030584e-02 1.344181e-02 -4.832788e-03 1.622653e-03 2.750158e-03 3.750988e-03 -3.712238e-03 3.931673e-03 -4.147796e-03 4.911930e-03 -3.278886e-03 2.892410e-03 -1.561557e-03 3.104753e-04 -2.365108e-04 -9.350991e-04
<VARIANCE> 36
 4.055620e-01 5.801094e-01 9.071677e-01 1.133240e+00 1.147187e+00 1.000695e+00 7.645026e-01 4.923327e-01 2.260166e-01 1.055313e-01 4.731160e-02 1.723434e-02 3.623714e-02 7.260285e-02 2.081556e-01 4.986749e-01 8.413484e-01 1.050576e+00 1.029465e+00 7.930449e-01 4.382149e-01 1.677088e-01 3.988826e-02 3.942624e-03 5.694881e-03 5.394729e-03 5.787949e-03 1.055816e-02 1.598170e-02 2.011142e-02 1.947229e-02 1.475982e-02 7.930622e-03 3.263377e-03 1.202336e-03 3.453349e-04
<GCONST> -2.838999e+01
<TRANSP> 8
 0.000000e+00 9.586770e-01 4.132300e-02 0.000000e+00 0.000000e+00 0.000000e+00 0.000000e+00 0.000000e+00
 0.000000e+00 5.638914e-01 3.383719e-02 4.022715e-01 0.000000e+00 0.000000e+00 0.000000e+00 0.000000e+00
 0.000000e+00 0.000000e+00 7.071500e-01 1.929381e-01 9.991197e-02 0.000000e+00 0.000000e+00 0.000000e+00
 0.000000e+00 0.000000e+00 0.000000e+00 8.492946e-03 4.456561e-02 9.469415e-01 0.000000e+00 0.000000e+00
 0.000000e+00 0.000000e+00 0.000000e+00 0.000000e+00 4.736972e-01 5.263028e-01 0.000000e+00 0.000000e+00
 0.000000e+00 0.000000e+00 0.000000e+00 0.000000e+00 0.000000e+00 4.979509e-01 5.020490e-01 0.000000e+00
 0.000000e+00 0.000000e+00 0.000000e+00 0.000000e+00 0.000000e+00 0.000000e+00 9.105675e-01 8.943255e-02
 0.000000e+00 0.000000e+00 0.000000e+00 0.000000e+00 0.000000e+00 0.000000e+00 0.000000e+00 0.000000e+00
<ENDHMM>
