~o
<STREAMINFO> 1 39
<VECSIZE> 39<NULLD><MFCC_D_A_0><DIAGC>
~h "dua"
<BEGINHMM>
<NUMSTATES> 6
<STATE> 2
<MEAN> 39
 2.181214e+00 9.543287e+00 5.393465e-01 9.266483e+00 5.511973e+00 7.769315e-01 -8.400354e+00 3.908621e+00 8.201606e+00 -7.407609e+00 -6.184143e+00 1.829054e+00 4.891587e+01 1.089152e+00 -3.253169e-02 4.440633e-01 -8.254852e-01 -1.132120e+00 4.375255e-01 -6.503441e-01 1.170059e-02 1.205190e+00 -1.227476e+00 -1.052434e+00 5.995540e-01 1.005953e+00 -1.181646e-01 -1.655792e-01 3.012413e-01 -5.770462e-02 -3.710926e-01 -3.573602e-02 -1.247234e-01 1.391843e-01 3.027140e-01 -2.020508e-01 -7.773177e-02 9.256192e-02 3.041534e-02
<VARIANCE> 39
 4.797839e+01 4.420606e+01 5.367132e+01 2.961466e+01 5.738329e+01 6.246850e+01 6.671010e+01 4.289936e+01 5.349435e+01 8.074370e+01 3.937369e+01 4.096473e+01 4.718328e+01 3.122757e+00 6.661120e+00 8.715313e+00 4.707346e+00 7.223414e+00 5.561589e+00 8.198440e+00 4.401364e+00 6.288599e+00 8.978969e+00 4.692299e+00 5.090330e+00 2.635047e+00 4.993637e-01 1.434426e+00 1.764106e+00 8.245382e-01 1.186719e+00 1.207740e+00 1.829548e+00 1.018476e+00 1.175474e+00 1.637379e+00 1.121047e+00 9.543823e-01 5.273255e-01
<GCONST> 1.457722e+02
<STATE> 3
<MEAN> 39
 7.360706e+00 4.031021e+00 7.684389e+00 1.775396e+00 -1.087995e+01 1.776304e+00 -1.182141e+01 8.323689e+00 1.757117e+01 -1.886022e+01 -1.060720e+01 9.641927e+00 5.612076e+01 -5.074820e-02 3.501496e-02 -1.746360e-01 2.106543e-01 -4.042779e-01 -7.315593e-01 7.995683e-01 4.800928e-01 -3.742908e-01 3.676431e-01 2.720537e-01 3.723013e-02 -1.163161e-01 -9.028930e-02 1.707176e-01 -3.732176e-01 2.231143e-01 5.361940e-01 -1.668625e-01 2.264939e-01 -1.776028e-03 -4.424559e-01 4.497262e-01 2.454951e-01 -3.117966e-01 -2.139013e-01
<VARIANCE> 39
 5.203297e+00 3.313332e+01 2.564652e+01 1.958326e+01 3.462290e+01 2.120363e+01 4.759186e+01 2.920353e+01 3.175456e+01 3.448363e+01 2.310249e+01 3.454210e+01 1.434256e+01 4.412304e-01 2.425340e+00 2.764244e+00 2.225656e+00 5.097751e+00 2.766513e+00 2.999578e+00 2.869884e+00 4.009701e+00 3.916409e+00 3.011428e+00 3.140324e+00 1.010062e+00 9.164514e-02 3.339323e-01 3.431582e-01 3.448035e-01 4.909940e-01 4.526452e-01 4.352930e-01 5.367584e-01 6.729884e-01 6.541414e-01 6.012559e-01 5.676222e-01 1.102337e-01
<GCONST> 1.122404e+02
<STATE> 4
<MEAN> 39
 -1.488850e+00 1.151270e+01 5.926603e+00 3.896401e+00 -3.951499e+00 3.233367e+00 -1.831102e+00 -3.306780e+00 6.181263e-01 -9.936310e+00 -3.998719e+00 2.996795e-03 6.850586e+01 -4.030927e-01 -2.633857e-01 -1.450301e-01 1.465148e-01 6.494968e-02 8.877561e-02 2.690141e-01 -7.710716e-02 -3.464646e-01 6.675964e-02 2.695280e-01 3.332387e-01 -3.292488e-01 -1.429444e-02 -1.942529e-02 -2.720089e-02 -1.840850e-02 -9.262420e-03 3.144018e-02 3.422577e-02 2.679524e-03 -2.121588e-02 1.506157e-02 2.565636e-02 1.480066e-02 -1.340877e-02
<VARIANCE> 39
 2.524829e+01 5.674526e+01 2.151729e+01 3.265685e+01 4.819223e+01 2.577457e+01 3.679641e+01 1.458660e+01 4.390803e+01 2.393358e+01 4.687624e+01 3.693258e+01 3.821258e+01 9.590417e-01 1.933765e+00 1.216960e+00 1.390545e+00 1.850478e+00 1.503182e+00 1.907647e+00 1.431811e+00 1.423667e+00 1.818595e+00 1.988337e+00 1.920858e+00 1.304115e+00 1.032784e-01 2.200437e-01 1.823918e-01 1.973588e-01 2.397236e-01 2.556722e-01 3.446685e-01 2.893087e-01 2.456256e-01 3.359714e-01 3.618449e-01 3.516828e-01 1.166208e-01
<GCONST> 1.037839e+02
<STATE> 5
<MEAN> 39
 2.330957e+00 9.076921e+00 -3.281302e+00 5.732439e+00 -1.294766e+00 -5.296967e+00 3.069843e-02 9.192415e+00 2.096753e+00 -7.816343e+00 -5.005874e+00 2.120067e+00 4.841432e+01 -3.572864e-01 1.484846e-01 -1.978622e-01 -3.043418e-03 3.548661e-01 -3.435364e-02 2.656980e-01 -1.506369e-01 -5.152096e-01 5.764322e-01 1.030446e-01 -5.697459e-01 -3.282862e-01 4.286286e-02 -1.066098e-01 2.764637e-01 -1.223013e-01 -2.433912e-01 2.332744e-01 -3.387036e-01 -1.926775e-01 3.790371e-01 -2.665955e-01 -1.734475e-01 1.632976e-01 1.348119e-01
<VARIANCE> 39
 5.199648e+01 4.868153e+01 4.322857e+01 5.356917e+01 4.759216e+01 3.812511e+01 4.357625e+01 5.550788e+01 5.168223e+01 4.065539e+01 3.867119e+01 3.921892e+01 3.716434e+01 3.167622e+00 4.712717e+00 4.729637e+00 4.462491e+00 6.048284e+00 4.366577e+00 5.151838e+00 4.198824e+00 7.379087e+00 4.943492e+00 3.595275e+00 4.920962e+00 3.088142e+00 4.300868e-01 7.760967e-01 7.657968e-01 8.451115e-01 9.325530e-01 8.185655e-01 7.162927e-01 6.618112e-01 1.138460e+00 7.702718e-01 6.880591e-01 7.923003e-01 3.507590e-01
<GCONST> 1.365092e+02
<TRANSP> 6
 0.000000e+00 5.006057e-01 4.993943e-01 0.000000e+00 0.000000e+00 0.000000e+00
 0.000000e+00 8.876272e-01 1.123729e-01 0.000000e+00 0.000000e+00 0.000000e+00
 0.000000e+00 0.000000e+00 8.830234e-01 2.924458e-02 8.773198e-02 0.000000e+00
 0.000000e+00 0.000000e+00 0.000000e+00 9.597545e-01 1.341588e-02 2.682964e-02
 0.000000e+00 0.000000e+00 0.000000e+00 0.000000e+00 8.983874e-01 1.016126e-01
 0.000000e+00 0.000000e+00 0.000000e+00 0.000000e+00 0.000000e+00 0.000000e+00
<ENDHMM>
