~o
<STREAMINFO> 1 39
<VECSIZE> 39<NULLD><PLP_D_A_0><DIAGC>
~h "empat"
<BEGINHMM>
<NUMSTATES> 8
<STATE> 2
<MEAN> 39
 -4.738264e-01 -2.319055e-01 -3.173557e-01 -2.812284e-01 -3.617288e-02 -1.119335e+00 -1.154424e-01 -2.562486e-01 -2.711387e-01 -8.737529e-01 -8.975536e-01 -4.370017e-01 4.958707e+00 -4.031650e-03 8.934721e-02 4.172199e-02 3.586249e-02 5.068747e-02 3.044017e-02 -1.633472e-02 -3.100246e-03 1.000401e-02 -1.169430e-02 -5.962403e-02 -6.291823e-02 -5.714918e-02 -5.229228e-02 -3.178345e-02 -1.478375e-02 -2.247399e-02 -2.659960e-02 1.924239e-02 6.827619e-03 -5.720314e-03 2.834555e-03 2.332936e-02 5.546936e-02 3.686659e-02 -3.385441e-02
<VARIANCE> 39
 2.419247e-01 5.607830e-01 3.000331e-01 8.646678e-01 3.272505e-01 7.717640e-01 9.080273e-01 5.095456e-01 3.562038e-01 2.156666e-01 3.494512e-01 3.538961e-01 1.067090e+00 3.515792e-02 2.061452e-02 1.728946e-02 2.371423e-02 2.480981e-02 2.774064e-02 2.620664e-02 2.107940e-02 2.903085e-02 1.722233e-02 4.129689e-02 2.762958e-02 3.290249e-02 4.372100e-03 5.787604e-03 3.783514e-03 5.551533e-03 6.049057e-03 4.970034e-03 4.235349e-03 4.236496e-03 5.492015e-03 3.199986e-03 6.871826e-03 6.135384e-03 5.080192e-03
<GCONST> -5.501180e+01
<STATE> 3
<MEAN> 39
 -1.156744e+00 -2.480165e-01 -4.443408e-01 -3.651336e-01 -2.344487e-01 -6.924577e-01 -1.806048e-01 -4.057644e-01 -2.358266e-01 -5.335672e-01 -3.754136e-01 -1.985808e-01 4.389115e+00 6.214979e-02 -2.231121e-01 -1.718798e-01 -1.958148e-01 -2.390091e-01 -5.914763e-02 3.928965e-02 -2.250358e-04 3.467005e-02 6.677628e-02 2.271642e-01 1.720312e-01 1.689690e-01 1.177037e-01 -4.889457e-02 -4.078173e-02 -4.441714e-02 -6.549010e-02 -3.982079e-02 -2.001209e-03 1.955295e-02 3.564065e-02 -1.268953e-02 -9.072643e-03 1.604447e-02 1.335566e-01
<VARIANCE> 39
 1.296620e-01 3.550641e-01 3.110222e-01 3.320516e-01 3.139781e-01 2.276518e-01 3.183590e-01 2.327773e-01 1.513239e-01 1.656976e-01 2.909463e-01 1.028928e-01 6.982007e-01 6.545985e-02 2.931750e-02 1.905429e-02 3.072482e-02 3.403712e-02 3.993488e-02 2.057425e-02 2.212732e-02 4.026531e-02 1.985577e-02 2.806216e-02 1.471628e-02 7.470980e-02 4.521168e-03 7.213159e-03 4.173638e-03 5.213757e-03 5.282479e-03 6.197226e-03 5.130783e-03 3.691253e-03 7.405634e-03 2.959212e-03 7.503609e-03 2.685765e-03 6.258934e-03
<GCONST> -6.086001e+01
<STATE> 4
<MEAN> 39
 1.912598e-02 -1.120161e+00 -9.307752e-01 -1.116344e+00 -1.494313e+00 -9.124568e-01 -1.390387e-01 -3.533194e-01 1.616170e-01 -5.696920e-01 7.621670e-02 4.588214e-01 5.596870e+00 1.587159e-01 -1.302006e-01 -6.256797e-02 -7.849021e-02 -1.389930e-01 3.402326e-02 2.001418e-02 -1.134609e-02 6.250577e-02 -2.966256e-03 4.932829e-02 1.132110e-01 2.091121e-01 -9.532559e-02 7.294074e-02 3.495441e-02 6.659611e-02 1.156753e-01 2.444118e-02 -8.134286e-03 -1.104282e-02 -3.977020e-02 -2.083483e-03 -3.677733e-02 -4.501860e-02 -1.217668e-01
<VARIANCE> 39
 1.297994e-01 4.713567e-01 3.901628e-01 4.218211e-01 4.512829e-01 8.245949e-01 6.407576e-01 3.933535e-01 3.295998e-01 3.018790e-01 1.914370e-01 1.947620e-01 8.925304e-01 6.038607e-02 5.217648e-02 4.902798e-02 3.836091e-02 8.341578e-02 4.142884e-02 2.689905e-02 2.733951e-02 4.559779e-02 2.263934e-02 2.342041e-02 2.326652e-02 9.957625e-02 6.450296e-03 6.521571e-03 8.602633e-03 6.047883e-03 9.784319e-03 1.114342e-02 4.380599e-03 5.843580e-03 8.216128e-03 4.739162e-03 5.257147e-03 4.187997e-03 8.295766e-03
<GCONST> -4.792101e+01
<STATE> 5
<MEAN> 39
 1.056557e-02 -1.732195e+00 -1.461862e+00 -1.710339e+00 -1.133249e+00 -1.013163e+00 4.745332e-01 -5.726799e-01 5.468898e-01 -3.155189e-01 9.253991e-02 4.183169e-01 6.682050e+00 -3.184658e-02 8.431695e-02 6.140004e-02 -2.229531e-02 8.684360e-02 4.451604e-02 -8.179951e-02 -1.093026e-01 -4.524954e-02 3.877302e-02 6.521745e-03 4.828707e-02 -1.082450e-01 -4.625882e-02 6.411292e-02 2.929390e-02 1.255520e-02 2.535491e-02 -1.515283e-02 -3.011147e-02 2.701845e-02 -3.970520e-02 -9.555466e-03 -3.679382e-03 -1.728733e-02 -1.027095e-01
<VARIANCE> 39
 2.672206e-02 5.537300e-01 3.439286e-01 3.917671e-01 4.609684e-01 2.635458e-01 9.955269e-01 7.399595e-01 3.731956e-01 2.407739e-01 2.170807e-01 2.245290e-01 1.663102e-01 2.965041e-03 1.864295e-02 2.230354e-02 1.706087e-02 1.480780e-02 1.759285e-02 1.596733e-02 1.874005e-02 2.400847e-02 1.879905e-02 1.854124e-02 1.685106e-02 2.947470e-02 1.296512e-03 3.033404e-03 6.236377e-03 4.379307e-03 4.194639e-03 3.534227e-03 3.332803e-03 6.153550e-03 4.065683e-03 4.966100e-03 3.784757e-03 2.654609e-03 2.537458e-03
<GCONST> -7.068511e+01
<STATE> 6
<MEAN> 39
 -6.863133e-01 -7.680002e-01 -1.264675e+00 -1.242852e+00 -1.049430e+00 -9.162267e-01 -3.377369e-01 -4.241787e-01 -1.231797e-01 -3.072140e-01 1.689827e-01 5.454186e-01 5.133094e+00 -1.669723e-01 8.667903e-02 2.903506e-02 5.523286e-02 1.013617e-01 2.264297e-02 -7.766608e-03 4.544611e-02 -4.578131e-02 -4.666507e-03 -2.038915e-02 -7.305989e-02 -2.142960e-01 5.526611e-03 -1.560003e-04 1.073018e-02 1.737217e-02 1.030041e-02 -1.713419e-03 1.013915e-02 2.884248e-03 9.067729e-03 -3.580889e-03 -1.474199e-02 -2.199829e-02 2.124907e-02
<VARIANCE> 39
 3.152972e-01 2.302050e-01 5.709190e-01 3.866898e-01 2.292270e-01 2.674242e-01 2.929155e-01 2.357741e-01 1.400321e-01 1.502606e-01 9.007245e-02 2.067772e-01 3.095356e-01 1.462391e-02 1.915459e-02 2.350750e-02 1.894615e-02 2.210787e-02 2.176788e-02 1.121906e-02 1.778885e-02 1.674693e-02 1.138078e-02 1.032496e-02 1.370211e-02 2.734306e-02 4.506778e-03 3.042134e-03 4.904511e-03 4.208774e-03 2.799132e-03 2.658442e-03 2.336925e-03 2.954644e-03 3.109529e-03 2.726970e-03 1.986154e-03 2.150810e-03 5.869076e-03
<GCONST> -7.487850e+01
<STATE> 7
<MEAN> 39
 -6.017823e-01 -5.483432e-01 -5.926037e-01 -7.902417e-01 -4.276435e-01 -1.034485e+00 -2.570189e-01 -5.763302e-01 -4.677004e-01 -7.997276e-01 -1.315200e-01 2.105456e-01 4.741926e+00 3.995929e-03 1.317334e-02 9.137953e-03 1.694908e-02 3.615900e-02 -5.321106e-02 -1.068868e-02 -2.251355e-02 -5.673002e-02 -2.364731e-02 -1.992206e-02 -1.243633e-02 4.166259e-02 2.770020e-02 -4.387334e-02 -1.076264e-02 -2.859144e-02 -4.081331e-02 -3.661507e-03 1.786359e-03 -1.934586e-02 1.440078e-02 1.299389e-02 1.213215e-02 2.531399e-02 5.533928e-02
<VARIANCE> 39
 3.917567e-01 6.345222e-01 3.697125e-01 5.516995e-01 3.940164e-01 4.308494e-01 6.105183e-01 3.754382e-01 3.437006e-01 3.536727e-01 2.564204e-01 2.203082e-01 1.417679e+00 5.250843e-02 5.590351e-02 5.282051e-02 4.775985e-02 4.048444e-02 3.565191e-02 2.023513e-02 2.548582e-02 4.776208e-02 4.586232e-02 2.967065e-02 3.512668e-02 6.654424e-02 8.630304e-03 8.514693e-03 8.441695e-03 7.722571e-03 7.760566e-03 9.302670e-03 4.828380e-03 6.579243e-03 9.122115e-03 8.927262e-03 6.037733e-03 6.280454e-03 1.035743e-02
<GCONST> -4.402269e+01
<TRANSP> 8
 0.000000e+00 8.445623e-01 1.554377e-01 0.000000e+00 0.000000e+00 0.000000e+00 0.000000e+00 0.000000e+00
 0.000000e+00 7.817498e-01 1.600912e-01 5.815902e-02 0.000000e+00 0.000000e+00 0.000000e+00 0.000000e+00
 0.000000e+00 0.000000e+00 6.991606e-01 3.008393e-01 0.000000e+00 0.000000e+00 0.000000e+00 0.000000e+00
 0.000000e+00 0.000000e+00 0.000000e+00 6.481758e-01 1.428601e-01 2.089642e-01 0.000000e+00 0.000000e+00
 0.000000e+00 0.000000e+00 0.000000e+00 0.000000e+00 7.652848e-01 2.347152e-01 0.000000e+00 0.000000e+00
 0.000000e+00 0.000000e+00 0.000000e+00 0.000000e+00 0.000000e+00 7.393281e-01 2.606719e-01 0.000000e+00
 0.000000e+00 0.000000e+00 0.000000e+00 0.000000e+00 0.000000e+00 0.000000e+00 7.457610e-01 2.542391e-01
 0.000000e+00 0.000000e+00 0.000000e+00 0.000000e+00 0.000000e+00 0.000000e+00 0.000000e+00 0.000000e+00
<ENDHMM>
