~o
<STREAMINFO> 1 39
<VECSIZE> 39<NULLD><MFCC_D_A_0><DIAGC>
~h "empat"
<BEGINHMM>
<NUMSTATES> 6
<STATE> 2
<MEAN> 39
 -1.426196e+00 -5.562778e+00 2.641134e+00 -9.983341e+00 2.626570e+00 -1.178362e+01 1.681924e+01 -8.308709e+00 3.102731e+00 -1.032498e+01 -1.933976e+00 -4.584164e+00 7.199114e+01 7.097999e-02 1.589167e-01 6.524720e-02 1.364798e-01 2.374007e-01 1.335763e-01 -1.840228e-01 1.824396e-01 -6.439231e-02 -5.566272e-02 -1.133885e-01 -9.968770e-02 -1.373771e-01 -1.806878e-02 -4.144678e-02 -4.188572e-02 -5.531355e-02 -2.946802e-02 -2.203692e-02 1.910039e-02 -1.733638e-02 5.376311e-02 3.089687e-02 8.850338e-03 1.266757e-02 3.602013e-02
<VARIANCE> 39
 3.092540e+01 7.298469e+01 5.861966e+01 7.352136e+01 8.924685e+01 8.332674e+01 8.485387e+01 8.242702e+01 6.666600e+01 3.584969e+01 7.070817e+01 4.480444e+01 1.159409e+02 2.206482e+00 3.422185e+00 2.661766e+00 2.461767e+00 4.720809e+00 3.203122e+00 2.782501e+00 4.464087e+00 3.773490e+00 2.918412e+00 4.181833e+00 3.094514e+00 5.549631e+00 2.715498e-01 5.038560e-01 4.371128e-01 4.258125e-01 7.513515e-01 5.092703e-01 4.406896e-01 7.116910e-01 6.045268e-01 4.593280e-01 5.774278e-01 4.775611e-01 6.070047e-01
<GCONST> 1.330786e+02
<STATE> 3
<MEAN> 39
 -6.587070e+00 8.541227e+00 5.730345e-01 8.277176e+00 6.118035e+00 1.215340e+00 8.430386e-01 2.937564e+00 2.170712e+00 -3.417704e+00 -6.287929e+00 -5.896760e+00 6.348245e+01 -5.190347e-01 -1.372981e-01 -5.780121e-02 -1.999595e-01 -1.455558e-01 1.472211e-01 1.452762e-01 -8.912902e-02 1.574351e-02 1.737092e-01 1.264925e-01 6.008514e-02 -3.731096e-01 -3.486403e-02 -1.129022e-01 -7.008598e-02 -1.198873e-01 -1.143213e-01 -6.433842e-02 -3.292442e-02 -6.847174e-02 -4.560396e-02 3.770719e-02 1.292175e-01 1.090901e-01 3.541074e-02
<VARIANCE> 39
 2.239919e+01 3.025620e+01 1.985370e+01 2.753665e+01 2.823494e+01 2.965461e+01 2.151033e+01 3.936179e+01 1.803347e+01 1.267759e+01 1.946183e+01 1.955730e+01 2.213758e+01 9.127141e-01 7.716815e-01 7.765291e-01 9.035784e-01 1.045340e+00 9.841661e-01 1.035899e+00 9.386622e-01 1.158196e+00 9.263128e-01 1.089417e+00 1.147897e+00 5.190978e-01 1.938403e-01 1.149622e-01 1.210239e-01 1.363970e-01 1.825179e-01 2.025211e-01 1.815411e-01 1.595314e-01 2.130482e-01 1.772060e-01 1.777540e-01 1.998164e-01 1.632188e-01
<GCONST> 8.820174e+01
<STATE> 4
<MEAN> 39
 -2.161388e+00 4.138241e+00 -1.286829e+00 1.978273e+00 -3.034367e+00 -2.322385e+00 -1.025563e+00 1.344534e-01 1.153837e+00 -5.933107e+00 -2.664386e+00 1.544058e+00 5.891304e+01 5.598533e-01 -1.710238e-01 -2.607613e-01 -3.801549e-01 -4.576904e-01 -3.378336e-01 -1.434101e-01 -7.033802e-02 -9.935445e-04 -1.417445e-01 1.295307e-01 3.565352e-01 6.219605e-01 -1.774211e-02 -2.206217e-02 -1.533037e-02 9.631095e-03 1.954748e-02 1.625070e-02 -4.227642e-03 3.348420e-02 2.036142e-02 -2.436184e-02 -2.188127e-02 1.691766e-03 -1.719198e-02
<VARIANCE> 39
 6.531619e+01 6.370705e+01 3.907156e+01 5.540945e+01 8.045986e+01 6.228838e+01 3.553360e+01 6.846117e+01 6.429418e+01 5.599656e+01 4.230952e+01 6.013994e+01 1.877997e+02 5.874134e+00 5.222270e+00 4.030788e+00 4.617239e+00 6.514974e+00 4.866956e+00 3.179755e+00 4.226185e+00 5.411523e+00 3.677766e+00 4.138304e+00 4.555256e+00 6.603736e+00 8.456514e-01 8.500047e-01 6.794767e-01 8.253009e-01 1.041743e+00 8.839895e-01 6.331817e-01 8.093620e-01 9.302450e-01 6.663744e-01 7.691639e-01 7.372874e-01 8.820966e-01
<GCONST> 1.426596e+02
<STATE> 5
<MEAN> 39
 -2.550882e+00 5.830595e-01 -9.592599e+00 -5.732129e+00 -6.992475e+00 -5.302417e+00 -2.688004e+00 -6.865346e-01 2.102727e+00 -3.948783e+00 -3.277654e-01 5.403334e+00 6.955145e+01 -5.256578e-01 1.812229e-01 1.292347e-01 1.496246e-01 2.998636e-01 2.521186e-01 8.226924e-02 -1.374967e-01 -2.819209e-01 7.018188e-02 8.771981e-02 -1.086082e-01 -5.634356e-01 -3.717646e-02 4.851139e-02 6.632013e-02 4.888047e-02 4.138938e-02 2.175003e-03 8.247298e-03 4.740234e-03 -1.250488e-02 1.349377e-02 -8.488321e-03 -5.469933e-02 -3.241710e-02
<VARIANCE> 39
 4.932938e+01 4.059961e+01 5.579976e+01 3.474462e+01 4.249833e+01 3.254528e+01 1.671438e+01 4.078538e+01 4.749699e+01 3.428835e+01 1.874076e+01 5.593005e+01 6.950964e+01 7.802191e-01 8.306517e-01 1.318492e+00 1.170169e+00 1.176992e+00 1.369775e+00 1.344874e+00 1.482261e+00 1.698351e+00 1.133016e+00 1.140470e+00 1.438893e+00 8.206378e-01 1.047392e-01 1.425298e-01 2.158316e-01 1.858111e-01 1.975838e-01 2.423948e-01 2.555682e-01 2.928974e-01 3.089510e-01 2.265334e-01 2.476653e-01 2.603553e-01 1.058856e-01
<GCONST> 1.006193e+02
<TRANSP> 6
 0.000000e+00 7.082889e-01 2.917111e-01 0.000000e+00 0.000000e+00 0.000000e+00
 0.000000e+00 9.125050e-01 2.012718e-02 6.736786e-02 0.000000e+00 0.000000e+00
 0.000000e+00 0.000000e+00 9.248478e-01 7.515223e-02 1.051202e-22 0.000000e+00
 0.000000e+00 0.000000e+00 0.000000e+00 9.225681e-01 3.602347e-02 4.140846e-02
 0.000000e+00 0.000000e+00 0.000000e+00 0.000000e+00 9.503925e-01 4.960749e-02
 0.000000e+00 0.000000e+00 0.000000e+00 0.000000e+00 0.000000e+00 0.000000e+00
<ENDHMM>
