~o
<STREAMINFO> 1 36
<VECSIZE> 36<NULLD><LPC_D_A><DIAGC>
~h "enam"
<BEGINHMM>
<NUMSTATES> 8
<STATE> 2
<MEAN> 36
 -2.770820e+00 4.701982e+00 -6.838442e+00 8.465115e+00 -8.868817e+00 8.140827e+00 -6.646403e+00 4.628212e+00 -2.701873e+00 1.308495e+00 -4.605135e-01 8.998828e-02 -1.283796e-02 1.396110e-02 -2.946619e-03 -1.789470e-02 4.013506e-02 -6.738099e-02 8.145731e-02 -6.820723e-02 4.582336e-02 -2.963229e-02 1.327894e-02 2.052796e-03 2.421978e-02 -6.010236e-02 1.010707e-01 -1.505183e-01 1.833274e-01 -1.869930e-01 1.694364e-01 -1.325401e-01 8.531715e-02 -4.826309e-02 2.057946e-02 -4.721020e-03
<VARIANCE> 36
 2.300961e-01 2.253151e+00 7.588526e+00 1.708369e+01 2.825961e+01 3.478915e+01 3.235666e+01 2.296352e+01 1.216165e+01 4.513729e+00 9.934760e-01 7.823867e-02 2.831690e-02 2.379895e-01 7.801675e-01 1.855233e+00 3.100807e+00 3.729979e+00 3.444644e+00 2.453966e+00 1.274623e+00 4.685675e-01 1.049653e-01 8.386422e-03 4.746882e-03 4.339805e-02 1.481987e-01 3.530728e-01 5.944189e-01 7.197441e-01 6.656314e-01 4.732945e-01 2.444902e-01 8.921681e-02 1.961780e-02 1.550852e-03
<GCONST> 5.005807e+01
<STATE> 3
<MEAN> 36
 -6.559556e-01 7.159892e-02 -5.825192e-01 3.967323e-01 -3.646248e-01 3.603770e-01 -3.592827e-01 3.454323e-01 -2.648175e-01 2.173781e-01 -1.999129e-01 1.272345e-01 5.256453e-03 -3.944417e-03 -5.806263e-03 -4.145015e-03 -3.042081e-04 2.709217e-04 5.916276e-04 -2.247693e-03 -1.874314e-03 -6.329244e-04 1.793116e-03 3.433717e-03 2.521202e-03 4.763248e-03 3.750515e-03 2.606357e-03 9.825183e-04 -2.621040e-04 -1.505007e-03 -1.294462e-03 -4.207200e-04 6.166157e-05 3.812408e-04 -6.699470e-05
<VARIANCE> 36
 2.025619e-01 8.236805e-02 6.058498e-02 1.051058e-01 6.001678e-02 4.794342e-02 3.453350e-02 4.974324e-02 3.133914e-02 1.897025e-02 1.673033e-02 1.322360e-02 1.682803e-02 7.776398e-03 4.618860e-03 7.707663e-03 3.818735e-03 2.974427e-03 2.737761e-03 1.893714e-03 1.887832e-03 1.812580e-03 1.483335e-03 1.180381e-03 2.608584e-03 1.284084e-03 8.746735e-04 1.396058e-03 7.573756e-04 6.034200e-04 5.461436e-04 3.554603e-04 3.343301e-04 3.687023e-04 2.909342e-04 2.596269e-04
<GCONST> -1.282117e+02
<STATE> 4
<MEAN> 36
 -2.506043e+00 4.283077e+00 -6.414189e+00 8.018313e+00 -8.578059e+00 8.193289e+00 -6.939274e+00 5.006677e+00 -3.196672e+00 1.692355e+00 -6.903791e-01 1.906061e-01 5.958136e-02 -1.333653e-01 2.236203e-01 -3.341884e-01 3.882864e-01 -3.922504e-01 3.526105e-01 -2.662854e-01 1.623303e-01 -8.628508e-02 3.026591e-02 -3.765303e-03 -6.990980e-03 1.917806e-02 -2.816133e-02 3.879407e-02 -4.131075e-02 3.488084e-02 -2.693394e-02 1.740895e-02 -7.356313e-03 4.252918e-03 -3.298649e-04 -2.170653e-03
<VARIANCE> 36
 1.732771e-01 9.716028e-01 2.954640e+00 6.162675e+00 9.066814e+00 1.069804e+01 1.029297e+01 7.579494e+00 4.204021e+00 1.833314e+00 5.133007e-01 5.258813e-02 1.075434e-02 6.438955e-02 1.737323e-01 4.155306e-01 6.867785e-01 8.443727e-01 8.696189e-01 6.913155e-01 3.971117e-01 1.718844e-01 4.788377e-02 4.802286e-03 2.440185e-03 1.380054e-02 3.527918e-02 8.246308e-02 1.295063e-01 1.490717e-01 1.482112e-01 1.161535e-01 6.605838e-02 2.876148e-02 8.312489e-03 8.206115e-04
<GCONST> 1.031652e+01
<STATE> 5
<MEAN> 36
 -7.397766e-01 -2.076226e-01 -4.009869e-02 3.888669e-02 2.265573e-02 1.219086e-01 7.312379e-03 5.471469e-03 -7.270052e-02 -3.911704e-02 -8.996494e-02 8.066829e-02 -1.046117e-02 4.220271e-03 8.626560e-03 6.460973e-03 -3.151304e-03 -3.641113e-03 -4.648312e-03 5.767897e-04 -2.031957e-04 7.834469e-04 9.912516e-04 3.176792e-03 -4.206735e-03 8.955600e-03 6.610373e-03 1.447773e-04 -5.185099e-03 -2.710682e-03 -1.370218e-03 1.226585e-03 1.218570e-03 2.452536e-03 2.382610e-04 -4.919044e-04
<VARIANCE> 36
 2.929547e-01 1.607524e-01 1.184649e-01 4.944461e-02 6.771021e-02 3.662340e-02 3.167201e-02 3.025912e-02 2.436968e-02 2.013847e-02 1.997481e-02 1.836527e-02 2.621378e-02 1.797800e-02 1.446047e-02 5.053763e-03 1.013282e-02 5.201949e-03 3.022340e-03 3.970821e-03 2.704172e-03 1.807731e-03 2.338640e-03 2.171307e-03 3.603964e-03 3.293612e-03 2.466693e-03 1.002123e-03 2.003561e-03 1.000751e-03 6.129079e-04 8.366363e-04 5.515001e-04 3.426278e-04 4.838791e-04 4.062838e-04
<GCONST> -1.160757e+02
<STATE> 6
<MEAN> 36
 -1.225531e+00 7.818863e-01 -8.591533e-01 9.267195e-01 -9.064549e-01 7.053418e-01 -4.419133e-01 3.061083e-01 -2.676151e-01 1.128847e-01 -7.108012e-02 5.998918e-02 -4.627435e-03 2.918232e-02 7.943802e-03 -1.079396e-02 2.810998e-02 -3.141776e-02 2.601615e-02 -3.496900e-02 1.702349e-02 -2.886442e-03 6.575135e-03 -8.551922e-03 -5.564767e-03 2.413002e-02 -4.178778e-02 4.829963e-02 -4.162638e-02 4.541692e-02 -3.885680e-02 2.421444e-02 -1.222700e-02 5.430798e-03 -4.241017e-03 2.286798e-03
<VARIANCE> 36
 6.022359e-01 1.283681e+00 2.167734e+00 2.320868e+00 1.842267e+00 1.368043e+00 8.230154e-01 3.926364e-01 2.307171e-01 1.534709e-01 7.618418e-02 2.243714e-02 3.076847e-02 5.452209e-02 4.230673e-02 5.097429e-02 5.254561e-02 6.088018e-02 6.407461e-02 5.436029e-02 3.361488e-02 1.633699e-02 6.764539e-03 2.120935e-03 5.038600e-03 1.433591e-02 2.029306e-02 3.149832e-02 3.665952e-02 3.214229e-02 2.633937e-02 1.866910e-02 1.104736e-02 5.033454e-03 1.874591e-03 4.267908e-04
<GCONST> -4.007730e+01
<STATE> 7
<MEAN> 36
 -1.751891e+00 2.548751e+00 -3.573100e+00 4.097553e+00 -3.942570e+00 3.286197e+00 -2.381635e+00 1.415831e+00 -7.890432e-01 3.462463e-01 -1.280470e-01 5.147690e-02 -1.013655e-01 2.306184e-01 -3.064678e-01 4.790878e-01 -5.567362e-01 5.696773e-01 -5.246407e-01 4.038378e-01 -2.644961e-01 1.545544e-01 -6.880707e-02 1.643201e-02 3.609034e-03 -1.478355e-02 3.274035e-03 1.749323e-02 -4.965183e-02 8.279543e-02 -9.603906e-02 9.413272e-02 -6.757929e-02 3.885336e-02 -1.801726e-02 7.745327e-03
<VARIANCE> 36
 1.664255e+00 6.975461e+00 1.475621e+01 2.392569e+01 2.907923e+01 2.832212e+01 2.304068e+01 1.494661e+01 7.146208e+00 2.463949e+00 5.331022e-01 4.732506e-02 2.960308e-02 1.519031e-01 4.774300e-01 1.024023e+00 1.756572e+00 2.264826e+00 2.286499e+00 1.714893e+00 8.970621e-01 3.153328e-01 6.735062e-02 5.668979e-03 6.129555e-03 2.819019e-02 7.728247e-02 1.675274e-01 2.799022e-01 3.681778e-01 3.814631e-01 2.890604e-01 1.528719e-01 5.295056e-02 1.089899e-02 8.731184e-04
<GCONST> 3.985312e+01
<TRANSP> 8
 0.000000e+00 2.500010e-01 7.499990e-01 0.000000e+00 0.000000e+00 0.000000e+00 0.000000e+00 0.000000e+00
 0.000000e+00 8.184928e-01 0.000000e+00 1.815072e-01 0.000000e+00 0.000000e+00 0.000000e+00 0.000000e+00
 0.000000e+00 0.000000e+00 8.977060e-01 0.000000e+00 1.022940e-01 0.000000e+00 0.000000e+00 0.000000e+00
 0.000000e+00 0.000000e+00 0.000000e+00 8.815169e-01 0.000000e+00 1.184831e-01 0.000000e+00 0.000000e+00
 0.000000e+00 0.000000e+00 0.000000e+00 0.000000e+00 8.699955e-01 1.300045e-01 0.000000e+00 0.000000e+00
 0.000000e+00 0.000000e+00 0.000000e+00 0.000000e+00 0.000000e+00 5.959265e-01 4.040735e-01 0.000000e+00
 0.000000e+00 0.000000e+00 0.000000e+00 0.000000e+00 0.000000e+00 0.000000e+00 3.891208e-01 6.108792e-01
 0.000000e+00 0.000000e+00 0.000000e+00 0.000000e+00 0.000000e+00 0.000000e+00 0.000000e+00 0.000000e+00
<ENDHMM>
