~o
<STREAMINFO> 1 36
<VECSIZE> 36<NULLD><LPC_D_A><DIAGC>
~h "kali"
<BEGINHMM>
<NUMSTATES> 8
<STATE> 2
<MEAN> 36
 -7.147413e-01 3.487319e-01 -6.054366e-01 5.095947e-01 -4.446523e-01 4.550652e-01 -3.746118e-01 3.592266e-01 -3.822836e-01 2.146503e-01 -1.695877e-01 1.289612e-01 6.710729e-03 -2.358063e-03 5.774618e-03 -3.763311e-03 4.504855e-03 -2.495940e-03 2.045773e-03 -1.225632e-03 4.535996e-03 -4.284694e-03 -2.549313e-03 2.259266e-04 1.985706e-03 1.280302e-03 -3.182431e-04 -3.618245e-04 5.271140e-04 1.089493e-03 1.753734e-04 1.334258e-05 -3.199932e-04 2.471360e-04 -1.936144e-03 9.720494e-04
<VARIANCE> 36
 2.786452e-01 5.448156e-02 1.061158e-01 9.077369e-02 5.133707e-02 5.914252e-02 3.171926e-02 3.309553e-02 3.203157e-02 1.985233e-02 2.151921e-02 2.314947e-02 1.307139e-02 6.134358e-03 4.717808e-03 5.074591e-03 2.732991e-03 3.314669e-03 1.906042e-03 1.881559e-03 1.825586e-03 1.392735e-03 1.545850e-03 2.433365e-03 1.801806e-03 1.375879e-03 9.682722e-04 9.079418e-04 5.082042e-04 6.390701e-04 3.698071e-04 3.400747e-04 3.089171e-04 2.330765e-04 2.664432e-04 4.261382e-04
<GCONST> -1.300010e+02
<STATE> 3
<MEAN> 36
 -2.908903e+00 5.133532e+00 -7.474374e+00 9.516279e+00 -1.053450e+01 1.029590e+01 -8.880434e+00 6.657561e+00 -4.395817e+00 2.455753e+00 -9.763579e-01 2.171080e-01 -2.206097e-02 2.226411e-02 -1.630938e-02 9.198762e-03 9.166445e-03 -2.700257e-02 4.617761e-02 -5.446240e-02 5.211928e-02 -3.977207e-02 2.458903e-02 -1.089026e-02 1.262837e-02 -1.743841e-02 1.943759e-02 -2.339388e-02 2.943912e-02 -3.142859e-02 2.837835e-02 -2.067223e-02 1.560398e-02 -1.104837e-02 3.923689e-03 4.690672e-04
<VARIANCE> 36
 2.584487e-01 2.097268e+00 7.557174e+00 1.677107e+01 2.680502e+01 3.258888e+01 3.052059e+01 2.181109e+01 1.155295e+01 4.413977e+00 1.038971e+00 8.166517e-02 2.846302e-02 2.038528e-01 7.398220e-01 1.691515e+00 2.805457e+00 3.434231e+00 3.224532e+00 2.313390e+00 1.220167e+00 4.627203e-01 1.084304e-01 8.460597e-03 5.566392e-03 4.426225e-02 1.589571e-01 3.597676e-01 5.864576e-01 7.083549e-01 6.555611e-01 4.632786e-01 2.392039e-01 8.844712e-02 2.044527e-02 1.578755e-03
<GCONST> 4.947840e+01
<STATE> 4
<MEAN> 36
 -1.310619e+00 1.233553e+00 -1.054642e+00 1.245323e+00 -1.183547e+00 1.101153e+00 -7.729985e-01 6.437266e-01 -4.522922e-01 2.919279e-01 -1.613394e-01 9.322073e-02 1.098490e-02 4.175800e-04 8.704356e-03 1.065310e-02 -1.809524e-02 2.280934e-02 -4.862289e-03 9.371586e-03 5.522524e-03 2.104274e-03 -3.884967e-03 4.312642e-03 1.228809e-02 -2.301248e-02 -8.997048e-03 1.807127e-02 -2.954082e-02 2.618692e-02 -3.292391e-02 2.054238e-02 -1.904299e-02 7.072301e-03 -2.257007e-03 2.033277e-03
<VARIANCE> 36
 6.678883e-01 2.018362e+00 4.412709e+00 6.375204e+00 7.004311e+00 6.369168e+00 4.738639e+00 2.546010e+00 1.045735e+00 3.587692e-01 9.314573e-02 1.834766e-02 2.979847e-02 9.857027e-02 1.156583e-01 9.119782e-02 4.430274e-02 4.408368e-02 3.605660e-02 3.406402e-02 2.059181e-02 1.525717e-02 8.541428e-03 2.083743e-03 6.654869e-03 2.230289e-02 2.952652e-02 3.119606e-02 2.613007e-02 2.704079e-02 2.181625e-02 1.572469e-02 8.114785e-03 4.486716e-03 2.017847e-03 4.943814e-04
<GCONST> -2.866617e+01
<STATE> 5
<MEAN> 36
 -1.071965e+00 3.028115e-02 1.887489e-01 3.520528e-02 -6.406657e-02 1.005433e-01 2.155157e-02 -2.154534e-02 -9.939084e-02 2.651472e-03 -2.524682e-02 5.441059e-02 2.796818e-02 -2.536069e-02 -1.340888e-02 2.013119e-03 8.192674e-03 9.137978e-03 1.577173e-04 -7.383572e-04 -5.448672e-03 -4.790907e-03 4.227568e-03 -4.606884e-04 -5.527704e-04 1.406384e-02 -7.651641e-03 2.660298e-03 -1.826735e-03 1.204305e-03 7.377522e-04 2.673244e-03 -2.013191e-04 -3.229521e-04 1.310747e-03 -2.595590e-04
<VARIANCE> 36
 2.961992e-01 1.866995e-01 1.584094e-01 7.520028e-02 8.595714e-02 4.287450e-02 5.397794e-02 3.369574e-02 2.739886e-02 2.834423e-02 2.822790e-02 1.266838e-02 3.137047e-02 3.250919e-02 1.346319e-02 1.097666e-02 8.080193e-03 4.864523e-03 4.972363e-03 3.846007e-03 3.199185e-03 2.437096e-03 4.042784e-03 1.414041e-03 7.119816e-03 7.024703e-03 2.851275e-03 2.597132e-03 1.763924e-03 1.043169e-03 1.062474e-03 7.726378e-04 7.211567e-04 5.381306e-04 9.304777e-04 2.960823e-04
<GCONST> -1.075236e+02
<STATE> 6
<MEAN> 36
 -1.129000e+00 1.141091e+00 -1.475020e+00 1.806787e+00 -1.897841e+00 1.895100e+00 -1.509127e+00 1.187970e+00 -8.546680e-01 4.567557e-01 -2.106031e-01 1.020602e-01 -3.772189e-02 5.257623e-02 -5.332633e-02 6.852620e-02 -6.235956e-02 5.871985e-02 -3.660032e-02 2.339713e-02 -8.695722e-03 4.923412e-03 1.292268e-03 5.020961e-03 -1.258858e-03 6.858110e-05 -1.788717e-02 2.746066e-02 -1.865399e-02 2.024301e-02 -2.042914e-02 7.933894e-03 -6.961718e-03 5.228130e-03 -2.462917e-03 2.221012e-03
<VARIANCE> 36
 8.955934e-01 3.259878e+00 6.777852e+00 1.066451e+01 1.264304e+01 1.189198e+01 9.262231e+00 5.302446e+00 2.289654e+00 7.885153e-01 1.438399e-01 1.805044e-02 3.683022e-02 4.768456e-02 4.589784e-02 5.675627e-02 4.908592e-02 4.433289e-02 3.101088e-02 2.562570e-02 1.470284e-02 7.502189e-03 2.893750e-03 1.307521e-03 6.327056e-03 7.709883e-03 9.950682e-03 1.376293e-02 1.703908e-02 1.834126e-02 1.836921e-02 1.661948e-02 1.023533e-02 5.110630e-03 1.523072e-03 4.238643e-04
<GCONST> -3.120062e+01
<STATE> 7
<MEAN> 36
 -2.156656e+00 3.625011e+00 -5.291824e+00 6.697488e+00 -7.186852e+00 6.906959e+00 -5.763323e+00 4.171014e+00 -2.630698e+00 1.331608e+00 -4.922695e-01 1.193971e-01 2.678233e-02 -4.772833e-02 7.215047e-02 -9.245809e-02 1.224117e-01 -1.216634e-01 1.151134e-01 -9.280583e-02 6.745321e-02 -4.465724e-02 1.684848e-02 8.920468e-04 4.504513e-03 -1.349318e-02 1.590806e-02 -2.413410e-02 2.983616e-02 -3.074357e-02 2.668802e-02 -2.058953e-02 1.357885e-02 -5.978459e-03 2.181191e-03 -2.280957e-04
<VARIANCE> 36
 1.050841e+00 5.428649e+00 1.326069e+01 2.264067e+01 2.834649e+01 2.690624e+01 2.070061e+01 1.181854e+01 5.110492e+00 1.682944e+00 3.297781e-01 3.098079e-02 2.791230e-02 1.060167e-01 3.348515e-01 6.487120e-01 9.243450e-01 9.586319e-01 7.964086e-01 5.215209e-01 2.640399e-01 1.008915e-01 2.564403e-02 3.384986e-03 6.735732e-03 2.643460e-02 7.923890e-02 1.512673e-01 2.144216e-01 2.201653e-01 1.785313e-01 1.141683e-01 5.605180e-02 2.077917e-02 5.039198e-03 6.430585e-04
<GCONST> 2.258902e+01
<TRANSP> 8
 0.000000e+00 7.200001e-01 2.799999e-01 0.000000e+00 0.000000e+00 0.000000e+00 0.000000e+00 0.000000e+00
 0.000000e+00 9.053265e-01 0.000000e+00 9.467356e-02 0.000000e+00 0.000000e+00 0.000000e+00 0.000000e+00
 0.000000e+00 0.000000e+00 8.808655e-01 1.191344e-01 0.000000e+00 0.000000e+00 0.000000e+00 0.000000e+00
 0.000000e+00 0.000000e+00 0.000000e+00 4.995179e-01 2.601856e-01 2.402965e-01 0.000000e+00 0.000000e+00
 0.000000e+00 0.000000e+00 0.000000e+00 0.000000e+00 8.975473e-01 1.024527e-01 0.000000e+00 0.000000e+00
 0.000000e+00 0.000000e+00 0.000000e+00 0.000000e+00 0.000000e+00 6.007326e-02 9.399267e-01 0.000000e+00
 0.000000e+00 0.000000e+00 0.000000e+00 0.000000e+00 0.000000e+00 0.000000e+00 6.294124e-01 3.705876e-01
 0.000000e+00 0.000000e+00 0.000000e+00 0.000000e+00 0.000000e+00 0.000000e+00 0.000000e+00 0.000000e+00
<ENDHMM>
