~o
<STREAMINFO> 1 39
<VECSIZE> 39<NULLD><MFCC_D_A_0><DIAGC>
~h "lima"
<BEGINHMM>
<NUMSTATES> 6
<STATE> 2
<MEAN> 39
 -3.949071e-01 -1.151882e+00 -5.901910e-01 1.610041e+01 1.121937e+01 -3.131680e+00 -1.107609e+01 1.409892e+00 -2.159134e+00 -5.279908e+00 2.640066e+00 1.881618e+00 6.074301e+01 2.009092e-01 3.752619e-01 1.211380e-01 5.563279e-01 6.362054e-01 -1.838095e-01 -1.951545e-01 1.445721e-01 2.422988e-01 2.196585e-01 -2.752390e-01 -4.176995e-01 -2.989255e-03 -7.017913e-02 1.023453e-01 -1.830565e-02 -1.454178e-01 -8.249886e-02 1.224670e-01 1.949538e-01 1.116201e-01 1.287599e-01 2.493604e-02 -1.730883e-01 -9.652579e-02 -9.533862e-02
<VARIANCE> 39
 2.507725e+01 3.340839e+01 6.138585e+01 4.379827e+01 5.458789e+01 3.249718e+01 5.720714e+01 3.691348e+01 4.668993e+01 4.058612e+01 3.926235e+01 2.952351e+01 1.152931e+02 1.037365e+00 3.433747e+00 3.987166e+00 2.269046e+00 2.803846e+00 3.231174e+00 6.674143e+00 3.302593e+00 3.583139e+00 3.067464e+00 3.546053e+00 2.311575e+00 1.601302e+00 1.566245e-01 4.587273e-01 6.274613e-01 3.095474e-01 4.812144e-01 5.967997e-01 1.007023e+00 4.898801e-01 7.022766e-01 5.948896e-01 5.306771e-01 3.876573e-01 1.776851e-01
<GCONST> 1.241242e+02
<STATE> 3
<MEAN> 39
 8.619592e-01 7.883439e+00 -1.939760e+00 1.512690e+01 1.271965e+01 -1.832123e+00 -5.250180e+00 5.788421e+00 3.035239e+00 -2.895921e+00 -5.730083e+00 -5.703026e+00 5.962651e+01 7.176958e-01 4.328545e-02 -8.322299e-01 -1.351256e+00 -1.292360e+00 -5.094355e-01 6.228265e-01 1.001181e+00 3.498588e-01 -4.310740e-01 -9.138524e-02 4.697344e-01 4.601448e-01 1.363142e-01 -3.327930e-01 -1.470025e-01 -3.073429e-01 -4.222318e-01 -2.477189e-01 -9.120152e-02 2.591580e-02 -1.238122e-01 -1.166876e-01 5.767581e-01 6.138078e-01 2.524690e-01
<VARIANCE> 39
 2.066868e+01 3.631946e+01 2.411157e+01 1.714497e+01 3.207144e+01 1.651252e+01 1.442728e+01 6.926128e+01 3.150897e+01 1.060823e+01 2.372416e+01 1.594502e+01 8.627734e+01 3.896403e-01 6.059677e-01 9.479941e-01 2.002020e+00 2.665290e+00 2.331876e+00 9.577926e-01 1.334422e+00 1.300949e+00 9.971631e-01 3.688694e+00 3.936136e+00 4.161032e-01 5.455505e-02 1.107934e-01 1.934639e-01 2.641846e-01 2.881018e-01 3.374632e-01 2.493045e-01 2.458530e-01 2.674254e-01 2.141612e-01 3.652781e-01 3.695454e-01 4.954495e-02
<GCONST> 9.596271e+01
<STATE> 4
<MEAN> 39
 1.536248e+00 -3.612066e+00 -1.462867e+01 -2.019994e+00 2.877934e+00 -3.397487e+00 -5.363406e-01 1.263305e+01 4.385690e+00 -3.485560e+00 3.346541e+00 7.673654e+00 7.167079e+01 -1.707147e-01 -8.111675e-02 -2.059791e-01 -5.635491e-01 -5.923504e-01 2.434780e-01 3.833526e-01 -3.070405e-02 1.714538e-02 -3.174046e-02 1.788145e-01 5.576231e-01 -1.188953e-01 -1.144244e-01 7.517538e-02 2.115823e-01 2.172937e-01 1.889385e-01 1.998816e-01 -3.567731e-02 -1.748404e-01 -3.578049e-02 1.764489e-02 -1.758654e-01 -1.850329e-01 -1.008880e-01
<VARIANCE> 39
 2.186325e+01 3.875103e+01 1.586973e+01 1.704944e+01 1.045401e+01 2.828701e+01 2.029844e+01 1.717973e+01 2.040341e+01 1.604568e+01 2.891751e+01 1.611552e+01 4.868044e+01 5.483778e-01 1.300306e+00 1.405004e+00 2.300500e+00 2.107096e+00 1.269527e+00 1.221243e+00 1.678020e+00 1.508922e+00 1.354790e+00 2.479327e+00 3.126392e+00 9.704953e-01 5.687120e-02 1.245758e-01 1.558841e-01 2.335678e-01 1.994198e-01 3.148309e-01 2.335085e-01 2.495388e-01 2.191244e-01 2.162853e-01 3.201149e-01 2.150773e-01 5.851003e-02
<GCONST> 9.421626e+01
<STATE> 5
<MEAN> 39
 3.096754e+00 9.115311e+00 -2.483781e+00 3.945512e+00 -2.680052e+00 -1.606546e+00 1.339159e+00 9.760246e+00 5.062246e+00 -9.089141e+00 -2.895117e+00 6.362409e+00 5.339209e+01 -5.755632e-01 -1.694720e-01 3.001302e-01 -8.667530e-02 -8.901465e-02 4.264058e-01 1.028380e-01 -4.102178e-01 -2.522732e-01 8.075986e-03 5.166696e-02 3.487564e-02 -3.068181e-01 -3.063558e-02 2.781490e-02 1.573675e-02 1.279293e-01 1.689674e-01 -1.363359e-02 -1.100099e-01 -8.639053e-02 -2.538524e-02 5.724177e-02 -5.925303e-02 -1.647022e-01 -4.519584e-02
<VARIANCE> 39
 5.261093e+01 3.958815e+01 3.192474e+01 3.370618e+01 4.389816e+01 4.336493e+01 3.153336e+01 6.637730e+01 6.083675e+01 4.594210e+01 4.430406e+01 6.895766e+01 9.131745e+01 1.348188e+00 2.810554e+00 2.653084e+00 2.494166e+00 4.354331e+00 3.184212e+00 2.890290e+00 2.750964e+00 3.260404e+00 4.328727e+00 3.022103e+00 4.718473e+00 1.455417e+00 2.063078e-01 3.902832e-01 5.059333e-01 4.785516e-01 8.156475e-01 6.015579e-01 5.141666e-01 6.159766e-01 6.112752e-01 7.578256e-01 5.692371e-01 7.133279e-01 1.674639e-01
<GCONST> 1.263194e+02
<TRANSP> 6
 0.000000e+00 9.022022e-01 9.779780e-02 0.000000e+00 0.000000e+00 0.000000e+00
 0.000000e+00 9.278879e-01 7.211216e-02 0.000000e+00 0.000000e+00 0.000000e+00
 0.000000e+00 0.000000e+00 8.623835e-01 1.376165e-01 0.000000e+00 0.000000e+00
 0.000000e+00 0.000000e+00 0.000000e+00 8.775582e-01 8.784787e-02 3.459389e-02
 0.000000e+00 0.000000e+00 0.000000e+00 0.000000e+00 9.218441e-01 7.815585e-02
 0.000000e+00 0.000000e+00 0.000000e+00 0.000000e+00 0.000000e+00 0.000000e+00
<ENDHMM>
