~o
<STREAMINFO> 1 39
<VECSIZE> 39<NULLD><MFCC_D_A_0><DIAGC>
~h "puluh"
<BEGINHMM>
<NUMSTATES> 6
<STATE> 2
<MEAN> 39
 6.915772e+00 3.559321e+00 -2.676383e+00 7.501542e+00 -2.135143e+00 -1.326105e+00 -6.067984e+00 1.733158e+00 5.932558e+00 -7.551193e+00 -9.991551e+00 -2.354921e+00 5.276624e+01 -9.106202e-03 -2.100563e-01 5.594628e-01 -1.311095e-01 -4.402310e-01 5.657917e-01 -1.139635e-01 -4.287441e-01 1.880612e-01 -1.945676e-01 -1.826118e-01 -7.903288e-02 1.603397e-01 5.772189e-03 -5.728852e-04 2.197239e-01 5.866099e-03 -3.281207e-01 -1.318970e-01 1.007089e-01 1.472143e-01 4.260586e-02 -1.440442e-01 1.045939e-01 2.116605e-01 4.193793e-02
<VARIANCE> 39
 4.450361e+01 5.341836e+01 4.519344e+01 2.735216e+01 7.127827e+01 5.068984e+01 2.951769e+01 3.570719e+01 4.950646e+01 2.187654e+01 4.057628e+01 2.491585e+01 3.607166e+01 2.456499e+00 8.081555e+00 8.438331e+00 3.876225e+00 1.328732e+01 6.313765e+00 4.463495e+00 5.781445e+00 8.320979e+00 4.206074e+00 4.602700e+00 3.904787e+00 3.675385e+00 3.438010e-01 1.654899e+00 1.443186e+00 8.737433e-01 1.986294e+00 1.530607e+00 8.867412e-01 1.386054e+00 1.860415e+00 8.471566e-01 1.102907e+00 6.949039e-01 5.873971e-01
<GCONST> 1.417599e+02
<STATE> 3
<MEAN> 39
 2.755980e+00 9.631422e+00 8.349982e+00 8.970254e+00 -1.078455e+01 -2.111264e+00 5.712658e-01 4.191163e+00 6.076861e+00 -1.447888e+01 -9.206430e+00 1.317900e+00 6.134629e+01 -6.388418e-01 2.949998e-01 -2.877950e-01 -2.349428e-02 6.951063e-01 9.827341e-02 5.389909e-01 1.032534e+00 3.320414e-01 8.744466e-03 6.442384e-01 9.603673e-01 -6.207373e-01 -1.884422e-02 -3.009273e-02 -6.808140e-01 -1.644357e-01 6.268508e-01 1.470399e-01 1.250713e-01 3.591852e-02 -1.920347e-01 4.566667e-01 2.402102e-01 -2.669642e-01 -1.327776e-01
<VARIANCE> 39
 2.197880e+01 3.939368e+01 1.655370e+01 1.989505e+01 2.347297e+01 2.868355e+01 3.908320e+01 2.267985e+01 8.920415e+01 1.564930e+01 1.345217e+01 3.620383e+01 3.897802e+01 4.085180e-01 9.614542e-01 3.461521e+00 1.208439e+00 4.043209e+00 2.853104e+00 2.509925e+00 3.661001e+00 3.402703e+00 2.666705e+00 1.494185e+00 2.097765e+00 5.808489e-01 1.064717e-01 2.522808e-01 6.772444e-01 3.662324e-01 9.236426e-01 5.468507e-01 3.961562e-01 5.402717e-01 6.876082e-01 3.676152e-01 3.133211e-01 3.987289e-01 1.193856e-01
<GCONST> 1.097779e+02
<STATE> 4
<MEAN> 39
 2.711954e+00 4.972017e+00 -6.262415e+00 -3.060522e-02 -1.820004e+00 2.592273e+00 9.885216e-01 1.079844e+01 5.924080e+00 -8.215866e+00 -8.622455e-01 4.214146e+00 4.911903e+01 4.535865e-04 1.465252e-01 -1.057216e+00 -2.956215e-01 3.488329e-01 -5.957215e-01 3.063979e-01 8.284302e-02 -1.033646e+00 6.840017e-01 6.599885e-01 -7.539178e-01 -2.103657e-01 -9.673400e-05 1.371463e-01 3.402980e-01 8.529946e-02 -3.370603e-01 -1.256691e-01 2.421338e-02 -1.218897e-01 8.917504e-02 5.040167e-02 -2.330883e-01 -5.366572e-02 1.601411e-03
<VARIANCE> 39
 2.274011e+01 7.344230e+01 5.300940e+01 3.426909e+01 5.554487e+01 3.856020e+01 6.029309e+01 3.686323e+01 4.352653e+01 7.351235e+01 3.113129e+01 2.995869e+01 2.724962e+01 2.816407e+00 8.955665e+00 8.421283e+00 4.653463e+00 7.537566e+00 6.397572e+00 8.622857e+00 6.170985e+00 7.246509e+00 1.157844e+01 5.352971e+00 4.243768e+00 3.335850e+00 4.494355e-01 1.795528e+00 1.096678e+00 7.675315e-01 1.159294e+00 1.184916e+00 1.583998e+00 1.093468e+00 1.569355e+00 2.365411e+00 9.913773e-01 9.969904e-01 5.854446e-01
<GCONST> 1.449406e+02
<STATE> 5
<MEAN> 39
 -6.077187e+00 9.538874e+00 -4.459990e+00 -2.174403e+00 -6.860490e+00 -2.561497e+00 5.013916e+00 9.337704e+00 4.667235e+00 -9.865925e-01 -1.565330e-01 -3.512387e-01 4.737415e+01 -5.683042e-01 -4.250500e-01 -2.697392e-01 -2.800305e-01 1.843016e-01 -1.076914e-01 -2.026679e-01 -3.027186e-01 -1.639783e-01 -2.344214e-02 8.343646e-02 -5.914907e-02 -2.363565e-01 1.301174e-02 -6.726938e-02 1.297976e-01 6.064929e-02 7.538384e-02 8.429575e-02 -1.366969e-01 -1.578787e-01 -3.127884e-02 -1.499690e-01 -2.860971e-02 2.707388e-02 8.948695e-02
<VARIANCE> 39
 3.688889e+01 3.398037e+01 4.815585e+01 4.753004e+01 4.779543e+01 5.137061e+01 4.310830e+01 3.567974e+01 4.317326e+01 4.590731e+01 2.190854e+01 2.709891e+01 8.397369e+01 9.979328e-01 2.646001e+00 5.057234e+00 6.103868e+00 3.844165e+00 4.116416e+00 4.528851e+00 3.099944e+00 3.607707e+00 3.814140e+00 3.251390e+00 3.871273e+00 1.217684e+00 1.490723e-01 4.621593e-01 8.742182e-01 1.071992e+00 5.195338e-01 8.712674e-01 9.776372e-01 5.874599e-01 8.061015e-01 4.733214e-01 7.431115e-01 8.482195e-01 1.361152e-01
<GCONST> 1.277486e+02
<TRANSP> 6
 0.000000e+00 7.500059e-01 2.499941e-01 0.000000e+00 0.000000e+00 0.000000e+00
 0.000000e+00 9.330499e-01 6.695010e-02 0.000000e+00 0.000000e+00 0.000000e+00
 0.000000e+00 0.000000e+00 8.653175e-01 8.423666e-02 5.044588e-02 0.000000e+00
 0.000000e+00 0.000000e+00 0.000000e+00 9.206682e-01 7.933184e-02 0.000000e+00
 0.000000e+00 0.000000e+00 0.000000e+00 0.000000e+00 9.230148e-01 7.698515e-02
 0.000000e+00 0.000000e+00 0.000000e+00 0.000000e+00 0.000000e+00 0.000000e+00
<ENDHMM>
