~o
<STREAMINFO> 1 39
<VECSIZE> 39<NULLD><PLP_D_A_0><DIAGC>
~h "puluh"
<BEGINHMM>
<NUMSTATES> 8
<STATE> 2
<MEAN> 39
 -1.744909e-01 -4.189608e-01 -7.071375e-01 -3.705588e-01 -8.954703e-01 -5.756992e-01 -9.376808e-01 -3.272751e-01 1.483634e-01 -8.407349e-01 -6.784926e-01 -1.002790e-01 4.205898e+00 6.575474e-02 3.043603e-03 1.161673e-01 5.084805e-04 -4.549176e-02 5.909624e-02 -6.307784e-02 -4.946001e-02 1.070520e-02 -5.240608e-02 -7.159842e-03 -3.869511e-02 7.292500e-02 2.094830e-02 -2.682121e-03 3.695265e-02 1.260056e-02 -5.344198e-02 -2.843345e-02 1.092593e-02 2.824869e-02 9.826644e-03 -2.620138e-02 2.095175e-03 1.361978e-02 2.295996e-02
<VARIANCE> 39
 5.709338e-01 5.686893e-01 3.554251e-01 2.769758e-01 3.213756e-01 3.955834e-01 3.578686e-01 2.351584e-01 3.515550e-01 3.372527e-01 3.859206e-01 1.302052e-01 4.681882e-01 3.934591e-02 6.048888e-02 5.806369e-02 3.395353e-02 9.502559e-02 4.353794e-02 2.184530e-02 1.719355e-02 3.681219e-02 2.923657e-02 4.241476e-02 2.131957e-02 3.347436e-02 8.723703e-03 1.330482e-02 9.814470e-03 6.022356e-03 1.792215e-02 8.009144e-03 6.083675e-03 4.397473e-03 1.050289e-02 5.773282e-03 1.029218e-02 5.077491e-03 8.095069e-03
<GCONST> -4.763123e+01
<STATE> 3
<MEAN> 39
 -1.110695e-01 -1.370580e-01 -5.290992e-01 -4.362188e-01 -8.496548e-01 -1.404368e+00 -9.016421e-01 -2.989243e-01 -4.417357e-01 -9.573510e-01 -6.230538e-01 -2.769760e-01 5.440103e+00 -1.354714e-02 -1.578964e-02 4.934407e-02 1.084815e-02 -3.618569e-02 -4.097689e-03 2.819209e-02 6.871667e-03 1.188181e-02 -2.723506e-02 8.308350e-03 2.637467e-02 1.780137e-02 -3.032039e-02 -1.160061e-03 -1.368815e-02 -7.517016e-03 -1.019963e-03 1.947184e-02 2.780741e-02 1.336015e-02 1.905512e-02 2.434275e-02 4.897291e-03 4.753204e-03 -2.515518e-02
<VARIANCE> 39
 9.518746e-02 5.362335e-01 5.488754e-01 4.794019e-01 8.409906e-01 4.179743e-01 7.632595e-01 3.550256e-01 3.373706e-01 4.427711e-01 1.816293e-01 2.375734e-01 2.468306e-01 7.539703e-03 1.013235e-02 3.952209e-02 1.936200e-02 6.431737e-02 5.100562e-02 2.311065e-02 2.961659e-02 2.774166e-02 1.520736e-02 1.596573e-02 2.106032e-02 6.670376e-03 9.532249e-04 2.995590e-03 1.218739e-02 4.147104e-03 1.407041e-02 1.262108e-02 4.093444e-03 6.569951e-03 4.493181e-03 2.681077e-03 3.193137e-03 2.970713e-03 1.423468e-03
<GCONST> -6.313347e+01
<STATE> 4
<MEAN> 39
 -1.483496e-01 -9.592933e-02 -3.175224e-01 -3.971608e-01 -1.206591e+00 -7.778388e-01 -3.584289e-01 1.815521e-01 1.615481e-01 -1.090827e+00 -6.429422e-01 1.813500e-02 4.548132e+00 -1.226690e-01 1.319066e-02 -2.094564e-01 -5.035279e-02 1.383025e-01 8.417707e-02 2.155832e-01 1.041212e-01 -4.642497e-02 1.694762e-01 7.750180e-02 -4.845363e-02 -1.462814e-01 -1.529069e-02 -2.810584e-02 -5.903422e-02 -2.277210e-02 3.184183e-02 1.008515e-02 -2.175231e-02 -4.112856e-02 -3.804924e-02 2.610543e-02 5.666026e-03 -1.469585e-02 -1.318804e-02
<VARIANCE> 39
 1.837415e-01 3.114469e-01 5.169345e-01 2.272788e-01 4.056209e-01 5.056016e-01 5.053689e-01 3.750121e-01 5.252043e-01 3.950993e-01 1.604888e-01 2.025696e-01 7.933851e-01 8.336893e-03 3.010738e-02 5.051800e-02 2.972013e-02 3.933775e-02 5.679243e-02 2.800782e-02 3.942392e-02 4.839294e-02 2.209270e-02 1.596597e-02 2.302981e-02 4.220576e-03 1.055708e-03 4.170171e-03 1.710985e-02 4.614436e-03 1.454989e-02 6.409765e-03 7.915372e-03 6.288494e-03 9.557661e-03 5.999302e-03 3.599205e-03 6.469062e-03 1.237374e-03
<GCONST> -5.782088e+01
<STATE> 5
<MEAN> 39
 -4.331906e-01 -1.057163e+00 5.034897e-01 -1.943518e+00 -5.293517e-01 -1.752612e+00 1.172029e+00 -9.275997e-01 -9.617521e-02 -6.461422e-01 -2.261344e-01 -1.723285e-01 5.804236e+00 -1.069917e-01 1.664057e-03 3.455997e-02 6.712476e-02 5.442266e-02 7.301106e-02 5.260203e-03 3.262367e-02 9.029762e-02 -1.371030e-02 6.432588e-02 -8.819699e-03 -6.030798e-02 -4.890665e-03 3.823966e-03 4.917446e-03 1.253404e-02 1.454390e-02 -3.808014e-03 -9.965972e-03 1.100076e-02 1.994774e-03 5.074820e-03 2.012750e-03 -2.306869e-03 -1.486114e-02
<VARIANCE> 39
 4.365208e-01 1.293233e-01 2.788015e-01 4.525428e-01 1.360413e+00 6.649800e-01 2.362232e-01 2.233145e-01 4.995444e-01 2.159099e-01 2.917033e-01 1.443802e-01 3.552487e-01 1.618633e-02 1.851628e-02 3.576718e-02 2.037849e-02 7.505731e-02 5.029268e-02 1.946296e-02 3.157138e-02 2.075746e-02 1.898931e-02 2.163173e-02 1.584415e-02 2.127702e-02 3.091657e-03 4.170756e-03 8.637881e-03 3.946264e-03 1.502221e-02 1.267409e-02 3.452806e-03 8.351881e-03 3.946919e-03 3.056999e-03 4.848883e-03 3.126296e-03 4.011887e-03
<GCONST> -5.922319e+01
<STATE> 6
<MEAN> 39
 -1.202695e+00 -4.860170e-01 -9.000946e-01 -8.677120e-01 -8.150792e-01 -8.666950e-01 -3.497298e-01 -3.785477e-01 -2.706494e-01 -5.107661e-01 -2.714438e-01 1.053100e-02 4.610166e+00 -1.031127e-01 -4.575516e-02 -3.713223e-02 6.375314e-03 3.777793e-02 4.393553e-02 1.978470e-03 -3.103656e-02 -1.909941e-03 5.579220e-02 4.563768e-02 3.086248e-02 -8.869854e-02 1.392151e-02 7.374067e-03 1.839986e-02 8.529611e-03 -9.439366e-03 -1.713307e-02 -1.317037e-02 1.072569e-03 3.437167e-03 -8.621446e-03 -7.086761e-04 2.382756e-03 1.390239e-02
<VARIANCE> 39
 3.208763e-01 1.322116e-01 2.383710e-01 1.769154e-01 1.828180e-01 1.798814e-01 2.963958e-01 2.217178e-01 1.577612e-01 1.753709e-01 1.549335e-01 6.578852e-02 4.581340e-01 6.678502e-03 1.167692e-02 1.883542e-02 1.743816e-02 1.446685e-02 1.636356e-02 1.351270e-02 1.192164e-02 1.308671e-02 1.235760e-02 8.574268e-03 5.685577e-03 7.825308e-03 1.029699e-03 1.715383e-03 4.015218e-03 3.229179e-03 3.030793e-03 3.551353e-03 3.190584e-03 2.131470e-03 2.439655e-03 2.461720e-03 1.496415e-03 1.344520e-03 1.431479e-03
<GCONST> -8.733715e+01
<STATE> 7
<MEAN> 39
 -6.802055e-01 -6.259937e-01 -6.809363e-01 -1.042192e+00 -8.066660e-01 -9.548651e-01 -4.133296e-02 -2.808838e-01 -2.421674e-01 -5.113179e-01 -9.508700e-03 1.043932e-01 4.574263e+00 3.266006e-02 -4.571428e-02 -6.703921e-03 -2.360149e-02 -3.380078e-02 -3.561880e-02 -3.233216e-02 -2.369653e-02 -1.288142e-03 -6.917414e-04 1.675367e-02 4.209341e-02 5.736311e-02 1.255687e-02 2.237662e-03 1.098443e-02 -7.789031e-04 -2.673382e-03 -7.780478e-03 -1.337363e-02 -6.215526e-03 5.202785e-03 -1.271349e-02 -9.712903e-03 1.591933e-03 1.327859e-02
<VARIANCE> 39
 5.143235e-01 5.757568e-01 6.297747e-01 6.892689e-01 6.869675e-01 6.375974e-01 6.199256e-01 4.961515e-01 3.238153e-01 3.198917e-01 2.680751e-01 2.209678e-01 1.664612e+00 4.806690e-02 5.552502e-02 3.627338e-02 5.262333e-02 5.287676e-02 3.570929e-02 4.470123e-02 2.883717e-02 2.621897e-02 4.123721e-02 3.394895e-02 2.480551e-02 4.961576e-02 8.395270e-03 1.214347e-02 6.841108e-03 1.124866e-02 1.067531e-02 8.899299e-03 8.280760e-03 5.822997e-03 5.356784e-03 8.159925e-03 6.788952e-03 5.564894e-03 1.079274e-02
<GCONST> -4.160412e+01
<TRANSP> 8
 0.000000e+00 4.507303e-01 5.492697e-01 0.000000e+00 0.000000e+00 0.000000e+00 0.000000e+00 0.000000e+00
 0.000000e+00 8.016485e-01 1.983515e-01 0.000000e+00 0.000000e+00 0.000000e+00 0.000000e+00 0.000000e+00
 0.000000e+00 0.000000e+00 7.700657e-01 1.782100e-01 5.172435e-02 0.000000e+00 0.000000e+00 0.000000e+00
 0.000000e+00 0.000000e+00 0.000000e+00 6.549243e-01 0.000000e+00 3.450757e-01 0.000000e+00 0.000000e+00
 0.000000e+00 0.000000e+00 0.000000e+00 0.000000e+00 9.133474e-01 8.665256e-02 0.000000e+00 0.000000e+00
 0.000000e+00 0.000000e+00 0.000000e+00 0.000000e+00 0.000000e+00 7.865072e-01 2.134927e-01 0.000000e+00
 0.000000e+00 0.000000e+00 0.000000e+00 0.000000e+00 0.000000e+00 0.000000e+00 7.144893e-01 2.855107e-01
 0.000000e+00 0.000000e+00 0.000000e+00 0.000000e+00 0.000000e+00 0.000000e+00 0.000000e+00 0.000000e+00
<ENDHMM>
