~o
<STREAMINFO> 1 39
<VECSIZE> 39<NULLD><PLP_D_A_0><DIAGC>
~h "sebelas"
<BEGINHMM>
<NUMSTATES> 8
<STATE> 2
<MEAN> 39
 -1.782681e+00 -1.728307e+00 3.107231e-01 -1.120643e+00 -6.765335e-01 -6.006235e-01 -1.863883e-01 -9.179362e-01 -6.496209e-01 -9.762397e-02 3.699373e-01 4.109426e-01 5.224900e+00 2.181859e-01 1.199115e-01 -5.780802e-02 7.823312e-02 -5.319492e-03 -1.072094e-01 -4.175327e-02 -5.708280e-03 -5.491278e-02 -8.671368e-02 -3.903117e-02 1.738512e-02 2.274125e-02 8.017515e-02 1.106916e-01 -3.902289e-02 6.737746e-02 3.088296e-02 -8.120645e-03 -1.115454e-02 2.486953e-02 9.662265e-03 -4.982527e-02 -4.583240e-02 -3.027808e-02 -4.629911e-02
<VARIANCE> 39
 7.107238e-01 5.755593e-01 5.041181e-01 6.392930e-01 4.979807e-01 5.534925e-01 6.985751e-01 4.063547e-01 4.768387e-01 2.418365e-01 1.706485e-01 1.184282e-01 1.331201e+00 1.447480e-01 1.625791e-01 7.578545e-02 7.094166e-02 4.477469e-02 3.660032e-02 3.824936e-02 3.280210e-02 5.100722e-02 4.592159e-02 2.975170e-02 1.526634e-02 4.132374e-02 1.911359e-02 1.832385e-02 1.360254e-02 9.022359e-03 7.371160e-03 9.459980e-03 7.060250e-03 5.964118e-03 9.714901e-03 5.939431e-03 4.877541e-03 3.242065e-03 7.504092e-03
<GCONST> -3.999804e+01
<STATE> 3
<MEAN> 39
 -3.434802e-01 -7.703246e-02 -2.444467e-01 -2.188057e-01 -2.829680e-01 -9.655994e-01 -4.814929e-01 -5.810666e-01 -6.782058e-01 -1.032855e+00 -4.126548e-01 3.060630e-02 4.884412e+00 1.270660e-01 4.452565e-02 -7.474010e-02 7.061756e-02 1.189072e-02 -3.680171e-02 -3.081806e-02 2.595784e-02 -1.407353e-02 -8.896337e-02 -6.664187e-02 6.139922e-03 9.457251e-03 -4.038946e-02 -1.058175e-01 2.165132e-03 -5.035364e-02 -4.831798e-02 -3.828656e-03 2.682606e-03 -2.036584e-02 -5.919209e-03 3.400655e-02 5.179755e-02 4.581809e-02 4.764934e-02
<VARIANCE> 39
 2.425509e-01 3.961611e-01 3.965776e-01 4.292355e-01 3.100166e-01 4.507028e-01 4.045686e-01 3.923519e-01 2.171157e-01 2.394393e-01 1.964730e-01 1.413823e-01 8.019335e-01 3.455850e-02 1.114083e-01 3.488950e-02 3.090682e-02 4.151523e-02 5.960852e-02 2.799969e-02 2.224388e-02 3.172911e-02 2.463777e-02 4.462369e-02 4.003336e-02 4.442749e-02 9.725090e-03 9.713915e-03 8.209997e-03 4.822664e-03 6.264221e-03 1.341931e-02 5.972586e-03 4.483326e-03 6.258016e-03 5.476299e-03 6.424909e-03 5.858984e-03 7.569927e-03
<GCONST> -5.004399e+01
<STATE> 4
<MEAN> 39
 5.758512e-03 -1.026736e+00 -6.505308e-01 -8.668875e-01 -9.697444e-01 -1.380849e+00 -2.308857e-01 -8.300814e-01 -6.934859e-01 -6.068244e-01 9.437135e-02 6.724676e-01 5.940747e+00 8.547103e-03 -1.242368e-01 -6.303197e-02 -1.134528e-01 -1.026630e-01 2.979947e-02 7.172761e-02 2.761692e-02 1.226882e-01 1.310270e-01 8.250380e-02 3.459318e-02 9.767625e-02 -2.036986e-02 2.127035e-02 1.498751e-02 1.823053e-03 2.597279e-02 2.381638e-02 1.103368e-02 1.031378e-02 1.705447e-02 3.490500e-03 -5.848357e-03 -2.818438e-02 -1.783101e-02
<VARIANCE> 39
 1.199889e-01 6.739298e-01 6.455020e-01 7.477223e-01 4.604872e-01 5.954061e-01 7.092574e-01 6.321866e-01 6.014963e-01 5.294888e-01 3.102909e-01 1.339949e-01 5.885205e-01 5.437691e-03 1.468002e-02 2.444942e-02 1.297548e-02 2.220792e-02 2.758889e-02 2.062657e-02 2.594873e-02 3.843626e-02 1.991294e-02 2.336822e-02 2.158966e-02 6.302759e-03 2.199305e-03 3.201340e-03 4.646768e-03 2.961135e-03 3.969680e-03 3.650456e-03 4.622607e-03 4.349975e-03 7.690493e-03 5.871622e-03 4.129116e-03 3.216929e-03 1.384979e-03
<GCONST> -6.360302e+01
<STATE> 5
<MEAN> 39
 -1.359989e-01 -1.406939e+00 -6.743618e-01 -1.220076e+00 -9.687345e-01 -7.856315e-01 -2.785262e-02 -6.630306e-01 7.386342e-02 -2.996893e-01 3.012547e-01 5.107335e-01 5.998681e+00 -2.212595e-01 1.234736e-02 2.441460e-01 -4.359026e-02 1.126023e-01 1.224039e-01 -5.002730e-02 -6.285475e-02 -7.872641e-02 -1.191099e-02 1.949897e-02 -6.085410e-02 -3.704900e-02 -9.330995e-02 -2.820140e-03 7.137442e-02 -2.461793e-02 1.550786e-02 -2.685909e-03 -1.162087e-02 -7.391014e-03 -3.747315e-02 8.954382e-03 -1.268316e-02 -9.019325e-03 -1.120496e-02
<VARIANCE> 39
 9.716357e-02 5.204232e-01 6.828527e-01 8.759322e-01 3.852868e-01 7.916002e-01 7.744472e-01 4.602687e-01 3.617451e-01 2.883144e-01 2.296456e-01 1.687721e-01 1.027704e+00 4.189882e-02 4.370120e-02 4.141568e-02 2.390026e-02 2.488006e-02 1.662561e-02 2.669691e-02 2.019137e-02 3.069184e-02 2.427128e-02 2.054168e-02 1.196166e-02 4.688912e-03 4.438366e-03 6.374639e-03 5.510010e-03 4.641502e-03 6.971609e-03 4.786904e-03 6.282907e-03 5.302125e-03 6.492249e-03 4.201588e-03 3.876384e-03 2.957325e-03 1.231366e-03
<GCONST> -5.918656e+01
<STATE> 6
<MEAN> 39
 -2.042731e+00 -1.541017e+00 7.228653e-01 -1.838631e+00 -4.593376e-01 -4.286473e-01 7.601198e-02 -8.002579e-01 -2.377464e-01 -2.672450e-02 2.446331e-01 2.724144e-01 5.912790e+00 -2.014319e-01 -6.241996e-02 4.066619e-02 -3.267290e-02 -2.690098e-03 2.308265e-02 3.856608e-02 7.061390e-03 -1.160915e-02 4.200740e-02 1.061872e-03 -3.300300e-03 -1.116930e-01 1.023145e-01 3.032250e-02 -1.060998e-01 5.463691e-02 -2.070394e-02 -2.621780e-02 -4.910513e-03 6.161543e-03 1.602829e-02 -1.993225e-02 1.271544e-04 1.327476e-02 -3.652295e-02
<VARIANCE> 39
 3.504544e-01 5.190055e-01 7.215503e-01 5.655497e-01 1.269398e+00 3.947991e-01 7.464818e-01 1.896953e-01 3.784700e-01 2.415473e-01 2.226430e-01 7.862318e-02 5.217662e-01 7.971084e-02 4.883504e-02 6.767981e-02 4.205846e-02 3.616756e-02 3.069003e-02 2.175771e-02 2.414840e-02 2.157274e-02 1.737897e-02 9.876141e-03 7.441457e-03 1.527161e-02 6.474135e-03 1.113111e-02 6.414406e-03 6.211880e-03 6.083740e-03 5.084025e-03 5.863386e-03 4.050744e-03 5.787673e-03 4.016281e-03 1.672822e-03 1.653681e-03 1.926635e-03
<GCONST> -5.843060e+01
<STATE> 7
<MEAN> 39
 -1.569813e+00 -1.243653e+00 -4.221163e-01 -1.109401e+00 -8.014265e-01 -6.283839e-01 -2.406610e-01 -7.421846e-01 -3.331870e-01 -2.740676e-01 3.644967e-01 3.679666e-01 4.657406e+00 1.318868e-01 1.239915e-01 -1.495995e-01 8.060686e-02 2.113490e-02 -5.013109e-02 -1.802596e-02 2.960097e-03 1.669874e-03 -2.768081e-02 -2.611575e-02 -8.213697e-03 -1.026845e-01 1.579783e-03 1.470904e-04 2.685078e-02 -1.252258e-02 1.176424e-02 1.354993e-04 1.035073e-03 -9.979781e-04 -2.711461e-03 -8.276659e-04 -4.730541e-03 -5.309237e-03 3.651854e-02
<VARIANCE> 39
 5.326850e-01 5.105276e-01 4.292653e-01 3.617941e-01 6.904274e-01 4.539655e-01 5.112115e-01 1.906432e-01 2.953135e-01 2.455266e-01 2.232971e-01 1.259821e-01 1.011232e+00 3.545595e-02 4.754478e-02 4.122502e-02 3.379894e-02 4.173153e-02 2.982839e-02 1.971787e-02 2.423455e-02 2.670909e-02 2.568774e-02 2.050720e-02 1.252934e-02 4.698840e-02 7.271360e-03 6.704307e-03 6.224280e-03 5.259268e-03 7.675754e-03 6.258360e-03 3.485940e-03 4.773006e-03 5.532077e-03 4.403138e-03 4.147999e-03 2.366654e-03 7.259198e-03
<GCONST> -5.534787e+01
<TRANSP> 8
 0.000000e+00 8.517886e-01 1.482113e-01 0.000000e+00 0.000000e+00 0.000000e+00 0.000000e+00 0.000000e+00
 0.000000e+00 7.840484e-01 2.159516e-01 0.000000e+00 0.000000e+00 0.000000e+00 0.000000e+00 0.000000e+00
 0.000000e+00 0.000000e+00 8.313142e-01 1.686858e-01 0.000000e+00 0.000000e+00 0.000000e+00 0.000000e+00
 0.000000e+00 0.000000e+00 0.000000e+00 8.604792e-01 1.395207e-01 0.000000e+00 0.000000e+00 0.000000e+00
 0.000000e+00 0.000000e+00 0.000000e+00 0.000000e+00 7.736643e-01 2.263357e-01 0.000000e+00 0.000000e+00
 0.000000e+00 0.000000e+00 0.000000e+00 0.000000e+00 0.000000e+00 8.185082e-01 1.814918e-01 0.000000e+00
 0.000000e+00 0.000000e+00 0.000000e+00 0.000000e+00 0.000000e+00 0.000000e+00 8.172178e-01 1.827822e-01
 0.000000e+00 0.000000e+00 0.000000e+00 0.000000e+00 0.000000e+00 0.000000e+00 0.000000e+00 0.000000e+00
<ENDHMM>
