~o
<STREAMINFO> 1 39
<VECSIZE> 39<NULLD><PLP_D_A_0><DIAGC>
~h "sembilan"
<BEGINHMM>
<NUMSTATES> 8
<STATE> 2
<MEAN> 39
 -1.862423e+00 -1.727937e+00 3.380868e-01 -8.290033e-01 -6.521460e-01 -4.872789e-01 -1.561105e-01 -8.210350e-01 -5.993363e-01 -2.403432e-02 4.181086e-01 2.449125e-01 5.185906e+00 1.961013e-01 1.587890e-01 -4.020961e-02 1.218628e-01 9.697612e-02 -1.084046e-01 -6.153209e-02 4.198088e-03 -5.448309e-02 -5.623953e-02 -7.018076e-02 -3.580878e-02 1.142506e-02 1.014656e-01 1.195219e-01 -5.198083e-02 6.806044e-02 5.119013e-02 -2.044832e-02 -4.368290e-02 1.597483e-02 3.175541e-03 -3.882863e-02 -5.433213e-02 -3.372394e-02 -3.822020e-02
<VARIANCE> 39
 7.006590e-01 5.511214e-01 5.772986e-01 7.561772e-01 6.376420e-01 5.231231e-01 4.842746e-01 4.829990e-01 3.667606e-01 2.397185e-01 1.458189e-01 9.358100e-02 1.149307e+00 1.373826e-01 2.017437e-01 7.175639e-02 7.547584e-02 6.955775e-02 4.573208e-02 3.857476e-02 3.707889e-02 4.150876e-02 2.858453e-02 3.340896e-02 1.777327e-02 3.773383e-02 1.473411e-02 2.128007e-02 1.247929e-02 1.055529e-02 8.822094e-03 8.358609e-03 5.742440e-03 7.620704e-03 7.933832e-03 3.892891e-03 4.339484e-03 3.239093e-03 5.214789e-03
<GCONST> -4.115601e+01
<STATE> 3
<MEAN> 39
 -3.622504e-01 5.599454e-02 -1.004777e-01 3.838081e-02 8.008046e-02 -1.106282e+00 -8.910869e-01 -8.448734e-01 -5.355880e-01 -5.459781e-01 -4.685384e-01 -3.604772e-01 5.027277e+00 1.132858e-01 3.793223e-02 -4.407711e-02 1.348159e-01 7.949967e-02 -8.202574e-02 -1.025890e-01 -2.969285e-02 -1.646288e-02 -2.319681e-02 -9.233296e-03 -3.266121e-02 2.590311e-02 -7.040076e-02 -1.343282e-01 1.457101e-02 -3.315776e-02 -4.549583e-02 1.152716e-02 2.143170e-02 -1.784416e-02 -7.673044e-03 2.346727e-02 7.998753e-02 5.709194e-02 4.035418e-02
<VARIANCE> 39
 1.706226e-01 3.220411e-01 3.382045e-01 5.917470e-01 4.004230e-01 7.077247e-01 3.380666e-01 3.731738e-01 2.665925e-01 1.424773e-01 1.868751e-01 1.224844e-01 7.757821e-01 3.697483e-02 1.013203e-01 2.414967e-02 3.097178e-02 2.244064e-02 2.563906e-02 2.257178e-02 2.368090e-02 2.432837e-02 2.479402e-02 5.783121e-02 3.193508e-02 1.172927e-02 5.070075e-03 8.277757e-03 4.093685e-03 5.208580e-03 4.619714e-03 5.323330e-03 4.578125e-03 4.011244e-03 5.131170e-03 4.989693e-03 5.499696e-03 3.998472e-03 1.828827e-03
<GCONST> -5.935304e+01
<STATE> 4
<MEAN> 39
 -1.722832e-01 -9.854081e-01 -3.308253e-01 2.109689e-02 -2.525925e-01 -1.403509e+00 -8.415548e-01 -1.150305e+00 -8.730385e-01 -5.555658e-01 3.058849e-01 3.040192e-01 5.572965e+00 5.345777e-02 -1.256414e-01 -1.020785e-01 -1.648069e-01 -1.809553e-01 4.544373e-02 1.197366e-01 3.041070e-02 5.446067e-02 4.759474e-02 1.050442e-01 1.434837e-01 9.275968e-02 -2.803462e-03 2.974995e-02 1.287402e-03 -3.650754e-02 -9.934291e-03 2.714396e-02 2.446647e-02 2.821184e-02 4.564112e-02 1.493709e-02 -2.814574e-02 -1.674039e-02 -1.269300e-02
<VARIANCE> 39
 1.495306e-01 5.033858e-01 5.543442e-01 9.207114e-01 5.427318e-01 1.011630e+00 7.463760e-01 3.690380e-01 2.744214e-01 3.536909e-01 4.518924e-01 2.306531e-01 8.074588e-01 6.603427e-03 3.571976e-02 3.913932e-02 2.967046e-02 2.355059e-02 4.845845e-02 4.032188e-02 3.163172e-02 4.672469e-02 2.917245e-02 2.950704e-02 1.815330e-02 1.058502e-02 1.988088e-03 6.462765e-03 7.449667e-03 7.074223e-03 5.943567e-03 8.691346e-03 7.975206e-03 4.855026e-03 7.278788e-03 4.946815e-03 6.036262e-03 3.793180e-03 2.211054e-03
<GCONST> -5.368113e+01
<STATE> 5
<MEAN> 39
 1.168745e-02 -1.307703e+00 -8.607203e-01 -1.102288e+00 -8.929153e-01 -1.055492e+00 2.216620e-02 -6.666701e-01 -6.040256e-02 -1.781553e-01 4.480914e-01 6.594412e-01 6.002476e+00 -2.475317e-02 9.790897e-02 4.320083e-02 3.724787e-02 9.201486e-02 3.560684e-02 -2.498173e-02 3.112058e-02 3.376707e-02 -4.324923e-02 -1.072624e-01 -6.422379e-02 -7.262222e-02 -1.392072e-02 8.375399e-02 3.088474e-02 7.709587e-02 7.807267e-02 -3.181758e-02 -5.090371e-02 -1.422632e-02 -5.911633e-02 -4.664546e-02 -6.038393e-02 -5.262272e-02 -5.942009e-02
<VARIANCE> 39
 5.533561e-02 5.517575e-01 5.025329e-01 7.648977e-01 4.457974e-01 9.534996e-01 8.378723e-01 6.481046e-01 2.560371e-01 2.947337e-01 2.646664e-01 1.709809e-01 8.091921e-01 3.110332e-03 3.771565e-02 1.872982e-02 3.616117e-02 3.440971e-02 2.609755e-02 2.769739e-02 2.350547e-02 3.858273e-02 1.968645e-02 3.031149e-02 2.124144e-02 1.648936e-02 5.235279e-04 3.417528e-03 4.514304e-03 4.401660e-03 5.320959e-03 5.874000e-03 3.489478e-03 4.504576e-03 4.819826e-03 3.445791e-03 4.102179e-03 4.570683e-03 1.212106e-03
<GCONST> -6.356091e+01
<STATE> 6
<MEAN> 39
 -2.263131e-01 -7.088023e-02 -3.868631e-01 -1.040142e-01 4.926838e-02 -1.128415e+00 -6.630380e-01 -5.953224e-01 -3.026841e-01 -7.230639e-01 -5.517883e-01 -6.326804e-02 5.013714e+00 -7.642424e-02 1.745784e-01 6.377696e-02 1.025188e-01 1.369735e-01 -2.666194e-02 -3.013797e-02 3.558974e-02 -5.150225e-02 -8.077195e-02 -1.302000e-01 -1.255783e-01 -1.553943e-01 -1.774470e-03 -8.827940e-02 -4.184613e-02 -6.887230e-02 -7.226882e-02 2.661925e-02 4.720597e-02 -1.295747e-02 -2.942879e-03 2.898809e-02 9.067875e-02 6.287366e-02 4.081443e-02
<VARIANCE> 39
 7.402755e-02 3.349963e-01 3.489526e-01 6.518893e-01 3.137069e-01 6.621812e-01 4.927188e-01 5.359923e-01 2.222540e-01 2.032563e-01 3.550820e-01 2.444841e-01 8.393068e-01 6.126359e-03 2.878522e-02 2.482318e-02 3.274272e-02 3.679492e-02 3.565267e-02 2.257576e-02 2.246757e-02 1.580157e-02 2.089593e-02 3.686624e-02 2.786708e-02 9.962212e-03 1.370063e-03 4.166235e-03 3.546569e-03 3.895966e-03 5.474089e-03 6.813181e-03 3.763005e-03 5.096244e-03 4.386518e-03 3.757571e-03 5.390654e-03 6.146571e-03 1.815088e-03
<GCONST> -6.356779e+01
<STATE> 7
<MEAN> 39
 -4.463308e-01 -6.821089e-01 -5.944141e-01 -8.034449e-01 -3.850819e-01 -1.110640e+00 -1.632547e-01 -7.592375e-01 -4.293591e-01 -6.434113e-01 -9.047326e-02 2.975087e-01 5.209147e+00 -2.915545e-02 -1.413542e-01 -5.142249e-02 -9.879179e-02 -1.175439e-01 5.092213e-02 4.337734e-02 -2.552009e-02 3.520491e-02 6.594788e-02 1.053386e-01 6.894273e-02 5.602193e-02 8.946713e-03 5.302562e-04 7.035534e-03 -8.086171e-04 -3.365044e-03 -7.828904e-03 -1.232531e-02 1.759373e-03 1.250524e-02 9.698898e-03 -8.131686e-03 -8.448940e-03 1.496812e-02
<VARIANCE> 39
 5.428215e-01 7.150293e-01 4.606130e-01 9.036344e-01 6.978211e-01 6.389707e-01 7.751270e-01 4.155833e-01 4.493357e-01 3.668108e-01 2.600128e-01 2.729419e-01 1.350672e+00 2.901978e-02 3.626285e-02 4.159808e-02 2.993505e-02 4.767093e-02 3.724301e-02 2.476129e-02 3.000139e-02 3.855119e-02 3.155319e-02 3.031897e-02 2.912856e-02 2.620259e-02 4.780946e-03 8.092655e-03 7.408609e-03 6.049299e-03 9.904854e-03 6.404422e-03 4.421009e-03 5.701413e-03 6.500311e-03 6.582064e-03 5.743755e-03 5.152426e-03 4.422263e-03
<GCONST> -4.703880e+01
<TRANSP> 8
 0.000000e+00 6.502161e-01 3.497839e-01 0.000000e+00 0.000000e+00 0.000000e+00 0.000000e+00 0.000000e+00
 0.000000e+00 7.711873e-01 2.288127e-01 0.000000e+00 0.000000e+00 0.000000e+00 0.000000e+00 0.000000e+00
 0.000000e+00 0.000000e+00 7.933683e-01 2.038286e-01 2.803112e-03 0.000000e+00 0.000000e+00 0.000000e+00
 0.000000e+00 0.000000e+00 0.000000e+00 8.296165e-01 1.703835e-01 0.000000e+00 0.000000e+00 0.000000e+00
 0.000000e+00 0.000000e+00 0.000000e+00 0.000000e+00 7.898271e-01 2.101729e-01 0.000000e+00 0.000000e+00
 0.000000e+00 0.000000e+00 0.000000e+00 0.000000e+00 0.000000e+00 7.411014e-01 2.588986e-01 0.000000e+00
 0.000000e+00 0.000000e+00 0.000000e+00 0.000000e+00 0.000000e+00 0.000000e+00 8.184716e-01 1.815285e-01
 0.000000e+00 0.000000e+00 0.000000e+00 0.000000e+00 0.000000e+00 0.000000e+00 0.000000e+00 0.000000e+00
<ENDHMM>
