~o
<STREAMINFO> 1 36
<VECSIZE> 36<NULLD><LPC_D_A><DIAGC>
~h "sembilan"
<BEGINHMM>
<NUMSTATES> 8
<STATE> 2
<MEAN> 36
 -8.237008e-01 2.606732e-01 -4.069664e-01 4.138203e-01 -2.848576e-01 3.598094e-01 -3.123478e-01 2.791304e-01 -2.265891e-01 1.829662e-01 -1.701430e-01 1.303082e-01 -1.075310e-03 -2.643468e-02 -5.893063e-03 -1.251865e-02 -1.706936e-03 -5.555158e-03 6.049743e-06 -6.409838e-03 -2.991520e-03 -3.306502e-03 4.716093e-04 -1.553936e-03 1.123123e-03 3.351387e-04 2.512923e-04 -1.227802e-05 -4.384814e-04 1.043177e-03 -8.231222e-04 1.280414e-04 -7.454713e-04 7.347303e-04 -1.856260e-04 -3.817653e-04
<VARIANCE> 36
 1.798940e-01 1.950970e-01 1.842742e-01 1.770909e-01 1.169504e-01 7.524655e-02 7.475343e-02 8.266196e-02 3.498327e-02 2.920265e-02 2.713440e-02 1.357956e-02 1.736393e-02 2.204374e-02 6.914977e-03 1.497818e-02 4.936753e-03 6.416005e-03 3.508796e-03 4.109211e-03 2.094136e-03 2.320636e-03 1.631862e-03 1.193846e-03 2.956606e-03 4.016330e-03 1.301474e-03 2.877200e-03 1.011847e-03 1.176582e-03 6.817310e-04 7.207331e-04 3.832153e-04 3.730576e-04 3.178052e-04 2.368338e-04
<GCONST> -1.133205e+02
<STATE> 3
<MEAN> 36
 -2.598626e+00 4.576926e+00 -6.711366e+00 8.356751e+00 -8.844764e+00 8.469812e+00 -7.122002e+00 5.242243e+00 -3.336104e+00 1.805222e+00 -7.250018e-01 1.938371e-01 -4.780926e-02 6.002174e-02 -1.141326e-01 1.115015e-01 -1.176363e-01 7.041023e-02 -4.740499e-02 4.266461e-03 7.226245e-03 -1.665739e-02 6.618646e-03 -6.298027e-03 7.358731e-03 -5.149812e-03 7.394067e-03 -3.024690e-03 4.868244e-04 -2.187955e-03 3.998025e-03 -5.501184e-03 6.800895e-03 -6.969455e-03 3.221656e-03 -1.599641e-03
<VARIANCE> 36
 3.721004e-01 1.772600e+00 5.571805e+00 1.140656e+01 1.736489e+01 1.864213e+01 1.680562e+01 1.118502e+01 5.654034e+00 2.017383e+00 4.974630e-01 5.023459e-02 3.599115e-02 2.216246e-01 7.071973e-01 1.654151e+00 2.606027e+00 2.963059e+00 2.673985e+00 1.817166e+00 8.968225e-01 3.235768e-01 7.290141e-02 5.902898e-03 6.130402e-03 4.066907e-02 1.278736e-01 2.986577e-01 4.644649e-01 5.200219e-01 4.599937e-01 3.115175e-01 1.533799e-01 5.573062e-02 1.297598e-02 1.205077e-03
<GCONST> 3.886922e+01
<STATE> 4
<MEAN> 36
 -9.393070e-01 2.341074e-02 -3.138892e-02 1.514342e-01 -1.210713e-01 1.820994e-01 -5.412551e-02 1.021672e-01 -1.599294e-01 2.792572e-02 -6.402276e-02 8.068310e-02 1.137566e-02 -1.361860e-02 -3.932600e-03 -1.032268e-02 -6.379840e-03 -7.320028e-03 1.112674e-03 -4.277279e-03 -2.889012e-04 -4.069992e-03 7.807387e-04 -1.636093e-03 -5.240773e-04 4.966532e-03 2.783082e-03 1.575342e-03 -2.778582e-03 1.470350e-04 2.441199e-04 1.124626e-03 1.275618e-03 4.561388e-04 1.235248e-03 4.373597e-04
<VARIANCE> 36
 3.635429e-01 4.397417e-01 2.950077e-01 2.016447e-01 1.490194e-01 9.827068e-02 1.119537e-01 9.674592e-02 3.927713e-02 6.532499e-02 3.938827e-02 1.672704e-02 4.285765e-02 6.177218e-02 2.508296e-02 2.051918e-02 1.768104e-02 1.055420e-02 7.523500e-03 8.430393e-03 4.362816e-03 4.612191e-03 3.046675e-03 1.963221e-03 7.773822e-03 1.263133e-02 4.905187e-03 4.877516e-03 3.810539e-03 2.392704e-03 1.785100e-03 1.753890e-03 9.680768e-04 1.015325e-03 6.643985e-04 4.196002e-04
<GCONST> -8.820449e+01
<STATE> 5
<MEAN> 36
 -3.413100e+00 7.200698e+00 -1.209232e+01 1.677094e+01 -1.990668e+01 2.069755e+01 -1.881656e+01 1.474494e+01 -9.888634e+00 5.492723e+00 -2.283060e+00 5.298985e-01 6.516712e-02 -1.523395e-01 2.284623e-01 -3.118645e-01 3.418587e-01 -3.082293e-01 2.472946e-01 -1.663288e-01 9.013011e-02 -4.205889e-02 9.940965e-03 8.465740e-04 2.862409e-02 -8.816594e-02 1.654577e-01 -2.523060e-01 3.212898e-01 -3.454112e-01 3.157870e-01 -2.489375e-01 1.620355e-01 -8.290732e-02 3.496520e-02 -9.083572e-03
<VARIANCE> 36
 7.499597e+00 1.182305e+02 5.585355e+02 1.481706e+03 2.712127e+03 3.673280e+03 3.644713e+03 2.653193e+03 1.432962e+03 5.334321e+02 1.100322e+02 6.649623e+00 8.475814e-01 1.331846e+01 6.224038e+01 1.638067e+02 2.980033e+02 4.011006e+02 3.952205e+02 2.862896e+02 1.541480e+02 5.709366e+01 1.170305e+01 7.024577e-01 1.664176e-01 2.640582e+00 1.235808e+01 3.252961e+01 5.925754e+01 7.976612e+01 7.854508e+01 5.688914e+01 3.064886e+01 1.135260e+01 2.322358e+00 1.388375e-01
<GCONST> 2.118491e+02
<STATE> 6
<MEAN> 36
 -1.363999e+00 1.451757e+00 -1.908378e+00 1.907697e+00 -1.716434e+00 1.319112e+00 -8.435664e-01 5.297246e-01 -2.974014e-01 8.935302e-02 -5.557629e-02 3.337869e-02 -1.282870e-02 2.135077e-02 3.315710e-02 -4.138716e-02 7.021645e-02 -1.010435e-01 1.057074e-01 -9.655695e-02 7.412852e-02 -4.475861e-02 3.029438e-02 -1.176620e-02 -9.767009e-03 1.200424e-02 -1.583279e-02 3.188931e-02 -3.029921e-02 3.464921e-02 -3.927158e-02 2.583342e-02 -1.466153e-02 1.152416e-02 -3.957136e-03 1.371032e-03
<VARIANCE> 36
 8.050184e-01 2.422473e+00 3.748519e+00 4.686117e+00 3.985935e+00 2.768101e+00 1.767944e+00 1.085425e+00 6.552805e-01 2.965760e-01 1.026738e-01 2.101368e-02 3.676189e-02 1.013649e-01 1.501431e-01 2.399710e-01 2.737911e-01 2.674539e-01 2.268672e-01 1.634684e-01 9.459861e-02 3.875100e-02 1.191737e-02 2.225395e-03 6.446716e-03 2.050489e-02 3.318792e-02 5.658630e-02 6.862854e-02 6.645606e-02 5.306533e-02 3.521752e-02 1.783659e-02 6.540765e-03 1.909238e-03 3.856473e-04
<GCONST> -1.605690e+01
<STATE> 7
<MEAN> 36
 -1.726226e+00 2.591758e+00 -3.752435e+00 4.461150e+00 -4.615496e+00 4.128677e+00 -3.256330e+00 2.246289e+00 -1.356350e+00 6.549045e-01 -2.553210e-01 8.760268e-02 -3.786683e-02 6.520414e-02 -5.435015e-02 1.140768e-01 -1.290346e-01 1.200477e-01 -1.190130e-01 8.149561e-02 -4.510224e-02 2.999759e-02 -5.005538e-03 3.656402e-03 2.062050e-03 -1.720830e-02 2.031994e-02 -1.768197e-02 1.923153e-02 9.041257e-04 -1.442595e-02 1.304696e-02 -1.209735e-02 7.777782e-03 -5.906923e-03 2.397547e-03
<VARIANCE> 36
 1.538489e+00 6.469600e+00 1.468717e+01 2.605728e+01 3.410225e+01 3.623991e+01 3.091844e+01 1.984615e+01 9.364301e+00 3.144511e+00 6.198123e-01 4.997152e-02 3.245768e-02 1.855846e-01 6.128570e-01 1.411969e+00 2.349024e+00 2.984534e+00 2.905207e+00 2.074155e+00 1.092208e+00 4.196247e-01 9.526953e-02 7.474459e-03 6.384762e-03 3.118898e-02 1.008068e-01 2.382619e-01 4.030761e-01 5.296007e-01 5.285293e-01 3.839483e-01 2.026014e-01 7.567574e-02 1.660236e-02 1.416820e-03
<GCONST> 4.808988e+01
<TRANSP> 8
 0.000000e+00 7.623269e-01 2.376731e-01 0.000000e+00 0.000000e+00 0.000000e+00 0.000000e+00 0.000000e+00
 0.000000e+00 9.375260e-01 0.000000e+00 6.247400e-02 0.000000e+00 0.000000e+00 0.000000e+00 0.000000e+00
 0.000000e+00 0.000000e+00 9.282314e-01 1.137614e-02 6.039245e-02 0.000000e+00 0.000000e+00 0.000000e+00
 0.000000e+00 0.000000e+00 0.000000e+00 8.954270e-01 0.000000e+00 1.045730e-01 0.000000e+00 0.000000e+00
 0.000000e+00 0.000000e+00 0.000000e+00 0.000000e+00 6.121841e-01 3.878160e-01 0.000000e+00 0.000000e+00
 0.000000e+00 0.000000e+00 0.000000e+00 0.000000e+00 0.000000e+00 5.496031e-01 4.503969e-01 0.000000e+00
 0.000000e+00 0.000000e+00 0.000000e+00 0.000000e+00 0.000000e+00 0.000000e+00 4.117250e-01 5.882750e-01
 0.000000e+00 0.000000e+00 0.000000e+00 0.000000e+00 0.000000e+00 0.000000e+00 0.000000e+00 0.000000e+00
<ENDHMM>
