~o
<STREAMINFO> 1 39
<VECSIZE> 39<NULLD><MFCC_D_A_0><DIAGC>
~h "sepuluh"
<BEGINHMM>
<NUMSTATES> 6
<STATE> 2
<MEAN> 39
 -1.344809e+01 -4.961326e+00 3.778292e+00 -2.230558e+00 -4.361698e-01 2.753682e+00 -2.318485e+00 -1.792486e+00 -9.729592e-01 -1.226224e+00 3.833266e-01 3.128696e+00 6.291788e+01 6.312745e-01 6.697896e-01 -5.259991e-01 4.118050e-01 7.490438e-02 -5.217266e-01 -4.074671e-01 2.978920e-01 1.872872e-01 -2.686216e-02 -2.051390e-02 -1.103055e-01 -1.544273e-01 1.667820e-01 2.133792e-01 -7.231092e-02 1.620603e-01 -9.662252e-03 -2.167563e-01 -9.462239e-02 1.603872e-01 1.327819e-02 -1.791281e-02 -4.897746e-02 -8.645497e-02 -5.504137e-02
<VARIANCE> 39
 5.371910e+01 7.684766e+01 5.144872e+01 4.513730e+01 4.215025e+01 3.733763e+01 4.015300e+01 2.657522e+01 3.197355e+01 2.781374e+01 1.936572e+01 2.126274e+01 8.556063e+01 5.279949e+00 6.181841e+00 3.769764e+00 4.161696e+00 3.574235e+00 4.688686e+00 3.681933e+00 2.537157e+00 2.585667e+00 2.177601e+00 2.396516e+00 1.916530e+00 2.655422e+00 8.162764e-01 7.065026e-01 6.735805e-01 5.841838e-01 5.567353e-01 8.493191e-01 6.823728e-01 4.490502e-01 4.606692e-01 4.870360e-01 4.059501e-01 3.153947e-01 2.819009e-01
<GCONST> 1.266373e+02
<STATE> 3
<MEAN> 39
 2.686376e+00 5.800303e+00 -1.335068e+00 4.672674e+00 -2.281367e+00 -2.188207e+00 -6.579220e+00 6.856080e+00 7.483907e+00 -1.073299e+01 -6.924573e+00 1.584668e+00 5.032568e+01 4.251376e-01 2.026782e-01 4.236846e-02 -8.301269e-02 -2.754888e-01 -1.486338e-01 -5.018056e-02 3.509360e-01 3.782589e-01 -2.640053e-01 -2.530547e-01 -1.781013e-02 2.379277e-01 -5.564281e-02 -1.813004e-01 -2.651486e-02 -6.974031e-02 -6.592402e-03 8.372444e-02 3.150748e-02 -4.941596e-02 -2.336509e-02 1.795394e-02 2.792316e-03 3.181034e-02 4.362908e-02
<VARIANCE> 39
 5.516051e+01 3.227734e+01 6.404292e+01 1.939728e+01 8.459884e+01 4.069807e+01 4.102735e+01 4.152795e+01 6.765233e+01 6.850388e+01 4.269295e+01 3.896800e+01 4.683749e+01 2.376337e+00 3.643046e+00 8.085361e+00 2.359555e+00 1.010112e+01 4.633182e+00 4.643054e+00 3.896821e+00 7.394211e+00 5.948835e+00 4.150536e+00 4.186438e+00 2.010617e+00 4.055373e-01 8.199863e-01 1.345436e+00 5.388222e-01 1.839851e+00 8.398568e-01 9.409236e-01 6.699305e-01 1.348540e+00 1.226716e+00 8.363765e-01 7.430437e-01 3.561095e-01
<GCONST> 1.383079e+02
<STATE> 4
<MEAN> 39
 3.285562e-01 3.568905e+00 -2.705948e+00 6.503968e+00 -2.208555e-01 -1.188082e+01 -9.045738e+00 7.542558e+00 3.250488e+00 -4.730112e+00 -5.344582e+00 -2.106858e+00 6.983481e+01 -2.576523e-01 -7.246304e-02 -1.243445e-01 -7.250956e-02 3.438354e-02 2.225878e-01 3.014018e-01 1.900292e-02 -7.344163e-02 -4.873758e-02 -7.385427e-02 6.674194e-02 -1.896087e-01 -7.141753e-02 3.693176e-04 6.127950e-03 -3.396275e-02 3.236356e-02 1.174990e-01 3.866719e-02 -7.297939e-02 -1.668336e-02 3.827842e-02 3.299078e-02 3.124163e-02 -5.110238e-02
<VARIANCE> 39
 1.170925e+01 3.516373e+01 4.904079e+01 2.476248e+01 4.379753e+01 3.723653e+01 4.398158e+01 3.316192e+01 2.497132e+01 3.260393e+01 1.792145e+01 2.384878e+01 2.501634e+01 4.013402e-01 7.705751e-01 1.448679e+00 1.441055e+00 1.973059e+00 2.072305e+00 1.320192e+00 1.825094e+00 1.545023e+00 1.299542e+00 1.334526e+00 1.374822e+00 4.199452e-01 4.685668e-02 1.286033e-01 2.074227e-01 2.370463e-01 3.201986e-01 4.538436e-01 2.469149e-01 3.910648e-01 2.802719e-01 1.832677e-01 2.044039e-01 2.249861e-01 4.062726e-02
<GCONST> 9.610539e+01
<STATE> 5
<MEAN> 39
 -4.570620e+00 7.414374e+00 -2.967498e+00 -1.025906e-01 -4.996221e+00 -2.017230e+00 1.364237e+00 7.792974e+00 3.597715e+00 -5.412252e+00 -3.016761e+00 2.187691e+00 4.933651e+01 -6.502761e-01 -1.254505e-01 -3.990078e-01 -8.109664e-01 -1.305904e-01 5.530422e-03 1.119547e-01 -6.606649e-01 -8.894693e-01 5.430753e-01 6.538020e-01 1.275453e-01 -3.795933e-01 1.451102e-01 -5.624815e-02 7.781434e-02 6.357067e-02 -2.391632e-02 -5.512965e-02 -1.521743e-01 4.099477e-02 3.654516e-02 -1.241402e-01 3.444829e-02 3.660680e-02 1.422101e-01
<VARIANCE> 39
 3.573986e+01 3.727573e+01 6.893936e+01 5.767395e+01 4.566673e+01 3.769347e+01 3.329269e+01 7.102586e+01 1.005929e+02 4.309473e+01 3.102199e+01 2.642705e+01 9.503122e+01 1.696743e+00 3.343520e+00 5.383004e+00 3.371950e+00 4.022222e+00 3.227497e+00 3.972022e+00 3.376721e+00 4.926991e+00 3.590405e+00 3.638694e+00 2.646446e+00 2.566045e+00 2.269603e-01 6.050305e-01 1.001512e+00 8.627175e-01 5.211511e-01 6.597967e-01 8.278762e-01 7.514345e-01 1.273621e+00 6.359269e-01 8.375870e-01 4.983896e-01 3.283402e-01
<GCONST> 1.320193e+02
<TRANSP> 6
 0.000000e+00 1.000000e+00 0.000000e+00 0.000000e+00 0.000000e+00 0.000000e+00
 0.000000e+00 9.334690e-01 6.653105e-02 0.000000e+00 0.000000e+00 0.000000e+00
 0.000000e+00 0.000000e+00 9.390016e-01 6.099837e-02 0.000000e+00 0.000000e+00
 0.000000e+00 0.000000e+00 0.000000e+00 9.371569e-01 6.284314e-02 0.000000e+00
 0.000000e+00 0.000000e+00 0.000000e+00 0.000000e+00 8.793420e-01 1.206580e-01
 0.000000e+00 0.000000e+00 0.000000e+00 0.000000e+00 0.000000e+00 0.000000e+00
<ENDHMM>
