~o
<STREAMINFO> 1 39
<VECSIZE> 39<NULLD><MFCC_D_A_0><DIAGC>
~h "sepuluh"
<BEGINHMM>
<NUMSTATES> 6
<STATE> 2
<MEAN> 39
 -1.308767e+01 -5.346791e+00 1.856617e+00 2.500992e+00 -3.151992e+00 -4.108296e-01 1.337593e+00 -1.507468e-01 -9.517296e-01 -3.173836e+00 1.441612e+00 4.318389e+00 5.275701e+01 5.449533e-01 1.637272e+00 -6.343761e-01 2.252756e-01 2.793329e-01 -1.567932e-01 -3.226938e-01 3.114035e-01 3.572922e-01 -3.453018e-02 -5.534508e-02 -3.173273e-01 -6.526552e-01 1.710920e-01 7.335942e-02 -8.011921e-04 2.599689e-02 -1.098041e-01 -1.099831e-01 -1.984380e-01 5.874924e-02 -6.005568e-02 -1.432596e-01 -8.450589e-02 -1.377596e-01 7.460488e-02
<VARIANCE> 39
 5.325948e+01 1.446089e+02 4.411920e+01 7.089222e+01 4.008068e+01 6.957150e+01 5.568589e+01 3.753150e+01 3.749854e+01 3.483684e+01 2.476134e+01 2.381414e+01 1.024471e+02 3.601064e+00 1.051159e+01 5.124497e+00 6.092325e+00 5.252504e+00 6.838748e+00 5.640299e+00 4.071199e+00 2.716383e+00 3.781509e+00 3.587556e+00 3.387043e+00 4.061288e+00 5.288689e-01 1.659353e+00 9.432242e-01 9.827982e-01 8.805513e-01 1.465434e+00 1.061425e+00 6.982854e-01 4.726125e-01 9.111577e-01 6.394718e-01 5.059688e-01 5.564978e-01
<GCONST> 1.396469e+02
<STATE> 3
<MEAN> 39
 1.153924e-01 5.053080e+00 -2.128408e+00 4.970148e+00 -2.235575e+00 -2.889671e+00 -5.646406e+00 6.182973e+00 6.993118e+00 -8.711641e+00 -5.512866e+00 1.780925e+00 4.851775e+01 1.191193e+00 3.077884e-02 5.393732e-01 -1.829536e-01 -1.011890e+00 7.603290e-02 -4.844662e-01 -3.467407e-02 9.388912e-01 -7.888625e-01 -8.634242e-01 7.235738e-02 9.668615e-01 1.202064e-02 -1.053814e-01 5.234628e-02 -5.731929e-02 -3.117296e-02 5.888493e-02 5.659609e-02 -6.414559e-02 -2.488728e-02 1.757440e-02 5.281570e-03 3.070363e-02 7.287326e-02
<VARIANCE> 39
 4.451041e+01 4.206002e+01 5.467827e+01 2.247665e+01 6.454679e+01 3.591827e+01 2.099231e+01 3.520781e+01 6.463367e+01 4.193719e+01 3.425594e+01 3.626272e+01 3.982842e+01 3.707555e+00 3.914897e+00 7.403455e+00 3.310607e+00 8.210594e+00 4.582587e+00 2.409629e+00 3.389025e+00 7.133839e+00 5.386143e+00 5.044123e+00 4.438795e+00 2.250761e+00 8.291745e-01 9.409867e-01 1.583383e+00 6.783367e-01 1.835082e+00 1.000659e+00 5.705168e-01 6.611627e-01 1.646396e+00 1.099402e+00 1.124864e+00 1.013046e+00 5.224738e-01
<GCONST> 1.380955e+02
<STATE> 4
<MEAN> 39
 5.217548e+00 8.745363e+00 3.481402e+00 7.235197e+00 -4.799310e+00 -1.163173e+00 -5.246966e+00 3.760816e+00 6.976002e+00 -1.190465e+01 -8.380800e+00 -4.562246e-01 5.835469e+01 -2.572595e-01 3.968191e-02 -1.061708e-01 2.146012e-01 4.094915e-01 4.713894e-02 3.707511e-01 4.106973e-01 7.379745e-02 1.427638e-01 2.063658e-01 2.086647e-01 -2.391157e-01 -1.463527e-01 -8.672284e-03 -1.655774e-01 9.138300e-03 1.384026e-01 -1.759183e-02 1.585521e-01 8.408280e-02 -5.930222e-02 1.878317e-01 1.076274e-01 1.479396e-02 -1.356490e-01
<VARIANCE> 39
 1.702378e+01 2.659427e+01 7.669388e+01 2.101571e+01 1.021813e+02 3.389426e+01 4.176894e+01 3.653840e+01 9.573839e+01 3.915414e+01 2.842380e+01 3.875406e+01 5.685917e+01 4.948667e-01 1.264242e+00 6.343313e+00 1.323096e+00 9.813319e+00 2.261356e+00 3.399705e+00 2.907182e+00 4.724527e+00 4.452470e+00 2.385421e+00 3.081747e+00 6.921490e-01 8.085290e-02 2.248497e-01 1.001102e+00 2.699061e-01 1.591461e+00 4.122791e-01 6.010317e-01 4.157036e-01 7.897069e-01 7.604413e-01 5.255995e-01 4.075656e-01 1.122167e-01
<GCONST> 1.202920e+02
<STATE> 5
<MEAN> 39
 -4.808438e+00 9.453402e+00 -3.456151e+00 -3.903163e-01 -4.507780e+00 -2.486583e+00 2.461152e+00 8.147099e+00 3.445941e+00 -4.129032e+00 -3.354446e+00 1.696134e+00 4.675744e+01 -7.365299e-01 -2.998513e-01 -6.434116e-01 -9.244894e-01 -2.095151e-01 -1.100386e-01 2.017378e-01 -5.917374e-01 -1.224075e+00 4.200253e-01 5.291364e-01 -9.454311e-02 -4.180122e-01 1.159946e-01 -3.646644e-02 2.596253e-01 1.907008e-02 -1.422070e-01 1.258759e-01 -2.192218e-01 -9.055829e-02 1.692397e-01 -2.761885e-01 -1.014396e-01 5.111717e-02 1.396282e-01
<VARIANCE> 39
 3.887483e+01 3.262543e+01 5.074788e+01 6.454994e+01 4.672094e+01 3.932236e+01 2.662286e+01 9.142363e+01 8.950639e+01 3.211552e+01 3.326707e+01 2.686572e+01 7.101525e+01 1.446889e+00 3.262705e+00 6.277263e+00 3.366329e+00 4.404593e+00 3.292196e+00 3.553035e+00 3.469277e+00 4.656096e+00 3.721856e+00 3.896982e+00 2.835310e+00 2.510938e+00 2.152914e-01 6.173744e-01 9.982222e-01 9.264054e-01 5.243332e-01 5.212585e-01 7.334186e-01 8.956668e-01 1.183787e+00 7.131479e-01 9.123254e-01 4.840229e-01 3.245369e-01
<GCONST> 1.312905e+02
<TRANSP> 6
 0.000000e+00 1.000000e+00 0.000000e+00 0.000000e+00 0.000000e+00 0.000000e+00
 0.000000e+00 9.083340e-01 9.166599e-02 0.000000e+00 0.000000e+00 0.000000e+00
 0.000000e+00 0.000000e+00 9.051469e-01 9.485310e-02 0.000000e+00 0.000000e+00
 0.000000e+00 0.000000e+00 0.000000e+00 9.460737e-01 5.392635e-02 0.000000e+00
 0.000000e+00 0.000000e+00 0.000000e+00 0.000000e+00 9.130772e-01 8.692276e-02
 0.000000e+00 0.000000e+00 0.000000e+00 0.000000e+00 0.000000e+00 0.000000e+00
<ENDHMM>
