~o
<STREAMINFO> 1 39
<VECSIZE> 39<NULLD><PLP_D_A_0><DIAGC>
~h "sepuluh"
<BEGINHMM>
<NUMSTATES> 8
<STATE> 2
<MEAN> 39
 -1.954240e+00 -1.967461e+00 4.588863e-01 -1.193198e+00 -5.658967e-01 -6.626418e-01 2.127052e-02 -7.002687e-01 -4.913788e-01 -1.416128e-01 3.925008e-01 3.419934e-01 5.407462e+00 1.124017e-01 3.368638e-02 -7.933798e-02 2.935550e-02 4.527237e-02 -9.199224e-02 -6.418563e-02 5.272982e-02 -1.141550e-02 -5.520879e-02 -2.825844e-02 3.129697e-02 -2.881524e-02 7.143532e-02 1.230962e-01 -8.528719e-02 6.714344e-02 2.951446e-02 -5.204675e-03 -3.319534e-02 1.526208e-02 2.094243e-02 -2.861277e-02 -4.092455e-02 -2.244494e-02 -9.109422e-02
<VARIANCE> 39
 5.485594e-01 4.765516e-01 4.219698e-01 7.354496e-01 6.259047e-01 6.858912e-01 6.205935e-01 3.746343e-01 3.652521e-01 2.750995e-01 1.287350e-01 1.542830e-01 1.022930e+00 1.087267e-01 1.195894e-01 8.582705e-02 5.581479e-02 4.256559e-02 3.782427e-02 3.053271e-02 2.774705e-02 3.247032e-02 1.971918e-02 2.341615e-02 1.265252e-02 7.243746e-02 1.614088e-02 1.372443e-02 1.195119e-02 9.099575e-03 9.127419e-03 1.111212e-02 6.436999e-03 5.444713e-03 8.128184e-03 3.789422e-03 3.759688e-03 2.498663e-03 6.997646e-03
<GCONST> -4.454676e+01
<STATE> 3
<MEAN> 39
 -1.256857e+00 -7.198658e-01 -4.706145e-01 -6.696555e-01 -4.796703e-01 -7.925670e-01 -4.341697e-01 -4.986839e-01 -2.993501e-01 -4.795059e-01 -3.071162e-02 1.543720e-01 4.575735e+00 1.574141e-01 1.714522e-01 -3.384577e-02 1.499961e-02 -8.626646e-02 -7.900139e-02 -4.609949e-02 2.931054e-02 6.802225e-02 -4.282436e-02 -5.179526e-02 -5.029178e-02 -2.912768e-02 2.283409e-02 -2.451511e-02 6.446518e-02 -2.357641e-02 -5.712502e-02 -4.066061e-02 -2.774926e-03 -1.990430e-03 -1.915231e-03 -1.968614e-03 -2.419946e-03 -2.998741e-03 7.985766e-02
<VARIANCE> 39
 4.080558e-01 2.930303e-01 3.623379e-01 3.148593e-01 3.265637e-01 2.510045e-01 3.980384e-01 2.475630e-01 1.603283e-01 1.554708e-01 1.068316e-01 9.473068e-02 7.812458e-01 6.037955e-02 5.522892e-02 4.760586e-02 2.992775e-02 4.507805e-02 6.058419e-02 2.338276e-02 1.952779e-02 3.121854e-02 1.692491e-02 1.834255e-02 1.263842e-02 7.235087e-02 1.253927e-02 8.588804e-03 6.660068e-03 5.720255e-03 6.539264e-03 1.106701e-02 5.231381e-03 4.197150e-03 5.692500e-03 3.435632e-03 4.451368e-03 2.582631e-03 9.454251e-03
<GCONST> -5.681009e+01
<STATE> 4
<MEAN> 39
 -5.836523e-02 -1.098087e-01 2.634367e-01 -8.662280e-01 -1.597173e+00 -1.929414e+00 -5.542158e-01 -3.206894e-01 4.133203e-03 -8.850818e-01 -4.966232e-01 -2.309247e-02 5.290080e+00 1.874129e-01 5.319030e-02 -2.432865e-02 3.897697e-04 -5.603339e-02 -1.171484e-01 -4.223120e-02 2.188735e-02 -3.293905e-02 -8.772120e-02 -1.655928e-01 -4.089810e-02 1.262275e-01 -7.311192e-02 -5.323690e-02 -1.108154e-01 8.176658e-03 1.520155e-01 1.128322e-01 1.991910e-02 -4.033907e-02 -5.135749e-02 1.589258e-02 1.793129e-02 -1.036257e-03 -5.908274e-02
<VARIANCE> 39
 9.957198e-02 6.237541e-01 4.835164e-01 4.590151e-01 4.097980e-01 1.181884e+00 7.822858e-01 3.158830e-01 5.801702e-01 4.191830e-01 3.111013e-01 1.653501e-01 6.769487e-01 2.549708e-02 3.063361e-02 7.404964e-02 2.110574e-02 1.214555e-01 9.792360e-02 2.341497e-02 2.467358e-02 4.170039e-02 2.460537e-02 2.579384e-02 1.964132e-02 1.752979e-02 2.948548e-03 4.975706e-03 5.820238e-03 3.436217e-03 1.008747e-02 1.472705e-02 5.192608e-03 5.398888e-03 1.005910e-02 4.975939e-03 6.500061e-03 3.471465e-03 1.601321e-03
<GCONST> -5.180367e+01
<STATE> 5
<MEAN> 39
 8.842016e-02 -2.671303e-01 -6.286852e-01 -6.299444e-01 -7.117927e-01 -1.543236e+00 -6.918271e-01 -4.917048e-01 -5.503816e-01 -9.916185e-01 -6.755624e-01 -2.278171e-01 5.441937e+00 -2.065085e-03 -4.093621e-02 2.297230e-03 -3.464780e-03 -2.494693e-02 1.698976e-02 1.796472e-02 -2.480924e-03 -1.699667e-02 -2.348480e-02 1.692901e-02 2.300739e-02 2.372348e-02 -2.162420e-02 4.265537e-03 6.769629e-02 -7.148089e-03 -8.413867e-02 -2.897268e-02 1.154544e-02 3.414991e-02 4.316971e-02 5.277724e-04 1.705140e-02 2.330883e-02 -1.815093e-03
<VARIANCE> 39
 1.014238e-01 5.100916e-01 4.198976e-01 9.483901e-01 6.054317e-01 6.597006e-01 6.955104e-01 4.320204e-01 3.236684e-01 3.153962e-01 2.224253e-01 1.977850e-01 5.511801e-01 4.024710e-03 1.082366e-02 4.743199e-02 2.120938e-02 1.116697e-01 5.922844e-02 2.095820e-02 3.185094e-02 4.387636e-02 2.013004e-02 2.106810e-02 1.791793e-02 4.530681e-03 1.210193e-03 2.520751e-03 6.164293e-03 4.301596e-03 1.568653e-02 1.111238e-02 3.989134e-03 5.885940e-03 7.094180e-03 4.285585e-03 4.795726e-03 3.801700e-03 1.134103e-03
<GCONST> -6.055820e+01
<STATE> 6
<MEAN> 39
 -1.128075e-01 -3.636381e-01 1.128415e-01 -9.544727e-01 -1.546660e+00 -1.565304e+00 -2.531829e-01 -6.245109e-02 4.703335e-03 -1.170414e+00 -5.472003e-01 1.160119e-01 5.380391e+00 -1.123547e-01 2.538455e-02 -1.361726e-02 -1.734177e-02 6.512592e-02 8.605013e-02 8.769398e-02 4.027534e-02 1.182686e-02 3.269313e-02 2.978682e-02 -6.746736e-04 -1.043875e-01 -2.720163e-02 -5.817492e-03 -6.294776e-02 -7.812389e-03 7.282028e-02 3.902544e-02 7.003431e-03 -3.840693e-02 -3.647711e-02 2.715873e-02 2.957204e-03 -1.984210e-02 -3.635196e-02
<VARIANCE> 39
 9.502028e-02 5.434457e-01 6.719063e-01 9.630355e-01 4.959816e-01 1.031195e+00 9.409636e-01 4.772430e-01 5.052883e-01 3.670167e-01 2.271211e-01 2.262149e-01 1.008770e+00 8.209851e-03 2.209613e-02 6.246163e-02 1.586079e-02 7.376055e-02 5.213663e-02 2.417327e-02 3.749881e-02 4.630103e-02 3.117282e-02 1.782359e-02 2.198776e-02 1.184397e-02 1.153220e-03 4.297367e-03 9.922693e-03 4.142589e-03 1.284730e-02 8.890732e-03 4.946042e-03 5.208443e-03 7.227863e-03 6.374990e-03 4.000533e-03 4.819974e-03 1.323382e-03
<GCONST> -5.418474e+01
<STATE> 7
<MEAN> 39
 -1.082416e+00 -5.701845e-01 -6.536469e-01 -1.072865e+00 -7.972518e-01 -9.910660e-01 -1.145068e-01 -4.201822e-01 -3.297136e-01 -6.000955e-01 -1.921912e-01 7.818464e-02 4.702845e+00 -9.531768e-02 -5.721558e-02 -4.967144e-02 -1.078251e-02 3.771086e-02 3.725963e-02 -7.863202e-03 -3.073307e-02 5.705661e-03 7.161413e-02 7.404348e-02 2.729700e-02 -7.200883e-02 3.435232e-02 -6.185922e-03 1.049196e-02 7.967830e-03 -1.375108e-02 -2.056338e-02 -1.781197e-02 7.824721e-03 8.788390e-03 -1.312720e-02 -3.246840e-03 3.917906e-03 3.111408e-02
<VARIANCE> 39
 2.153495e-01 4.650560e-01 4.761771e-01 5.622284e-01 3.760810e-01 2.500928e-01 6.242684e-01 3.742903e-01 2.463264e-01 1.738717e-01 2.043452e-01 1.061470e-01 8.717760e-01 2.464233e-02 2.765832e-02 2.931736e-02 3.635333e-02 3.416071e-02 3.112097e-02 2.377527e-02 1.889661e-02 2.021267e-02 2.005423e-02 1.843263e-02 1.474932e-02 3.311392e-02 3.003165e-03 5.093519e-03 5.766086e-03 7.209393e-03 6.459685e-03 5.380389e-03 5.403227e-03 3.866759e-03 4.730521e-03 3.276071e-03 3.631626e-03 2.526559e-03 5.437524e-03
<GCONST> -6.110397e+01
<TRANSP> 8
 0.000000e+00 8.749664e-01 1.250336e-01 0.000000e+00 0.000000e+00 0.000000e+00 0.000000e+00 0.000000e+00
 0.000000e+00 7.014046e-01 2.985954e-01 0.000000e+00 0.000000e+00 0.000000e+00 0.000000e+00 0.000000e+00
 0.000000e+00 0.000000e+00 8.317593e-01 1.682407e-01 0.000000e+00 0.000000e+00 0.000000e+00 0.000000e+00
 0.000000e+00 0.000000e+00 0.000000e+00 7.184266e-01 2.815734e-01 0.000000e+00 0.000000e+00 0.000000e+00
 0.000000e+00 0.000000e+00 0.000000e+00 0.000000e+00 8.384458e-01 1.615543e-01 0.000000e+00 0.000000e+00
 0.000000e+00 0.000000e+00 0.000000e+00 0.000000e+00 0.000000e+00 8.057933e-01 1.942067e-01 0.000000e+00
 0.000000e+00 0.000000e+00 0.000000e+00 0.000000e+00 0.000000e+00 0.000000e+00 8.389786e-01 1.610214e-01
 0.000000e+00 0.000000e+00 0.000000e+00 0.000000e+00 0.000000e+00 0.000000e+00 0.000000e+00 0.000000e+00
<ENDHMM>
