~o
<STREAMINFO> 1 39
<VECSIZE> 39<NULLD><MFCC_D_A_0><DIAGC>
~h "tambah"
<BEGINHMM>
<NUMSTATES> 6
<STATE> 2
<MEAN> 39
 9.345059e-01 5.319827e-01 -3.285650e+00 6.766646e-01 -7.452637e+00 -2.516469e+00 1.411997e-03 3.447433e+00 -8.580387e-01 -6.695590e+00 8.266807e-01 5.495849e+00 5.772363e+01 1.195183e+00 7.921613e-01 -5.329833e-01 6.019278e-01 6.216356e-01 -5.187197e-01 -8.977739e-02 1.031525e+00 8.279771e-01 -7.819566e-02 -5.790648e-01 -5.865462e-01 2.988905e-01 -2.466191e-01 2.234967e-01 1.645274e-01 2.478665e-01 3.790421e-01 1.772329e-01 -3.882458e-02 -3.577293e-02 1.248885e-01 1.331852e-01 -2.578432e-01 -4.324985e-01 -2.831579e-01
<VARIANCE> 39
 4.195819e+01 6.150485e+01 2.511688e+01 3.162948e+01 3.702247e+01 4.195238e+01 4.701934e+01 6.206256e+01 3.073235e+01 2.799522e+01 2.525133e+01 3.370590e+01 1.577339e+02 2.475342e+00 1.051112e+01 2.767956e+00 3.733136e+00 7.237875e+00 4.718085e+00 6.798368e+00 6.069218e+00 4.660568e+00 4.388867e+00 4.354189e+00 5.896433e+00 4.868877e+00 4.060470e-01 1.865871e+00 5.630512e-01 7.006979e-01 1.175195e+00 1.152948e+00 1.421957e+00 1.237518e+00 8.933221e-01 8.346953e-01 6.463389e-01 8.042380e-01 7.961045e-01
<GCONST> 1.392790e+02
<STATE> 3
<MEAN> 39
 1.667890e+00 1.407856e+01 -1.040667e+00 9.352756e+00 5.869041e+00 1.656845e-01 -1.949910e+00 4.416800e+00 7.848934e+00 -3.422065e+00 -1.121012e+01 -8.774410e+00 5.781958e+01 -1.405843e-01 6.819498e-01 4.559233e-01 1.368433e-01 2.224553e-01 2.854464e-01 -2.441148e-01 -3.497833e-01 8.804135e-02 -6.468488e-03 -5.646055e-01 -6.167098e-01 -3.806928e-01 1.990051e-01 -3.510629e-01 -6.598113e-02 -4.839460e-01 -7.849337e-01 -1.684327e-01 1.116694e-01 -7.813612e-02 -3.387192e-01 -2.778114e-01 5.456784e-01 9.069699e-01 3.228047e-01
<VARIANCE> 39
 1.167645e+01 8.808985e+00 1.382438e+01 6.694179e+00 1.959970e+01 1.318126e+01 9.455327e+00 9.532536e+01 2.940263e+01 1.211205e+01 2.870957e+01 1.522822e+01 8.789657e+01 3.570005e-01 5.753887e-01 6.472425e-01 2.183057e+00 5.323203e+00 2.104910e+00 1.256028e+00 1.148172e+00 2.862943e+00 1.518658e+00 4.345216e+00 6.232441e+00 4.474532e-01 6.037731e-02 1.704389e-01 1.690570e-01 2.077516e-01 3.527790e-01 3.982914e-01 2.618232e-01 2.716339e-01 3.868906e-01 3.191678e-01 3.787054e-01 4.822657e-01 6.823565e-02
<GCONST> 9.612996e+01
<STATE> 4
<MEAN> 39
 5.123813e+00 6.316240e+00 7.263230e-01 2.856514e+00 -7.613783e+00 5.893134e-01 -2.411882e+00 2.399402e+00 5.046240e+00 -1.113364e+01 -3.469897e+00 8.195176e+00 6.130202e+01 -4.564911e-02 -2.102705e+00 6.943204e-02 -3.586891e-01 -1.064355e+00 9.589019e-01 6.055030e-01 -1.267702e-01 -3.120897e-01 -6.923393e-01 1.719473e+00 2.475814e+00 8.346588e-01 -3.022284e-01 6.591452e-02 -9.822257e-02 4.604402e-01 7.064379e-01 9.811290e-02 4.091902e-01 2.508682e-01 -5.756711e-02 5.456119e-01 -4.040560e-02 -7.636732e-01 -2.795871e-01
<VARIANCE> 39
 1.521784e+01 5.279080e+01 1.654698e+01 2.011111e+01 2.998115e+01 6.422462e+01 1.921181e+01 9.332078e+01 3.328879e+01 2.569479e+01 2.586511e+01 4.922117e+01 8.815826e+01 1.707694e+00 2.082115e+00 2.881919e+00 2.910506e+00 7.335735e+00 6.091855e+00 3.953994e+00 2.508077e+00 4.010294e+00 3.989698e+00 1.827533e+00 6.983350e+00 1.764149e+00 2.202274e-01 6.230471e-01 7.043896e-01 2.884840e-01 6.557630e-01 1.546853e+00 5.956078e-01 4.671622e-01 1.039302e+00 5.079225e-01 3.350150e-01 8.312286e-01 2.580712e-01
<GCONST> 1.248673e+02
<STATE> 5
<MEAN> 39
 -3.644663e+00 -2.288672e-01 -1.888541e-01 7.000227e+00 -2.754217e+00 2.025781e+00 7.067101e+00 3.370077e+00 -2.727283e+00 -3.694931e+00 4.234071e+00 5.793259e+00 5.786086e+01 -8.195252e-01 8.354960e-03 2.749781e-02 1.284953e-01 4.287571e-01 -3.662930e-01 4.773053e-02 -3.074956e-01 -5.297895e-01 5.169141e-01 -6.299438e-02 -7.073180e-01 -4.800820e-01 1.171770e-01 1.110943e-01 6.772892e-02 -8.707428e-02 -1.020021e-01 -3.884679e-03 -3.280163e-01 -1.615563e-01 1.731081e-01 -2.179894e-01 -2.091845e-01 9.231416e-02 5.401215e-02
<VARIANCE> 39
 5.345752e+01 8.194911e+01 6.985760e+01 4.314056e+01 3.654160e+01 7.908145e+01 6.145428e+01 1.206160e+02 4.360571e+01 3.518153e+01 4.124608e+01 2.986262e+01 1.259835e+02 1.860454e+00 5.222101e+00 4.819015e+00 3.598424e+00 3.342981e+00 4.947755e+00 5.668198e+00 3.645120e+00 5.184661e+00 4.842196e+00 3.323717e+00 2.970650e+00 1.619813e+00 2.456380e-01 6.960185e-01 7.482738e-01 5.186670e-01 5.838363e-01 9.048536e-01 7.465840e-01 5.952026e-01 8.007722e-01 8.435972e-01 5.675734e-01 5.281996e-01 2.539594e-01
<GCONST> 1.340676e+02
<TRANSP> 6
 0.000000e+00 9.000991e-01 9.990091e-02 0.000000e+00 0.000000e+00 0.000000e+00
 0.000000e+00 8.937483e-01 1.062517e-01 0.000000e+00 0.000000e+00 0.000000e+00
 0.000000e+00 0.000000e+00 8.797992e-01 1.202008e-01 0.000000e+00 0.000000e+00
 0.000000e+00 0.000000e+00 0.000000e+00 8.557566e-01 1.442434e-01 0.000000e+00
 0.000000e+00 0.000000e+00 0.000000e+00 0.000000e+00 9.109240e-01 8.907600e-02
 0.000000e+00 0.000000e+00 0.000000e+00 0.000000e+00 0.000000e+00 0.000000e+00
<ENDHMM>
