~o
<STREAMINFO> 1 36
<VECSIZE> 36<NULLD><LPC_D_A><DIAGC>
~h "tambah"
<BEGINHMM>
<NUMSTATES> 8
<STATE> 2
<MEAN> 36
 -2.839211e+00 4.662877e+00 -6.290667e+00 7.347310e+00 -7.337216e+00 6.203853e+00 -4.680966e+00 3.077303e+00 -1.593853e+00 6.140178e-01 -1.506886e-01 3.724040e-02 2.043248e-02 -5.762087e-02 5.822055e-02 -6.831717e-02 7.336872e-02 -4.171617e-02 7.342192e-03 -2.973527e-03 -5.197366e-04 1.424804e-02 -6.494087e-03 -1.339535e-03 1.903183e-02 -3.839659e-02 5.402148e-02 -7.635169e-02 8.534773e-02 -7.442102e-02 5.824549e-02 -4.205489e-02 2.223626e-02 -8.797371e-03 3.677742e-03 -1.457160e-03
<VARIANCE> 36
 7.134950e-01 9.226117e+00 4.030175e+01 1.053815e+02 1.929658e+02 2.607415e+02 2.591890e+02 1.892941e+02 1.018396e+02 3.807819e+01 8.201890e+00 5.343384e-01 9.100353e-02 9.768130e-01 3.943644e+00 1.008042e+01 1.809833e+01 2.407009e+01 2.384819e+01 1.751836e+01 9.490495e+00 3.587681e+00 7.844856e-01 5.136299e-02 1.477286e-02 1.872648e-01 8.269916e-01 2.199040e+00 4.062935e+00 5.532471e+00 5.557121e+00 4.099782e+00 2.229371e+00 8.454825e-01 1.837476e-01 1.174562e-02
<GCONST> 1.169018e+02
<STATE> 3
<MEAN> 36
 -1.164909e+00 8.454136e-01 -9.476526e-01 1.016803e+00 -8.501567e-01 7.240550e-01 -5.338683e-01 4.558053e-01 -2.817447e-01 1.984469e-01 -1.802028e-01 8.774067e-02 -6.096334e-02 5.686344e-03 8.033998e-03 2.650565e-03 -1.275120e-02 7.528907e-04 -1.579646e-04 5.463223e-04 -2.607919e-03 1.974245e-03 -1.522357e-02 1.033353e-02 -3.217097e-03 1.195521e-02 -2.631177e-02 2.753265e-02 -2.533303e-02 3.003193e-02 -2.784262e-02 2.711616e-02 -1.632877e-02 8.255434e-03 -4.224124e-04 3.259101e-03
<VARIANCE> 36
 4.582821e-01 1.001273e+00 1.448540e+00 1.519114e+00 1.129529e+00 5.816221e-01 2.916717e-01 1.925772e-01 1.497270e-01 1.105614e-01 7.455309e-02 2.274709e-02 4.972434e-02 7.248303e-02 6.359487e-02 8.576691e-02 9.541874e-02 9.088945e-02 7.641003e-02 5.767806e-02 3.413670e-02 1.658670e-02 6.716270e-03 2.094873e-03 1.133594e-02 1.564233e-02 1.355533e-02 2.227488e-02 2.822567e-02 2.754439e-02 2.318101e-02 1.581838e-02 8.782464e-03 3.698699e-03 1.382507e-03 4.840707e-04
<GCONST> -4.362929e+01
<STATE> 4
<MEAN> 36
 -2.988434e-01 -5.170257e+00 1.573022e+01 -3.048218e+01 4.546694e+01 -5.579762e+01 5.733246e+01 -4.973708e+01 3.623090e+01 -2.136899e+01 9.571903e+00 -2.392082e+00 -3.998169e-02 8.425902e-02 -1.443204e-01 2.070784e-01 -2.694295e-01 2.851382e-01 -2.726739e-01 2.288198e-01 -1.591730e-01 9.187993e-02 -4.076796e-02 1.284500e-02 9.588860e-03 -3.227518e-02 6.374644e-02 -9.846804e-02 1.243702e-01 -1.373631e-01 1.313949e-01 -1.089519e-01 7.718815e-02 -4.657899e-02 2.167048e-02 -5.400126e-03
<VARIANCE> 36
 3.703773e+02 6.339714e+03 3.362511e+04 1.001057e+05 1.952584e+05 2.694886e+05 2.695092e+05 1.953145e+05 1.001572e+05 3.364170e+04 6.342870e+03 3.709877e+02 3.754110e+01 6.435348e+02 3.419169e+03 1.018115e+04 1.986504e+04 2.743107e+04 2.744488e+04 1.989363e+04 1.020457e+04 3.429776e+03 6.471487e+02 3.788391e+01 7.456918e+00 1.278647e+02 6.793971e+02 2.022320e+03 3.945143e+03 5.447352e+03 5.450010e+03 3.950492e+03 2.026583e+03 6.812635e+02 1.285864e+02 7.531989e+00
<GCONST> 3.596973e+02
<STATE> 5
<MEAN> 36
 -1.616744e+00 1.715036e+00 -2.043285e+00 2.268387e+00 -2.051307e+00 1.633012e+00 -1.198642e+00 7.982073e-01 -4.107819e-01 2.141265e-01 -1.515592e-01 8.563105e-02 -1.316883e-02 -7.237476e-02 4.767729e-02 -7.825850e-02 7.003070e-02 -8.645307e-02 4.784619e-02 -3.948710e-02 1.830978e-02 -1.213582e-02 2.667639e-03 2.412276e-03 3.293731e-02 -2.204421e-02 -1.721417e-03 -7.240476e-03 9.833574e-03 2.745636e-03 -1.518922e-03 4.482685e-03 -2.971176e-03 2.404907e-03 4.523183e-03 -7.269052e-04
<VARIANCE> 36
 5.233142e-01 2.284189e+00 4.059924e+00 4.920374e+00 4.926435e+00 3.623930e+00 2.240575e+00 1.300567e+00 6.748382e-01 3.176177e-01 1.571829e-01 3.147750e-02 4.362885e-02 9.273653e-02 1.701702e-01 2.673866e-01 3.100694e-01 2.748235e-01 2.084629e-01 1.355032e-01 7.304934e-02 3.037653e-02 1.000505e-02 2.112766e-03 1.098665e-02 2.526906e-02 3.942430e-02 6.388404e-02 7.490525e-02 7.300653e-02 5.788258e-02 3.936506e-02 2.098708e-02 8.718404e-03 2.780225e-03 6.096174e-04
<GCONST> -1.242559e+01
<STATE> 6
<MEAN> 36
 -7.833305e-01 9.559994e-02 -4.569690e-01 5.069277e-01 -3.859763e-01 3.164727e-01 -3.725756e-01 3.453511e-01 -2.113557e-01 1.796578e-01 -2.184146e-01 1.507931e-01 2.300867e-02 -8.387026e-03 2.906270e-04 -1.147138e-02 8.912347e-03 -8.195944e-03 4.791568e-03 -7.978233e-03 3.357105e-03 -1.645885e-03 3.860109e-03 -1.513249e-03 1.329744e-03 1.151663e-02 -5.776730e-03 6.931503e-03 -5.038906e-03 8.707873e-03 -2.960675e-03 3.882432e-03 -2.741363e-03 1.704979e-03 -1.934642e-05 -3.420398e-04
<VARIANCE> 36
 2.505093e-01 2.960059e-01 3.490319e-01 3.186096e-01 2.428076e-01 1.552666e-01 1.112644e-01 1.052964e-01 3.906310e-02 4.608572e-02 4.000962e-02 1.295894e-02 3.005524e-02 2.230410e-02 1.809063e-02 2.115196e-02 1.745625e-02 9.844542e-03 8.428143e-03 7.794223e-03 3.408011e-03 3.140587e-03 3.259460e-03 1.432537e-03 6.774461e-03 4.409477e-03 4.396927e-03 5.047049e-03 5.397749e-03 4.377612e-03 3.836583e-03 3.114420e-03 1.557870e-03 9.511184e-04 7.052598e-04 2.963693e-04
<GCONST> -8.936426e+01
<STATE> 7
<MEAN> 36
 -2.088073e+00 3.354515e+00 -4.645196e+00 5.513225e+00 -5.611814e+00 5.058167e+00 -4.095612e+00 2.906998e+00 -1.728509e+00 8.804470e-01 -3.471671e-01 9.940066e-02 -1.062645e-02 6.325158e-02 -9.479961e-02 1.294947e-01 -1.515433e-01 1.754756e-01 -1.477503e-01 1.311866e-01 -9.267615e-02 5.364677e-02 -1.906928e-02 5.995053e-03 3.014642e-04 -1.102635e-02 1.203532e-02 -1.243546e-02 1.355760e-02 -1.513001e-02 1.262866e-02 -9.510983e-03 6.915896e-03 -3.486947e-03 1.474110e-03 7.259531e-04
<VARIANCE> 36
 1.281963e+00 7.088820e+00 1.997636e+01 4.249234e+01 6.739955e+01 8.146614e+01 7.584826e+01 5.333353e+01 2.712140e+01 9.283782e+00 1.797616e+00 1.171767e-01 6.456070e-02 4.222113e-01 1.456580e+00 3.480609e+00 5.909651e+00 7.403173e+00 7.041810e+00 4.982673e+00 2.533463e+00 8.680899e-01 1.708603e-01 1.127956e-02 1.331190e-02 9.026051e-02 3.213048e-01 7.586785e-01 1.273591e+00 1.582487e+00 1.497986e+00 1.058194e+00 5.393795e-01 1.864605e-01 3.673597e-02 2.410487e-03
<GCONST> 7.729218e+01
<TRANSP> 8
 0.000000e+00 1.285697e-01 8.714303e-01 0.000000e+00 0.000000e+00 0.000000e+00 0.000000e+00 0.000000e+00
 0.000000e+00 8.854335e-01 1.145665e-01 0.000000e+00 0.000000e+00 0.000000e+00 0.000000e+00 0.000000e+00
 0.000000e+00 0.000000e+00 5.322017e-01 6.683201e-03 4.611150e-01 0.000000e+00 0.000000e+00 0.000000e+00
 0.000000e+00 0.000000e+00 0.000000e+00 9.411762e-01 5.882382e-02 0.000000e+00 0.000000e+00 0.000000e+00
 0.000000e+00 0.000000e+00 0.000000e+00 0.000000e+00 4.257056e-01 5.742945e-01 0.000000e+00 0.000000e+00
 0.000000e+00 0.000000e+00 0.000000e+00 0.000000e+00 0.000000e+00 9.172558e-01 8.274420e-02 0.000000e+00
 0.000000e+00 0.000000e+00 0.000000e+00 0.000000e+00 0.000000e+00 0.000000e+00 6.735591e-01 3.264410e-01
 0.000000e+00 0.000000e+00 0.000000e+00 0.000000e+00 0.000000e+00 0.000000e+00 0.000000e+00 0.000000e+00
<ENDHMM>
