~o
<STREAMINFO> 1 39
<VECSIZE> 39<NULLD><PLP_D_A_0><DIAGC>
~h "tujuh"
<BEGINHMM>
<NUMSTATES> 8
<STATE> 2
<MEAN> 39
 -4.150723e-01 -8.112477e-01 -9.622028e-02 -1.581097e-01 -3.416267e-01 -1.210722e+00 -7.603497e-01 -7.995335e-01 -7.434933e-01 -1.057473e+00 1.165956e-01 8.128367e-02 5.228553e+00 8.938131e-02 6.089316e-02 6.379551e-02 1.597176e-01 1.530368e-01 2.635750e-02 -1.284168e-01 -5.356995e-02 -9.553025e-03 -4.009590e-02 -2.052277e-02 -2.937015e-02 2.967100e-02 -5.167872e-02 6.158577e-03 -1.767522e-02 1.046720e-02 2.413063e-02 3.040305e-02 2.938342e-02 2.247417e-02 3.167588e-02 3.575851e-02 -1.487175e-02 -7.396200e-03 -5.446161e-02
<VARIANCE> 39
 2.844134e-01 6.211458e-01 5.683833e-01 8.597038e-01 7.838669e-01 1.120788e+00 9.859573e-01 2.920434e-01 2.564456e-01 3.638773e-01 2.179157e-01 1.833336e-01 8.179469e-01 3.274612e-02 4.929642e-02 2.960237e-02 2.344474e-02 6.267684e-02 3.638720e-02 4.821368e-02 2.893962e-02 2.944506e-02 3.101633e-02 1.846615e-02 1.580027e-02 3.653843e-02 6.570783e-03 1.211156e-02 6.028124e-03 6.158891e-03 1.407185e-02 7.810312e-03 1.177893e-02 6.925463e-03 6.959212e-03 5.330824e-03 4.086097e-03 3.433670e-03 5.158540e-03
<GCONST> -4.756010e+01
<STATE> 3
<MEAN> 39
 -6.822356e-01 -3.893722e-01 -1.263760e-02 5.152037e-01 3.927922e-01 -8.798475e-01 -8.066956e-01 -7.162976e-01 -5.157701e-01 -8.000463e-01 -1.799275e-01 -1.305462e-01 4.842911e+00 -2.018957e-01 -1.615155e-01 5.593889e-02 -3.220091e-02 -2.807048e-02 8.478357e-02 6.950266e-02 1.202559e-01 1.805485e-01 1.152573e-02 -3.538788e-02 9.886887e-03 -3.002072e-02 -9.445466e-05 -1.138432e-01 1.176334e-02 -7.119855e-02 -4.897684e-02 9.378133e-04 -4.496020e-02 -4.336249e-02 -1.411961e-02 -3.384275e-02 5.310570e-02 3.602159e-02 9.903543e-02
<VARIANCE> 39
 1.648251e-01 3.627898e-01 3.927443e-01 5.153271e-01 3.302425e-01 4.063529e-01 4.657259e-01 3.246385e-01 1.617494e-01 2.717224e-01 1.620949e-01 8.848861e-02 5.536339e-01 1.673459e-02 7.403669e-02 2.923575e-02 2.425906e-02 1.918974e-02 3.385025e-02 4.261303e-02 2.698954e-02 2.540120e-02 2.070023e-02 2.217678e-02 1.469094e-02 3.297424e-02 5.396225e-03 7.159983e-03 5.772714e-03 4.888621e-03 5.933238e-03 6.919855e-03 1.383568e-02 7.787969e-03 7.292746e-03 3.756505e-03 2.968568e-03 2.131301e-03 4.533398e-03
<GCONST> -5.938403e+01
<STATE> 4
<MEAN> 39
 -1.347983e+00 -1.805066e+00 4.527352e-01 1.035311e-01 2.478516e-01 -7.684987e-01 -1.075732e+00 -7.022479e-01 1.312111e-02 -1.041958e+00 1.673685e-01 1.143302e-01 5.557830e+00 6.302915e-02 -1.934240e-01 5.015045e-02 -7.119925e-02 -3.634003e-03 4.684122e-02 -2.117514e-01 -2.248542e-01 -6.766572e-02 -4.179611e-02 8.881199e-02 5.367061e-02 2.433352e-01 1.477282e-01 1.674097e-01 -6.074489e-02 -1.422890e-02 -2.482820e-02 -2.894415e-02 1.738928e-02 -4.050631e-02 -1.118421e-01 -1.900519e-03 -2.555968e-02 -1.655709e-02 -3.060210e-02
<VARIANCE> 39
 4.984984e-01 2.117949e-01 5.699376e-01 6.874376e-01 4.349771e-01 6.992424e-01 5.769419e-01 5.713940e-01 2.569175e-01 3.239055e-01 8.867879e-02 1.468106e-01 6.075099e-01 4.923890e-02 6.987374e-02 3.553478e-02 2.002939e-02 1.851942e-02 3.356317e-02 3.407651e-02 2.617407e-02 5.056246e-02 1.763705e-02 1.445268e-02 9.762567e-03 1.394517e-02 5.835880e-03 1.191851e-02 8.790850e-03 4.896059e-03 4.621370e-03 8.132134e-03 1.108856e-02 1.216501e-02 8.049668e-03 4.263293e-03 4.474186e-03 3.572574e-03 5.512823e-03
<GCONST> -5.387156e+01
<STATE> 5
<MEAN> 39
 -3.643548e-01 -1.149152e+00 1.447148e-01 5.991776e-02 1.292603e-01 -6.707195e-01 -1.427006e+00 -1.383235e+00 -7.817548e-01 -1.123240e+00 1.618585e-01 1.523012e-01 5.710315e+00 2.599096e-01 3.095841e-01 -1.394648e-01 -1.659493e-01 -1.927178e-01 -5.024796e-02 1.418267e-01 6.104257e-02 -1.387920e-01 -6.590714e-02 -9.463408e-02 -3.430009e-03 -5.136841e-02 -5.297489e-02 7.459067e-02 -7.351737e-03 -7.073984e-03 -3.544490e-02 -2.863928e-02 1.187151e-01 1.249193e-01 6.941635e-02 2.268077e-02 -5.556035e-02 -2.749806e-02 -9.297068e-02
<VARIANCE> 39
 2.155917e-01 4.726307e-01 3.315967e-01 5.328159e-01 3.644165e-01 8.167396e-01 5.510190e-01 4.173612e-01 3.271664e-01 2.589312e-01 1.566022e-01 1.064390e-01 5.995184e-01 3.039496e-02 3.159519e-02 2.330211e-02 1.987593e-02 3.637157e-02 3.527573e-02 4.638881e-02 5.009921e-02 4.764638e-02 1.771193e-02 1.638469e-02 1.843854e-02 1.372591e-02 4.943367e-03 1.033372e-02 6.397064e-03 5.515603e-03 5.906367e-03 6.754224e-03 6.858556e-03 4.636918e-03 6.631165e-03 3.424155e-03 2.719009e-03 2.082676e-03 2.079437e-03
<GCONST> -5.848490e+01
<STATE> 6
<MEAN> 39
 -2.733887e-01 -6.976735e-01 -3.551800e-02 -9.395485e-01 -4.474920e-01 -1.035866e+00 -6.356651e-02 -8.432452e-01 -5.923100e-01 -1.097034e+00 -2.503679e-01 1.279925e-01 5.292551e+00 -1.782915e-03 4.910353e-02 -8.592129e-02 -7.456625e-02 -5.625658e-02 -1.353576e-02 1.161719e-01 7.139931e-02 4.585986e-02 6.195489e-02 -3.976287e-02 1.696308e-02 -5.735599e-02 -2.456724e-02 -5.099098e-02 1.314603e-02 2.139942e-02 1.711674e-02 3.894837e-03 -3.029975e-02 -1.936804e-02 1.300389e-02 1.686930e-02 2.441449e-02 5.532142e-03 1.962911e-02
<VARIANCE> 39
 2.457725e-01 6.245129e-01 6.834095e-01 1.084509e+00 6.092999e-01 1.003408e+00 8.954428e-01 5.887871e-01 4.693123e-01 3.072645e-01 2.153510e-01 2.538072e-01 1.218978e+00 2.594877e-02 6.687613e-02 4.275110e-02 3.575798e-02 6.392346e-02 5.206685e-02 4.151705e-02 5.048443e-02 4.068321e-02 3.444738e-02 2.908208e-02 3.143307e-02 5.110784e-02 5.554087e-03 9.751341e-03 8.272270e-03 6.632748e-03 1.173847e-02 9.926887e-03 6.271040e-03 8.803502e-03 9.249242e-03 7.347014e-03 4.602646e-03 6.175858e-03 8.673972e-03
<GCONST> -4.083664e+01
<STATE> 7
<MEAN> 39
 -6.046871e-01 -2.913920e-01 -6.011219e-01 -6.416787e-01 -7.159795e-01 -1.040015e+00 -6.259945e-01 -4.975244e-01 -4.268743e-01 -8.097709e-01 -3.143183e-01 6.639180e-02 5.250047e+00 -6.083073e-02 -3.771880e-02 -5.566435e-02 -2.369864e-02 -1.369879e-02 -9.375202e-03 4.341114e-02 9.589803e-03 2.272238e-02 7.219411e-02 3.392388e-02 1.875278e-02 -4.161449e-02 -2.284915e-04 -2.299395e-02 -3.170258e-03 2.095053e-03 1.170894e-02 3.068672e-03 -9.701146e-03 -1.291706e-02 -6.785984e-03 7.040652e-04 1.235730e-02 5.566219e-03 1.292985e-02
<VARIANCE> 39
 4.135995e-01 4.153779e-01 3.008896e-01 5.381743e-01 3.447216e-01 3.799440e-01 3.937100e-01 2.357019e-01 2.463393e-01 3.495406e-01 2.295294e-01 1.682099e-01 7.777979e-01 1.677897e-02 2.416698e-02 2.291628e-02 2.059346e-02 2.150286e-02 2.960139e-02 2.298896e-02 1.421930e-02 2.169809e-02 2.048634e-02 1.669720e-02 1.290661e-02 2.098715e-02 2.718430e-03 3.892603e-03 4.034906e-03 3.349520e-03 3.952100e-03 5.685600e-03 4.604882e-03 3.654210e-03 4.070218e-03 4.001162e-03 3.123330e-03 2.442525e-03 2.432389e-03
<GCONST> -6.634363e+01
<TRANSP> 8
 0.000000e+00 7.623391e-01 2.376609e-01 0.000000e+00 0.000000e+00 0.000000e+00 0.000000e+00 0.000000e+00
 0.000000e+00 7.952632e-01 1.974010e-01 7.335770e-03 0.000000e+00 0.000000e+00 0.000000e+00 0.000000e+00
 0.000000e+00 0.000000e+00 6.300935e-01 3.651519e-01 4.754595e-03 0.000000e+00 0.000000e+00 0.000000e+00
 0.000000e+00 0.000000e+00 0.000000e+00 5.620493e-01 4.324071e-01 5.543661e-03 0.000000e+00 0.000000e+00
 0.000000e+00 0.000000e+00 0.000000e+00 0.000000e+00 5.762306e-01 4.237694e-01 0.000000e+00 0.000000e+00
 0.000000e+00 0.000000e+00 0.000000e+00 0.000000e+00 0.000000e+00 7.701814e-01 2.298186e-01 0.000000e+00
 0.000000e+00 0.000000e+00 0.000000e+00 0.000000e+00 0.000000e+00 0.000000e+00 8.103586e-01 1.896414e-01
 0.000000e+00 0.000000e+00 0.000000e+00 0.000000e+00 0.000000e+00 0.000000e+00 0.000000e+00 0.000000e+00
<ENDHMM>
