~o
<STREAMINFO> 1 39
<VECSIZE> 39<NULLD><MFCC_D_A_0><DIAGC>
~h "bagi"
<BEGINHMM>
<NUMSTATES> 6
<STATE> 2
<MEAN> 39
 -4.868981e+00 -9.662910e+00 1.588254e+00 -1.484967e+01 2.619992e+00 -1.863443e+01 1.189026e+01 -1.259234e+01 -6.710816e+00 -2.622999e+00 5.725071e-01 -7.888303e-01 7.792302e+01 -2.014248e-01 -5.711299e-02 2.178629e-01 5.085916e-01 4.360831e-01 -2.000896e-01 -3.150849e-01 -4.293031e-01 -2.153766e-02 5.611834e-02 2.608031e-01 -1.490225e-01 5.257420e-02 5.748852e-03 1.830215e-01 1.575300e-01 2.421384e-01 1.523532e-01 -6.174474e-02 -5.947321e-02 -8.027007e-02 4.091731e-02 -2.031287e-01 -6.472749e-02 -2.007108e-01 -9.498282e-02
<VARIANCE> 39
 4.802234e+01 7.750195e+01 3.025240e+01 8.683125e+01 3.496406e+01 1.065774e+02 1.210895e+02 5.217954e+01 3.123674e+01 2.459155e+01 2.729148e+01 1.931870e+01 1.605880e+02 2.444447e-01 1.173512e+00 1.240993e+00 2.105272e+00 1.442178e+00 2.487684e+00 2.055907e+00 1.907630e+00 1.709097e+00 2.004165e+00 1.821763e+00 1.947354e+00 1.017418e+00 5.520675e-02 1.654266e-01 1.802490e-01 2.793816e-01 2.678243e-01 4.001499e-01 2.639183e-01 3.284360e-01 3.211866e-01 3.500588e-01 4.157168e-01 3.712012e-01 1.652460e-01
<GCONST> 1.093902e+02
<STATE> 3
<MEAN> 39
 1.512987e+00 2.794502e+00 -5.336846e-02 1.026343e+01 3.884441e+00 -2.616545e+00 -4.215689e+00 6.529468e+00 2.830806e-01 -8.186976e+00 7.592776e-01 1.695293e-01 5.664240e+01 6.670141e-01 -7.443922e-02 -8.954524e-02 9.894469e-02 -3.642095e-02 -5.401641e-01 -6.135033e-01 2.129746e-03 -1.594484e-01 -3.200082e-01 2.967176e-01 1.937407e-01 5.667270e-01 -3.849532e-02 -1.263115e-01 -4.540256e-02 -1.170957e-01 -1.195249e-01 -4.322235e-02 2.235974e-02 -4.958363e-02 1.259388e-02 6.782554e-02 5.606125e-02 1.003904e-01 3.789946e-02
<VARIANCE> 39
 4.869013e+01 5.313870e+01 4.290862e+01 9.497533e+01 6.896438e+01 6.876841e+01 5.428513e+01 4.115776e+01 3.536938e+01 6.588591e+01 5.099015e+01 3.807360e+01 9.767298e+01 3.643312e+00 5.396010e+00 4.814226e+00 4.522025e+00 5.317766e+00 7.815319e+00 5.348713e+00 3.250677e+00 4.138215e+00 5.930685e+00 4.800710e+00 4.493996e+00 3.246224e+00 5.094029e-01 8.380278e-01 8.941569e-01 7.533640e-01 8.381827e-01 1.453834e+00 1.042421e+00 6.529452e-01 8.478673e-01 1.054931e+00 8.799688e-01 7.441118e-01 4.940533e-01
<GCONST> 1.413488e+02
<STATE> 4
<MEAN> 39
 -5.978500e+00 -7.935890e+00 1.574420e+01 -5.620027e+00 1.595498e+01 -2.583310e+01 5.454983e+00 -1.437309e+01 -2.841250e+00 -1.173145e+01 -6.885384e-01 -7.179156e+00 7.750913e+01 -1.493758e-02 1.695720e-01 7.364491e-02 -1.979372e-02 -8.498489e-03 7.284416e-02 3.196453e-02 3.050484e-01 1.979031e-01 -2.602790e-01 -1.990510e-01 -6.702129e-02 -1.978621e-01 3.527293e-02 -4.384759e-02 -3.918023e-02 -7.294914e-02 -1.050886e-01 2.613323e-03 5.956861e-02 6.071692e-02 -2.968549e-02 4.526912e-02 1.485651e-02 4.618531e-02 4.575737e-02
<VARIANCE> 39
 4.092232e+01 4.116529e+01 5.159331e+01 7.015915e+01 2.911377e+01 1.330841e+02 5.864993e+01 6.954587e+01 5.728156e+01 3.879804e+01 4.863317e+01 4.120921e+01 5.166352e+01 2.980660e+00 4.258570e+00 3.159405e+00 4.209965e+00 3.286996e+00 1.003711e+01 4.434700e+00 4.621757e+00 5.832292e+00 3.632147e+00 4.216097e+00 3.571171e+00 4.093026e+00 4.523937e-01 6.113473e-01 4.259748e-01 5.988876e-01 5.867392e-01 1.442092e+00 7.389904e-01 9.045696e-01 9.765802e-01 7.011835e-01 7.436426e-01 6.689163e-01 6.099262e-01
<GCONST> 1.371576e+02
<STATE> 5
<MEAN> 39
 -4.009110e+00 3.821862e+00 -2.827807e-01 6.204851e+00 3.039210e+00 -8.985941e+00 -7.862565e+00 -2.616119e+00 -4.170439e+00 -6.124678e+00 4.461450e-01 -4.772299e-01 7.052514e+01 -3.136311e-01 1.058548e-02 1.668490e-01 1.697818e-01 2.170886e-01 2.295320e-01 7.197759e-02 -1.358957e-01 1.080114e-02 9.121045e-02 -7.245217e-02 -1.807690e-01 -1.954010e-01 -1.589298e-02 2.698136e-02 2.992908e-02 7.083124e-03 1.486748e-02 2.186951e-02 1.298443e-02 7.406261e-04 -1.212799e-03 -1.470998e-02 -3.500799e-02 -3.221141e-02 -1.111597e-02
<VARIANCE> 39
 3.918495e+01 4.226032e+01 3.790848e+01 6.080842e+01 6.210171e+01 3.563602e+01 3.676166e+01 2.054896e+01 2.290259e+01 5.485977e+01 5.825239e+01 5.239396e+01 2.535576e+01 9.121026e-01 1.209193e+00 1.143419e+00 1.783896e+00 1.455281e+00 1.766101e+00 1.844726e+00 1.245739e+00 1.740059e+00 1.253318e+00 1.286933e+00 1.345692e+00 6.887131e-01 1.217430e-01 1.875354e-01 1.679069e-01 2.366079e-01 2.302715e-01 2.943023e-01 2.901924e-01 2.294507e-01 3.128405e-01 2.471019e-01 2.414840e-01 2.395450e-01 8.865190e-02
<GCONST> 1.028577e+02
<TRANSP> 6
 0.000000e+00 4.227463e-01 5.772537e-01 0.000000e+00 0.000000e+00 0.000000e+00
 0.000000e+00 8.789225e-01 4.947768e-02 7.159987e-02 0.000000e+00 0.000000e+00
 0.000000e+00 0.000000e+00 9.281939e-01 1.792724e-02 5.387889e-02 0.000000e+00
 0.000000e+00 0.000000e+00 0.000000e+00 9.504588e-01 0.000000e+00 4.954124e-02
 0.000000e+00 0.000000e+00 0.000000e+00 0.000000e+00 9.752502e-01 2.474982e-02
 0.000000e+00 0.000000e+00 0.000000e+00 0.000000e+00 0.000000e+00 0.000000e+00
<ENDHMM>
