~o
<STREAMINFO> 1 39
<VECSIZE> 39<NULLD><MFCC_D_A_0><DIAGC>
~h "delapan"
<BEGINHMM>
<NUMSTATES> 6
<STATE> 2
<MEAN> 39
 3.089975e+00 4.612713e+00 -1.704232e+00 8.110755e+00 -2.631391e-01 -9.346601e-01 -1.904272e+00 4.739545e+00 3.649805e+00 -8.058041e+00 -5.089572e+00 4.918483e+00 5.056041e+01 6.801613e-02 5.274794e-02 2.040414e-03 7.960480e-03 6.546184e-03 -7.232203e-02 1.815406e-02 9.915732e-02 7.480285e-03 -5.758316e-02 -3.474285e-02 -7.085324e-02 1.997480e-02 -2.767791e-03 -1.734962e-02 -6.238702e-03 -5.902440e-03 -1.321761e-02 2.471171e-03 1.120645e-02 -1.453624e-02 -7.042413e-03 1.411453e-02 1.046243e-02 3.432456e-03 3.316264e-03
<VARIANCE> 39
 4.986139e+01 6.809801e+01 4.825971e+01 5.174969e+01 1.129280e+02 5.142049e+01 3.381779e+01 4.915179e+01 5.455851e+01 3.561258e+01 4.715990e+01 4.821727e+01 5.135263e+01 3.354829e+00 5.950340e+00 4.996999e+00 4.161709e+00 9.816183e+00 5.144151e+00 3.379892e+00 4.463739e+00 4.745208e+00 3.713583e+00 4.438417e+00 3.923239e+00 3.222883e+00 4.675539e-01 1.050374e+00 9.246414e-01 7.326211e-01 1.695302e+00 1.011839e+00 6.510985e-01 8.650406e-01 8.895838e-01 7.435460e-01 8.734294e-01 7.213627e-01 4.100608e-01
<GCONST> 1.396123e+02
<STATE> 3
<MEAN> 39
 -1.518495e+00 5.608215e+00 4.836128e-01 4.484089e+00 -2.271741e-01 -5.253924e-01 -3.697057e-01 -7.101167e+00 -1.588112e+00 -3.521320e+00 -7.617031e-01 2.124052e+00 6.787514e+01 2.223452e-01 1.144160e-02 -1.135987e-01 -7.685295e-02 -1.076157e-01 -1.782513e-01 -1.344444e-01 5.237953e-02 -6.384242e-02 -4.130239e-02 3.860591e-02 8.631241e-02 1.614516e-01 -4.244831e-02 -3.783620e-02 -3.842856e-02 -7.218722e-02 -5.960765e-02 -3.539938e-02 2.869824e-02 5.149027e-02 6.787331e-02 1.072901e-02 2.375138e-02 2.816091e-02 -7.772115e-03
<VARIANCE> 39
 4.224685e+01 4.583437e+01 3.185460e+01 6.024372e+01 7.959771e+01 5.767995e+01 4.233896e+01 4.052136e+01 4.006195e+01 3.725079e+01 3.021105e+01 3.717318e+01 6.368849e+01 3.342275e+00 2.936503e+00 1.937972e+00 2.761593e+00 3.716722e+00 2.569999e+00 2.417028e+00 2.760558e+00 2.986104e+00 2.437007e+00 2.241734e+00 2.804516e+00 3.872382e+00 4.306373e-01 4.554875e-01 3.356563e-01 4.478334e-01 5.507552e-01 4.602621e-01 4.535640e-01 4.703989e-01 5.638455e-01 4.204686e-01 3.951624e-01 4.617065e-01 4.843883e-01
<GCONST> 1.241572e+02
<STATE> 4
<MEAN> 39
 1.104528e+00 -7.398643e+00 2.936977e+00 -1.246286e+01 2.619014e+00 -1.535254e+01 1.852377e+01 -1.317195e+01 8.518178e-01 -9.164239e+00 -1.757437e+00 -2.079324e+00 7.602048e+01 -8.870324e-02 -7.145977e-02 2.628497e-03 -1.289350e-01 6.282289e-03 6.628710e-02 1.044168e-01 1.685764e-04 1.007377e-01 1.292248e-02 6.991020e-02 -6.558736e-03 4.128732e-02 -4.423280e-03 -2.541383e-03 1.001940e-02 1.434187e-02 2.623923e-02 4.033986e-03 -1.536867e-02 7.604785e-03 -6.198339e-03 7.570316e-04 -1.524677e-02 -1.239089e-02 4.271585e-03
<VARIANCE> 39
 2.384070e+01 6.601983e+01 3.259348e+01 5.310362e+01 9.332771e+01 9.430875e+01 8.694220e+01 1.050257e+02 5.407679e+01 3.473074e+01 5.820325e+01 3.864796e+01 9.974737e+01 1.329816e+00 3.751388e+00 2.294287e+00 3.202750e+00 5.533047e+00 4.273798e+00 4.353177e+00 4.933054e+00 3.559690e+00 2.507631e+00 3.996347e+00 2.737739e+00 5.158844e+00 2.475401e-01 4.607185e-01 3.366473e-01 5.393791e-01 8.290611e-01 7.037910e-01 6.905396e-01 7.818673e-01 6.467886e-01 5.028580e-01 7.348335e-01 5.041037e-01 6.933748e-01
<GCONST> 1.330954e+02
<STATE> 5
<MEAN> 39
 -7.935253e-01 2.350963e+00 -7.909497e+00 -3.098913e+00 -3.984025e+00 -7.813632e+00 -2.850751e+00 1.538150e+00 9.350942e-01 -4.582602e+00 -5.958458e-01 3.656432e+00 7.187096e+01 -1.345195e-01 -1.953094e-02 -5.418968e-03 1.545556e-03 1.651722e-02 8.354767e-02 6.176292e-02 3.484785e-02 1.186946e-01 8.650373e-02 -3.987012e-02 -4.627572e-02 -1.171348e-01 -3.388902e-04 3.583763e-03 5.552406e-03 2.187002e-02 2.013975e-02 1.825214e-06 -1.713992e-02 -2.684711e-02 -4.127160e-02 -1.530653e-02 2.952367e-03 -1.608850e-02 -5.751064e-03
<VARIANCE> 39
 3.318685e+01 4.179375e+01 4.102910e+01 3.874877e+01 6.928492e+01 3.331007e+01 1.674693e+01 4.234687e+01 3.434733e+01 3.845309e+01 3.427187e+01 4.025891e+01 4.673990e+01 1.281870e+00 1.072483e+00 1.083215e+00 1.469472e+00 1.846367e+00 1.430485e+00 1.375560e+00 1.585734e+00 2.265552e+00 1.488141e+00 1.526101e+00 1.084013e+00 1.301927e+00 1.792979e-01 1.517075e-01 1.655596e-01 2.137714e-01 2.416587e-01 2.606868e-01 2.235166e-01 2.576662e-01 3.357930e-01 2.806865e-01 2.849842e-01 1.934197e-01 1.528753e-01
<GCONST> 1.036658e+02
<TRANSP> 6
 0.000000e+00 2.279278e-01 7.720722e-01 0.000000e+00 0.000000e+00 0.000000e+00
 0.000000e+00 9.794118e-01 1.440588e-03 1.914759e-02 0.000000e+00 0.000000e+00
 0.000000e+00 0.000000e+00 9.356424e-01 2.545852e-02 3.889909e-02 0.000000e+00
 0.000000e+00 0.000000e+00 0.000000e+00 9.474675e-01 3.567927e-10 5.253252e-02
 0.000000e+00 0.000000e+00 0.000000e+00 0.000000e+00 9.743106e-01 2.568938e-02
 0.000000e+00 0.000000e+00 0.000000e+00 0.000000e+00 0.000000e+00 0.000000e+00
<ENDHMM>
