~o
<STREAMINFO> 1 39
<VECSIZE> 39<NULLD><MFCC_D_A_0><DIAGC>
~h "dua"
<BEGINHMM>
<NUMSTATES> 6
<STATE> 2
<MEAN> 39
 -3.476478e+00 6.503833e+00 1.204738e+00 4.522798e+00 6.183559e+00 -7.915581e-01 -1.903398e+00 -1.020447e+00 4.486689e-01 -6.546565e+00 -2.404703e+00 -1.430270e+00 6.002502e+01 1.071505e+00 1.962315e-01 2.075028e-01 -3.109766e-01 -1.423012e-02 -5.298105e-03 -7.068526e-01 -7.909573e-02 -9.143022e-02 -9.750679e-01 -6.824341e-01 -3.036454e-01 8.870130e-01 -2.130321e-02 -5.928676e-02 1.087504e-01 -1.266971e-01 -3.481206e-01 -1.736629e-01 -1.020641e-02 1.265392e-01 9.462158e-02 -5.507077e-02 -3.580793e-02 -2.877344e-05 2.056389e-02
<VARIANCE> 39
 5.514300e+01 6.360561e+01 5.420384e+01 6.336094e+01 7.418376e+01 7.329115e+01 6.634174e+01 6.095863e+01 5.735195e+01 6.063002e+01 3.584952e+01 3.645935e+01 1.224428e+02 3.320708e+00 5.514068e+00 5.265346e+00 4.577769e+00 5.394081e+00 5.123304e+00 5.534557e+00 3.630369e+00 5.953232e+00 5.230703e+00 3.941049e+00 3.418700e+00 3.038099e+00 4.950051e-01 9.559482e-01 1.091872e+00 7.449640e-01 8.285932e-01 8.890690e-01 1.151869e+00 7.443921e-01 9.807571e-01 1.038688e+00 7.887005e-01 5.319859e-01 4.501148e-01
<GCONST> 1.415220e+02
<STATE> 3
<MEAN> 39
 2.367677e+00 -4.694623e+00 8.881187e+00 -1.378737e+01 -5.269922e+00 -1.877626e+01 1.502695e+01 -1.096677e+01 -2.856250e+00 -1.031780e+01 -3.135188e+00 -2.782508e+00 7.603234e+01 -4.663984e-02 -2.144928e-02 -2.103436e-01 7.015198e-02 5.473839e-02 1.855866e-01 4.565087e-02 -1.747210e-02 2.137595e-01 1.873266e-01 9.145817e-02 2.516137e-01 -1.887397e-01 -1.869976e-02 2.419626e-02 -2.284598e-02 3.190733e-02 1.242426e-01 6.599161e-02 -5.604136e-02 -2.311828e-02 3.423516e-02 -1.829425e-02 1.633913e-02 -1.336283e-04 -3.031958e-02
<VARIANCE> 39
 1.433032e+01 6.894321e+01 6.715984e+01 4.493642e+01 1.019127e+02 1.053903e+02 7.071707e+01 5.267241e+01 7.963051e+01 3.742184e+01 5.193859e+01 4.388900e+01 5.086453e+01 7.114810e-01 2.421332e+00 2.169065e+00 1.497865e+00 4.794717e+00 4.229664e+00 2.292957e+00 3.083191e+00 3.274226e+00 2.239479e+00 2.753649e+00 2.449096e+00 2.503448e+00 1.020281e-01 3.333631e-01 3.363432e-01 2.356279e-01 5.771226e-01 6.900670e-01 3.327769e-01 5.667928e-01 6.076422e-01 3.876149e-01 4.304809e-01 4.393897e-01 3.143598e-01
<GCONST> 1.224834e+02
<STATE> 4
<MEAN> 39
 2.737685e+00 7.674613e+00 2.489243e+00 2.367167e+00 -5.085325e+00 -4.916571e+00 -5.205023e+00 5.242435e+00 6.246425e+00 -1.192430e+01 -6.810202e+00 2.601489e+00 5.869066e+01 -1.833159e-01 1.505874e-01 -2.109042e-02 6.050393e-02 -8.269920e-02 -2.530522e-01 3.257699e-01 8.768879e-02 -3.014018e-01 3.385622e-01 3.637126e-02 -2.553768e-01 -1.928626e-01 -3.177400e-02 -1.110258e-02 -5.142432e-02 2.979047e-02 7.441720e-02 7.394738e-03 1.837467e-03 -6.243651e-02 -3.484714e-02 1.099670e-01 7.980922e-02 -1.822908e-02 -3.102201e-02
<VARIANCE> 39
 4.143098e+01 4.639051e+01 4.764465e+01 4.834727e+01 6.873788e+01 8.371510e+01 8.201653e+01 7.201431e+01 1.074026e+02 6.435456e+01 3.983618e+01 5.887120e+01 1.071077e+02 1.931461e+00 3.065040e+00 3.535967e+00 2.653302e+00 4.911136e+00 4.851999e+00 3.840382e+00 3.519215e+00 4.591282e+00 3.887079e+00 3.079756e+00 3.280674e+00 2.171513e+00 2.916155e-01 5.147980e-01 5.651469e-01 5.065075e-01 7.179804e-01 8.826553e-01 6.617563e-01 5.545681e-01 8.011175e-01 7.181794e-01 6.261929e-01 6.048542e-01 2.845234e-01
<GCONST> 1.339726e+02
<STATE> 5
<MEAN> 39
 -4.583781e-01 6.343410e+00 -1.978534e+00 -3.362573e-01 -5.031417e+00 -9.069379e+00 -4.450202e+00 1.372346e+00 3.329223e-01 -5.988930e+00 -1.711192e+00 -6.156198e-02 7.029434e+01 -1.475915e-01 -2.021417e-01 -2.190573e-01 -9.508169e-02 -9.399997e-02 9.848282e-03 8.558515e-02 -4.844628e-02 -6.010423e-02 6.976288e-02 1.185842e-01 2.105014e-01 -8.998837e-02 -2.793502e-02 -8.160558e-03 -5.331438e-03 1.943126e-02 5.236541e-02 5.630253e-02 1.939668e-02 -2.704882e-02 -1.915286e-02 -6.421451e-03 -1.680403e-03 6.033192e-03 -1.915270e-02
<VARIANCE> 39
 3.112531e+01 7.575634e+01 7.812434e+01 3.601496e+01 4.423624e+01 6.293543e+01 5.002422e+01 4.616629e+01 3.912411e+01 4.915126e+01 3.104109e+01 3.713229e+01 3.841135e+01 6.223024e-01 1.104878e+00 1.108576e+00 9.951798e-01 1.436468e+00 1.933619e+00 1.825293e+00 1.388752e+00 1.400154e+00 1.700856e+00 1.373317e+00 1.281989e+00 8.012855e-01 6.626523e-02 1.374147e-01 1.630632e-01 1.416280e-01 1.803281e-01 2.576325e-01 3.023435e-01 2.518942e-01 2.400114e-01 2.853433e-01 2.437307e-01 2.116360e-01 7.266040e-02
<GCONST> 1.018296e+02
<TRANSP> 6
 0.000000e+00 7.359481e-01 2.640518e-01 0.000000e+00 0.000000e+00 0.000000e+00
 0.000000e+00 8.490638e-01 1.526097e-02 1.356753e-01 0.000000e+00 0.000000e+00
 0.000000e+00 0.000000e+00 9.484680e-01 3.053317e-02 2.099881e-02 0.000000e+00
 0.000000e+00 0.000000e+00 0.000000e+00 8.869369e-01 5.646687e-02 5.659619e-02
 0.000000e+00 0.000000e+00 0.000000e+00 0.000000e+00 9.585552e-01 4.144488e-02
 0.000000e+00 0.000000e+00 0.000000e+00 0.000000e+00 0.000000e+00 0.000000e+00
<ENDHMM>
