~o
<STREAMINFO> 1 39
<VECSIZE> 39<NULLD><MFCC_D_A_0><DIAGC>
~h "empat"
<BEGINHMM>
<NUMSTATES> 6
<STATE> 2
<MEAN> 39
 -1.416545e+00 -5.574617e+00 2.646219e+00 -1.000156e+01 2.623463e+00 -1.179988e+01 1.683359e+01 -8.323895e+00 3.104438e+00 -1.033338e+01 -1.933270e+00 -4.588005e+00 7.200307e+01 6.830524e-02 1.571987e-01 6.374556e-02 1.344316e-01 2.358484e-01 1.329257e-01 -1.845380e-01 1.823444e-01 -6.422733e-02 -5.459944e-02 -1.122589e-01 -9.958561e-02 -1.391396e-01 -1.814072e-02 -4.152598e-02 -4.180128e-02 -5.477764e-02 -2.885105e-02 -2.184712e-02 1.917944e-02 -1.727746e-02 5.377484e-02 3.085185e-02 8.923069e-03 1.285983e-02 3.600954e-02
<VARIANCE> 39
 3.082926e+01 7.291836e+01 5.864259e+01 7.327734e+01 8.930206e+01 8.316756e+01 8.475336e+01 8.225814e+01 6.671355e+01 3.581416e+01 7.076466e+01 4.482919e+01 1.159116e+02 2.201612e+00 3.421276e+00 2.660689e+00 2.457807e+00 4.721635e+00 3.205220e+00 2.784619e+00 4.467597e+00 3.776747e+00 2.919704e+00 4.184430e+00 3.095980e+00 5.552375e+00 2.712150e-01 5.042065e-01 4.374444e-01 4.258182e-01 7.516016e-01 5.095106e-01 4.408890e-01 7.123209e-01 6.050338e-01 4.595483e-01 5.779091e-01 4.779143e-01 6.073200e-01
<GCONST> 1.330745e+02
<STATE> 3
<MEAN> 39
 -6.593782e+00 8.535953e+00 5.696853e-01 8.275064e+00 6.117871e+00 1.217793e+00 8.480835e-01 2.941325e+00 2.170029e+00 -3.415787e+00 -6.281434e+00 -5.889526e+00 6.347813e+01 -5.144829e-01 -1.347546e-01 -5.589924e-02 -1.970628e-01 -1.431166e-01 1.479166e-01 1.453130e-01 -8.888678e-02 1.520377e-02 1.718739e-01 1.248074e-01 5.976440e-02 -3.702472e-01 -3.450135e-02 -1.126890e-01 -7.019447e-02 -1.206403e-01 -1.152060e-01 -6.466551e-02 -3.295588e-02 -6.844907e-02 -4.550616e-02 3.761563e-02 1.288891e-01 1.086969e-01 3.566052e-02
<VARIANCE> 39
 2.244866e+01 3.025268e+01 1.985153e+01 2.752369e+01 2.822642e+01 2.963611e+01 2.151419e+01 3.936992e+01 1.802982e+01 1.267978e+01 1.948724e+01 1.957564e+01 2.215426e+01 9.257481e-01 7.782119e-01 7.811674e-01 9.133247e-01 1.051269e+00 9.844593e-01 1.035222e+00 9.394310e-01 1.157896e+00 9.281653e-01 1.091382e+00 1.148854e+00 5.239310e-01 1.946764e-01 1.151243e-01 1.210506e-01 1.367443e-01 1.829914e-01 2.026820e-01 1.816496e-01 1.595180e-01 2.129608e-01 1.774486e-01 1.778661e-01 1.998426e-01 1.636938e-01
<GCONST> 8.828175e+01
<STATE> 4
<MEAN> 39
 -2.160018e+00 4.138069e+00 -1.287769e+00 1.978040e+00 -3.035373e+00 -2.323890e+00 -1.025345e+00 1.341950e-01 1.153152e+00 -5.933270e+00 -2.664292e+00 1.544513e+00 5.891418e+01 5.598974e-01 -1.709644e-01 -2.606348e-01 -3.799666e-01 -4.576544e-01 -3.377138e-01 -1.433285e-01 -7.015502e-02 -7.833744e-04 -1.417881e-01 1.294399e-01 3.565246e-01 6.219124e-01 -1.784552e-02 -2.207761e-02 -1.528700e-02 9.674179e-03 1.963849e-02 1.633187e-02 -4.240074e-03 3.350972e-02 2.040152e-02 -2.431661e-02 -2.188188e-02 1.662331e-03 -1.731370e-02
<VARIANCE> 39
 6.530785e+01 6.370635e+01 3.907902e+01 5.541348e+01 8.045612e+01 6.231073e+01 3.553588e+01 6.846288e+01 6.429800e+01 5.599974e+01 4.230986e+01 6.013905e+01 1.878098e+02 5.874225e+00 5.222354e+00 4.030889e+00 4.617330e+00 6.515227e+00 4.867227e+00 3.179876e+00 4.226265e+00 5.411685e+00 3.677894e+00 4.138235e+00 4.555288e+00 6.603982e+00 8.455432e-01 8.500129e-01 6.794854e-01 8.253022e-01 1.041681e+00 8.839756e-01 6.331800e-01 8.093840e-01 9.302582e-01 6.663437e-01 7.691079e-01 7.372801e-01 8.819848e-01
<GCONST> 1.426601e+02
<STATE> 5
<MEAN> 39
 -2.551300e+00 5.826729e-01 -9.592520e+00 -5.733172e+00 -6.992263e+00 -5.301071e+00 -2.688757e+00 -6.866476e-01 2.103329e+00 -3.949358e+00 -3.277135e-01 5.403668e+00 6.955150e+01 -5.257583e-01 1.812934e-01 1.292606e-01 1.496179e-01 2.999950e-01 2.520563e-01 8.224310e-02 -1.375673e-01 -2.821140e-01 7.026237e-02 8.771826e-02 -1.086376e-01 -5.634708e-01 -3.719223e-02 4.854538e-02 6.630016e-02 4.892410e-02 4.139930e-02 2.164179e-03 8.270564e-03 4.698443e-03 -1.253275e-02 1.352362e-02 -8.471253e-03 -5.467666e-02 -3.240987e-02
<VARIANCE> 39
 4.932854e+01 4.059935e+01 5.580425e+01 3.472742e+01 4.249970e+01 3.252423e+01 1.670798e+01 4.078793e+01 4.749559e+01 3.428261e+01 1.874092e+01 5.593404e+01 6.951390e+01 7.801476e-01 8.305855e-01 1.318594e+00 1.170171e+00 1.176846e+00 1.369788e+00 1.344955e+00 1.482080e+00 1.697927e+00 1.132910e+00 1.140529e+00 1.438963e+00 8.206887e-01 1.047264e-01 1.425048e-01 2.158380e-01 1.857881e-01 1.975832e-01 2.423848e-01 2.555812e-01 2.928652e-01 3.089331e-01 2.265071e-01 2.476758e-01 2.603597e-01 1.058838e-01
<GCONST> 1.006168e+02
<TRANSP> 6
 0.000000e+00 7.026010e-01 2.973990e-01 0.000000e+00 0.000000e+00 0.000000e+00
 0.000000e+00 9.131086e-01 1.962558e-02 6.726579e-02 0.000000e+00 0.000000e+00
 0.000000e+00 0.000000e+00 9.247324e-01 7.526757e-02 0.000000e+00 0.000000e+00
 0.000000e+00 0.000000e+00 0.000000e+00 9.225671e-01 3.602266e-02 4.141028e-02
 0.000000e+00 0.000000e+00 0.000000e+00 0.000000e+00 9.503899e-01 4.961008e-02
 0.000000e+00 0.000000e+00 0.000000e+00 0.000000e+00 0.000000e+00 0.000000e+00
<ENDHMM>
