~o
<STREAMINFO> 1 39
<VECSIZE> 39<NULLD><MFCC_D_A_0><DIAGC>
~h "enam"
<BEGINHMM>
<NUMSTATES> 6
<STATE> 2
<MEAN> 39
 -1.396824e+00 6.697874e+00 -2.209894e+00 1.316975e+01 1.243043e+01 8.451879e-01 -5.016565e+00 3.520688e+00 1.029305e+00 -4.298987e+00 -3.562748e+00 1.195963e+00 5.753906e+01 7.839909e-01 -8.939219e-02 -2.099933e-01 1.942339e-03 1.128273e-01 3.752368e-02 1.033643e-02 4.953539e-02 6.914161e-02 -1.176011e-01 4.096610e-02 2.528207e-01 6.198651e-01 3.453074e-02 -2.388560e-01 -1.318516e-01 -3.535843e-01 -3.921001e-01 -1.807493e-03 1.110143e-01 6.960177e-02 5.004740e-02 -2.395845e-02 2.265906e-01 2.040293e-01 1.305244e-01
<VARIANCE> 39
 3.130925e+01 2.318497e+01 1.717618e+01 2.538093e+01 3.332605e+01 2.734867e+01 2.775798e+01 4.951215e+01 2.609818e+01 1.993928e+01 2.833859e+01 2.799730e+01 1.054314e+02 1.242525e+00 2.179183e+00 1.924497e+00 3.510073e+00 3.701363e+00 2.098351e+00 3.465317e+00 1.684267e+00 1.959450e+00 1.885110e+00 2.646191e+00 2.804528e+00 9.958448e-01 1.846046e-01 2.329146e-01 2.925912e-01 3.783162e-01 3.432191e-01 4.269659e-01 5.224268e-01 3.490233e-01 3.908258e-01 3.165086e-01 3.835845e-01 4.231071e-01 1.188654e-01
<GCONST> 1.109911e+02
<STATE> 3
<MEAN> 39
 6.755099e+00 2.386673e-01 -3.154041e+00 1.981185e+00 -4.100472e+00 3.260571e+00 -1.495569e+00 7.026212e+00 7.806824e+00 -8.402838e+00 1.680382e+00 1.076333e+01 6.062335e+01 4.188202e-04 -1.370155e-01 -3.205520e-01 -4.256518e-01 -3.258082e-01 -2.546866e-01 3.799274e-01 7.185180e-01 7.595861e-01 2.495485e-01 -2.457873e-01 5.760890e-02 7.807544e-02 -1.651774e-01 2.842132e-01 5.189554e-02 4.876679e-01 6.337073e-01 -6.388007e-02 -4.205372e-02 5.279013e-02 -1.254149e-01 2.545700e-02 -4.343955e-01 -5.347079e-01 -2.693741e-01
<VARIANCE> 39
 1.087427e+01 3.483079e+01 3.680861e+01 2.804805e+01 6.463210e+01 4.319193e+01 2.115213e+01 5.579766e+01 3.194177e+01 4.676210e+01 4.237704e+01 2.985806e+01 7.885453e+01 6.168823e-01 2.864760e+00 2.654825e+00 6.081442e+00 9.975475e+00 4.229141e+00 2.345787e+00 3.142161e+00 2.366575e+00 2.157018e+00 5.111291e+00 7.266390e+00 1.511370e+00 8.288939e-02 2.554133e-01 3.603604e-01 4.568722e-01 6.745212e-01 7.224002e-01 4.932892e-01 5.176258e-01 4.403054e-01 4.130645e-01 5.876145e-01 6.036538e-01 1.000059e-01
<GCONST> 1.203432e+02
<STATE> 4
<MEAN> 39
 9.851379e-01 1.319912e+00 -8.529058e+00 3.730403e+00 5.846394e+00 1.596323e+00 2.020698e+00 1.025861e+01 4.602191e+00 -4.172081e+00 -2.404835e+00 3.992821e+00 6.807677e+01 -3.523642e-01 4.897455e-01 3.560882e-01 4.365962e-01 3.775750e-01 2.274698e-01 1.495208e-01 4.168902e-03 -2.561186e-01 -7.836429e-02 -4.037593e-01 -7.583045e-01 -4.806966e-01 -1.085045e-02 2.212173e-02 7.329849e-02 -5.264198e-02 -1.114645e-01 1.688147e-02 -5.295467e-02 -1.058099e-01 -4.883815e-04 1.408978e-02 8.974083e-02 1.130967e-01 -1.649859e-03
<VARIANCE> 39
 1.586182e+01 6.379512e+01 3.539467e+01 4.245816e+01 2.036719e+01 1.874639e+01 1.438147e+01 4.595305e+01 2.626146e+01 1.422779e+01 3.106654e+01 5.056530e+01 8.404259e+01 1.943848e-01 4.292705e-01 4.913011e-01 1.071150e+00 1.227994e+00 9.174865e-01 7.878610e-01 9.832918e-01 9.697218e-01 9.050775e-01 1.184542e+00 1.626265e+00 1.577126e-01 2.359160e-02 7.397057e-02 9.526943e-02 2.115352e-01 2.506834e-01 1.683316e-01 1.509711e-01 1.636449e-01 1.893231e-01 1.872965e-01 1.867941e-01 3.218000e-01 2.838120e-02
<GCONST> 8.464657e+01
<STATE> 5
<MEAN> 39
 -2.931666e+00 9.882520e+00 2.444537e-01 8.278874e+00 5.372569e+00 3.151904e+00 1.285326e+00 6.545648e+00 3.944709e+00 -4.780299e+00 -6.890991e+00 -2.976189e+00 5.347922e+01 -3.078589e-01 -5.351570e-01 4.369467e-02 -6.251706e-01 -8.845845e-01 -2.251093e-01 -3.930121e-01 -7.256553e-01 -4.674347e-01 -8.251376e-02 4.040063e-01 5.569438e-01 2.807939e-02 9.346674e-02 -1.685704e-01 -5.644379e-02 -6.928573e-02 -1.167079e-01 -1.275571e-01 -1.276596e-01 -1.031200e-01 -1.273526e-01 -2.037641e-02 8.172324e-02 1.116592e-01 1.450493e-01
<VARIANCE> 39
 4.792062e+01 4.499536e+01 2.298571e+01 3.385985e+01 4.663618e+01 2.881534e+01 4.261753e+01 6.348709e+01 5.668523e+01 5.094622e+01 4.795497e+01 4.826396e+01 9.312206e+01 1.295930e+00 2.924456e+00 2.113447e+00 2.390388e+00 3.373060e+00 3.071483e+00 3.196563e+00 3.158623e+00 4.596650e+00 4.095215e+00 3.270108e+00 3.486480e+00 1.312607e+00 1.677639e-01 3.501053e-01 3.650539e-01 4.448332e-01 5.512031e-01 5.091004e-01 5.138581e-01 4.474324e-01 8.406917e-01 7.238281e-01 6.514224e-01 5.542721e-01 1.865874e-01
<GCONST> 1.240216e+02
<TRANSP> 6
 0.000000e+00 8.749987e-01 1.250014e-01 0.000000e+00 0.000000e+00 0.000000e+00
 0.000000e+00 9.183741e-01 8.162589e-02 0.000000e+00 0.000000e+00 0.000000e+00
 0.000000e+00 0.000000e+00 8.705585e-01 1.294415e-01 0.000000e+00 0.000000e+00
 0.000000e+00 0.000000e+00 0.000000e+00 9.210239e-01 6.711585e-02 1.186028e-02
 0.000000e+00 0.000000e+00 0.000000e+00 0.000000e+00 8.888088e-01 1.111912e-01
 0.000000e+00 0.000000e+00 0.000000e+00 0.000000e+00 0.000000e+00 0.000000e+00
<ENDHMM>
