~o
<STREAMINFO> 1 39
<VECSIZE> 39<NULLD><MFCC_D_A_0><DIAGC>
~h "enam"
<BEGINHMM>
<NUMSTATES> 6
<STATE> 2
<MEAN> 39
 2.489580e+00 6.115782e+00 -1.497178e+00 7.157739e+00 3.073504e+00 -2.104854e-01 -7.618814e-01 4.599917e+00 4.182117e+00 -6.654276e+00 -3.567197e+00 2.155185e+00 5.635426e+01 2.256235e-01 1.782122e-01 8.466045e-02 4.871103e-02 -1.861644e-02 2.761324e-03 3.029627e-02 -2.700926e-02 1.636695e-02 -6.585941e-02 -2.281700e-01 -1.727146e-01 1.402244e-01 -1.865674e-02 -3.583629e-02 -1.482811e-02 1.922076e-03 -8.050275e-03 -5.542874e-02 -3.925282e-02 -2.376674e-02 -4.233076e-02 -1.471510e-02 2.729572e-03 -1.745136e-02 -1.899267e-02
<VARIANCE> 39
 4.404486e+01 5.019159e+01 2.832037e+01 6.436231e+01 8.890132e+01 5.244549e+01 4.595346e+01 8.832880e+01 5.301717e+01 3.641034e+01 5.365361e+01 7.241077e+01 1.162784e+02 1.862874e+00 3.197011e+00 2.552757e+00 4.662929e+00 6.346301e+00 3.269828e+00 3.701319e+00 2.857069e+00 2.981855e+00 2.803359e+00 4.224944e+00 5.430721e+00 1.836949e+00 2.306738e-01 4.506882e-01 4.270126e-01 6.536625e-01 7.829581e-01 5.947868e-01 6.011941e-01 4.864577e-01 5.525638e-01 5.038714e-01 6.308172e-01 7.564734e-01 2.354148e-01
<GCONST> 1.307472e+02
<STATE> 3
<MEAN> 39
 -1.812011e+00 9.576006e+00 1.211387e+00 1.052283e+01 7.869029e+00 -1.589262e+00 -7.275678e+00 -4.595876e+00 -4.502638e-01 -4.051046e+00 -4.172739e+00 -1.113111e+00 6.681232e+01 2.632350e-01 1.942950e-03 -9.465438e-02 -1.168973e-01 -2.940790e-02 -2.421961e-02 -2.088691e-01 -1.871139e-01 -1.344852e-01 -1.214109e-01 1.235636e-01 1.907409e-01 2.527553e-01 -2.534163e-02 -1.745437e-01 -1.312719e-01 -2.635357e-01 -2.537428e-01 1.014985e-02 2.234425e-01 7.579374e-02 5.958082e-03 3.545645e-02 1.694320e-01 1.288603e-01 7.782152e-02
<VARIANCE> 39
 7.537139e+00 2.948812e+01 1.482980e+01 1.931494e+01 4.423156e+01 5.510968e+01 2.124600e+01 2.891118e+01 1.797340e+01 1.848476e+01 1.676982e+01 1.883927e+01 1.169955e+01 3.933893e-01 7.529793e-01 9.487039e-01 1.269391e+00 1.244055e+00 9.497677e-01 1.642558e+00 7.187397e-01 8.587776e-01 8.384552e-01 1.029977e+00 1.078905e+00 4.064966e-01 7.163205e-02 1.199642e-01 1.610697e-01 1.809904e-01 1.921468e-01 2.028851e-01 2.473731e-01 1.467792e-01 1.538219e-01 1.632601e-01 1.822219e-01 2.286319e-01 6.849570e-02
<GCONST> 8.476172e+01
<STATE> 4
<MEAN> 39
 1.406173e+00 -5.039060e+00 2.993678e+00 -8.378080e+00 4.980549e+00 -1.663661e+01 1.646919e+01 -1.622187e+01 -2.956111e+00 -9.882918e+00 -4.100021e+00 -1.538112e+00 7.646649e+01 8.408935e-02 -3.272368e-01 -3.255091e-01 -4.943068e-01 -4.414333e-01 5.512070e-02 1.801438e-01 3.467730e-01 1.644178e-01 3.014580e-03 2.541683e-01 2.942226e-01 2.348518e-01 -3.450333e-02 3.067216e-02 4.497419e-02 3.915400e-02 2.588082e-02 2.321898e-02 -5.674097e-02 3.410947e-02 5.784252e-02 5.055440e-03 -5.809703e-02 -3.759371e-02 -3.339291e-02
<VARIANCE> 39
 2.075326e+01 6.782654e+01 5.094608e+01 7.232603e+01 8.802708e+01 1.348524e+02 1.739447e+02 1.124954e+02 4.770958e+01 5.655465e+01 7.185072e+01 6.603248e+01 6.014688e+01 9.593313e-01 3.270518e+00 2.555087e+00 3.500841e+00 3.950325e+00 2.879329e+00 3.999570e+00 2.650737e+00 2.199984e+00 2.046750e+00 4.353976e+00 3.242228e+00 2.159878e+00 1.562136e-01 4.246481e-01 3.773123e-01 5.026486e-01 5.223462e-01 4.815230e-01 5.856676e-01 4.157453e-01 3.378347e-01 3.497134e-01 6.760132e-01 4.269383e-01 2.822768e-01
<GCONST> 1.281013e+02
<STATE> 5
<MEAN> 39
 -1.097268e+00 4.975094e+00 -4.521271e+00 -1.804591e-01 -3.965200e-01 -2.555228e+00 8.642137e-01 2.970939e+00 1.546618e+00 -6.322496e+00 -3.000537e+00 7.478347e-01 7.030793e+01 -3.002256e-01 5.856545e-02 1.501721e-01 1.875650e-01 9.209795e-02 -3.183314e-02 -5.186494e-02 -3.197262e-02 -5.448925e-02 3.621903e-02 -1.232229e-01 -1.767004e-01 -3.402161e-01 -3.367019e-03 2.789728e-03 1.700434e-02 2.815531e-02 1.055643e-02 -2.680588e-02 -3.715502e-02 -6.009189e-02 -4.361565e-02 1.313855e-03 3.494017e-02 3.748338e-03 -2.946296e-03
<VARIANCE> 39
 3.512340e+01 5.327262e+01 4.521536e+01 6.048712e+01 6.632468e+01 5.207381e+01 3.032191e+01 5.654350e+01 3.005823e+01 3.535220e+01 2.757670e+01 5.188864e+01 6.324327e+01 4.046228e-01 7.879239e-01 7.802867e-01 1.422135e+00 1.729267e+00 1.252885e+00 1.209025e+00 1.389219e+00 1.364632e+00 1.382961e+00 1.259721e+00 1.552773e+00 4.594699e-01 4.618884e-02 8.941807e-02 1.059131e-01 2.168321e-01 2.576541e-01 2.097702e-01 1.924863e-01 2.088884e-01 2.344148e-01 2.488987e-01 2.114565e-01 2.319599e-01 5.336913e-02
<GCONST> 9.770041e+01
<TRANSP> 6
 0.000000e+00 7.963750e-01 2.036250e-01 0.000000e+00 0.000000e+00 0.000000e+00
 0.000000e+00 9.214233e-01 2.691644e-02 5.166033e-02 0.000000e+00 0.000000e+00
 0.000000e+00 0.000000e+00 9.134561e-01 7.529382e-02 1.125006e-02 0.000000e+00
 0.000000e+00 0.000000e+00 0.000000e+00 9.127975e-01 4.315371e-02 4.404886e-02
 0.000000e+00 0.000000e+00 0.000000e+00 0.000000e+00 9.627234e-01 3.727664e-02
 0.000000e+00 0.000000e+00 0.000000e+00 0.000000e+00 0.000000e+00 0.000000e+00
<ENDHMM>
