~o
<STREAMINFO> 1 39
<VECSIZE> 39<NULLD><MFCC_D_A_0><DIAGC>
~h "lima"
<BEGINHMM>
<NUMSTATES> 6
<STATE> 2
<MEAN> 39
 2.005320e+00 5.225395e+00 -2.981998e-01 1.027225e+01 4.401733e+00 -4.160943e+00 -3.256032e+00 3.304718e+00 1.117132e+00 -7.013825e+00 -1.045960e+00 5.362510e-01 5.712534e+01 2.275003e-01 1.413210e-01 4.120009e-02 1.387416e-01 7.441115e-02 -3.015583e-01 -2.184527e-01 4.421921e-02 8.058755e-03 -6.477714e-02 -1.090290e-01 -4.391577e-02 1.964753e-01 -5.294253e-02 -2.972865e-02 -9.156747e-03 -9.035505e-02 -4.278808e-02 4.248372e-02 2.579861e-02 3.279021e-02 4.235763e-02 -1.035738e-02 4.476240e-03 3.310597e-02 -3.218461e-02
<VARIANCE> 39
 4.397929e+01 5.056999e+01 5.439607e+01 8.153287e+01 7.189187e+01 5.633563e+01 6.900697e+01 1.112153e+02 7.260498e+01 4.839598e+01 5.128104e+01 6.169522e+01 1.074700e+02 2.114621e+00 3.198881e+00 3.746435e+00 3.903098e+00 5.276637e+00 4.496824e+00 5.499644e+00 3.823061e+00 4.022584e+00 3.848528e+00 3.823489e+00 4.046871e+00 2.373228e+00 3.104131e-01 5.089532e-01 5.947337e-01 5.053096e-01 7.820201e-01 8.116643e-01 8.994582e-01 6.074467e-01 7.795972e-01 6.727976e-01 6.849705e-01 6.122195e-01 3.249982e-01
<GCONST> 1.363398e+02
<STATE> 3
<MEAN> 39
 3.442317e-01 -7.272543e+00 7.946251e+00 -1.088387e+01 5.704985e+00 -2.153396e+01 1.857749e+01 -1.539450e+01 -4.065372e+00 -1.118114e+01 -7.011417e+00 -3.746832e+00 7.776173e+01 1.591604e-02 -2.031385e-01 -1.267697e-01 -1.753472e-01 -1.483950e-01 1.985975e-01 1.350693e-01 6.095372e-02 1.019944e-01 -2.347539e-02 1.567677e-01 2.188808e-01 1.080004e-02 -2.216748e-02 5.750644e-03 -2.745959e-03 9.732997e-03 1.807977e-02 1.906567e-02 -8.831759e-03 -8.657248e-03 2.446857e-02 2.512967e-02 3.070853e-02 5.101075e-03 -2.094109e-02
<VARIANCE> 39
 2.588848e+01 5.717164e+01 6.160448e+01 8.456630e+01 9.981271e+01 1.736433e+02 1.076697e+02 6.691626e+01 4.965644e+01 3.559317e+01 5.490058e+01 5.653201e+01 4.553368e+01 8.151427e-01 2.885383e+00 2.067021e+00 2.710920e+00 4.250711e+00 4.224972e+00 3.076008e+00 4.197187e+00 2.851637e+00 2.706213e+00 3.373347e+00 3.053062e+00 2.256674e+00 1.359818e-01 3.989200e-01 2.877251e-01 3.719278e-01 6.465872e-01 6.430437e-01 4.327284e-01 7.079949e-01 5.769663e-01 5.107295e-01 5.939521e-01 5.303809e-01 2.905756e-01
<GCONST> 1.279059e+02
<STATE> 4
<MEAN> 39
 -2.115440e+00 7.698164e+00 1.819737e+00 1.043483e+01 7.298055e+00 -5.447511e+00 -8.863807e+00 -2.451799e+00 -1.764392e+00 -4.053704e+00 -1.719445e+00 -3.673050e+00 6.836977e+01 2.825487e-01 5.106920e-02 -4.780623e-01 -7.698820e-01 -5.386117e-01 -2.174988e-02 3.958560e-01 3.768609e-01 2.883609e-01 -1.871445e-02 -7.239838e-02 1.719580e-01 1.721896e-01 1.838140e-02 -1.018039e-01 -6.735516e-02 -1.249274e-01 -1.505219e-01 -2.966184e-03 1.059991e-01 2.951006e-02 -2.205768e-02 -2.830673e-02 1.125961e-01 1.619606e-01 6.749602e-02
<VARIANCE> 39
 1.409478e+01 5.913223e+01 4.312747e+01 7.026714e+01 7.623445e+01 3.408202e+01 3.604777e+01 3.689786e+01 3.041403e+01 2.500288e+01 2.759017e+01 2.620950e+01 2.312133e+01 4.854594e-01 1.279917e+00 1.582081e+00 2.632247e+00 2.825113e+00 2.390064e+00 2.265065e+00 1.595876e+00 1.286925e+00 1.322221e+00 2.180444e+00 2.521161e+00 6.383434e-01 7.345538e-02 1.372433e-01 2.054726e-01 2.980785e-01 3.231122e-01 3.846005e-01 3.530386e-01 2.461843e-01 2.174437e-01 2.457469e-01 2.961641e-01 2.929595e-01 6.436091e-02
<GCONST> 1.037305e+02
<STATE> 5
<MEAN> 39
 -7.153421e-01 3.355603e+00 -5.973472e+00 -3.291147e+00 -3.850336e+00 -4.579562e+00 8.465147e-01 2.893368e+00 2.399620e-01 -7.393789e+00 2.932814e-01 4.144164e+00 7.026929e+01 -3.859071e-01 -9.791774e-02 4.257466e-02 3.195814e-04 -2.484914e-03 2.668770e-01 1.001474e-01 -1.513802e-01 -7.407235e-02 4.353765e-02 2.348040e-02 1.160880e-01 -2.841088e-01 -5.042458e-02 8.284485e-02 7.116644e-02 1.160498e-01 1.197542e-01 1.164441e-02 -8.797645e-02 -6.579655e-02 1.426471e-02 5.076569e-02 -8.954269e-02 -1.563787e-01 -7.764418e-02
<VARIANCE> 39
 3.805165e+01 5.704658e+01 5.822209e+01 4.647423e+01 4.958437e+01 4.385686e+01 3.417599e+01 6.271924e+01 3.822742e+01 3.718294e+01 3.552858e+01 3.982693e+01 6.837534e+01 6.471167e-01 1.177591e+00 9.274810e-01 1.262195e+00 1.475425e+00 1.282001e+00 1.476009e+00 1.245071e+00 1.724310e+00 1.792708e+00 1.436883e+00 1.911579e+00 1.085829e+00 9.284456e-02 1.486891e-01 1.668110e-01 2.428101e-01 2.743345e-01 2.517601e-01 2.748896e-01 2.814642e-01 2.781954e-01 3.109881e-01 2.733389e-01 3.101346e-01 1.099144e-01
<GCONST> 1.048661e+02
<TRANSP> 6
 0.000000e+00 8.000380e-01 1.999620e-01 0.000000e+00 0.000000e+00 0.000000e+00
 0.000000e+00 9.237911e-01 9.239743e-03 6.696922e-02 0.000000e+00 0.000000e+00
 0.000000e+00 0.000000e+00 9.621782e-01 0.000000e+00 3.782189e-02 0.000000e+00
 0.000000e+00 0.000000e+00 0.000000e+00 9.255632e-01 5.641287e-02 1.802396e-02
 0.000000e+00 0.000000e+00 0.000000e+00 0.000000e+00 9.261987e-01 7.380133e-02
 0.000000e+00 0.000000e+00 0.000000e+00 0.000000e+00 0.000000e+00 0.000000e+00
<ENDHMM>
