~o
<STREAMINFO> 1 39
<VECSIZE> 39<NULLD><MFCC_D_A_0><DIAGC>
~h "sebelas"
<BEGINHMM>
<NUMSTATES> 6
<STATE> 2
<MEAN> 39
 -1.833982e+01 -1.012202e+01 7.746041e+00 -3.023113e+00 -3.269745e+00 1.859648e+00 1.396744e+00 -5.422718e+00 -4.748075e+00 2.242250e-01 3.590273e+00 1.836221e+00 6.355388e+01 8.557298e-01 5.961601e-01 -2.274323e-01 3.661831e-01 3.350790e-01 -2.986186e-01 -3.691630e-01 -1.254624e-01 -1.969277e-01 -4.097862e-01 -1.276334e-01 1.852273e-01 1.238090e-01 4.528159e-01 4.727933e-01 -1.119861e-01 3.025970e-01 1.332957e-01 -1.259779e-01 -9.596777e-02 1.584583e-01 8.430398e-02 -2.984894e-01 -1.649777e-01 -4.722910e-03 -3.255175e-02
<VARIANCE> 39
 5.656252e+01 8.591340e+01 7.182698e+01 5.755400e+01 6.101888e+01 3.779961e+01 7.804208e+01 3.419852e+01 7.061155e+01 3.712719e+01 2.432241e+01 2.493212e+01 1.286005e+02 8.016079e+00 1.032823e+01 7.061447e+00 6.333214e+00 4.333936e+00 4.280828e+00 2.828753e+00 3.056745e+00 4.696604e+00 4.087914e+00 2.317033e+00 2.261378e+00 2.783047e+00 5.066991e-01 7.442393e-01 1.127887e+00 7.692897e-01 6.394381e-01 7.583819e-01 4.560910e-01 5.527923e-01 8.412026e-01 6.173031e-01 5.331266e-01 4.702206e-01 3.498576e-01
<GCONST> 1.358831e+02
<STATE> 3
<MEAN> 39
 -5.016862e+00 -8.705955e+00 1.110878e+01 -1.736178e+01 8.459886e+00 -1.317639e+01 1.844946e+01 -1.471266e+01 7.219282e-01 -7.990345e+00 8.210170e-01 -1.281760e-01 7.991211e+01 1.849310e-01 -7.119580e-02 -1.282995e-01 9.587332e-02 -1.131376e-01 5.197911e-02 -1.199656e-02 8.447625e-02 2.428160e-03 5.871071e-02 2.055439e-02 -1.069835e-02 -8.384247e-02 6.999753e-04 -1.078808e-02 -1.275819e-02 -7.073760e-03 4.910456e-03 3.248120e-03 5.151197e-03 -5.088935e-03 -5.486737e-03 7.050372e-03 3.490977e-03 3.655183e-03 -2.752810e-03
<VARIANCE> 39
 1.214287e+02 6.042880e+01 7.930738e+01 5.040375e+01 1.228267e+02 6.595449e+01 4.736345e+01 7.017120e+01 9.809748e+01 4.460702e+01 5.320356e+01 3.639582e+01 5.655024e+01 3.969393e+00 3.408903e+00 3.518198e+00 2.366193e+00 4.969788e+00 3.083047e+00 3.513295e+00 4.354012e+00 5.196344e+00 3.335727e+00 3.021398e+00 2.754585e+00 2.916530e+00 4.467307e-01 4.441149e-01 4.163723e-01 3.287968e-01 6.550264e-01 5.451226e-01 6.482183e-01 7.417200e-01 8.555384e-01 5.823575e-01 4.890614e-01 4.839413e-01 4.261439e-01
<GCONST> 1.338318e+02
<STATE> 4
<MEAN> 39
 -2.767604e+00 1.526678e+00 3.856652e+00 4.502558e+00 -2.229579e+00 8.147275e-01 -1.320386e+00 -2.277537e+00 -2.586124e+00 -8.659940e+00 -9.016005e-01 3.674284e+00 6.162666e+01 1.214892e-01 4.326964e-02 -1.341397e-01 1.829510e-03 -7.348979e-02 -1.669231e-01 1.229167e-02 4.844677e-02 -6.627226e-02 -7.945989e-02 -7.253256e-02 3.418681e-02 2.479688e-03 -9.522954e-02 -1.150433e-01 -4.774643e-03 -7.356015e-02 -3.873495e-02 2.419477e-03 2.120781e-02 -2.256686e-02 -3.160269e-02 5.769103e-02 5.230859e-02 1.079315e-02 9.714535e-03
<VARIANCE> 39
 8.156857e+01 1.227990e+02 5.855973e+01 5.053371e+01 7.626012e+01 7.093723e+01 4.277294e+01 6.954264e+01 5.113328e+01 5.248987e+01 5.317542e+01 4.106477e+01 1.222236e+02 4.301925e+00 4.987375e+00 4.409363e+00 3.077249e+00 4.170061e+00 5.046898e+00 3.249883e+00 3.135040e+00 3.636097e+00 3.864321e+00 3.522565e+00 2.715440e+00 2.322558e+00 6.324015e-01 6.674592e-01 7.125614e-01 5.287920e-01 7.119151e-01 8.939365e-01 6.485024e-01 5.842239e-01 6.704763e-01 7.090418e-01 5.917559e-01 4.892048e-01 3.621305e-01
<GCONST> 1.363905e+02
<STATE> 5
<MEAN> 39
 -8.287024e+00 -2.069527e+00 -1.655276e+00 -5.701821e+00 -5.176789e+00 -5.289340e+00 -1.399621e+00 -4.219900e+00 -1.942015e+00 -3.162983e+00 2.312629e+00 3.712641e+00 7.274813e+01 -3.306910e-01 -8.928117e-02 -2.001087e-03 -1.545172e-01 -2.639797e-02 1.994975e-01 6.690118e-02 -1.528621e-02 1.679707e-01 2.274257e-01 7.866905e-02 -6.952654e-02 -2.460353e-01 8.720665e-03 4.010299e-02 2.711330e-03 3.172441e-02 2.123427e-02 1.967009e-02 -4.739492e-03 5.619829e-03 1.290665e-02 -1.422510e-02 -1.983578e-02 -2.185234e-02 -2.634800e-02
<VARIANCE> 39
 1.300327e+02 5.255286e+01 8.670897e+01 6.392139e+01 3.451582e+01 5.775886e+01 3.563518e+01 4.119790e+01 5.053664e+01 5.206794e+01 2.882478e+01 3.555798e+01 5.097208e+01 2.057483e+00 1.370089e+00 1.828389e+00 1.884024e+00 1.138171e+00 1.392842e+00 1.146694e+00 1.416710e+00 1.880444e+00 1.344802e+00 1.283016e+00 9.835067e-01 6.860980e-01 2.157384e-01 1.794418e-01 1.841015e-01 2.674608e-01 1.954225e-01 2.546407e-01 2.107299e-01 2.556131e-01 2.993095e-01 2.231765e-01 2.265428e-01 1.657074e-01 7.557859e-02
<GCONST> 1.060027e+02
<TRANSP> 6
 0.000000e+00 8.048672e-01 1.951328e-01 0.000000e+00 0.000000e+00 0.000000e+00
 0.000000e+00 8.672404e-01 0.000000e+00 1.327596e-01 0.000000e+00 0.000000e+00
 0.000000e+00 0.000000e+00 9.839820e-01 6.678993e-03 9.338995e-03 0.000000e+00
 0.000000e+00 0.000000e+00 0.000000e+00 9.619378e-01 2.180739e-02 1.625477e-02
 0.000000e+00 0.000000e+00 0.000000e+00 0.000000e+00 9.720377e-01 2.796228e-02
 0.000000e+00 0.000000e+00 0.000000e+00 0.000000e+00 0.000000e+00 0.000000e+00
<ENDHMM>
