~o
<STREAMINFO> 1 39
<VECSIZE> 39<NULLD><MFCC_D_A_0><DIAGC>
~h "sembilan"
<BEGINHMM>
<NUMSTATES> 6
<STATE> 2
<MEAN> 39
 -1.716925e+01 -7.910018e+00 8.741097e+00 -1.393726e+00 -9.302821e-01 6.793333e-01 2.967795e+00 -6.025376e+00 -2.915754e+00 -2.826800e-01 4.477807e+00 6.191936e-01 6.622782e+01 1.300300e+00 1.038286e+00 -2.676428e-01 7.425324e-01 5.318764e-01 -3.769172e-01 -3.124248e-01 -6.592166e-02 -3.312158e-01 -2.950014e-01 -3.252935e-01 -4.694619e-02 7.109161e-02 3.306157e-01 3.265281e-01 -1.170626e-01 1.750443e-01 2.415111e-01 -5.682476e-02 -1.162637e-01 1.054653e-01 8.333678e-03 -1.199911e-01 -1.731095e-01 -4.544741e-02 -4.787325e-02
<VARIANCE> 39
 7.568929e+01 9.431706e+01 6.753739e+01 1.057287e+02 9.532859e+01 5.495081e+01 8.034573e+01 5.087205e+01 5.557424e+01 4.062291e+01 2.555045e+01 2.016461e+01 1.224605e+02 7.682288e+00 1.062252e+01 6.151074e+00 4.520844e+00 5.932720e+00 5.111410e+00 4.065544e+00 4.319592e+00 4.126506e+00 3.012715e+00 2.511270e+00 2.153688e+00 3.001357e+00 7.165510e-01 1.014024e+00 1.075568e+00 6.087527e-01 7.444371e-01 8.951454e-01 7.255221e-01 6.651638e-01 6.230717e-01 5.890798e-01 4.163392e-01 4.180883e-01 4.256416e-01
<GCONST> 1.389080e+02
<STATE> 3
<MEAN> 39
 2.700791e+00 5.178947e+00 1.017694e+00 1.161145e+01 5.073370e+00 -4.675207e-01 -3.046798e+00 6.578687e-01 -2.028251e-01 -6.785335e+00 -1.635683e+00 2.883933e+00 5.588824e+01 1.517889e-01 4.886390e-02 5.759746e-02 1.003421e-01 -3.992479e-03 3.194039e-02 -1.033590e-01 1.046939e-03 5.594685e-02 -1.526175e-01 -6.582951e-02 5.489755e-03 8.278020e-02 -1.112278e-01 -1.542198e-01 8.390389e-03 -7.881394e-02 -1.209945e-01 3.195778e-02 3.474881e-02 -6.435150e-02 -2.259128e-02 3.388921e-02 7.524773e-02 1.376565e-02 1.177104e-02
<VARIANCE> 39
 3.087491e+01 7.084381e+01 4.895488e+01 4.973824e+01 8.765167e+01 6.208214e+01 3.936288e+01 6.991956e+01 4.984969e+01 3.246451e+01 4.363516e+01 5.920161e+01 8.996783e+01 1.501113e+00 4.946849e+00 3.988569e+00 3.818547e+00 5.722979e+00 5.077959e+00 3.365433e+00 3.324461e+00 3.912528e+00 2.627125e+00 3.922477e+00 3.728128e+00 1.366396e+00 2.325870e-01 6.780283e-01 7.153546e-01 6.131881e-01 8.332512e-01 9.864899e-01 6.583409e-01 5.982553e-01 7.352521e-01 5.156280e-01 6.389052e-01 5.865019e-01 2.070024e-01
<GCONST> 1.319447e+02
<STATE> 4
<MEAN> 39
 1.078905e+00 -6.823118e+00 5.796123e+00 -8.737233e+00 7.325282e+00 -1.888749e+01 1.312899e+01 -1.776347e+01 -3.569447e+00 -8.949867e+00 -3.986723e+00 -2.686440e+00 7.751142e+01 2.588161e-02 -2.580018e-01 -1.333251e-01 -1.425778e-01 -2.560217e-01 1.488917e-01 2.154082e-01 7.848987e-02 2.040324e-01 8.447541e-02 9.019642e-02 2.435638e-02 1.053603e-01 -3.767905e-02 3.810315e-03 1.183114e-02 -2.438253e-02 6.145273e-03 4.457928e-02 8.990212e-04 3.743592e-02 4.959408e-02 2.245089e-02 1.995620e-02 3.873869e-03 -6.222882e-03
<VARIANCE> 39
 2.194037e+01 7.860721e+01 3.884953e+01 7.086964e+01 7.898072e+01 1.417236e+02 1.004571e+02 5.739063e+01 5.352394e+01 4.584763e+01 5.299957e+01 4.861771e+01 6.099026e+01 1.208926e+00 4.273548e+00 2.522074e+00 4.191490e+00 3.606260e+00 3.877010e+00 3.160277e+00 3.899851e+00 3.664108e+00 3.480854e+00 3.841313e+00 3.228789e+00 2.570809e+00 2.235523e-01 5.548403e-01 4.320160e-01 6.912549e-01 5.108153e-01 7.009681e-01 5.333395e-01 7.104338e-01 6.782163e-01 6.239640e-01 6.594104e-01 5.299961e-01 3.349406e-01
<GCONST> 1.316630e+02
<STATE> 5
<MEAN> 39
 -9.366562e-01 5.000770e+00 -1.600100e+00 4.490048e+00 1.203167e+00 -4.834408e+00 -4.928673e+00 -4.176245e+00 -2.562446e+00 -4.998420e+00 1.037906e+00 2.496603e+00 7.079515e+01 -6.771241e-02 -3.987633e-02 -1.851337e-01 -8.841351e-02 -5.644199e-02 -1.353460e-02 6.922534e-02 6.190703e-02 4.038359e-02 4.001959e-02 1.160952e-02 6.788512e-02 -8.538160e-02 -1.397866e-02 -2.405090e-02 9.704225e-04 -1.848968e-02 -8.637665e-03 -1.768554e-03 1.105287e-02 -9.699329e-03 -1.397180e-02 5.527130e-03 1.807002e-02 9.001294e-03 6.862911e-03
<VARIANCE> 39
 2.398633e+01 5.299084e+01 6.044483e+01 7.433041e+01 6.988840e+01 5.089128e+01 3.884789e+01 4.957725e+01 4.088657e+01 4.017575e+01 4.922271e+01 4.881908e+01 4.798886e+01 4.665270e-01 1.312698e+00 1.160861e+00 1.676637e+00 1.639905e+00 1.569730e+00 1.895636e+00 1.602973e+00 1.996823e+00 1.625475e+00 1.660799e+00 1.723820e+00 6.276032e-01 5.303150e-02 1.824323e-01 1.475863e-01 2.057653e-01 2.277173e-01 2.785553e-01 3.271830e-01 2.852746e-01 3.281596e-01 2.786440e-01 2.812124e-01 2.539988e-01 6.953185e-02
<GCONST> 1.050712e+02
<TRANSP> 6
 0.000000e+00 7.186757e-01 2.813243e-01 0.000000e+00 0.000000e+00 0.000000e+00
 0.000000e+00 8.847842e-01 9.697231e-02 1.824344e-02 0.000000e+00 0.000000e+00
 0.000000e+00 0.000000e+00 9.323777e-01 2.158401e-02 4.603826e-02 0.000000e+00
 0.000000e+00 0.000000e+00 0.000000e+00 9.639378e-01 2.309017e-03 3.375314e-02
 0.000000e+00 0.000000e+00 0.000000e+00 0.000000e+00 9.735216e-01 2.647843e-02
 0.000000e+00 0.000000e+00 0.000000e+00 0.000000e+00 0.000000e+00 0.000000e+00
<ENDHMM>
