~o
<STREAMINFO> 1 39
<VECSIZE> 39<NULLD><MFCC_D_A_0><DIAGC>
~h "sil"
<BEGINHMM>
<NUMSTATES> 6
<STATE> 2
<MEAN> 39
 -1.249887e+01 3.583026e+00 -6.159094e+00 -2.943359e+00 -2.991829e+00 -6.801487e-01 4.040448e-01 -1.043225e+00 -4.620366e+00 -4.545038e+00 -5.087552e-01 9.167082e-01 3.844934e+01 -1.108923e-01 6.549934e-02 -1.063021e-01 4.321185e-02 8.066361e-02 -5.005525e-02 -4.753792e-02 -1.392047e-02 2.312837e-03 2.969660e-02 1.167928e-03 3.275747e-03 -4.067669e-02 8.504489e-03 -1.567007e-02 4.167395e-02 1.122949e-02 -3.581681e-03 6.464858e-03 -2.165743e-02 1.281624e-02 3.085256e-02 1.364300e-02 -7.124844e-03 -3.025068e-03 1.845690e-02
<VARIANCE> 39
 3.205003e+01 4.488203e+01 8.824084e+01 5.936953e+01 4.550726e+01 4.613783e+01 5.331372e+01 4.857382e+01 7.085706e+01 5.314624e+01 4.267747e+01 3.445166e+01 1.226315e+02 1.225577e+00 1.965810e+00 2.904261e+00 3.076577e+00 2.910179e+00 3.668957e+00 3.814839e+00 4.118204e+00 4.428146e+00 4.332373e+00 3.771967e+00 3.354558e+00 2.123411e+00 1.885239e-01 2.792110e-01 4.306043e-01 5.310585e-01 5.519150e-01 7.333558e-01 7.701211e-01 8.309671e-01 8.737760e-01 8.879575e-01 7.767727e-01 6.839229e-01 2.594876e-01
<GCONST> 1.297881e+02
<STATE> 3
<MEAN> 39
 -1.008882e+01 -6.196741e+00 3.037838e+00 -6.349646e+00 8.370337e+00 -3.448674e+00 1.270979e+01 -5.281452e+00 5.060122e+00 -2.569621e+00 6.842550e+00 1.402256e-01 6.305462e+01 -1.870686e-02 7.183728e-02 -3.731959e-02 1.053196e-01 6.846386e-02 1.360789e-02 -4.624364e-02 2.013246e-02 2.846676e-02 -2.185765e-02 -4.326843e-02 -2.737521e-02 -9.908561e-02 -1.024625e-03 4.699542e-03 2.559207e-02 -4.422830e-03 6.860910e-03 -1.419002e-02 1.116362e-02 -1.344677e-02 -5.399650e-03 -2.136205e-02 -8.974168e-04 -1.040809e-02 2.735112e-02
<VARIANCE> 39
 2.655859e+01 4.662963e+01 4.288065e+01 4.595179e+01 5.882174e+01 3.385484e+01 6.680199e+01 3.099743e+01 5.354440e+01 3.103243e+01 3.158413e+01 1.946246e+01 3.903003e+01 4.592587e-01 7.938662e-01 8.480946e-01 1.250162e+00 1.123795e+00 1.186575e+00 1.262990e+00 1.578636e+00 1.601552e+00 1.568865e+00 1.351970e+00 1.170033e+00 6.013944e-01 8.232839e-02 1.173001e-01 1.446487e-01 2.236817e-01 2.112371e-01 2.370672e-01 2.509484e-01 3.096454e-01 2.976039e-01 3.118659e-01 2.573781e-01 2.361869e-01 1.069146e-01
<GCONST> 9.898354e+01
<STATE> 4
<MEAN> 39
 -1.597719e+01 2.278264e+00 -4.355494e+00 -3.482944e-01 -1.320738e+00 -1.040359e+00 3.153095e-02 -1.014086e+00 -4.951223e-01 -8.684662e-01 -2.540930e-01 -1.259452e+00 5.728216e+01 -2.093981e-02 2.097606e-02 9.368313e-03 2.477258e-02 1.210567e-02 -1.550674e-02 1.297187e-02 2.822834e-02 1.822429e-02 6.705246e-03 -9.019552e-03 -1.883635e-02 -2.124310e-02 4.389042e-03 -2.062967e-03 6.081940e-03 1.488264e-03 1.363788e-03 2.246463e-03 2.013031e-04 -2.910229e-03 -1.218559e-03 -9.122153e-04 1.295404e-03 9.196393e-04 8.372732e-03
<VARIANCE> 39
 3.145024e+00 5.491073e+00 7.057611e+00 8.366855e+00 7.847188e+00 1.626848e+01 1.589809e+01 2.248566e+01 9.976368e+00 1.181515e+01 1.152110e+01 9.896773e+00 2.683928e+01 6.969918e-02 1.373909e-01 2.325262e-01 3.189310e-01 4.340765e-01 5.289744e-01 6.470890e-01 6.867566e-01 6.854870e-01 6.616685e-01 6.436125e-01 5.839933e-01 3.198966e-02 1.324253e-02 2.797230e-02 4.451459e-02 6.430933e-02 9.084306e-02 1.073832e-01 1.341447e-01 1.409753e-01 1.388595e-01 1.361104e-01 1.298892e-01 1.168018e-01 5.778009e-03
<GCONST> 5.171947e+01
<STATE> 5
<MEAN> 39
 -1.209988e+01 -1.811657e-01 7.441710e-01 -7.036527e-01 1.579493e+00 -3.449298e+00 2.150220e+00 -3.844956e+00 2.073472e-02 -3.983248e+00 5.439914e-01 -7.164026e-01 5.740380e+01 6.229733e-01 -1.187130e-01 4.246026e-01 1.357594e-01 2.588219e-02 -3.074868e-01 -1.698852e-01 -3.168157e-01 -2.603413e-01 -3.085303e-01 -8.434471e-02 -6.552027e-02 1.047583e+00 8.898824e-02 -1.167575e-02 1.289299e-02 3.118074e-02 2.213686e-02 -2.953953e-02 -3.160642e-02 -7.801789e-03 -2.668007e-02 -3.127626e-02 -9.160671e-04 8.204050e-03 9.057109e-02
<VARIANCE> 39
 8.263226e+01 7.720964e+01 6.725101e+01 7.214056e+01 7.944246e+01 6.440659e+01 8.760466e+01 6.422181e+01 5.910186e+01 4.302877e+01 3.964282e+01 3.204179e+01 1.935869e+02 3.981893e+00 5.350590e+00 3.795446e+00 4.083463e+00 4.804863e+00 4.210811e+00 3.855974e+00 4.277784e+00 4.076782e+00 3.146121e+00 3.383794e+00 2.788251e+00 4.939453e+00 6.233480e-01 9.601595e-01 6.978043e-01 6.694632e-01 8.216696e-01 8.013947e-01 7.244922e-01 7.984431e-01 7.305642e-01 5.879753e-01 6.191567e-01 5.268688e-01 8.805465e-01
<GCONST> 1.400256e+02
<TRANSP> 6
 0.000000e+00 3.549604e-01 6.450396e-01 0.000000e+00 0.000000e+00 0.000000e+00
 0.000000e+00 9.589699e-01 3.255179e-02 8.478261e-03 0.000000e+00 0.000000e+00
 0.000000e+00 0.000000e+00 9.020476e-01 6.201433e-02 3.593801e-02 0.000000e+00
 0.000000e+00 0.000000e+00 0.000000e+00 9.780644e-01 1.646707e-02 5.468483e-03
 0.000000e+00 0.000000e+00 0.000000e+00 0.000000e+00 8.935643e-01 1.064356e-01
 0.000000e+00 0.000000e+00 0.000000e+00 0.000000e+00 0.000000e+00 0.000000e+00
<ENDHMM>
