~o
<STREAMINFO> 1 39
<VECSIZE> 39<NULLD><MFCC_D_A_0><DIAGC>
~h "tujuh"
<BEGINHMM>
<NUMSTATES> 6
<STATE> 2
<MEAN> 39
 4.973727e-01 -1.276766e+00 1.494345e+00 1.235030e+01 2.004143e+00 7.606200e-01 -5.801871e+00 3.234647e+00 -1.235890e+00 -1.140628e+01 1.701828e+00 2.974064e+00 5.088342e+01 4.512664e-01 -4.156274e-01 4.154046e-01 5.351508e-01 1.907367e-01 2.330230e-01 -4.625547e-01 -1.123778e-01 2.459702e-01 -2.782744e-01 1.631653e-01 1.758237e-01 5.445179e-01 5.425130e-02 1.089172e-01 -3.019756e-02 -5.440671e-02 6.007780e-02 6.284918e-02 -7.638634e-02 -9.084610e-02 -1.649306e-02 -3.579427e-02 -3.685731e-02 8.522509e-03 -8.248636e-03
<VARIANCE> 39
 3.060792e+01 1.059635e+02 4.694978e+01 7.266100e+01 6.793970e+01 4.193492e+01 6.048053e+01 5.199190e+01 3.524319e+01 5.950847e+01 3.744283e+01 3.275522e+01 4.476829e+01 3.125637e+00 1.613944e+01 4.631606e+00 4.383992e+00 8.483670e+00 4.639375e+00 8.269035e+00 6.280701e+00 3.910321e+00 7.714660e+00 4.985160e+00 3.771545e+00 5.466651e+00 4.806053e-01 3.558038e+00 9.972362e-01 8.042944e-01 1.686139e+00 9.057903e-01 1.467351e+00 1.172974e+00 8.242680e-01 1.487952e+00 9.843323e-01 7.670827e-01 1.015244e+00
<GCONST> 1.462810e+02
<STATE> 3
<MEAN> 39
 -6.789059e+00 -1.503818e+00 1.662506e+00 1.516477e+01 1.602916e+01 3.464421e+00 -8.682798e+00 -2.479460e+00 -4.808816e-01 -1.814021e+00 2.560291e+00 8.963608e-01 6.861468e+01 2.289640e-01 -2.957229e-01 3.222191e-01 2.807871e-01 6.001362e-01 3.599860e-01 -5.846448e-01 -4.567761e-01 -1.353596e-01 -2.347123e-01 3.785518e-02 8.222416e-02 4.198985e-01 7.476399e-02 9.086692e-02 -1.632154e-01 -1.357336e-01 -1.404615e-01 1.198638e-02 6.158613e-02 3.551467e-02 -8.128517e-02 -5.672221e-02 -5.769167e-02 4.144603e-02 -5.143342e-02
<VARIANCE> 39
 2.459852e+01 5.055518e+01 4.134430e+01 2.399360e+01 3.230536e+01 3.233652e+01 4.658475e+01 4.961950e+01 3.249477e+01 2.302055e+01 1.572276e+01 1.848452e+01 1.510738e+01 3.553231e+00 5.014451e+00 3.717684e+00 2.360192e+00 3.478974e+00 2.036029e+00 4.926596e+00 3.785408e+00 3.883485e+00 2.285695e+00 1.595703e+00 1.165030e+00 1.842329e+00 5.293679e-01 9.323960e-01 7.540963e-01 4.414465e-01 7.066243e-01 4.099578e-01 9.243612e-01 8.144603e-01 5.805013e-01 3.912594e-01 3.333783e-01 2.191125e-01 2.762802e-01
<GCONST> 1.200404e+02
<STATE> 4
<MEAN> 39
 3.552573e+00 -3.148444e+00 3.894553e+00 1.013370e+01 5.945766e+00 7.547887e+00 -1.297232e+01 -1.756893e+00 1.110960e+00 -1.554128e+01 -7.130294e-02 5.944671e+00 6.381119e+01 4.851830e-01 1.519980e+00 -9.015164e-01 -1.623070e+00 -1.159996e+00 -3.317118e-01 1.292560e+00 1.699253e+00 3.022165e-01 -5.954874e-01 -9.690037e-01 7.386465e-02 -4.417596e-01 -4.676343e-01 -1.039555e-03 9.002500e-02 1.465238e-01 -7.530055e-02 -3.184701e-01 5.668678e-01 4.442210e-01 2.663908e-01 4.795039e-01 2.448104e-03 -3.210631e-01 -2.850948e-01
<VARIANCE> 39
 1.766883e+01 3.272930e+01 3.127231e+01 3.243419e+01 8.922346e+01 3.181454e+01 3.398389e+01 8.704743e+01 8.272477e+01 4.041414e+01 2.797468e+01 2.430538e+01 8.403890e+01 1.379037e+00 1.414138e+00 2.673872e+00 2.182807e+00 4.471996e+00 3.070467e+00 4.327235e+00 3.557908e+00 2.649337e+00 3.398303e+00 2.320189e+00 2.499693e+00 8.502050e-01 1.707162e-01 2.761581e-01 5.661601e-01 6.355391e-01 8.777192e-01 5.022942e-01 6.657563e-01 9.580278e-01 7.837470e-01 5.620491e-01 4.820018e-01 4.019967e-01 1.141850e-01
<GCONST> 1.215733e+02
<STATE> 5
<MEAN> 39
 -1.812934e+00 5.729395e+00 -2.307456e+00 5.393839e+00 3.266218e+00 1.274945e+00 -2.186847e+00 3.373212e+00 6.212438e-02 -6.644081e+00 -3.062867e+00 1.286791e+00 6.020364e+01 -5.121807e-01 2.564436e-01 -2.520260e-01 -2.250764e-01 -3.669947e-01 -2.291869e-01 5.405966e-01 -1.068107e-01 -1.898031e-02 6.326523e-01 -7.395943e-02 -1.417354e-01 -5.577855e-01 4.588091e-02 -1.874715e-01 7.755961e-02 6.851623e-03 1.850496e-02 9.747124e-02 -1.917957e-01 -1.690386e-01 -1.467615e-02 -6.486832e-02 1.004837e-01 1.149099e-01 1.370846e-01
<VARIANCE> 39
 3.907732e+01 3.777295e+01 4.627057e+01 5.358371e+01 5.048553e+01 4.321176e+01 5.214141e+01 6.418837e+01 2.820227e+01 3.958316e+01 1.980313e+01 2.454241e+01 1.303482e+02 1.236662e+00 2.168272e+00 2.868153e+00 1.649988e+00 2.700607e+00 3.010461e+00 3.273429e+00 2.874518e+00 2.483721e+00 2.829798e+00 2.028822e+00 2.212215e+00 1.402259e+00 1.856549e-01 2.438909e-01 4.580620e-01 2.820028e-01 4.245890e-01 5.255260e-01 5.992518e-01 5.360528e-01 3.801014e-01 4.650510e-01 4.218777e-01 3.454486e-01 1.725312e-01
<GCONST> 1.181424e+02
<TRANSP> 6
 0.000000e+00 5.718920e-01 4.281080e-01 0.000000e+00 0.000000e+00 0.000000e+00
 0.000000e+00 9.431511e-01 7.151453e-03 4.969754e-02 0.000000e+00 0.000000e+00
 0.000000e+00 0.000000e+00 9.507725e-01 4.922756e-02 0.000000e+00 0.000000e+00
 0.000000e+00 0.000000e+00 0.000000e+00 8.163373e-01 1.664433e-01 1.721938e-02
 0.000000e+00 0.000000e+00 0.000000e+00 0.000000e+00 9.138943e-01 8.610574e-02
 0.000000e+00 0.000000e+00 0.000000e+00 0.000000e+00 0.000000e+00 0.000000e+00
<ENDHMM>
