~o
<STREAMINFO> 1 39
<VECSIZE> 39<NULLD><MFCC_D_A_0><DIAGC>
~h "bagi"
<BEGINHMM>
<NUMSTATES> 6
<STATE> 2
<MEAN> 39
 -4.868996e+00 -9.662854e+00 1.588219e+00 -1.484962e+01 2.619838e+00 -1.863438e+01 1.189027e+01 -1.259229e+01 -6.710820e+00 -2.623194e+00 5.726132e-01 -7.888833e-01 7.792294e+01 -2.014299e-01 -5.711109e-02 2.178579e-01 5.086008e-01 4.360744e-01 -2.000799e-01 -3.150924e-01 -4.293131e-01 -2.153465e-02 5.610383e-02 2.608010e-01 -1.490157e-01 5.257306e-02 5.750874e-03 1.830174e-01 1.575305e-01 2.421390e-01 1.523522e-01 -6.175233e-02 -5.946902e-02 -8.027463e-02 4.091417e-02 -2.031246e-01 -6.473111e-02 -2.007107e-01 -9.497897e-02
<VARIANCE> 39
 4.802284e+01 7.750131e+01 3.025361e+01 8.683141e+01 3.496408e+01 1.065751e+02 1.210919e+02 5.217996e+01 3.123723e+01 2.459068e+01 2.729278e+01 1.931881e+01 1.605889e+02 2.444398e-01 1.173478e+00 1.241015e+00 2.105203e+00 1.442208e+00 2.487641e+00 2.055919e+00 1.907637e+00 1.709065e+00 2.004135e+00 1.821823e+00 1.947347e+00 1.017392e+00 5.520648e-02 1.654256e-01 1.802531e-01 2.793756e-01 2.678306e-01 4.001487e-01 2.639160e-01 3.284389e-01 3.211840e-01 3.500522e-01 4.157314e-01 3.712056e-01 1.652448e-01
<GCONST> 1.093902e+02
<STATE> 3
<MEAN> 39
 1.512941e+00 2.794574e+00 -5.347230e-02 1.026342e+01 3.884470e+00 -2.616621e+00 -4.215680e+00 6.529484e+00 2.830743e-01 -8.187032e+00 7.592937e-01 1.695868e-01 5.664240e+01 6.670305e-01 -7.443734e-02 -8.954645e-02 9.895689e-02 -3.642477e-02 -5.401598e-01 -6.135059e-01 2.128161e-03 -1.594406e-01 -3.200158e-01 2.967284e-01 1.937526e-01 5.667351e-01 -3.849726e-02 -1.263105e-01 -4.539892e-02 -1.170931e-01 -1.195243e-01 -4.322209e-02 2.236288e-02 -4.958139e-02 1.259131e-02 6.782965e-02 5.606159e-02 1.003865e-01 3.789911e-02
<VARIANCE> 39
 4.869032e+01 5.313756e+01 4.290762e+01 9.497562e+01 6.896412e+01 6.876820e+01 5.428519e+01 4.115742e+01 3.536913e+01 6.588567e+01 5.099042e+01 3.807332e+01 9.767378e+01 3.643302e+00 5.395963e+00 4.814192e+00 4.521979e+00 5.317716e+00 7.815319e+00 5.348679e+00 3.250577e+00 4.138148e+00 5.930675e+00 4.800663e+00 4.493957e+00 3.246184e+00 5.094030e-01 8.380187e-01 8.941499e-01 7.533569e-01 8.381764e-01 1.453836e+00 1.042418e+00 6.529214e-01 8.478500e-01 1.054936e+00 8.799573e-01 7.441098e-01 4.940469e-01
<GCONST> 1.413485e+02
<STATE> 4
<MEAN> 39
 -5.978559e+00 -7.935942e+00 1.574417e+01 -5.620064e+00 1.595499e+01 -2.583299e+01 5.454936e+00 -1.437318e+01 -2.841238e+00 -1.173150e+01 -6.884469e-01 -7.179211e+00 7.750920e+01 -1.493780e-02 1.695706e-01 7.364745e-02 -1.979171e-02 -8.497803e-03 7.284593e-02 3.196411e-02 3.050503e-01 1.979023e-01 -2.602779e-01 -1.990466e-01 -6.702407e-02 -1.978634e-01 3.527167e-02 -4.384636e-02 -3.917991e-02 -7.295204e-02 -1.050901e-01 2.614175e-03 5.957022e-02 6.071709e-02 -2.968622e-02 4.526854e-02 1.485721e-02 4.618476e-02 4.575656e-02
<VARIANCE> 39
 4.092415e+01 4.116497e+01 5.159306e+01 7.016068e+01 2.911402e+01 1.330860e+02 5.864960e+01 6.954559e+01 5.728202e+01 3.879737e+01 4.863401e+01 4.121008e+01 5.166383e+01 2.980771e+00 4.258556e+00 3.159392e+00 4.209988e+00 3.287043e+00 1.003724e+01 4.434692e+00 4.621815e+00 5.832320e+00 3.632132e+00 4.216137e+00 3.571251e+00 4.093044e+00 4.524068e-01 6.113443e-01 4.259749e-01 5.988891e-01 5.867496e-01 1.442117e+00 7.389856e-01 9.045790e-01 9.765805e-01 7.011769e-01 7.436417e-01 6.689270e-01 6.099302e-01
<GCONST> 1.371579e+02
<STATE> 5
<MEAN> 39
 -4.009088e+00 3.821900e+00 -2.827275e-01 6.204881e+00 3.039214e+00 -8.985988e+00 -7.862587e+00 -2.616105e+00 -4.170425e+00 -6.124723e+00 4.461161e-01 -4.772904e-01 7.052517e+01 -3.136287e-01 1.059116e-02 1.668559e-01 1.697818e-01 2.170853e-01 2.295270e-01 7.197390e-02 -1.358959e-01 1.080186e-02 9.120936e-02 -7.245239e-02 -1.807703e-01 -1.953983e-01 -1.589257e-02 2.698131e-02 2.992886e-02 7.082974e-03 1.486639e-02 2.186912e-02 1.298377e-02 7.402456e-04 -1.211735e-03 -1.471011e-02 -3.500748e-02 -3.221087e-02 -1.111563e-02
<VARIANCE> 39
 3.918508e+01 4.226139e+01 3.790896e+01 6.080868e+01 6.210220e+01 3.563650e+01 3.676222e+01 2.054924e+01 2.290288e+01 5.486015e+01 5.825280e+01 5.239515e+01 2.535561e+01 9.121271e-01 1.209225e+00 1.143433e+00 1.783917e+00 1.455301e+00 1.766142e+00 1.844754e+00 1.245754e+00 1.740084e+00 1.253349e+00 1.286952e+00 1.345717e+00 6.887217e-01 1.217457e-01 1.875400e-01 1.679088e-01 2.366108e-01 2.302744e-01 2.943067e-01 2.901939e-01 2.294527e-01 3.128440e-01 2.471072e-01 2.414870e-01 2.395488e-01 8.865289e-02
<GCONST> 1.028583e+02
<TRANSP> 6
 0.000000e+00 4.227451e-01 5.772549e-01 0.000000e+00 0.000000e+00 0.000000e+00
 0.000000e+00 8.789225e-01 4.947773e-02 7.159981e-02 0.000000e+00 0.000000e+00
 0.000000e+00 0.000000e+00 9.281934e-01 1.792760e-02 5.387905e-02 0.000000e+00
 0.000000e+00 0.000000e+00 0.000000e+00 9.504584e-01 0.000000e+00 4.954161e-02
 0.000000e+00 0.000000e+00 0.000000e+00 0.000000e+00 9.752505e-01 2.474954e-02
 0.000000e+00 0.000000e+00 0.000000e+00 0.000000e+00 0.000000e+00 0.000000e+00
<ENDHMM>
