~o
<STREAMINFO> 1 39
<VECSIZE> 39<NULLD><PLP_D_A_0><DIAGC>
~h "bagi"
<BEGINHMM>
<NUMSTATES> 8
<STATE> 2
<MEAN> 39
 -3.873028e-01 -4.119748e-01 -7.270995e-01 -4.363930e-01 -6.934699e-01 -1.036648e+00 -6.629881e-01 -6.104346e-02 -3.219888e-01 -7.471398e-01 -1.957527e-01 3.056692e-02 4.693866e+00 1.995286e-01 -3.708384e-02 -5.338818e-02 -2.488262e-02 -1.047308e-01 -1.344150e-01 -7.719557e-02 3.074652e-02 -1.679291e-02 -8.523341e-02 7.266966e-02 7.040475e-02 1.721074e-01 -2.075448e-02 -5.711873e-02 1.475243e-02 -2.077235e-02 -1.782805e-02 1.389655e-02 2.893533e-03 -1.230039e-02 7.311517e-03 1.674585e-02 4.585130e-02 2.977097e-02 2.490648e-02
<VARIANCE> 39
 6.631849e-01 3.736147e-01 2.838989e-01 4.512331e-01 4.360180e-01 5.041242e-01 2.530674e-01 2.498358e-01 2.373320e-01 3.834585e-01 3.651142e-01 2.735947e-01 9.707224e-01 3.651678e-02 8.846358e-02 4.635416e-02 4.984445e-02 5.636313e-02 8.258598e-02 3.053509e-02 2.355751e-02 2.236476e-02 3.338321e-02 5.733534e-02 5.457224e-02 3.419366e-02 9.362189e-03 1.326509e-02 8.392565e-03 8.840240e-03 1.550386e-02 1.406511e-02 4.506530e-03 4.054577e-03 4.278321e-03 5.611415e-03 6.849111e-03 1.055176e-02 9.775185e-03
<GCONST> -4.417797e+01
<STATE> 3
<MEAN> 39
 -8.143255e-02 -1.091295e+00 -9.091076e-01 -1.115039e+00 -5.584637e-01 -1.771053e+00 -5.229201e-01 -4.329380e-01 -6.600129e-01 -1.550186e-01 6.651559e-01 5.417852e-01 6.170312e+00 -6.666861e-02 5.591923e-02 6.938003e-02 9.951020e-02 8.698010e-02 5.137330e-02 1.690981e-03 -8.671388e-02 -4.865767e-02 1.251019e-03 1.623088e-03 -1.006255e-02 -6.924903e-02 -3.460182e-02 4.146094e-02 4.196285e-02 5.249266e-02 3.720810e-02 2.407983e-02 -3.629140e-03 -7.779531e-03 2.712693e-03 -2.067162e-02 -4.397086e-02 -5.132241e-02 -5.036651e-02
<VARIANCE> 39
 5.840341e-02 8.474866e-01 3.091291e-01 8.735163e-01 4.991427e-01 3.222154e-01 1.059225e+00 2.900064e-01 2.519273e-01 5.811796e-01 3.535205e-01 1.164902e-01 4.985471e-01 6.781585e-03 2.691772e-02 1.906624e-02 1.765344e-02 1.117462e-02 3.482569e-02 2.381653e-02 1.358639e-02 2.659600e-02 1.883326e-02 2.382359e-02 1.622324e-02 1.516564e-02 1.407737e-03 8.772994e-03 2.693816e-03 3.805781e-03 4.459504e-03 8.459042e-03 4.777461e-03 3.688871e-03 6.937759e-03 4.879172e-03 3.600466e-03 4.529435e-03 4.249458e-03
<GCONST> -6.429147e+01
<STATE> 4
<MEAN> 39
 -5.408326e-01 -7.339261e-01 4.312229e-02 -3.368030e-01 9.494232e-02 -1.361533e+00 -4.036566e-01 -7.649312e-01 -5.874006e-01 -7.270061e-01 1.087415e-01 -5.360540e-02 5.206029e+00 -1.141337e-01 -1.917300e-02 1.387850e-01 2.393566e-01 1.860228e-01 -7.336497e-02 -1.248297e-01 3.244852e-02 6.087957e-02 -2.686359e-02 -7.775092e-02 -1.921596e-01 -5.681537e-02 3.619802e-02 -5.766581e-02 -2.631380e-03 -1.023231e-02 -1.562578e-02 -6.734976e-02 -4.392765e-02 1.254622e-02 2.210834e-03 7.588152e-03 -2.629606e-03 1.306758e-02 6.743786e-02
<VARIANCE> 39
 1.555983e-01 5.655584e-01 5.005692e-01 9.387593e-01 5.150984e-01 9.996364e-01 3.848735e-01 6.055167e-01 2.142062e-01 4.898672e-01 2.442526e-01 2.082356e-01 1.032730e+00 1.607124e-02 6.119991e-02 3.317484e-02 1.730066e-02 2.400436e-02 6.940637e-02 2.500053e-02 3.267448e-02 3.858504e-02 4.257918e-02 2.777520e-02 2.475008e-02 4.168383e-02 3.392829e-03 8.992186e-03 6.838479e-03 5.579793e-03 6.151553e-03 1.664597e-02 6.040521e-03 7.185404e-03 8.431123e-03 6.469334e-03 4.736141e-03 6.365473e-03 5.608451e-03
<GCONST> -4.880793e+01
<STATE> 5
<MEAN> 39
 -6.087545e-01 -5.270493e-01 1.098529e-01 5.884760e-01 9.984466e-02 -1.858497e+00 -1.496369e+00 -6.183106e-01 -4.608936e-01 -7.772497e-01 -2.963434e-01 -5.850379e-01 5.637157e+00 3.131470e-04 -7.380218e-02 4.872669e-02 8.295846e-02 3.162084e-02 -4.747515e-02 -1.100609e-01 -2.006274e-02 -4.303281e-02 -9.492473e-03 -1.338133e-02 -3.804449e-02 1.693330e-02 -5.872213e-03 2.428666e-02 -3.294617e-02 -5.895148e-02 -3.328608e-02 4.183536e-02 4.081760e-02 -1.166160e-02 -5.137861e-03 6.842449e-03 1.410623e-02 4.147252e-02 -2.306054e-02
<VARIANCE> 39
 1.058718e-01 4.079410e-01 2.706692e-01 3.211827e-01 1.512726e-01 3.826784e-01 2.180667e-01 8.280596e-02 1.586802e-01 1.582935e-01 2.729880e-01 8.160844e-02 2.622632e-01 1.476050e-02 1.610881e-02 2.256489e-02 2.025384e-02 1.684073e-02 4.460530e-02 3.526840e-02 1.336022e-02 1.480503e-02 8.616799e-03 8.832237e-03 1.354485e-02 1.833780e-02 2.647262e-03 3.040105e-03 3.103608e-03 4.462000e-03 2.655630e-03 2.673261e-03 2.015603e-03 2.246200e-03 3.142160e-03 1.877985e-03 2.151993e-03 2.963592e-03 9.304091e-04
<GCONST> -8.054481e+01
<STATE> 6
<MEAN> 39
 -6.399533e-01 -1.502841e+00 7.265211e-01 -2.178650e-01 5.818542e-01 -2.287362e+00 -9.474963e-01 -9.329733e-01 -6.170537e-01 -7.257380e-01 -2.436573e-02 -2.516760e-01 5.882746e+00 -2.280788e-02 4.173498e-02 -5.865820e-02 -1.522962e-01 -4.559649e-02 1.308530e-01 6.347752e-02 -4.671574e-02 1.648286e-02 1.908944e-02 1.249911e-02 7.206888e-02 -2.825966e-02 -1.968974e-02 2.894061e-02 -3.350223e-02 -4.929631e-02 -2.305039e-02 2.997647e-02 6.732693e-02 1.760369e-02 1.147001e-02 5.480487e-03 -9.731550e-03 1.540693e-02 -2.868211e-02
<VARIANCE> 39
 2.209191e-01 3.118495e-01 7.266690e-01 1.086485e+00 2.570945e-01 2.050855e+00 8.009711e-01 2.915793e-01 2.671857e-01 3.637399e-01 4.397226e-01 1.423462e-01 9.173918e-01 2.985438e-02 3.593648e-02 5.178505e-02 4.549843e-02 2.979237e-02 8.633238e-02 4.216834e-02 2.879021e-02 3.138050e-02 2.524482e-02 2.935952e-02 1.750482e-02 3.248742e-02 4.197356e-03 8.655120e-03 1.059535e-02 8.463646e-03 7.029620e-03 2.377085e-02 9.663538e-03 6.507732e-03 7.714458e-03 5.885670e-03 6.687920e-03 4.047019e-03 8.185561e-03
<GCONST> -4.545905e+01
<STATE> 7
<MEAN> 39
 -1.210020e+00 -6.553849e-01 -3.496997e-01 -4.822926e-01 -2.506063e-01 -1.164145e+00 -7.505581e-01 -7.789596e-01 -4.928755e-01 -4.848057e-01 2.520194e-03 3.300949e-02 5.145031e+00 2.436225e-03 2.992521e-02 -4.219155e-02 -1.061955e-01 -7.020228e-02 5.617804e-03 9.151985e-02 3.715017e-02 3.019919e-02 1.906915e-02 -3.184267e-03 3.885958e-02 -1.456618e-02 3.292598e-02 -7.020555e-03 1.557750e-02 3.585649e-02 5.625826e-03 -2.875969e-02 -2.686991e-02 5.847249e-03 -6.286025e-03 -9.230144e-03 -2.178558e-03 -2.271825e-02 2.141932e-02
<VARIANCE> 39
 5.119058e-01 3.836310e-01 4.600314e-01 1.022224e+00 5.512837e-01 4.872817e-01 3.582447e-01 2.052820e-01 1.583615e-01 1.819444e-01 1.955130e-01 9.233765e-02 6.324199e-01 5.370949e-02 3.017971e-02 3.226716e-02 3.982462e-02 2.339427e-02 4.358166e-02 3.015658e-02 1.395707e-02 2.151265e-02 1.790702e-02 2.705901e-02 1.402241e-02 2.376996e-02 8.454889e-03 5.181822e-03 4.791540e-03 5.181584e-03 3.739859e-03 7.552391e-03 4.456760e-03 3.472633e-03 3.735579e-03 2.661370e-03 3.866239e-03 1.777019e-03 4.191945e-03
<GCONST> -6.094150e+01
<TRANSP> 8
 0.000000e+00 7.250280e-01 2.749720e-01 0.000000e+00 0.000000e+00 0.000000e+00 0.000000e+00 0.000000e+00
 0.000000e+00 7.967184e-01 2.032816e-01 0.000000e+00 0.000000e+00 0.000000e+00 0.000000e+00 0.000000e+00
 0.000000e+00 0.000000e+00 7.881427e-01 2.118573e-01 0.000000e+00 0.000000e+00 0.000000e+00 0.000000e+00
 0.000000e+00 0.000000e+00 0.000000e+00 7.273117e-01 2.726882e-01 0.000000e+00 0.000000e+00 0.000000e+00
 0.000000e+00 0.000000e+00 0.000000e+00 0.000000e+00 7.239795e-01 2.760206e-01 0.000000e+00 0.000000e+00
 0.000000e+00 0.000000e+00 0.000000e+00 0.000000e+00 0.000000e+00 7.304440e-01 2.695560e-01 0.000000e+00
 0.000000e+00 0.000000e+00 0.000000e+00 0.000000e+00 0.000000e+00 0.000000e+00 7.468859e-01 2.531141e-01
 0.000000e+00 0.000000e+00 0.000000e+00 0.000000e+00 0.000000e+00 0.000000e+00 0.000000e+00 0.000000e+00
<ENDHMM>
