~o
<STREAMINFO> 1 39
<VECSIZE> 39<NULLD><MFCC_D_A_0><DIAGC>
~h "delapan"
<BEGINHMM>
<NUMSTATES> 6
<STATE> 2
<MEAN> 39
 2.148460e+00 3.179827e+00 -4.539899e+00 9.691655e+00 5.038887e+00 -9.186665e-01 -4.096059e+00 2.647676e+00 -6.157823e-01 -6.996110e+00 -2.715264e+00 3.826177e+00 5.465958e+01 6.641280e-01 -3.284882e-01 -2.590412e-01 -2.149819e-01 -3.009914e-01 -2.091653e-01 -3.733931e-01 -1.121090e-01 1.076189e-02 -3.569183e-01 4.695306e-02 4.831986e-01 6.147060e-01 -4.319827e-02 -7.870461e-02 7.195875e-02 -1.583079e-01 -2.897367e-01 3.788304e-02 1.176909e-01 4.593165e-03 1.409955e-01 1.113325e-01 5.692529e-02 6.796337e-02 2.534699e-02
<VARIANCE> 39
 5.403561e+01 5.608847e+01 4.457134e+01 4.830474e+01 7.807844e+01 4.466486e+01 4.443672e+01 5.234862e+01 5.684074e+01 4.860664e+01 7.237146e+01 3.277710e+01 1.128581e+02 2.997947e+00 6.691266e+00 4.933958e+00 4.543676e+00 8.028372e+00 5.533831e+00 4.545585e+00 4.861036e+00 5.114744e+00 4.973022e+00 4.645166e+00 3.468067e+00 2.633209e+00 3.907623e-01 1.293731e+00 8.407143e-01 6.867247e-01 1.114782e+00 1.026508e+00 8.388360e-01 8.808539e-01 9.629627e-01 1.015493e+00 8.361434e-01 5.667763e-01 3.266335e-01
<GCONST> 1.403934e+02
<STATE> 3
<MEAN> 39
 2.177231e+00 2.600386e+00 1.532194e-01 4.197024e+00 -7.114040e+00 1.730318e+00 -1.184144e+00 1.011045e+00 5.099084e+00 -7.414018e+00 -4.037220e+00 8.280285e+00 5.528575e+01 -3.539260e-02 1.069008e-01 3.761808e-02 1.240447e-01 1.349169e-01 -7.605913e-02 1.546619e-01 2.164393e-01 -7.942118e-02 1.594575e-01 1.755279e-01 -1.443402e-01 -6.976290e-02 -2.210134e-02 1.431006e-01 -1.119173e-01 1.672151e-01 3.188751e-01 -1.260065e-01 -3.305121e-02 1.085152e-01 -4.553211e-02 -1.619113e-03 -9.870760e-02 -1.593394e-01 -1.051166e-01
<VARIANCE> 39
 5.145529e+01 5.946486e+01 3.341318e+01 2.817737e+01 6.521501e+01 3.808665e+01 2.886959e+01 6.137924e+01 5.070742e+01 3.345860e+01 3.741447e+01 3.994514e+01 1.066714e+02 3.547074e+00 4.752821e+00 3.660338e+00 3.930956e+00 1.040040e+01 3.390574e+00 2.773571e+00 3.490686e+00 4.446337e+00 2.470162e+00 3.933170e+00 4.211260e+00 3.493886e+00 4.707529e-01 7.589277e-01 6.827811e-01 7.384858e-01 1.870357e+00 6.899793e-01 5.802537e-01 6.953475e-01 8.104515e-01 4.638505e-01 8.389161e-01 7.433686e-01 3.829719e-01
<GCONST> 1.342659e+02
<STATE> 4
<MEAN> 39
 1.089539e+00 -3.076915e+00 -1.372595e+01 -2.281626e+00 3.221875e-01 -6.210340e+00 -2.332396e+00 7.440604e+00 2.000054e+00 3.469865e-01 3.979914e+00 9.724199e+00 7.269543e+01 -1.471072e-01 1.559299e-01 1.067381e-01 2.844314e-02 4.748167e-02 1.852817e-01 2.171043e-01 1.880143e-01 1.660660e-01 -1.440488e-02 -2.104244e-01 -1.195354e-01 -1.703572e-01 -2.118795e-02 2.745762e-02 3.235312e-02 5.049645e-02 4.269886e-02 3.398391e-02 -1.784047e-02 -4.341587e-02 -5.388473e-02 -3.465092e-02 -2.141231e-02 -4.239005e-02 -3.042231e-02
<VARIANCE> 39
 1.498814e+01 2.360218e+01 1.326520e+01 2.419265e+01 3.472908e+01 3.673938e+01 1.432055e+01 1.577286e+01 2.241198e+01 1.508668e+01 2.129627e+01 1.358476e+01 2.538717e+01 8.865083e-01 1.281498e+00 8.905318e-01 1.476422e+00 1.342019e+00 1.520906e+00 1.171162e+00 1.306492e+00 1.785106e+00 1.329057e+00 1.704366e+00 1.027144e+00 1.274345e+00 1.227697e-01 1.802652e-01 1.520778e-01 2.192503e-01 1.688269e-01 2.591341e-01 1.799144e-01 1.954669e-01 2.791013e-01 2.397971e-01 3.125190e-01 1.807408e-01 1.497764e-01
<GCONST> 9.265483e+01
<STATE> 5
<MEAN> 39
 1.423776e-01 9.956706e+00 -1.061223e+00 1.166392e+01 8.363438e+00 -4.109211e-01 -2.698842e+00 4.874536e+00 3.292578e+00 -5.043476e+00 -5.959297e+00 -1.042733e+00 5.453307e+01 -3.085167e-01 1.570709e-01 -2.048566e-01 -2.781562e-01 2.578966e-03 -2.607073e-01 -2.703628e-01 -2.391977e-01 -1.618763e-01 8.732124e-02 5.124948e-04 -2.762945e-01 -3.107175e-01 1.151578e-01 -2.701011e-01 -7.414614e-02 -2.506071e-01 -3.358950e-01 2.295117e-02 -7.551371e-02 -1.241545e-01 -2.283439e-02 -7.012384e-02 1.606462e-01 2.972165e-01 1.928564e-01
<VARIANCE> 39
 3.573392e+01 3.020376e+01 3.241542e+01 3.706609e+01 3.941479e+01 2.773447e+01 2.250554e+01 9.870345e+01 3.892366e+01 3.274741e+01 3.215449e+01 2.421225e+01 1.121325e+02 1.663775e+00 3.203303e+00 3.287128e+00 3.064029e+00 5.326315e+00 2.726392e+00 2.636005e+00 4.348060e+00 3.915890e+00 2.943428e+00 2.759444e+00 3.072425e+00 1.458292e+00 2.629926e-01 3.625149e-01 6.326452e-01 4.022878e-01 6.915790e-01 6.063671e-01 5.134610e-01 8.020830e-01 7.065485e-01 6.105190e-01 3.885365e-01 4.331529e-01 1.844131e-01
<GCONST> 1.232515e+02
<TRANSP> 6
 0.000000e+00 8.440027e-01 1.559974e-01 0.000000e+00 0.000000e+00 0.000000e+00
 0.000000e+00 9.313208e-01 3.816300e-02 3.051612e-02 0.000000e+00 0.000000e+00
 0.000000e+00 0.000000e+00 9.579626e-01 0.000000e+00 4.203742e-02 0.000000e+00
 0.000000e+00 0.000000e+00 0.000000e+00 9.787508e-01 1.417659e-02 7.072587e-03
 0.000000e+00 0.000000e+00 0.000000e+00 0.000000e+00 8.975067e-01 1.024933e-01
 0.000000e+00 0.000000e+00 0.000000e+00 0.000000e+00 0.000000e+00 0.000000e+00
<ENDHMM>
