~o
<STREAMINFO> 1 39
<VECSIZE> 39<NULLD><PLP_D_A_0><DIAGC>
~h "delapan"
<BEGINHMM>
<NUMSTATES> 8
<STATE> 2
<MEAN> 39
 -2.376059e-01 -6.965097e-01 -7.273977e-01 3.553407e-02 -3.404295e-01 -7.837700e-01 -8.541102e-01 -8.811914e-01 -5.553547e-01 -6.219994e-01 -1.575614e-01 2.915518e-01 4.916879e+00 1.517910e-01 -5.845134e-02 -3.249477e-02 -8.817163e-02 -1.578338e-01 -6.692972e-02 -8.413731e-03 1.513634e-02 5.035855e-02 -2.150741e-03 2.534537e-02 8.543477e-02 1.659551e-01 -2.783700e-02 -5.031990e-03 -1.456337e-02 -4.303257e-02 -4.619210e-02 5.120292e-03 5.249800e-02 4.882772e-02 4.998833e-02 2.957515e-02 7.200726e-03 2.162602e-03 -1.708064e-02
<VARIANCE> 39
 3.084652e-01 4.794252e-01 3.699488e-01 5.085322e-01 4.713732e-01 4.733227e-01 3.929502e-01 4.081499e-01 4.551392e-01 3.294714e-01 5.176928e-01 2.212623e-01 1.056008e+00 2.928904e-02 4.830032e-02 5.429874e-02 5.075214e-02 6.386414e-02 4.760426e-02 5.250537e-02 5.170312e-02 5.079264e-02 3.891448e-02 4.202272e-02 2.815072e-02 2.568338e-02 5.826163e-03 9.229048e-03 8.835022e-03 6.317884e-03 8.890701e-03 8.489479e-03 9.652788e-03 9.856191e-03 9.916684e-03 7.078946e-03 7.916805e-03 5.977168e-03 5.085884e-03
<GCONST> -4.321262e+01
<STATE> 3
<MEAN> 39
 3.014348e-02 -1.212660e+00 -9.519144e-01 -1.091116e+00 -1.264577e+00 -1.167821e+00 4.345439e-02 -4.148228e-01 7.749091e-02 -3.281392e-01 7.761502e-02 5.444615e-01 5.849744e+00 -5.291357e-02 8.104064e-02 -4.688815e-02 -2.426388e-02 -2.776937e-02 -5.464990e-03 8.716721e-02 1.158258e-01 5.603646e-02 2.222158e-03 -3.766599e-02 -3.803172e-02 -1.168405e-01 -4.461051e-02 4.631340e-02 9.110094e-03 3.594209e-02 7.396684e-02 5.690785e-03 -3.628640e-02 -1.734322e-02 -5.066618e-02 -2.049616e-02 -8.529322e-03 -2.470168e-02 -7.065831e-02
<VARIANCE> 39
 5.467138e-02 5.600205e-01 5.038516e-01 5.891397e-01 3.870272e-01 7.133551e-01 9.532782e-01 5.137058e-01 3.640493e-01 3.378650e-01 2.812997e-01 1.587651e-01 8.518321e-01 1.128597e-02 3.399173e-02 1.739768e-02 2.351441e-02 4.782707e-02 2.613279e-02 3.480225e-02 2.172658e-02 4.245266e-02 2.416014e-02 1.600061e-02 1.645230e-02 3.911387e-02 2.049224e-03 4.290031e-03 4.541031e-03 4.146311e-03 6.474731e-03 6.588513e-03 4.551153e-03 4.302558e-03 6.231394e-03 4.287363e-03 3.755965e-03 4.017514e-03 4.058946e-03
<GCONST> -5.885835e+01
<STATE> 4
<MEAN> 39
 -7.297792e-01 -4.473046e-01 -9.495794e-01 -8.919122e-01 -8.022346e-01 -1.043889e+00 -1.558925e-01 -2.195140e-01 -2.017816e-01 -4.344108e-01 6.334113e-03 2.367172e-01 4.584222e+00 -5.150368e-03 -5.716345e-02 -2.504702e-02 -1.973151e-02 5.169071e-03 -1.865938e-02 3.939575e-03 3.227852e-03 -1.202395e-02 8.899459e-03 2.996421e-02 -1.177435e-02 3.973449e-02 8.308758e-02 -6.993113e-02 -1.418591e-03 -1.123314e-02 -5.252685e-02 -5.346181e-03 1.881615e-02 -1.692065e-02 2.926175e-02 5.785716e-03 3.718714e-03 2.726171e-02 1.211822e-01
<VARIANCE> 39
 2.665390e-01 3.507220e-01 4.401073e-01 5.084984e-01 3.225549e-01 2.307830e-01 4.621369e-01 3.047164e-01 1.403651e-01 1.451157e-01 1.288314e-01 1.103305e-01 8.612980e-01 7.381294e-02 3.858019e-02 1.888610e-02 2.462852e-02 5.082960e-02 3.172553e-02 1.742027e-02 2.447061e-02 2.950258e-02 1.278390e-02 1.251795e-02 1.601770e-02 1.039489e-01 7.401893e-03 4.910233e-03 4.641074e-03 5.156512e-03 7.931742e-03 7.038907e-03 3.168189e-03 4.848568e-03 5.464815e-03 3.218112e-03 2.771550e-03 2.738948e-03 7.678185e-03
<GCONST> -6.077641e+01
<STATE> 5
<MEAN> 39
 8.083858e-02 -1.244801e+00 -1.055402e+00 -1.237641e+00 -1.186782e+00 -1.103048e+00 1.784586e-01 -4.380217e-01 4.240523e-02 -3.513113e-01 1.649189e-01 5.032193e-01 6.029134e+00 4.804819e-02 4.052284e-02 6.565886e-02 7.363264e-02 1.087107e-01 2.694776e-02 -4.180941e-02 -6.070360e-02 -2.256258e-02 -1.817571e-02 -4.156383e-02 -1.580253e-02 3.046698e-02 -5.401046e-02 8.655995e-02 3.170029e-02 5.344155e-02 8.318172e-02 -1.009781e-02 -4.457066e-02 1.637668e-03 -2.861209e-02 -2.306415e-02 -4.686535e-02 -4.454484e-02 -1.005545e-01
<VARIANCE> 39
 5.915435e-02 5.088555e-01 3.758357e-01 6.917552e-01 5.534481e-01 6.145915e-01 8.414819e-01 7.109780e-01 2.731151e-01 2.291069e-01 2.688046e-01 1.286986e-01 8.033752e-01 2.000841e-02 4.956399e-02 2.745617e-02 3.121556e-02 6.486028e-02 3.267473e-02 2.790621e-02 2.373870e-02 3.512152e-02 1.811230e-02 3.506292e-02 2.394954e-02 5.623415e-02 2.850617e-03 4.197610e-03 5.173220e-03 4.219322e-03 9.079721e-03 7.460635e-03 3.716482e-03 5.538875e-03 6.095706e-03 3.856442e-03 6.182380e-03 4.123676e-03 3.734098e-03
<GCONST> -5.517676e+01
<STATE> 6
<MEAN> 39
 -1.792424e-01 -1.180400e-01 -4.378026e-01 -1.371706e-01 9.427297e-02 -1.174396e+00 -5.401684e-01 -5.492782e-01 -3.278277e-01 -7.638533e-01 -6.238880e-01 -1.280321e-01 5.031854e+00 -8.850354e-02 1.607080e-01 7.184798e-02 9.827630e-02 1.438607e-01 2.232605e-03 -5.291915e-02 2.103622e-02 -2.907429e-02 -5.444723e-02 -1.130420e-01 -1.080266e-01 -1.546693e-01 -3.636647e-03 -7.595043e-02 -4.755536e-02 -7.939335e-02 -8.611490e-02 2.786474e-02 4.776965e-02 -1.788124e-03 3.309789e-03 3.060103e-02 7.716498e-02 5.073709e-02 3.625909e-02
<VARIANCE> 39
 8.840621e-02 2.936386e-01 4.177697e-01 6.823920e-01 2.999405e-01 7.818497e-01 4.204880e-01 6.500755e-01 2.086652e-01 2.139205e-01 2.724109e-01 2.169413e-01 8.266787e-01 6.702845e-03 2.624777e-02 2.355454e-02 3.383077e-02 4.491144e-02 3.699457e-02 2.615511e-02 2.179681e-02 2.088501e-02 2.102176e-02 3.633827e-02 2.256717e-02 9.255078e-03 1.591454e-03 3.979254e-03 4.222057e-03 3.689273e-03 5.865389e-03 8.455195e-03 4.707279e-03 5.526158e-03 5.553126e-03 3.999875e-03 5.209476e-03 4.622979e-03 2.027234e-03
<GCONST> -6.233200e+01
<STATE> 7
<MEAN> 39
 -4.378133e-01 -5.732845e-01 -6.620035e-01 -8.572878e-01 -4.126886e-01 -1.099919e+00 -2.387953e-01 -7.052377e-01 -3.864296e-01 -6.487991e-01 -1.513065e-01 2.147602e-01 5.196814e+00 -2.183945e-02 -1.557728e-01 -6.130076e-02 -1.006361e-01 -1.310377e-01 2.508308e-02 3.451928e-02 -1.798871e-02 9.262877e-03 6.111743e-02 1.254015e-01 8.589199e-02 6.375554e-02 1.011463e-02 -2.800599e-03 8.872773e-03 7.629320e-03 -1.744810e-04 -1.435417e-02 -8.597048e-03 3.241046e-03 1.188719e-02 1.440595e-03 -9.135336e-03 -2.371527e-03 1.703022e-02
<VARIANCE> 39
 5.380952e-01 6.089075e-01 4.704557e-01 8.206031e-01 6.412024e-01 5.043392e-01 7.638206e-01 5.912366e-01 3.996933e-01 3.248898e-01 2.993985e-01 2.423683e-01 1.153570e+00 3.099845e-02 3.462812e-02 4.200405e-02 3.016537e-02 4.550378e-02 4.615922e-02 2.499484e-02 3.579749e-02 3.988494e-02 2.688671e-02 2.969968e-02 2.378090e-02 2.497138e-02 5.594541e-03 8.081808e-03 7.592150e-03 5.643336e-03 9.311474e-03 7.176010e-03 4.335563e-03 6.816838e-03 6.866241e-03 4.843149e-03 6.352778e-03 4.509987e-03 4.041943e-03
<GCONST> -4.769942e+01
<TRANSP> 8
 0.000000e+00 7.059947e-01 2.940054e-01 0.000000e+00 0.000000e+00 0.000000e+00 0.000000e+00 0.000000e+00
 0.000000e+00 7.681262e-01 2.318738e-01 0.000000e+00 0.000000e+00 0.000000e+00 0.000000e+00 0.000000e+00
 0.000000e+00 0.000000e+00 7.665152e-01 2.190984e-01 1.438647e-02 0.000000e+00 0.000000e+00 0.000000e+00
 0.000000e+00 0.000000e+00 0.000000e+00 7.988770e-01 2.011230e-01 0.000000e+00 0.000000e+00 0.000000e+00
 0.000000e+00 0.000000e+00 0.000000e+00 0.000000e+00 8.042702e-01 1.957298e-01 0.000000e+00 0.000000e+00
 0.000000e+00 0.000000e+00 0.000000e+00 0.000000e+00 0.000000e+00 7.631347e-01 2.368653e-01 0.000000e+00
 0.000000e+00 0.000000e+00 0.000000e+00 0.000000e+00 0.000000e+00 0.000000e+00 8.034685e-01 1.965315e-01
 0.000000e+00 0.000000e+00 0.000000e+00 0.000000e+00 0.000000e+00 0.000000e+00 0.000000e+00 0.000000e+00
<ENDHMM>
