~o
<STREAMINFO> 1 39
<VECSIZE> 39<NULLD><PLP_D_A_0><DIAGC>
~h "dua"
<BEGINHMM>
<NUMSTATES> 8
<STATE> 2
<MEAN> 39
 -5.599798e-01 -2.700161e-01 -4.157523e-01 -2.033026e-01 3.614718e-02 -7.217100e-01 -8.026545e-01 -5.460953e-01 -2.878966e-01 -8.306367e-01 -3.487297e-01 -1.534170e-01 4.733705e+00 1.681298e-01 4.616774e-02 5.018985e-02 -8.622331e-02 -9.499197e-02 -2.450020e-02 -8.936445e-02 1.546171e-02 2.276115e-02 -1.232928e-01 -8.271793e-02 -3.445161e-02 1.484087e-01 -1.131910e-02 -2.600563e-02 1.068579e-02 -3.650638e-02 -8.671752e-02 -2.682286e-02 1.438721e-02 2.489990e-02 2.661169e-02 1.021104e-02 1.068773e-02 1.695109e-02 3.290864e-03
<VARIANCE> 39
 3.844511e-01 5.428126e-01 4.128680e-01 4.918351e-01 5.251133e-01 5.059770e-01 4.539235e-01 4.323615e-01 4.591148e-01 3.274712e-01 2.998813e-01 2.576278e-01 8.885688e-01 3.569074e-02 6.174383e-02 3.771133e-02 5.124819e-02 7.615293e-02 5.221886e-02 4.456714e-02 3.137499e-02 5.107110e-02 3.708955e-02 3.520618e-02 3.849253e-02 3.351611e-02 6.324853e-03 1.061169e-02 8.857018e-03 8.277892e-03 8.698994e-03 9.468840e-03 7.816378e-03 6.721106e-03 8.680398e-03 8.714768e-03 6.470887e-03 6.389115e-03 6.600352e-03
<GCONST> -4.273787e+01
<STATE> 3
<MEAN> 39
 -1.460856e-01 4.762695e-02 -1.042993e-01 -8.622936e-01 -1.199216e+00 -1.584792e+00 -7.015187e-01 -3.136689e-01 -2.501985e-01 -8.200975e-01 -5.044838e-01 -2.657318e-01 5.640236e+00 5.848781e-02 -8.857688e-02 -5.438558e-02 -7.865270e-02 -1.931390e-01 -1.319295e-01 2.435676e-02 7.013297e-02 3.491885e-02 2.740747e-02 5.751774e-02 7.142109e-02 7.751810e-02 -2.183254e-02 -2.407865e-02 -3.314918e-02 2.795202e-02 5.723108e-02 3.560150e-02 2.164479e-02 -1.452874e-02 -1.088651e-02 1.377518e-02 2.768278e-02 1.690901e-02 -1.770298e-02
<VARIANCE> 39
 7.751881e-02 7.026649e-01 4.515918e-01 5.626682e-01 4.087586e-01 4.878349e-01 6.476626e-01 3.243058e-01 3.573816e-01 2.633424e-01 1.706228e-01 2.040558e-01 2.386654e-01 3.885176e-03 3.142251e-02 2.927755e-02 1.855175e-02 2.737795e-02 3.693717e-02 2.622480e-02 1.719445e-02 2.339356e-02 2.903845e-02 1.744546e-02 2.095943e-02 1.194425e-02 1.527621e-03 5.447383e-03 3.366718e-03 4.723682e-03 5.507528e-03 4.583313e-03 4.824511e-03 3.212111e-03 5.003036e-03 6.997428e-03 3.387477e-03 4.564751e-03 3.633756e-03
<GCONST> -6.505688e+01
<STATE> 4
<MEAN> 39
 3.035574e-01 -6.055349e-01 2.281225e-01 -6.403515e-01 -1.756422e+00 -1.795203e-01 -1.303897e+00 1.074592e-01 9.852219e-01 -1.735572e+00 -1.076750e+00 5.361301e-01 4.198380e+00 -2.183817e-02 1.774180e-02 -2.035976e-02 2.510999e-02 -6.468400e-02 -9.719441e-02 1.467551e-01 1.014656e-01 -3.596840e-02 4.336392e-02 2.084750e-02 5.708043e-03 -3.540190e-02 -3.446243e-02 3.939604e-02 -6.250183e-02 4.469346e-02 1.081180e-01 -3.986622e-02 2.733307e-02 7.149882e-03 -6.370208e-02 5.353389e-02 2.186600e-02 -3.854350e-02 -5.426242e-02
<VARIANCE> 39
 3.371730e-02 2.541575e-01 2.231103e-01 1.766681e-01 2.705328e-01 1.779502e-01 3.346698e-01 2.538586e-01 2.421465e-01 2.023563e-01 1.899113e-01 2.489608e-01 7.966738e-02 8.183646e-03 3.937689e-02 5.724285e-02 3.974286e-02 1.042529e-01 3.969083e-02 3.346913e-02 4.505146e-02 4.421297e-02 3.303008e-02 2.783159e-02 3.679555e-02 2.462506e-02 2.093371e-03 8.142821e-03 4.850923e-03 5.961447e-03 9.926308e-03 8.244574e-03 6.136551e-03 1.008519e-02 6.149366e-03 5.328645e-03 5.238578e-03 7.469303e-03 2.973635e-03
<GCONST> -6.046454e+01
<STATE> 5
<MEAN> 39
 2.569194e-02 -1.147655e+00 -6.464437e-01 -1.378070e+00 -1.252874e+00 -1.922815e+00 6.929514e-02 -1.971875e-01 -2.583929e-01 -5.001705e-01 6.673209e-02 3.340198e-01 6.156752e+00 -3.141149e-02 -1.483176e-02 -6.849270e-02 3.875370e-03 2.804962e-02 7.583734e-02 7.293021e-02 -6.528271e-03 1.599845e-02 3.604193e-02 2.082234e-02 4.017392e-02 -4.115186e-02 -2.666244e-02 4.549741e-02 2.605663e-02 1.870666e-02 3.273946e-02 2.986837e-02 -1.716543e-02 -1.835132e-02 -3.269676e-03 -1.040264e-02 -2.043516e-02 -2.581973e-02 -4.783946e-02
<VARIANCE> 39
 5.279292e-02 7.135418e-01 1.217358e+00 7.473832e-01 3.321234e-01 7.625519e-01 1.156807e+00 5.655518e-01 4.582881e-01 3.013726e-01 2.745915e-01 2.025668e-01 3.152710e-01 5.478024e-03 3.068644e-02 1.904974e-02 1.332057e-02 1.705964e-02 2.169312e-02 1.813660e-02 1.314083e-02 1.894066e-02 1.581877e-02 1.768610e-02 1.454655e-02 2.217215e-02 1.046821e-03 4.269826e-03 3.520820e-03 2.940044e-03 5.189700e-03 4.691046e-03 3.662963e-03 2.982203e-03 3.879463e-03 3.694116e-03 3.064417e-03 2.778976e-03 2.839694e-03
<GCONST> -6.745303e+01
<STATE> 6
<MEAN> 39
 -2.284718e-01 -5.978597e-01 -3.668538e-01 -1.165265e+00 -6.981694e-01 -1.337455e+00 1.933125e-01 -4.604440e-01 -3.171512e-01 -7.476361e-01 -2.338021e-01 1.465030e-01 5.104596e+00 -1.059853e-01 7.580432e-02 -5.392854e-03 4.026453e-02 1.616532e-01 3.765754e-02 -3.826677e-02 -5.449502e-02 -7.749409e-02 5.808405e-02 2.428669e-02 -4.924539e-02 -1.363391e-01 5.217115e-03 -5.071915e-02 7.596159e-03 -2.567872e-02 -2.796022e-02 -3.292600e-03 -1.271850e-02 -1.659428e-02 5.986983e-04 3.088187e-03 5.256223e-03 1.699837e-02 4.883344e-02
<VARIANCE> 39
 1.889775e-01 6.577042e-01 6.153770e-01 6.922913e-01 6.073309e-01 7.744834e-01 7.934975e-01 7.586142e-01 4.068251e-01 2.315909e-01 3.530436e-01 2.740611e-01 1.067167e+00 2.785476e-02 4.727437e-02 4.051804e-02 3.934718e-02 6.575178e-02 7.096595e-02 3.421376e-02 4.001462e-02 4.453910e-02 2.823956e-02 3.359109e-02 3.471518e-02 6.526878e-02 4.478695e-03 8.071098e-03 8.248210e-03 6.084517e-03 1.468037e-02 1.436769e-02 6.096082e-03 8.118524e-03 7.364656e-03 4.955570e-03 6.709226e-03 6.109902e-03 9.656253e-03
<GCONST> -4.181834e+01
<STATE> 7
<MEAN> 39
 -5.791131e-01 -2.150112e-01 -7.468448e-01 -7.816169e-01 -8.686257e-01 -1.140719e+00 -5.846839e-01 -4.174117e-01 -3.793803e-01 -7.580774e-01 -3.076697e-01 1.075684e-01 4.961648e+00 -1.836664e-02 -3.772755e-02 1.932649e-04 1.810943e-02 5.124222e-02 2.845808e-02 -2.979416e-02 -4.607556e-02 -2.644596e-02 -1.064849e-02 -4.088732e-04 5.316283e-03 6.054980e-03 2.242768e-02 -9.911387e-03 5.952539e-03 -6.998756e-03 -2.211534e-02 -1.483190e-02 -3.318636e-03 9.680939e-03 2.171063e-02 -1.787457e-03 2.407471e-03 6.211607e-03 2.658007e-02
<VARIANCE> 39
 4.919152e-01 4.737883e-01 4.427814e-01 4.786210e-01 4.047667e-01 5.275931e-01 4.038789e-01 3.270276e-01 2.547310e-01 3.951068e-01 3.113542e-01 1.923236e-01 8.347818e-01 3.353021e-02 2.869170e-02 3.300148e-02 2.224237e-02 4.149806e-02 4.950451e-02 2.605255e-02 2.253462e-02 2.874847e-02 2.990487e-02 2.461341e-02 1.954939e-02 2.892072e-02 5.879298e-03 5.606789e-03 6.640944e-03 4.724790e-03 7.789719e-03 1.143755e-02 6.008773e-03 4.125043e-03 6.317392e-03 6.373955e-03 4.738270e-03 4.745711e-03 5.213748e-03
<GCONST> -5.292364e+01
<TRANSP> 8
 0.000000e+00 6.099647e-01 3.900354e-01 0.000000e+00 0.000000e+00 0.000000e+00 0.000000e+00 0.000000e+00
 0.000000e+00 7.358749e-01 1.754499e-01 8.867528e-02 0.000000e+00 0.000000e+00 0.000000e+00 0.000000e+00
 0.000000e+00 0.000000e+00 7.236866e-01 3.495716e-03 2.728177e-01 0.000000e+00 0.000000e+00 0.000000e+00
 0.000000e+00 0.000000e+00 0.000000e+00 8.350318e-01 0.000000e+00 1.649682e-01 0.000000e+00 0.000000e+00
 0.000000e+00 0.000000e+00 0.000000e+00 0.000000e+00 8.041871e-01 1.958129e-01 0.000000e+00 0.000000e+00
 0.000000e+00 0.000000e+00 0.000000e+00 0.000000e+00 0.000000e+00 6.146966e-01 3.853034e-01 0.000000e+00
 0.000000e+00 0.000000e+00 0.000000e+00 0.000000e+00 0.000000e+00 0.000000e+00 7.366909e-01 2.633091e-01
 0.000000e+00 0.000000e+00 0.000000e+00 0.000000e+00 0.000000e+00 0.000000e+00 0.000000e+00 0.000000e+00
<ENDHMM>
