~o
<STREAMINFO> 1 39
<VECSIZE> 39<NULLD><PLP_D_A_0><DIAGC>
~h "empat"
<BEGINHMM>
<NUMSTATES> 8
<STATE> 2
<MEAN> 39
 -4.846272e-01 -2.427216e-01 -3.158799e-01 -2.854743e-01 -4.048536e-02 -1.129121e+00 -9.397688e-02 -2.588559e-01 -2.810887e-01 -8.696831e-01 -8.972200e-01 -4.410696e-01 4.997017e+00 -5.473909e-03 8.945431e-02 4.864363e-02 3.269389e-02 5.200539e-02 3.192890e-02 -1.436229e-02 -4.405305e-03 1.047597e-02 -1.265937e-02 -5.988699e-02 -6.393518e-02 -5.520914e-02 -5.478925e-02 -3.028202e-02 -1.449806e-02 -2.182576e-02 -2.545620e-02 1.968273e-02 6.508871e-03 -5.803864e-03 2.512674e-03 2.450715e-02 5.582955e-02 3.593861e-02 -3.699426e-02
<VARIANCE> 39
 2.416551e-01 5.589460e-01 2.957830e-01 8.753636e-01 3.342675e-01 7.818786e-01 9.141557e-01 5.218983e-01 3.620944e-01 2.194656e-01 3.545429e-01 3.572337e-01 1.039367e+00 3.535454e-02 1.790837e-02 1.573988e-02 2.125323e-02 2.484870e-02 2.716065e-02 2.661618e-02 2.138487e-02 2.918757e-02 1.735785e-02 4.146878e-02 2.618148e-02 3.161164e-02 4.257490e-03 5.427766e-03 3.459543e-03 5.164001e-03 6.051398e-03 4.722033e-03 4.278712e-03 4.212134e-03 5.548471e-03 3.192825e-03 6.900911e-03 6.038045e-03 4.518072e-03
<GCONST> -5.574668e+01
<STATE> 3
<MEAN> 39
 -1.147336e+00 -2.519040e-01 -4.434693e-01 -3.664374e-01 -2.321712e-01 -7.001588e-01 -1.780759e-01 -4.052091e-01 -2.348156e-01 -5.371749e-01 -3.776776e-01 -2.011639e-01 4.395415e+00 6.116622e-02 -2.229545e-01 -1.707571e-01 -1.939748e-01 -2.381568e-01 -5.684399e-02 3.917716e-02 -3.821643e-04 3.570702e-02 6.676523e-02 2.273774e-01 1.721237e-01 1.675861e-01 1.165206e-01 -4.908316e-02 -4.051799e-02 -4.449300e-02 -6.514254e-02 -3.943548e-02 -1.452029e-03 1.905993e-02 3.506686e-02 -1.207871e-02 -8.818016e-03 1.639370e-02 1.330454e-01
<VARIANCE> 39
 1.353569e-01 3.568129e-01 3.165259e-01 3.377670e-01 3.146519e-01 2.341193e-01 3.191716e-01 2.341412e-01 1.509978e-01 1.685751e-01 2.916558e-01 1.037560e-01 6.986892e-01 6.604303e-02 2.938139e-02 1.920539e-02 3.102892e-02 3.431868e-02 4.038289e-02 2.057046e-02 2.213121e-02 4.002675e-02 1.971270e-02 2.802953e-02 1.470537e-02 7.544356e-02 4.576961e-03 7.181799e-03 4.266478e-03 5.196796e-03 5.326201e-03 6.209441e-03 5.131147e-03 3.679331e-03 7.385454e-03 2.973216e-03 7.571093e-03 2.694872e-03 6.244384e-03
<GCONST> -6.062384e+01
<STATE> 4
<MEAN> 39
 8.847320e-03 -1.132709e+00 -8.804414e-01 -1.141616e+00 -1.478712e+00 -8.896775e-01 -1.513823e-01 -3.591868e-01 1.367118e-01 -5.648633e-01 9.090263e-02 4.825867e-01 5.601431e+00 1.375726e-01 -1.043326e-01 -6.343487e-02 -5.541968e-02 -1.047689e-01 2.001004e-02 1.618185e-02 -4.808801e-03 4.310141e-02 -1.483169e-03 3.882971e-02 9.459684e-02 1.772376e-01 -9.506094e-02 7.622951e-02 2.694383e-02 7.059084e-02 1.111784e-01 2.050849e-02 -6.847182e-03 -1.005555e-02 -3.795651e-02 -4.090369e-03 -3.751326e-02 -4.754543e-02 -1.270938e-01
<VARIANCE> 39
 1.214729e-01 4.711895e-01 4.395398e-01 4.194601e-01 4.415942e-01 8.155008e-01 6.471714e-01 4.015566e-01 3.481756e-01 2.953341e-01 1.773436e-01 1.987815e-01 8.669717e-01 6.471105e-02 5.654903e-02 4.597989e-02 4.546352e-02 9.077851e-02 3.850231e-02 2.627274e-02 2.656593e-02 4.953338e-02 2.238143e-02 2.245283e-02 2.610297e-02 1.097910e-01 6.406359e-03 6.404954e-03 1.004378e-02 6.637421e-03 1.011454e-02 1.076487e-02 4.651959e-03 6.060716e-03 8.432638e-03 5.073603e-03 5.051192e-03 4.270487e-03 7.947600e-03
<GCONST> -4.712317e+01
<STATE> 5
<MEAN> 39
 1.051335e-02 -1.709761e+00 -1.463331e+00 -1.704374e+00 -1.134955e+00 -1.006243e+00 4.442194e-01 -5.665727e-01 5.482977e-01 -3.063805e-01 8.966371e-02 4.248597e-01 6.662886e+00 -3.360381e-02 8.574651e-02 6.179834e-02 -2.306074e-02 8.434933e-02 4.288949e-02 -8.139842e-02 -1.073475e-01 -4.565234e-02 3.719271e-02 6.365409e-03 4.829860e-02 -1.108293e-01 -4.614027e-02 6.175958e-02 2.737838e-02 1.213011e-02 2.342374e-02 -1.525019e-02 -2.810953e-02 2.770707e-02 -3.944841e-02 -1.012731e-02 -3.356664e-03 -1.738503e-02 -1.002758e-01
<VARIANCE> 39
 2.548067e-02 5.621774e-01 3.402167e-01 3.949478e-01 4.654483e-01 2.539598e-01 9.908085e-01 7.345796e-01 3.634114e-01 2.412201e-01 2.134850e-01 2.259842e-01 1.716128e-01 3.087049e-03 1.837592e-02 2.193586e-02 1.685689e-02 1.451568e-02 1.743746e-02 1.615971e-02 1.881354e-02 2.346998e-02 1.881239e-02 1.829708e-02 1.675883e-02 2.927753e-02 1.230432e-03 3.053006e-03 6.196633e-03 4.364900e-03 3.989815e-03 3.497039e-03 3.245436e-03 6.031864e-03 3.965950e-03 4.987730e-03 3.706604e-03 2.600269e-03 2.361413e-03
<GCONST> -7.112307e+01
<STATE> 6
<MEAN> 39
 -7.130756e-01 -7.547011e-01 -1.270724e+00 -1.223207e+00 -1.028632e+00 -9.230343e-01 -3.366288e-01 -4.131435e-01 -1.339893e-01 -3.093705e-01 1.537317e-01 5.234898e-01 5.091759e+00 -1.670575e-01 9.197185e-02 1.992845e-02 5.967370e-02 9.843918e-02 2.194556e-02 -6.092133e-03 4.608065e-02 -4.139042e-02 -5.237009e-03 -2.401397e-02 -7.565981e-02 -2.216927e-01 1.051282e-02 -3.447865e-03 1.125005e-02 1.265493e-02 6.440315e-03 2.945508e-04 9.910423e-03 1.087596e-03 1.179106e-02 -2.382814e-03 -1.289937e-02 -1.842538e-02 2.783524e-02
<VARIANCE> 39
 3.046816e-01 2.265099e-01 5.662744e-01 4.078850e-01 2.263214e-01 2.516505e-01 3.017323e-01 2.336803e-01 1.347528e-01 1.433521e-01 1.007186e-01 2.055320e-01 3.311068e-01 1.517123e-02 2.123331e-02 2.736055e-02 2.192750e-02 2.061452e-02 2.309565e-02 1.148631e-02 1.841441e-02 1.594368e-02 1.158280e-02 1.056081e-02 1.369872e-02 2.927351e-02 4.057859e-03 2.677225e-03 4.567396e-03 3.753329e-03 2.697934e-03 2.481154e-03 2.269117e-03 2.861018e-03 3.033315e-03 2.446056e-03 1.922968e-03 1.851078e-03 4.595307e-03
<GCONST> -7.545145e+01
<STATE> 7
<MEAN> 39
 -5.824547e-01 -5.188751e-01 -6.156284e-01 -7.679626e-01 -4.153846e-01 -1.042116e+00 -2.634059e-01 -5.797047e-01 -4.477705e-01 -8.129171e-01 -1.501428e-01 1.962616e-01 4.722486e+00 1.326237e-02 -1.349841e-03 1.650197e-02 4.445190e-03 2.281003e-02 -4.362058e-02 -1.270925e-02 -2.580184e-02 -5.012762e-02 -2.380742e-02 -1.464066e-02 -4.414790e-03 5.838359e-02 2.687881e-02 -4.700483e-02 -6.055860e-03 -2.991449e-02 -3.851280e-02 -3.076549e-03 9.677879e-04 -1.833220e-02 1.257701e-02 1.301316e-02 1.317482e-02 2.681054e-02 5.837028e-02
<VARIANCE> 39
 4.083172e-01 6.425192e-01 3.570094e-01 5.470910e-01 4.068471e-01 4.364443e-01 6.081218e-01 3.628223e-01 3.473358e-01 3.545713e-01 2.766607e-01 2.276905e-01 1.438168e+00 5.080130e-02 5.505444e-02 5.133018e-02 4.338498e-02 4.099836e-02 3.788397e-02 1.988437e-02 2.487629e-02 4.729287e-02 4.545431e-02 3.059539e-02 3.648933e-02 5.879293e-02 8.686537e-03 8.558886e-03 8.223542e-03 7.571436e-03 8.122261e-03 9.845519e-03 4.712163e-03 6.545204e-03 8.939996e-03 8.820650e-03 6.185950e-03 6.570806e-03 1.007706e-02
<GCONST> -4.403599e+01
<TRANSP> 8
 0.000000e+00 8.395651e-01 1.604349e-01 0.000000e+00 0.000000e+00 0.000000e+00 0.000000e+00 0.000000e+00
 0.000000e+00 7.758641e-01 1.640668e-01 6.006913e-02 0.000000e+00 0.000000e+00 0.000000e+00 0.000000e+00
 0.000000e+00 0.000000e+00 7.035509e-01 2.964490e-01 0.000000e+00 0.000000e+00 0.000000e+00 0.000000e+00
 0.000000e+00 0.000000e+00 0.000000e+00 6.650523e-01 1.346837e-01 2.002640e-01 0.000000e+00 0.000000e+00
 0.000000e+00 0.000000e+00 0.000000e+00 0.000000e+00 7.703340e-01 2.296660e-01 0.000000e+00 0.000000e+00
 0.000000e+00 0.000000e+00 0.000000e+00 0.000000e+00 0.000000e+00 7.338859e-01 2.661141e-01 0.000000e+00
 0.000000e+00 0.000000e+00 0.000000e+00 0.000000e+00 0.000000e+00 0.000000e+00 7.457617e-01 2.542384e-01
 0.000000e+00 0.000000e+00 0.000000e+00 0.000000e+00 0.000000e+00 0.000000e+00 0.000000e+00 0.000000e+00
<ENDHMM>
