~o
<STREAMINFO> 1 39
<VECSIZE> 39<NULLD><MFCC_D_A_0><DIAGC>
~h "empat"
<BEGINHMM>
<NUMSTATES> 6
<STATE> 2
<MEAN> 39
 -6.115083e+00 6.424642e+00 -6.554164e-01 1.076275e+01 9.557746e+00 4.198914e+00 2.965816e+00 7.958973e+00 2.840803e+00 -2.570501e+00 -5.854705e+00 -4.528714e+00 6.428940e+01 -2.504858e-01 8.747167e-02 7.503382e-02 -9.454167e-02 -3.932059e-02 1.577178e-01 1.794335e-01 2.245406e-02 1.051229e-01 8.848479e-02 -1.825627e-01 -2.365299e-01 -2.073914e-01 -4.443316e-02 -1.047748e-01 -8.109298e-02 -1.772727e-01 -1.690157e-01 -1.125161e-01 -1.018809e-01 -1.038381e-01 -3.968675e-02 7.890445e-02 1.275196e-01 9.450652e-02 9.430238e-03
<VARIANCE> 39
 1.329322e+01 2.539901e+01 1.871777e+01 1.907545e+01 1.763301e+01 1.087156e+01 1.543466e+01 2.457838e+01 8.814582e+00 1.093842e+01 9.821777e+00 1.203505e+01 9.220643e+00 1.293979e+00 5.433971e-01 5.857783e-01 1.349614e+00 1.528870e+00 1.024145e+00 1.275906e+00 9.865598e-01 7.406661e-01 1.224658e+00 8.561074e-01 9.194756e-01 6.806282e-01 1.816193e-01 1.055428e-01 1.042450e-01 1.684186e-01 1.916474e-01 2.011703e-01 2.250999e-01 1.255191e-01 1.554850e-01 2.055303e-01 1.239108e-01 1.644142e-01 1.342277e-01
<GCONST> 8.133958e+01
<STATE> 3
<MEAN> 39
 -9.044376e-01 3.685715e+00 -4.911407e-01 4.194302e+00 -2.362864e+00 -4.537323e-01 -2.515409e+00 5.371193e+00 5.412101e+00 -5.856491e+00 -4.705358e+00 1.435978e+00 5.180136e+01 4.988559e-01 -2.860051e-01 -3.601798e-01 -4.321925e-01 -3.349836e-01 -1.653804e-01 -1.675221e-01 -1.702074e-01 -3.829209e-02 -1.028094e-01 1.820906e-01 6.031329e-01 4.891295e-01 -2.834080e-02 1.289330e-02 -8.075336e-02 -2.456553e-02 4.988904e-02 -5.328549e-03 2.018809e-02 5.311728e-02 2.760486e-03 3.730088e-03 -4.994832e-03 1.196359e-02 -4.044515e-02
<VARIANCE> 39
 7.441898e+01 8.125838e+01 4.388150e+01 5.218575e+01 9.046643e+01 5.200654e+01 2.945595e+01 5.181075e+01 6.144400e+01 6.943362e+01 5.175058e+01 8.510690e+01 1.227901e+02 5.098949e+00 6.656559e+00 5.018278e+00 5.144436e+00 7.347463e+00 5.294311e+00 3.525995e+00 4.633757e+00 6.695513e+00 4.448422e+00 5.194102e+00 5.937725e+00 6.163715e+00 6.833861e-01 1.083049e+00 8.423005e-01 9.513390e-01 1.193903e+00 9.723160e-01 6.264496e-01 9.415348e-01 1.172881e+00 7.976362e-01 9.186786e-01 9.485742e-01 8.358850e-01
<GCONST> 1.460540e+02
<STATE> 4
<MEAN> 39
 2.641410e-01 -5.895383e+00 -1.688898e+01 -6.917403e+00 -2.973870e+00 -4.194608e+00 -4.425239e+00 4.229658e+00 6.397141e+00 8.861067e-03 1.623185e+00 1.335872e+01 7.285080e+01 -4.981863e-01 3.176742e-01 -3.195532e-02 -7.382932e-02 1.734448e-02 2.955558e-01 1.311217e-01 -1.083782e-01 -3.677253e-01 -8.928310e-02 1.046014e-01 -5.845320e-02 -5.873868e-01 -8.170815e-02 1.136981e-01 1.726334e-01 1.065750e-01 7.785046e-02 6.104350e-02 2.757482e-02 1.952343e-03 -5.727735e-02 2.890530e-02 3.646230e-03 -1.429279e-01 -8.665986e-02
<VARIANCE> 39
 1.955838e+01 1.814351e+01 1.063697e+01 7.643980e+00 1.000032e+01 2.063045e+01 1.446655e+01 2.238873e+01 3.162754e+01 1.560759e+01 1.117826e+01 1.880549e+01 3.339545e+01 2.604180e-01 6.445616e-01 1.213391e+00 6.609976e-01 7.461280e-01 1.089013e+00 1.206121e+00 1.568758e+00 1.389772e+00 9.991319e-01 7.703512e-01 1.784865e+00 4.927638e-01 7.880975e-02 1.318689e-01 2.656094e-01 1.732746e-01 1.843206e-01 2.464446e-01 2.509874e-01 3.517867e-01 2.655174e-01 1.862766e-01 1.486263e-01 2.909824e-01 1.005345e-01
<GCONST> 8.487044e+01
<STATE> 5
<MEAN> 39
 -6.113600e+00 8.157554e+00 -1.797756e+00 1.089754e+00 -2.072638e+00 9.704207e-01 -1.057034e+00 -8.526278e-01 -1.596380e+00 -5.202632e+00 1.489329e-02 5.522840e+00 5.364510e+01 -4.738876e-01 5.830879e-01 5.874830e-01 3.405078e-01 4.963628e-01 8.008245e-02 1.177366e-01 -1.133450e-01 -4.365008e-01 2.762132e-01 9.527317e-03 -6.316585e-01 -5.006680e-01 1.352063e-01 -1.333542e-01 1.476147e-01 1.308923e-01 -6.784631e-02 -1.238615e-02 -3.686883e-02 1.634094e-02 1.183219e-01 -1.109086e-01 -1.288641e-01 -2.632216e-02 1.705766e-01
<VARIANCE> 39
 2.577396e+01 3.562332e+01 4.706567e+01 3.608068e+01 2.909820e+01 3.583777e+01 2.452997e+01 4.851948e+01 2.835780e+01 3.081182e+01 2.243906e+01 3.727968e+01 1.777536e+02 2.219868e+00 3.106619e+00 2.780072e+00 3.869988e+00 3.211983e+00 2.954954e+00 2.657739e+00 4.086802e+00 3.413841e+00 2.261019e+00 2.484758e+00 3.686852e+00 2.177990e+00 2.985085e-01 4.111239e-01 4.203851e-01 6.315258e-01 5.271078e-01 4.190074e-01 5.759946e-01 7.823212e-01 6.155560e-01 4.771283e-01 5.578658e-01 7.221066e-01 2.811095e-01
<GCONST> 1.234954e+02
<TRANSP> 6
 0.000000e+00 4.687588e-01 5.312412e-01 0.000000e+00 0.000000e+00 0.000000e+00
 0.000000e+00 9.364423e-01 6.355771e-02 0.000000e+00 0.000000e+00 0.000000e+00
 0.000000e+00 0.000000e+00 9.358991e-01 2.410221e-02 3.999865e-02 0.000000e+00
 0.000000e+00 0.000000e+00 0.000000e+00 9.544119e-01 4.558810e-02 0.000000e+00
 0.000000e+00 0.000000e+00 0.000000e+00 0.000000e+00 8.104725e-01 1.895275e-01
 0.000000e+00 0.000000e+00 0.000000e+00 0.000000e+00 0.000000e+00 0.000000e+00
<ENDHMM>
