~o
<STREAMINFO> 1 39
<VECSIZE> 39<NULLD><MFCC_D_A_0><DIAGC>
~h "kali"
<BEGINHMM>
<NUMSTATES> 6
<STATE> 2
<MEAN> 39
 -3.266128e+00 -1.521806e+00 1.108013e+00 3.590311e+00 1.685032e-01 -2.608844e+00 -2.174372e+00 -4.221848e+00 -2.393936e+00 -6.737398e+00 2.338506e+00 2.108187e+00 6.152079e+01 4.237628e-01 4.483427e-02 -1.254527e-01 1.625174e-02 -4.422688e-02 -2.673945e-01 -1.895218e-01 7.794715e-02 2.322347e-01 9.984651e-02 -9.984504e-02 -4.034530e-03 4.047048e-01 -2.708869e-02 1.389227e-02 -6.888297e-03 -5.511101e-02 -4.488662e-02 8.373843e-04 2.687247e-02 5.038775e-02 6.410924e-02 -1.523253e-02 -1.025900e-02 3.814063e-02 -9.154402e-03
<VARIANCE> 39
 9.196464e+01 6.115269e+01 8.380014e+01 1.576351e+02 8.726463e+01 7.178582e+01 9.625280e+01 3.964931e+01 5.160662e+01 5.901212e+01 3.219578e+01 3.444333e+01 9.379617e+01 4.992359e+00 5.433791e+00 4.983114e+00 5.233616e+00 4.918217e+00 5.973145e+00 5.252536e+00 3.773137e+00 5.729030e+00 3.347289e+00 3.383376e+00 3.154953e+00 3.214409e+00 6.519865e-01 9.821947e-01 8.109357e-01 8.381411e-01 8.760173e-01 1.159077e+00 1.062877e+00 7.111530e-01 1.093217e+00 6.319182e-01 6.236810e-01 5.376361e-01 5.247143e-01
<GCONST> 1.425778e+02
<STATE> 3
<MEAN> 39
 3.175081e+00 -4.447483e+00 -5.285960e+00 -1.228617e+01 -6.875150e+00 -1.171554e+01 6.867684e+00 -7.390423e+00 1.967689e-01 -8.540080e+00 -6.437185e-01 -1.847992e-01 8.051775e+01 3.048230e-02 2.894436e-01 4.612437e-01 7.176080e-01 4.174333e-01 -2.523778e-01 -3.055236e-01 -4.403626e-01 -8.979688e-01 -3.795245e-01 -5.973013e-02 1.760943e-01 -2.925864e-01 -8.181272e-02 3.537711e-02 1.210078e-01 1.341498e-01 1.568956e-01 1.350090e-02 -2.729323e-02 -6.027511e-02 -1.234545e-01 -1.914601e-02 2.230674e-02 -9.210489e-02 -6.717840e-02
<VARIANCE> 39
 2.844700e+00 1.045386e+02 3.869337e+01 3.529799e+01 4.092140e+01 4.014961e+01 1.817336e+02 6.462516e+01 5.587164e+01 4.104453e+01 6.043129e+01 7.521661e+01 1.662510e+01 2.072671e-01 3.484049e-01 7.412860e-01 1.068763e+00 1.183540e+00 1.464761e+00 1.343146e+00 1.517377e+00 2.657709e+00 1.437391e+00 1.745196e+00 1.829891e+00 2.070175e-01 5.960296e-02 7.701873e-02 1.284529e-01 1.569315e-01 1.846352e-01 2.556108e-01 3.051343e-01 2.737784e-01 3.918344e-01 2.514009e-01 3.056402e-01 3.227029e-01 3.282513e-02
<GCONST> 9.679096e+01
<STATE> 4
<MEAN> 39
 -4.066068e-02 1.124625e+00 -1.843867e+00 1.161730e+01 7.768487e+00 -4.997731e+00 -7.840341e+00 4.281761e-01 -3.181751e+00 -3.578954e+00 2.260769e+00 2.001744e+00 6.199271e+01 -2.175908e-01 7.171886e-02 3.427201e-01 1.220449e-01 1.172285e-01 1.135456e-01 5.317318e-02 1.339214e-01 2.610610e-01 6.900782e-03 -2.665005e-01 -2.387238e-01 -1.171858e-01 -1.478933e-02 -2.039474e-02 3.041540e-03 -6.163120e-02 -6.903879e-02 6.056282e-02 5.322480e-02 -1.428519e-02 6.362066e-02 3.307660e-03 4.816735e-03 4.073380e-02 1.585630e-02
<VARIANCE> 39
 4.417756e+01 6.767124e+01 5.401860e+01 6.195616e+01 4.796537e+01 4.246178e+01 3.851260e+01 3.528325e+01 4.999283e+01 3.415042e+01 4.774308e+01 3.171229e+01 1.222961e+02 1.446694e+00 2.766477e+00 2.507927e+00 2.927801e+00 3.577522e+00 2.111724e+00 3.313044e+00 2.006051e+00 2.542130e+00 1.727064e+00 2.079526e+00 1.929798e+00 1.255521e+00 1.757641e-01 4.385971e-01 3.734924e-01 3.573926e-01 4.545932e-01 4.048979e-01 6.164803e-01 3.567322e-01 4.658189e-01 3.101352e-01 3.974510e-01 3.190890e-01 1.700940e-01
<GCONST> 1.190396e+02
<STATE> 5
<MEAN> 39
 -6.841498e+00 -4.022132e-01 5.273890e+00 1.962225e+00 3.883578e+00 -1.634081e+01 -1.410903e+00 -1.205056e+01 -5.360926e+00 -9.775277e+00 -4.231625e+00 -5.768228e+00 7.170020e+01 -3.455930e-01 3.399055e-02 9.489497e-02 -8.258918e-02 1.550409e-01 6.114463e-02 -5.414826e-02 1.683857e-01 3.485585e-01 2.125403e-01 1.310549e-01 -3.665132e-02 -1.924397e-01 3.763580e-02 -4.170557e-03 -2.456166e-02 -4.965404e-02 -5.889977e-02 -4.808507e-03 2.207642e-02 4.040422e-02 1.999683e-02 2.416104e-02 -8.619867e-03 3.155207e-02 1.490679e-02
<VARIANCE> 39
 4.474562e+01 7.377783e+01 8.026129e+01 6.120472e+01 5.313821e+01 1.330307e+02 1.005185e+02 7.757421e+01 3.624648e+01 2.664701e+01 3.201009e+01 2.138381e+01 6.318366e+01 1.187992e+00 1.165240e+00 1.238865e+00 2.313275e+00 1.882495e+00 4.275671e+00 2.139551e+00 2.297620e+00 2.411859e+00 1.498074e+00 2.765417e+00 1.762944e+00 8.944514e-01 1.516378e-01 1.881038e-01 1.455857e-01 2.418379e-01 2.549966e-01 6.130695e-01 3.486971e-01 4.179872e-01 4.741441e-01 3.104560e-01 4.790095e-01 2.988760e-01 1.315896e-01
<GCONST> 1.148919e+02
<TRANSP> 6
 0.000000e+00 8.600757e-01 1.399243e-01 0.000000e+00 0.000000e+00 0.000000e+00
 0.000000e+00 9.259964e-01 3.874091e-02 3.526273e-02 0.000000e+00 0.000000e+00
 0.000000e+00 0.000000e+00 9.339573e-01 2.239411e-02 4.364856e-02 0.000000e+00
 0.000000e+00 0.000000e+00 0.000000e+00 9.164915e-01 1.360944e-36 8.350852e-02
 0.000000e+00 0.000000e+00 0.000000e+00 0.000000e+00 9.691847e-01 3.081533e-02
 0.000000e+00 0.000000e+00 0.000000e+00 0.000000e+00 0.000000e+00 0.000000e+00
<ENDHMM>
