~o
<STREAMINFO> 1 39
<VECSIZE> 39<NULLD><MFCC_D_A_0><DIAGC>
~h "lima"
<BEGINHMM>
<NUMSTATES> 6
<STATE> 2
<MEAN> 39
 2.005414e+00 5.225450e+00 -2.980972e-01 1.027222e+01 4.401716e+00 -4.161092e+00 -3.255945e+00 3.304646e+00 1.117052e+00 -7.013736e+00 -1.045870e+00 5.362171e-01 5.712558e+01 2.275057e-01 1.413263e-01 4.119509e-02 1.387354e-01 7.441757e-02 -3.015583e-01 -2.184580e-01 4.420841e-02 8.048803e-03 -6.477544e-02 -1.090305e-01 -4.391408e-02 1.964765e-01 -5.294462e-02 -2.973112e-02 -9.157227e-03 -9.035756e-02 -4.278842e-02 4.248795e-02 2.579865e-02 3.278803e-02 4.235919e-02 -1.036059e-02 4.474978e-03 3.310695e-02 -3.218391e-02
<VARIANCE> 39
 4.397847e+01 5.057086e+01 5.439597e+01 8.153356e+01 7.189225e+01 5.633609e+01 6.900750e+01 1.112147e+02 7.260553e+01 4.839607e+01 5.128069e+01 6.169471e+01 1.074699e+02 2.114644e+00 3.198910e+00 3.746442e+00 3.903090e+00 5.276666e+00 4.496842e+00 5.499672e+00 3.823028e+00 4.022554e+00 3.848512e+00 3.823405e+00 4.046840e+00 2.373271e+00 3.104150e-01 5.089553e-01 5.947358e-01 5.053091e-01 7.820202e-01 8.116673e-01 8.994637e-01 6.074405e-01 7.795911e-01 6.727884e-01 6.849616e-01 6.122125e-01 3.250034e-01
<GCONST> 1.363398e+02
<STATE> 3
<MEAN> 39
 3.441987e-01 -7.272609e+00 7.946313e+00 -1.088377e+01 5.705134e+00 -2.153436e+01 1.857766e+01 -1.539455e+01 -4.065750e+00 -1.118110e+01 -7.011470e+00 -3.746873e+00 7.776186e+01 1.591807e-02 -2.031454e-01 -1.267664e-01 -1.753569e-01 -1.483931e-01 1.985921e-01 1.350694e-01 6.094536e-02 1.019888e-01 -2.347706e-02 1.567766e-01 2.188885e-01 1.080878e-02 -2.216674e-02 5.752559e-03 -2.746633e-03 9.733001e-03 1.807786e-02 1.906421e-02 -8.832758e-03 -8.661280e-03 2.446848e-02 2.512906e-02 3.070836e-02 5.100626e-03 -2.093904e-02
<VARIANCE> 39
 2.588843e+01 5.717192e+01 6.160542e+01 8.456466e+01 9.981108e+01 1.736378e+02 1.076696e+02 6.691373e+01 4.965510e+01 3.559221e+01 5.489988e+01 5.653138e+01 4.553144e+01 8.151270e-01 2.885364e+00 2.067032e+00 2.710850e+00 4.250746e+00 4.224933e+00 3.076009e+00 4.197116e+00 2.851599e+00 2.706199e+00 3.373361e+00 3.053015e+00 2.256634e+00 1.359772e-01 3.989129e-01 2.877275e-01 3.719197e-01 6.465923e-01 6.430339e-01 4.327271e-01 7.079924e-01 5.769544e-01 5.107253e-01 5.939497e-01 5.303686e-01 2.905706e-01
<GCONST> 1.279055e+02
<STATE> 4
<MEAN> 39
 -2.115456e+00 7.698132e+00 1.819798e+00 1.043485e+01 7.298053e+00 -5.447541e+00 -8.863830e+00 -2.451784e+00 -1.764454e+00 -4.053694e+00 -1.719438e+00 -3.673014e+00 6.836973e+01 2.825453e-01 5.107297e-02 -4.780594e-01 -7.698692e-01 -5.386038e-01 -2.175168e-02 3.958523e-01 3.768605e-01 2.883638e-01 -1.871729e-02 -7.240170e-02 1.719501e-01 1.721869e-01 1.838193e-02 -1.018041e-01 -6.735696e-02 -1.249299e-01 -1.505229e-01 -2.968185e-03 1.059996e-01 2.951284e-02 -2.205592e-02 -2.830642e-02 1.125954e-01 1.619600e-01 6.749620e-02
<VARIANCE> 39
 1.409473e+01 5.913210e+01 4.312742e+01 7.026699e+01 7.623553e+01 3.408234e+01 3.604767e+01 3.689794e+01 3.041324e+01 2.500323e+01 2.759038e+01 2.620852e+01 2.312053e+01 4.854668e-01 1.279910e+00 1.582111e+00 2.632277e+00 2.825123e+00 2.390089e+00 2.265111e+00 1.595870e+00 1.286918e+00 1.322214e+00 2.180447e+00 2.521074e+00 6.383435e-01 7.345579e-02 1.372439e-01 2.054753e-01 2.980782e-01 3.231127e-01 3.846033e-01 3.530464e-01 2.461839e-01 2.174433e-01 2.457459e-01 2.961658e-01 2.929583e-01 6.436133e-02
<GCONST> 1.037305e+02
<STATE> 5
<MEAN> 39
 -7.152516e-01 3.355591e+00 -5.973441e+00 -3.291150e+00 -3.850307e+00 -4.579653e+00 8.465092e-01 2.893392e+00 2.399523e-01 -7.393780e+00 2.932992e-01 4.144228e+00 7.026930e+01 -3.859037e-01 -9.791914e-02 4.257285e-02 3.124929e-04 -2.489751e-03 2.668817e-01 1.001480e-01 -1.513816e-01 -7.407127e-02 4.353704e-02 2.348815e-02 1.160993e-01 -2.841021e-01 -5.042495e-02 8.284659e-02 7.116994e-02 1.160529e-01 1.197560e-01 1.164523e-02 -8.797948e-02 -6.579775e-02 1.426398e-02 5.076715e-02 -8.954414e-02 -1.563803e-01 -7.764556e-02
<VARIANCE> 39
 3.805137e+01 5.704773e+01 5.822220e+01 4.647499e+01 4.958547e+01 4.385757e+01 3.417633e+01 6.271966e+01 3.822842e+01 3.718321e+01 3.552888e+01 3.982682e+01 6.837416e+01 6.471121e-01 1.177620e+00 9.275045e-01 1.262211e+00 1.475448e+00 1.282014e+00 1.476048e+00 1.245103e+00 1.724327e+00 1.792714e+00 1.436897e+00 1.911658e+00 1.085817e+00 9.284365e-02 1.486911e-01 1.668155e-01 2.428118e-01 2.743368e-01 2.517644e-01 2.748975e-01 2.814728e-01 2.781994e-01 3.109872e-01 2.733390e-01 3.101387e-01 1.099103e-01
<GCONST> 1.048665e+02
<TRANSP> 6
 0.000000e+00 8.000340e-01 1.999660e-01 0.000000e+00 0.000000e+00 0.000000e+00
 0.000000e+00 9.237901e-01 9.240501e-03 6.696942e-02 0.000000e+00 0.000000e+00
 0.000000e+00 0.000000e+00 9.621773e-01 0.000000e+00 3.782268e-02 0.000000e+00
 0.000000e+00 0.000000e+00 0.000000e+00 9.255636e-01 5.641261e-02 1.802377e-02
 0.000000e+00 0.000000e+00 0.000000e+00 0.000000e+00 9.261974e-01 7.380265e-02
 0.000000e+00 0.000000e+00 0.000000e+00 0.000000e+00 0.000000e+00 0.000000e+00
<ENDHMM>
