~o
<STREAMINFO> 1 39
<VECSIZE> 39<NULLD><MFCC_D_A_0><DIAGC>
~h "puluh"
<BEGINHMM>
<NUMSTATES> 6
<STATE> 2
<MEAN> 39
 -3.869910e+00 2.999897e+00 -4.239724e+00 2.247112e+00 -3.717880e+00 -5.216348e+00 -4.988155e+00 3.578293e+00 3.424080e+00 -2.384778e+00 -2.814587e+00 4.431944e-01 5.423837e+01 5.695152e-01 -3.340071e-01 5.572574e-01 5.970011e-01 5.726324e-01 5.904773e-01 -3.131764e-01 -9.559464e-02 1.427618e-01 -7.616082e-02 4.178165e-01 -1.378753e-01 6.335672e-01 3.036985e-01 2.597940e-01 1.475571e-01 1.029951e-01 -1.193724e-01 -3.849819e-01 -2.166126e-01 3.365992e-01 2.902103e-01 -2.292642e-01 -3.350795e-01 -3.695469e-02 1.359106e-01
<VARIANCE> 39
 2.905275e+01 8.439551e+01 3.222963e+01 5.050885e+01 2.426051e+01 4.128390e+01 2.626587e+01 1.742401e+01 1.418416e+01 2.647945e+01 1.622079e+01 1.352034e+01 1.369737e+02 4.486357e+00 1.219587e+01 4.392333e+00 4.687953e+00 3.110550e+00 5.233480e+00 2.800956e+00 4.801871e+00 2.841299e+00 4.534580e+00 2.813304e+00 2.670369e+00 5.239697e+00 4.696179e-01 2.650743e+00 7.576212e-01 8.158699e-01 4.363230e-01 1.074873e+00 6.946004e-01 7.875399e-01 5.240929e-01 7.793883e-01 5.703627e-01 6.055274e-01 7.598585e-01
<GCONST> 1.309402e+02
<STATE> 3
<MEAN> 39
 8.007689e+00 4.387921e+00 -4.647506e-01 5.819322e+00 -3.870315e+00 -1.203568e-01 -5.957635e+00 5.767039e+00 9.314702e+00 -1.131409e+01 -9.105967e+00 1.080752e+00 5.493694e+01 -5.280873e-02 2.129812e-01 -2.946366e-01 -7.198554e-02 2.822528e-01 -1.623795e-01 2.559316e-01 5.514651e-01 -1.307815e-01 -1.342126e-02 2.573391e-01 -2.334875e-03 -1.749026e-01 -1.073767e-01 -4.328464e-02 -1.092679e-01 -4.202495e-02 -1.154545e-02 -3.032850e-02 1.755458e-01 9.579625e-03 -1.348727e-01 2.005124e-01 1.517823e-01 -4.211454e-02 -7.877149e-02
<VARIANCE> 39
 1.251496e+01 1.925504e+01 7.810593e+01 2.104812e+01 8.227885e+01 4.448275e+01 3.448072e+01 4.953433e+01 6.104725e+01 3.814745e+01 4.196419e+01 4.653065e+01 1.745364e+01 1.051541e+00 2.951035e+00 1.024119e+01 2.534795e+00 1.228872e+01 6.038353e+00 4.409441e+00 5.402105e+00 9.484904e+00 4.133060e+00 5.837057e+00 5.095257e+00 1.032732e+00 1.988611e-01 5.846357e-01 1.727948e+00 6.136850e-01 2.330379e+00 1.286471e+00 6.814250e-01 1.033661e+00 1.962494e+00 8.209292e-01 1.146542e+00 8.949129e-01 2.096989e-01
<GCONST> 1.349592e+02
<STATE> 4
<MEAN> 39
 -5.754539e-01 5.024648e+00 -3.082574e+00 5.268434e+00 2.366880e+00 -7.059052e+00 -8.173077e+00 5.915084e+00 4.572083e+00 -3.215153e+00 -6.914204e+00 -4.039982e+00 6.799827e+01 -2.739396e-01 -5.090039e-02 -8.300988e-02 -1.501255e-01 1.692182e-02 2.999606e-01 1.557508e-01 -1.570580e-01 -6.652958e-02 5.137048e-02 -1.775072e-02 2.498225e-02 -2.078010e-01 -4.112736e-02 -2.298447e-02 -2.439400e-02 -1.786730e-02 -8.701901e-03 5.575166e-02 5.596386e-02 -3.478231e-02 -4.267592e-03 2.365398e-02 2.470541e-02 3.005841e-02 -2.695728e-02
<VARIANCE> 39
 2.409173e+01 3.014794e+01 4.714151e+01 1.796625e+01 5.681402e+01 2.909891e+01 7.612594e+01 2.348888e+01 2.142713e+01 2.698574e+01 2.454678e+01 2.244885e+01 3.504029e+01 3.490195e-01 6.474168e-01 2.037438e+00 1.079537e+00 2.256344e+00 2.407844e+00 1.678470e+00 1.903916e+00 1.506755e+00 1.136106e+00 1.437051e+00 1.113015e+00 3.652886e-01 3.535201e-02 1.229847e-01 2.937075e-01 1.766702e-01 2.613667e-01 4.280134e-01 3.071060e-01 3.595743e-01 2.659625e-01 2.099132e-01 2.212848e-01 1.776950e-01 3.454537e-02
<GCONST> 9.601230e+01
<STATE> 5
<MEAN> 39
 -3.124993e+00 8.359530e+00 -5.391747e+00 -1.758648e+00 -4.772048e+00 -7.655481e-01 3.718640e+00 9.351387e+00 3.794576e+00 -2.197631e+00 -3.671264e-01 1.848873e-01 4.717024e+01 -5.124360e-01 -1.894851e-01 -4.254669e-02 -2.705416e-01 -1.436517e-01 -1.511582e-01 -6.974273e-02 -4.903522e-01 -3.058406e-01 1.799217e-01 7.293066e-02 -1.405874e-01 -2.429438e-01 2.294882e-02 -7.236707e-02 1.217065e-01 3.571034e-02 -7.927334e-03 -1.597179e-02 -1.732048e-01 -1.209582e-01 -2.801070e-02 -1.953346e-01 -6.066913e-02 7.348327e-02 8.081778e-02
<VARIANCE> 39
 4.040609e+01 5.660039e+01 4.874641e+01 4.717866e+01 5.862039e+01 5.328904e+01 5.296190e+01 4.033610e+01 3.674995e+01 6.169369e+01 2.621551e+01 3.024634e+01 6.898232e+01 1.949494e+00 5.948880e+00 5.077808e+00 5.765438e+00 4.238368e+00 4.632682e+00 6.889624e+00 3.733150e+00 4.010652e+00 7.628725e+00 3.427955e+00 4.300165e+00 2.331224e+00 2.425270e-01 1.149284e+00 9.177945e-01 1.065670e+00 6.233769e-01 9.483239e-01 1.322341e+00 8.104319e-01 8.933815e-01 1.301911e+00 7.664399e-01 9.526703e-01 3.293653e-01
<GCONST> 1.374822e+02
<TRANSP> 6
 0.000000e+00 6.250058e-01 3.749942e-01 0.000000e+00 0.000000e+00 0.000000e+00
 0.000000e+00 8.632026e-01 1.367974e-01 0.000000e+00 0.000000e+00 0.000000e+00
 0.000000e+00 0.000000e+00 9.022761e-01 5.496974e-02 4.275417e-02 0.000000e+00
 0.000000e+00 0.000000e+00 0.000000e+00 9.632884e-01 3.671163e-02 0.000000e+00
 0.000000e+00 0.000000e+00 0.000000e+00 0.000000e+00 8.974459e-01 1.025541e-01
 0.000000e+00 0.000000e+00 0.000000e+00 0.000000e+00 0.000000e+00 0.000000e+00
<ENDHMM>
