~o
<STREAMINFO> 1 39
<VECSIZE> 39<NULLD><MFCC_D_A_0><DIAGC>
~h "sembilan"
<BEGINHMM>
<NUMSTATES> 6
<STATE> 2
<MEAN> 39
 -1.538550e+01 -9.949965e+00 5.074944e+00 -2.141502e+00 -2.063904e+00 3.016818e+00 -2.039044e+00 -3.760781e+00 -1.704754e+00 3.613330e-01 3.648095e+00 1.132237e+00 6.012563e+01 7.805569e-01 9.047457e-01 -5.947595e-01 6.155257e-01 8.885092e-01 -2.742671e-01 3.005856e-03 4.114650e-01 7.167611e-03 5.549306e-04 8.344330e-02 2.515686e-01 8.765165e-02 4.495263e-01 3.659801e-01 -4.318749e-02 3.308462e-01 2.978795e-01 9.391850e-02 -1.062047e-01 1.871026e-01 -2.721921e-02 -1.386564e-01 -1.819338e-01 -5.951107e-02 -8.101121e-03
<VARIANCE> 39
 7.379342e+01 5.778608e+01 9.122443e+01 7.172044e+01 7.604398e+01 4.770373e+01 4.529501e+01 4.822261e+01 4.779301e+01 3.423173e+01 2.034940e+01 2.115448e+01 1.500529e+02 4.538119e+00 9.718801e+00 6.191883e+00 5.382471e+00 8.726837e+00 5.165973e+00 4.223937e+00 5.426972e+00 3.317353e+00 3.086290e+00 2.038986e+00 2.106772e+00 2.948220e+00 2.544684e-01 7.841904e-01 1.270879e+00 5.197028e-01 1.033473e+00 9.915032e-01 8.553746e-01 8.680469e-01 5.238397e-01 6.990500e-01 4.709104e-01 4.683851e-01 4.173780e-01
<GCONST> 1.365914e+02
<STATE> 3
<MEAN> 39
 -3.324957e+00 3.132724e+00 2.950933e+00 1.241654e+01 9.179224e+00 2.048905e+00 -6.117892e+00 -5.346655e+00 -4.866007e+00 -2.281242e+00 7.757478e-01 8.340624e-01 6.882465e+01 5.097908e-01 1.809705e-01 -4.520192e-01 3.618495e-01 2.211383e-01 -3.656431e-01 -4.073641e-01 2.072267e-02 -2.615781e-01 -2.434870e-01 7.900696e-02 7.992830e-02 5.178480e-02 -1.284757e-01 -1.468862e-01 -3.847490e-02 -1.894344e-01 -1.753808e-01 -4.965470e-02 7.790398e-02 -4.536084e-02 1.667053e-02 5.768187e-02 5.484304e-02 2.776640e-02 1.861266e-02
<VARIANCE> 39
 9.423500e+00 5.719105e+01 2.899360e+01 3.472120e+01 6.264461e+01 3.517600e+01 4.941859e+01 3.933684e+01 3.250304e+01 1.772686e+01 3.919017e+01 3.614463e+01 3.057643e+01 1.325689e+00 3.082672e+00 1.866224e+00 2.589197e+00 2.589016e+00 2.417136e+00 3.172216e+00 1.452940e+00 2.282181e+00 1.406236e+00 2.743954e+00 2.606461e+00 6.968424e-01 1.739050e-01 4.292339e-01 2.796262e-01 3.190908e-01 3.949204e-01 4.531786e-01 6.001608e-01 3.257802e-01 4.174315e-01 2.511287e-01 4.069015e-01 3.394212e-01 1.083754e-01
<GCONST> 1.114798e+02
<STATE> 4
<MEAN> 39
 1.011533e+00 -3.318808e+00 -1.240348e+01 2.421896e+00 6.985449e+00 -4.452868e+00 -5.372635e+00 5.198125e+00 -3.272235e+00 -4.799521e-01 9.230843e+00 1.020907e+01 7.262444e+01 -1.993949e-01 2.921341e-01 2.888214e-02 -2.117385e-01 -4.289991e-02 4.217464e-01 4.944168e-01 3.555262e-01 4.831109e-01 5.274218e-02 -3.898657e-01 -1.041535e-01 -2.607486e-01 -6.238681e-02 -2.421872e-02 7.087851e-02 5.629782e-02 5.038931e-02 2.886223e-02 -3.909668e-02 -3.694493e-02 -8.512047e-03 -2.581251e-02 -4.477438e-02 -7.908238e-02 -2.221656e-02
<VARIANCE> 39
 9.188289e+00 2.335356e+01 1.764167e+01 3.415792e+01 1.749324e+01 3.606077e+01 2.824151e+01 2.979347e+01 3.663909e+01 1.740863e+01 2.836632e+01 9.935016e+00 1.715654e+01 2.786166e-01 7.885762e-01 8.942216e-01 1.841368e+00 1.177362e+00 1.120907e+00 1.175165e+00 1.728963e+00 1.295861e+00 1.372614e+00 1.439888e+00 7.545641e-01 4.292150e-01 2.203122e-02 8.787829e-02 8.508499e-02 1.455297e-01 1.468308e-01 2.079991e-01 1.954233e-01 2.311718e-01 2.008567e-01 2.360397e-01 2.287926e-01 1.131978e-01 3.358280e-02
<GCONST> 8.403297e+01
<STATE> 5
<MEAN> 39
 3.879196e+00 4.730725e+00 -1.235303e-02 1.176647e+01 3.777611e+00 1.123277e+00 -3.056329e+00 3.494492e+00 1.985359e+00 -7.656993e+00 -2.482345e+00 4.415812e+00 5.182993e+01 -4.373581e-02 -1.029849e-01 1.514351e-01 -1.411904e-01 -2.689047e-01 1.341087e-01 -1.947465e-02 -1.946944e-01 1.631724e-02 -7.933773e-02 8.263125e-04 5.756338e-02 5.340457e-02 -1.375246e-02 -7.855742e-02 -3.833761e-02 -3.201244e-02 -5.060831e-02 -1.413417e-02 -1.727106e-02 -2.747964e-02 -3.915766e-02 9.613487e-03 6.551392e-02 4.653585e-02 1.507235e-02
<VARIANCE> 39
 3.221755e+01 7.170311e+01 3.963778e+01 4.336528e+01 9.921748e+01 4.493017e+01 3.917174e+01 5.081589e+01 4.132153e+01 3.250594e+01 4.152518e+01 6.122632e+01 4.347562e+01 1.062576e+00 4.337389e+00 3.781162e+00 3.738779e+00 6.200956e+00 5.087730e+00 3.286393e+00 3.653086e+00 4.210021e+00 2.669552e+00 3.851731e+00 4.216929e+00 1.323154e+00 1.792514e-01 5.974687e-01 6.808548e-01 6.401970e-01 9.140574e-01 9.857495e-01 6.642281e-01 6.372328e-01 8.414249e-01 5.267340e-01 6.318524e-01 6.468868e-01 1.820439e-01
<GCONST> 1.298466e+02
<TRANSP> 6
 0.000000e+00 9.037575e-01 9.624255e-02 0.000000e+00 0.000000e+00 0.000000e+00
 0.000000e+00 8.874392e-01 1.125608e-01 0.000000e+00 0.000000e+00 0.000000e+00
 0.000000e+00 0.000000e+00 9.248496e-01 2.818161e-02 4.696881e-02 0.000000e+00
 0.000000e+00 0.000000e+00 0.000000e+00 9.630268e-01 3.697323e-02 0.000000e+00
 0.000000e+00 0.000000e+00 0.000000e+00 0.000000e+00 9.570287e-01 4.297134e-02
 0.000000e+00 0.000000e+00 0.000000e+00 0.000000e+00 0.000000e+00 0.000000e+00
<ENDHMM>
