~o
<STREAMINFO> 1 39
<VECSIZE> 39<NULLD><PLP_D_A_0><DIAGC>
~h "tujuh"
<BEGINHMM>
<NUMSTATES> 8
<STATE> 2
<MEAN> 39
 -4.157232e-01 -8.121641e-01 -9.526208e-02 -1.615383e-01 -3.431522e-01 -1.212485e+00 -7.582307e-01 -7.988033e-01 -7.433046e-01 -1.058462e+00 1.160872e-01 8.167046e-02 5.229832e+00 8.992808e-02 6.061910e-02 6.407154e-02 1.599124e-01 1.529010e-01 2.627487e-02 -1.290623e-01 -5.400039e-02 -9.708613e-03 -4.078477e-02 -2.025393e-02 -2.922419e-02 3.030541e-02 -5.158820e-02 6.430311e-03 -1.780527e-02 1.075698e-02 2.449531e-02 3.037992e-02 2.933113e-02 2.230044e-02 3.157506e-02 3.593824e-02 -1.483732e-02 -7.514208e-03 -5.458479e-02
<VARIANCE> 39
 2.854814e-01 6.216357e-01 5.701128e-01 8.573293e-01 7.838666e-01 1.121514e+00 9.868706e-01 2.918141e-01 2.567651e-01 3.640061e-01 2.177567e-01 1.835958e-01 8.188591e-01 3.274286e-02 4.928820e-02 2.968808e-02 2.345498e-02 6.271230e-02 3.634612e-02 4.801964e-02 2.885754e-02 2.947163e-02 3.096607e-02 1.846019e-02 1.579825e-02 3.646388e-02 6.598195e-03 1.210540e-02 6.037239e-03 6.129632e-03 1.405224e-02 7.827258e-03 1.178401e-02 6.931820e-03 6.977264e-03 5.333562e-03 4.092089e-03 3.432995e-03 5.160720e-03
<GCONST> -4.755136e+01
<STATE> 3
<MEAN> 39
 -6.802139e-01 -3.743445e-01 -2.249618e-02 5.256366e-01 3.912007e-01 -8.785133e-01 -8.197296e-01 -7.199097e-01 -5.247840e-01 -7.931505e-01 -1.804998e-01 -1.303720e-01 4.836195e+00 -2.010017e-01 -1.578239e-01 5.407165e-02 -3.053077e-02 -2.697534e-02 8.461002e-02 7.426247e-02 1.233766e-01 1.790470e-01 1.416107e-02 -3.686996e-02 7.518379e-03 -3.499531e-02 -1.577860e-03 -1.152066e-01 1.217828e-02 -7.115321e-02 -4.960364e-02 2.146249e-03 -4.382580e-02 -4.134007e-02 -1.162463e-02 -3.471415e-02 5.308658e-02 3.654598e-02 9.838098e-02
<VARIANCE> 39
 1.646570e-01 3.512105e-01 3.822585e-01 5.083430e-01 3.315497e-01 4.054555e-01 4.548972e-01 3.262267e-01 1.582461e-01 2.667832e-01 1.636434e-01 8.834840e-02 5.533996e-01 1.653903e-02 7.466844e-02 2.908740e-02 2.423234e-02 1.963306e-02 3.417511e-02 4.176029e-02 2.673909e-02 2.528272e-02 2.069619e-02 2.221098e-02 1.451628e-02 3.207883e-02 5.311575e-03 7.061616e-03 5.664547e-03 4.854873e-03 5.957170e-03 6.796257e-03 1.393082e-02 7.768981e-03 6.927754e-03 3.538046e-03 2.996524e-03 2.097550e-03 4.613797e-03
<GCONST> -5.972259e+01
<STATE> 4
<MEAN> 39
 -1.343175e+00 -1.799437e+00 4.439992e-01 9.490547e-02 2.395105e-01 -7.799851e-01 -1.039463e+00 -6.644835e-01 2.468543e-02 -1.045574e+00 1.603693e-01 1.113495e-01 5.539252e+00 4.819084e-02 -2.069909e-01 5.727097e-02 -7.042155e-02 1.935768e-04 5.163775e-02 -2.164526e-01 -2.220185e-01 -5.334640e-02 -4.181272e-02 9.030440e-02 5.649455e-02 2.469916e-01 1.481571e-01 1.626868e-01 -5.881277e-02 -1.421990e-02 -2.281624e-02 -2.892201e-02 1.074044e-02 -4.827763e-02 -1.152717e-01 -1.650089e-03 -2.217256e-02 -1.629949e-02 -2.534707e-02
<VARIANCE> 39
 5.083331e-01 2.184062e-01 5.737149e-01 6.883206e-01 4.351988e-01 6.928739e-01 5.893695e-01 5.359133e-01 2.558130e-01 3.305391e-01 9.043773e-02 1.481136e-01 6.052443e-01 4.918741e-02 6.688573e-02 3.438091e-02 1.993234e-02 1.795666e-02 3.243598e-02 3.321718e-02 2.650384e-02 4.999997e-02 1.766448e-02 1.432584e-02 9.904760e-03 1.396535e-02 5.925209e-03 1.270799e-02 8.970384e-03 5.070670e-03 4.580011e-03 8.272337e-03 1.066372e-02 1.127038e-02 8.040565e-03 4.411152e-03 4.415851e-03 3.632704e-03 5.782685e-03
<GCONST> -5.387579e+01
<STATE> 5
<MEAN> 39
 -3.991882e-01 -1.187882e+00 1.670601e-01 8.641803e-02 1.836092e-01 -6.666109e-01 -1.454120e+00 -1.417934e+00 -7.771369e-01 -1.103305e+00 1.811445e-01 1.474675e-01 5.723886e+00 2.742398e-01 3.075935e-01 -1.432891e-01 -1.637259e-01 -1.867836e-01 -4.591687e-02 1.261710e-01 3.848425e-02 -1.547130e-01 -6.934011e-02 -8.777276e-02 -1.323759e-03 -4.197054e-02 -4.539179e-02 8.471636e-02 -1.112312e-02 -1.044060e-02 -4.226426e-02 -3.103952e-02 1.237872e-01 1.292371e-01 6.599012e-02 1.983009e-02 -5.915894e-02 -2.716029e-02 -9.591457e-02
<VARIANCE> 39
 2.376702e-01 4.636565e-01 3.510222e-01 5.399585e-01 3.417000e-01 8.154047e-01 5.356762e-01 4.090787e-01 3.259268e-01 2.508646e-01 1.498218e-01 1.062747e-01 5.960738e-01 2.810512e-02 3.236361e-02 2.400510e-02 1.999286e-02 3.512518e-02 3.527270e-02 4.645913e-02 4.997670e-02 4.807073e-02 1.753844e-02 1.662570e-02 1.851576e-02 1.414127e-02 5.528430e-03 1.024614e-02 6.533891e-03 5.351859e-03 5.468649e-03 6.569002e-03 6.759477e-03 4.440556e-03 6.800400e-03 3.437203e-03 2.674825e-03 2.070111e-03 1.982875e-03
<GCONST> -5.865383e+01
<STATE> 6
<MEAN> 39
 -2.694063e-01 -7.061764e-01 -2.923572e-02 -9.295880e-01 -4.499054e-01 -1.027862e+00 -8.133297e-02 -8.529188e-01 -5.955884e-01 -1.107009e+00 -2.450657e-01 1.317787e-01 5.298589e+00 2.414784e-04 5.300012e-02 -8.612595e-02 -7.794606e-02 -6.140274e-02 -1.676078e-02 1.205859e-01 7.660170e-02 4.491542e-02 6.007118e-02 -4.234521e-02 1.701594e-02 -5.789297e-02 -2.645648e-02 -5.015578e-02 1.323005e-02 2.123792e-02 1.750856e-02 3.729169e-03 -2.814925e-02 -1.663296e-02 1.490025e-02 1.800531e-02 2.334420e-02 4.496823e-03 1.777473e-02
<VARIANCE> 39
 2.434782e-01 6.178316e-01 6.767430e-01 1.080766e+00 6.038265e-01 1.009749e+00 9.130943e-01 5.869955e-01 4.673306e-01 3.103071e-01 2.139887e-01 2.519377e-01 1.213458e+00 2.576401e-02 6.724914e-02 4.228226e-02 3.589826e-02 6.485865e-02 5.225633e-02 4.251274e-02 5.126105e-02 4.032343e-02 3.430306e-02 2.924966e-02 3.104024e-02 5.052594e-02 5.650420e-03 9.643020e-03 8.292899e-03 6.684504e-03 1.159884e-02 9.945301e-03 6.432468e-03 8.873716e-03 9.381545e-03 7.346425e-03 4.602309e-03 6.140138e-03 8.666798e-03
<GCONST> -4.080494e+01
<STATE> 7
<MEAN> 39
 -6.023177e-01 -2.904442e-01 -5.975485e-01 -6.367006e-01 -7.137762e-01 -1.037075e+00 -6.298413e-01 -4.965022e-01 -4.265292e-01 -8.121525e-01 -3.149793e-01 6.532250e-02 5.252731e+00 -6.067676e-02 -3.522900e-02 -5.501198e-02 -2.385152e-02 -1.494604e-02 -9.785116e-03 4.485005e-02 1.134584e-02 2.359109e-02 7.191151e-02 3.256093e-02 1.754640e-02 -4.271668e-02 -8.347437e-04 -2.356752e-02 -3.090606e-03 2.547356e-03 1.238830e-02 3.164111e-03 -9.792403e-03 -1.345246e-02 -6.708497e-03 1.009730e-03 1.247545e-02 5.698249e-03 1.291986e-02
<VARIANCE> 39
 4.105158e-01 4.161028e-01 3.007296e-01 5.368418e-01 3.453810e-01 3.796087e-01 3.944506e-01 2.345274e-01 2.454839e-01 3.485473e-01 2.290195e-01 1.671368e-01 7.738698e-01 1.674676e-02 2.460406e-02 2.279801e-02 2.049303e-02 2.172852e-02 2.958528e-02 2.308857e-02 1.447722e-02 2.170668e-02 2.040144e-02 1.675055e-02 1.297958e-02 2.096371e-02 2.743553e-03 3.921382e-03 4.017349e-03 3.345067e-03 3.991728e-03 5.671287e-03 4.600514e-03 3.652198e-03 4.049667e-03 3.980722e-03 3.108819e-03 2.436197e-03 2.421403e-03
<GCONST> -6.633752e+01
<TRANSP> 8
 0.000000e+00 7.633173e-01 2.366827e-01 0.000000e+00 0.000000e+00 0.000000e+00 0.000000e+00 0.000000e+00
 0.000000e+00 7.944568e-01 1.974291e-01 8.114086e-03 0.000000e+00 0.000000e+00 0.000000e+00 0.000000e+00
 0.000000e+00 0.000000e+00 6.265066e-01 3.686793e-01 4.814168e-03 0.000000e+00 0.000000e+00 0.000000e+00
 0.000000e+00 0.000000e+00 0.000000e+00 5.558299e-01 4.385478e-01 5.622299e-03 0.000000e+00 0.000000e+00
 0.000000e+00 0.000000e+00 0.000000e+00 0.000000e+00 5.661633e-01 4.338368e-01 0.000000e+00 0.000000e+00
 0.000000e+00 0.000000e+00 0.000000e+00 0.000000e+00 0.000000e+00 7.740055e-01 2.259945e-01 0.000000e+00
 0.000000e+00 0.000000e+00 0.000000e+00 0.000000e+00 0.000000e+00 0.000000e+00 8.123037e-01 1.876964e-01
 0.000000e+00 0.000000e+00 0.000000e+00 0.000000e+00 0.000000e+00 0.000000e+00 0.000000e+00 0.000000e+00
<ENDHMM>
