~o
<STREAMINFO> 1 39
<VECSIZE> 39<NULLD><MFCC_D_A_0><DIAGC>
~h "tujuh"
<BEGINHMM>
<NUMSTATES> 6
<STATE> 2
<MEAN> 39
 4.906311e-01 -1.264077e+00 1.485287e+00 1.233897e+01 1.998124e+00 7.534949e-01 -5.788895e+00 3.242650e+00 -1.238086e+00 -1.140375e+01 1.699138e+00 2.978365e+00 5.087168e+01 4.473203e-01 -4.212099e-01 4.212835e-01 5.365618e-01 1.877704e-01 2.321803e-01 -4.627906e-01 -1.080187e-01 2.469079e-01 -2.774608e-01 1.650632e-01 1.730284e-01 5.451210e-01 5.456682e-02 1.086906e-01 -2.963133e-02 -5.250957e-02 6.178137e-02 6.286480e-02 -7.758327e-02 -9.204593e-02 -1.684326e-02 -3.531159e-02 -3.658472e-02 8.012666e-03 -7.956449e-03
<VARIANCE> 39
 3.060414e+01 1.059935e+02 4.690337e+01 7.266988e+01 6.798931e+01 4.190171e+01 6.041780e+01 5.201849e+01 3.527183e+01 5.958646e+01 3.749492e+01 3.275500e+01 4.474594e+01 3.119680e+00 1.614431e+01 4.615242e+00 4.385804e+00 8.485566e+00 4.645273e+00 8.277801e+00 6.274105e+00 3.914647e+00 7.725035e+00 4.988289e+00 3.770822e+00 5.474221e+00 4.811895e-01 3.563435e+00 9.980932e-01 8.027900e-01 1.686155e+00 9.068333e-01 1.468099e+00 1.173645e+00 8.249215e-01 1.489797e+00 9.856184e-01 7.666873e-01 1.016815e+00
<GCONST> 1.462920e+02
<STATE> 3
<MEAN> 39
 -6.810654e+00 -1.469963e+00 1.665521e+00 1.515897e+01 1.599749e+01 3.447653e+00 -8.637294e+00 -2.432881e+00 -4.565274e-01 -1.797585e+00 2.554470e+00 8.792080e-01 6.858289e+01 2.137598e-01 -3.052519e-01 3.382659e-01 2.881114e-01 6.110198e-01 3.612137e-01 -5.830642e-01 -4.593064e-01 -1.251064e-01 -2.267231e-01 4.214066e-02 7.590014e-02 4.222124e-01 7.939669e-02 9.103604e-02 -1.669655e-01 -1.309581e-01 -1.340058e-01 1.372735e-02 5.512827e-02 2.577579e-02 -8.696830e-02 -5.585907e-02 -5.564314e-02 4.351481e-02 -5.027522e-02
<VARIANCE> 39
 2.463049e+01 5.047365e+01 4.147717e+01 2.407807e+01 3.223837e+01 3.236868e+01 4.634085e+01 4.928799e+01 3.250628e+01 2.302178e+01 1.578750e+01 1.848330e+01 1.497104e+01 3.525778e+00 5.014334e+00 3.684772e+00 2.359668e+00 3.475896e+00 2.035028e+00 4.941973e+00 3.797424e+00 3.877362e+00 2.281364e+00 1.594085e+00 1.157573e+00 1.850719e+00 5.278581e-01 9.353982e-01 7.546440e-01 4.391563e-01 7.018547e-01 4.104875e-01 9.201968e-01 7.997341e-01 5.767205e-01 3.908480e-01 3.336115e-01 2.187244e-01 2.771665e-01
<GCONST> 1.199730e+02
<STATE> 4
<MEAN> 39
 3.502267e+00 -3.231150e+00 3.898025e+00 1.023228e+01 6.098011e+00 7.547999e+00 -1.304106e+01 -1.864192e+00 1.057915e+00 -1.544309e+01 -1.359248e-02 5.920527e+00 6.388505e+01 5.214288e-01 1.525594e+00 -9.280531e-01 -1.618023e+00 -1.154518e+00 -3.239763e-01 1.264309e+00 1.670680e+00 2.749727e-01 -6.142995e-01 -9.709587e-01 9.202813e-02 -4.338490e-01 -4.704100e-01 7.211235e-04 9.305118e-02 1.290759e-01 -9.307197e-02 -3.190184e-01 5.763199e-01 4.628058e-01 2.747024e-01 4.696419e-01 -4.104964e-03 -3.208530e-01 -2.847898e-01
<VARIANCE> 39
 1.789578e+01 3.286641e+01 3.117887e+01 3.277449e+01 9.099522e+01 3.158324e+01 3.383532e+01 8.719776e+01 8.219006e+01 4.121969e+01 2.783044e+01 2.424437e+01 8.408945e+01 1.450916e+00 1.426728e+00 2.698732e+00 2.174197e+00 4.461368e+00 3.063778e+00 4.361022e+00 3.630841e+00 2.686995e+00 3.373835e+00 2.305717e+00 2.512389e+00 8.456993e-01 1.707841e-01 2.778804e-01 5.643892e-01 6.485769e-01 8.883580e-01 4.988385e-01 6.658608e-01 9.667121e-01 7.810581e-01 5.679174e-01 4.800013e-01 4.019445e-01 1.136361e-01
<GCONST> 1.217384e+02
<STATE> 5
<MEAN> 39
 -1.804826e+00 5.720135e+00 -2.304930e+00 5.398307e+00 3.273303e+00 1.280043e+00 -2.197177e+00 3.369999e+00 5.908513e-02 -6.656957e+00 -3.062388e+00 1.291665e+00 6.021805e+01 -5.119215e-01 2.584598e-01 -2.523190e-01 -2.260602e-01 -3.681290e-01 -2.294279e-01 5.433779e-01 -1.035027e-01 -1.711192e-02 6.336851e-01 -7.393620e-02 -1.418216e-01 -5.585251e-01 4.504998e-02 -1.872930e-01 7.759098e-02 8.111263e-03 1.963274e-02 9.744958e-02 -1.913253e-01 -1.698327e-01 -1.482645e-02 -6.336512e-02 1.011021e-01 1.147198e-01 1.362466e-01
<VARIANCE> 39
 3.905015e+01 3.780742e+01 4.623278e+01 5.352270e+01 5.045784e+01 4.323806e+01 5.217092e+01 6.420753e+01 2.830797e+01 3.960890e+01 1.979853e+01 2.455867e+01 1.304198e+02 1.235238e+00 2.167613e+00 2.867116e+00 1.650416e+00 2.702330e+00 3.008955e+00 3.274478e+00 2.875945e+00 2.484554e+00 2.827891e+00 2.029113e+00 2.209681e+00 1.400611e+00 1.858217e-01 2.436556e-01 4.581640e-01 2.828009e-01 4.249972e-01 5.252719e-01 5.988166e-01 5.359273e-01 3.808386e-01 4.655852e-01 4.217767e-01 3.454811e-01 1.726420e-01
<GCONST> 1.181499e+02
<TRANSP> 6
 0.000000e+00 5.712886e-01 4.287113e-01 0.000000e+00 0.000000e+00 0.000000e+00
 0.000000e+00 9.431168e-01 7.101267e-03 4.978193e-02 0.000000e+00 0.000000e+00
 0.000000e+00 0.000000e+00 9.505136e-01 4.948639e-02 0.000000e+00 0.000000e+00
 0.000000e+00 0.000000e+00 0.000000e+00 8.179163e-01 1.650141e-01 1.706964e-02
 0.000000e+00 0.000000e+00 0.000000e+00 0.000000e+00 9.140806e-01 8.591942e-02
 0.000000e+00 0.000000e+00 0.000000e+00 0.000000e+00 0.000000e+00 0.000000e+00
<ENDHMM>
